function [Y,Xf,Af] = MLP_7DoF_ZWrist_YGrasp_06082022B(X,~,~)
%MLP_7DOF_ZWRIST_YGRASP_06082022B neural network simulation function.
%
% Auto-generated by MATLAB, 08-Jun-2022 11:29:18.
% 
% [Y] = MLP_7DoF_ZWrist_YGrasp_06082022B(X,~,~) takes these arguments:
% 
%   X = 1xTS cell, 1 inputs over TS timesteps
%   Each X{1,ts} = 96xQ matrix, input #1 at timestep ts.
% 
% and returns:
%   Y = 1xTS cell of 1 outputs over TS timesteps.
%   Each Y{1,ts} = 7xQ matrix, output #1 at timestep ts.
% 
% where Q is number of samples (or series) and TS is the number of timesteps.

%#ok<*RPMT0>

% ===== NEURAL NETWORK CONSTANTS =====

% Input 1
x1_step1.xoffset = [-0.324833826159956;-0.395028142893865;-0.31868760560858;-0.248040604427808;-0.283691043941236;-0.261787247410533;-0.300755483952154;-0.333014774192629;-0.28041364184306;-0.371461760955783;-0.268302106516476;-0.263215338860923;-0.277162297364244;-0.273535659242906;-0.221652302862443;-0.322671738327293;-0.286374649171669;-0.249785569640876;-0.3352128042664;-0.302577168775163;-0.223725779885402;-0.422851277494949;-0.319745974049529;-0.232439578306048;-0.280717799203045;-0.318322148612445;-0.260645146783852;-0.233207792528318;-0.299866837083375;-0.211340318716354;-0.218923337102729;-0.3408426178115;-0.243108688117404;-0.230693923641228;-0.269653139028526;-0.235771392185684;-0.278349198448534;-0.253878455909827;-0.338550528893891;-0.27855599520711;-0.271347251904089;-0.181625394568421;-0.216230361284479;-0.310852846745263;-0.165300060949226;-0.32962453254647;-0.367919137787524;-0.250015104759094;-0.28803515982627;-0.399741726222234;-0.250752667871646;-0.261188591341891;-0.253233912008826;-0.206596329943962;-0.242026548514845;-0.281712494980356;-0.276857924628313;-0.273451305861435;-0.313040985908361;-0.222241136127696;-0.263638374569863;-0.239445007226501;-0.239946184477951;-0.31856513855955;-0.370398348031657;-0.285364099766496;-0.313551652106254;-0.37379028315923;-0.368929519467028;-0.376407328531504;-0.332851761108287;-0.355998774214383;-0.233781156197783;-0.340003101752744;-0.219808821906331;-0.316653727419454;-0.380435058549454;-0.271101226581825;-0.386294124365326;-0.324328005547529;-0.234057744792631;-0.327855898053428;-0.359851556603274;-0.251728651254689;-0.338908099752505;-0.382553055564828;-0.261964435977941;-0.350227919907406;-0.329670447163972;-0.298749925709167;-0.375137061839251;-0.316431675504242;-0.294174098878729;-0.39334195968619;-0.385906562709793;-0.298687953774974];
x1_step1.gain = [3.15429507906689;2.50217517526362;3.13058896696523;3.86477554971717;3.24142116234565;3.9127591956715;3.37595013482055;3.0627707188039;4.14732048344764;2.99219755269602;3.37713245304458;4.44597738040263;3.68981041770461;3.48882402805546;4.65903131726699;3.19367126346847;3.1881425437134;4.0398387863177;3.29704152305137;3.47601802001404;3.63163384165698;2.69635192043956;3.23533348957464;3.29569686161125;3.3551704570499;2.72141523110848;4.07551151959238;3.66427456556459;3.03234820074186;4.33506675193854;3.88757502748391;3.15648609617647;4.49225349419457;3.96959098736327;3.33382627062852;4.43356805603911;3.56619706073301;3.59525736395858;3.23939573977937;3.43247420024893;3.6369068911436;4.09831332714097;3.7762603266805;3.48087102200076;4.93922088403191;2.95140487710724;3.01019372079577;3.25262436275342;3.32091422918228;2.73311121343084;3.71477258393756;3.25795413401538;3.5288858989893;4.71365828712802;3.89918875787538;3.0937608074681;3.50508723473267;3.78081885671742;3.40876591326453;3.99460403542177;3.88155662352797;3.96745165533962;4.82591062647175;3.15342580832303;2.96998571448;4.20612035074219;2.79662565683546;3.03901716631985;2.96061385418519;2.64557976659648;2.94413373186094;2.86420076233201;3.32494355114242;2.86904811170313;3.62649050887056;3.30480630211942;2.82101029875842;3.23839509231542;3.07367243649403;3.03666043828764;3.31094355637342;3.22591572579389;2.78931548434233;3.42581086091525;3.37454566980828;2.76736733277891;3.8768966604681;2.96361005199175;3.13361666583233;3.24627306407216;2.36105177685902;3.01735414060114;2.86072606615563;2.61575119354224;2.31370074401539;2.57825086492562];
x1_step1.ymin = -1;

% Layer 1
b1 = [1.297562089183283307;1.2272211053097037414;1.0646400844516408224;-1.0364448068558185234;-1.1348268702984896095;1.0721285778310585268;1.1514506888021631692;-0.7847644177245605146;-0.75475672852776565236;-0.85764805348551997888;-0.55135855604253625195;-0.8321437607362818234;-0.72582808451030844665;-0.61349014460857620445;-0.48819553266098519861;-0.38811312303385631095;0.38588725545545643492;-0.50573386026216049505;-0.18800142426161911557;-0.030564473674595679653;0.16327604429615175108;0.024604411512140142437;-0.086584201110278480318;0.068567391883622624826;0.15403744571221902881;0.22203726989405683789;-0.3405734740446282327;-0.1453490004393112045;-0.17005279741500411994;0.58271463406798706952;-0.49662523571978184345;0.4486032450886376366;0.46934450764396029587;-0.55515246074546986677;0.37887789243291891683;0.68022707079557132026;0.96632337850749738806;-0.75543455403096693157;-0.64024943509225418214;0.69415758923710835226;-0.86233356123232784984;-0.95499419270823682204;-1.0475778488045719428;1.1601390331193579541;-0.9564920996668899722;1.1513702916700820911;1.3083824468939069252;-1.3555372070707518706];
IW1_1 = [0.0055514049608236240227 -0.30412322245895284656 0.0639595415621453528 0.049226985801464992476 -0.027626602898357208171 0.079853238414874475048 -0.27691807723472616765 0.10171189240056506542 -0.1753089187726178666 0.081962153800174172846 -0.15455848033663141528 0.17848655374881641777 -0.13964393284985110455 0.062988945133343465788 0.18318688861041745874 -0.26142852543978156721 0.078508277278841187563 -0.10471181733242561351 0.053182958446130350338 0.091166018152459199486 0.098957101621366880262 0.1300959391745870608 0.031922832056050745586 -0.44732015864889979051 -0.13190917537726135067 -0.33066129855353298961 0.22857100976171543238 -0.22852063111841064424 -0.090556506612021317459 -0.3302790404319728701 -0.063263858625288896254 0.021745666184668218518 -0.21823457670084051019 -0.010138133559517582133 0.055124360863315992332 0.03054275809505372502 -0.30344361707587469423 -0.11377398151174702989 -0.27413692295310576608 -0.0050774263631084125964 0.31469633447941591786 -0.11788385808788064135 -0.0062255323264107523609 -0.14431672991855604149 -0.4112797757415769806 0.092069670133837891446 -0.25448175755481422522 0.032860683926595871118 -0.050127523576480779999 0.079604274080033649019 -0.029913139579512033894 -0.079431774100524002447 -0.06275964801899650003 0.087745659580904647457 -0.2902792561539743188 -0.22736923385170054734 0.23566042306909534831 0.15066504670851740832 -0.086493098486387531842 0.23833685989047112552 0.025368884162506336044 -0.12177767501389685778 0.13994812690300992286 -0.0072884221364172170621 0.25364339643335531704 0.0014949795459936951469 0.13099943547378861686 0.17366867247287914866 -0.060662162160941363043 0.035448512729082240491 0.16794792579730283277 0.040096866333077081646 -0.024310411756024368629 -0.15609570170629644137 0.1569266683965465925 -0.057695683676135860185 -0.032759057409325699484 -0.022513549275550756579 -0.21436634474436663811 -0.11788521976567729876 0.077207675580495266354 -0.0243468422390053299 0.17661879672564231858 0.24108706335341356652 -0.12520019675274432491 -0.034447233038455954413 0.030305161142522019091 0.063886888588360321584 0.10304507557845982157 -0.058330828070719660527 0.15841177936372499713 0.24080296038395043734 -0.13784929043029686691 -0.23124318687723469101 0.2484122832144569637 0.017597006291186701593;-0.096042573387404892027 0.27525564098724997208 0.31842412840809075636 -0.13881800651006337421 0.35947801122581640731 0.22553669359762290592 0.21223663962716290965 0.17140104475706585685 0.049853110456387531024 0.065204675041799428636 0.19562980754692907426 0.20709403327673625572 -0.030647239963439834587 -0.025947391992812533779 0.16913974990284152966 0.17647519697705921216 0.063588503621086298057 0.26730616441145593765 0.034438583665319391636 0.16602889276371710081 0.31475299517948884809 0.14547170127796321681 -0.12980849630008023388 0.23606348444616517823 0.055235777910351370468 0.17824027411682202837 0.11735769202323161065 -0.2385323900567716815 0.1621133475661520329 0.12735191786276683912 0.09975480018693806683 -0.0088278666336714141372 -0.11407347240986856485 0.34008044083906502353 -0.15722461056055167528 -0.18972235168656864657 0.060058581070868442831 0.059096506266523664286 0.24018336621028701927 -0.0095076723940901719523 0.12945614951959452665 -0.010543245657567075144 0.093701960252876304036 -0.11697815065914823895 -0.16295166452174114635 0.024023338373163186099 -0.15570973654610331671 0.23738901135214243721 0.017936072508784560442 -0.15964738210423451426 0.10231302944821915601 -0.08156935843743277903 -0.075297738382399670432 0.0056362617261057571666 0.31664987073986611277 -0.049132041900276771096 0.038566781764965321622 -0.048886627142980913774 0.20084030158806137623 -0.25236593541341129088 0.10467753522996053883 0.13996162067226497472 0.13592750583320367674 0.08028716380337454217 0.12304854980961774102 -0.18166458092235679422 0.1964093959601575512 -0.20869412752721455684 0.05838073386729947245 0.1454470285532102336 -0.084341888480893356661 0.51096373073012935073 -0.23805530751327605432 0.024043493474105268048 -0.31449197519039751025 0.023673628121114679429 -0.097948484348372916175 0.10947731838203532406 0.055898659701469087524 0.24575236974899433706 0.022177911189538757758 0.22916474030667260964 0.13719188566907722371 0.063495980460339121465 0.25289446204265320084 0.17949146107132230021 0.13285564043920855548 0.082397255912509639875 -0.062359862270188755329 0.41828417122814920415 0.24320373598826194872 -0.038523779278349580546 0.44392273867891163253 0.31833692228520765743 -0.034674101047977252954 0.50846882526699543892;-0.18331030164916492509 -0.28211591034854865967 0.18250284554499257572 -0.07234379874024185475 0.21149638227240150079 -0.0049644820164550006528 0.047901276288474813059 0.02536684158104394321 -0.061529801864607026884 -0.00059424306442562579988 0.29863984638131046978 -0.24681526814771748146 0.028185959748858145646 -0.19470452437508975474 0.25680148841406441607 -0.1300527700173450818 -0.38727093727065342588 0.074913807232980744732 -0.079379431089600716032 -0.096640330043109193281 -0.025960589709036089451 -0.05080166137329911874 0.066394065085887341016 0.039157351768132800385 0.24057313394718018995 -0.16709862453276580485 -0.182225353893244707 0.11720840195870103895 -0.011307967852044581089 0.25599974122414170807 -0.22206750482493753385 0.13135988871344933537 -0.17190424863544193079 -0.27341187610304190647 -0.088883323502141051153 -0.21799410020760262574 0.16460727872130315186 -0.20726059185946082986 -0.12265650036165166858 0.13494108218151512624 -0.13489702745214657287 -0.01869184982139814391 -0.023433861192482391411 0.1103194146305245954 -0.040471635666729961767 -0.052119500884637903759 -0.058475589258587923336 0.17270397120091723897 0.092081098492136595479 0.20660121228680619621 0.12757563324437645735 0.23074415003874382268 -0.067646728240860737325 0.090502031668759724825 0.033464259255298500761 -0.26000185311564721902 0.20131504594227386806 -0.2079277850486875856 -0.15858943276364945163 0.10316496405237739198 0.13021297870744877323 -0.24247616554503390041 -0.15144248968036266856 -0.097420364934882874852 -0.022617998072560676487 -0.050463189868685434658 0.071314985697099250728 -0.099864746427926393002 -0.09306423871425759109 -0.2524697142102752534 0.1833079557918112501 0.082985464786625537381 0.07344591016186097221 -0.27884748966561850869 -0.20089707172228721266 0.018696079248830460573 -0.050219064381857345114 -0.06156568259408386895 -0.12561242696743865621 0.23136082574788327526 0.13792574078204974941 0.1424936795613784557 -0.26180338830068611289 -0.036884812865768203116 -0.2283993490815756644 0.16989066795561583167 -0.047877522577058080622 0.23014305746145555243 0.015322154382272842876 0.4402066624954695806 0.1849152048682636551 0.027846959547356921194 0.19432559852731676187 0.15957997556297448538 -0.050996192472996498823 -0.20639974319532605751;0.20781137442483205158 -0.035120126665847871406 -0.016452150884051747193 -0.11126125208099842123 -0.064118099246212215125 0.32989440995238167309 -0.21314686390565906748 0.26878441431190297495 0.2385653549199517609 0.18703384236164760646 -0.049680813050469965764 -0.18981457859350350792 0.36509872098736195767 -0.071125315540426697902 0.14294747617489406144 0.19520292093933536148 -0.00053374898681133784405 0.29693007575399388287 0.40033405895546914088 -0.16560340097353384858 -0.0087024190004705084811 0.075145847452200750793 -0.22952202074697927725 0.1587333504119563532 0.25612764472938820415 -0.22578558629409833935 -0.14169939890021457374 -0.28481338890905139039 0.19202069430228504987 0.14515774129111588819 0.011313135069239073013 -0.025019536927773262935 -0.10278971713142540101 0.2447392279377932911 -0.12390546574017025083 -0.037351814997452610634 -0.034463540758282555643 0.00049597434350040752599 -0.088629590192429885676 0.27131585314608624993 0.042715484077179788347 -0.23749422915779369592 -0.067817425755871463267 0.24385837570491261661 0.033747893082628273309 -0.19903089922911396115 -0.099573095286755397559 0.072738570446499173361 -0.15087159043924205926 -0.089589161397065006365 -0.32992915953513818339 -0.26803085804274789927 -0.047829503511569497476 0.10918048911940614332 0.17125341206983590858 -0.010326328581926148831 -0.10322757742555138671 -0.045177808162267907299 -0.32432587788985833832 -0.25618436313240666724 -0.38654626053245561002 -0.091317372338140037624 0.010869015218587695787 -0.17293782016129444212 0.054025312233523213601 -0.15601175598960578816 -0.10173599394310237076 0.074263893273689735031 0.14446913526267496364 0.088830444723455068146 0.24280554406281398827 -0.13066233765943474632 -0.26165480747409303186 0.032379220437259687015 -0.1285950669335501062 0.2133758878928171121 0.043959191392891831807 -0.13475903940173220019 0.028180654870244299659 -0.18464786594342549875 -0.25539357811286983457 -0.068638488760827925939 -0.034774226809687600048 -0.070069507809856698688 0.11546239424007197216 -0.31150554147320680398 0.083186994787019172271 -0.17311090986311528095 0.046409962079320667139 0.35173114460954552074 0.0080105440944165957201 -0.049355027611713661595 -0.065270385428264895977 0.16280386628741888577 -0.21382110443706420222 -0.41367054114033796619;0.15912917774635701451 0.044305803406265296951 0.033856921253035646147 -0.30451139168559626658 -0.21376643667443265273 0.025503122313474395344 -0.029077584101686013845 -0.022324779663533279861 0.16894628441920464534 0.13834696946138283491 0.014952434968479028435 0.015688843070769759036 0.28474227238823651698 0.17058815377988464923 0.27991742657646095926 -0.17532789861875078263 -0.02096672069111771286 -0.099104545595441434491 0.29104560869685780489 -0.0046645188711765765005 0.071131444334391544237 0.35641622526675692528 0.15336834794448281349 -0.21651058606974268872 0.084387330197407017796 0.19480716905437972519 -0.080096452956262220724 -0.0044432919035559854948 -0.1621755068543287992 -0.28455075036356503038 0.10049036156808481557 -0.09857913947078082717 -0.062996727672489927219 0.11332940284578223167 -0.10571603917109732851 0.43998254803280051339 0.21591704878812867374 0.028145547773976417605 -0.25249143676901875111 -0.10344113338813638869 0.015207614286580989349 -0.056698130338876960577 0.19739164227036121169 0.1642987858831478909 -0.26178855600727723996 0.396782285792811662 0.025102578455689323472 -0.14070616239699598737 -0.3277468118464393898 0.16910011395292273706 -0.12811296065443164571 -0.2408144130990299836 0.25145223577262593162 0.14467365093323303338 -0.095858753776198082908 -0.32695286415256907819 -0.062016171158461343149 0.0012260230504308917976 -0.18884601009165913332 0.39939755309079022494 0.44514188070739457714 0.36365364292723323381 0.010094357789356349364 0.10192663032912771537 0.23230691946432105444 0.23359178282195594556 -0.0746426746177473871 -0.10208278122110435449 -0.10354350686263799619 0.24797815091456140713 -0.011364695174743231348 -0.26285495140892750632 -0.26901509296943904026 0.41993770940960667426 -0.0067008289298203594156 -0.12772020442060869061 -0.056611154191621909648 -0.18756705431735845591 0.4264018696290897692 -0.14283770589057109834 -0.0097681680834445488298 0.25057101488778477094 0.15312095201135189626 0.00033709761881452974391 0.021610621238532301547 -0.16518122827782513729 0.27661347495941940311 -0.045504506528133772947 0.071719581578467098137 0.1101236483712225156 0.20371911328275912889 0.15259091974633456901 -0.22118193683625195223 0.044388336150379445466 0.083392396672115592926 -0.33071723174309303195;-0.23014017741467915346 -0.093508842197010791364 0.14787259648919975907 0.15255593609834544599 0.25910336407384326751 -0.090933636648907523181 0.23260408405217100625 0.110660157607445922 -0.00022752784109563578552 -0.0031051562211078147582 -0.019211859450756575696 0.20581686774067090018 -0.1537006474710549131 -0.075104129071751860036 0.15685960933053957889 -0.14365344565115573117 0.079393952221456273732 -0.21333580178403663274 0.24578228158245285506 -0.063081083259555983944 -0.12102271130866774917 0.041637427145798218409 -0.07483360271179154144 0.26768022831387044969 0.22081536999910258978 -0.0035400460766679799421 -0.063042541486033887299 0.18301522650275131587 0.13622731514199737379 0.10386249907709986517 0.011010889696273415059 -0.14771461934363847024 -0.11648727148752768823 -0.13965772880382673615 0.12989495733243594522 0.24774108812924475198 -0.1385996144850555889 -0.24939473401023795618 0.17037453580127961961 0.026878698010903475518 -0.0054626637563121461377 -0.072097402880638025713 -0.082838352410150750682 0.1718075338882699421 0.042615871945211554472 -0.038325894406852842322 0.14610749986442461701 0.37560734073089518947 -0.24489657607046150245 -0.20290174202047528418 0.010227799210390044887 -0.019652617672629105888 0.2228692001493939312 0.20626690678458178829 0.24301298989578898335 0.09238776901636645833 -0.017225154204939946423 -0.13488645592811923657 -0.1324702988353222699 -0.019720852745599207895 0.033946715881731183428 -0.071196936237851060625 -0.23230854322718652583 -0.055041976543551751622 0.23764380859674821833 -0.17543938113344986762 -0.17763184603924536686 0.23590374237380928868 0.25880030067393772208 -0.16140004176150457571 0.023158671774318108361 0.18289958098015324239 0.096284802858882981291 0.19511054771154190401 0.12972537843570403071 -0.12893613448927099263 0.015540920405079233779 -0.022532594539378936888 0.066399382240333246208 0.28037201114058091234 -0.17604549674615033172 0.25677435318654034946 0.10400375850504992026 -0.1536250318161860029 -0.10776488046075022309 -0.063639881133266323898 -0.13914414447071990488 -0.084618315492951984291 -0.021434939311747131657 0.29431733411315530446 0.027208133406727671305 -0.0094795036937204042726 0.015631969045464128021 0.048890101394663140755 -0.11263683453573662685 -0.090959881575526577158;0.078408780017345275359 0.19419770924439477833 -0.041890619609254789446 0.25803945579244252917 -0.06673500684644562142 -0.33865419846178873575 0.36750314553667917661 0.035895578376671198606 0.02881637019552658191 -0.10713273158292085929 0.30139291726191297371 -0.14023572289211144737 0.1952437776180668827 0.079175975384465885343 0.15979036753154576833 -0.061759031380981092851 0.11089283366377541973 -0.32936951311300127765 -0.008773136819318169688 0.38669988010889055907 -0.095330989802307961045 0.00226632517020239517 0.10053351437681311287 0.35896285017064327727 0.54178126225076461697 0.18902202050958233359 0.075137563303081897348 -0.33419689961112930554 -0.1762043967271577638 -0.06874750612319031895 -0.16997702175714321515 -0.11083819161216147686 -0.19574351918962965002 -0.14097881482495808192 0.11583050470686465094 -0.29888362998966649942 -0.24128182415881876954 0.15105185663339465441 0.1090444447561096375 -0.12895631159267936794 -0.075589133619299864186 -0.19261018597707801892 -0.440141095897532586 0.18575354422994505565 0.019415837260027563743 0.20468412821924222844 -0.018691787094336019537 0.13910359744165831652 0.063232100741531307997 0.27623991833767425064 0.090247767342191184681 -0.046912146344459948466 0.37051960491172458712 -0.22783529281707631808 0.26136660512630488507 -0.23628252324968435083 -0.24685883079227943782 0.20308990373444096855 -0.1794809672800245226 0.11005798478540472496 -0.18104200724145258494 0.064439459818850658435 -0.092515894958809422044 -0.3340119815871558373 -0.2447429319461537911 -0.027580839626637796563 -0.45077835846230079886 -0.045566902979818232899 -0.30281069354363626678 0.19306513037632327956 0.11004242425362391333 0.11706192379565619199 -0.045769257395751043738 0.00056528605776227100824 0.62163289825261536237 -0.15545709492231701843 0.36637333521298964811 -0.0025463607933745263483 0.12345742364022108117 0.4575039431740473006 0.34569943459681889975 -0.20917784468859967895 -0.027270682363853746694 0.073192516329599180414 0.014819052891005863801 -0.0074679433641471320432 0.49250712350902570158 0.19590867960777103018 0.042396316441241553574 -0.035651937225370189388 0.1380218500568860529 0.23295345647024776059 -0.45183633124315430996 -0.12800552459128877736 -0.17354864081846407831 -0.76543533988361467379;0.0071214908201770506929 0.099026958214795332558 -0.20848583152615179914 0.10275098893096090702 -0.25891380658573404094 -0.20312186145787888836 0.16362307459545380461 0.059117810498907422123 -0.24479711811587695491 -0.10089413200820469829 -0.34793908431718406638 0.1002051602046463985 -0.10730884484300325099 -0.16441228538487229205 0.25967276721798404626 -0.24663072055303641994 -0.0059461645631858298794 0.10695949858627849804 -0.22827304787291902155 0.11392187830314196018 -0.14059783602180819795 -0.1464827665420939673 0.15839659070731421098 -0.20615729363992091328 -0.057480829217843025514 -0.24564640787158520396 -0.10845969686993085779 -0.044813838646025554169 -0.013084130124805375475 0.14370449433242071802 0.079116194647335366663 0.17397150288719001598 -0.070330512281115115103 -0.21300441141647086241 0.19037489819994904416 0.064844861015731045106 -0.059201083691739257719 0.056175854550139021903 -0.035232180013570937871 0.067780118064899030905 0.10648099247251964494 -0.33242030815398426746 0.067429196351336317949 -0.21489323345974320478 0.21417089200284436523 -0.071236106690578684941 -0.34077344359646805083 0.21474725000673616782 0.047314597515693869456 -0.037844608286689326859 -0.18856899590652781429 0.20925211685279415663 -0.022328281926107557132 0.15894982936299309473 0.20924421332085363368 -0.19337211135058260392 0.0092475138006312476713 -0.12118379872281741239 -0.132008277916429273 -0.22551256744579262215 -0.24512074754664925358 -0.25478585764559291693 0.18373318573880165205 -0.15509025074034260561 -0.098249879943411971839 0.34286182910279672242 -0.23177189570318046385 0.080257575806814127062 0.065072372432247865826 0.0036751899237669714837 0.046533987519444007519 0.38450158526765959577 -0.051669154057017017967 -0.20126579972811836639 -0.10827378869474305056 -0.13405159178985551205 -0.11632388190653054905 0.18958778742882964607 0.064262722435135796739 0.33147977756882957001 0.027119003023258446416 -0.21278968104429529795 -0.16228202264412328049 -0.068948148222242600092 0.19461939855034252056 -0.15756455174840672262 0.13074394535733568912 0.0072074422989869407763 -0.32861763699711799003 -0.064245564285433057194 -0.17400820638854086475 -0.14749277758646242575 -0.095513024468483906371 -0.12496217680021547147 0.083569787595897754295 -0.36428286506419405022;0.1376269836949307046 -0.058553685344221180487 -0.053828069080014147307 -0.029709368198688763246 -0.35965434796138484597 0.12280175899035131182 -0.0029086802636366744165 -0.35460853198833464095 0.15263733699336257121 -0.36444352148219005816 -0.26559157840667274586 0.0082691890028505372207 0.0013999395050926059791 -0.090550304214170249106 -0.20785253901527409037 0.053307976209297933123 0.063615848869385677178 -0.14371187323049353091 -0.075151800286681613716 -0.074153476382233379782 0.012826624751287749038 -0.20112828008166022675 0.060423695670780229461 0.16949979052656899414 -0.030283704618861671809 -0.23112503974555972941 0.1531737901944390523 -0.04248346917918443405 0.055037692982804593822 -0.1452649815324786875 0.052356040502619646815 -0.13644423124474266973 -0.15442936935708101442 0.20753491253782541115 0.11325653635279936404 0.11004718641450061956 -0.14186625969344518472 0.21704976816665449979 -0.17644536591372853018 -0.16762540584255550269 -0.031231474325765042066 -0.15557678880211889272 -0.16172948862042754725 0.2273339277863948571 -0.15989391130266034091 0.033371669412717921976 -0.0095766495483395643051 0.042759763007241415045 0.17442231130965105135 -0.22237800954602679471 -0.15243182975155597503 -0.3385044806767372183 -0.060944157668279611006 0.017258258362081804055 0.11128292718834649488 0.061567542076176581811 0.1053857949722907944 0.077151846092834319712 0.090921306676671476144 0.17511758966660767589 -0.10602640858335460328 0.010632721192499356225 -0.047062617797216051152 -0.35233022774228606178 0.24608924980519827908 0.24757109049633591047 -0.075442827265888148802 -0.16405123249006503539 0.041310944815303826672 0.43612149517117149156 -0.099344637541673039283 -0.057236539136247141513 -0.21304573262327644589 -0.32629157864907032405 0.23903959253592579892 -0.173271310391347938 -0.11829514917882003044 0.23324840602605745321 -0.17253499016687443013 0.24507107444494502513 0.38785599113732510679 0.031154478958140194994 0.1828192500437899326 0.066784462400371863433 0.11700985947796915809 -0.021958915984678036015 -0.056613100001708854814 -0.11710135123439813221 0.070568336004662279848 0.27917443076622577847 -0.12039951721930158834 -0.031972568768552360463 -0.09155878744153915505 0.094062501519318081344 -0.11734461193721408556 0.19663889057977099184;0.46339800356665455938 0.13786503267563662845 -0.12694755607050703383 -0.030329427404752487551 0.20189618851307256087 0.067421716746140405996 0.074609355515369138456 0.37082391165792694121 -0.11739147180551115501 0.087776172749331277112 0.085731209024747179193 0.27097468841915800519 0.42219056597368803674 0.13326025416878067853 -0.0012944322546744966435 -0.032519219537380877894 -0.080222877373912704346 -0.16490833883051053688 -0.045268989993878926137 0.33782353219540856015 0.00015915441080314009573 0.056640682259185323733 -0.0056420414822689977236 -0.1131629041976528055 -0.0086883759801672112016 0.00011512376223704254286 0.1048648532309145176 -0.11792195129331205228 -0.13656681931529701668 -0.10565703314114995026 -0.10456685826753552016 -0.017075342439760922419 0.30095305778611181058 -0.34076746151818981811 -0.05554809385215078027 0.16462116038998436673 -0.38014204070591384177 -0.23774889017143127634 -0.098268060893784509036 -0.11205979898996995536 0.14177425721764283506 0.18830163449357359418 -0.16852104929175168446 0.010453884346371507957 -0.25646151748460788156 0.074685468208538094426 0.15781480326330618591 0.15636919099521379151 0.10268814298255329875 0.085147899182529976359 0.25838607640373184582 0.023082101085579082717 0.12423929947457983125 0.12130430335558928245 -0.17423681300751506229 0.16182678472714051576 0.021602296816905612598 -0.12961111923930182521 -0.075264945615931638789 -0.041466262378020542212 -0.1199055247352645015 0.23208802188403457323 0.14475443578119356891 -0.18158612724915920711 -0.19240966188366243061 -0.10399358379892441329 0.10886578215459018215 -0.071248027970060190395 -0.33936964617975479142 -0.032839788890121679454 -0.2164643380577735976 0.51369721737495011027 -0.056429510687835929272 -0.25205450369123494347 -0.30207150295464596512 0.091084170272144160396 -0.065680638410775593616 0.08104623646203551468 0.18071375038079706687 -0.12871127989567665573 0.32194326483607521583 -0.053583703816029122635 -0.25132965775152971144 0.3098681573005772627 0.024893443962275857428 -0.21889609645856161757 0.30265459486240137155 0.021418752670901673729 -0.31127142398941837209 -0.29941721125995457431 -0.33955266962128854979 -0.02162602793367627424 0.53862798257561683712 -0.25659952580196748739 0.002281016422945386906 0.30324535118320039562;0.17694285565270981286 0.10074888635739073783 0.12740747057014462085 0.10484034715433836193 0.15753843526365432504 -0.27299613275686779312 -0.0096916857270179981171 -0.22887712665316314875 0.027283130044281247994 0.17289495104813107362 0.14659213685814587169 0.089543720131472770429 -0.0038937158984870996747 0.095133660844409162483 -0.32200315590068262495 0.38207729033296550236 0.058057972656105995279 -0.01669643121428328672 0.28324105083534589777 0.21736366768249437698 -0.10251946510877620045 -0.37905357961411989542 -0.091501534626870856259 0.2036348711457684757 -0.10646638115291910676 0.35152289882597387294 0.17931503648297586473 -0.30608133835774264941 0.26287999771944886573 -0.17516100874308407342 0.22104633078035074156 0.43157807977043116665 -0.13100837991556177342 0.15037396418303344836 0.15448555285884876809 -0.33565327761422247832 0.19258454793976342856 -0.22169073719596757432 0.20406235295459762558 -0.035839297326256659704 0.14045016081622593851 0.044008002025680469094 -0.20340119178432292113 -0.18680327315040592961 0.062307561722227594592 -0.28128358571663547583 -0.16469011037345168691 -0.30572842625256035909 0.053297602765821600057 0.18697123496175235835 0.080478432701992771992 0.29888660308137626753 0.32880452162662726634 0.40771521609168892564 0.021280813870158666462 -0.040163728346843584338 -0.23296014859484617809 0.14335944859391855366 -0.13985596568290073471 -0.2953959530830708724 0.19516192550669692052 0.081535372397558106283 -0.019494678520407263816 -0.17357493420019640129 -0.22965848821209297603 0.12563804093504091219 -0.031461496929020324465 0.011284533157161980715 0.22016802719992306647 -0.14739912085270176489 -0.20255692706053798902 0.085436774930447684229 0.036406594422082314 -0.061829407795545514304 -0.026590094897067272778 0.11337867974638557445 0.11280571000123650049 -0.44330678751095187184 -0.27577755437785306247 0.1067160966728359639 -0.25361530498716255977 -0.31649586979976301881 -0.20379960230546431688 -0.34041549161057349515 0.18219188850386233702 0.23279364379414926867 -0.55232155355899159588 0.03974989450591737139 0.0016581716776631963417 -0.31449673727139959567 0.0098207746195670530404 -0.05305113446981904457 -0.028428401455466746628 0.1894366997615110626 0.18310896918493790864 -0.29085563940389902449;0.23011837987075045575 0.18993608100799053151 -0.19955210331332842721 0.09155735811211124231 0.12340589154846791364 -0.03848877028835543529 0.13419951257011836221 -0.21733647951812704036 0.150141469945290984 0.13106469348816607301 0.075508935559533432724 0.12528568244246759966 0.025188718394032548475 0.017242571021203578763 -0.043333094731882453032 0.22718834168062887469 -0.088536766337617159306 -0.064346808743163508293 -0.16830389643327964277 0.16524397250707700824 -0.17708494810142216824 0.17257989963254927179 0.2811950076571325674 -0.2609179282885988882 -0.19515070863497957498 0.28958550534042959423 0.019964993518187073435 -0.0024112025269966176622 -0.12871815683416204523 0.075132572762567628732 -0.28220574736868392351 0.14049100494763649971 -0.021374724055558756708 -0.14098219339153555962 0.16724171566113837928 -0.032714068522150245577 0.16211871191921983781 0.18746566868085093316 -0.025061954857801611862 0.1709748401930143713 0.18918812200835932735 -0.32525592725896984581 0.00092971326577467622732 0.059177000505711098433 -0.23976527524215904275 -0.037003094068344531686 -0.12837719525749394234 -0.09801033680781039148 0.12214869000197926818 0.079277051604296544518 0.12937868362071208717 0.073064323325341046234 0.13225973838362781176 -0.12306649854199827598 0.14911242347895814486 0.084380145231566186514 -0.08025928732009267319 0.117631727503083372 0.03333017687782388605 0.28129079982526500325 -0.23639562520414844626 0.17652702063401598531 0.044259113093781048132 0.052081103808476816863 0.085730092151499986963 0.090722906690031995813 0.18625450771781079662 0.17773510852461246734 -0.024135572404388020568 -0.087685663592674822908 0.18413433141226659417 -0.057953858828549413562 -0.15470441344809235384 -0.030210902621756054176 0.19461368717391350214 -0.06418260819563754993 0.028451531832209935036 0.053158289673905192996 0.0085039540063103855744 0.10525446334501761814 0.27916618512291702103 -0.064525341080369391644 -0.14096105446697784758 0.26654565980012651094 0.1517895209651501931 -0.11454043046679317219 -0.026153250989941669719 0.13343711121132267872 -0.22323640981723058552 0.031440130405427146876 -0.20853486930167242086 -0.044146409797590532853 -0.29775953396384091665 -0.26494433411981410664 -0.040662509806813608437 -0.27229048569216474096;0.28239875574377137912 0.30525424269844114722 -0.25193880529584594674 -0.18691689028092248193 0.0472882158963216781 -0.030093018196037050332 -0.017043474379954026005 -0.043629212454937081611 -0.026529063751742219118 -0.00022589675405056391239 0.27916175053597236388 -0.1634757438044654454 0.26812129153687391803 0.046715783460739998545 0.11099906797760640542 0.19086104756713992425 -0.46457891587606187089 0.1699740602867594319 -0.050614883281037366392 0.15474102869382880265 0.1742040599196560402 -0.21588001445755852781 -0.20854520073617374698 0.23684799953308455223 0.19884702902829784477 0.32855139244147857358 0.35101017892352126548 -0.11570925799049057436 0.19423487339333078694 0.087681507377770306899 -0.11822554433646530192 0.086313749856020624551 -0.056758284533936324834 0.29648197673252590922 0.19695926858421430872 0.052053939401499604855 0.36290023375683827522 0.16202336064512407043 -0.069602302075285726879 0.33424337337361936795 0.083220189123617796523 0.22125482337497626162 0.37863766601256482192 0.25554890216952969029 -0.063262694881162262472 0.18824188616221743109 -0.052530639670864548441 0.24092927628548524432 -0.018999948014302086435 -0.034735458362035148694 -0.36793402767159155697 0.10909782640763425465 -0.16942243792991859563 0.41331133217081272857 0.2611978164649031986 -0.25181624665144841657 0.23658121233637588454 -0.01942466530532188651 -0.28707930011027738004 0.12932210883639908006 -0.2297437174624120948 -0.11138908257346241681 -0.086481346534275388427 0.22683389992351637998 -0.074216040700002705588 -0.12139816495613282854 -0.18788075299718579037 0.07120733719549357521 0.16107845527765188298 0.050463462846329312783 -0.056844165915039934767 -0.17098475795080231299 -0.013250890583496325453 -0.22482698997364861104 0.1191920385685698025 -0.18838966255236228031 -0.038799672157820312701 -0.048482979698307601679 0.12874939525998674306 0.3209414379515597715 -0.013729751216611654069 0.05235019700269614995 -0.19991745072706856856 0.22786876509077072517 -0.20959161912385534943 0.04709413454631251883 -0.15373411420816049389 -0.060275564538578463303 0.070583905808577984686 0.020189670039309656063 0.18030863526642762484 -0.014875797248981277934 -0.15782161659056520575 -0.10259822604742532826 -0.096733975254972598412 -0.66560712838517099854;0.28875001227285207461 -0.068821985061586474219 -0.33322722351294475907 -0.078198094695342834637 0.0078416699037798416605 0.13222911200814263522 0.11187479235103429953 0.17162105958969622876 -0.23489543526091408165 -0.08080498662849440461 0.010475624171073049176 0.028463840583271851625 0.097868375096889212439 0.23001755243714375188 -0.31841993800924578428 -0.13537280722367345254 -0.12354687360140459429 -0.066177830063700232577 0.044842630621940930691 0.36977409301704738942 -0.21611085148007899703 0.045950289642899641573 -0.027968044446311433188 0.089882849309013732042 -0.10269986989177667946 -0.017792982027669167894 0.12253214704777860844 -0.083811627660477380775 0.24704392407587952296 -0.0021169775389704654014 0.053681800594750597733 0.16304482028930167292 0.08662616019086266661 0.24134069353663167856 -0.12277141129744741088 -0.18478071930574815895 0.24746751147319154263 -0.14976666006505379158 0.37013451754147519424 0.35639206810695717165 -0.028931521433281700423 0.16651259738380563835 0.24290519499040189033 0.17514533452061303853 -0.12351295094254968743 -0.17621374312106677373 0.20076378459708948965 -0.28861478921880379112 -0.23732314996832373777 -0.039684031123971452715 -0.050309883302694084761 -0.2050879746525610392 -0.23046760258494200513 -0.092576344639476018661 -0.40553039805840734866 -0.030249141984831945384 -0.28840508215040111528 -0.21671582771924230437 -0.20202243875397543627 -0.06737673611678725305 -0.097531964957233471814 -0.095268825869894907532 -0.091880511831875774642 0.35576237578775227188 -0.30449580330556613728 0.041502063079027588788 0.32211863194364004359 0.042152509189291816061 -0.1415510487174012344 0.25639623205723677257 0.14028081230763039811 -0.033073555341650108519 0.044431465568069705707 -0.029131148330698814625 -0.78611880189045224565 0.080070855954955028055 -0.017922027342799972532 -0.30471618636347325149 -0.047842840588755014553 0.28988118939579060607 -0.061607509820654375587 0.281730978221565731 0.18935009435220598317 0.017801695183314040355 -0.15930605067934786034 -0.0074565250748068103576 0.015702769527432571678 0.31539806413097160043 0.048226499634672362338 0.18967137310953283147 0.16668401134813090603 -0.18080244759000252408 0.12091786375238246232 0.25312087896339396931 -0.10543234387838974764 0.57999834137520456245;0.066730911254570868252 0.097237620077966671617 0.026953560013141555224 -0.39506263054438200966 0.050592569407319785968 -0.076756511506536284628 0.11221083172650181403 -0.028354554348732696062 0.068683046775695089092 0.33582737346586055693 -0.25574667788093624621 -0.18209852593334521775 -0.031560743224053507128 -0.27236780703158075534 0.13112378676896438434 -0.18771186682238694132 0.11862282689601902352 0.12176223837398085503 -0.19218882010327922871 -0.080954673395987303275 -0.13419145967840925837 -0.14098744217633804587 -0.36382995881115887116 -0.20470631524024907044 -0.014211939724936338211 0.12717028768466931421 -0.047445989498829901909 0.067907309708771346202 0.056529742669106722297 -0.36775357483702536543 -0.1444530836976951893 -0.066982693934422396498 0.27338919390978339008 -0.07624440560787500154 -0.32943219873264378839 -0.10037163310207586342 -0.27287289024257738168 -0.16171633438092666846 -0.27888948611934039068 -0.21783904793877306716 0.15791241203811226534 -0.059643109297944613134 0.054874829034865353627 0.033969219667573054278 -0.27829583792048212532 0.23995433691846804192 -0.0079768613951645001015 -0.036578673879021181281 -0.1154746358196419298 -0.43903123863857895781 0.26315967401259426905 0.04202912336409846128 0.062788462966207464477 -0.19646147159383267611 0.039641737019870691705 -0.02061989171251702932 -0.15546844419199873366 -0.18069534230380263073 -0.18048352456475477701 -0.25011708986325981163 0.13115714678395481996 -0.16878032367211703857 0.24122356016523119338 0.30866371095586364603 -0.33025770348565347545 -0.26066546516598348981 0.12708044774452664782 -0.0064408545556470173099 -0.3566231908820612917 -0.21475053637054292155 0.26133743140982085285 -0.38172700203438786337 -0.054415602330053221281 -0.31768345580294793384 0.0076917832052797608516 -0.020805203195082618006 0.091497344449004314182 -0.27178249321160313778 -0.11917667479400148589 -0.087565124203552752169 -0.23245687353754440618 -0.27296409783077552058 -0.38562709812061202186 -0.16735741890302971435 0.14916564437718951575 -0.2545135556975113289 -0.24787384610559640152 -0.16250468687214439378 0.028660552137201224937 -0.36771746315704229024 0.16599223233445128955 0.055375035035286741814 0.040667708216669241905 -0.34406700251792049494 -0.14433410997461931791 -0.19826315211791592508;0.11135137306965454951 0.18886045476538029786 0.25568983586519566931 -0.1075085240608358722 -0.052439531935985307654 0.29041490228640687299 0.052864585414371133287 -0.34516250185169083942 0.08688478500408311489 0.27785041157149464874 0.22715138028748821375 0.084301271461228080573 0.049642356580457638882 0.016023450524154592839 -0.15755243686806533199 0.11142765006413624107 0.40463958810873229544 -0.00081298659441192389595 0.033059448072807147423 0.091185401418478154167 0.037321952391167555196 -0.078762711892318010287 -0.15581437328169261969 -0.16221100441189972852 -0.12325760801178303749 0.020469014980893738415 -0.201962080353016743 0.10654627644743475123 -0.036606895662601314501 -0.23421914877014232692 0.058865532044744255102 -0.18122885352259113234 0.07958135540115220119 0.42625565110707608341 -0.20863507147595478086 0.1444551751315985566 0.22802603865520035265 -0.038263203260014581886 -0.21451148285775764601 -0.14319813294245206658 -0.098026738064076343604 -0.12461339632106929742 0.010208699385097998527 -0.20396863599285203206 0.17831506889589468501 0.29692688216139306867 -0.036633742257910002771 -0.34438589144780118456 0.064232610349427413099 -0.044767886498388476113 -0.23221833940782310446 0.28425039665147083801 0.32862067845386661036 0.17233616134430210232 -0.034891584675870612742 0.17201122914839456213 0.011541428623161041275 0.045711958739844717192 0.40254019542071206583 -0.055134288714140465559 -0.068419748357909884739 0.16265792973200121629 0.15206059440463290389 0.23123408675401949108 -0.15124018603567476737 0.22998959479615616042 -0.0021503653347025690479 -0.14595353851527770317 -0.036936249237729826267 -0.23625333479607671383 0.084201381081972254128 -0.1974858735802466625 -0.19511578327851611392 0.23341402476435152424 0.25386913224083623719 0.13514533640459841513 -0.11015191370091462209 -0.0083877818878024795052 0.13873376409914287 -0.3248637641449292901 -0.23331419151872920259 0.0056571388097039635237 0.02121383240126640049 -0.35336172739264298803 -0.035041195567337993233 -0.018897085257777845174 0.14401251508979362459 0.036382867579699447458 0.26617246576541575553 -0.14900696168556953891 0.32279271369318740526 -0.12997528748128356346 -0.031168967505904990323 -0.016290105085073995628 0.15210459404047427245 -0.36167825859225694041;-0.23309905295255567426 0.10395377114950418718 0.29293978895538697049 0.029740305521591643007 0.027435097932586097191 0.36932421985113184082 -0.11240360885206096553 -0.0065832344035524582512 -0.18484220444353338664 0.058656783890194678921 -0.30456634703914953199 -0.27651842364242945616 0.050917685088850687947 0.19804022625636216737 -0.17839424963471015029 0.079802352534523446348 0.26410838808845349401 -0.2663185807079013756 -0.2655193496503077677 0.088474365375546426549 -0.32660319638791174279 0.086582643287837435242 -0.15398794952761357679 0.087578858878229179363 -0.056418089557801455458 0.39100900333611171567 0.15213505172173402702 0.13266154119187925642 -0.024825897655797839192 -0.13191364379155334774 0.14265560429363552397 0.17864881892382405981 -0.059192476347955227944 -0.081076460126945790186 -0.30640897810931033707 0.24318695161500028523 -0.34960719771731080252 -0.079205424066936286343 -0.22984540372137782227 -0.013875886028369466968 0.057008130262925990617 -0.1298390170566217916 -0.10238897598741369954 0.043071079116051388946 0.094110265051960753646 -0.0083712845785691766126 0.13299644139218499972 -0.31432447895630361012 -0.027512231146697443962 0.14299209770622145488 0.23526903830754622438 -0.14883459222215303375 0.23553718877621301897 -0.029314108937270287603 0.30564865830063187024 -0.14849422566215109143 -0.083034700869401456558 0.097691927713400072975 -0.20601164398587912263 -0.067945977044061786621 -0.17368074637767882962 -0.078741503070538149123 -0.063856045247211931648 -0.016321192760566826524 0.16138279729489735104 -0.06224577285992875797 0.079127733501267727423 -0.068178150677896925957 0.091331813541992379335 -0.18207362718664366064 -0.18824420137828593025 -0.35809507198618689694 -0.0086896723892105048187 -0.23476254875750418583 0.13485595551858184371 0.049994282572432283129 -0.16881378568137594964 0.17908843591972450904 -0.17590163875135891858 0.09700725406453741817 0.29516796387533322799 -0.40043297613841527527 0.22805583435966936268 -0.045811243091248954329 -0.17045506361836412768 0.046608942505832695602 0.036779670143141186822 -0.23126160744134499625 -0.094046997151432470963 -0.15909044975020594781 -0.03992048460808485244 0.10359636201947398926 -0.31086339576662480599 0.016710110493764734202 0.16769991350554649956 -0.4437184704222649767;0.10309567728420604427 0.10955112601298357122 0.19878295653655361774 -0.081395811280055782588 0.40177886354304259697 -0.09145029501199031241 0.070917264641382760093 0.35396090295452248276 0.0043097699478207504575 0.20662517107880956635 0.34037062846227061907 0.018948097987150275268 0.21933852435439579742 -0.10099620283567288526 0.45813923900718034332 -0.21171226767235423738 -0.058817942141831162928 0.17268195552453499686 -0.41821259754637146733 0.2277037622191256383 -0.037368386209449898361 -0.29111067719272859522 0.19052598799486494818 -0.094749731158064218195 0.45382214195129305656 -0.35830487026171053966 0.077456090227933649395 0.20645122268806487265 -0.17909496980216693673 -0.35799468790146693475 0.0058826157507815089037 -0.19046851695411548544 0.20295407090899467151 0.16749131134778977303 0.34208573356928656528 0.12173340082753630886 -0.2945633313132697273 -0.08762704605651522316 -0.047454794612121278807 -0.043485918221818069263 -0.24863518592758962478 -0.17270189849705425145 0.011703567684883840402 0.074082755178455486633 -0.4177193140345245026 0.2391382245861808642 -0.0061855983569196887339 0.14814291194280679309 0.078971459812176292292 -0.2870950695084144022 -0.35610381793452011712 0.28758280545210312962 -0.11526928569996336416 0.018419300779788972539 0.083662945157815499231 -0.20535818083616055874 -0.022413292304463195564 0.1241298983517384602 0.11771284736280049343 -0.1518347810594229963 0.18787710242465177624 0.13574806359703642245 -0.16641257854989652265 0.35845852231082264705 0.022689298990281790702 -0.19549049824426853461 -0.17614908157055816917 -0.0023854459692468428685 -0.020377940254948625348 0.079671076632584950095 0.25367654220798652176 0.52070356625574976128 -0.14937114644559185139 0.39247847862384338535 -0.1554124315126798328 -0.25435992575300025997 -0.034692405776440268794 -0.075888047626555585334 0.076073449436078771635 0.24648666613511444057 0.16193832100357957726 -0.005761133242774845245 -0.16322453949245496752 0.46331537818244228344 -0.24214650216055402798 -0.12248124418920719458 -0.20450077833981963882 0.13054047837121512954 -0.2177605547052905155 0.29374628861292728654 0.14075492754917454108 -0.04610499264235577016 -0.092106467280504186745 -0.0019622770302715124117 0.23608312607440926079 -0.15114134644150106768;0.23725359523041156251 0.18630002199692791143 -0.36768461345136882468 -0.079211747513482144711 0.097380143513495248664 -0.17145236171050759477 0.33712050126710968456 -0.057924782646848700651 -0.1373738031639544499 -0.010237606032366286524 -0.17004414509166557168 0.024491259778482810799 0.16870015299593466018 -0.18754372127800805758 -0.23434932908974476229 0.42343912687055651478 -0.028596024386869856732 -0.33275879650339112992 0.18825508419066713794 -0.2701555176191574037 0.21548445007099792381 0.20643279130595368343 -0.067886613787028093903 0.19958759769138545437 -0.097704263930064330634 -0.020254305320568689874 -0.15641902503600155216 -0.004314583931327727051 -0.011508328605377300333 -0.28223625752611009032 0.106367264888665089 0.12980899461961178942 0.041724889838427842159 0.033436951853429951187 -0.17800935972605338997 -0.08896858768556270558 -0.48260339578122374293 -0.18193592966900770658 0.26561198495411936227 -0.11732708281657340532 -0.10393332813964574479 0.33314923681665159494 -0.029541651715247828347 0.46186060711729048922 -0.34193379842094140386 -0.0085643950026766633987 0.087547742506123737982 -0.11944254673906830322 -0.20830015986147115692 -0.34137001688909457409 0.58375684601214117286 0.24501518927020324301 0.046009715635757036933 0.041031576224334495584 -0.23115516094718366324 0.54183523095627128541 -0.18855972436595980213 -0.034392755272204290906 0.25671074945664995592 -0.3102085187579643466 0.25954732260261709209 0.17461291686506946741 0.072170030553573419341 -0.090766110047668477345 -0.32199528481264599877 -0.096109643225861851601 -0.16105520432634348738 0.12500154677814423465 -0.5462782889467749925 0.1946353790733788558 0.14520425441016460155 -0.071813007235263834338 0.2241392956343715992 -0.1169273608114013846 0.45924516347534666272 -0.031612158594837944103 -0.18835961049278726609 -0.022964227161892284551 -0.064238121633036174285 -0.36323523374581739853 -0.075469523750756092872 -0.028797209825803957162 -0.13357415556959201242 -0.13534408115407253748 0.25195102429977023206 -0.12122567169798437181 0.26479535731807224419 -0.20891817068781246003 0.15537483941874405402 -0.4003256027819188656 0.078282710701829863464 0.045540258425415085231 0.34982859221480694378 0.14869885250877701299 -0.10476602410169326418 0.46232671093424426711;0.013896630834594159501 -0.3046630845033204138 0.37344596128511770017 -0.10659182134847886014 -0.10816241540275214894 0.271220823940440392 -0.13246870558944529028 -0.11155176182916240468 -0.22953116159940056829 -0.36001152087214338682 -0.30298196839567564931 -0.11618710918770965013 -0.15714873197501053048 -0.061402123786249727944 -0.15369028534312850764 0.32021846960186395314 -0.21294014184330728456 0.16052556336905951517 0.53556618237099906654 -0.37455908127769443894 0.17013613483868719745 0.16767735725908172739 -0.20282845920899345016 0.32016439894273129863 -0.075732928012296321651 0.18317003260434899792 -0.1099575625406894186 -0.13982941776575202875 0.034367890724186979379 -0.036016117154190036009 0.11692330179777070398 0.044242697007317942359 -0.2378821381018326464 0.10270173888483749569 0.16065350474573927841 -0.17634271986345997907 0.25441785278593370689 -0.1143957719557905095 0.23378426184859860126 0.20880616518069555765 -0.12909667986677630935 0.30183028329977062976 0.1507408403134188335 -0.074225073414274825301 0.021891156348892212152 0.23596010864985988986 0.044765478515378522018 0.13877293647903765628 0.32898322507772453926 0.37098037002176054155 0.37881669408041457325 -0.013465594959139190814 -0.13686693573423858172 -0.062811688406072013757 0.056034301886624386657 -0.15978579667043371626 -0.096036092115518792434 -0.28091301236771359928 -0.42671767634125046254 -0.053317945309169036128 0.0027868147345426249467 0.041247683531607196028 -0.0097288088248776057043 -0.092767077139777193162 0.10764787175318778212 0.19070676134983857719 0.085893167519252244801 -0.30528636022720001542 0.17708916266533791806 0.40099837965148110719 -0.23660629393988452662 -0.24214614902614309266 0.040566120476274773743 0.25567737617314889587 0.24953864756054558449 -0.039937764879326403955 -0.29599885333012221356 0.45662656577504701083 0.059055126426459714217 0.22989792080034168742 0.38081109270457980109 0.33867303795616721107 -0.20533844705116496843 -0.029383519049640118709 0.32271395362598997991 0.25486408381980191207 0.29909195135525568077 0.1267851777636373467 0.29859805104321196501 -0.085446396168950625172 -0.041565361276118699407 -0.0073007583440382823117 0.15717376281282424699 0.19120337373597789954 0.25441188913941098493 0.5104586930299145342;0.019823071730616221436 -0.23544906136299997845 0.13712364302540597238 -0.12386700727522068077 0.059474139777671422569 0.15060875388620276194 0.077749372003585032198 0.29469742116454727965 0.19272237976358114198 0.2517094841086048862 0.025450850434406906836 -0.11921364295913240705 -0.15987002545736647696 0.063669555128822510892 -0.29145047363277865049 0.034552968949289004919 0.1101975637649433154 0.089602245164860302995 -0.2369729420482591109 -0.0089280025029521460633 -0.16396913285574019059 -0.26270918613303001488 -0.26265283398167538209 0.011871440897082512905 -0.18790219191719970127 -0.17764401530024362397 -0.17519979312663025439 -0.030854581714236762463 0.19386895645914589692 0.16563601373053904453 -0.21154418976959540877 0.071626807786749902007 0.26687343845919753171 -0.12994980709733366941 0.033559020520582252822 0.041327304862147265507 0.18569409131591629869 -0.45389643206799040742 0.15403439784061564999 -0.19019967177856822449 -0.1041404758412983883 -0.079118581252556746675 -0.067276073180864259804 -0.15257308283071488453 -0.10315505005744830813 0.057525959862984331339 0.037437483676590554982 0.30120072204822107009 -0.23224328991120313237 -0.11053687617457375048 -0.20251217981273511581 0.11954008911131651371 0.0080674966433213514405 -0.05120290503323683684 -0.11009329733257604278 0.12411602844092806119 0.021175393276934240117 0.21238054219396718114 -0.16652885666363642647 0.065042456191348463346 0.24098995171177836627 0.076947210164685989064 0.039242473248767832661 0.33414152847323402851 -0.13242327120031005538 0.11743734800557031894 0.086532370279853221273 -0.22502293952224702855 -0.061814858047510086447 -0.078448097347780798572 -0.15420458938824729844 0.069986576334049074855 0.14968651522224760142 0.13154690513096436999 -0.010770702096040998125 0.0007374532193016115943 -0.23209853311419417765 -0.17592889691810045805 -0.050467476646423890807 0.086963509796563254195 0.096949458559665718793 -0.1277446113905086611 -0.26497544468495581871 0.014293504808779533208 0.21709440736207477607 -0.40732635197552818918 0.20475418556396715597 0.058832363662668460402 0.24714716840563130673 -0.2324858150662647005 0.031294640444398245938 0.35607893770942639078 -0.006135849258162111991 -0.060857301000386276879 -0.092429425959948505187 0.14401357538794931634;-0.080906470818806391909 0.11802478031332655495 0.31753831700430201757 0.38136696518153073709 0.17146456941572926769 -0.15993768797880647536 -0.13606940018363283817 0.54085377080783303416 0.13384319804035033075 -0.10252016876189200267 -0.018694858714099992641 0.26914722173441041342 0.84578786393266824906 -0.036055536439163780871 0.2995314119706730116 -0.2034869136058211625 -0.51742511536863800004 -0.1500891910085349612 -0.40258472534530248543 -0.12635775175217103805 0.15167448505170952333 -0.22339483628393660974 -0.05512817344831501265 -0.28773792166691636307 0.17473855865655996134 -0.071575403698777267936 -0.081601832304221355585 0.19689637977753751685 -0.11790852191858321174 -0.24946965048617136818 0.1826372915706976352 -0.32249429706706972398 -0.071644425982707593548 0.11991074578620396218 -0.14808719518234120249 0.3472967838893960546 -0.18662939805205380761 -0.035907247897397825964 -0.26495993231607273266 -0.24949161382209700255 0.084994640373091331909 -0.14911617412629751822 0.036721046425394136825 -0.23396958125316499877 -0.44620642380481423395 -0.040318697710688536362 -0.13644625543511948451 0.29673114455445281923 -0.19341916745211829021 -0.34185543773164672743 -0.19819401339035983001 0.42453563266739186011 0.022517291012961924979 0.23112835212729967993 0.094423627425790565559 -0.14779333427838367565 -0.1777157810673393179 0.077496611428083422846 0.049627083534149095401 -0.10119567224016016993 0.0094097468308874630816 0.13523569320230025004 -0.21149462298901400281 0.067919891056193504308 -0.29570697623714919944 0.068128432073702213656 -0.59780328365144586034 -0.19686857001085952823 -0.26165471745290025396 0.12248732580846356799 -0.28127603661501221488 0.59252892673660051415 0.012584954873462079333 0.070329006216542602759 0.22606446708109642629 -0.26125355470150035675 -0.19729726832910707279 0.020717565453793301833 0.28990224096532940523 -0.02165848393676808939 -0.1496858248520162582 -0.19531597183571450249 0.13346324773821638399 -0.21768300166419465858 0.26687996644487926856 0.030999614919507974958 -0.24605468711180189523 0.27119966193768330065 -0.42480235365201168829 0.45428612474040075409 -0.26224453332716896048 -0.1586527859872455537 0.010427744265651238062 0.037112480561796917788 -0.029856665952435450934 0.13831638987661831752;0.21147822076738770347 0.30468864435565079507 0.17083341976196469991 0.16864529818660128901 -0.25465340662916313708 0.025232412879276296808 -0.28073615174525684557 -0.045039810634572685633 -0.36645025592213664734 0.03082649573683269445 0.12630783089274560949 0.18689529836997442747 -0.49407336080883640372 0.021604516636790159489 -0.084976855326589773032 0.042194206820232130206 -0.075251962702618829804 0.29342133978286627505 0.38667881169174667111 0.43528920207320037639 -0.12869993368022078495 0.22684457729443091578 -0.025278126142033927742 0.34042117673307936698 0.16143181528046435247 0.10705706846272157462 -0.12788562811386006146 0.10999455099540124403 0.20049355930962386996 -0.0016525174969583224151 0.2515107125748476391 -0.16523958328661364492 0.094864948072374138954 0.28848098000178545863 -0.23325236644201335912 -0.49259828211988776481 0.22525553796359812364 -0.42901725755958447506 0.15402440842233233731 0.065810336769591235018 0.16584332684306130057 -0.068828614798944462438 0.093830853804744665525 -0.072691627635879038638 0.082008538903684813359 -0.30693951874975156091 -0.1751370260645443433 -0.46173631502706907748 0.0084662503091712665304 -0.1286384713966469695 -0.30506818499819188251 -0.093957841056819632608 0.24985327921782152227 0.15857136084592765579 0.0060155064297421883407 0.24554981027835057206 0.053807423636759797725 0.088602661265510265776 -0.030664582592939096384 -0.23314228153075058914 -0.36244408728757271376 0.044760362959795026161 0.19886563656017028356 0.35036711618845695071 0.18643964673666760246 0.035076009617279135799 0.52730577291223235115 0.0095538304082681494572 0.14802090875234621969 -0.45291001998302871101 -0.20105597270965344658 -0.70949394393290354799 -0.31124253511590416199 -0.080595640600263654396 -0.081469962095553544179 0.17095445656467606055 0.19492012033409675253 0.14865764680079737725 -0.01766582195030667185 -0.012270321786011860465 0.11435719314664911928 -0.034748720502200146354 0.3186150426694918103 0.18237338304902483976 0.27647038820885949661 0.30158805779688774296 -0.007564078891009177151 0.064988695910904267783 -0.048182242718064281772 -0.24674116115193284182 0.28590940080938831436 -0.12196493954694979933 -0.098765793707713531169 0.059722093825760075303 0.36627376102993053353 -0.31750956221726778228;0.011823341559794774136 0.24769493733025341187 0.3509435287737540099 -0.45956260225901862659 0.014222332490849228306 0.26725105700735057868 0.15179263177187948819 -0.047948160221483203391 -0.0047301228668692948953 -0.015995313850759376728 -0.085542925869960817487 -0.044207348625707999779 -0.079845618968454587505 0.1168385775385107489 -0.25938751105304652667 0.11283262169739781411 0.19674737692654720167 0.10938964832427103269 0.23446368133946060563 0.21954626122398329668 0.077313181024345659087 0.24170460593960682583 -0.035067656898224754125 0.012635100505818565655 -0.12026699192711286235 -0.19157469336156254802 -0.12951608153330393391 -0.10452436036005847975 -0.14025250040424755427 -0.27122535097491790035 0.038343381967749709527 -0.51166893371318133976 -0.079264611935328285752 -0.04184522189612463472 -0.43551738600437978066 -0.35667531229143650817 0.18125926124406407935 0.075429255148163509848 0.23480592689906504278 -0.22069558557800791898 0.4152321884589844081 0.047899891836700132786 -0.020410931960236574495 0.1294260641592552552 0.34064586636266330766 0.32191142274583561811 -0.17267658356348999926 -0.039156734944855185743 0.2156207620950945647 -0.10570923692355208012 0.082213477079539645787 0.034204565167606663934 0.031366034485915156305 -0.16076987724273397729 -0.13286415253039096651 -0.089265630786248759132 -0.28261502072725419588 0.27788510089260148872 -0.28587117225639196993 0.10353678381198330727 0.55450027396594436802 0.13949696738039224497 0.35391237512499451601 0.23536543180150226728 0.048644230512641592479 0.23977863324969758696 0.39588680827660921446 0.051030336496691336423 0.016876420942575246636 0.4023244790251513936 -0.035628534969119503295 0.074053156043317747148 0.023597000045087464931 0.20710666925020485007 -0.13643714122765920882 0.41470986734260478768 -0.21372351512606019286 0.40720286507193115266 -0.025465714937846967159 -0.026084055143456290338 -0.11012479636816457917 0.25196064990187316823 0.008422923608950286592 0.04883504297639017222 0.072725620747862901316 0.13891320790539946062 0.22938235662907854873 -0.3170532255427132573 0.20133678135916580065 -0.059126112529956552366 0.07166447728341993062 -0.53025867184236086249 0.21047246771683172928 -0.080512586372860267536 0.1887135804024482888 0.43933850431764287503;0.11517488249074647744 -0.33614213811927423636 -0.069245904047593148656 0.016427401525757810014 0.22656991138504564698 -0.13234705293612467059 0.085510011252397738479 0.1501337356082902974 -0.16849637653661042602 -0.028415045898649779477 -0.11164050354307568369 -0.29792507582837601809 0.37292821270332215944 -0.38022164434104549491 0.033699242742005225404 0.034051768212825399285 -0.093948724526639146304 -0.17277211449791440856 -0.22050118552704475738 -0.16492394417355046854 -0.21544791341201430246 0.21209477896586687029 0.18715144446471310147 -0.19620296517661281466 0.3607463709263659668 -0.14327429586390497129 0.055792330757311686673 0.12966069058527279756 -0.079422175433286376633 -0.0034493808537413711557 -0.23105605610854407228 -0.081120615450439123584 -0.096658013287818242421 0.04071358555002632662 0.0069070438137206766407 0.059894489682179877232 0.073895149018716188571 0.32914256292998878006 -0.43825408062819876109 -0.38362226676234711942 -0.064404918998659160811 -0.27880836194351427126 0.1048111863482834305 -0.37655177073344375804 -0.023918501037307093177 0.35436672325220675006 -0.34619750587896097604 0.20343463038028652967 0.057451611035641961256 0.0069353127646278019472 0.13904571647164173931 -0.0010935757706891239063 0.043867436638223400447 -0.19654656000190362519 0.24024280642398979091 -0.51085610973728512452 -0.048019535195337595401 -0.21458842310102124729 -0.37373120753067751165 -0.075709559804854845155 -0.039274914313204241367 -0.070768335002243581977 -0.095006129290968299728 -0.067755574003929244786 0.070771495487600449836 0.27103795780900707957 -0.26316708989252557416 0.21961333582257283603 0.27126809761899661755 -0.2442626160425553361 -0.12565846701628344273 0.76678346655135598553 0.067405203746497319162 -0.47155301222340850753 -0.18004601997605326758 -0.028046025184196136243 0.089967755318454967206 0.12928912202102327278 0.019268474295352534809 -0.027404588885764181311 0.19745793482242413042 0.12164704135420115194 -0.032196341308774453771 0.27169926347125478161 0.11547176827809124688 0.080068969658026609149 -0.31359237674751599956 -0.039269527273938717449 0.10144381720056844243 -0.10140848799877819064 -0.45328045267771671645 -0.025826158357573365115 0.17669790785229036456 -0.17291144068057279215 -0.081473736236197399907 0.10696812547313697128;0.085304096218060773693 -0.12123764768465693231 0.18767067456469241349 0.32207120618738105389 0.23422381089875615734 -0.30042621193423812986 0.19871606399198915582 0.13166547256876964811 0.22922836387946793346 -0.13959789988489654244 0.041155024947942209224 0.071766332825901460457 0.022190485772100951994 0.2132402713669198091 0.18933329415580060773 -0.17767742069197736687 -0.27337519908760832266 -0.23513412569668792895 0.032089897914065863838 0.14412315966352365337 0.16011225540754531194 -0.034847080274844385861 -0.090843499009931424903 -0.16541929980452171889 0.30403020763931476456 -0.29067863616668515592 0.24644626025127247537 -0.20142550133936215628 -0.065599154016963326375 0.28244257422572399685 0.24603005109970421671 0.14755805850762623854 0.01332087325706321837 0.17293857703580425844 0.020114305565318207902 -0.065654769176595614844 -0.075791082109319951599 0.19112945737902528598 0.2272253352603613441 0.096997788059638309632 0.21995318392167634292 -0.15114615349484622486 -0.053682391975011171936 0.19044477031179166127 -0.21872238200406673991 0.09998636802178553773 -0.17663360760935409299 0.20262457963564084462 0.021862466881673443125 -0.01741166625796418746 0.22739503093283897073 0.28805127167196986626 -0.06680512068840159523 0.20909576965026610562 -0.16136423033131944149 -0.25790747311689538046 -0.14931616296346753026 -0.11460221450551759392 -0.099724208740336869883 -0.23267074142747098953 0.32703425918655382176 0.18238799222187970783 -0.082599492492953341394 0.20576953180458257275 -0.2270562048465804561 0.062228117010173569779 0.0063606019079232248986 0.083133683684158701799 -0.035733370397800404139 0.5583124406833249731 0.018588061170993017829 0.36334192375535490083 -0.00637360477221715193 -0.009657489340859633925 -0.11934407027050004946 0.046147511694106906066 -0.072434758395165416145 -0.16072743241306203243 0.025203935759882115791 0.098471704504092663623 -0.31528259307150102719 -0.16941218286414733152 -0.29683529162379540534 -0.57555378546251234617 0.0057876993787630628963 0.098896923445394052665 -0.073611875507556573384 0.075280285363387156039 0.043227904843336079077 0.42373938400625965617 -0.07728342333918367113 0.20821923711443693361 0.4581822597258551899 0.32970094628955071148 -0.19702595043923329388 0.73403475803979345571;0.022342416146552128431 0.34144337288211501491 -0.1217765593104313121 0.15049393859718185329 0.37179374461778286198 0.11386750931466321779 0.086969740600953818199 0.25214970547538423373 0.19956124037346470446 -0.029758372989887010851 0.22078912751154983196 -0.27816153108291463703 0.055583889529009750108 -0.098937192279484942325 0.0055819045329429713836 0.054349693453022658585 -0.020126144366033858063 -0.051600237826719110024 0.17024292349406480729 0.19910948174696732615 0.1081871226876399833 0.066502712078992207156 -0.12002312700723251349 -0.074970368698851971856 -0.035834930369400490313 -0.028840157311888818537 -0.099577113890448140654 -0.088381452900049298216 0.32930735672749517073 0.22341286553274192217 0.29871669789996901923 0.13549649169928779102 0.030665673207866842725 -0.17728046315300460822 0.22458545003767554915 -0.051313352251966398709 -0.066660919058288747863 -0.0090041168924628860876 0.00054895081441738648349 0.16608567156854703306 -0.11566972609927056448 0.032112498786686434482 0.2809573368191736753 -0.21581304922076560704 0.046968603004650687216 0.23195325165196092887 -0.2752804369468747625 -0.3483026383355971034 -0.28924648174557099356 -0.096983348294877702589 -0.09161050126886770284 0.29820230354221682889 -0.14898586075122749461 -0.16544264263211297394 -0.073994308768830244216 -0.040804542162456138021 -0.10831614401704500739 0.11896731901281509813 -0.13845309647349546278 -0.23697980940978072284 -0.13005774672642900214 0.1108236145765273406 0.15109542069229839334 0.14270787723804873037 0.22948043185689584456 0.35121530639631071136 0.12426853736763886216 0.2737980349604920427 -0.13373826404088265396 -0.025349475608737459531 0.21995916842283735892 -0.28279347802464627204 0.060132497504811324718 0.11810639344178969212 -0.26534779252917384262 0.42933985071467528627 0.022765440135824713958 -0.5696334244320718776 0.064381146242872458463 -0.23031610552464687469 -0.63861102033646022225 -0.27707785925281647188 -0.05034226586846385354 -0.2705143004939208895 -0.28069950589160014287 -0.066660838972171704286 -0.17837904365929302397 -0.36317674583143044753 0.35908920424142409811 -0.12940829700927969359 -0.12245384655466400037 0.17664729198625422901 -0.015549084535042452526 -0.27281850757035241983 0.22325424900908433234 0.3123583393073123271;-0.38932561077066296651 -0.039400214916769552009 0.21015180329430147022 0.26120032373323581742 -0.25475371966768350918 -0.18440748748797688994 -0.14440064263638441311 -0.064436696457840156316 -0.29571600106818840548 0.37715346792851256463 0.063706602066230549886 -0.16960082014237276571 0.045770765880536960768 -0.13136878652093922359 -0.34582533385644814716 -0.081207865285287339496 -0.1094044950094278934 -0.089461906342957753235 0.087102063318588607288 -0.050058408810015039836 -0.072516207650670613805 -0.16545738567363135751 -0.17103454576370796802 0.35396875424764923102 0.1379530603471559036 0.19246083564871513394 0.29743029445283214462 0.26864890892733062078 -0.043016775144048648161 0.40211582938579826241 0.2445031974601087621 0.083475664963177154121 0.050236756747876996909 0.25074491520328617833 -0.088999061157675710132 0.0010185281362496746184 0.28614518839164765351 -0.18718554098328449298 0.10758283556335944409 0.47889024012857883683 0.2085822573044000261 0.003462685250730442553 0.12323623020602630929 -0.11626374866199071234 0.29324202486002032275 0.1751781442099053232 -0.41330740805288196382 -0.2554142845611814816 0.0048759273685444141228 0.047133266073416425768 0.21605125411843598138 0.31407166668580560609 -0.24914789120554040047 -0.071398472180219191285 0.24700619052727609826 -0.11000592818131287032 0.20153020917941574797 -0.0082241269295404428874 0.11912376309441521927 0.13047242294019836817 0.32947501191558425937 -0.39895102556261080595 -0.095946965778011344961 -0.23311683034711733198 -0.18933639245144120999 0.046030184039876041735 0.10967268399273891188 -0.07365312050249636644 0.0057619306724701023492 0.27521654747175439137 -0.042890160661880269433 -0.24992527117406196369 -0.054512497110636971842 -0.1259088510482831158 0.39482536117688554755 0.32107228924570763162 -0.11510598932165094777 0.035993027738336812182 -0.21261309521419158308 -0.041102646092071377926 -0.14136441645424924207 0.12997770968023361626 0.07873464936357041366 -0.40653663312760535131 -0.11644096053823346781 0.12427733221715027423 -0.64686293832930752412 0.23127781948145140212 0.11201451030011756738 0.3137290354623939459 0.16981415328398205555 0.080743255774606059738 -0.12285854615109025045 0.17800999148123627935 0.077492657747514070987 -0.33752022727376668199;0.04742606311357387 -0.062156798843928599829 0.18639290225985735705 0.090114780208882291901 0.067915171157598694385 0.12315900494789908115 0.24979633355445210463 -0.18348289912214843511 -0.21992696494527338991 0.1794130798270062721 0.33197162553543457797 0.10106332350110122653 0.058984002558053139076 0.05616149216156925833 0.15345137083146578871 -0.37689879847965063187 0.0022305655565448795179 0.038055277974960437237 -0.061931218309256907961 -0.023616590383212246462 -0.22580402799304691297 0.081252674279205044927 -0.045515377359604383689 0.27838051879294389845 -0.18422809190498556919 0.010677313190423264738 0.22215828892500324998 0.2343052454227776138 -0.056890373559331443298 -0.02112150287302447943 0.12018347717153006482 0.22840223756868904825 0.084928146423960557132 -0.13625639608565318084 0.21958565881403183107 -0.034484766600774416356 -0.090930716692569010795 -0.21713175450656857501 -0.17455863697262355427 -0.14763025150293665466 -0.21274986140378490673 -0.15353568704176895343 0.16927090332901853498 -0.18966653880792766484 0.16737369981354954795 -0.14672111223974010352 0.15982826713604744717 0.25819466473262508988 -0.0718987915666657873 -0.04247766631234648621 0.061213954322951374953 -0.46687740203298033759 -0.18790240510795652717 0.18395185151684342872 0.52254955719338436193 -0.31750483120575562213 -0.11332433750037061715 -0.26544502572606148982 -0.028848974297176730591 0.048085010042424443377 0.077038404281287997666 -0.1489112585275060574 0.012889747743702068689 0.35887931878641066152 0.34157832355508244149 -0.21471060813198239448 0.013895315462095877285 -0.019687103539369928129 0.37109928179631335166 -0.75873089588960973551 -0.41475295376763537947 -0.41042860062555652778 -0.15334076016723949265 -0.0028012587419355495025 -0.12151437382611489368 -0.30741830702427452859 -0.19203531005498608586 0.43550565671862578876 0.033605694146674955358 -0.1680083209714557102 0.32726225255105245715 -0.032131954677846151502 0.1588258780295858652 0.58936655409537486161 0.068990228453530783037 0.039277112534599020743 0.5321855261395245229 0.33960189214101199617 0.13183653096006939243 0.19119497831542719979 0.027214001072423020522 0.019271654829693535271 -0.29076853477066133546 -0.13066905769015399463 0.55020379981840672468 -0.45748018755247737976;0.13605655508607428228 -0.31754939196877801644 -0.090786777263760873313 -0.030407376540191863312 0.20419354794747623938 0.40321150591752924486 -0.28075319830791478637 -0.041547828130658354118 -0.31366440978235077264 -0.15946700604617911057 -0.05763941661716421444 0.58453510601171565497 -0.42913931991923459641 -0.086207637042335319433 0.2374160093708916619 0.19789275067772188477 0.30114645285889690696 0.28268844886769778357 -0.034659312579282258726 -0.42656234280171861917 0.10914071992592203064 0.30498944261094534935 0.21889814593047793312 0.35132288239954040376 -0.15248049495393919961 0.014018315669291106854 -0.12038133819850749262 -0.15806097288070267148 0.025896826142574810858 0.12556231635256179247 0.18873395151190178187 0.19865694561601826562 -0.07277667173581367499 -0.42429903126530549295 0.043966071833641963418 -0.099736301881411845716 -0.062908603905342377893 0.10998739667378906737 0.19859545399374164965 -0.15955808856787354055 -0.20380352829526929281 -0.021279387966356276551 -0.17421483874788770696 0.10360984310050588841 0.051005686960986215683 -0.049236696869553807365 0.15688362118638354836 0.0095937862968739715669 0.15394999085529603722 0.31784572267732191797 0.29910003690343833771 -0.46155287872716854736 0.094906742058221235658 0.00031737178758713162829 0.087566658266551911094 0.23152512787251147697 -0.42492748281050884973 -0.15029182303589960767 -0.048939365644080988493 0.15440183022667705592 -0.19500981199645869846 -0.019016476887595588213 0.029620809701738061437 -0.1354947679201122801 0.11973064622433801651 0.41044652640525786103 0.23849315786717498189 -0.12307151581076906932 -0.044432860204514049163 -0.0073879182802840653171 -0.26353570127247427646 0.30977851481030460601 -0.24449966549156462725 -0.2084606445408802855 -0.052002033862926698438 -0.26880774876490876046 -0.074409225857718461206 0.34267281841320240687 0.17891520605077998463 0.011059589313171483416 0.0076942378341185325291 0.0680726354257874533 0.074275381512773061554 0.18908695242780018675 0.011955766196466158929 0.24092603259151126882 0.51602256436676241513 -0.15746773949806194826 -0.087454574612436941639 0.0075785619635795331561 0.071833971664880119645 -0.040784932644579149907 0.16491141741124790143 0.58836576453147093613 0.29426709489034136302 0.81921551985967999698;-0.22324073228131302571 0.45854076704652813046 -0.13408588493233425387 -0.35895098474157982604 0.081663000030439164556 0.053350646380978146432 -0.21359022307682337671 -0.20505666826110555134 -0.29875204425616369575 -0.35663192690785894268 -0.02755749008110208384 -0.0099088204496724247711 -0.33749827163768075788 0.23725588190809754341 0.1677113537300941315 0.53199287939774464462 0.30704247057870931448 -0.12576109570356916456 0.01871584675005730572 0.1035662796697639082 -0.13103632053441124916 0.036380211668841137829 0.02458700843315063389 0.21568397265522565309 0.15193156833168230957 0.47265285503852527693 0.19139434051678680393 -0.12508249983479355349 -0.18380871069726850697 0.25966021666790001232 0.20626207063741294756 0.17838988207459779978 -0.0056088355487958537621 0.042671623115246873348 0.074042728376105482191 0.054688061453368158604 0.3064315051007776014 0.1821931145219689574 0.070848884001048315073 -0.30042559893397513537 0.29286718522569754608 0.11687403741381799382 -0.1431287672503105679 0.020524021336989602821 -0.12919608767120221993 0.064749531279494801361 0.43415610283536587577 0.018799684433842753922 0.23803361854950649823 -0.044370897581997567616 0.36543497715672396131 -0.13308870040185855066 0.0061327860870554300188 0.046620110787538797392 0.19466373817554760706 -0.14207185512569708852 -0.081999885570057204354 0.099203544733556997537 -0.068790690915138369421 -0.03074156153808480299 -0.036316391476815715333 -0.14293303656909056576 -0.054551183775555268929 -0.43483393876691855962 0.056978177355020899475 0.088423466479396958806 -0.010054437116708187655 -0.037859314813588854087 -0.28296689212089315424 0.16506630762588528349 -0.052530043763954335778 -0.12931400340238216606 0.07961797579677278025 -0.07849067715369682785 0.42933281425195263248 0.094343536767344221561 -0.25139042319151694294 0.050436696755750722032 -0.24864943158172370108 -0.14959699961355732434 0.38875167534597043772 0.19972271794248813714 0.10684331413664495403 -0.17763675319348093407 -0.24934729034609537379 -0.18615755295003316716 -0.2082934973696912162 -0.034277856915136274696 0.072258516056581498233 -0.23959366437935608607 -0.12098975820423614469 -0.13414270257463689617 0.25184415217462258196 -0.021037774285127291973 -0.40770092030284826867 0.10465300102255981063;0.10311535329961941942 0.091321671145995625407 -0.15694013475877682806 -0.13507155059658737528 0.1455493662150645906 0.13513985836365807747 0.2421647786173714012 -0.015606437655741841816 0.0028138589842386999007 -0.032854785137154327024 0.053676177094427103553 0.023152042210757690227 -0.15658677100023571382 -0.22674459957488138362 -0.27735379022536515992 -0.17895095154417761663 0.19237160346411755207 0.11196165214414506572 -0.21785111587617045359 -0.25262204626156198328 -0.027934791329287028683 -0.08648502747910695454 0.19812172141054573693 0.15025687278030985805 -0.22348011169210338367 -0.35903155552490845226 -0.041021044647886306667 0.28702732498781313719 -0.015717658002772000314 0.17855966130486974897 0.25061894698849362939 -0.20692820509303791465 0.10874963056881874202 0.2107820839504875865 -0.13627345570655949314 0.20687363754639798152 -0.045087699292765008596 0.026334048874223286302 0.086654267733309683908 0.069997833548149465677 -0.0012743181670047917017 -0.1728097510666909975 0.26368955594928850106 0.055802540730810354375 0.14291896353724464763 0.051424894889701776302 -0.064493432211657097941 -0.15312387089825932329 -0.32994991197593398491 0.13106504246165073813 0.19575005481177279454 -0.13164531039137350454 0.16764133795802016458 -0.26939528912177196363 -0.066915554423395542938 0.3115687290604008397 0.16286346524061504071 -0.34029544335438033364 -0.015221464655359564014 -0.012507176967664176276 0.014842180477773924546 -0.11971240893042282838 -0.14525112730212871859 0.30564253070352537245 0.29102311679990972015 0.19177218193691686343 0.17552259447048682017 0.2139048396165651178 0.17384115040074918368 -0.67578514222392160882 0.21624388386065770962 -0.077548395822966423307 -0.12369501882160909012 -0.021996228720302563736 0.15177588158016566688 0.24464540431330938919 -0.30374325672867469317 -0.071021856793766630078 0.0051141062534746217078 -0.093941252991413037865 -0.22117322412984724567 -0.22427046843992742842 0.22282658546818340239 0.32788930122968484859 -0.0050211232325982173286 -0.21260981069111270503 -0.16323233505000489529 -0.10455590549278605261 0.071213673006532765553 -0.27223100846190440016 0.11758351224232313492 0.23408660988670457193 0.050106633688204151034 -0.27560719620102763772 0.29469349550308787666 0.32453769080868061225;0.074138671475443118641 -0.3551866093925236112 -0.16983800564300410851 0.061146219692978634463 -0.19367561510684994097 0.12125095229366296412 0.26150760552883900445 -0.28967211474138121474 0.31737390540699544905 -0.074660614830844726497 0.17795907834293364647 0.37711406275349051986 -0.1230335664708550325 0.10018227283176400766 -0.079534607216249372796 0.043029403428755955141 -0.13210359135228230687 0.20519946696927743313 0.19478737871737353271 -0.22302676726823211784 0.10739547357531457894 -0.067357238284673826012 0.25261302328648549409 0.20660190912204903779 -0.31163113584831292346 0.092589293145301204691 -0.22737121222665193643 -0.54726341718551829718 0.059045288478680110766 -0.34873642165312174201 -0.021459843942544177403 0.14930641355348034383 0.12498182262260612574 0.23960173841671550399 0.054709076326240849153 -0.080205259225181679827 0.35573257298484500799 -0.075698534618948404296 0.096106047734314942188 -0.34095827788736543518 -0.11331736516160827166 0.03157856412680943442 -0.1009183583520492089 0.34114543266030894486 -0.1759994582482975467 0.043113942831417242929 0.34711914845270575025 -0.21803297763577669799 -0.13630694345430813263 0.1191288652437882678 0.20293442623381238721 -0.20350040999161617128 0.028909156192765191051 -0.015577576860066971731 0.22083941874779047798 -0.24141317300130710199 0.069354507949054747251 0.14628634505619939055 -0.30071378341970367298 0.26816787705181582835 0.040728266064094666155 0.076665841809725146505 -0.27576785627231059639 -0.21713413855873622826 0.11648635098434829971 -0.29722805614124853113 0.11921615858915050878 0.01532114476046761431 -0.168099175550104174 0.36018069219597681485 -0.27310354498253536226 0.0021495292114452556852 -0.26742798779026266676 -0.043451792517751164358 -0.088777311652269194631 0.0094067445247364000344 -0.50241909854648925116 0.28247785779983475285 0.28097004648334433785 -0.037096497826404666032 -0.0038156662220492462874 0.62986426000480921772 -0.36715287352265302268 -0.037830134074964945345 0.14914528077339059275 -0.22133498312848351453 0.25501551009676137749 -0.029763478970364399406 -0.053763826089913299699 0.0079352346280448168847 0.10328444812763433458 -0.3862481781899657074 0.14922439913102233944 0.23381788693805791168 0.040505919660829226014 0.076634275581656988163;-0.34718882571325704323 -0.067162233834986956316 0.06708514991319503018 -0.003317738602321187915 -0.49063387960822063549 0.12181580309799490414 0.11560239697034405126 -0.12742588788648964715 -0.067851936687340921872 -0.033327663825930754771 0.11660419779683629804 -0.013855393669697693704 -0.17756750632637760545 0.16292411045681720605 0.079263035039250834268 -0.045885798211335808439 -0.24962011107622111838 0.2456980990253914976 0.047408429476797693536 0.47328031616275695326 -0.036637357550552578089 0.086923749009998413362 0.15969244641960933517 0.087255045211783566206 -0.041852533324723405206 -0.26893308880460015109 -0.12097556166499426333 0.076776913111454028749 -0.023408377447665128235 -0.0302584177968322314 0.021722116172463411254 -0.18198074447819057031 0.013360625362525680587 0.13684579420839362851 0.10809366260818788208 -0.28408922134103331558 -0.15914844227687502398 -0.37169526721982110162 -0.0020274388488246268027 0.073061289484418950879 0.17588435981772543304 0.13091090383425948995 -0.21883936212553062317 -0.20461280682488491856 -0.19740974828680010744 -0.24971876881629292977 -0.27551218998606824551 -0.064199418686283316049 0.11893879930374190446 -0.30193039476298244583 -0.21756566313111155853 -0.20938903228165972603 0.3390079268182541461 -0.0071563203916040736899 0.12432721726728486467 -0.063119906061928354735 0.187943996623073456 -0.25544139804577292718 -0.28303623470684219354 0.03591991894501656013 -0.59651300763368675373 -0.0068742198971444784875 -0.10582136861292011643 -0.14890803116290557417 0.034703422080094317725 -0.0090587501586747009447 -0.28871274942307184608 -0.062002778573668579365 0.16784117989570226936 0.072072089022025470628 -0.012128252952033690554 0.045878451916686005529 0.23443389111326229379 -0.22340653413685596096 -0.10976761134837081935 0.14216435503668983786 -0.15583712773889421555 -0.29302967788660122528 0.089992728646595590569 0.17076586436472596109 0.16640661641003248739 0.020600043066399446878 -0.2596789528906140454 -0.12119582535964812386 0.29558477168094499099 0.0042436572387721353816 -0.13580892891649284926 -0.0208967213995267867 0.067456245519513624576 0.23795287025044542517 0.22862645319874363992 0.020673571939823682381 -0.20608830144221321201 -0.15286247110010944827 0.052122037238679495841 -0.49988143851126870532;-0.076558305570664564321 -0.19861627503170681264 -0.21817265354677073397 -0.17643875788337801125 0.031726187734360450365 0.049643953883893740531 0.24508075167984610943 -0.20892169663212240005 -0.23945195688366055498 -0.32968352276484441665 0.093719150624187674836 -0.066992712520254280029 -0.095239024757468968008 0.15968260716767118668 0.027837246701653110131 0.12098672545364211328 0.31288520152512433459 0.098747237275170637871 0.20415566301156662377 0.32507713432614948612 -0.04876670767383037286 0.057760846312934231717 -0.062994400129157010482 0.26941642038327828779 -0.17837306212135378702 0.15728145131640622334 -0.029015935813332158211 0.073346555496155013687 -0.0084764089964169536673 -0.039590595286915428175 -0.021318535740909298759 0.055362814405902197046 -0.016054990528498448016 -0.075352960795461124133 -0.1849196641631521143 0.040787340909554173352 0.092341091493692642467 0.2652252012827459593 -0.280507892425139016 -0.056895896072985181757 -0.14652945185626906066 0.041689208717533642046 0.14464384667551810626 0.39043498338027793348 -0.013665266736158717883 0.32788506655870580664 0.42218349556060552619 0.16976293162800312753 0.045890105664367505933 0.18627601062625395723 -0.13494946186108289221 0.11028260528942544771 -0.057019765669050342938 0.28993819018290012401 0.026683091209559216261 0.11701925249165730236 -0.20813363745717378128 -0.25233688207466176134 -0.034626679621587289071 -0.16534079904242721115 0.10452811994396492279 0.032862028814502917962 -0.0049069855613545149478 -0.063945256366921887636 0.29403971482436991325 -0.0023140553663359778036 0.096183053316869090987 0.29718552250367830103 -0.096144377203048997371 -0.13635330626408784238 0.31831854058861858148 -0.10130463075530089789 -0.13822367701940227458 -0.30061662159867535982 -0.044769901855728058693 -0.11035952449413334586 -0.088140782945104634294 0.38689931646403641352 -0.18299550357640484433 0.096648071609925334524 0.38586385665661843136 -0.24845110616490143074 0.38674393145899504942 0.1443543454207545651 -0.13153867581384126595 0.17397694188589848951 0.38663919446802935687 -0.039898050264485361571 0.039888030440592962822 0.17677741751259895553 0.095697807096825099338 0.29510357398672731888 -0.22159936513457520468 -0.34751030908112229278 0.15147097930199929228 -0.40217615547073737314;0.38164744616719153969 0.43141863340730735032 0.15502978053847846218 0.24964379883216705758 -0.040611837224353491971 0.15368501394551273287 -0.21427907844954194316 0.078516964205697717394 0.30396261155495701844 -0.031661135919735336475 -0.14726973784937721912 -0.27962652902320472847 -0.031864873711224886432 -0.032342438090197996037 -0.050293537174465441364 -0.10929755358084640438 -0.16639634358646793189 -0.058928045900954080516 0.090681648357226460333 0.31797785815559131972 -0.13031314670604413064 0.099004721173850451788 -0.19495906799256151887 0.3038826514034113635 -0.080056765024251463903 0.21061112884057722749 0.022112998526426504847 0.066800093724804512907 0.075077503138330087262 -0.12564661630477344523 0.38754325287287100243 -0.24547396299655421803 0.048462593030527363613 -0.19785827373453834799 -0.20333147700791961987 -0.069261534125250240335 -0.22399449488847267276 -0.15988145108500378955 -0.11261123575786320672 -0.16534734621635691076 0.14856511925733945079 0.10315773199260379334 0.11692535893962661964 0.16409694102308819419 -0.13986952709338354439 -0.20504675692201784765 0.22685292715272351027 0.24953862456727629593 -0.099893148022360628291 -0.011913874739993311064 0.057132580948242535357 0.31063382900391117714 -0.31794943281477555663 0.084930954715902437502 -0.037970838738889789443 -0.23866460746394158043 -0.22853716194491127678 -0.19320825457210744069 0.089930798743183201771 0.10198662001789142451 0.24327492125012756263 -0.12730331938924452362 -0.10772184942207600755 0.015762655526871949263 -0.2359048992894157426 0.11250059381039609341 0.32307483790865915152 -0.14702717541797560852 0.072541997353417903005 0.3583715435840352237 -0.25859516894151973743 0.22625653825496938598 0.097100991539923312001 0.087164388894795802321 -0.09961065277013146646 0.27304245826294981647 0.0063538383122243233259 -0.045555844613299249779 -0.25742556035571717565 -0.11565343882908632467 0.018379301894858864758 -0.17232345198975240752 -0.12026097636747462571 -0.18614148734240171246 -0.028634441806974938322 -0.26415727753309214965 -0.14990503339945929207 -0.11070275063850390507 -0.20100662974423172402 -0.084482426716249101051 0.055588180886958507565 -0.15525695261844726924 -0.077594452895639015599 -0.078299829297890394253 -0.31555336135736800074 0.10568662330514512482;0.31002700509484287794 0.20737735913430646595 -0.24114798657770372681 0.22583631312301555294 -0.07756902874746894605 -0.1065931274233803544 -0.18203399771895961701 -0.23943568630578904166 0.013688300706596224707 0.16748490197647789013 0.27527447133306959248 0.089100352544658825704 0.0163064994793319408 -0.23520643317859285526 0.21435371187866159026 -0.14802395508884697017 0.21634144340869862488 -0.090831398912042587979 -0.066301913999474229588 -0.27421312322926355565 -0.18302175388203895112 0.26856003992311028306 0.15505758560872959229 -0.02210620853518784068 0.087215293957303888228 -0.15385281218396537617 -0.093496089212603272767 0.34993554201351823041 -0.22611660269657510303 -0.14939337023968130014 0.24438367470106164836 -0.1518080337813547398 -0.1652516923891251821 -0.028200314361670562185 0.08417468520305411428 0.34257760927174379928 0.093315129014388584205 0.21155326898312193373 0.040432397590697236045 0.19108102313032293562 0.074704302451887125147 0.15881636600102927437 0.15023771387101880759 -0.047359954683832590494 0.12209902225314077373 -0.2005823275282980489 0.023448368556650157207 -0.067731972495558581682 0.15894183480694654143 0.1230036897199098811 0.081989719216281856107 0.13421192767302675408 0.28579281519261179323 -0.29724741332297532903 0.19863875531520375217 -0.0059422350470219285901 -0.045843718045990855536 0.030617383111072926649 0.0040139574968500336266 0.25487613976425016471 0.35851206514549099902 0.10234500323379089326 0.14649256005587846241 0.3334323544286662 -0.12942222168406170013 0.15712092795623777697 0.34046512905535258886 -0.19711307535366809351 -0.058843150635325157383 -0.36683079158354853222 0.063567986234275120072 0.30597425956085883003 0.11042703160564126819 0.25262851931793328664 0.049509625250603948865 -0.026398151858900566896 -0.53119146012339224505 0.25923213496951807988 0.0083181061625702754081 -0.42394469816401170181 0.25178885844915455117 0.010023235703373038763 -0.088805465451718232361 0.38275899195706875044 0.17478393224663099637 0.053382789806922438525 0.26992242889074757883 0.019131866923735821318 0.10374639220384140881 -0.33834425523762046151 0.14975872424464725663 -0.13992427108705635108 -0.28625624589958259536 -0.11206224499319768217 0.20866163527489725582 0.047939229647769740494;-0.20713975300995504658 0.34252978863023975098 -0.11485437967645410751 0.14563488746658359574 0.23015909582321725235 0.054897490780152900791 0.2053969350915823 -0.22055303572857115624 -0.1055356025577582485 0.29034795621085152106 -0.038884636227388365282 -0.20848802306211347557 0.17854497766537466563 -0.29471175749470207572 0.14155642295174172829 -0.039204912510534685455 0.12903263867934050557 -0.33835503521855442299 0.082704180893982626177 0.25030903047031644038 -0.016920013762727136031 0.22692827372239593453 -0.34550602187732121218 0.34875695718681826163 -0.074311987533373674575 0.051065456792505237171 -0.24476161847483321465 -0.41538955653641412846 -0.11899595107603631872 -0.15600276182798128444 0.15987595678726049253 -0.35941557895787923371 -0.1076282872753573927 -0.094196427983830960384 -0.014586383199067859059 0.2364014043770091833 -0.11451829230097063106 0.031878240606489555153 -0.042300627578723812294 -0.24398905357904845936 -0.062188526939765932655 -0.036441165253878457508 0.0396417368689101976 0.061828568152534825464 -0.17989923253127618197 0.26727251065181950596 -0.23846968161879431025 -0.11831518938355070625 -0.12581968389976977418 -0.070749363982868518352 0.036906284327172841908 0.22041421991269063985 0.077117490689602039011 -0.033239375577306537468 0.013942026611435063763 0.40603025324123365181 -0.044386836198172990864 0.074513922394999987375 0.50112646042996455975 -0.064251927905641159633 -0.040811633714011849583 0.16774956702704604816 0.17114224753014328773 0.38485668675821615992 0.048712339068491643246 0.17177160607742320009 -0.19304578065246891239 0.06813960812879497897 -0.20471655422623666332 0.10456663921697449682 -0.077597174699143581234 0.046433100910674783568 0.18879650378570647651 -0.13088401818553196954 0.16160688095765957106 0.19326515497362983798 -0.12618563317646289135 -0.20624688062914930953 0.0092466327175533980648 -0.22489932716016289294 -0.16532982222293399199 0.040458328864119243173 -0.12654192191366961384 -0.24735197216910434492 -0.0068121166842824328047 -0.046300407589270037301 0.063869077341619354127 -0.01647951091124998102 0.1274687437222541686 -0.305567886955476542 0.12242621236538478446 0.078102746359213034988 0.030363118429374679613 -0.26683456950547701503 0.13685842886004701002 -0.060222779821917378495;0.022705230731267470046 -0.057700717158197967205 0.054716286468655346564 -0.112970699346219422 -0.020470180670550640334 0.00020456883334262149568 -0.25180345482525368084 0.38060224287562283152 0.056182802812952618854 -0.023389976137978274462 -0.19723969435440730225 -0.016330766054846332369 0.22043627283268590888 0.20169713438976888398 0.023686359943291025731 0.15432062180005737262 0.078086466249172439835 -0.033266258570054926813 -0.0091739523233639787975 -0.050021325168017320706 0.10227444958695540433 0.22015405170848401095 0.090565837812642491222 -0.39659895291842522935 -0.10463784876000578605 -0.26115802153137085417 -0.095032809277148286298 -0.059096353434318620035 0.0024749756707655281088 -0.1681848573485709708 -0.13826463717094547579 -0.25968950452071293267 0.025212218700157541101 -0.00099992905467557189128 -0.047121310983781160286 -0.23210193469411147249 -0.18562976399980279929 -0.20209195190573514544 0.070907009018937844358 0.19139773768579126934 0.0054006287103092447816 0.11320217122837260282 -0.30495220092533809053 -0.087251753303302828635 -0.1074457874586571271 0.11585548673600247482 0.11793191207819714306 0.023001206496852402705 -0.10826312079566716151 0.008958416893031676681 0.1607948889134743764 0.23672415743401303834 0.13194328996006637889 -0.29889949564614037847 -0.34502327022041878735 0.013755825866157606746 -0.01222533142818787652 -0.33965603417473155812 -0.028432119144837553898 -0.30732911374627719381 0.10473228115524427229 -0.10506434388612027886 -0.16352484133428715762 0.081124973348658493966 -0.23830407828473984533 -0.03958579444580287432 -0.14554905316146898864 0.27375295363062313037 -0.14926622090662236553 -0.15636248020471199549 0.47665208907187894827 0.40801530940166308437 0.12725100837331421166 0.29076254968453302263 -0.15529701755988067902 -0.04649612803319107257 0.28286958327788586098 -0.25720731709121857911 0.37244991588778270097 0.17563252661919317998 0.014066308747748491187 0.28382128887739715983 -0.21938335338106138006 0.076315892280652372626 -0.07052769497817987232 -0.094762915043127546322 0.37507144315486878883 -0.40542026909374367927 -0.067504097335694832061 -0.13984300895349213723 -0.28518724693843738871 -0.23641804169023419857 0.30905034991501539876 -0.12800607701173261077 0.24555020273670516429 0.53833784714094989887;0.24813617197430351546 0.083996376080427620492 0.19593514620308444263 -0.1448212274705079905 0.25932822706543751101 -0.050613414563932097867 0.15362614337359167815 -0.082541241563935788261 -0.12230530594374568187 -0.06827664044705575308 -0.25537642660211834489 0.16845112559480729386 -0.11940271424669775258 -0.24821930386355486875 0.064857255496553301022 -0.036441200418831531938 0.18162247110530038707 -0.069166603727230033249 -0.14573332599659336029 -0.050858709478858704633 -0.023174341749263756285 0.090738186133165921188 -0.12291460476463614282 0.14115048992463430366 -0.14674617844712117831 -0.17903121786221110057 0.20782093506765381141 -0.19936085639282330462 -0.11207604856125073789 0.17030152119532432353 0.19742198415643705256 -0.068572729074799082527 0.01073609492270878249 -0.31798425939122920703 0.20733958353348072579 0.022273145121028105342 0.13222896816560841815 0.028464829108710801298 -0.032462966541141259624 -0.027239799876098827469 -0.067097659532218370537 -0.17843825249013162138 -0.12466681809510803125 -0.020321058298417148114 0.33606351780575705046 -0.096998802252017998771 0.11535203033322287414 -0.051999177988067003808 -0.077888950034696521896 0.15402256015522858279 0.39703010371416497248 0.096258157547158051948 0.070280050708682303973 -0.20449150388958006741 0.13373450155535970829 0.013826977251276616546 0.059153906046690331311 0.076093793743690241183 -0.3073848752377210114 -0.15007146887046030059 -0.18796905215885131857 0.22966176632700552318 -0.1543549067770868255 -0.15974484116231391084 0.027822434178325309434 -0.15044588068170183792 -0.11084329680153881537 0.18448752337127113932 0.042816751624055224279 0.21947765071196589926 -0.34518319463263547053 -0.20790487809715876844 0.096620836096036527563 -0.1394734583881545309 -0.25262989357526116629 0.12925275811642877866 -0.13784786359184023063 0.52858997965950293985 -0.034002932014234897584 -0.47883354014511408936 0.31529516075682234577 -0.0080333340360260289958 0.03389946428550007218 -0.089846341603974810841 0.012865867978241095348 -0.14867349457483658437 0.4482992124950038737 0.3679593643817860027 0.018906040687173695375 0.16860862832568032643 -0.097950348025834410581 0.12400858918699568523 -0.074481208448179875292 0.32209920932241303815 -0.17550902350185995648 -0.029228282970001819713;-0.040026221144802261176 0.19241567618608504397 -0.086161677212908502344 0.10865231268697397859 0.0042618080294845412867 0.03994423561510645343 -0.06051185758125255526 -0.33071778707927734775 0.059429038680990559085 -0.15602007764025460634 -0.21951237104969620328 0.18109108521868685915 0.045025401022327965483 -0.12010665781872346958 0.20406016585786937445 -0.013495391797260889929 0.41876560346148666847 -0.0013400241781176451886 0.37971602453206809713 0.015554591044063675875 0.027315050371806297996 -0.14513681196106673066 0.17949118296665289574 -0.10494860047187032359 0.075695038875592965399 0.067840944728872323854 0.11356472682376067551 -0.023573840641986348182 -0.1057655689227171153 -0.051341547423225268598 -0.3371566924892900885 -0.06043806240274646191 -0.22147787297954599217 0.34106438369516506315 -0.1177048237734815983 0.12841428814541866466 0.0521573884308667024 0.15148399862204944832 0.13059211137626033916 0.2168855038880248276 -0.054272910736381997643 0.016980570892565962499 0.1768999586483017139 -0.20426329034085782821 0.17591366887116480222 0.30166998706596154234 -0.34518328962973093832 -0.2101874606549367086 0.15113882945369133681 0.090578983071877061661 0.029124067762777528651 0.23195704989280649388 0.15694016054098761104 -0.10316601071843464754 0.23409815765082656047 -0.081901054114446092402 0.10963295023135578854 0.32816601312889570607 0.17289478314621276045 0.15142535354801026082 0.21991479506897246288 0.1566393840092398515 0.40048009159439246218 0.1493347963263196021 0.34422571544143881761 0.13169905825652750142 0.15337261264607882083 0.18216593335097369666 -0.0052569184696316930902 -0.21213575116106217489 0.31660605627443355603 -0.13604938523380047388 -0.068142843789535403887 0.0773929010307771309 0.15718118412133921802 -0.16469970107158846129 0.10983173094135934011 -0.070383659009459226263 -0.044400721918872600169 0.34496867298463695928 -0.088846567774624060632 0.051671782344887978722 0.18569472531061254061 0.11768723660324774405 0.18310514791341242491 0.26716396249064133794 0.057844085814249220079 -0.24745716518643956494 -0.0057889720739478746012 -0.071248576031805357922 0.076226695831149909877 0.29143281885851779478 -0.29612296601974963384 0.15867117987185269667 0.36073781909897073561 -0.53822328953056175482;-0.21246026421575892051 -0.18368653192559417087 -0.031775922848992506353 -0.18566727848827399572 -0.27481536645180348888 -0.11687088194983054346 0.1311689286813179367 0.024113120300048213746 0.33238293414565495132 0.093450624800781839641 -0.12219512442154244203 0.21702606136960284067 0.091038890591549057052 0.1264308802397235143 -0.11358943461085860283 -0.044668489368938260609 0.28896564306887795315 0.13464819250106785375 -0.090857617130922913029 0.12896148293935638662 -0.41205805649278304248 0.15293563105582588801 0.23813718670920328013 -0.43651375730042180079 0.095971346892452333299 0.003823979243560541013 -0.033963333206272948439 -0.0050536551669087244679 -0.095260940241687824814 -0.076879469937707639593 -0.11016387057448805142 0.3948321992779935119 0.050139743898626951135 0.3705529814392816701 0.26385129415398961283 -0.27325042130553045538 0.197465929140380414 0.17410053250184728824 0.11743589874884872992 0.22061063986008774829 0.1278227493838148543 -0.0010943807427837683524 -0.19428561348935879938 0.13947706503073212247 0.23057280599214752259 