function [Y,Xf,Af] = MLP_Hand(X,~,~)
%MLP_HAND neural network simulation function.
%
% Auto-generated by MATLAB, 24-Feb-2022 22:26:32.
% 
% [Y] = MLP_Hand(X,~,~) takes these arguments:
% 
%   X = 1xTS cell, 1 inputs over TS timesteps
%   Each X{1,ts} = 96xQ matrix, input #1 at timestep ts.
% 
% and returns:
%   Y = 1xTS cell of 1 outputs over TS timesteps.
%   Each Y{1,ts} = 8xQ matrix, output #1 at timestep ts.
% 
% where Q is number of samples (or series) and TS is the number of timesteps.

%#ok<*RPMT0>

% ===== NEURAL NETWORK CONSTANTS =====

% Input 1
x1_step1.xoffset = [-1.72332861945789;-2.17257864203523;-3.4937133679005;-1.86420583512895;-1.92288062375351;-2.06596392514321;-1.50958705265413;-1.9709848096725;-1.610118876501;-1.58508502290761;-1.66913333211682;-1.46280148481778;-1.36742541528415;-1.67900104904107;-1.40806072487521;-1.58014008966153;-1.76951791031589;-1.60044495243328;-1.7482204145905;-1.72363889796254;-1.60438788135347;-2.29593863081153;-2.24737146326741;-2.2264056917339;-1.46995840026817;-2.02474153056704;-2.30184296415295;-1.66253198074119;-1.87571377589969;-1.48760001391809;-1.42517108329237;-1.81890055472439;-1.34895395400946;-1.41569541633952;-1.55015759390974;-1.3210811054094;-1.35194358645002;-1.63119675711418;-1.26319824501866;-1.41321548011178;-1.64153598061368;-1.26882408676543;-1.68035284106239;-1.6699073938118;-1.29491522971461;-1.74656359262875;-1.9723034886549;-1.35740506762771;-1.77135416318188;-2.1912512627348;-2.01522722443922;-1.49320309018547;-1.88297375084696;-1.3551463156346;-1.47096426073814;-1.85045262256882;-1.38630587917662;-1.73773591539485;-1.91148167175315;-1.32505114187814;-1.56370218309693;-1.79983262967672;-1.2253046943323;-1.82891132121617;-2.12235676523507;-1.54629901738735;-1.90340267222258;-2.25071515536603;-1.4220567131904;-1.83275481563213;-2.01395206676217;-1.52611188295342;-1.73087158023732;-2.36922687353935;-2.73159574487934;-1.70456735115202;-2.07702468977917;-2.49064499063558;-1.74102682203837;-2.09614259987906;-2.29224137889676;-1.67756852745348;-2.21608162122258;-1.92196695177652;-1.64671575625942;-2.21972506425614;-1.64234118778239;-1.8179260184202;-2.17373925590163;-1.78299689105544;-1.98176853754191;-2.31546930302515;-1.66424518114279;-1.83030581468009;-1.76613953196143;-1.42344350019987];
x1_step1.gain = [0.287717166643242;0.308487367673667;0.148374665160299;0.237206043847384;0.354829323226642;0.181438788184008;0.290852060414678;0.385527814864965;0.239480544310682;0.345626082874156;0.358396288339218;0.274694261673215;0.293124197777031;0.442964338152676;0.264471207405631;0.236477520695405;0.453868478169023;0.23888260971037;0.288296562538589;0.420683365017905;0.210291462230613;0.314996199162995;0.395935249209702;0.168192635756234;0.329915144849848;0.336859834729343;0.184959598937147;0.287202193606529;0.371251169594703;0.231586620635797;0.281726129261898;0.433139999049959;0.348813608652711;0.282301848879115;0.388506131667163;0.571163077883019;0.24331857362617;0.403488986735411;0.358215563730286;0.338714277072452;0.472212663606421;0.224911520178033;0.276446200840061;0.445510041836199;0.220128799035086;0.383872903113939;0.404570911374545;0.196552713333869;0.315617685470268;0.383250743508386;0.164570426532627;0.329964927664033;0.463188015044832;0.254034736932135;0.310094963976269;0.484055245200935;0.285432501865812;0.297870554249019;0.416114091150376;0.350603184168352;0.234811739180845;0.426902072451661;0.381816702210054;0.234516076425847;0.429760690513063;0.245525634886607;0.337856392351343;0.405637913271792;0.20333547900863;0.312404677235257;0.419514753030754;0.231997250905205;0.292141845143417;0.451911487664539;0.129737940764451;0.376542655982834;0.5044520312388;0.1767099132514;0.241169539532919;0.46676805652773;0.16935944981724;0.304080273474314;0.413235119046473;0.192860499004116;0.241596522388903;0.473920489925746;0.251916649556654;0.326152141081681;0.424536167426387;0.238836539029637;0.346090876665498;0.407980090329178;0.22059913175632;0.354341556453534;0.397348731198155;0.262419734379048];
x1_step1.ymin = -1;

% Layer 1
b1 = [1.5395070917166822078;-1.3469562889952377827;-1.1396555853431040717;1.0531163941798680206;-1.0129609333680129613;1.2083309700777056239;1.1167971043924702634;0.95916411264651268986;0.8199240176938442648;-0.93083186839740139629;1.042367860504752386;0.71786996928423996156;0.7115259563497893236;0.81489052956562801899;0.6223423492496815701;0.68060353290709141305;0.62437801489209154848;-0.56643751092262717428;-0.66339151394770412562;0.43981208626372830794;0.40829079324508238402;0.55028082021928859113;-0.44483184318517116074;0.25979809725978203483;0.20190783641051324171;0.35071637837752306366;-0.14694904213099227452;0.19109112913484943563;-0.28138110461144805186;0.089463042947027907048;-0.067419292279601264473;-0.030467686092982174811;-0.012083147396823881725;0.052191779978603788925;-0.045841755139086795556;0.27545988989154074345;0.16073593788654205738;-0.15762936366917348896;0.23440377049677590948;0.35017762878650349201;-0.36448942677692991454;-0.57753688576956085932;0.5409375623783032605;0.6647597351218429429;0.63551737664418461726;-0.6426913736959427581;-0.57008003890233172051;-0.58788568645596361861;0.75715254925241382011;-0.85653496686362229351;0.82226949825539841221;0.72934637579085748182;0.87341522897754642063;0.89410549203259337414;0.74886449816471045704;1.0522624972226499729;-0.92707345876049485067;-1.0592622720502380407;-1.0952976782984764625;1.0865932798610256071;1.1956097987931866289;1.1629582351534235585;1.1326522547224722182;1.2452920090346035753];
IW1_1 = [0.012074583308846590507 0.014403855837016818833 0.22661722571263645531 0.021712183723362584592 -0.16870625908401445936 -0.1081418351778386383 -0.22630165343825078827 0.11054188710215309688 0.030235088202163213494 -0.16453072390841833039 -0.2929402545986735662 0.19654713140107543667 0.010744042377278262973 0.010620547003381148807 0.13744910352068312465 0.048437272610501881653 0.14165059999464954532 0.14182142995575400257 -0.26620889804134767465 0.12049861878788160896 -0.025201353643993142789 0.11957464406244960875 -0.021203106077946218266 -0.11955093830399184107 0.14629291791828524794 -0.15652539037446552839 0.15731192451327982718 0.31538508555518685039 0.066158410938591635797 -0.13738711287901800295 -0.23989303515288759594 0.35193283332161434673 0.035696000428938515214 0.10954127636477892227 -0.032592617769103660041 0.15035749664118885915 0.082804851991999522953 -0.14871064435856956587 0.46702481809888601871 0.077674290612349386476 -0.0045416432486308326577 0.1206343106780790736 -0.023015797956799241564 -0.0048117434841391326997 -0.27495132679484091121 0.047385305286390136392 -0.011776883405339706387 0.24849315316166598056 -0.082810316774972803078 0.22887982447995752766 -0.088355500006073658947 -0.120412792635596122 0.29157081526744083044 -0.32893212051423809106 0.045520108272808473826 0.28010580232845988524 0.0034682379676100999998 0.34955375131930382926 -0.26927971248423565598 -0.13888814127247828267 0.15888116961321280263 -0.16207942733260191637 0.27441610091548829242 -0.016365597846595920928 0.19541307567134380552 0.2148008068547500593 -0.12020152928187925745 -0.010885058349063610889 -0.017408336468959288018 -0.14435461143022446096 -0.13636368268927898106 0.038797567365404815598 0.024041136015350159788 0.18122135548179571507 -0.21111000669952678654 0.11089388029354006748 0.13509109875540428747 0.10915012102083639089 0.24056139709981064212 0.023390013008736651456 -0.012873218576963118415 0.16162602963182740035 0.18309148739194441857 0.056329619849914490393 -0.27014111435001797457 0.023988735190684191273 0.038418563313077899735 0.13312224422599855389 0.041576352082210436822 0.067873094156125121645 0.17935500244814828186 0.16504964750804274054 0.14301462259474245764 -0.1789010954745788029 0.19463191325629297657 0.50762069508704243948;0.08240599324881846266 -0.12283958061310648602 0.1684345142732756595 -0.26849030157502989935 0.068353666833759457733 -0.075267809932744483836 0.065520878798479856298 0.094432192362351910497 0.12888462892842428298 -0.25714154041219650093 0.054815415765829954287 -0.11764941159483760513 0.097337946651979964652 -0.057768117428218357379 -0.0036464695588633039974 -0.028604094230826434403 0.13002018384529664963 -0.11180584003066580678 -0.18462806520924229803 -0.14351746655380295814 -0.13356220771869214969 -0.11998946779754242342 0.096130026318440253696 0.0028960126605273345431 -0.0035350852178024682118 -0.20160576395820462015 -0.011344558297455432927 0.10654717870772184574 0.16892843284997971498 -0.22964717534032383361 0.097246259561168224561 -0.15380473789796364481 -0.013404821888807236935 0.010632470310351527232 0.078127985037814123848 0.046108907188288854317 0.18117236870764502621 0.050654647780412627445 0.01819260650837244489 0.11984530965821801884 -0.14850243891092307358 -0.081402493787965379823 -0.19195299312599897745 0.20359050878935466833 0.0029853991448575522942 0.0012656953932132482613 0.21511208466091585878 -0.13720041889354980813 0.1164488048766140621 0.072230556243269156136 -0.31005220685770640277 0.31228490722451135442 0.068576338892521293555 0.090911141845638476777 0.20680689363110729695 -0.022007687117407703087 -0.1075107158216217218 -0.073729884596673206376 -0.11645117593786027954 -0.15193915540277946885 -0.31343015124316481179 0.20438410038037202465 -0.31808912264518668378 0.2010022752950280378 0.066613914346429298208 0.11669384387228827482 0.26730249544825290808 0.07253750726777134783 -0.25812486876863521834 0.094529884150011886379 0.19504759124782627966 0.28300840923183229192 0.067861209421251553198 0.295153763063221386 0.0074100653131717320043 -0.35423629576631943117 0.077766970655273201518 -0.2488541211973160916 -0.12065558446076923849 -0.22268835187736646386 -0.16527682742713781239 -0.083201696722188536737 -0.093824172028329030915 -0.29735591766335961461 -0.22772890996416655929 0.065027569535608148454 0.058827799670714039926 -0.098926239145753089299 -0.18159927555284216538 0.1320446939851413759 0.25615186993670613358 -0.091048056143862146627 -0.13534189929723966506 0.096237366472183602517 0.093923845859227611532 0.081183712120681539304;0.18066426733483056943 -0.099486654347437988855 -0.1495449326033035653 -0.0026726788452626237293 -0.071572144326317893581 0.094626159308576915374 -0.24438482010228812502 0.085296205939483768499 -0.1293472860642411737 -0.094438844658474144222 -0.17810283365324974802 0.20805865806313500466 -0.12142733380428542833 0.10375217087127329429 0.14210491035332650789 0.13904403254198799411 0.17852568608554947316 0.18456722458507959783 0.097902600213739837676 -0.13445640272850054031 0.095519040280591882563 -0.24130642379632324945 -0.1792435265470940231 0.30402065206921241591 -0.049491908253834523967 -0.07655286275657126327 0.12546458299091764466 -0.21638324621166737938 0.092070088733358465549 0.17882956112063949639 -0.033266084521399112706 0.023755462671446157114 0.021654103206298951079 -0.26379466289071978879 -0.087070322806280769923 -0.063473952950315479238 -0.24435117882812898427 -0.073814324972636569111 -0.17654113613529273663 0.073741458917410268592 -0.17110168205459283519 0.0991229361034571127 0.15412189070428317095 -0.046047230365848575151 0.087072822153359041852 0.035618136354203723537 0.0951764158586927006 -0.18369793576126597356 -0.14069901021533723351 -0.212308929404727037 -0.12144041102698079071 0.13268685809222013905 -0.17895110383725626457 -0.067930163476976446191 -0.10552811459855293563 0.115113592160586517 0.087974264468546475859 -0.23515606765697050218 0.10463467252739094837 0.062885827520782144884 0.12820145452037853828 -0.020558148685452162091 -0.086429959942358747238 -0.072694381855622061672 0.11793197673827252037 0.015678273407269245621 -0.11747907805067041298 0.083765464430278185892 -0.15276711514458554686 -0.017265531474261457123 -0.20422582857867979667 0.078333066179441829258 0.1260011859528694933 0.10848116624414194664 0.24294180078820959423 -0.0025201697901257873353 -0.18034416019955451516 0.15104211023990160578 0.14351645031401472075 -0.11604661797462663408 0.03956378611210605023 -0.025492250036668568508 -0.14278187998936298087 0.071829642306307547872 0.14939264638491051018 0.20310130976539825243 -0.12948868035080160488 0.22860848666840752341 0.12071201149175000977 0.13639178511850788555 0.0085187803664155074129 0.1178981151866744792 -0.27029894659879799557 0.012896902577745932711 -0.069666316930006313979 -0.26091273281387999949;-0.19665190494389572784 -0.021189701246502438275 0.1705051680198618469 -0.048142992943575275977 -0.085858015881331850583 0.24777955555437369828 -0.22826873786824861123 -0.021391714557571689381 -0.080691123663385530551 0.042761622178155121732 0.092148062982163436718 0.14644854625190845132 0.10903538543143416473 0.12851093927137333117 -0.0067073059595607626565 0.19607683498086034279 0.095633461082733295378 -0.12323043513535986149 0.11801481729836832413 0.1988694404253475434 -0.026581071544075476898 0.20071901013532664204 0.16888700394944233807 -0.17016441013563762819 -0.016924844519480300442 -0.15692171944419094909 -0.26498159761265654977 -0.12594346050306876039 -0.12622047089940668929 0.13950771296417713296 0.13428229878213979176 0.16199350940811671484 0.18395093509463858461 0.096953904792403233781 0.2435562812260500809 -0.077970243968708857762 -0.083528391032094875812 0.016021971166575804668 -0.033656323490316539249 0.077994412411084762526 -0.15116922239165478392 -0.08667237584304338105 0.053016216073644421847 0.1217945894365634607 0.08469315438621501102 0.052812312550156323421 -0.17871776279613260652 -0.0053673924718778192808 0.23081051724950524262 0.15660671922166136127 -0.13464813121335786339 0.049457730448638388687 0.16276715021639012737 -0.046924877057331511321 -0.14810250465193749991 0.18799061331819968967 -0.031724095543362869354 0.10701371035265833109 -0.034745551240591462938 -0.28041806304294780716 -0.059021869567218901431 0.05798310720193701473 0.16876982457634548407 -0.12017976268074996582 0.097429252035210606175 0.025015484448730359451 -0.14144350337989775035 0.087250399901679237535 -0.02826859455542365604 -0.1197781655644024057 -0.16193670925645980985 0.14394151340237743009 -0.19424529963662462428 -0.18683240531618036662 -0.0051057319883072542488 0.076785366285001696585 -0.16878139470030203984 -0.09590631871018388821 0.27462903177861097692 0.14877283070843361212 -0.28257109612549236033 0.075607345472280665377 -0.18996715238945502402 0.01007480365192430817 0.19177254683676653313 -0.1905947327331820873 -0.10331891808489730711 -0.12572010414687490032 -0.16057653150016945598 -0.02926117506132325935 -0.08283161011998049772 -0.19587620077459677592 -0.05884184244240601297 0.040563281728752266508 -0.31171679098964372168 0.25859006512575866132;-0.024337924584855216703 -0.12447425141193198261 -0.16190705220495330008 -0.04142198591402331681 0.16205810324701896974 -0.06790512499559278603 0.1032048621105477737 -0.034021192178285829255 -0.14605679098064500154 0.12763438901379423052 0.0060411471730890684353 0.20645672738284967518 -0.14994734716710364508 -0.17223625527069702512 0.13740726969482461306 0.066990011824347384106 0.23481480055912329341 0.17999985363453480103 0.21467420639478368427 -0.077319730340672312985 0.14167155899352260051 -0.063743208103280879495 -0.013794222245199496205 0.27002834162561095699 -0.20634249436791388121 -0.15580987266572626782 -0.15530962558298583298 -0.22765348367234825022 0.21285372925205520156 0.15968798850179949378 0.053836388792219296018 -0.17247105949036553585 0.10112699873429741027 -0.2385492215098652391 -0.20865413630673373957 0.2449091793837377129 -0.24012543630738372724 0.024159457067855657358 0.07246750919057150242 -0.10311406574406598025 0.13012413076738660322 0.23088970776430764453 -0.081473070884533288494 -0.0035346557234157420686 -0.10375976755439228483 -0.11972074769958765406 -0.086141285571000189569 0.042388509696268721061 -0.040968224126723233602 0.013162449072731325847 0.21467636600143069625 -0.031607653586207498653 0.15925708280859454669 0.12120254032706569147 -0.18561575117380696431 0.26353846061863794858 0.044035183818362653996 0.05023977492273425105 -0.12958312092787821479 0.068641098066044750614 0.17333599282164871558 0.1926350301543988397 0.25193934605782009051 0.17393791909937575402 0.10043114535106220653 0.28383851152159311759 -0.21182818428367081176 0.070326899746445001305 -0.10298675278353677798 -0.27622039089710037629 -0.22460984242683149081 0.24363983930556507018 -0.00026412442289282711452 0.18761746375930227204 0.10302061643621199249 0.079189614683381301385 -0.13484513561869618248 -0.10884939201171117684 -0.24679891252387883838 0.043979617555995539901 -0.069658476989109374689 -0.055197296608756017677 0.29467204583422929032 0.24627085879730847839 -0.085065880267407883997 0.06418187482932169452 -0.17798140277521531938 0.122579242833823987 0.059505837453472605614 0.20212072068036182615 -0.28313971139684995793 0.18186424135065692997 -0.0043210151160387342759 -0.28477135017291005381 0.03858077992704228576 -0.045332040056339152623;-0.048621807833257146836 0.028983682220293148502 0.080107863902341078233 0.11109789690971422216 0.038511214856377512517 -0.10021194717950664133 0.18568939270217690862 0.099613184064198861956 0.0026638673830961362952 0.033509450243868837971 0.18245795043310172878 0.24297426771134097989 0.068824581649750207757 0.085336058747158771709 0.19956609293856625298 -0.050077512551813183062 -0.25292089002160927924 0.2450567083611762953 -0.20316383440828081342 -0.12374766392817194982 0.094065109398668481089 -0.15352179898733145369 -0.095595741853540125432 0.32871684950254959068 -0.039111642527094148125 0.10615314256159660844 0.044622663272808810175 0.27572567182217955217 -0.27904852571611044043 -0.038453620853981226868 -0.089701316661687374721 0.052801725648567075788 -0.017790917588366709362 -0.068558563519922982588 0.18890404851883468851 0.2997000443477831344 -0.010942857293033967161 0.022958767043100933997 0.23108621996444189683 -0.06484081167386313016 -0.13855792461669966253 -0.19771089388949150689 -0.2351368053123395474 -0.099651814659331233726 0.075332399932442700718 -0.37254177337301991324 0.087783702512164454856 -0.22085617117577269197 -0.096269914210467807947 -0.17126746293532157939 -0.023068812365318675656 -0.16828779302876906154 -0.17087239197556805537 0.010528230956931701814 -0.1625789624428517488 -0.32723883148461430093 0.28043024865203686202 0.12680748934132474171 -0.15413486292047687276 0.36179794054254038604 -0.10720055538124612093 0.030043617385459308461 0.066952546354579769994 0.28898760394030376109 -0.16432854409572700272 0.032586807620371777139 -0.0538965885593830768 0.30871290592189637447 0.23462697456757578007 -0.12899906044487677304 0.44689149633448316257 -0.099295923186362919366 -0.073753491452897682046 -0.29673872559682729078 0.26084344607050974352 0.05902867153358310609 -0.19974735301734952708 0.16713375552729831108 -0.50046715303585498358 0.26102673849575008802 0.060176110214730911541 -0.25066462079455603673 0.22267771151036203081 -0.021599066872271994316 -0.1307914513711821991 -0.11689003115418844514 0.28338186971976042638 0.078191745408277738005 -0.25605380220619911036 -0.34232847577961705854 -0.050672489249251675969 0.29515013314058213822 0.23118447416639073544 0.10555980742825356311 -0.2900602949740773151 -0.13239289622959807269;-0.13863178566969897032 0.17853338788311914898 -0.140831981762784747 -0.19111372287893216293 0.13679427553773745863 -0.032048750296413179572 -0.21347039843547196969 0.13447337277978455017 -0.12957198689178264783 -0.16126882132824721383 -0.054151353389918652215 -0.092957316553014299187 0.024331324375946060401 -0.15701750839989758735 -0.0090971724016421229297 0.08390580835223923617 -0.060250475715603782345 0.059769899368932934147 -0.14967025562151298201 -0.034917798711582327675 0.18341502323665023755 -0.17129819077508720571 0.08173942406442213926 0.25535163819742445757 -0.15323923805285585842 -0.11569486071775869629 0.089448420290425906254 0.07689786749212609851 -0.19429358653937170431 0.050595989727696522031 -0.020792671957339713129 0.0096744423828005673971 0.158799640327206254 -0.20423117932200798852 0.20823255694667369697 -0.23280712756157090348 -0.016133499181875572692 0.16509489990552636551 0.17428285474114987852 0.1511799779087111828 -0.080600292943069848373 0.046856507033814526197 0.10964791362378341344 0.14369161726811477409 -0.011723625727801809809 -0.088517101972989481462 -0.043240221066459173793 -0.22438531999660557559 0.10449701190129963291 -0.14260970480384560499 -0.18624957967661825986 0.13288216781620013074 0.13112078676486646489 0.19637057091205420423 0.014576048771607254956 -0.017911660800378752245 -0.04414584844639968253 0.0061161405346231486474 -0.10058580458170066074 0.22085203408501852262 -0.20049003156446565388 -0.036143864034597197876 -0.13096839543555524599 0.094117091191411386686 -0.11860368368493885705 -0.21864844861283366795 -0.0094874353261363234685 -0.04609924702425582943 0.054589628493858483038 -0.1280908752556338126 -0.03522556887831927025 0.032920935491855131405 0.066002164563969095701 0.0078778385444884472394 -0.14208600573154087088 -0.048106114581704211008 -0.10268740716685070824 -0.0080399299013517149665 -0.18530122754587716183 -0.08000172685001330497 -0.18736144371708432499 -0.071888153248519937044 0.065671280175883861574 0.13015850395193645506 -0.055586657681257672925 -0.086167048269930976434 0.084358284770082753168 0.17485148819706408663 -0.082778789325984786229 -0.052255242841108572038 0.091522041620412275531 -0.10849804147064941173 0.067264162689091383518 -0.25933762425909989702 -0.24788312442982485262 0.057879249938403827536;-0.28403104999917472284 0.047452505582811103924 -0.25338881022966536216 0.050721699477633164221 -0.2165698814479891654 -0.17429233195970397774 0.30820795617867957628 -0.038450103783117015044 -0.09247602681410913017 0.28307123461330252479 0.06914089281117540009 -0.018192512884697815967 0.09419412770316959449 0.11390004559518929206 0.20720447441886055695 -0.038913172917876701074 0.059372682928966691307 -0.1977581888885218131 0.24577916410264147307 -0.18412761677256878068 -0.35219246848909807612 0.031205829642356165687 -0.091536783398390428323 0.039322017627748180602 -0.14706943032806352178 -0.03297594229346406669 -0.043816222587412835543 -0.2127882213657499022 -0.081380271305747028943 -0.27093258927772145839 -0.0040828239092627208531 0.045965483632733096508 -0.16842418168424877489 0.0021527219970511666906 0.17237863061224917294 -0.25822960403679856567 0.32267080726273106306 0.16729995984157702837 -0.057107443260215787206 0.22054599771591923418 -0.029590965229670900677 0.061085942036665251409 0.35012913407755180684 0.10034202645051300273 0.037802776412937694195 -0.16851970923940368108 0.28804207549203170169 0.22845555982470860945 -0.24400278004863221182 0.098253163998257328493 -0.31373424631283086672 -0.18643012273160658454 0.010400700106398645672 -0.090803618762296464673 0.27542897494767809574 -0.028787711491570416866 0.070944339965428274142 -0.046082756622133867752 0.07798196672747971514 0.023228529014579422235 0.11699593375596409328 0.090636693588934710841 -0.21405584877039110503 0.1027988528852748773 -0.12677633346542332982 0.053419010690849970391 -0.16666595809597095634 0.19275712370828546049 -0.169221079202986735 0.13378692531414768108 0.05275359444945600107 -0.1643396007348588983 0.042955320617866853128 0.077421283679666372257 0.15678009317707827797 0.18238701466656132011 -0.040238510678778607876 -0.095393458332500374874 -0.12189420205310481926 -0.018102654112125658725 -0.070436718006783541335 0.28384923301737507995 0.09902803696484646645 0.082529544262259141307 -0.042214719295505361008 0.013606733208607689478 -0.34078143949597083928 -0.11127172260905278389 0.24353234155751365964 0.094655825721698713671 -0.019636159233593443452 0.29853533347299465728 0.021477853271091588289 0.26836525859343762779 0.23118193737045328318 -0.26883589100030186314;-0.030329863948310085281 -0.17748377441694082601 0.16144373429556188593 0.034009941535655272005 -0.15411582570259196867 -0.16426120534439231369 -0.042493477534585502586 0.074934608851273426522 0.10502381795527572506 -0.14413308354709469805 -0.067909908641062541323 -0.15768423471647644019 0.090522295944545735913 -0.029408532593527554611 -0.010043762817978618349 -0.084291934718059666198 -0.25066765334861257353 -0.001312192023691710922 -0.45417500698250412583 -0.19044343878706082585 -0.12470459748639514674 -0.12007620791151205064 0.051116947681055804886 -0.093538874020276191468 0.33702307796425468034 0.39192276085566818411 -0.15368622586255317741 -0.091670946927999680254 0.24580843751001910102 0.17744552439794797349 0.1285907679461664177 0.10750746374934339045 -0.231696446859217281 0.071469437051352946444 0.12105710864639827873 -0.10851757780477978843 0.032816526851596139469 0.038136746941702215352 0.16360075480921140723 -0.17202575119673335635 -0.15515849195947786776 -0.19519821620093466552 0.091018030146921558021 -0.067528165225287248297 0.020585725018052176971 0.16257410534375454914 -0.041390329483333689053 -0.1889360200270174539 0.24816629495899217295 0.36522000919853808698 0.031277702017938710521 0.27542782339258148339 0.042394666701299515976 -0.16452280932089821675 -0.16886248901761607977 -0.18240847693908462945 -0.16351565144146767983 -0.15783461589364916611 -0.18642426200671369241 -0.14944316364158918842 0.077379213979895902775 0.058442203879761282781 -0.050793426287232747163 0.29609442154312676232 0.0087128609700749086453 -0.10548976666120062073 0.069191761947707056124 0.20338539446087805507 0.012583215864514614435 0.22427088640502129691 0.33885250821237550278 0.41607696189615367421 0.32776230148702384382 0.014686169397059575109 -0.03893397183205708767 -0.094833477165869109471 -0.43604566968317598485 -0.071880232789482856326 0.29378948745860755665 -0.29050143929892724426 0.001434968532722611257 0.13236412296758598428 -0.17322707238013954067 -0.032391688376407816452 -0.053209891362175527896 -0.17776656974623517016 -0.085948120311500494917 0.13095331906938875721 0.21205134315356657937 0.3906752962361814685 0.3305753620339430543 0.41043294880708441896 0.24766813462692757741 -0.10320116778872574781 0.18225238099740298514 -0.19739202048522833111;-0.02002204479062948822 -0.059833904788452699219 0.27713285335972964729 0.1631822082637438831 0.13680342509837076226 -0.24903479728151742267 -0.22224354341718574601 0.035530660255552293236 -0.011483503942202714226 -0.066070743209840437915 0.21927593538947251495 0.008784190335943865488 0.30493487465053698005 -0.13027432279102182933 -0.18868284751260389065 0.4241385258750674514 0.19022251465426801009 0.23988127854814841888 0.096228171289596348137 -0.0041314828041401213676 0.33399962719081671692 -0.18234077258044359415 0.09570548565443079414 -0.087513862658459368182 -0.12050254341344239506 -0.0040037521824428882328 0.0060312946764323133522 -0.12965131779063662765 -0.18332922736338042036 0.0055810289034169489192 -0.1778463363342576431 -0.076532061100811260568 -0.00753972693944584757 0.3291727465459531321 0.097802637063900105252 0.29626896176582612208 0.063767452665924359567 -0.28325724186187756226 -0.030064016999341788838 0.13174386194111739612 -0.038444624402071310432 0.21268155612754768846 -0.41663422991912218984 0.043546712527857557584 0.042690088412038515453 -0.18984439545025330598 -0.071806129929217449304 -0.077656597744194241772 0.17887666365744317454 0.00076816373386172202582 -0.099789654604277772121 0.26770600015968371022 -0.077458881948060137601 0.0025693476083706585748 -0.13970206211351218761 0.11231057860110336966 0.2535636817744617022 0.07251265122510121286 -0.14873784496666106469 0.011993480587565200426 0.064679501334571148918 -0.22214274870144490315 0.06504554958314960611 -0.28958917812832901673 -0.018094372540467289906 0.12058957660748288732 -0.37348574907636228337 -0.061329847900151411577 -0.28697689270879173096 -0.20914530035515638273 -0.12722947648052904124 -0.13927702387497487013 -0.022515186224146117866 0.094250296973063890649 0.16467601935765802112 -0.070093697609825242334 0.48564943908426605468 -0.0059377423738766303696 -0.22924355631207837813 -0.2642260518728206109 0.20527554678461068516 0.050770009085334681653 0.016343757783822701612 -0.099306339406070948117 -0.0072274586328051407258 0.089179179427541596659 -0.15737001612300785536 -0.16121184053149115178 -0.14313596877291698273 -0.22972227705276193621 -0.097738563941976150384 0.032482040105337339764 -0.2013173902354945255 -0.096037528671260558033 -0.29349447909272119439 0.0094853341653096476943;-0.11263556297690768826 -0.21236929801988263522 -0.27692702823777443077 -0.048445283357098620214 -0.18819004672566999603 -0.093200749827280895965 0.1167970371990124101 0.00041717295468545465605 -0.10046402391047536129 0.095174311387257487516 -0.26680842998716886028 -0.21022433803580739542 0.064392924688486646856 -0.13001956500462363842 0.1372575646241506464 0.30071255640254807018 0.16170559596982830852 0.21819889541011808221 0.1731819576177685005 0.20650410881387487594 0.11270190329406951091 0.15932421008677899454 -0.0836372260514602478 -0.25611209996917366771 -0.22880375213770576259 -0.05391816366655546866 -0.086091338908357711857 0.12048789592580970431 -0.082766745133963842695 -0.12379048453896770998 0.077366238259314781822 0.32296243134892976823 0.036025819056448596389 -0.041389986604031349382 -0.34299529671592249302 0.36169783970916197235 -0.081298832128691767007 0.11866513561929840914 0.27516637312237601787 -0.0081686890391302856285 -0.045150190336041479133 0.17383947511429853616 0.066200887058490823223 -0.044091995767204981982 0.14634140065100395556 0.0038251987093804052514 0.17054712727704982034 -0.1177997840080711317 -0.31143598466112304424 0.035029482475100709449 0.19391533580616304722 -0.12706130308656943262 0.0086640469705264056693 0.0014284687586207274468 -0.11009404287736394845 -0.092983379423768344751 0.33657480906834963408 0.019315793346775023132 -0.40524482216645285604 0.29174950572647312397 -0.14118754591216034489 -0.26306101637341727795 0.017542867545620611375 0.25892826225998621936 0.17615715703556616978 0.089453583312155554585 0.20914486361537082404 -0.2057920030063700445 -0.28071190343543406254 0.19885383572448059319 -0.05169777113623109932 0.40581407686584547445 -0.20027999893745540572 -0.13371943794029741981 -0.18022157116034073776 0.039235091667372233581 0.23458597969563640961 0.20940798929592191469 -0.17559152652683371332 -0.17772613094093159258 -0.18361322693693302166 -0.31513278023514335047 -0.1057617263461621826 0.31200931949352939121 -0.35970570329192536052 -0.23947919749171306392 0.33206060215847110761 0.10974516439358562858 0.51017518037763209815 -0.065126275030316871373 -0.23872361644635334277 -0.13407981288182033164 0.54960054247365286439 0.21126883158758172354 0.10818913157201044684 0.40637022688345264543;-0.062148012303993159511 0.13956536540644393085 0.037656914454455091279 -0.072717882646897907817 -0.24432361815711153841 -0.082046097093323722138 0.048031034056826439615 0.31255195997472212666 -0.055962619006424851875 -0.04275640503610526888 -0.14375643121717335271 0.13595329180189702489 0.03492947068591718135 -0.055098380499366876595 -0.26154078278539238944 -0.19540262135071284622 0.23604041587796517621 -0.025287009233858757928 -0.22748298976548175787 0.2309784077042728867 -0.0066353979015549837892 -0.072703971134956815736 0.065962383297209825628 0.071712396213011647683 0.34936800791279071232 -0.053419955679219574551 0.0072528092413938795302 0.12603419476350988249 -0.032028728911405679458 -0.092260656718910996621 -0.015852934563109044586 -0.096409183093287317834 0.19221154169898341246 0.036445457985495935405 0.08678831876924421318 0.10384037588073795344 0.11559496428047255634 0.10310439217170944137 -0.17295764051025475094 -0.063335596259847234957 -0.2118859609429291635 -0.28237876008412288176 -0.025816712470958867731 -0.053245606528241840039 -0.090767313356971385252 -0.259476309624911472 -0.32112953853731862619 -0.14167401276504476559 0.15551076760105528307 0.078448180876767303893 0.0041194788065738703955 0.22940172820447909952 -0.0036127917118544028603 0.076002805369705106475 0.0036915550140018136074 0.053211668861326395785 0.1648442677930901934 0.25249854690100825838 -0.0060853375709768358151 0.11524477686782325092 0.27289361310376436531 0.22962653284761122552 -0.20816396099857600865 0.0098452913846336902876 0.052492022204148787445 0.019960512623358642181 0.012624627275417008021 -0.080507152319415020703 -0.0053189898189078170868 -0.24264775678365343992 -0.24610453887151842456 0.010760105588520280095 0.056201168067219663127 -0.071026797927097887198 -0.20170598992104976643 -0.18641194785268980216 -0.18968242291414078027 -0.089014114096209351334 0.47733171453063610867 0.29136772718738729315 -0.1590019819854063543 0.16574177464859418674 0.36076967848937463446 0.1002195957355816458 0.054972847117297593544 0.11292422193588609602 -0.19896804198342962766 0.24165652157002098788 0.284868883411751872 0.12509151325560258217 -0.13987470666912218964 0.20251855288881062678 -0.10920206051165842753 -0.28881250397443408717 -0.15657648049115974187 0.080842731288362154607;-0.22920693398336725033 -0.20961003262298183447 0.040124006891608797465 0.032442560135485964956 0.12366233499469594936 -0.060496052214709508665 0.28807435067013259511 0.18563111454389602528 -0.22579356278636961153 -0.13578886110499849282 0.18114241165677233414 -0.09249842486690088017 -0.082446723860312584597 0.22778000479156318425 0.11061405523864492606 0.078355658551445897531 -0.062217187015629546454 0.011509769203875926114 0.043531263270376305274 0.12353579453662021093 -0.14222459394076408801 -0.18154362449348399045 0.0027423003476350154249 -0.063428120679687075012 0.10435589888762712707 -0.34026718698754182535 0.16529639606533555463 0.065596716765592380516 -0.33877046492677143075 -0.016920004957672023921 0.33102234972087313247 -0.13279439747741719757 0.0036324560603696130073 -0.16018792241392931786 0.0044423757891879642537 -0.11060762455536535254 -0.11658068818046064818 -0.095897139340318765521 0.10003423471601939621 0.18256500158504915254 -0.042110664952015625095 -0.19482866995209982552 0.10333904102662211377 -0.19045639812516143574 -0.20623539704147855756 -0.22512672841139833024 0.13611102837220789841 -0.18942116374415413071 0.32794904201112740072 -0.0012959867606391255266 -0.01186112136626583588 -0.020029920977547341354 -0.14160178149870181197 0.00058357165752000552447 -0.11338668526236114764 0.15295942266983564295 0.062231305830691752146 0.15281904052192085697 0.24609385190124372089 -0.30022441408205652325 -0.074268626555467801009 0.046265061122937690963 -0.10823765882916121239 -0.11143697925892706579 -0.12107315068495003163 -0.18619354271424873315 -0.2032518398341988386 0.0096232709081265077611 -0.1290357412172491447 -0.1560522534769749059 -0.031103174030530863353 0.050576469767486684215 0.087873057453912481463 -0.055679291111756477883 0.11863394864711070131 -0.26317440119695922895 0.11056766518026839297 -0.1512352977989907532 0.20847796803453175207 0.10581887815963990362 -0.0058770173681997736267 -0.0025634460500957734902 -0.14863235373349140134 0.02035290446195018102 -0.095334102336402909428 -0.13294050510170105084 0.13356596443481014158 -0.04702902730325390912 -0.076624642267009199226 0.10393938719452916475 0.22101828667711920229 -0.074606000676166642216 -0.024216251972730175324 0.2520289115412366332 -0.18500803673261806415 0.19515203210516368637;-0.11562876815135147979 0.0092963856917901779853 -0.18738554681867106155 -0.261679211719675342 0.15906837453656705317 -0.15042636485522967171 -0.05704531289764245422 -0.054458669309544335824 0.033233737958305857585 -0.016191608690407886806 0.25683154673563024506 0.34929616114825695616 -0.18364570621966394559 -0.021822385091362226511 0.23970256481554846895 0.044405299740147258225 -0.12612428207505890776 -0.061090296413473313408 0.2930903368914721252 0.10931475242417000582 0.092862072891386870932 0.15672300669144073604 0.29228523633102571067 0.10987648566958135854 0.10835250813753635746 -0.3453733594806257523 0.091440161295028216104 -0.058602762877021846721 0.1491738540427932358 -0.012013834632674955105 0.050216889963531810559 -0.041150866405256086855 -0.12319930722714050875 -0.03843763920092920644 0.12144997960981213092 0.15384614493360970755 -0.033438314122721884969 -0.15462473241152557835 0.21629555941085534809 0.11877001909654734402 0.044833113554888164021 -0.13843511912435410571 0.041317850158214396161 -0.15513493391053104209 -0.10311633636914518952 -0.2033087974213241278 0.1483145208491375433 -0.23904509294646150708 0.20462825607908147196 0.055358452257956380915 0.18925457356932340325 -0.12509013393082310528 0.050529822907906606078 0.31209239252338927262 -0.096702731190030213893 -0.20280491096715272392 -0.016962833324049915451 0.079936829837042297497 0.25513738757337411922 0.033106856992067869305 0.023081678968298019461 0.14621643277944892936 0.023073472142053699785 0.16539124896331539039 0.043766014975218238414 0.25951536356043258813 0.18416318220146513096 -0.25697391902010219278 -0.022677199596981240798 0.18048314860044914476 0.23896287588724582363 -0.030317226325794234543 0.2529406938618534717 0.038026194786006696502 0.12096738682480071003 -0.37388034676105535992 -0.045386386504035980405 0.023268971049219659003 0.015823075976396143438 -0.033760515333812531058 -0.23191217073958947381 0.089572118821166807345 -0.19623096256392003056 -0.44757450687127431355 0.079087290619625896793 -0.075435956739661344517 0.013371859393082049378 -0.10502803264982342457 0.036693891468751474449 0.26948308643685164876 0.30915483522960862661 -0.15313684653081593989 0.039449239512522861484 0.27886161647512103245 -0.48294222067738334925 -0.19966740477418049027;-0.12241170054397468303 0.05877914802727961241 -0.088266774511845086382 -0.044042847468441830017 -0.24234308589091368979 0.12993443229555537433 -0.18837080841265116393 -0.028578982746436734641 0.17102948407173373946 -0.15530855989247224769 0.10819044234608174437 0.24760520713775349688 0.12071951763058452745 -0.13153898479356107565 -0.13643736869808434364 0.0094376458298667080526 -0.075627403623739666849 0.14973004860054422993 0.20430325772995042155 0.16275343974102923772 -0.1454399269873897782 0.18738798096881451039 0.093706380520466564521 0.10433709679534146353 -0.11061126869266582617 0.0023729066533434372242 0.16141805548937462889 -0.22041899080884772011 0.047705043859231632819 0.17174904668393473073 -0.051283337326078592966 -0.097544832311724102847 -0.14591804503810129612 0.19662202187633348593 0.10348384727655225712 -0.20246577371316759608 0.0090397611070344337236 -0.10397067419370532859 0.2554228629749077939 -0.042693385256799686045 -0.059576489045223716967 0.15714063387696333707 -0.25488518396291687251 0.03465953231776037341 -0.16713077622558775159 -0.10978691257398845438 0.13203042746515952777 0.096413306165048243135 -0.019854004999120409419 -0.16344949979216139013 0.06742581509568916498 0.24638353244705732403 -0.053542146135832240084 -0.20686747172495273395 -0.10262613809468601467 0.34414623242026270988 -0.24429625799544685272 -0.017477488500546551481 0.045076626117939867788 -0.1018177286756708072 -0.10617097838441609536 -0.11776922001046602473 0.28801855398725967339 -0.036091951837436762884 0.049531365243040213764 -0.17406066638444650518 -0.22082234113476897908 0.074879148808313839014 0.22521558766700125465 -0.23840112819922618104 0.034329396544651960554 0.18742892453870566016 -0.11733663317071650611 0.21372822585972273135 -0.11214354954154716337 0.052460341627177130286 0.22570891535387505034 -0.095303821868851001931 0.24346055239645783552 -0.08287967188501553506 -0.0036163412254903706464 0.065295735418151576446 0.046432439622939511437 0.036178050380058612845 0.080962516275325996373 0.010897986666260380331 -0.058275478743127932801 -0.31646526212491582486 -0.10566003529474701783 0.053390363154988448868 0.030474857803065594219 -0.28792572971879809574 -0.14010286075814218365 -0.063599903851986785974 -0.085085680831594373563 -0.22248970851708296803;-0.13693076185651936738 -0.19021069345347857427 0.088007597873233242569 -0.28712734929868655165 0.11336407903528666896 0.10481660547433037378 0.15595768461108433511 0.164643043669832706 0.13925094059757200937 0.19302625768629472214 -0.072365293596585583691 0.12240283591914502548 -0.1661722239052578487 -0.28256485037130624205 0.11309989920335705715 -0.13083254628108995088 0.048601651019386439556 0.022589742845233386215 -0.074263241570023674765 0.12404413823388435456 -0.05045640559598565944 0.2456179569037733601 0.11419558156084017031 0.10640711387166458535 0.19899923659089380212 -0.32042989598891119529 0.065766003031035649706 0.066262214674911321111 -0.069908225217885880398 -0.090468200647571744843 0.022837792106528104902 0.02131455436095295447 -0.035297474843850790149 0.27793795729611386891 0.028954955020049449183 -0.1566559009771951172 0.066181754432134143329 -0.050401876075196999638 0.17551811727708957478 -0.1158797087654460517 0.097139282441858806894 -0.098738141996564124381 -0.12590249233457273537 -0.098762790937692412907 0.086446221381323309907 -0.10533582912331997117 -0.049224651149639066239 0.22724953681419959861 0.084392602875742322999 -0.085700487684885653938 -0.0087799220846269815377 -0.074141141436164625933 0.071416164313011037956 -0.28732636949366419099 -0.20411392148435386629 0.21659279626616945169 -0.15829320630276000337 0.083622885730420204453 0.19216613123010614639 0.070985589468794588197 -0.22617226310098020869 -0.21232428373785158793 -0.0051474647780485049964 0.19219511390728857836 -0.24821491334621839653 0.1471769776406139929 0.068079105508667331348 -0.025470741934282236513 -0.0080626453735940361439 0.22528598222872947554 0.055358831524021573367 -0.24621909384202569915 0.047898261519138826681 0.017342406143993724377 -0.29608241581437960699 -0.0042916677497383771619 0.31311714630801945614 0.12520080945721448473 -0.20006393863504484676 0.038676914097882118815 0.085215022728388239992 0.14852920638094033179 0.25969598789078396361 -0.23140155785377616859 0.049534030182520220886 -0.047558409198785983607 -0.052644797409648759479 0.16073812899705433588 -0.36309580923958051368 0.10241031353414754845 -0.083887430491038972313 -0.36946598557909665628 0.0010052535118520371064 -0.038253794980770992884 0.10606343126588589632 -0.16047405388446356334;-0.23186357743483618221 0.23966638774917178867 -0.0001600565620251356326 0.019369530004023336606 0.0073467189171967884828 -0.09995995987020885043 -0.071442314642487805831 0.50767306177678150902 -0.057849231963768170395 0.44111526439185771986 -0.12632548033262369636 0.028785283696677259335 0.26729475647967015917 0.35260735322854319662 -0.14127190236000869428 -0.084333387328460795995 -0.31357155755523191676 -0.20390672804144188701 -0.00035966188819003865875 -0.13163237386884582558 0.041169425255460238844 0.19985223086426245898 0.028198691364819228333 0.65474335108770220781 -0.16098154728723484963 0.07986776130157013931 0.11520432637877767168 -0.063574529726794448692 0.10421681137536858985 -0.13508313628793858219 -0.16839300942552498652 0.13782986642071010097 0.11102686933005913306 0.051845796595824715502 -0.10883209406216595716 0.275493845655940095 -0.143915449718497096 0.17271049201649174565 0.083759638758805946002 0.12195072464981460136 0.061219864857929393032 -0.19393855621092462305 -0.25020930835067461961 0.44274064601611140546 0.035454017800602546928 0.096306005872090594266 0.020538468098936467354 -0.084131446916534832758 0.034797417340071502834 0.035443309733543475193 0.0014042556341132695751 0.12361497055183348626 -0.048696236135182022209 -0.12076050695857815098 -0.098109106292615863576 -0.30867013824372174779 0.13377408303982224469 -0.19223455458459978717 -0.015874872847402882181 -0.23605725372837102483 -0.033862973643142675606 0.11407997520735936592 -0.20172217762922220463 0.057955632250710653608 0.18962070516379586627 0.11134301768312158953 0.16192932079230171194 0.062647605365671668598 -0.14007799562479711364 0.33153219118672061505 -0.19653285182552801547 -0.37148896924902496952 0.032571518022546278037 -0.34410498731174810061 0.031537640964265069299 0.32000501128590330691 0.29457358779419007266 0.63472704091501253032 -0.17097775224500164071 0.0013428220694734283383 0.12820834107190232087 0.26193073540423739143 -0.26152927814780524418 -0.085501983084949273461 -0.034562825938882414667 0.021350636636839913363 -0.28294812320702533714 0.3508151958103036816 0.094921250957629182965 -0.040444779900057903355 -0.0075572019511947301218 -0.12313836188624681378 -0.48374929079032086277 -0.18613754352852018847 -0.30893588704592633842 -0.65254821012409036651;0.048473909186327400478 0.41583079718000304226 -0.094969037024728891749 0.10420621873295475568 0.26090372466707290044 0.16751948899175600483 -0.097628937964971448937 0.16606576010761689433 -0.21407630421322490499 -0.35239446250968814445 0.096911215234166514509 0.090512313973666991274 -0.056480541284180604822 -0.070340209339450746051 0.16157953503139080298 -0.13888047238636835878 0.11565542990049648697 0.04988533347765048559 -0.087087785681036158913 -0.034712374343122472109 -0.032839936308864232928 0.16216433783876343933 -0.099011196699497427964 0.18811234350466762844 0.21092173379005108025 0.13962790503920330387 0.16494687706969191066 -0.12243378585271857961 -0.13889753666460635806 -0.0028117219736775440724 -0.19676248099926887947 -0.0073906096401403203328 0.12380189873872300688 -0.20489043900575107382 0.21765310335349932758 0.020502359927445246851 0.10216363609991697958 0.17884581025499587947 0.037107818651599976112 0.020776684815258794625 -0.08164125903168374665 0.11589337993942953886 -0.12153666638164278835 0.13006098478531205598 0.011710794311143711555 0.071903208109676680637 -0.18362261123107376237 -0.11940864921140906252 0.26397023064170144213 0.32393534798815398768 0.30206163044120021288 0.10431450665523392396 -0.087671361697036764848 -0.13692261103920685961 -0.25343156540422062672 -0.087122411667859833706 0.12649538481797475975 -0.055043473244819826617 0.090581127669658312307 0.13212244061557976149 -0.16304414632661456963 0.24022217822707087054 -0.30855384738443070169 -0.31483938354401214132 -0.25543359432931289632 -0.2090255380152705178 0.093364804220758948472 0.029788163974698880082 0.18737947854730427344 -0.088662867972209527534 0.087905613568308491046 -0.29404301212669503585 0.2314666339748045476 0.015511867404219422187 0.059913877841366945665 0.20214846008008358069 0.2137500126415940449 0.0044699960413147020455 -0.31416542673170949618 -0.038322817759950368599 -0.01776402031445767013 -0.19130007992569000863 0.047530790492292293581 0.17231875366077026301 -0.11414018208286934308 0.28479778498476332471 0.1708781854715497317 0.094182235199804065218 0.37500058203489877728 -0.45886764628534298938 0.097653543828341890509 0.25197087565500242423 0.065755706676417224887 -0.19898176508271681051 0.020482572539496646247 0.18082332779571624881;0.2338008495583686619 0.0046765679867008603035 -0.14870379685206097653 -0.12363917700552540246 0.1386759029474468885 0.13038932201118030862 0.010407674215713317439 0.081471745625148625503 0.2577604105288555103 0.2523288760826345456 0.20447480301714116013 -0.0058823141779032793799 0.13293721137806732702 -0.13382878398213299276 0.059277951474796246323 0.14532490481507276403 0.099121947744934935098 -0.24490577434982307992 -0.23814904641849990452 -0.27852399492089552346 -0.18385350337941694376 0.21424393170332040048 -0.091018720003810088537 0.36291652839521754137 0.30269966103530326906 -0.066147280149219681022 0.12455841993278858604 0.11348660680405478485 -0.044496096536059952242 -0.042546823840049284582 0.017948433891096168824 -0.044367692846004995466 -0.13944559978858903082 -0.33763858601892465794 -0.23930030395793719378 -0.085846945540227759253 0.24439034792215941216 0.12737251751390687993 -0.16062061855917861286 -0.1583959715052070949 0.15700741386634753383 -0.13742098859799600774 0.29654322287035994599 0.010651884440607179566 0.35809185752213690268 -0.25231516776233431365 -0.058999933075464888743 -0.20591315823811678909 -0.05856320055556223092 -0.14234147236083399823 -0.061478038524566784584 0.064623505804754829973 -0.065622240110996057916 -0.15567423777103445159 0.076629870277906408926 -0.10032216878616154188 -0.32114259573343961751 -0.09100863623510940803 -0.3307748056552655691 -0.13711793325377566455 -0.057397419941261962339 0.069727166551148953011 0.25841500814230639049 0.053378048420705287436 0.2136732354992124383 -0.29757641915835242319 -0.43397424156910718862 0.057834605381326044393 -0.36659358325271607093 0.41532706293837373668 0.18084347575036896494 0.16783330572245208634 -0.095729512611986505854 0.06819881284306168745 -0.091193014374821038115 -0.033088328974947914252 -0.0060275885372252256331 0.15217327954101789178 0.074599158312041988217 0.27356636605039763577 -0.086662400937832714809 -0.26871768259588069139 0.094064574007530224464 -0.051226870235909965912 -0.010776165527326351731 0.19840277041003623326 -0.085975971861310659938 -0.042054611893640826692 -0.21984265050931933727 -0.2969490098471245787 0.22312893156392180072 -0.206327599705107112 0.12425296908568352061 -0.16129374273122479289 -0.14957839047392992859 -0.85639957362151086784;-0.22257631896489349366 0.23223213254333724409 0.11594778475674938356 0.033348090393059942604 0.16278428425070851082 0.050734199667413173995 0.096321596045145327358 -0.045010365664935027274 -0.069179116856305816752 -0.4792503001127426665 0.039724183970302716362 0.34263144831586228589 -0.23324261026527590146 0.0029831429309872892555 0.20290207544213043067 -0.090427238089587289038 -0.31530400963314342277 0.12409560007344946908 0.19848114734365829293 0.02060345537911918018 0.028307866303558158749 -0.22132675983586902468 -0.15839978907153634546 -0.45907989674894866816 -0.059211309799253535047 -0.11395798482287691766 -0.15924822278051312119 0.099709804292182457885 0.11512801039108011558 0.16171311678761976505 0.069510010079786299642 -0.034281557804756258856 0.42547480596794845509 -0.01513611780872388228 -0.033520529900796507128 -0.24600217801699517106 -0.094124326032506172579 -0.052138372266888076412 -0.10040999139740626467 -0.056314811400861808366 0.093114419393636363442 0.075188731954456328177 -0.04624480198527305963 0.22623467900810798059 0.14068541297773565213 -0.39091831540308219495 0.1479090128501685808 -0.42262765047967398857 -0.085029406179324765191 0.2081202454370838506 0.080961373469480873988 -0.0028401322535683399227 0.26357842354784799532 0.20054153411574746069 -0.24535213786532139579 0.25933623295148688914 -0.27901189915755308935 0.09878928622454072328 -0.22687070963056937822 0.37632742200538638055 -0.061187072857681705507 0.079886191540507633935 0.17285759742356390789 0.081520011062649402889 -0.17836306706181401238 0.21520544205803618376 -0.031747031841538063401 0.20245969288765763849 -0.30215061781591656676 -0.20314208470952010988 0.23280467974986354673 0.42400733034646204134 0.068694145653892327297 -0.073108222350606127948 -0.016301122880042602514 0.081483849721446025005 0.23773524266945755823 -0.29513045377002172787 -0.35275355937616892366 0.089223300308275063641 0.037871148372351941258 -0.35545559075146770933 0.25546436442049230697 -0.021552866120866855104 0.27135326767247880397 0.25853007480929651729 0.46612684832524337031 -0.010346523885172645082 0.087157567934507657048 0.27738468323525800052 -0.1709933860793407534 0.38193824246092400454 -0.3454376449197791854 -0.14811594067728173219 0.48912250207036239713 -0.27227802696980374364;-0.22216914270013435329 -0.0085198632564273089895 -0.00010576339786877959957 -0.13910771108184530331 -0.14173235577453480172 0.0049525554683947188225 -0.23863835070213434975 -0.20798025666214145502 -0.064820951849585140003 -0.077237497640791089037 0.072917986486809582836 0.27282704500258952995 0.15134017604978572402 0.12932665967203585411 0.10197694875598978248 -0.02447971965826828758 0.17150881703541889789 0.020305749512979174437 0.023641680627320534047 -0.13606991934078049855 -0.080530612895270844986 -0.16571475462029947034 0.10595855398567843864 0.15729523025566952144 -0.13987734298553011758 0.025077783959729847002 -0.050805200989910974385 -0.0058317461386731099526 0.079384714102525025248 0.10572471689720133736 -0.028794508639164773101 -0.25057453958171077568 -0.16634682536967312916 -0.16067452793517733589 -0.14055475668249164944 0.22965278096650562634 0.13344783724399805758 0.02628563304305071846 -0.021814229204941179563 -0.13716956588717019172 0.021843246229362862226 0.076586498642374781221 0.13974775855072357755 -0.018233330259193280404 0.11619678043556205815 -0.25629534249380431232 0.011439130995479579456 -0.10779714492263876846 0.16425623585651893954 -0.02958642360342099431 -0.053286434780926893173 -0.14518263617891691286 -0.13430320229168210555 0.18011513355689151572 0.032316420688304266229 -0.17858903634920078596 -0.13663932809653878131 -0.1274484332297277922 -0.23166665862178942303 0.18192268630910299332 -0.073742756045047763713 0.18250800421689994391 -0.15887072668135629461 -0.063875637744286589692 -0.21373647813238674797 0.21557256031395616303 0.15052028249365653756 -0.13962094496452884251 -0.20293401669073812821 -0.018068294031421669454 -0.22828131658247058366 0.146150648458156035 0.02308383159290282316 -0.08801840602594959706 0.11183184606303209208 -0.02716732579217375626 -0.0035331014472502145912 0.15650111410686862179 0.12991733791388979102 -0.0058048778166559676303 -0.096790561649836251434 -0.23816091065844371966 -0.026578189423119326362 0.098558916840811666704 -0.17065821725857996394 0.13020431875163410163 -0.19267505790649655517 -0.19179436711623917833 -0.11090964361987754039 0.08712269026677466055 -0.23468949463535354605 0.19747651634565804857 -0.22811473382419264477 -0.14627434073676365278 0.037389049341038649299 0.13116316393335999968;0.071833617088333800993 0.039400819335504079499 0.11035955254404458681 0.093058646910815875919 -0.11043154394323577427 0.11463310971645637726 0.29838979976497409519 -0.040992605470566420567 0.3391682591055856788 0.21793951543721198916 0.27161750133278678154 -0.17568975604993239403 0.058564365680499969047 0.0074874892857415397546 -0.083980120124580309726 0.066934680739617391509 -0.088680561733222057486 0.1114085333471287742 -0.16725726087806661035 -0.12464534439831860546 0.10540393395225775008 -0.1392936067280895196 -0.018138924934446562509 0.030062022685413501005 -0.22019908325053491605 -0.19345433936604614078 0.11156423282118353713 0.1920174988044501263 -0.099545711242912116035 -0.02150369481046849815 0.062138894381503800846 0.29786121993534053765 -0.28782922566508667428 0.16283961249235137658 0.052410928165807696422 0.13069364630903504421 -0.12802940231764622925 -0.14093449870779187205 0.2961579358125677186 0.051895742573604596026 0.099577555344972562557 -0.019050928812127325418 0.16261786628491617379 0.13509680123937942153 -0.18833918044242353718 -0.024576967769987117379 0.12332839047403046373 0.21479194662425662998 0.21794737847813319687 0.076949878994016576716 -0.32641438372003861446 -0.1826727980503271842 0.034689769424034955225 -0.22106526178953392336 -0.05936724885316348177 -0.080307855277089335022 0.013882405234170126437 0.19002423072832946849 -0.15178662796475203556 -0.0066254054956460493864 0.17141985853262498019 -0.13949362955784522233 0.32990379907824168848 -0.2396847443787014087 -0.062766665290616044381 -0.10535654342645532633 0.077769129034745532181 -0.09227058212968597406 -0.095186731059751047979 0.010188644879763971915 -0.29504556432570611113 -0.76394962803836141685 -0.16311108625776640779 -0.0083385610082184202785 -0.01827375436904112721 0.1593571339244400642 0.21591692844122090111 -0.045535196354018377118 -0.42812808160398235779 -0.090376715065111745684 0.36929498091347079392 -0.039250193263449709158 0.19441669822683199653 0.071609970647608114924 0.26752658908790294401 0.16106192959993456681 0.1423619171436928954 -0.0020411652046257288545 -0.06514991134241797377 0.0037706097658508474363 -0.020760818793460016768 -0.27108895918294867444 0.041926366478604294719 0.14663288035344640425 -0.16576035171577260807 -0.020855849863030122282;0.19592506565398548624 -0.29996548267864081572 0.50394312881694747208 -0.050250432946861059436 0.045638223247230262636 0.19406815674538777095 0.18356533488445492264 0.28427777708707446802 0.40244633997853929142 0.16037876845886470112 -0.10987654376354670516 0.15927930990695446378 -0.036975651359939534779 -0.18407879517264413849 -0.046214659218895538795 0.042432690576615014755 0.039082983376098327788 0.34091143330599499306 -0.11809301071879016454 -0.067126228733545914573 -0.25461908669687732809 0.020255698117212738579 -0.000546744421673645703 -0.25317009949264057678 0.16457529308178261984 -0.33621734983923712292 -0.069032977439527978825 0.2417189868841579381 -0.24667701114994625144 0.19449561306729087895 0.34204603026058233439 0.020208174367614514105 -0.28371676372079374095 0.06592324139139858763 0.079050420779718272302 -0.43025056844999226557 0.23659268815959672017 0.10307635544130380745 -0.023818673393698142071 -0.025257733381545317136 -0.23868137871986708221 0.26851626393497879386 -0.28126161016671719084 0.27568690629717046425 -0.064285179109322937441 0.076607108370146739795 0.13714621198258503121 0.32664511920664157651 -0.15485544285681449028 -0.24227257079356545599 -0.25145873937786522578 0.24196727781978349947 0.038059922573986881833 -0.19816643865573232985 0.11667155747517725384 -0.18136306434664331566 -0.024141368456182012159 0.013405634855552005583 -0.011408545325614151064 0.0023752994450800890905 0.15513396528603454194 0.080191360608234146801 -0.14467005071154578899 0.10857383130564114693 -0.22798455128398928404 -0.063878091565151229325 0.050012056175659000412 -0.1637894408195746665 0.1420532253758696184 -0.33257491115103504642 -0.070399550751971018414 -0.0089160823462431041536 -0.0092115801174115878591 0.29001516771849628062 -0.20378048444025667618 -0.38326479259180046277 -0.24739504671257750434 -0.56228911799861180931 0.14098508452927180357 0.29681535227271238497 -0.15004629172888592215 0.18546441358436133173 0.37514819383183578561 -0.28702841653381211406 -0.091024459852713734964 -0.22232957941748801578 0.11003886946197870278 -0.30986508318077821134 -0.23439783969815086717 0.10020996414487046144 0.070992940410070023982 -0.40954433479590524048 -0.406050994085719541 0.11940860233737451979 0.061595638195743554477 0.20980227716134852711;-0.064209920445190762917 -0.25176318864896957139 -0.15821251943062974998 -0.19486197768567695143 0.093644957529376474104 0.050118776618221699826 -0.028903105706101647754 -0.12478056302046887371 0.14309901087082640969 -0.2053694316100941053 0.070945218702145082523 -0.042486874826905239588 -0.1352273826150196534 0.19024523298720294462 0.15277768083501436225 0.11801865327073253475 0.053349124077626243479 0.15604148090579794683 -0.201379194677816592 0.15368425665996901519 0.0029928237230464724457 0.0328710730151317021 0.084034248291940297215 -0.13790481130024090373 0.45356446369416403286 -0.13595310661899859261 -0.2083416193484462775 -0.02225908844285964111 -0.12303516671727375564 -0.04969394004747495347 0.27405767424107108088 -0.15545580634195385605 0.091871032775079644606 0.12401076413630415796 0.019441150239838497077 0.21641650537051279612 -0.10806174692077857857 -0.087092787533524576582 -0.0046101269128333271369 -0.17021382082659927693 -0.14361313252753826752 -0.20462368217000553861 0.070473764667205493484 0.27088161524864162732 0.079230661994397086345 -0.31269535630984018892 0.22696691438842608868 0.065122227180042263628 0.12879780664744552854 -0.13471403789234318027 0.20296699900418910256 -0.019257006336547904252 0.097788201364583604569 0.046157947818446488919 0.34874261540543599613 0.070997479587619191643 0.10954313973327348131 -0.05985724331779191526 0.012978236034693932388 0.16225316345925175354 -0.076376922709132114009 0.34062917620338789559 -0.025812650625879698246 0.043959115329756159873 0.25746556080964438928 0.22308325213987448277 0.012219183680836694095 -0.036244959307394200576 -0.19170708862412388918 -0.22653708210826933866 0.0093527862612488004562 -0.30872161701683176194 0.073162647557554236211 -0.3537378313485268766 -0.14495938070790809205 -0.39523904551271626939 0.0071834512610111211223 0.0067596306393406377019 0.28608019855527061504 0.15785542140281269563 -0.077681574858080137957 0.2262984982273392176 0.077184347659356153382 0.16342539069307127075 0.045242318608736627195 -0.0096937545384501513923 -0.30875233723861611468 -0.059073302716264979029 0.089194356382010397954 0.23846306412136722419 0.1165828146151556971 0.16668997259314777271 -0.13569138470925226625 0.12073687884999144415 -0.045183383793304679465 -0.49021059053728299748;-0.25853387818495698891 -0.19996726577729570518 0.27478493710427370766 0.056576471645077563988 -0.022828685786399967317 0.058149563443921775674 -0.045534552447099314876 -0.082476682144607710301 -0.0071982911546570943137 -0.13839271584649517899 0.16801031443915193098 0.14518609319088382481 -0.084563103125079183697 -0.14521187103465960089 -0.087228351356518185611 -0.072172521067641007275 -0.22501599520185447401 -0.12812363629728551473 -0.21528902679988615176 -0.011239052058601230882 -0.16037321693373007836 0.057464377235366709273 0.063851613860559777724 -0.086879946986739980952 0.12047003615467094528 -0.23866752614942951527 -0.13877860487712334603 0.073102974293855996213 -0.15205785486926126637 0.36533800965231505442 0.088559184503770621566 -0.15215480183688206983 0.26153609928921756067 -0.089095792428455097833 0.11840083417424898671 0.23401890880579095944 -0.21687232537823927792 0.13026844249912933327 -0.066681539942468170956 0.25373584391735748422 0.019462597832960355088 0.054267251744349119524 -0.031292298871238577451 -0.14036642303822186029 -0.15596613264357631068 -0.16457829424758907422 0.24929434040288375729 0.016828697783977636382 0.29729868218486638076 -0.018979893480844139964 0.097502377240892779131 0.063502876172627314988 -0.0088950730470147062329 0.16029416238848875897 -0.08693166874879326711 -0.19558327402767164416 0.1858578693091539058 -0.054973156411550164191 0.079949155941460584018 0.21081879152235991071 0.035814404614170292085 0.013331950257011955518 -0.14953999835016912323 0.18000601843480790176 0.16389444349933465772 0.068131101821133702168 0.18245528941145425228 -0.13085877888874664077 -0.13411304469518711691 -0.092647032631873460495 -0.21337641245812435931 -0.1022077170645484534 -0.098028604327978760558 -0.13215848135052463141 -0.07650647280010859641 -0.13938136740097956112 -0.30394427056703088308 -0.17362750263389600813 -0.080465283334479290045 -0.0043466716057114652277 -0.20397768073359556773 -0.27788945265401221452 -0.10285025324441832151 -0.16694368126228367744 0.047948321170288958626 0.016083416845095684089 0.16300642815301044641 -0.35903753180782210785 -0.059024165782731077834 0.17798274333043695439 0.21037287000515603186 0.0514034265843576893 0.15971628473783000546 -0.10303311351678288987 -0.1427192045472324422 0.050918538994800414954;-0.25733630081059816197 -0.18804978806140493219 -0.25207172806496214168 0.32157298454219362949 -0.056178546738595881715 -0.29896500023947308877 -0.047160989502380103178 -0.487170856676198194 0.091178591012075801969 0.32277630323751616004 -0.25293906109033609253 0.025784938384144015511 0.241294853289318878 -0.22193212219155886156 -0.37259003645470500921 0.023660729045338148302 0.34462706699700829116 -0.0051986346188016381228 -0.11633351522654537813 -0.088640716548030643041 0.19837715890148163722 -0.024536333911733140822 0.29119329266762783437 0.028574921321248662742 -0.08535194169009456544 0.098144567955103109713 -0.12103513331375710671 -0.11006706055189317828 0.085838839957862345109 0.031347376507816070157 -0.20786092668983024989 0.041363388923582718182 0.089291820848201600147 0.22857282292730177198 0.35020142057193309748 -0.051763055955868865488 0.055986310732310459737 -0.37067223378714253545 0.038416759300298163049 -0.21224021182104146899 -0.095887317407692754245 -0.14453073615300648935 -0.24216003823130741179 0.048507643920014387184 -0.11232912510276171769 -0.035683283807862196946 0.034703052737924809656 -0.071038295049101432554 -0.22729857470547934484 -0.18753779744495704951 0.042377318733667464212 0.063563079196465629983 0.34656154772986158541 -0.092961962456021049461 0.21057856828474483257 0.19689186863150562323 0.17137095281880151965 -0.053282654373416421523 0.29994064347444476804 0.13916406396704908421 0.10187641095619437426 0.14996609728402351958 -0.085652596202009323445 -0.25320111909734743794 0.062135390754530908652 -0.05328912673367058872 0.054125092952783601663 -0.13633046203281704023 0.52141117646728374346 0.31947452202528758836 0.087316118423622635092 0.42592777956204258549 -0.12473475973070718981 -0.23381228803970069419 -0.12305844042588302834 0.14221697376655498268 0.52602058611654034515 -0.10797291509263134968 0.028082329770882440839 -0.043226980197024270081 -0.10466382536753794652 0.0016915871485513084456 -0.081174155776330206291 0.052783606038785971237 0.067540953732669550824 0.13072862509808685916 0.10342677328064626974 -0.26344436169550039528 -0.14564515320304563528 0.052008472358794126389 0.0050687136877765716705 0.071262989197736367752 0.23146510656502139458 0.24009057606194050827 -0.6523913917812400598 0.39581788480524765506;0.30197044473459139224 0.11671306929458336032 -0.08895299268841284912 -0.0012864477820879196245 -0.13250179260390970715 -0.30320359612406394545 -0.10066312342287378478 0.14652518210011336586 -0.20911992793447767292 -0.09746954682396483105 0.24958048287665052234 -0.024808809930695712581 -0.075178221598452610319 0.21749036676677252489 -0.066621059192845707986 -0.35006147135211812538 0.14969835472227979722 -0.28844068619429485967 0.32620456135405495601 0.20827900164656981685 -0.63798326627594748039 -0.27605935344740734072 -0.033809052231121621002 0.14491465051843532841 0.11639887615125600606 0.099602961915002632964 -0.34071463748655428372 0.11032694946146470727 -0.14719735740788447709 -0.076418569785869153166 -0.29968069280436077095 -0.29932187970239720887 0.026217950827204818814 -0.094693676205782228994 -0.18628534204364824434 0.018030448346184699965 -0.035328431000277729646 0.13220175648905185817 0.14315191971138124805 0.1120771609451432782 -0.10353374396215664355 -0.12958151526495745309 -0.019332676092340610879 0.28303524940598268067 -0.11648425417611792121 0.18393430280515404851 -0.17517267824323484726 -0.075585369866679893991 -0.0060239238094532245385 -0.20269264479595386352 -0.099041895753815389902 0.16922424321657938973 0.08037956838333902565 0.23989487134891854248 -0.061958424271285256202 0.28491845321335551589 0.0089062417466395909366 0.11730987832168829343 -0.071875134280599939363 0.22199683174154777321 0.17827591075987223035 -0.43683256263578401635 0.048925522294117243516 0.30910735219247792438 0.043953803144462802455 0.0020456530500295765432 0.49321434743317915661 -0.027530053062340086728 0.15096620968271651231 -0.20782366424158504881 0.061715530894938239181 0.30412717549205142697 -0.078793850135886467356 -0.17803515866524294298 -0.029936113701341748872 0.11063188662353437564 0.10423063944272824288 0.0027452290004017216966 -0.091491026991309801208 0.15228433022623991122 -0.087250778954639229834 -0.15685200926579889735 0.0080651312478624836988 -0.15509652448049504603 -0.050603411455878724579 -0.030568294470981565575 -0.28135478208866721017 0.0052318737155481673251 -0.14736822713733976897 0.48799236294735676145 0.25209685159336281401 0.20154365423706502303 -0.29091670034862543437 0.27585408433820923779 -0.27586795025005395043 -0.45811669732252741083;-0.13202242744935646646 -0.15654534536824571411 -0.0088388592642070669403 -0.042260421243010368175 0.14055650522902835009 -0.22921160159809680912 -0.27430026666810108926 -0.036826733313580273244 -0.27746105046711094788 -0.22906001457130825694 0.0469965118207672089 -0.28295846573340721619 -0.13209574899888174015 -0.18112470627084562014 -0.031446583564021628188 -0.20057486098026736099 -0.078350961641537070212 0.21917965551926429923 -0.18666516578380254465 -0.032979971767205754074 -0.15268511040067136997 -0.088443756423581598725 -0.066041361210031596096 -0.17024685443713943878 -0.18021911571878901359 -0.17419410269551283132 -0.11292609821940784165 0.062373834795549247534 0.0031771188538846180036 -0.18254780120697844392 0.097720288505885155583 0.20546141483155516694 0.15278619302584051098 0.24705129593859009862 -0.072766923957281667845 -0.00065603546583774914255 0.12057986074544228827 -0.07891728247564877563 -0.075616156893753422308 0.045208858093161191638 0.2398988311089926273 -0.0092388555784946452265 0.052571812449483473761 -0.2149342276834384502 -0.21808806895082252786 0.41976957467050102224 -0.13186247506040696398 -0.1417510754766061476 0.1446076624477302397 -0.15907868888172832511 0.043820460813727597771 0.13468162981712286652 -0.32393868730344976825 0.017248526126377970724 -0.090158082070015743703 0.47315459289436950785 0.087619477687724975357 0.061049392597471760502 0.27019165654180687941 -0.0033548807943089187407 -0.012541767022284279129 0.02163514236003487648 -0.042340034257957626096 -0.10600833807639527262 0.21958897673288593766 -0.15153181044927946375 -0.18863394914993084073 -0.15236583480957244241 0.010820597888397516517 0.28800285216006987765 0.24024393691175258136 0.25246587206083725974 0.24693474668158241214 0.24769862771892853237 0.13894781689232130195 0.0088562207353444690611 -0.015841201510723303125 -0.18673314672138374704 -0.12970185779986639907 0.34461655619245740168 -0.10327406352071345774 0.18769170939631804607 0.32971148325435617465 -0.073212513676318854983 0.21315449891355325862 -0.042409085978583158094 -0.051055932419833180425 -0.024371354048946351767 0.46263430647135805884 0.11895087043732679999 -0.0452807452340065128 0.19670659619953539954 -0.41296399160244906534 0.0076750552817022501401 0.35055794384290417387 -0.29259053935812051606;-0.13462195936808063479 -0.21588497644149631793 -0.27909026338859904692 -0.024181832488664855435 -0.19823809179360890598 -0.32602968740092730382 -0.19547319160376280811 -0.048016646775254204216 -0.29851566381058880495 -0.068703470638445104934 -0.15500078797970362476 -0.11142768151242525565 0.057096469908870121912 0.13845558114724448862 0.10462857495573844868 0.092376179821574325168 -0.11219129696120670736 -0.21394279167788637919 0.047052545866514569606 -0.015487169043685985667 0.080359486291387963175 0.072506409928956988553 0.17911523758096623005 0.17873411146386206094 0.18719085260141302141 -0.14209865128015702895 0.3166966179230037981 0.17099543994357799259 0.078456189109157428718 -0.023267268431225094499 -0.012163909610617357551 0.18924089482417005836 -0.30022601783605679104 -0.095612759643408748444 -0.058419515248726273937 -0.15102927053152334635 -0.025305015314770699236 0.22597315515463109459 -0.1710014035630774698 -0.081539007432177249002 -0.15369508173213616842 -0.25387169902333667215 0.28768199602219934885 -0.092461847977569844304 -0.032443003403143655383 0.16166101986545275415 0.41981463266853608074 -0.041219157055138448686 0.097706817312771476747 0.10614833563661159321 -0.03624646306853180483 -0.080683810380489953684 0.037860170193013090167 -0.33907905248977554535 0.28491803999247466983 0.11355809150999263135 -0.18696646615140546932 0.31314153115426640595 0.13850709643476921684 -0.26921978502050608606 -0.19283734181513817463 -0.088270968991793263836 -0.044094800262876009123 0.10688560367074213808 0.11207247941705422711 -0.12172772636614138941 0.0029542800691868217368 0.13373996384827069317 -0.34184743514841575696 0.40417574638585235247 -0.16117113385061815345 -1.003334740795545299 0.0007767260362687618009 -0.37758624524304956749 -0.061239926240627941267 0.14772445975424314257 0.2623163470467204661 0.35254044428499586861 0.17730967215729934172 0.012022563363890367491 0.30926663590144876093 0.27136662906160879949 0.040571769495975740227 -0.077975287170253065883 -0.17818006316304910164 -0.041771942007301908484 -0.052353748241714674616 0.34674176985050741973 0.28242165960065102048 -0.56397053845092304236 0.4477054032797578853 -0.17911071666461303442 -0.027817302922529058701 0.42552542847994911934 0.11810776648592082039 -0.32770037546314267907;-0.27264036679468839353 -0.070069388052511866194 0.1039249109415011918 0.090240899805331190042 0.048287977455620731404 -0.043468108353123806331 0.27386472123822097613 0.21578753883933313173 -0.13238828205926672643 0.093103960955849121572 -0.06402070008220896169 0.11122044682629386725 -0.073377415323332098596 0.058726661351323782012 0.045030296873282499304 -0.13026180835516917855 0.048890566465645830807 -0.38455634943587396757 -0.15051451520359321323 0.20813472071744207326 0.043808147812425493606 -0.28910154790773495703 0.081445415018362096737 0.59808440732657786043 0.34002877445220969221 0.041147346481312276067 -0.0040218975892128442859 -0.13515130563012131559 0.14670619148180716329 0.076156577329931446352 0.14379972088056247603 0.11957321708907289737 -0.059583694900210856793 0.24956136665339406777 0.15769890046688209151 0.046286580850793936082 0.18263654293757833336 -0.095348079649181502471 -0.22823672672918857152 0.20374379249357510435 -0.2678887133129680409 -0.04853100281203229921 0.3103186101632861571 0.10878269501609161285 0.42571008008964533742 0.12249295672466194163 0.15018760718524862274 0.062394354977040752952 -0.13062627565535131491 -0.10019517070261728386 0.57333176708856603554 -0.18661399291706914916 -0.053676177568849396671 0.14857691040208059752 -0.042177368911198422075 0.058697380601387176557 -0.20757750772971403364 -0.065492724996082218869 0.19902845553430573156 -0.29688787976115393885 0.11027717456374758198 0.14168725460334163913 -0.2482787698821268263 0.023798193170379931122 -0.29105816974394860264 0.088567257816641403734 -0.10579640893547156977 -0.028510993546260875176 0.26911599120060036849 0.29631995163426888551 -0.067399825952917380434 -0.95022464810208329133 -0.12023910113193132798 0.13345592489150842619 -0.1447085451135409484 -0.23681830557712613139 -0.33508834777025570117 0.28270690870177755949 -0.49054714825681478008 0.13881338763834749628 -0.082683803287900078938 -0.12544376609393229072 -0.020899027786996083461 0.036189089458177392533 -0.17092837524080092826 -0.1216085303175279686 -0.14178914166037120959 0.20503985586595938062 -0.033573399363289159469 -0.49353701741845051876 -0.021325826799361097263 -0.034791628178983895203 0.011519409683540357547 -0.20191591905661079864 -0.23515053035606664489 -0.22260967644522514086;0.1414381163580038514 0.15428417145551381884 0.11805391522828292961 -0.14688837405672922065 0.02409368370426787434 -0.09928507921856134788 -0.011466943397132046273 -0.050829406549861566589 0.17318579069810771665 -0.0235633531654903354 -0.012325839120626453163 -0.24448617192725563552 -0.10911911385186444379 -0.26172547757846220673 -0.21315152280894469894 -0.054963220797703250808 -0.058101535468864831668 -0.12059224511363407506 0.027509010513139208615 -0.078422500055240693118 0.083383375404019050015 0.063213401273252492474 -0.1866990023817232669 0.16650802062612243826 0.056005068910921697312 0.055205999714135242651 -0.086335620883737876352 -0.27869738736809857027 -0.0020969640025974307235 -0.071207855476739467804 0.080699360226231753312 -0.13839182859339491105 -0.19769143302880459734 -0.20291147401018924668 -0.26207339754335451376 -0.10051248593698805522 0.20215064487989481412 -0.056393220866781772205 -0.35019753091565775094 -0.27562255513004535468 -0.07027702948738699662 -0.0034744850095395365085 -0.2897621620949763499 -0.30766376659118421788 -0.23297672044700321048 -0.083452857140157238325 -0.25440370755351465748 0.14516858439270430292 -0.1357084544481551025 -0.23298147344969832861 -0.17922579734496546511 0.046611674684633223886 0.16955758966222589379 0.034100773420780099154 0.0077278471220276739179 -0.25250335405493096186 0.062805974072863299251 0.093703679198676906315 -0.18522708246336505589 -0.24359528629875693007 -0.070419251061561480287 -0.014021222445940222101 0.016031791915050067066 0.18293540951170084163 0.092316719984403522448 -0.15516734133520254657 -0.057749236342544113532 -0.35027767627651623661 0.077325076631198863542 -0.022836521711781253979 -0.069676612514018812505 -0.021022334792055657332 -0.18996071187425900284 -0.12232454247077532983 -0.14930293399888516781 0.025984184702565370911 0.26959560218325612224 -0.15833294167524053497 -0.067818244647127601255 0.38151760257545069832 0.12575047106008707676 -0.052851575281778598314 0.19793793617684576902 0.27247409095298613657 -0.14341029261192139721 -0.055423517541775345341 0.064771763686599606591 -0.048706791245093042364 0.4038149777667903173 0.17859997511540925963 0.17517566731483716347 0.015750730408707166313 -0.057821372307399893087 0.083517909471542403632 0.12361217443291090679 0.071508663977355169106;-0.10284885960961488716 -0.14218533032213345746 -0.035760624427747800258 0.1490850240735529797 -0.41414600849561938878 0.04049541202578756105 0.27564851970213588572 -0.18967247878234511083 -0.092736077034403757713 0.077577579877265864794 0.059388360636976091078 0.40282081275164821621 -0.087028427103360242456 0.29136545896803189848 0.087852067883444268093 -0.2933712320476566382 0.071214020768257182969 0.10498272953232246074 0.339461471548622995 0.18316780568173543498 0.12664114669442214089 0.0020024726865853722559 0.16367521281076413686 -0.15701738224216518769 0.18273160770116914087 0.057053404914739633269 -0.21259180045497982903 0.0194707345663986571 0.025498727019886133216 -0.0040918552986736527952 -0.039383067193464849076 -0.31549127581729985437 0.1088317602020394681 0.053384769092579616168 -0.045356440725262681113 0.20191774543080834303 0.14577003703953775315 -0.18117314935548464727 0.22117589584763483468 0.18931968788298406126 -0.15143719738682609455 0.20291970859176330921 0.068638168270226951329 0.063769072523064782021 -0.19165381483724941436 0.09113336557854481712 -0.029261954659854715749 -0.27465906310029186699 0.4032058654806678355 0.0028882281305227324418 0.076625944962732991939 0.14582182980555324914 -0.17594027030652470422 -0.11592541171346620876 -0.034526425366157083297 -0.32918378749935545136 -0.27790407505094050222 0.30791629582724250325 0.12900635757456535568 -0.051377892227303170736 -0.15166501868246304308 -0.1868812803621823504 0.069429972813323137526 -0.10887158243174153982 -0.06585144208172237501 -0.025827226429864520718 -0.17129171931448919364 -0.30843623007265336122 0.1165737319282532658 0.18309497661268878121 -0.26670087069239178934 0.039815549717217159353 0.3848105549358666333 -0.12611580286500176373 0.11589242434266182336 -0.33395434276602598 -0.062051920033174737257 -0.12844699900198305875 0.39027027479060871773 -0.20195587766955125364 -0.089634753804770830876 -0.01174766488942336623 -0.24853460528167753418 -0.082780359385167437414 -0.18558176494194300599 -0.21349168464144160917 0.19152879485499649248 -0.10915155145661809 0.25094868777304746299 0.21955369961881893159 -0.1213298206200094792 0.15234049621981687883 -0.16006857568631382982 -0.03804963880145705718 -0.11258415319880549221 -0.28385515449249881792;-0.002102859395708906072 -0.086068345037000282272 0.071769108846471044161 0.18480461359015551426 -0.29993088712448506827 0.095374430366396575898 -0.15652228669060430644 0.1430221977633672481 -0.16848126981641525779 -0.19917195980910337716 -0.082338035296958253517 0.060371490160284861648 -0.1929057417959348375 -0.091402892825897003037 -0.08722493445239787313 0.050234008945932349943 -0.18043454646891071702 -0.34789952386971195741 0.26679549096842430922 -0.089913691548871257919 -0.20885920335036095574 0.24652532998436271772 -0.11256098394579996946 -0.19325494387280170439 0.42842669643251052314 -0.21146549462670341524 -0.15379145493866416827 -0.011604241932725301023 -0.090605684970641475751 0.097191541546265039497 -0.0034333190065868259173 0.053618794355134440088 0.097550171496215393185 -0.15413136841578434222 -0.16019206602804914041 0.44142679071578083683 0.2594756996764484569 -0.07433059835697172768 0.060679384142378493816 0.16051363985456029715 -0.07463206057431608087 0.064851338612238892956 -0.21835451164721847439 -0.21866380460866838287 0.25090070948778581128 -0.38160001658979320061 -0.1552892034241921404 -0.29957896922638710402 0.23214165461178767891 -0.02176093019347496646 0.17529134443399735366 -0.20789231950225162127 -0.31821482583077165263 0.054338359769542481092 -0.26857905687142125117 0.13773480026633072582 0.25338960167665153245 -0.13986899178898620777 0.15835731118767881753 -0.059007336760714110269 0.25304793602622493998 0.22651778404363273611 -0.019570944084367065258 0.044579902968544235509 -0.086238708638024325071 0.3524724264901723525 0.065621608981014489803 -0.11647418014251478824 -0.37634589592481937359 0.38086217492211021929 0.0035283756499445732488 0.0054849717302924315063 0.04489217222143217223 -0.13156028110162407141 -0.27977492750687488199 0.16071541850365264614 0.039137766906380960785 0.1699411616789979762 0.2401365652109172244 0.27508373376409367417 0.2345142440933742356 -0.15299701120449482605 0.16000251496870807055 -0.065370026588008930957 0.15867092421221665188 -0.04942010834591870766 0.22423154013917825922 0.45222260534560732026 0.17443061651259958444 0.10640422742743495255 -0.21804273821719385995 0.10229053608370873574 0.047021081500605479975 0.39064157144015687617 0.10543400570456606946 0.26741288589147121924;-0.048037734777151612497 -0.086337079479509970525 0.039344450116934791273 -0.059574826421799766119 -0.1936526609063154436 0.21121800309760105363 0.063440386511006516268 0.2106253701948806456 0.060353920135879798869 -0.010555036338751025773 -0.018035281602907429072 -0.16979901372468167442 -0.041013257050922888314 0.096515067176604046884 -0.12299956748651008631 0.081451822360850384408 -0.088721161044006069396 0.047514195902322413356 -0.048355023650776415844 -0.23774066905509652625 -0.039988793964892348221 -0.30407753731285191989 0.23997771237765133656 -0.25721818168344107169 0.24271482165040961232 0.12695858367503112807 -0.25597017619896272889 -0.045534529993416818228 0.1735394592873971964 0.15287528543142875348 -0.258037734979006117 0.044553107506435568608 -0.23936359522596020732 -0.14606672967913736372 0.17647840665330255527 0.23209858628031149186 -0.17242104614485312397 -0.029972998827534059335 0.10292487664420783833 -0.10387227891772772559 0.19686528196778640964 -0.23318227864493384915 -0.0017811404999353551166 0.31375143703559976727 -0.23542634329604195109 0.41731028092050853617 -0.0091009579290805466684 0.22387289185432318606 0.035950797393966754667 -0.16741503095262874612 -0.13673097197390499113 -0.16538770727205873157 0.019508919984017474708 0.037347145003561545151 -0.19977778563380960142 -0.21393970318741398207 -0.057202979037610027224 -0.30984109147773830628 0.01471520252019961443 0.20967610542227116399 -0.18781479288972888209 -0.29250165403530037356 0.41969040732562212792 -0.46305641967257771263 0.31444886458657972383 0.30390236846757706646 0.23457382848720145785 0.38625068785550525918 -0.068921668008277134354 0.11360179947147575064 0.21354310758072522769 0.33413446668363888659 -0.032482158236900003645 -0.25399410123771876124 -0.019452616228575768387 0.089560408056054433001 -0.17460015729885494662 -0.44351047265291926314 0.072644926354473948749 -0.026678312547325531284 0.058043872619112285571 0.14651742657882607657 0.036648807062398168488 0.063825488374384731216 0.10701480984599713586 -0.26811081905485695254 0.41017376968594715381 -0.07022895621177090153 -0.26649729327048671257 0.23985729752845871832 -0.0038937091016794495545 -0.33737192214473593621 0.077855364162066148515 -0.091685156305174181357 0.072313388766323580259 0.49693143395440064758;-0.025886850646281434063 0.0045584493777862293909 -0.23743120625976341098 0.14136314348648137962 0.2237014633953966769 -0.003302004985303446348 -0.10953737062613419506 -0.14544056334300098365 0.10062244436498271605 0.16888377536619872399 0.2526596726958800776 0.25050198957551628176 0.049563774457492340564 -0.014500445926126348181 0.24558330466677782966 -0.12189874051072614736 0.12408925313946182756 -0.02988424657470747231 -0.32768034249260846735 0.10710016757794496578 0.13109718836744790882 -0.27892058699740768235 0.037402353961516393577 -0.2192973553230826711 -0.039106840491617708699 0.063261647814459212591 -0.21135803842251668638 0.19626223056779851239 0.018346107314217943718 0.13912763135662459257 -0.15358025495087138101 -0.051927898742285295841 0.1167751409551309183 -0.12589033925622511445 0.35121813038380239602 0.52937006048322532425 -0.1570283380327136824 0.048336132858393651701 0.071039173508617353692 0.16409824118599425358 0.1256239900902621498 -0.099002408268923924872 -0.11427221992970450215 0.096386253789233086731 -0.078748046318100298202 0.055773547516470955987 0.090152384024196355328 -0.13786330052155507109 -0.30999026519754852016 -0.35482282512376406292 -0.27845229520543335333 -0.057990052969815138184 0.15476827694901992838 -0.11793172531760072463 0.16586493661170348402 0.15517224238504045974 -0.12865674937938817446 -0.11245673489835589232 -0.023512678342723913882 0.0086220416631268177732 -0.085166623452420500695 0.32949982957592727217 0.21000496156212827836 0.11616270644920266564 0.19385523531176995782 0.12392098091630829315 -0.095207317652881845449 -0.10776932560771027014 -0.16835801240448650118 -0.24924746199779471145 -0.012041651451522918451 0.1463149530030318779 0.25531376082222811963 -0.17955676418277977113 -0.20119118272799815794 0.16493867650718987972 -0.21459120715585797146 -0.4241348503949081139 0.14899711632916234905 0.13082348026309553735 0.00626448139091659046 -0.0075878512610992824433 -0.0761220119601259404 0.25554531033244620719 -0.26120626925588913414 0.30330928460056388873 0.27798987064158581228 -0.39686697470577164681 -0.26647985077525843112 0.20311278850230488069 -0.0027639475640264953189 0.1667223993575307206 0.43691759612526848144 -0.2918841217607359706 0.057715827786217727136 0.17942269171816718765;0.1820230939824221128 -0.14543491238933944909 -0.068696142746163812998 -0.053395659671113107625 -0.22632984059412936118 0.0080482111102106630718 0.059438804384763378741 0.12806702590764706962 -0.063761426606101831438 -0.13472228765805216444 0.10013768251026837486 -0.40092784113246382471 -0.26188180713281383749 0.025942576601899476618 -0.05013013968431657974 -0.53683951673962726492 0.014059966121691519839 0.12722839132458643729 0.0050552789062887097324 0.26608024920836392813 0.029515741593830666784 -0.27346825830692561565 -0.04367369658853240133 0.11297350262191098447 -0.15936921435699660798 -0.18664485061811006417 0.22488111052034101545 -0.1579688547658018305 0.092815708205760058536 0.10193103695380158202 -0.093961076741388760425 0.13300710829987236195 0.048101600144576830975 -0.32606875542790603184 0.095621852599511489301 -0.13192928512359228255 -0.20364700553721293286 -0.18112769880748491591 -0.043267526840006974298 -0.14799906958231906495 0.33650089033266405991 0.16516028507995123009 -0.30059919573432825057 0.27780691560571585397 -0.049780564531671865625 -0.15539491910867556101 0.23631436891735277395 0.090511166492493175251 -0.24207884722156788881 -0.025879696788311961492 0.12931062715233557214 0.14062055823965693979 0.24764425002758191918 -0.14781533188889950381 -0.052219797894766772917 0.14465871126488086262 0.11702903550861108728 -0.013615921247662714569 -0.11915799082249775576 0.088470766624998239958 -0.33286113355399460367 0.12802823377446687081 0.0099998560237295943537 0.31661379724297983307 0.41301674569630714151 -0.11006508401188876134 0.025384568790266019006 -0.0099957513266122049317 0.3739168985146617552 0.14138470538362238327 -0.05702251812163378758 -0.48175132495214834094 -0.23022411073675197457 -0.095872119416604756337 0.086947546136191891653 0.077879200576642063081 -0.097827843356728130808 0.50587456337136937901 0.15651277975045932433 0.0093156848648785050421 0.44135720049220888983 -0.24050362858118826126 -0.17985905178187386322 -0.15515849087680699814 0.10449601523503297684 -0.066035605827941309953 0.17157804157389974775 -0.069948412100792362045 0.25886916278214772147 0.20626390313444056823 -0.21653915507156515363 0.12400392428882527074 -0.010826404344315383038 -0.094542921419799058613 -0.03882890396813699907 0.077927548226921314334;0.141723424316735791 -0.055254879572810187971 0.087531608043106695627 -0.077301764991957719331 0.27740751902365273773 0.03785514338023886205 -0.066357863738628064532 0.3194476874927199006 -0.12329073520000885522 0.2341370105304554361 0.19278761695634089035 0.083771899293644883078 -0.078258080052875586552 0.29164144418489185151 0.14910955914527351807 -0.077923896773327894216 0.11988351429078512866 -0.0014861822833109471394 -0.00062642653302998464824 0.12176411689480233502 0.26685606047731885715 0.3149274435977427733 0.078532330376347353473 -0.25127508568324197213 -0.19793854700045981909 -0.12847842179989937828 -0.070171695287051069623 0.24200452079821496709 -0.11804978688222314553 -0.18905350851136795698 0.40876483815375713737 0.14703220351259860266 -0.17867156979473830525 0.15435264494900263754 -0.041614036857642096312 0.34210855197180556342 0.15474796463420778525 0.1097188019104587825 0.057708777122048290908 0.20048166293372035596 0.30281816368801439676 0.068114467167288292315 -0.32508382669889729355 -0.11680837548397392245 -0.04698879052172875298 0.026779856971575203423 0.24418041927333272723 -0.36865320599872114515 -0.074904890525507028531 0.12866752186853908091 -0.049373126427372147906 -0.15532835695125460362 -0.044636528084242614589 -0.20863705795125128684 -0.003511227857231849752 -0.0762261350173760871 -0.097485783893367858322 0.12967895266484699701 0.12838649838450350016 -0.31015875884842392107 0.087983335884891669676 0.26797990245922082009 0.052493421587940854167 -0.14061164734434175583 0.02153494929519998019 0.40307669318538474901 -0.19390783945271805599 0.13676308480090001995 -0.067226555891973530099 0.078159271600600807584 -0.18755430095618150221 0.21394022210559848762 0.11423150029277162609 0.12749939313009372999 -0.17312073249358772564 -0.098319253813566570566 0.16339087592236878343 -0.28201729681515558257 -0.027195686130172987138 0.043666922851501664693 -0.34007819895093893692 0.0083339578515430595002 -0.18687845594647192748 -0.03040012343447520346 -0.21064357618672313599 0.084782639995997624571 -0.091417488246744657565 0.03799388250813499901 0.019042230330901542545 -0.48076818122705256009 -0.018106392520873197671 -0.14423835937366985549 -0.1464178055946789847 -0.22149123233517634124 0.11499395302847342792 0.52478253140793362785;0.012013930836580557354 0.020849120312276717137 -0.0051327297960775475696 -0.16908565503700465071 0.055072686202634300867 0.13887009027774893655 -0.059609689141705300697 -0.069522834644636863355 0.1750960934845864625 0.033845205508427844698 0.11001427385954533344 -0.052138406976726420217 0.063716242545790766072 0.14188598941117161467 -0.093697221610082925825 -0.26816140101474655877 0.084792048552710608256 -0.18921463071067845529 -0.36830106608609630703 -0.21411987722085731867 -0.17561117751291016598 -0.16208013463368636797 -0.19507822947805147917 -0.38817268742527094583 -0.10430936180891299536 0.19741921409311821711 -0.01431773393451560468 0.075603564761774211256 0.00380127649517981352 0.0146845667291064675 0.082314469492749772761 -0.062518711294530793232 -0.11235751625209096372 -0.2028333452742800691 -0.05813204295845888353 0.25427377435055165122 0.12207940977352067791 -0.21608908009329583222 0.29981065120877120611 0.20076721823271967415 0.086783063610288257994 0.028859086156271460122 0.12744223250190420127 0.11546433526403268588 -0.17523786114765058097 -0.26921966100251010223 0.27822100505535746207 -0.15137569376772688767 0.027133617732145828838 -0.097015089065339593644 -0.165308958503181197 0.099254913286056872801 -0.28120868516048314056 -0.021558329887488202059 -0.14445621708732123145 -0.1843868297652945798 0.1355119169545139779 -0.27610080240817924668 -0.13789911479148206364 -0.23897949714122279641 -0.009035027289683819629 0.029623670658783175097 0.010646418469892972997 0.12092815753257032951 -0.064978616109041459348 0.072423160209139803012 0.15471576735199532582 0.089058574930288236793 0.11905300055511659763 -0.18614026124791152594 -0.0051541523836761563362 0.20416392748033551641 -0.13611385388750160685 0.33292105587790427057 0.056627944472500309214 -0.077272903744177501295 -0.30766088124254309388 0.11175870940466202386 -0.19653517422867911035 -0.17762284543571427164 -0.23025339917100623444 -0.07021838717425295251 -0.3917316185185485411 0.10635743525294838463 -0.041630257230478528996 0.10679781593946215124 -0.11773077051390307135 0.19371861912224658253 -0.12013457705321282931 0.0025343226482211901433 -0.096516287546299928124 0.00019734641397127291478 -0.027263432709064047699 0.30777925954047202772 0.060419544960607141082 0.36339069784901045779;0.28913370118855258317 -0.18533084436823060726 -0.12268275474494498567 -0.032742496995948965066 0.099025150900549363531 0.058053069526871420303 -0.10740230826836377753 0.14588587328777752328 0.10610610346931047265 -0.11225803140832021909 0.0026365280229664056488 0.15924957672307163414 -0.19731400334379914363 -0.17121244785030370616 -0.23135398865515324762 -0.20318978514401947466 -0.10185437052115238477 -0.053656950239210431108 0.18731873805158105739 0.083892824496390017153 0.14537142271988201525 -0.16264968937297008544 -0.25451904523207402598 -0.27260175001962894115 -0.11607767343873934274 0.062193400673133669709 0.012209988041206943851 0.036313527646788780479 0.099784777836840227172 0.1204147105934497558 -0.016644919275117932983 0.14815288807151885675 0.16745780708310506468 -0.19641545704776297576 -0.047890418299066782326 -0.10061818598648369916 0.084916733990178280833 0.038641648500169011038 -0.0010099661271716314608 -0.050206606958844018918 0.073057638456012818917 -0.053219349301053146817 0.20645096694707631979 0.23997534387991609206 0.060323098987432439977 -0.27385555527162158684 0.15957815112871898133 -0.21917417705622158075 -0.074112447897793309881 0.13218427325006656958 -0.11128996393562783085 -0.088082616288494855472 0.25694683117742816991 0.18582370046720975143 0.069236836769219392562 0.017494169449254724086 -0.01746882880756385481 0.019019935413239090483 0.14513769205307486265 -0.10380495626824152999 0.16351904286614890593 0.30183465072512150051 -0.080736286595889286688 0.3893317656066240251 0.26217207589934510281 -0.35905712915993170942 -0.28016748832226462396 0.17833765434930415328 0.051580593678692207571 0.12023462316237275294 0.29627692069107669504 -0.38323080289256400421 -0.31273419010484226899 -0.013719471405159135852 -0.00046502162427262581316 -0.20437991159917653916 0.0010273170829620949067 -0.059647595208885587081 0.24422456898236483136 0.15267813781493669301 0.077956473647500759694 -0.091132826861174576205 -0.19263837113530746237 0.13032923179286273752 -0.12660165294535558056 -0.12062617370689980578 -0.29219110198511860643 -0.23451246773749742647 0.11019472020750908925 -0.12445339502051559755 -0.32671425431331063693 -0.14596537833765030334 0.29806944066753077172 0.11653487154447493557 0.15168717935019260246 -0.016980748990849840047;0.021733781957053367739 0.13624344316725192638 0.1764083424314688564 0.15880562822214663865 -0.075110912625669976062 -0.17463058986445489928 0.33851105285646015952 -0.027894379708220159997 0.13406125918701422561 0.27222600666964053007 -0.0014144055230543217325 0.26771035028717310444 -0.24851376232481237061 0.14173636897298136361 -0.121812989846463951 0.10330548476271879388 -0.11902231472026768289 0.19015396139916873608 -0.10838096490496547386 -0.30215949193431074216 0.040115645730146705372 0.022762239924945918551 -0.0085501739098925513827 -0.20426092110186080952 -0.06067560246051972167 0.11675360171346625682 0.12390233102478175053 -0.024623615480588452453 -0.070418819815166552867 -0.01705008610371026509 0.2552663759050045611 -0.093199632622585210084 -0.0020668713705699602069 0.2050439941292956092 0.40777915282495108551 -0.20786932544675754131 0.19922114491773507128 0.31378845766999979849 -0.053878321874002904623 0.055743117477994964803 0.040351163835328045237 0.065638588981339854311 0.17787929709906172282 -0.25719389016140448145 0.0036299849974926103741 -0.13025817188861879559 0.055173276833133041985 0.074274772878278438881 0.14250034839018238531 -0.066261986415599910538 -0.17899308449654546815 0.34215619842668115735 0.1280638649617674707 -0.019352963278572721251 -0.1203324577741933521 -0.16792619469513761499 -0.11700742240911925218 0.043134008434237737506 0.073854304378796475916 0.19276124005611389167 0.25129463394434403689 -0.023764550982688939507 0.12326873785706611575 -0.23183904868279442413 0.19417698102793853887 -0.095091607042015913187 0.00089928433576112222492 -0.2377728186201016336 -0.07852064664029001495 -0.1285397933959293304 -0.38293485246431741009 0.20412369031666038888 0.044244509892446950983 0.16967291964630054624 0.15795276188164247833 -0.14555142971331516688 0.14783330487937443309 -0.18531145171290644424 -0.18607731528767279539 0.15140113707740776583 -0.15347530801178146942 0.055595993092028408999 -0.049183721941431682301 -0.11022700809436999925 -0.21013238358031746666 0.20588110115859631355 0.031504190464584386211 -0.20077359660666149743 -0.125473250000606662 -0.023179494576104978099 0.12974197310899421298 -0.2783785091308932369 -0.16010686963395029392 -0.10739667416515699672 -0.2794843692329052609 0.086579941110004152161;-0.066606439799702807369 0.096454846295743773554 -0.056333961821560050998 -0.22422827045615964514 -0.3443061060461400924 0.020864720469954693011 0.0996337896462107242 -0.16132379048448797221 0.043541338362292680841 -0.13637456942751036149 0.20073243837468396356 0.069731020856354575255 -0.065774771819841496012 0.26191331390263256074 0.077507428148177362481 -0.19483711493438479745 0.19686677675243530183 -0.1479684681414858427 -0.034807747077362616306 0.10669680900070668828 0.082809851511878154739 -0.38283993121133075288 0.11660896494943163992 -0.052942939806178972162 0.033926275883911963249 0.02350817389967248261 0.14606990926171112277 -0.14481602719180988736 -0.17113310311522744733 -0.20431241740831010412 0.023052233471202811244 0.035148730150984859588 0.08033458131326583207 -0.30742065228063081284 -0.18678552980557772134 -0.13453649031366587963 -0.11718457499789530774 0.1236854094222193251 0.25732235005811215922 0.029835019412299927655 -0.079809894404072143081 0.39859796427683141795 -0.22495617247225449531 -0.032075541428325096693 0.30378258655656875664 -0.33699993928419436084 -0.063601310151472689736 0.23943854592242372337 -0.0074061224512713920085 0.0024341792237149014952 0.20550669241079946858 -0.2122928823002367682 0.16180843627423216469 0.10185362287499288847 0.09348471044753421666 0.1906782380180789549 0.071371381118391988285 0.13941702528492894153 0.23019184025714384267 -0.13353701599015832535 -0.12372667802608899867 0.069487694963762086653 -0.27142277829064948014 -0.17941918293337308365 -0.49739752444892065819 -0.11172541499579734248 -0.053478934181099092859 -0.34109141513161322923 -0.097966945428593771306 0.12374327009408529754 -0.12335504006089273443 -0.20075629684557563803 -0.20205637179016278093 -0.34912364553991759308 0.23184341971784908076 -0.077911847130914507753 0.014606690548448073713 0.3923342455855641786 -0.035891442005949812655 0.035415677737613782128 0.060348995208390050771 -0.27958073092034807505 0.11532718159275598402 0.27788435940812189484 -0.13327864259230576272 -0.041843791215019701668 0.26123958857736678807 0.0017442886776927947652 0.098234834212035326839 -0.14912535261634632389 -0.096029115011008858716 -0.29388207672030930429 -0.41509351393696214405 -0.11514609800858359445 0.029876083803242931697 0.013236730778233694872;-0.19692877706351241685 0.12448686359048234673 0.055328215362945597222 0.13289530954522460471 0.17628238205775606517 -0.017976072232554249353 0.23639618915025598089 -0.069666623016984882688 -0.34440279056913292166 0.20962814291733397609 0.015369396298531096123 0.32827308950430239554 0.087695897560494798229 0.055332834697771234034 -0.066368167491020715887 -0.13654224208471013591 -0.11504333674325975534 0.12778138229044416763 -0.019825628086443489173 0.1586200482574013082 0.00091473279366488687275 -0.22798985827585011021 -0.24501765041898598829 -0.041008112893660991771 -0.29298987262596226655 