function [Y,Xf,Af] = MLP_7DoF_ZWrist_05272022B(X,~,~)
%MLP_7DOF_ZWRIST_05272022B neural network simulation function.
%
% Auto-generated by MATLAB, 27-May-2022 13:50:03.
% 
% [Y] = MLP_7DoF_ZWrist_05272022B(X,~,~) takes these arguments:
% 
%   X = 1xTS cell, 1 inputs over TS timesteps
%   Each X{1,ts} = 96xQ matrix, input #1 at timestep ts.
% 
% and returns:
%   Y = 1xTS cell of 1 outputs over TS timesteps.
%   Each Y{1,ts} = 7xQ matrix, output #1 at timestep ts.
% 
% where Q is number of samples (or series) and TS is the number of timesteps.

%#ok<*RPMT0>

% ===== NEURAL NETWORK CONSTANTS =====

% Input 1
x1_step1.xoffset = [-0.276240495082899;-0.312031009848454;-0.44095728539966;-0.274991239400893;-0.262896083618731;-0.309543176772784;-0.218070477077112;-0.298129020592511;-0.199887147828018;-0.286995255380553;-0.275293742377633;-0.185105906124704;-0.290028999514834;-0.261502668482595;-0.211223174294807;-0.247213034978732;-0.270242563071275;-0.306158623691922;-0.265238867970692;-0.29858202667347;-0.234407451202061;-0.321807495783439;-0.336548846217618;-0.338281599996393;-0.280576718149749;-0.291135174060538;-0.342582442858106;-0.231103231692449;-0.27929452601144;-0.224718691383457;-0.269997221730505;-0.280768077442625;-0.158712127693896;-0.236230531620692;-0.24196026632631;-0.144118383889974;-0.247230353383308;-0.267349683427643;-0.166527695264847;-0.237822434566187;-0.242066177425491;-0.252845539330253;-0.198062095685587;-0.233248052879145;-0.189328523636403;-0.26043861129028;-0.317017512427929;-0.303794241590269;-0.248200151560065;-0.286419256104708;-0.238054012986901;-0.193226288548482;-0.22970395690552;-0.113677900243139;-0.263925474742381;-0.302666252568583;-0.18960564268028;-0.222656996075312;-0.283892379519955;-0.198685048991846;-0.249112935433265;-0.276650210150887;-0.230482250046499;-0.2858926536432;-0.279702424209119;-0.231382672736763;-0.291887971483555;-0.324988957057171;-0.266866929491927;-0.3016603931908;-0.303187167743309;-0.275195728111397;-0.278373570114655;-0.325021790222918;-0.37980917997166;-0.275816830172506;-0.277869732320359;-0.389276783864496;-0.292970859308065;-0.314400828732055;-0.394221789689983;-0.31985403507643;-0.313084499643947;-0.269706586623526;-0.304219522250686;-0.352099946341463;-0.329439657840028;-0.310718787445176;-0.342248119170235;-0.19672034826282;-0.346425812736994;-0.349570736407988;-0.225152929880724;-0.268134241534394;-0.26712371047215;-0.20445517220323];
x1_step1.gain = [3.91782211355056;2.71949823237814;3.12706940685262;3.97238705512573;3.65426354015987;3.87014159789118;4.09443945945633;3.31023985060444;5.22722236608155;3.81644731353573;3.58578730464088;5.42949500762023;4.14236598398887;3.8145878018537;5.40619002112107;4.38974638202746;3.60458446410102;4.03760230490169;4.18591315190423;3.45650816849498;4.15989515290332;3.64975915845532;3.34651866850948;3.23138900417157;3.73105395093145;3.14822930055776;3.71567092838475;3.9412819014249;3.30600485712012;4.51622567569606;3.40965885520656;3.59360981034693;5.01182793249438;3.65946651360937;3.6488980457221;5.29034543730844;4.41816315620691;3.82332451406124;6.3980064271218;4.29310481430162;4.30564044601703;4.68469761213557;4.51152481929572;4.4827595167796;4.38145676343818;3.48371009339227;3.51811635011901;3.25269024458494;4.11260038633981;3.66187554432542;3.10494772960466;3.45988245090932;3.88927609672562;5.49279585143252;3.88690344641737;3.14824822819843;4.7018582123695;4.10652817711988;3.45195037819296;4.3855444866672;3.70553696950752;3.86690518382994;5.42121716557793;3.19959797620079;3.69764612636591;4.88171265892982;3.09418624495005;3.34045301114701;3.35807191496344;2.68881871050122;3.01254933858063;3.03110310255963;3.90884555375563;3.01795799790501;2.97908331740265;3.34688675302259;3.44300402905172;3.02432367106083;4.03453660480541;3.26658407973268;3.16703755234219;3.78578973160395;3.11100769286951;3.77873920905989;3.30949347765574;3.23110815917566;3.40732818294895;3.47777274828584;3.0410692820739;4.34888714132663;2.51552520007036;2.93180667057585;3.05943582459837;2.93634761399622;2.66174662905654;2.74543045469703];
x1_step1.ymin = -1;

% Layer 1
b1 = [-1.2136913622145883984;1.2473712306419846296;-1.369427750559606638;-1.1894309670939315904;-1.2066651116431286184;-1.1350328367611186575;1.1948906436796837838;0.98748775010525302598;-0.80095769816617679027;-0.94224258617943201788;-0.798784413471402166;0.95576573460111136082;-0.78041736845415099477;-0.79760832542520998523;0.84729360966319200443;-0.80660720173022826263;-0.57440964521829240841;-0.57253678347501901769;-0.67057493607337426145;0.48353501651516217485;0.48387456540371220903;-0.41742448941399823426;-0.54363137499610225678;0.23199257311711410368;-0.30600834019329881119;0.29186893516724321529;-0.4386888029109966558;0.25953292959787804817;-0.19680544710789518725;0.25792364268907597147;-0.10464276284884033164;0.18819709943446957801;-0.015375815371193738215;0.1437237539930734942;-0.18063481598763883595;0.08091228727870371229;-0.12962260639134542961;0.37035805123382664616;0.26980511818886138142;-0.2136824507170663745;0.28283090516029923966;0.30121234225225462788;0.4373950360843805174;-0.46289129241968002271;-0.47018259677674117958;-0.58545361512852800434;0.45987453591768495675;0.78702984719252411239;-0.9005862502554939919;-0.80228387671860157404;0.82689829926741287291;-1.0155494265741979998;-0.77327282817016873562;-1.0557408423581762236;-1.0056643648012135728;0.92387473533307318263;1.0752858761123049725;-1.0615353598312680106;-1.149847630674177168;-1.0387545863835927484;1.3505270770084729648;1.1510026179809924596;1.3188333759861738947;-1.3155489434298828222];
IW1_1 = [0.2010944917493912576 0.11478693232703333915 0.045991982723789029408 0.082380319609097099609 -0.063690626953081946882 0.070779038822903761474 -0.24342757746196316826 0.13229232002376944966 0.28724044470976983767 -0.17158470562230793144 0.38123166934184937737 0.2246928238888271645 -0.13146230233081607208 -0.043517156270010806662 -0.093575644665180965354 -0.21287372868289775041 -0.077216903216786342279 -0.092375149786797880469 -0.21800349380604569505 0.040081243259623547393 -0.35503783156235901863 0.19144886807083083546 -0.16356107187468785225 -0.33997452412387457743 0.13073300406310750521 -0.15018283282666511358 0.12290439168534866843 0.06534407091575376858 0.03146455463335503383 0.058653320261462721374 0.016635480585784585134 0.11192521298617645609 0.027189513047216326558 0.01717826493043735428 -0.013866842079746470595 0.25420231235278389903 -0.15132514612143302402 -0.085398792747808024983 0.029026566840257839175 0.011887932489335235886 -0.2372722973143762959 -0.015418074171407360889 0.16844963467769299981 0.29949235265372120551 0.27597960345886674016 0.097486173092443298427 0.23159993453433846966 0.03701717388293773725 -0.28579192608543863008 0.077987730596575044473 -0.39480840051452636974 0.2645664816907647432 0.24499883877166195312 0.17983928454154446408 -0.045097711282772380559 0.11072632740829492504 0.37293677896862753585 -0.050151858084805309157 -0.0383474395788684988 0.088429517319773373596 -0.10803226625128886651 -0.14314086412596058184 -0.10321501578322284098 0.057417764754051907328 -0.056804887265709050337 0.14713784190443504607 0.34917861683187312316 -0.0061911694347172316691 0.27360976542442849713 -0.13771428078027950215 0.29457893048941202752 -0.11492385510964998885 -0.16427449302922861318 0.060222339028112331638 -0.3611321423891811766 -0.22080188073749495992 -0.29440360295330197937 -0.23138173647112453279 0.16831353717274530335 0.37652607664998760661 -0.076246567155333747068 -0.011114713062452539691 -0.174325208008334398 -0.16186604942371271565 0.11892330445956535157 -0.15337798089608048469 -0.047719318787155129424 0.15405004749180245538 0.18624607618725166902 -0.2012905210445878057 0.30739318387078357064 0.47150875616376364263 -0.15834557524266659745 -0.13558824186880191753 0.30809944863382104918 -0.17810455245245865319;-0.21608564267468913234 -0.023518062116258141303 -0.25195006040584033702 0.15969631142191076378 -0.043470417924034499002 -0.23994894567622018777 0.15608936337681186823 0.059416962000175557734 0.13146940743146826036 -0.20442699500839336957 -0.039943643636177632306 -0.044215682733753570999 0.18950724439595612036 0.072567136342408994354 -0.044985133281801349681 0.086078103063897890013 -0.029678839839761762126 0.29475161465777915959 0.18509449448106718439 -0.1147710652809112164 -0.14861246089519505875 -0.19598823489541589149 -0.19354529824261718085 0.24821059592135413796 0.075166549092153714384 -0.29979875616395013083 -0.084829836770619004849 0.11863397129027189458 -0.17961671716451704794 0.17716052052734282407 0.025024281868043500576 -0.31856320388020076262 0.1332154517305631225 -0.011960562657365373176 0.091260029426780422956 0.21921996599901832914 -0.050594080322898866975 -0.27234112701431628656 -0.023388684191483891106 0.19876767887502988508 -0.066346773286538804348 0.11023226045927424221 -0.21830198047403903683 -0.23327015299814554683 0.40889033731952495465 -0.0080723354919387223239 -0.29087277501740760322 -0.020754720516869506336 0.10943853355007407413 -0.34201329543127717558 -0.17571612292960511748 0.019290293150712466835 -0.21918443472082654866 0.2088426171790362107 -0.022662470458567025161 -0.036189877621449949296 -0.12995265054167787211 -0.06502645125968124773 -0.1434715675768721832 -0.17445421501383875929 -0.13119591859772836151 -0.12576419689862866624 -0.098255016997943311896 0.19532005022725221211 0.074637606781190579675 0.28087409960987308466 0.21920200718433008324 -0.26858262914909458718 0.092138769517213017779 0.21901753740072957277 0.11025278179345457397 0.24502252977237024001 0.16411328437922631518 0.002925225040877616877 0.13044171053118500114 0.14725459836400803249 -0.032906376503938836176 -0.045239182482843441624 0.0020098623254854409634 0.032754239203204200959 -0.078553189357353836453 -0.097044825484483510092 0.011555984498049329257 0.11029182109911246645 -0.12806312314589399226 -0.062614552496288597427 -0.025940083497248179328 0.098994703104959003159 0.094544910070666135504 0.13271729338817234156 0.25185437912001062966 -0.2071247710340638204 -0.034896534417822824836 0.21461208313592611274 -0.1507882944072794773 -0.11691249298101494269;0.076585735100610119463 0.03111278825052068292 0.028883619405547848041 -0.045715453508358178114 0.037440967256194536417 -0.0045467907951043324069 -0.24257770712400963942 -0.23808620889626397332 0.17318446141746307587 -0.17476971886339476292 -0.16875479294014117393 0.0045876965648186766866 -0.26918527589553303825 0.25840710538718342226 0.21380624220871413677 0.033467461272737253353 0.2713997268495499382 -0.14409340347220550571 -0.098223432955915068732 0.18667903280476194627 0.11141014649466611519 0.21951277439478639186 -0.070177434995378887295 0.22620310403826862644 -0.035666314822833659892 0.33664547235603237141 -0.19854296878249708125 -0.15327466540102446801 0.24285393226557813739 -0.24056383343205869907 0.18596685582352331934 -0.13447273686894362088 -0.23630165652940829379 -0.083442760402743357262 -0.051301743115268839956 -0.044686347492512455692 0.21696188810328145835 0.05562896444708619742 -0.040275546307934159684 -0.10705522368597578109 -0.081820517568285219823 0.028938498762133973985 -0.17680339937812916684 0.23621696543754935882 0.14808694653152104648 0.25237848257297457177 -0.017116493699558456287 0.029021928316939525627 0.064092862121456858904 0.2485864875562249221 0.04862546926811899678 -0.058168089462708419402 0.14432749735507302558 0.013177387784269852661 -0.16964129362707933146 -0.063161350059203494323 0.061598968758179384331 0.23702240684382841485 -0.09632878840821991473 -0.23756169215215366952 0.089048873484514054488 -0.19307080072154181316 -0.15137940977166375323 0.16158033494914905703 0.059847065948023289716 -0.10958091326354119088 -0.16244560656808731958 -0.094389042442686657552 0.2505066680892644726 0.046050371009808820089 0.010486876646030216312 0.30352283869852930698 -0.24719241735612765276 0.1299442911275223711 -0.19238283002746178751 -0.24840345683427150769 -0.076193023607301305078 -0.080559760709927971667 0.12085874622570702552 0.036535574117527711002 -0.1547315272672074582 -0.04588979004893357222 -0.2938707641667563375 0.13476949946713684403 -0.15957932172166766627 0.02441388415136784909 -0.31940383325545324 -0.073321996230310312881 0.19579322617690964048 0.20668797520036183424 -0.0099336708013039315412 -0.13283092779876401468 -0.051353815697305370269 0.000120555073883903607 -0.090322282532132175392 -0.03842190662069673579;0.097714500763428371877 0.37509139150047376976 0.063032492820352906127 0.028264310471571074679 0.15576112949436179966 -0.13727737149933663674 0.16014364379110559988 -0.16877103581609378957 -0.19234335849256833928 -0.20254409115633925653 0.12965877730328220774 -0.13068929049963556865 0.033630140906660915823 0.23283371772228680929 -0.21177847469465591046 0.15639722294610938769 -0.069949915037142346153 -0.18828021250446039248 -0.13543258316942571873 0.11761317415981860368 -0.091989739063667919083 0.22249837051622986528 -0.056900155319436915291 0.08313038818910277461 0.21076395418762944312 0.046453671481625512241 0.05056682241996668381 -0.15061578967976679833 0.22145770546018428426 -0.05811157413735779792 -0.086737324026465292826 0.28492201282551588015 -0.12856576976893155373 -0.17017029379909165421 0.34354092267983415976 -0.047720777783254987592 -0.13950208626164994907 -0.16747101284403123622 -0.040752705555814228155 -0.13163353008378722575 0.24287616014148738497 0.2520992602932816129 -0.21316333555597721805 0.24033820328480584583 0.20041502943981970297 -0.076958524663242655617 0.18713819248149948793 0.059996164560502225627 0.10541187808661717229 0.19103830637885790833 -0.021739105467622338308 0.20229755539974364487 0.19234609658861182013 0.32511421275100743644 0.13767927493684581353 0.19816399830820652372 0.12619854637963243138 0.28945456115255407958 0.0010230749578145946835 -0.021074739560921450232 -0.1857339211824230174 -0.14171606916016868394 -0.24376218008710645591 0.099189839577319985353 -0.06458477491358406708 -0.15391214364607730403 0.22086923409173289667 0.058712363363888617207 -0.1185337865274947583 0.080795902939424180111 0.18398654784098070203 0.070923103847005272704 0.12858305361502533892 0.10027520696922485877 0.037885333604743900993 -0.1022006558080907207 -0.094839260903585922979 -0.20920197679909258159 0.047899341453998128815 -0.025875317959184712668 0.055844395820692935284 -0.13541554177877282439 -0.074702633155136866083 0.075791647226048891595 -0.075241420340524070576 -0.0056474772515146117943 -0.17306037190907494483 0.0055985058635050471282 0.054816696140552081951 0.098601316414162171187 0.2000590072102350625 -0.095912311482626244619 -0.23928806053127227305 0.31977133460420575917 -0.041231205496677039712 0.17773552128497968616;0.14442845266368170565 -0.12030447127341048486 0.049568586232845310291 0.17295381567070641782 -0.21577644298584625071 -0.027226543976279170972 -0.31127248229897902521 0.20380063313036342332 -0.19364878479988717475 -0.0048264235130851870087 -0.092665659243656314792 0.071796390536617918365 -0.20540141452295224145 -0.20719795370660051836 -0.25427328257018722013 0.094165766324888766636 0.22067738270325906735 0.069604767790733559907 -0.11523044044837574273 -0.10751848764169312511 -0.17993854721566923671 -0.014428229467258663066 0.05544335818989633291 -0.033506966237931055941 -0.055396726599727608154 0.098341267545226040969 -0.2195359286200433413 0.006718567442931584581 -0.18955274849009717819 0.1482043139593142711 0.062117181300078795625 -0.13582146691606492017 -0.21716550621330735216 -0.045335746402440993408 0.062313754671390157724 -0.15497645336711121655 0.039420022514103855715 -0.17674213591880252872 -0.070045696757708483804 -0.19616348722054349762 -0.29446111073475700337 0.11370809604797880998 0.053656169124681352134 0.042288905531595415155 -0.25730752914177318358 -0.066642495045735647419 0.28654006168607026872 0.16724014947088028382 0.040630727330846112821 -0.3125901875412868125 0.029117382486699434907 -0.20148772171330764369 -0.021033691993751105903 -0.17476868915392648751 -0.094506445420502807608 0.13109322504933573761 -0.017240896549379842312 0.0013837890827913187919 0.17239131147684386147 -0.050868546273419502912 -0.046196276434638534891 0.24703906135088798957 -0.1650250000507337278 -0.046272064811738733425 0.076960561294371843122 -0.006812184440778551453 0.27465854031145525704 0.081615152868814211384 -0.29520157349806597225 -0.10992523325915147525 -0.028734997845872856104 -0.039164493827789852165 0.10913679685953778242 -0.067541728092712735587 -0.14850746328384994976 0.089858598426827793193 0.0082774957252517693956 -0.087208822095717147826 0.004041315421468815762 -0.17340419199215215129 -0.14785895275576022012 -0.18985551625973717815 -0.2626984194108480386 -0.13381892066564532451 0.11162631999227862201 0.18619749718443270869 0.093522835353847061368 -0.086817742963362989905 -0.033720826669947183418 0.10468523075589146465 0.12572195502695782121 0.18468531026915099846 0.22908406184833243757 -0.15010012945812595264 0.20038887993696472001 0.00085253655411065111872;0.2461745930556548112 -0.11261502969700115662 -0.035667623677143656113 0.16881207240761911259 0.40172172987557946966 -0.16309035469515922867 0.045742401300208526682 -0.0060429354447651580096 0.04985864288154831514 0.02943522283502025827 -0.18218531406573171272 -0.034776475295373115992 0.067723509386611285832 -0.0013337718601930661708 -0.061522286455880231815 0.23706215394922761086 -0.11522814308872900146 -0.10234205630842477253 -0.087251682985866149678 -0.23411676211766899169 -0.0030240456297201626784 -0.16848414617821758088 0.19690181802704190273 -0.091300799998432768945 0.025940709930995634047 0.18107875763713537909 -0.27933124863117703152 -0.098190149393082182261 0.32676238596784479284 -0.098013597173786617955 0.27608912381948380599 0.0050078033271731998977 -0.23316472442838653834 0.095991116982040089467 -0.1864027738219742325 -0.19399545368085038821 0.21669654755722908557 0.13449226663612834365 -0.039764207373890685104 -0.13031859688497504646 0.31795673469117458065 -0.05700343605303920258 0.16644804442263622102 -0.041706478428018105287 0.053939937585645650331 0.15464306034710489923 -0.28909407602123676773 -0.20121631001120526827 -0.057181809075656828134 -0.029934051481705682002 -0.10284043237125201076 -0.12769708440570376462 -0.0064658691914259731198 -0.016127267866345371128 -0.31867667414492928391 -0.13352482572611418243 0.052619925424802788116 -0.28867575108665871619 -0.082916217075536896575 0.05930535942368012764 -0.026667465632660505154 0.38813171492105236204 0.20017093709412028812 -0.12642435579128835643 0.21925946833615495013 -0.17664330340204009717 -0.27025541328822783038 -0.014671876519426051144 0.058798176240270803861 0.030346113938405167021 0.31635802878831853491 -0.16159096082051599419 0.430716754293646642 0.065061164186981532143 -0.0042200692126200490747 -0.17430561374487202331 0.021135541460321469187 -0.032817933873158740277 0.34939645454871831598 -0.14879295649094631537 -0.10753610854468627356 0.03299492277116856942 0.35383362593305633936 -0.24976804377806119395 -0.075810393482266313914 0.39833689799965682488 -0.20953490223180831764 0.03808242553925426932 0.35780392415918765847 -0.24785983712175735372 0.082526540384816993168 0.026559295010380293972 -0.33223295662391749694 -0.24753590618816834201 0.21491438689602027079 -0.29419261101792221202;-0.21839945118427503412 -0.10009746380758012541 0.15592891414539475359 -0.13615704566012160059 0.059956513060846781948 -0.022605219466814849977 0.15152626560579030013 0.2158589418623393652 -0.054469202660860270571 0.13862505403742789167 -0.10298518004710952023 0.10216508202565552366 -0.11776056580142038599 -0.07879688064635576028 -0.27960360338966711025 0.046394587648712189154 0.24917157735255879292 -0.20997961337579701402 0.20720291577719046616 -0.1158251672998507481 -0.15996362413550935244 0.0058412869661728199222 0.24671701551722122203 0.25733668307028362277 0.11263070293246761622 0.19217391233565625508 -0.020855004416297239639 0.11779105759298003075 -0.15271696318528307779 -0.070848521932030783521 -0.0032897110637840057054 -0.024694524786762719892 0.24720258097148387066 -0.037142182888623059833 -0.029437820578822364997 -0.13018607453452507583 0.20662723174672006921 0.17021378462648029117 -0.16208101132857302695 -0.11442569322034336354 -0.21494075923640779124 -0.16366734183077252807 -0.028227275663067236122 0.093780378014542559173 0.084857803224935843267 0.083883686919479671928 0.16091241134665418278 0.19958463515116969811 -0.17076127882612016085 0.2352270242202950945 0.018203054404842818753 0.26540809462896569615 0.075149195938525051308 0.12341401799384874027 -0.057107238454417050266 -0.079015608569828976737 0.05383835207752606794 -0.0952896832250818282 0.16166099545761769551 0.071209249789375220208 0.19508783450171787721 0.17366485868200093323 0.28211464130851915399 -0.29955724968606828318 0.066647693100871333027 -0.052774551102095508537 0.01808126620907847884 0.0099099848092149330631 0.21860999300942174361 -0.17610177186116646175 0.13023477036043687449 -0.071315997863377986188 0.15805112604419196964 -0.20826673178946364384 0.061542371611392851505 -0.013692348094154919991 -0.031185709843008200398 -0.19337290497509126985 0.040501828909508000298 0.17712762587822949989 0.15878853538638609821 0.077092282814486254305 0.25362580884194141362 0.077347955528930881219 0.16837893854429816787 0.11693958948338020742 -0.033730066110109292732 0.12279267400282181666 0.24396216119407945766 -0.31261861142164132366 -0.098723471301541229628 -0.0093925887465611968691 -0.052657045054313310339 0.14630491457906449893 0.12026071823343255363 -0.19390445625056401679;-0.10567849374390202166 0.27529475005084474981 0.12817645893046999972 -0.11766914401662383061 -0.0078216548426256488763 0.29300647908697247113 -0.14111481800622627247 -0.1412164607015834461 0.1981323839515894969 0.010858291964659550974 -0.1326198806558000487 0.28746030486219753541 -0.18861352135850120715 -0.0016914238712820027673 -0.11860089300463358408 0.16243400083400927336 0.13871216746070824666 -0.10126364592615280658 0.23267513451434665428 -0.034458579372905147331 -0.16493869236689326363 -0.031498433542413564745 0.036870578923877884991 0.24490769726105005022 -0.068721905866700044863 0.13708927376410590115 0.2282143233427678386 -0.11888786874380796732 -0.061989335458428433678 0.10153793405044549136 -0.048210620076212871987 -0.080144541097233512605 0.051219245393729025129 0.3499858418551973771 -0.18016285206189913692 -0.030095401199900111144 -0.17905678230313185062 0.21399542947783833924 -0.35707056587258795277 0.054404387646214989738 0.17895934422820175547 -0.081828332795184491322 0.12527332819246639328 -0.18826682306071026995 -0.20571066379486119269 0.25325539236148214561 0.014671803524861568024 0.15871765391403833134 0.10749026916116241614 -0.17369793039669242929 0.081520265751106227303 0.10609424655081231559 -0.28488734778364593891 -0.23279752595528324655 0.038188572171804345545 -0.20408954681310262358 -0.073557778826376415959 0.27118592246733341788 0.023401394013412592926 -0.11807524422515112972 0.12676248831688660679 -0.14104497791793729755 0.26579255716309269086 -0.09584759271918384671 0.2107183711222991862 0.11815984767636728003 0.16700883092685259168 -0.099987056711143385002 -0.21256415060042627152 0.39144466673441563609 0.21292497148571412624 0.13916172668355750175 0.14498475981730635231 0.099246304125101977855 -0.19831220437962279735 0.020710621171074174163 0.085034893480477102834 0.21326733347594947765 -0.053205946311251410552 0.1113847400803752441 0.20260394608838766528 0.19450636918723909763 -0.20714848247770722978 -0.13954387139772300719 0.15577571080249291713 -0.038087167826323826969 -0.38967476953164298381 -0.14607472150891981366 -0.16932630998497305574 -0.10579187914318370634 0.065249503547142123638 0.095110962232604637223 0.089220237053624057433 0.070455938203165494049 0.23088980006495321562 0.15242363810517978173;-0.080445328738536089896 -0.12585376871401104948 -0.21669630586876856282 -0.10926323524482473015 0.22348103006722244701 -0.32705796183514806996 -0.32216966210972852735 0.34061035584710197544 0.053202160857197339228 0.11165666497706400184 -0.045660625627693428308 0.082316700822642654978 -0.099811919130343026985 0.17610425410137875435 0.060330169758460484852 0.04933573787295153501 0.046201478109052000753 -0.15443522891992350621 -0.057032596073250035884 0.011272596310235034889 -0.066966147782612270301 -0.35990573850761903296 0.049236405782751083149 -0.18952842128933677923 -0.1190567899809273078 -0.065491413236234585771 0.06838690658054662197 -0.20078463863006745793 0.1119666587759644838 0.013881852607391900745 0.080454337408873782822 -0.048433989693144621769 -0.27199154094575628271 0.10482343575455375928 0.18569028217066138597 -0.20700826776672551222 0.11903545598863457533 -0.040547015864414469311 -0.012030738200702528404 -0.28867481849906245772 0.12628347513670323821 0.080929930887544090923 -0.12073029539277657651 -0.14354616926561483692 -0.076410373252536772926 0.021577088916945905833 0.10782097977339964723 -0.056925070563254430434 -0.14053019528038265817 0.26847397226278052473 -0.064411696476214197471 -0.20122510553620570617 -0.15651929554402913003 -0.12826665785957816479 0.18231007051871447877 -0.28622387108671221156 0.16831133908252687847 0.17762610346360110936 0.061856830108129194634 -0.19154060194653022009 0.21902741865432756585 0.23534241769587474491 -0.206529908003211915 -0.16641791149843890296 -0.15369951306382320655 0.27485348862602704267 0.22042095508790973679 0.081495587762698343259 -0.16064493356563908089 -0.096479412936049543936 0.069954201963604731307 -0.057741818080358567333 0.083878736572375156566 0.21364650693761416678 0.20026593895510855226 0.23125282320320802998 0.096448982889245707395 0.090484760016668872029 -0.19231308785911957471 0.037591458795528123749 0.057452739184522649829 -0.032214885710672047647 -0.046850043321908237115 0.17582003512770197351 0.17973224729384934539 -0.091739934839214193341 0.2483900912287332341 -0.20520210659820828369 -0.12576188872639623706 -0.27346801963706657279 -0.065221667306424743749 0.08924938505402302269 -0.3681919201712090528 0.08321464900062616743 -0.26034590043000432891 -0.37692307100647770568;0.09826349897620026419 0.0024640312982899103406 -0.085412634189250019601 -0.19459853857670417199 -0.058481274657994034016 -0.048984429801585703534 0.031621425644220692297 0.098444318917759329746 -0.036493447826089826791 -0.11280485691244557245 0.14957038553645449208 0.19985370585383621655 -0.045005641303460339198 0.066546501804361515853 0.01279363393383604712 0.090736026583553813785 -0.34162172829747433633 -0.012068378608963340956 -0.12288058212741412301 -0.26562768764473210226 -0.11162194812280192002 -0.31969286718630002264 -0.29762784483809134883 -0.049459729013580318313 0.16905836685988639978 0.20622827125926049274 0.17394477678905431728 -0.042086230184948912603 0.17725911344740044595 0.036035721905951230426 -0.16821063649051015698 -0.22028611836135100766 0.0051195176555700380033 0.19953265490945801264 -0.2325466471029925819 0.043546879218018683111 -0.1855120244152380915 0.10969762644911054683 0.063922026286429275976 -0.17085658654877089457 -0.27048880965321125958 0.090893445321157742556 -0.16284885235210189158 -0.34889499561691050822 -0.22562366700463279412 0.11094042713219443019 0.010033393827354714078 -0.28358661307846400046 0.10362295128989384985 -0.19959612023798856129 0.1956558820554259448 0.024176379317542150138 -0.22676331135846522491 -0.16981606216378689056 0.12916267065095776712 0.16271263479343778258 0.14991412150173719087 -0.25896549726865863983 0.07112024407610614829 -0.18098298869447373982 0.16369257387672095372 -0.24296133229209390669 -0.13503638739671222635 -0.031441784372344329379 -0.0131229361007444284 0.032331902101991681631 0.012872316429683745148 0.13487026281657632509 0.21552489864842752643 -0.04437854453791401782 -0.2505525324876229365 0.17935454879779863524 0.014631113190807613911 0.10225659777884774093 0.16888967370733318218 0.17945466665219586555 0.047357769054972916056 -0.25929944709479357812 -0.17405071541760486209 -0.043915709478720608983 -0.1406177230615678897 0.067628895261171564912 -0.3240445408018144402 0.0080985762876416931416 -0.12954396266586104547 -0.19083059578444161453 0.26560694588561695184 0.12967162780960592161 -0.18983574629411575918 -0.15579152912321816982 0.0036311035679853463642 -0.20598581551799793887 0.14692733349864994796 0.025697768476709872271 -0.20145209639515360145 -0.11076563784177240191;0.070494747839926555355 0.1377002097637687883 0.20224915962995185237 -0.11726635329211440584 -0.17507057586582047692 0.24967300524535251949 0.0045411955024756570434 -0.2035513088837444251 -0.30512635146117733642 0.16436523191175406167 0.16958878469259883182 -0.013203915727165968161 -0.1780885951936090339 0.13462116598119147626 -0.20613295988257340774 0.10178228180185856788 0.016239791828658312056 0.046492731668185606486 0.10650240947030098493 -0.22569017966437873723 0.1386486884253872176 -0.30351369901258523631 0.15356933300416250598 -0.075236013341420396316 -0.11977067736529320441 -0.088061468352750818522 0.054024892489086956404 -0.21838540575441764413 -0.051631559042690809702 0.11255529866418387264 -0.27075346308570602538 -0.088359905734185187343 -0.15841207682794980482 -0.16640822590051695951 0.017226445921163475311 -0.12294125368946025312 0.18234468816135218638 -0.092163433077971868013 0.05866448622431656712 -0.017585423402718736163 0.15913222569806848017 -0.13064305093004538461 0.12987803412959189608 0.13284697824138039235 -0.13646840699312592915 -0.12758709986380331602 -0.034034543832324425094 0.10750479182159916602 -0.21419856497336456358 0.0002585924937148964195 -0.068453925731315576342 -0.057927915543997079983 -0.131986417108213544 0.29016101593796822522 0.067947349842072651827 -0.18008544727021377763 0.18190926281169131351 0.04815344421657780094 -0.16388341071825321404 0.02768854969278071107 -0.079037372994694835016 -0.019905888588218366431 -0.10244349445071920801 -0.14178493680925793874 0.047680917609480871766 -0.078220329591624448984 0.19456873234779736848 0.053325607472160793665 0.077945567228719592201 0.20469949757570915505 0.24635021560020936571 0.24546569029284140417 0.13701043487157579803 -0.040464505037838209567 0.0044617528003908744905 -0.14123939495992104964 -0.23772040801424706991 0.1934901102800027084 0.13965056511793344507 0.18254762147861536281 0.03950012540964682739 0.13998337329816629149 -0.21638468908224769982 0.21247215539155794861 0.0060878838005274131182 0.052195290785542365619 0.31030205609311262149 0.061902543793537566363 0.27693947984294142728 -0.098661254609067119969 -0.2205765598567829 0.21109155064486165299 0.18958227265297777908 0.043445612996780548498 -0.095176757251495408552 -0.28961758459806524746;0.087311339528744827398 0.12890101257745756325 -0.056128690089980518008 -0.19667893586864559907 -0.091682282230167264081 -0.11157329146255355601 -0.21841531779890482889 -0.0097560562981166849134 0.031774614694748855304 0.085961297864058455742 0.15151850635229266451 0.19113132674894781071 0.23521595468021053166 0.12644233456880726862 0.029061022591704677165 0.037177796396067649964 0.043108341588581594594 -0.070146728658008722368 0.09847901046570060879 0.085168129890255073189 -0.20263899916000269186 -0.10649179071705289212 0.081322675640020603005 0.013284781079740893422 0.036461429430031118415 0.24016360024341862345 -0.21900594474921217247 -0.18979269243569502068 0.080051142540948694304 -0.14250694753700199335 -0.15582423197277073257 0.1354173490170075822 -0.085212296021353231557 -0.0040894348400959045983 0.11885500646049199092 -0.27803776170480415386 -0.11484551221224256756 -0.19519195427130064946 0.16086357458235578388 -0.10638402872827142087 -0.20786953088756565666 -0.12908199157766145349 -0.060430606530713325275 -0.15227069103460799671 -0.1468348878107274269 -0.17797114473412209423 -0.050211239913973373938 -0.15468524990302226496 0.18802783303751485766 -0.24223528973185345925 -0.031912788933796988611 -0.1036892328051801232 0.075764172672694182764 -0.25159252914403518187 0.042024127620467546795 0.23074510963256095186 0.025862648441409376299 -0.16726890721349332858 0.16593007672470791447 0.27785283941312832745 -0.1851496671964695806 -0.090188086888455254453 0.078503904567495605415 0.099714434915550723137 -0.11080845758483455488 -0.038211715338587068369 0.081851691174504304094 0.26586201944878995462 0.28529315002234195697 0.19726481031983536529 0.13381741583443682031 0.17741630227343854753 -0.032521376179867743372 0.14103601206425608883 0.016868064312182119019 -0.033756299857309879364 0.11603189369931524166 -0.11871612013354326809 -0.063432661622927904999 0.20444212496791078215 -0.082938128145918124656 0.10510918425991779002 0.22708626101886783544 0.018989659329148471378 0.16599279440704770017 0.13555723412575734765 0.065843878691107776691 -0.20727402284446413971 -0.021094893216840184674 0.057312709066778898259 -0.2632441365613367168 0.21849747876862513074 0.013386500053301823854 0.40078752019070545964 -0.08712428364240477896 0.41382996352347645175;0.12624990874518005057 -0.053111973309480073335 0.0089558583502398585174 0.12438599302706802863 -0.072645517505507267719 -0.082245907956767352887 0.21990369967669912143 -0.19399912227545715315 -0.078077694546800149866 0.12102095898185073752 0.067409242395184906793 -0.48814733908979879295 -0.036297586089104834361 -0.11772912073022913371 -0.29636338126372224755 0.43302873360516652701 0.084893546737835598459 -0.16831878871665123532 0.11946424010715581132 0.19296126677744146471 -0.38693251928301930498 -0.28087414850302216962 -0.11833342425062631786 -0.2212747645033794619 0.21941653723416959521 0.16147527866895150517 -0.34976795386405939992 -0.022896219988135776968 0.016839315902534065378 0.28023448338305306793 -0.26804755372154343007 0.039915479092257705185 0.014988308740900261815 -0.18149879749690422948 0.10135600350480652998 0.23760657048970859617 -0.18043830954626965957 0.18896954229622819899 -0.19412429964550997896 0.18930288428099986686 -0.17788805698198686955 0.17623728557180151633 0.034472553535604688602 0.17286394599368773428 -0.045115675592386855763 -0.14643754184521995398 0.3217607112564742633 -0.088801757033484099435 0.017070688080888393734 0.044224805787621904174 0.2519277507797552107 0.11038644095296130943 0.048983690202462501495 0.0062812473277365143617 0.10219424734426352241 0.030905428062374770692 0.091221607540687130178 0.15122777415836649584 -0.19516457625869654269 -0.027377863914758691216 -0.077364613639899618147 0.047417425054792579353 0.058666766262794843578 0.14518917419756152687 -0.20231149688795330155 -0.27491486563008943333 -0.12473547010468517826 -0.1659964941814257855 -0.18119365143292523457 -0.12498440005268057762 -0.27954694757212933398 0.32298191995845682012 0.003489457802833029719 -0.14576768361703404397 0.18040432685475146779 -0.16765145930147920539 -0.13513848566542466245 -0.09829715734197901067 0.072427511566963545531 -0.24889060456772954533 0.043263042751529375007 0.031401303719050949192 -0.20966407962219579808 0.10036392768053464808 -0.00070568765731774448641 -0.079407130519848059813 -0.12535319941244338349 0.014379836206484730363 -0.1820457987509393194 -0.025123237140778669624 -0.26522313036444278289 -0.16175846593347520397 0.058316564573564974583 -0.4860924203864462334 -0.098785691779499043563 -0.22159691387048435773;0.20610545123528717371 0.25589427307908557685 0.17392388316532311765 -0.182618927450296481 0.26459837761566717962 0.22690833272130092602 -0.050011538691515512733 -0.32911529712152870486 0.098108134139511443683 0.007306718890360883352 -0.060747695444469194948 -0.097886442689406022444 -0.19395964604151375021 0.14710995757925232619 -0.17954969322798572384 0.20010289480745668822 0.033021408116503850327 0.073967407174094806921 0.41012975578752097761 -0.3258132416743402815 0.17483318508172193684 0.39823748866783398315 -0.07638695958977564926 0.11323504344206480887 0.068956486229593480508 -0.16581139237622458116 0.13979427912600328465 0.23959872348425900745 -0.21641294503940652905 0.24576705096518286497 -0.055919716551467664456 -0.27721688495234803051 -0.13887364345159039503 -0.096967656210464672761 -0.099071095332472186579 -0.22208096491378656601 -0.12355867444707854808 -0.053985282645960967762 0.12501783950454528616 0.01601276055384307645 0.066363960418984652145 0.042607426671559457676 0.13163441020791208369 0.058939210554032235578 -0.35402230334989015503 0.22562769619858602521 0.16259244665831845689 0.22808476544200048663 0.025748645371061303772 -0.16955639488238807844 0.18096005853717750389 0.29455306438440281847 0.064723883460810996415 0.053826174339096852228 -0.10460676093430613942 -0.12719618805154675467 -0.20023577253328453396 0.29738386337795330583 -0.17604611957938504085 -0.0030571642030906534711 -0.017121848046314499386 0.06762793923679243091 -0.32213140652500454886 0.088635878643509163899 0.007794458694341995994 0.10549341913647493352 0.039736096644602342254 -0.040576712111227597468 0.14903998906644810862 -0.25464471146866995976 -0.25352005301521918224 0.31080271992240038337 -0.086609138938413848807 -0.17746074119766208632 -0.15785104197196814235 -0.17342507942787008246 0.075845671490754523747 -0.026725663715886371213 -0.29448137624004078194 0.43488063973917651106 -0.081321058338616136751 -0.098312522014253528324 0.15761916013499807643 0.26533506112305388358 0.122901643859237103 -0.075538609275459259185 0.046567254259854799769 0.31235862231625410868 -0.065144161784870271981 0.02528898413097569256 -0.058022022409307760782 -0.15250360129989773417 -0.14809190912602560042 -0.17488918968855460268 -0.027701973059657686305 0.28982514393851210865;0.1358107699383925282 0.084670141283572489255 0.11957907631600875331 0.065909229592567009082 -0.020966389463450339076 -0.081082492926866672756 -0.18990587155494506599 0.16758667411393191049 0.1192019814423827262 0.14306343140888336252 -0.12257922479667145155 -0.01636261637875250502 -0.20316858806569976226 -0.099514311773405042527 0.35707279562986032895 -0.03410087765612099947 -0.034950306781367984632 0.13164563747869362231 -0.2294853964162659743 -0.081168025006917887687 -0.0083699754429398445094 -0.042623645596114680123 0.04500011751885218958 0.050581556692928013319 0.17220493133659714458 -0.44059988463492327782 -0.079236121111547597184 -0.21396813744212972441 -0.027624581795208682372 -0.091842875181374877824 0.035451723857757265479 -0.061687129196687749688 0.047576927669448647318 0.097890762239351294949 -0.32537630960776242617 0.11696100924688494771 -0.30994859396056156919 -0.24568524366559071903 -0.1827415845466291433 0.18987739771035150316 -0.25682440223322899886 0.10093750442417095958 -0.19976180803636997552 0.086659513423207157334 0.47619458679930987133 0.013562402389106923209 -0.089866809847286621693 0.07814575897763591239 0.10963745196594211484 -0.35267005141556390102 -0.28618465359653372238 0.060906119118067467144 -0.18783357150580642925 0.0041710276725273678911 -0.18540688455767118104 0.05448091687806382033 -0.0066653122399997193764 -0.27611858152275992051 -0.15513711227309481822 0.16048361039273018047 -0.23910749796641309062 -0.4412098992477744841 -0.25072841533566303518 -0.09162309205009784574 -0.15667974979109017264 0.2343108232943538205 0.10849113499635448798 0.18970853151504457612 -0.11192115108107422716 0.1122778961915441992 -0.19858827673449516715 -0.15865872733455638199 0.064883132816904595663 0.19151904617724241353 -0.13579684511902279098 0.069747659610105983141 -0.22029944500655143647 -0.31095620598731693596 -0.059909560291121571884 -0.18883844288826767688 -0.19745422031387144246 -0.069255647925951360766 -0.21205242482607794541 0.023082979832685306121 -0.047656426833740939131 -0.43883939144571332269 -0.12811046975844531115 -0.041272768324281561281 -0.36190851985649952205 0.19096778821637003243 0.065950867676210167545 -0.13006587294868504623 0.056152657308562455019 -0.058859880629921319806 -0.22171851850691823294 0.099293445002317917703;0.28946132972064880784 0.21162642387895036489 0.19295552459943374202 -0.22507846436226500164 0.23300398034497890598 -0.072320011419820931509 -0.32017841616870895693 0.029885119592375410796 0.29239016796856370783 -0.050092049288754623981 -0.07118174643699735904 -0.19260436421498908222 -0.12086037961901903437 0.0650865904486009339 0.01817109823064028129 -0.075928881199007369762 0.052109490868500710214 0.19059474566592646272 -0.18266743819190078835 0.22001395667219614261 -0.33126872560063086448 -0.14209157008613679252 0.11072897259085139055 0.37303585149460793957 -0.35082665980109750681 0.20110488359106262757 0.36223741961868211048 0.20364355070806172687 0.1120443326217130664 0.061120949819256996383 -0.174479831591996426 0.032463070982473467285 0.13284014465762639112 -0.090085822044456240199 -0.061895148020441326242 -0.35028967247736364499 -0.15820493534652704803 0.12689754587430485122 0.035966169409242534916 0.040712057580392729816 -0.047020467997827948559 -0.12672426308824963348 0.1158297965477021324 0.039673534769227948582 -0.34027389162409288348 0.03023744746230347738 0.22804183804428734827 -0.16935101169087768413 -0.044770073613948323243 0.15691639823176403712 -0.022643648400427058426 0.080833539058658004928 0.19366917565087279907 -0.0032139796159867989496 -0.041173511671694952574 -0.13389236504233223424 -0.10906256320346520428 0.3211212919477186567 0.13218653551359674236 0.17076116875443184129 0.1063672113483673104 0.050699889068166213713 -0.037980877053621707462 0.079588112867077689949 -0.064406919378929033959 0.13920805948552897324 -0.2039448879988075003 0.039250293587791230954 -0.19806665643777016106 0.10923689462817853801 -0.33193236724375674296 -0.016121598127898796593 0.042399578590796557775 0.18355384536392696515 -0.097025639369531790912 -0.21531544693109022637 0.22275845123073984011 0.033175488495077877504 -0.065672679059110908306 -0.02956180395995836388 -0.15873412086459542936 -0.15432005199383802552 -0.076658844570476697422 -0.025489436096146730198 0.17492588040205184208 -0.031569947066489703613 -0.031860877612248227064 -0.048602016556718058427 0.20922568356140125445 -0.06312966376416020986 -0.27920810768774684263 0.12696897285909827802 0.05840548906264834278 -0.13943424847530042077 -0.19127498526009961699 -0.019359694511813678452;0.22551533815208366085 -0.054495083129806352884 0.15680544191979803315 0.079586946171549544093 -0.26414356536425642741 -0.26192949167068468874 -0.25183831556656965933 -0.4215945412985213081 0.15267171049109928838 0.010973238679621473424 0.0026923761009266453104 -0.081600959421626942381 -0.10857981168805674876 -0.070342314770301006543 -0.0059964006781052670708 0.30487085466832419822 -0.1356685933029086466 -0.15446750546200180287 -0.084403180210492159685 0.2872839798977898651 -0.024842872601127861248 0.12131080414485367891 -0.17488958901673773427 -0.0165005973454190151 0.15289003903559836295 0.15078759154353141292 0.0036237999881161531666 0.13536186661206542348 -0.17507679190844838146 0.10881420798828718433 -0.015975407556736900133 -0.20114788435417546575 -0.18846329585780283167 -0.023459376253471823925 -0.18064663736084968226 -0.16732369277798334051 -0.13396330810671991385 0.12268379074672988716 0.32119227287449708674 -0.087612464783788882028 -0.20350708340265191709 0.21849257361653715015 -0.15177104409568106802 -0.21254836852180344908 -0.28110195911404384228 0.20780214606740363137 0.33767440832370809733 0.23962242152716131671 0.1372172028678004807 0.057281999461089624925 -0.09877151112815485412 0.036864316060616242332 -0.052576501844498114979 -0.011166951081406060325 -0.026006893783141273729 0.026655816935734644862 -0.047387265604998882185 0.36933758143138589736 -0.0068087663355101309126 0.33547033227764933017 -0.4003118651117982818 -0.047733476842201791324 0.096415487114871134544 -0.28512742317773542844 0.12539501704655936498 0.038470395609363071399 -0.13079769530432733271 0.047445890052059909447 -0.1746728388012215305 0.054150391502556065315 -0.22253011936363284451 0.37687988704542013663 0.05526449559275925516 -0.020641988179693062516 -0.17078735193973368367 -0.069644480124062282944 0.057382362058178128239 -0.11618402355980610163 0.36360174327055583277 -0.17841702542086537719 0.15305435483110430006 -0.069664283847663946436 -0.16470508600918759567 -0.058071706181569086869 -0.15422131316691536917 0.19590055987403542925 0.049389935434968806893 -0.25845697212804125131 -0.078818180154388198244 0.5203726487668055567 -0.40929731151329523664 0.061406815514111014187 0.093427191719912761059 -0.49763989459906604607 -0.19268496837992404869 0.12294015627435631033;0.092858439396225941898 0.21788434832605244051 -0.18207299846920835251 -0.17007405679557510703 -0.17522132620293898175 0.076898490756633686161 0.13512632138043706442 -0.0021685815858055092903 0.17013140209644966871 0.17709883650444588343 0.056349200076711014606 0.15309675990712812155 -0.17904496890064783288 -0.12708209350328317222 -0.077591971672478124433 -0.1037932191654146602 -0.031346675343423113791 0.1219467244674108386 -0.03663718525031118417 -0.1532530096068284442 -0.24014488282464618862 0.091456280330535183465 -0.038019205363581429213 0.0072867570021827388418 0.029541442633680501523 0.24265791773320571911 -0.17634365033839166648 0.094698333528176331653 0.20388777172570157759 -0.27544400053133211159 -0.055372246319564527584 0.11270663588637253039 -0.10915208941903895012 0.21811259313973235807 -0.24604614877276761997 0.17459239216057231836 0.092540968953928312568 0.12302145525773290624 0.18544282396756456288 0.052534339581723418777 0.012413056368371786636 -0.12513279672830002198 0.2144696472557868494 0.058215672724392264481 -0.16732131211171866192 -0.11436697251466564074 -0.28186916813231588375 -0.1489052695655105063 -0.042565953541046898378 0.25665524615813617437 0.11290994906871451575 -0.0084418898744946825607 -0.21849959629721613097 -0.0066227937098231118296 -0.030018403978486110639 -0.06215762854094305373 -0.16440354098569534558 -0.20045461702401579096 -0.029790556912067167605 -0.11392455288259674406 0.064691846316370871239 -0.35093895571043426385 -0.16469727173563419864 0.09301719202217845206 -0.13004427417397010358 0.089476592201603519228 -0.25374711707085584322 0.20286119812541139606 0.19273303898814980739 0.24579473734431447896 -0.16482044332774903328 0.4162848468249640832 -0.10900256355743515035 -0.32076402837342649077 0.050241921310110626564 -0.3162552700165980335 0.24659077485053909617 -0.071310715300766450153 0.13127183235290471042 0.058596899003399226247 0.040061266516571492069 -0.20435810854326855179 -0.16017381896614810155 0.19524141642370040906 0.21208460090245426222 -0.13723023090239339083 0.018620745263200618597 0.23593054456564235832 -0.17000786789540298094 -0.081494511453012286051 0.07541732153032872088 -0.13760134104591181803 0.14537031049791582227 -0.19969859992409202953 0.26309310884613718029 0.24181691589001136355;-0.038039074063896095856 0.087774935469778284092 0.08901970274160447838 -0.15437022425505575463 0.22110833205694402359 -0.094691247557924559941 -0.53637391536248502089 -0.0018665673803264933549 -0.1089453213159949363 -0.076377308532463258905 0.11019094595131652403 -0.15382846923163431829 -0.082886779560629522678 -0.078442757599579082672 0.044151080484982029029 -0.085060948323725044107 0.039097032504313775081 0.30776144051481868491 -0.1713758582509957995 0.01494284247828891847 0.15340444828179158887 0.15804601774280269133 -0.089447328157047437114 -0.065957131857480061354 0.023471181124029322218 -0.056004625770151771069 0.040978489449903086894 -0.17614771260598191538 0.088226658511476013791 0.043537449645048298397 0.29983475111277163583 0.0032390764327584553942 0.026968958922162326874 0.064609495430258234716 -0.16886758445192268097 -0.20838633096882877571 0.19787240856195595362 0.20579038023745574448 -0.032699962571922473742 0.0048414261660678645574 0.13291938136301820195 0.10701735010652564661 -0.15857779959249371227 -0.043384833616558739211 0.039862960810470748907 0.30752996221482037376 0.074160516753222938124 0.010188651494269252221 0.39084906537067276577 -0.18981976369580064179 0.36180945444753892515 -0.20055483403136725729 0.11001927269080641336 -0.0022163183316552355004 -0.18813149392163475149 0.20784578127780486967 -0.3875273805632865054 -0.23937147636863703726 -0.094937717413537556221 -0.23223775200413568354 -0.46333425913486553371 0.27027100607210047256 0.018623638375501405662 -0.43752359738204504858 0.017864484395869708461 0.14057652230027473106 0.20272214846677391598 -0.09169464556278339451 0.38138985336797870396 -0.17664418834999390251 0.17666857040856642769 -0.25104615696696658267 0.27256131031540892229 0.070861789171808631238 0.10111758034946707885 0.031509219824218857864 0.092056754289011971659 -0.20052134513781741387 0.49727971541085086438 -0.17315381527775061676 -0.29659777121159697222 -0.26158782830929000474 0.031740800085445858292 -0.56195019411202751236 0.11030830258795122634 0.0050531602103459985487 -0.59813681272061336447 0.28479942805326824429 0.1528306174132837425 -0.45848209204473028278 -0.058820064721365139526 -0.013597879449150942349 -0.46739333172852781662 -0.22219400192971897057 -0.1822426743504870772 -0.31397540834128440101;-0.081363219399477049176 0.22025973614896235397 0.081045873650402736055 0.12418277978146516349 0.043855700316202859967 0.25602732285312224114 0.11500696835934971773 0.16808658742706808487 -0.10996600110756467317 0.2732643818380031675 0.26759193321413710098 -0.24219162473442862327 -0.011681620706143381813 0.34111914094143369613 0.034205315846896254539 -0.004243825043781493736 0.32191770807973973945 -0.15347069619186406997 -0.30102038428422689398 -0.17710910195981535709 0.12941724729868825383 -0.058538580784285282332 -0.041678394333822373075 -0.10048142820742281267 -0.033089987668768729157 -0.091026387779179387949 -0.091627140656490441151 -0.027833155992184058919 -0.16005249726045603365 -0.28740616646024369496 0.2506036839638668412 0.15554165760284505149 -0.25183135688667118712 -0.034399846465414482544 0.36785035203756155653 -0.2389565585952438953 -0.057224920556213698664 0.35035120231512023592 0.06525580471089960366 -0.44867022539175488438 0.42656511766462895663 -0.092370054822700747854 -0.014401742673314852153 -0.067122514080360962119 -0.022632680719108441703 0.038943250268193986552 -0.044363742707554713884 -0.10473250543427531367 -0.062737092926108531388 -0.06898857236372232804 0.12884759096033199244 0.15443828545463558766 -0.3295075016547579505 -0.18040792139187675214 -0.17236104743371871706 -0.0062686421235254377593 -0.16445155734525496172 -0.2054557103549279895 0.26581984203623959528 -0.42682863032533407965 -0.050037642690792166755 0.39312862922216101902 0.17690602226620069648 -0.24151354107014125217 -0.14492314428289035377 0.1561719056419043905 0.11495225440134855532 0.073409117858949310409 -0.16882759208181613575 -0.02251448446830631861 0.15891263339926106624 -0.035436634650219414611 0.011196396130336537522 -0.14669624936205902244 0.094020889594904857867 -0.14325581119045335821 0.071144896285609077191 -0.16924993200156590589 -0.029267949548865686976 0.26465824703741819279 -0.17658532414111424713 -0.24175242347652561858 0.044072806228969321762 -0.38871941288618294674 0.090449159627147168727 -0.061317672139230706974 -0.33649351771935542832 0.16810634045137312631 -0.099744623650461716746 0.019741188396500557872 -0.18182405922263111808 -0.25663860294616147595 -0.12557394618880005077 0.027164716275455601247 -0.083348809729712272643 0.17993786529177174804;-0.051920409163063702129 -0.24750110206974409999 0.088087104900776064254 0.27878524242174007597 -0.057589805268231340774 -0.15258872871741566146 0.016832257455015930958 0.11982271542314358592 -0.27727340598147881545 -0.014546548164174367967 0.26111819539003183754 0.12210592867174500931 -0.13893458889759205399 -0.015725376850406206503 -0.22848152974425092743 -0.36112792925707065672 0.081168690374590513059 -0.00038096939285687977635 -0.21061851302845094325 0.2312141874606083447 -0.35934408428181985329 0.005840328266086875289 0.11914428161676418605 0.11902927225961397462 0.1693591752804890771 0.044578417738342986099 -0.058235292144437178496 -0.1172394347962692901 -0.046869374565090091145 -0.1292839595037205136 0.044338504588443593268 -0.0163999038809724898 0.10515849937469093356 -0.0024930978456591092532 -0.01446541472990553294 0.12173055459900034014 0.18265381301312272333 -0.11253892881068504328 -0.095427729004604763818 -0.18772479184785198503 0.042823492578327758407 0.020354590781410105554 0.11144705375797699098 -0.1300666643705816472 0.063431899345401762669 -0.012420950626089029625 -0.10605042212046741912 0.15614469464373340046 -0.11205552379107197591 0.038880729878012179612 -0.036369352480690460283 0.097609043104822296177 0.35763710069189857954 0.3207800707721030764 -0.084368322497887726641 0.19746458015125678553 0.15640350559199159286 -0.085045648651671856832 -0.065722365026506995855 0.13367018260444890609 -0.010729570693996139108 -0.076966643351223315572 0.094368364494400266973 0.132866786764561845 -0.2388819545164207192 0.025764272969842180044 -0.5232205150655664383 -0.164216753587061004 -0.19140334668813810404 0.18640680195520001328 -0.03671896957064180872 0.38950735866110980377 0.053351358326904338436 -0.27265137868738748006 0.018808128918871833135 -0.21055309619212914107 -0.00039501849544835824796 -0.049537538893633846493 -0.1633572768080495119 0.024785994001984078261 0.15923109773640628517 -0.14093261343849614042 -0.19191183264271818865 0.32710300113549195533 -0.010676768590936676004 -0.18438904667826308548 0.28487194676998317533 -0.072124438925450243265 -0.054643001070232170846 0.49725231255606622272 -0.49190827759127553342 0.13636529064479335771 0.056558307876198692099 -0.40832446976737235556 -0.065248260275466887781 0.24886317682762257308;-0.13451035605799074868 0.10430756135355058467 -0.052123735516598088124 -0.18149428314719354138 -0.0080134912038729109313 0.084869966002901031654 0.14419666285305807185 -0.13789713399488032208 -0.2977125680932312668 -0.0453398475991973679 0.024265012191053956375 -0.13869221582391152991 0.19075674912880757894 -0.19872594752372835236 0.024050389335695358806 -0.088490572330662653489 0.17794949257347056348 -0.23269487437333097324 0.03072174606862964133 -0.11595209806624362514 0.1225281380745218418 -0.040284959286650864896 0.29711599990341330813 0.016241463664697343428 0.15642460662601737065 0.10455026694570204726 0.14100832488825912336 0.039591988080788280413 0.18151500568511236278 -0.079187916731761537337 0.093817411363509808919 -0.32285711241237813329 0.022594916069040040657 0.18940375631486922048 -0.25906102667342800761 -0.14467232302941437916 -0.23741181671837843781 -0.12325032723592933837 0.031897358320801039167 0.042262090796712351026 -0.0383180209262028032 0.22751315610202099693 0.00056306908100267204394 -0.140406591849432133 0.019242947136142746212 -0.16362918472187898411 0.2483439000271979169 -0.095861137081002523175 -0.31081000201719266585 0.007484793976300314032 -0.21353176922628214207 -0.1929004802904510929 -0.044849600563084568439 -0.13156409214589137591 0.11036452773160831953 0.21196665364075989446 -0.052027149700130566334 0.11482729671298150254 -0.11702061689455448001 0.019558995182225959175 -0.24691307624397035303 0.3924855132623994991 -0.053993516258985511935 0.017100420260021849395 0.16321826162537783622 -0.011237716042205778827 0.034715653043464148042 -0.22212931276026065541 0.21546340147127715503 0.19926318925955394112 0.013745278329914492957 -0.16206497141648035232 0.028791683435600061436 0.1131142080602625527 -0.36400628741256646492 0.018548933871377400878 0.076949471725719309489 0.024104503120071847644 0.25192156519976999229 -0.27452393176908190808 0.030679420872382654611 0.040652227006423478917 0.20875963996270011092 -0.3469140320740113359 0.12854328227121947226 0.20383805245009267715 -0.37107570079464191615 0.13631603072551790046 -0.14107322833320831701 -0.046933107838651656751 -0.045425836843430135448 0.10544860174769143946 -0.08418655872284046271 0.22192372807953858471 0.08394414305489583672 -0.025081246852038850681;-0.011306697540185801573 0.030190337448696792644 0.16382944125168721894 0.11482326321737792996 -0.049628391424446867408 -0.10188490827382759574 -0.15737527214177421397 -0.21251240746679395111 0.28409002794271243086 0.075170658982594701358 -0.12840900581192271623 0.11600679336038727252 0.15471823504238232938 -0.12764592608351274516 0.013847578386163671496 -0.075408146431592007475 0.11293639239364786087 -0.066301224128417421411 0.35159507111527282808 -0.16750283867238677238 0.052034497108210425731 0.15291449132330109384 0.017971420956117242773 0.06463757147786101942 -0.2828157845143643434 0.1933876330096373497 0.16156295933797767961 0.012486603630815336363 -0.12710312098529685798 0.089095376508531429205 -0.12326545613746495156 -0.0050457900437794415277 0.13516901255769744883 0.060250866956711113254 -0.072122139602050883145 0.17300116855684954942 0.15120809004596219571 0.18650821153185614953 0.060173318557174497456 -0.1545472083690729026 0.075430187846502697036 -0.20073715208136766464 -0.0056362451102630831828 -0.33404977166194566029 0.078269424564582065762 0.16177231152166074435 0.1084495429127756011 0.035087643189759508411 0.23951210182995896769 0.14964154457607178883 0.31810093322305893482 -0.11986833836515770058 -0.20990132979584397166 -0.054434242359455105309 0.097986038467033298449 -0.063609179645817193194 -0.14464190207340224537 -0.2441875857211802392 0.18795875185836777299 0.18028812157415230466 -0.083455550690050769869 0.24662683246531916237 0.39630013311432576995 -0.046818101232291881031 -0.17368286631890622607 -0.17676999751986507969 -0.013537480953172224482 -0.053701276709717367386 -0.24484073895562560863 0.0033900042498076232191 0.25054647023517961912 -0.20919165327288968825 0.10861501769100816162 -0.11840781276440588698 -0.089588483792681278262 -0.2073318645507472302 0.048657423701914073733 0.23342014956044365714 -0.23249258343267542593 -0.013772931125808430056 -0.18625761099478879701 -0.20494958778889948992 0.24752583780991546658 -0.24758853968392724454 0.20977661003572045662 0.063371161682052423725 0.038459327998859794973 -0.025111991332669409555 -0.0023337591107180960699 -0.086610251208839278414 0.02758853835239188923 0.25140192700415725513 -0.13472454843720713114 0.055980033357066492916 0.057444618023653248873 0.13486379686129493227;0.047572867683741838774 0.096914999227019973937 0.051791595392470336778 -0.14975233871415677411 0.097211511872143469004 0.32477223316547926268 -0.20595849481255573687 0.050310543332463986133 -0.1569794499793944198 -0.012940475059181655998 -0.0075293135508374374465 0.0095116818020592498739 -0.064146238526299581562 -0.18391447905195182355 0.0092265114797902402638 0.0091385117675224988854 -0.027753391314532759732 -0.012972848701259002621 0.030081444190203022321 -0.18593186729435429161 0.061550755380343623313 -0.0054277461556560650802 -0.19223563267041540725 -0.2013961362254983456 0.12060714701174707342 -0.10041654096380191186 -0.072003239653692471811 0.20142569821826378229 0.22373748176291302636 -0.049755121910180458156 -0.15068081321919746252 0.37091365084177674305 0.21680934446130012416 -0.093801544640478629056 0.10584098178721622341 0.18606675244592343899 0.094985198334592485514 -0.13967198371295647119 -0.10694324569444030315 0.1378236580458078453 0.33784072027360534385 -0.011425882726288727129 0.013261511765832616205 0.31554579646156516448 -0.52332267195538462179 -0.089451670344287123604 0.32961414022903168242 0.088824021490715970861 -0.25106582477843492063 0.087982111760471201634 -0.19762295708873944822 -0.19177880643212943945 -0.18035438742405238144 0.052262114561703966464 0.17623875709634853615 -0.3313583630796145818 0.067250765239240409277 -0.11434461606564648439 0.093994200968022342813 0.0086530409451199500476 -0.16325799492977113858 -0.01187386000803188936 -0.13376897404606594155 0.013309056007996764373 -0.084648054951690171466 -0.14131888433563136176 -0.59974914235478415936 -0.098092679559835929681 0.1660641533464878028 -0.072029211007049634419 0.051660032984344704532 0.30597496699181897517 -0.285664946180554713 -0.30767773153991245794 0.13122947415226693391 -0.31007493974893018951 -0.12451253433355867484 0.38051417027987805008 -0.28035342740681257201 -0.071518899734455854134 0.15701350752647771913 -0.35555005257345334568 -0.16609073557080131223 0.12817014504252371987 -0.29882342111405657548 0.30758877691841296498 -0.00010023869466838639716 -0.20211469937759155013 0.38208284512150753054 0.33335798872646732471 -0.44581691952771163034 0.11290609311693426686 -0.061494274727274249315 -0.37338345274815437635 0.11869933716768456267 0.0064183505225744938438;0.031200723342644228614 -0.062908267320210334295 -0.14005280418673529685 0.13300591683044898916 -0.1652811253022432314 -0.073078114263125062977 0.27889371447876321053 -0.23621290727753432859 -0.027117397618241816798 0.0015183238938486277349 -0.14953927944758604873 0.1390951351198568553 -0.070867214858070279315 0.19760900912119147566 -0.13148626136121915886 0.044748342459820428241 -0.39068750994062029225 -0.10258400098953183999 -0.02800259145694454499 -0.12825519877671689994 0.14752917426953507385 0.11647085612670110555 -0.12076232166608569241 -0.049289322486798688161 -0.095077963948999227872 0.097243622806833920902 0.20717795886659062798 0.23197566092229160439 -0.047373040617370076877 -0.02865333627326610566 0.21242232446827552517 0.3113507758393119218 0.1065543208832376576 -0.038014754949374437998 -0.081614089115152346765 -0.033956963796557500246 0.0697227635271224222 -0.10623184884995001687 -0.20272355545737152926 -0.29327903760444407055 0.0053467353125806176689 -0.21666994231075217825 -0.20250704298244431856 0.087676981302386797212 -0.30980172757511226234 -0.1389048577545601848 -0.16008467459076261563 -0.21887602783699350306 0.148957175601633518 -0.16400661382997663851 -0.042999883105119943161 -0.22276638987578614715 -0.28609890731479720172 -0.042137892675117520624 0.10353577186741147464 0.0067244018933296989191 -0.25991308445776578617 -0.20264194339253288613 -0.019934383988953946476 -0.21939859527748284407 -0.22228711230977313273 -0.1272637309419529239 -0.077342636465560762882 -0.23462668998072663817 -0.28166848630122859332 0.10622529666844612861 -0.032683959864290200448 -0.073835020183974392483 0.046174726052723880088 -0.11474661746850844946 0.056559739699524588796 0.14164910086656135046 0.079751866004623306328 -0.047593754003719283829 -0.16522815175602095783 0.047652419663818272599 -0.25417414825707174142 0.28234365558254786999 0.1800762426470149391 -0.32757655814598307664 0.18182206133114361957 -0.23447405456864822693 -0.027300527739488517076 -0.22625829678103517861 -0.27199937423115561064 0.022024862291295695116 0.040045178299750058826 0.30875621166385042171 0.0016259349940238058616 -0.25086993066684798448 0.0092449800344572927863 -0.078889742637955617699 -0.22969715267090332067 0.094215165268352066286 0.18459297670351548781 -0.079577971661580745866;-0.10705240626232788437 0.16855374470614775673 -0.28524314608885636968 -0.095870724553503913756 -0.19665758159701660079 0.19450281438091251984 0.24474102255976742937 0.10557945719467659584 0.17707225825593495006 -0.25339991915263776479 -0.073016448951498350017 0.052950092161620027076 -0.053992250057666703322 0.025526370900350255772 -0.21130604371329450575 0.29045291706388642883 -0.020386080115086864517 -0.015182804255665292154 0.060864755372189299765 -0.19848375050268934894 0.028905480528507384447 0.14367545157433833647 0.18948851977643962896 0.088049225589806850989 0.23870327150455764031 -0.14644969527677031973 -0.32199628234581179065 0.37444453384019665831 0.30777031795758880151 0.052819949954065699427 0.078213775743655442052 0.13635232014585649263 0.10742404190318272095 -0.19802053922205428704 -0.090917213389320544747 0.24127492745310863409 -0.25009578425159656456 0.25812023408733614227 0.13903214244665779153 -0.095674879329838966036 0.31872941142502786427 0.24554380213636081698 0.036400387592460239916 0.041364738264590333872 -0.11556363148425938259 -0.34842540697722967913 -0.32282207227231984881 -0.2115359491350808363 -0.011170493437155846334 0.20503202854713836745 -0.008597764655601306677 -0.10175131160141719089 -0.26075030743623039964 0.082829679416981077944 -0.049546117435905957793 0.079854013308739923982 0.063390468400258734305 -0.14486529490425997801 -0.13260810055921168349 0.20137275991779612916 0.11045123398768440237 0.16153782058485741113 -0.16134230302974719717 -0.081481375109339851392 0.16377247271747727431 0.0091825615618586538952 -0.21430422903579729454 0.15140499035479371148 0.33651914675500993468 0.11203906415686019915 -0.030994576932453381246 0.48085566195754708696 0.031788405961320702342 0.082423727685540168486 0.18223693486454284329 0.062913071661148983749 0.24005635193433705332 0.030971483488288063801 0.078328722064476344333 0.024341982990964638328 0.19102715692454830254 0.26354089096356919653 0.045678455104465852388 0.014496151378257745093 -0.10782472342521831621 -0.055472148559556601344 -0.12108361329603802015 0.21452068514567956825 0.2008380952270545361 0.023917941950374384946 -0.015052153315918397752 -0.21880071259697247976 0.1600699594196889064 0.18440169185285515407 0.30084207731072826197 0.58010605027184625193;0.0050518862846299743274 -0.11057800432484105047 -0.14865328485948486881 0.035938987490050283702 -0.15520001923122031529 0.12175524846048028926 -0.022421999104074975817 0.13359593070408898319 0.26196870527631255232 0.15875605656182467662 0.050603843397752097666 -0.087506011268317862584 -0.064013350799963994464 -0.015070302978958850446 0.11023141847346484834 0.072369314302385787108 0.039327063608948054085 -0.13973787466517909039 0.11096876459106991275 0.20220961325982081402 0.23554848150892720993 0.14242567607172898492 -0.0617268881911780809 -0.29236125848718280684 -0.056199729755634766915 -0.038065642880795787228 -0.28591542314624657228 -0.2084008281441264987 -0.047661799724106113096 0.044020910129388149401 0.17862553643680514903 -0.02174268248500710321 -0.12128462823835485518 0.015815116350363304931 0.018038689766430898026 0.23880197428708851981 -0.14293629266259827437 -0.12424148951611770075 -0.040271409573740271637 -0.10725639655752311485 0.12465987274804692098 -0.087227795629287160906 0.018230695511828789307 0.067214506820808081478 0.15243376107806352882 0.14226661707014601199 0.098872000654013858512 0.035119739150907741676 -0.20363987249549339587 -0.13833636010173078201 0.076429076278958216206 -0.169082235158758587 -0.010639355064875883825 -0.27677722588317160701 0.32928205020637690836 -0.15736173758856258909 -0.45989036091656765315 0.18364630242324914144 0.024664075513388408756 -0.33512636227578673775 0.31528915407677177152 0.30989384301003219946 -0.074271520709357344292 0.083142898810369181284 0.24623977373394270729 -0.025318505604707844392 0.16699824837093732444 0.13220510451766537274 -0.14508384073486640942 -0.2553789254880013404 0.031544833669593708159 -0.16160169449067124381 -0.16207319615788126632 -0.055671596457971511684 0.23278083790190395863 0.11945940967199734917 -0.19546274085397810638 -0.21135460855663004698 0.25252315090523752561 -0.11995365019839440701 -0.42833657647474476793 -0.046506964771344354304 0.05787511194390341368 -0.11733390168472973558 -0.024841472229500925067 0.36861571382888558279 0.044137625968550184274 0.20209893131088449425 0.10084327835387715822 -0.0074811331474795537966 0.13262948718680839244 -0.081807266168679948493 -0.11249906119867007781 -0.1460976190356397808 -0.2588687782656431402 -0.27744670649124020256;0.11833490464222236327 -0.195003409077726092 0.21040423492813256634 0.26701069083061268472 0.073236072406676830382 0.22708559386571647298 -0.059649766402541583299 -0.049558514122999247631 0.24420982733797519382 -0.17798257012947746314 -0.21537155504898408687 -0.094824434330029391815 -0.24636947839330161636 -0.11039858714669913142 0.17614860613931493383 0.21888911007128475372 -0.25021393737432523485 -0.013436444283750074297 -0.075849893255838823913 -0.13040644544267304683 0.18689114795017738868 -0.29829651472853918603 0.092929431966200404247 0.16026494183126430149 -0.11481401491581054441 -0.28031278501489670374 0.068294504614702822298 0.076593703366242674169 -0.21789597086047710062 -0.33665139499544155521 -0.0043218668927079819178 -0.11463853256265889302 0.076945429841814030891 -0.18561745115183106436 0.22658796805923633877 -0.23581301580556526809 -0.070848015327183655465 -0.0276032114916498518 0.12564522039883946336 -0.086736699859806420942 0.0023406108948791004218 -0.14436788130478481196 -0.081926286289791178108 -0.15427957636080194548 0.048207778617625776652 -0.40806624008147651672 0.19059469037559398363 0.014831923082167406888 0.087147005405499244901 -0.32844894188514495159 -0.11448832466738451119 0.050700422203368324114 -0.1213759514426108882 -0.1718772183339838111 -0.10417763777120013502 -0.16876227496247703241 -0.0029986214614106075638 0.32776334036643028913 0.1773359542423939561 0.16494198803877963 -0.026331212352829105883 -0.16762540594227101631 0.11882572229087327853 -0.21337904453981140773 -0.078472254835558780117 -0.042534847578718545935 0.2033731077144431687 -0.24183117282274166349 -0.2110307142059797969 0.036278481242511227689 0.066209675197566764115 0.34048573576468427193 0.023292657729434080444 -0.086888817020396774682 0.10754877537512520791 -0.032722383583329961443 -0.14383299525589676726 0.23305176755906181763 0.1187220510958072045 -0.29068859573019462106 -0.20690001506419145039 -0.02931422158374801315 -0.31606369590540706049 -0.031149602676790327099 -0.20066745079068551427 -0.47875140389447684575 -0.31153545748084210398 0.061885233079770382569 -0.085441449653426829181 0.36662888747837391046 0.032273525269540567773 -0.16777471567387389206 0.49313174641252643937 0.25456324897561422027 -0.0010716142670057129255 0.34816779986592871765;0.06336152471705813749 -0.19675550594422441808 -0.36643840734362737033 0.10954073653912589636 -0.21593059306461548363 0.1267575180650075406 -0.023165714623077138939 -0.096563377299493893813 -0.057728497237508662188 0.065100414892250019205 0.24486389027000229901 0.35109507316541738176 -0.082385790380489917761 0.25216555722698824615 0.24087340929084799512 -0.071743681996535052514 -0.011028672861046872472 -0.21464736335549486346 0.22028347395693417821 0.42387141895608954067 -0.35409147928750595025 -0.054148199542290109676 0.36551452553630203735 -0.42808766746230381139 -0.044264765939370349923 -0.10599893822151078282 0.28241718725397985112 -0.24451671695082652369 0.084750069353284843143 -0.12359541606330645691 -0.21879379381931640669 -0.080928281127051512889 0.24337481338759045513 -0.068773895566817663805 0.21477074421671077387 0.027294987112610896024 -0.077649336053842360483 -0.2527381283185030636 -0.22376631227591764484 -0.020951405652948097702 -0.16760426040917733581 -0.16123156079227637938 0.19342589267041757073 0.19940215714890327514 0.5595102864181478175 0.07935433271099828767 -0.00083948980611646449937 0.28709770321002969773 0.21778755944060407268 0.064529143169988298356 0.088574386610512825802 0.070353337174098043438 0.066737367820548662567 0.19592700154741929386 0.24528630427636305411 0.019452601704732407767 -0.14680288176693551128 -0.09129276167626487748 -0.15048102757656317552 -0.23738501204520984222 -0.15341502534964199245 -0.3620748450071712421 0.31033788186302740941 -0.43791100159134105363 0.25025055426257059032 -0.11450024543906626995 0.32229043717930189183 -0.18856669206503021141 0.61363632167908699344 0.31085164317809099721 -0.11049568853607935615 0.40845959128332315347 0.1714982933198721804 0.040728561845811077358 -0.16281051187165143657 -0.14136951987146628706 -0.25901438707840118703 0.02017213916596520204 -0.31638627796994289731 0.038465480927282587331 -0.19740980292599813462 -0.056608184987852257219 -0.11645297047205600827 -0.45609592815227451013 -0.16833754266261397037 0.21716129550803073278 -0.073200005044357349671 0.012395376263388118224 0.040145869510515803935 -0.17967231940096456411 0.46239037374558683569 0.08374728788061579221 0.28597665757510365436 0.2383892357123831296 0.24097836317338608425 0.13768695490783391944;-0.08420731858777169565 0.28722747841928752965 0.17749089774430662492 0.32515585594303403338 0.25901782966691866417 0.011792462164933873933 -0.042845913009186373244 0.10399657996672712068 0.20371378234291898091 0.020794419453876042403 -0.21764903310411587434 -0.12851245389126092489 -0.089466123090750360181 -0.083957200361581635351 0.29122314475574984094 -0.27819861048448590868 0.0057725639031542602328 -0.2446808223447592967 -0.26976235828054356825 -0.096872120743753786787 -0.37138244468866160597 0.13574154709888333614 -0.33714132143638519956 -0.028233472029765269151 0.30385789651815592327 0.15768809680431808418 0.15835169422688993857 0.14240983629349349138 0.058065079277652330292 0.22925367846856670173 -0.11452742218137441921 0.13288331528347505084 0.17253832270390109804 -0.019125085876490307418 0.13202845901957782626 0.26118981055257728396 0.10808648770220138924 -0.19257034451849383561 -0.20795976371740884647 -0.15339240079048155341 -0.10006068873325031643 -0.17825105780596994798 -0.18529525351954007073 0.15262990279113897163 -0.19192885806689991002 0.32986818505084219977 -0.035759842185588829044 -0.077348399157217556654 0.11111325993817464108 0.017624504067224714549 0.10434277602677984043 -0.28320116928756716712 0.1791804336972398215 0.014918555998584900543 0.16487398348631787659 0.20110633774211283953 0.26669424882285996947 -0.029669263736847372587 -0.20607939444234618653 -0.12391446601661548765 -0.27519997807134954915 -0.063329639747953941908 -0.10430872556683153107 -0.14755704337653130498 -0.14284113311376422928 -0.065074374764424583462 -0.41400961717470491363 -0.059331259221942114768 0.4125047026680267459 -0.4055177374930118428 -0.030123365169254595619 0.41641592105449320993 -0.043451216359491534602 0.038944361286271600431 0.015668263426559497775 -0.31713203199439227165 0.18958965462804230895 0.25967312969953493251 -0.1012297176712799035 -0.20357967839813462252 0.38282856408508564305 -0.38948004131865737731 0.024588910830279437497 0.37188295334379384283 -0.12812769755003214356 -0.27745248045111187141 0.1245630311526377404 0.2790968285293197737 0.391448881399037385 0.15332021282764876635 -0.16479319033537789818 0.27834723223927687608 -0.495963350350092258 -0.49904524397981625539 0.10650238871300903021 -0.92843411548054555205;0.093318440094198165657 0.076040622330399779139 0.20446258445353784894 0.13853832323711706698 -0.35461588428891477331 -0.17713584352096292673 -0.1116709838297021834 -0.33642523531154383543 -0.20778623226074971475 0.075833827033241291149 -0.33116448052264135793 0.0960247193944159666 -0.10471837862915167605 0.16006435175713409902 0.28297715331907902225 0.024450012517634740761 0.042754263855423711715 0.03418203160447005895 -0.28757221013409833832 -0.19958435820746103784 -0.10135218400965573249 -0.15615757184661804846 -0.070663823439567452489 0.013906890212459194212 0.027242818443212031554 0.24611926761903410443 -0.084653825681431371653 -0.050861441187112180207 -0.001969980660503846577 -0.028124556884896720343 -0.23559617229922513726 -0.066393922117313527997 0.12788694611684525704 -0.34667548298236705584 -0.33937087161291251691 -0.074341165321024582635 0.018016002103951395813 0.0025858027641219470324 0.02836336946925705968 0.092823518758537684747 -0.23573238415553121605 -0.034089089850570832019 0.084675373357881278391 -0.10145158319600336427 -0.13545112888377638938 0.14739750171860757644 -0.13123571290546534596 0.48067449124839622954 0.002378551130754291091 0.23078955834260453384 0.17339904374540765497 -0.091739966760930227729 0.019821368089150512293 0.041297906071915087278 0.080405967459208735337 -0.22757289286263363004 0.22482063658608059109 -0.042683617766992643094 0.005024214331207520548 -0.15794835116463853963 0.002139007795240496345 -0.19107478946377984275 0.058071582268312500752 -0.12325440039316302998 0.11604386495347289443 -0.063422029026975579313 0.13020176634824040529 -0.09809779926102581149 0.42638237723241884103 0.19739044313036507861 0.21996318063276010246 0.34139597474694144408 0.14477855755688159856 -0.34024548124235914903 0.25079470835158135245 -0.16258671297314397641 -0.20283270937882386109 0.28539866720883599882 0.249009412299767946 -0.23226968750180010392 0.28532093500550470555 -0.11786180045148127171 -0.14299575921174900728 0.23717019111649909058 -0.22379390778020727404 0.25015103457085108296 0.20862832571120207281 -0.074329285618980500683 0.062609855045020534892 -0.013574174965710622195 -0.076874248609191647708 -0.1738484311589717779 0.18714139480385535985 -0.19553976090960700773 -0.22469192900223505793 -0.084588810593292956819;-0.065524612234221360496 -0.16705394496581407737 -0.34204081454932178108 -0.020160616323736727656 -0.125771269503929084 -0.10371022652474902459 -0.061909798960909874499 0.39107553189862837018 0.088416825499847639946 -0.22275517290369620249 -0.10717000536833294622 0.37187912423379382298 0.085964516527329351558 0.045952799153749813998 0.12518841802614252834 0.36394066950854764286 0.03318540541786963588 0.078600980063692940658 -0.088825130208166708234 -0.015818528625771845902 -0.0039117051377018921196 -0.35740135235494707722 0.055826287845096883578 -0.35148662313174955374 0.12554408179819198654 -0.061035769029191833113 -0.026599040385166309447 0.086626456726014572363 -0.17071434275629693289 -0.021840150991197775782 0.23815915005813056982 -0.29991326837405368755 0.11114459028698531196 -0.10827227128588604033 -0.17488032682657761452 0.01915141525607979775 0.19350986131110106681 0.016256166189631795355 0.31481168210396548446 0.074267052195954433302 -0.44028782685282047415 0.10381816764934095887 0.043540655795341547118 0.12164977922343933603 0.18523843115962432271 0.23358416179765176257 0.19119593364436809901 -0.14573487904275633786 -0.35593529075856089605 0.10581340076064187083 -0.32647583898304549654 -0.11833442690032962286 -0.0086612067592284607692 0.13755930686925277318 -0.060226510051220101538 -0.25944121159717620229 0.60987645310922744546 -0.24257003440954716389 -0.017294418544730447151 0.20962300056356736322 0.23852510011712615978 0.10509936698038342684 -0.00073900481726786940162 0.059074800763585379182 0.10181170539938619313 0.4063642720331390179 0.095563000566373637601 -0.10300156486911653253 0.3254131716036110511 -0.22009486338604281053 0.040322966487544582848 -0.18296510709018598551 -0.30274464156252234304 0.54491178071988910503 0.13837462705471592628 -0.0077149798449542041079 0.012262889876637185493 0.089293617325771484916 -0.10386142103002267423 -0.011418868776239397833 0.44879457471324402107 0.31999568979257814183 0.14041254140528963701 0.31117362819616822822 0.092835500847346277831 0.20021287532587089819 0.35522147103949353042 -0.087861796027263197595 -0.050024767024872567045 -0.18520422071186426471 0.21697335689612864962 0.20894418831762215372 -0.49105750608536086199 0.20312102020380784495 0.28319662469317669062 -0.58836306696034501584;-0.035710339696050072411 0.12475645055054870869 -0.0082911907747223647508 0.031586006204285546617 0.04078890355210537666 -0.010417574661772939157 0.4138212516225220905 -0.18997699364636669306 0.30894022970751477963 0.094953792654270452456 0.083283012923091009894 -0.30344473754655926223 0.051469257708364496429 -0.14390708965140053266 0.30127785196942286072 -0.22080310039378106546 -0.085291100615571227572 -0.20638499649096483934 -0.016930616539652242059 0.025104486123181019713 0.12974865166905094616 0.043566986700074555872 0.10526559208347481544 0.30301838967740202246 -0.22159713900110908358 -0.055300381686757923982 -0.012106498953301436314 0.033574377882020264852 0.085769474095281586501 -0.19929667942381321111 -0.096466614929085592323 -0.11600959902793384071 -0.1619121383978033013 0.15493758372464169759 0.31990294605696095731 0.00077712159235690178583 0.1267075603061970368 0.01340653770133074657 0.15374556791715923709 -0.10733685841721248011 0.055153289933870405792 -0.027296133305425848009 -0.25732202337457704688 0.082373332505573299001 -0.19829827245427858462 -0.15938010386240614169 -0.10252987573501694263 0.22955157959578645355 0.17017668144117178985 0.096185308456971610469 -0.087209928711285647496 0.10545911087398510131 0.35268496134113408447 0.043962610512398740681 -0.24159007470818150143 0.14805685961143322249 -0.055279612944953114562 0.35714265440397480189 -0.24731369416212065082 0.078663729541734159212 -0.23880575582137086865 -0.14617823337598576106 -0.031766012641454836885 -0.22330217109639691198 0.16974782323329534739 0.092187176698356479432 -0.43381391322446594128 0.16114289725354208338 -0.20602390036569645515 -0.13243822408867986229 -0.17549683071263560974 0.29497972644548514642 -0.25143638471612411722 0.04685164333406569015 -0.13550099335908877274 -0.064424664650007471001 0.15558971971754823049 0.1999977158485484463 -0.035493361855447463915 -0.19207131255902973321 0.15159266615296210223 -0.02860522988940058034 -0.36185866861750132228 0.40132432945721019379 0.18413613755677923911 -0.057168234634933270955 -0.27908233773664503641 -0.15948054966477576144 0.24985058158336559408 -0.058636940601612966284 -0.21993339775120818169 -0.073827115462729145379 -0.19221865351475994621 0.23042686763071856815 -0.14901474701269556977 -0.060805481565979632719;0.12586756302927529227 -0.065790991107558774442 0.18800286881872899092 0.083068169613989453759 0.18787138468162062344 -0.071037796314683487875 -0.13206343560756395039 0.12633959125411708957 0.17598155544736651668 -0.021216757980271311324 0.11511108585142602878 0.20581791306039462497 0.012889919913239797702 -0.095573670259804538452 -0.23600537748393732307 0.12449414469173797348 -0.1537799401140210187 -0.17557559740229727874 -0.12806737125325959314 -0.183545340817254099 -0.29555338932110292172 0.19050286626640647314 0.30982916357834477949 -0.32336753825728431488 0.023170578076255037708 0.23981084197337423913 0.26343598154885511375 -0.062045567215637677239 0.25113906279152442558 -0.091129347878499619706 0.23612377662588418525 -0.12993665401285942052 -0.12690345595229945985 0.30219208189134272313 -0.11732132510611417708 -0.14903240684237586966 -0.10213787332361748406 0.12324875609406910071 -0.18068364518039903288 -0.029637262759726022698 0.21470006274599007234 0.14521978570156560129 0.17067525749754552944 0.011860929526485944341 -0.10143636826469858148 -0.076696314883860070011 -0.20215099687042789589 -0.23394349085600146809 0.41657699030206435387 -0.15226065855667147986 0.22039855527653443024 0.040013170932718084005 -0.011770845740008287553 -0.10725821241142448337 -0.35610543743168610042 0.10556459113907376568 -0.04790337843319007749 0.081856393860786594296 0.048410935015191149111 -0.31603916422417865917 -0.11166091813883372019 0.044939563676339028264 0.18697509947857879342 0.082368517844282257423 -0.17556836463572395024 0.11170649719239628128 0.069291043675807684199 -0.10355233495367695273 0.38812900996750254734 0.27610074043192917026 -0.089468095381655107778 -0.028365241334736900763 -0.096554753672962220779 -0.16873739330878534393 0.040692298663239062639 0.070593742885407761989 0.22609955990207247778 -0.20828226139472771905 0.11587573409360304999 -0.12786879877644050096 0.10636390810913030902 -0.12912435267373709169 0.10195692150036153589 -0.24145270976057367496 0.063778872044247286732 0.3074487664373608542 0.15048999334273704953 -0.031773958397148645283 0.030049455311350198317 0.022952881704137239466 -0.14030003662102513706 0.32197389910663892776 0.17807493973613983118 0.055487638215151131871 -0.12767855960040697116 0.29563011911876452276;-0.11140536077658871883 -0.20594455560559113416 0.11241592570685908503 0.25563296167554722116 0.25273261678708752731 -0.05285201427848508493 -0.011355388466192387759 -0.037957048199632706376 0.057539944500519031589 0.05572224877416184774 0.022607402652744162941 0.12391673189086771512 0.16304490249073932961 -0.091079561143264431422 0.0095829292699386014326 0.16884271017310822915 0.15349192063574310096 0.19266042199768268484 0.11773135091233749572 0.10722326925274440479 -0.012350881046581566047 0.10182276662144462698 -0.056111572972653400715 -0.010540223482134729316 -0.16413599829070346647 -0.17395136839654906646 -0.15342963645719320809 0.054588983418201036946 -0.020513428652739154612 0.091067920318143369407 -0.090020799432490264391 -0.33949414530505833687 -0.15180591268130563809 0.24531171658510247946 -0.029444010276553377048 0.21491540144196133455 -0.11167358229032220418 -0.16028340874150304174 0.18778053718292575525 0.26299691402220254366 -0.028187021419105388886 -0.12911969619600985326 0.025800279701704498941 0.17224432811551645961 0.14902160530333882771 0.20161695975759094668 0.21797665954520784037 -0.050693642877856381901 0.00040210811468574970007 -0.015626111613831556585 0.26711833059443151894 0.19398741175636941003 0.094052905349320578554 0.13089351433289797555 0.11422687644623201464 -0.41519009769551340483 0.23835689517450320274 -0.097764877671579736296 -0.016646456935666596733 -0.074916804585938703842 0.30147021936790707741 0.30479597612323772182 0.38366697986802555942 0.11013872041295857951 -0.17900576179780439134 0.27970115377559356951 0.32497308178642986265 0.17982537294541653394 -0.194298583418745896 -0.47204640477203663185 -0.17489486875750936967 -0.57371920079660276848 -0.17767181496904696503 -0.18432359375584678185 0.071277044138731177059 0.19966347361491451617 0.015018276286622127616 0.31342919748343284203 0.080094812818329225168 0.065328840842304544689 0.064971393789794995577 -0.21243205978156959324 0.064628240628618854879 0.14509748404542707756 -0.18609127017256690828 -0.15252011196121414982 -0.1067087270072070021 0.14477783205622204998 -0.15323387551311087873 -0.40836097469595139531 0.020839846781581912449 -0.045139555388836398453 -0.2211356272484431007 0.036685182347332818964 0.088607837295570868186 -0.43407223438069070243;0.041927954383219050161 -0.1472846079567770583 0.075942070515434167977 -0.18512757905073559672 -0.083913061678391590026 -0.086123274415736916776 -0.028170966643987150474 0.0023633316100586708799 0.14789248878901059547 -0.09360159260536138337 -0.01228846433759013014 0.23125645756190729707 0.11672018228464801914 -0.16730017502496863369 0.27915277729483273239 0.27131688920044355617 -0.093139955039064317721 -0.045341128969581860619 0.12313053588360517443 0.14048995814635592549 0.14811562593321181414 0.016007426580793075038 0.033791975870926797831 -0.080368528068026051647 0.13505302428828611094 -0.012204391360170587996 -0.0011320936157582785989 -0.026370212630564406758 -0.011197640187560494937 0.06676159956185566402 -0.10465558188612049395 0.22122809217960004435 -0.04740358662452936328 0.050686518823881650253 0.17806363697109836575 0.025625684829061128045 0.094202871513204888831 -0.072273302737171224441 -0.2281839826876374544 -0.11826090788004850474 -0.031810669310234705731 -0.1349562680611493537 -0.018670685572419541687 -0.14953788863317810098 0.02980913950520117095 0.17488377139622052203 0.17924186471103911722 -0.17491029181322600983 -0.028192914407223299694 -0.24065453754477997284 -0.24405115701816981755 0.19714581557576060789 -0.25075331062851274888 -0.14106945837622025808 -0.12930360216422789876 -0.1357754296528095872 -0.030100863719346157565 0.14796652252793496274 0.14302020088964531586 0.14601963007455612265 0.30568134893691556453 -0.026849667330708371082 0.23975007858142335926 0.16776524623949429227 0.16109088512204641774 -0.22392867621810799705 0.37765551129442781475 -0.050421005994004258755 0.060487315498619000087 0.60718294124248572974 0.009153528838950590607 0.25719695840811862553 0.22207135447112610893 -0.092066228696645283081 0.19385446153323046548 -0.075963043826733911423 -0.27801405458713768226 0.23728154465702511189 0.059630794624065605603 -0.17707115691637145827 -0.20452645180210071718 0.06402262713056157406 0.015791782693541738664 -0.35019924250033146462 -0.26716093661617307253 0.096260125238970498107 0.25683389169845521893 0.057251132263493702268 -0.20420820386305763017 -0.13767670632911710449 0.30562640043246336319 -0.10871326989299751054 0.499883544178474859 0.21005197340763812064 -0.13906479385673892191 0.88942390781971947256;-0.1711757851545694098 -0.060659235817426208903 -0.077994944442484226421 -0.11247081311568424278 -0.077633717431354082317 -0.12343566955213858272 -0.060931409408083433976 -0.22989396206802273359 0.24613543121558295601 0.16454944463958390277 0.039492119558469609975 0.012527107081708219183 0.076807148188430193758 -0.093194103278512963051 -0.17011041875952109814 0.15253889305366910567 0.061037764874496143463 0.15796056666627367182 0.090445277963434420054 -0.22142279784790075414 -0.23509070731369077767 -0.10207045150423144086 -0.036620508599599074784 -0.071328729311918165346 0.11455682424238992911 0.11513791395732399236 0.092483916807582458586 0.18034481629784518408 -0.034939495027237532643 0.019899351049396645646 -0.20813063897673314551 0.075606507476482565089 0.13332597980757213141 0.11834522335857165787 -0.090190799932638551772 0.054572970339965810871 0.40161586864718440415 0.046878943330524731892 0.11041767499784369 -0.12894228029268609004 0.324956256727726156 0.22606240042476105634 -0.18331999975066506914 -0.029702056563846987447 -0.66378280423499813612 0.15243051919031264108 -0.072969509283181063775 0.088482383707674513995 0.43930657642468745605 -0.25932015497920019031 -0.044088688847628683398 -0.176760121687343702 0.074362551834873044654 -0.12828958698557327289 -0.13230534350203587701 0.038242360488875609681 -0.26753147332879489984 -0.014721534504899802184 0.18743405379354280416 -0.11128857013971633905 -0.2797293012131160661 0.076965285105698486023 0.04994102011505733435 0.071644044280478089148 -0.033412505290283965598 -0.19587553839918123155 -0.48879166142644842052 0.084401345756957263378 0.078111355441469368377 0.52844714075530585529 -0.26438272651130173552 0.4834426165201478609 0.12147930212046596787 -0.11765056968459147724 -0.17128752709274727706 -0.15433900158275637438 -0.1796512529310989037 0.25867494545401314987 0.52405688200775124574 -0.097818831114077312017 0.22801187748389697973 -0.22991832568029280104 -0.027704475557539527675 0.054162611241514418969 -0.06912217958005732743 0.54936316686667785447 -0.35993845405543700711 0.34835167677249267992 0.093517500475571779806 0.15702504717648535504 -0.39990873822385603065 -0.028778107097042999324 -0.16076966508728693372 -0.32712477327349187561 -0.081544310835748326505 0.45347492792698246289;0.11600438736427523545 0.19927118206150123969 0.2705733775199441471 0.073630476624453364276 -0.09967942499421904301 -0.027064238747741956037 0.17468358160817198943 -0.2326190851662461867 -0.058845775376268644186 0.18804732026656645338 -0.17807724529971144523 0.060655839190123163329 -0.36845461037220134104 0.092352402554587723071 0.52232187358223092222 0.053105348479210161272 0.3005807657804339672 0.14158023683563186745 0.11003251799083882401 0.34567578752056221658 -0.17809037935463664648 0.098865242022151453294 -0.1624632188361312124 0.0072904917576718094793 0.036989571165821480414 0.063605076553013659146 0.13978537112784614194 -0.0059325273826847380043 -0.0056992610995692865802 0.20367085479081112331 -0.0034193836178835683264 -0.18662147867435066595 -0.16096529852832563989 -0.22357213299535125262 0.1169157040777995954 0.14275929541303883363 0.092760473638582266465 -0.04237406582758138085 0.098040177482419499366 0.01044417432810709756 0.12691663557480079016 0.077683026283171086046 -0.13135039358400898979 0.36912000925686289099 0.099477279231209442267 0.16511123277597344883 0.40000784784865128785 0.59472005926092053052 -0.18396037395629522004 0.13764586355485161628 -0.049714930728654953274 -0.065815004913534327913 0.3894630523178557735 -0.10658401285233115585 0.12095891932637548027 0.0042191110202657415573 -0.23047463606206319842 -0.012451989061515357157 0.027410045597505667408 -0.22209216467430747954 0.074257663724826991625 -0.046392379003755278288 0.36752261841476413506 -0.10820671125196891504 -0.09707025665076368659 -0.058842045647394737584 -0.16285542747639572547 0.1447476364743208177 -0.18148119240473090108 -0.2839402257147018438 0.066996506772996261558 0.78404587955405347088 -0.18926839872162404266 0.1755604048588312871 0.14933599589820997777 -0.34021523155660499116 0.27636357082484958037 0.42380458483004518344 -0.1272607587066413859 -0.049532342391335588971 0.29990071200362677928 0.17682190411859366463 0.14904901508357892848 0.15446289345383898417 0.061807456688739152717 0.034061965767978812092 0.14420612906292282207 0.27144135306297950683 -0.087977057959645166285 0.23533540341932729367 -0.12958010284417101343 -0.14196759686893467567 -0.32619271196566884674 -0.45089438655181379723 -0.021390140367876907951 -0.46316504833000071706;0.34857848217833042881 0.041398082590602541808 0.054729781771039834326 0.047732359745046012978 0.031367530945293292666 0.15974853077015643832 0.080598418482347056191 0.018569262718464527029 -0.15457615265324989307 0.14082592648594130513 -0.16587084796029696876 0.21252768837051394524 0.01687611049718829373 0.12750798387169728909 0.12553298839030097023 -0.19797359475213274771 -0.22602401057896295833 0.1071982056690094498 0.0046855925457168637674 -0.084052826681122475017 -0.3469676766478280161 0.2179870608765335227 -0.12012813470664358839 -0.097274972973731624326 0.1652903988130012547 -0.0017356356405813795196 0.082419177807204660469 0.13769176754750689362 0.24574853158559181732 0.29161865784883839181 0.047961829138146179485 0.48070889829077101396 -0.0074277588426540251329 -0.24885686809574786293 -0.15708614670009937719 0.060131036421566391725 -0.045789820342509383877 -0.12128514672417528564 -0.070554079711843992184 0.07701352203391226281 0.10399859782070206005 0.094450388619057717987 -0.02230125383828858443 0.16318588490321889184 -0.31708925322514142087 0.083821856275675371561 0.066093231392491735843 0.13474137233310354289 0.11127357484136797539 0.059440699345796106645 -0.073155639023234034224 2.3174374309225913293e-06 0.091515644189710754208 -0.056913852827791495959 -0.040689715526021810743 0.1844542579684078365 0.01126050228109337116 0.48530700617909211525 0.1429812376286704878 -0.043061497741719662047 -0.07526481392621815758 0.091650786269087555769 -0.028181563081383545488 -0.1470337202552437772 0.39209386303915000349 -0.12038251621716405948 -0.038764881891866054264 0.081236657777670057135 -0.075453523367235153518 0.43890694249028922025 -0.10770800506170258304 0.41100706921835139518 0.15019600185191950281 -0.075733905087981265303 -0.36592706557821724767 -0.23370840884007823557 -0.16336016120075597113 -0.12600546603215267982 -0.15318432297681980336 0.31816570043576614113 -0.18275365834455081782 -0.18780231056933857636 0.1050074756538128401 -0.026453445884023152335 0.19750538535829828546 -0.025050907209728284081 -0.088978141176908220888 0.056803372837221428882 0.016465076084247100979 0.16981574773144703094 -0.40584700619087260565 0.19852407313847522663 0.5704664186319461372 0.068011757066835945573 -0.24255416207697799713 0.66797595025971079341;-0.024986768191723678079 0.20961634165332024282 -0.0020405231354299934246 -0.023250059448567471365 -0.012561105066769301386 0.22786969508879625912 -0.037211939291482885872 -0.18143237096902642413 0.20788764941631254768 0.053256123359514725979 0.12557833660485606675 -0.11154489639349109142 0.39334531445382697745 0.30898183436044862615 0.13614489603616897195 -0.11851482986634397088 0.28579044869529213191 -0.17706481094917100871 -0.066545015365946702524 0.090652294926682100429 0.053248398496394219737 0.25125907883349074545 -0.1537188230662432098 0.15006036488868707002 -0.080517698600329951075 -0.17006692315626303902 0.28384270617185464181 0.086438555602496816577 0.13638781925542536877 0.053025518126276614816 -0.062025577358976832776 0.0082624158394739542766 0.20454702470301172612 -0.056622774908751671852 0.18639008522945182955 0.0013566125749230064333 0.19405565904780375242 0.10813473450093702422 -0.048608266678833923768 -0.23109755188814964932 -0.059675565986286899234 -0.27083239163445027575 0.37818283218777631882 0.035434046364776164428 -0.061759838339012336494 0.061259094203593572603 -0.14882550676311021021 0.134043475679967522 0.28720371009267853246 -0.22688963570238732115 0.17110818818540732278 -0.1200301103737751035 0.015512661778918510058 -0.014331598785434683518 -0.086453746822187274579 -0.28757909153191901774 -0.43108753274774269659 0.30848027680201672851 -0.071815076692291701654 -0.044107460301532397384 -0.2274965223987195917 -0.13442754596781311682 0.16285084173789970974 -0.3109038279535809024 -0.29662059669901030823 -0.012237567343253536248 -0.31027960866134801643 0.23145173001803481805 -0.027692955870708919897 -0.25891428220262102666 -0.12256587503048876897 -0.019395812892838832503 0.20120594643463088347 -0.44674739687204528815 -0.11761865487280906417 0.05742000424741094261 -0.40708206708186855938 0.29191456689514311273 -0.048015460594133793637 -0.0039064780079701077672 -0.25990987935574455525 0.025083037876275783573 -0.11268823464086656638 -0.32411806977620721826 0.12543556406357161959 -0.112371994863339833 -0.25718763194373167602 0.1303080567917356547 0.14476931118424923861 0.11206088300087022058 0.16383325659189271195 0.25691206907929348136 -0.11493017377804973234 -0.66906708187134478205 -0.26706215886715767294 -0.6892601632392835187;0.23611634217171575956 0.048878451336763849289 0.14210287612175223626 0.12611926697984349177 -0.0015754298736777696058 -0.36309657577309173426 -0.016776133651815027664 -0.13291455005078042784 -0.0047622035148390216841 0.25437840164343900051 -0.090020079313322565184 -0.29776098234128189901 0.29637427917008402067 0.19673213474960213332 -0.013678263479209258613 0.038217660440089534779 -0.020321073044330565521 -0.34482262929469414958 -0.10451060329018677098 -0.016908641532871249158 -0.070751680936802910371 0.0042348451168770454706 0.11917669249400125731 0.23760279799093508846 0.031996841475367028551 0.0098420002894251939346 0.075864582193321067338 0.16678656074535466725 0.2245972191405489482 0.13518817045699943469 -0.015137610558298148292 -0.022680165907980536638 0.25249179132045479479 -0.088499798301785670418 0.047535134475442497592 0.16362943644829208711 0.12273193195537664135 -0.001556218524873404993 0.0046632480644044878651 -0.055625618556568751094 -0.37938530628244110376 0.38960236304753415038 0.016095714479989132323 -0.078752778381068255786 -0.19953710143363770357 -0.014560209421421445655 -0.099498327697154706484 -0.11655327499204938546 -0.00086121395109349995964 0.19115894466561772491 0.31844433152362822126 -0.094296478936628749801 -0.082312797239529819637 -0.087120332628757610194 -0.15484147283524710148 0.063855565599122379727 -0.27284183205199818989 0.31905475230034829881 0.32322824006317579792 0.19247864222018187808 0.15326911241264332131 0.047285852359805688461 0.23467536840043351498 -0.10124655527972876989 0.10373857357496801823 -0.066144934729698859344 0.006185469636331845586 0.11608119775416506081 -0.078547866497620563719 0.023092860802819841631 -0.18541713568988751892 -0.4151332862693335457 -0.065751779919150279974 -0.070799710554231842785 -0.2202409564464526126 0.019790326445592778398 -0.014725051837331654819 -0.2101961537822343018 0.099707169385225086211 0.04103188137389807838 0.22318493718840326512 -0.058968677991273248107 -0.077770256885315941497 0.19594536621484517913 -0.19139173888720542593 -0.20669486740550097048 -0.3004021649251001902 0.26662868206000717164 0.35743374234492364394 -0.34874596348373326782 0.01157365770888759901 -0.16109805717661082602 0.18626488575769253875 -0.0935556151004562353 0.13681048733020442776 0.13792189988885122931;0.12914853305907728065 0.217976312071707784 0.25272891647794870629 -0.024179947660135037157 -0.24829854599446898877 -0.14085213094209672602 -0.10708701424410525804 0.1055719362949873591 -0.14111751435369776497 -0.047477500371764354281 0.18304940172161110468 0.063109267668327612144 0.15779810460264259708 -0.18083766691762070966 -0.27293394331531323216 -0.26819841649100978342 -0.39216694033163768118 0.39783089727783044198 0.068842100326041016922 -0.074199704722273343571 0.23277554536752159686 0.08054517281985176802 -0.27406750121136624898 0.093313886384971150845 -0.18585417389619321438 0.093400557983858753519 