function [Y,Xf,Af] = MLP_7DoF_ZWrist_07012022(X,~,~)
%MLP_7DOF_ZWRIST_07012022 neural network simulation function.
%
% Auto-generated by MATLAB, 01-Jul-2022 11:33:43.
% 
% [Y] = MLP_7DoF_ZWrist_07012022(X,~,~) takes these arguments:
% 
%   X = 1xTS cell, 1 inputs over TS timesteps
%   Each X{1,ts} = 96xQ matrix, input #1 at timestep ts.
% 
% and returns:
%   Y = 1xTS cell of 1 outputs over TS timesteps.
%   Each Y{1,ts} = 7xQ matrix, output #1 at timestep ts.
% 
% where Q is number of samples (or series) and TS is the number of timesteps.

%#ok<*RPMT0>

% ===== NEURAL NETWORK CONSTANTS =====

% Input 1
x1_step1.xoffset = [-0.325840805686486;-0.335569273615611;-0.248815054523954;-0.318878148844918;-0.344762695346632;-0.262548800098812;-0.333421695641616;-0.267211803268165;-0.254969132156914;-0.294987430289786;-0.265895462978823;-0.185688736745235;-0.285133072983722;-0.231866892012668;-0.222270926281118;-0.291067447536195;-0.290189127471898;-0.229453455785096;-0.312479012037564;-0.272834400692862;-0.207979137420808;-0.404286230974888;-0.38384105191021;-0.231788318724602;-0.320706898440145;-0.331055211360177;-0.239103016128525;-0.322221784579153;-0.284487999085204;-0.315679689575346;-0.24351631385944;-0.27132392788326;-0.223530837122737;-0.223501502118209;-0.227529597217403;-0.15703361828376;-0.284138977836754;-0.22732988286977;-0.150515017537943;-0.321425269603334;-0.253017461408865;-0.248882819822559;-0.311268234406738;-0.29822341796084;-0.247677134176956;-0.388750269146745;-0.297226587467388;-0.24200604432085;-0.262568849186177;-0.365406636406122;-0.264480991469565;-0.312139085187989;-0.307665274016029;-0.270629052109848;-0.23476618084495;-0.328773685859848;-0.263744105554652;-0.287828192523298;-0.250783686016497;-0.281106713645153;-0.250051752084175;-0.2496494810462;-0.234613419140076;-0.368925477144873;-0.283062682200305;-0.261360946480537;-0.337932322020412;-0.297818196231556;-0.259460118517871;-0.29054084177029;-0.314348028951516;-0.298229687670749;-0.295584107678164;-0.337212179232846;-0.222007762750865;-0.286077804835665;-0.32803870348787;-0.221759150066857;-0.31902912754212;-0.285135188911705;-0.241367013896105;-0.305533588525701;-0.372704479806684;-0.260249767633605;-0.298492018802058;-0.37833641685101;-0.316598154561576;-0.287602233645957;-0.357380759748015;-0.307441041099537;-0.356562481384745;-0.392167461517261;-0.300140391241041;-0.290453642193856;-0.358202138528324;-0.308239209410691];
x1_step1.gain = [3.46809560040299;2.52152992423019;4.4315316817522;3.27183331971983;2.92477862319202;4.21921157172327;3.05429921835446;3.431455800172;4.75637995171867;3.48036046048565;3.22990750108368;5.20871331692939;3.58600292980422;3.792957922865;4.38136279403513;3.4155028967264;3.23415886100316;4.76253724254657;3.63748284894668;3.7015206247919;5.08421012164035;3.01302753642368;2.86344324578554;4.36486674342019;3.06545324267904;2.80677425463928;4.33988673127207;3.41539094734094;3.30671050984272;4.00753092543183;4.12933006888641;3.46758348710232;4.52660715654383;4.29536034925777;3.26300297998172;5.11662920137146;3.64233184852235;3.44137888506663;4.91284867236056;3.24950036685693;3.72916460630414;4.60652050200793;3.5243849361568;3.4373146037282;4.43115288737801;2.97024075585368;3.62140388953335;4.0520291115957;3.6039495540872;2.99095700570939;4.15940086095116;3.77979679739809;3.43614446029198;4.37591945604964;4.03873796215379;2.98528700073871;4.96876098749699;3.85557178823469;3.27696007189841;4.10862704734592;3.91280091195636;3.62661953538782;4.01463570811009;2.86579904984674;3.78062229834437;4.41097158171788;2.72384078492106;3.21439196515267;3.73033963032549;2.84749493792232;2.91463984160479;3.37441072778477;3.14388304637211;2.51779303445963;2.35237953961608;4.08956215505946;3.22515733451771;4.7226320040435;3.19297029457234;3.34081709082726;4.16480001229044;3.43363432274665;2.77243912093341;4.3529222026454;3.59028348848045;3.04039906213144;4.38384989847445;3.02635037551106;3.14547577357772;3.66215642700287;2.7810389946469;2.81347145862211;3.05725803096368;2.97530667528237;2.61100785631183;2.57381299514042];
x1_step1.ymin = -1;

% Layer 1
b1 = [-1.4260567800040369058;1.1543184888196937887;-1.2503482259701053092;-1.2105993407982109655;-1.0570600970101287075;-1.0541735952922555164;-1.012766239442551619;0.80111711955380071615;-0.87735268333235461036;0.93532310928648354498;-0.83174936740594251905;-0.7530825531868339251;-0.67683162264023521981;0.54898976582888270315;-0.44848003644052159;-0.6272136276941732147;0.55724844064247502917;0.35109990933876605856;0.43357705438266730402;-0.30283960075101779008;-0.11595598402012484429;-0.23906393391897315381;0.10070546622502192513;-0.055441904916330178588;0.20042567201569766455;-0.039618354289399040913;0.179776393845407223;0.16268422792334627514;-0.29753695945570257653;-0.065021404477691627233;-0.38135678464098238249;-0.36057375493225063412;-0.44723719226794916848;-0.61029116266276184355;-0.5540804209998893004;-0.76893344407885166891;0.60709020491731580105;0.85197425567818052539;-0.83674485853419855452;0.87642262206133625391;1.101272764386645564;-0.88422471430561733197;0.96947414687307853498;1.0943532204223873627;-1.1210831213844634213;1.2267526325186972613;-1.3217672312537485091;-1.3823033449075348145];
IW1_1 = [0.12103096463786332249 0.14758222475279084152 -0.22862631649530476552 0.13845785711141664343 -0.11484804744423970924 0.20355465531507943577 0.19649265490250183985 -0.084531170584940168444 -0.13674468481978893641 -0.23967446638861797381 0.12393401627576518254 -0.12223088555598959903 -0.023628397785934195097 -0.12138295817229867446 -0.17766632832396778152 -0.19102855660165865559 -0.12004276969926154506 0.1143836645010301023 -0.061918605775995186336 -0.19765648753968562135 -0.059963270892182472804 -0.20769674741588944888 -0.15217588231019943401 -0.1919241860336138028 0.19083730279162894328 0.12086816041957514078 -0.1552831761051273185 -0.033157126104574420611 0.15993601172202515093 -0.051331852929813834296 -0.16920134062756572724 -0.1988775744850148075 0.24701820238879906855 -0.10487892304088868023 -0.077577494923812592709 0.10024011187559746239 -0.084481288224023495803 0.042772267867260509167 -0.0061916135802868041763 0.11186630682419318461 0.06193331863468790055 0.16950030446674527185 0.14687906049079715864 0.010173899351443645156 0.12069609844617108785 -0.24185157022794773196 -0.24373572377776175912 -0.18259181340573693575 0.18497769674559227937 -0.091021755669507570241 -0.076308810099462401344 -0.05449601185360943012 -0.0036956374710055243937 -0.077799239942897405187 -0.055148465902183717302 -0.17473275509865887622 0.080476408042766872653 -0.017187071164972794052 0.10065759174987252977 -0.22483955919008202784 -3.7717374873982162375e-05 -0.16197165382627060071 0.11381097657674979495 -0.030851820011972865693 -0.22462005782995836389 0.075305474716017409276 0.19338353859667534174 -0.041832133925869381674 0.17472267849026318354 -0.17002992707035347042 -0.23020369401234802575 -0.07555941596010215533 -0.066056656768360449972 0.17211705483575612252 0.12857102263888389726 -0.012315898050742261557 0.18876199115671746243 0.065089338413058223098 0.032787672697798329879 0.17005630113221850697 0.3443837736743888267 -0.15313840469906397912 -0.20315274851500098041 -0.11928848811280773345 -0.22477551519471258845 -0.21670245641325289188 -0.023051889024883944618 -0.042578362860549938407 0.13025751317476733093 -0.055032517180716271354 -0.10448619185089449979 0.12062962942431564028 -0.20224012021224627156 0.16733558587216113001 0.11437011943938801828 0.062131661224324515047;0.026845320362044157447 -0.18814119266380024964 0.025244330858582752358 0.027710808831764556504 0.050009249730899242581 0.2741955812039382212 0.095383427966596961989 -0.07203928947061692678 -0.044704578702543087965 -0.063808927613620308739 -0.080605736686129705881 -0.20698416358370769208 0.18885252891486800642 0.0032467096217042592209 -0.029299488067188038387 0.25257111036388668612 0.26488611041732862406 0.21965103063537544381 -0.067190741443142104616 -0.03160427462656936054 0.10817650956157305597 -0.15741686578062705215 0.021522958042186079303 -0.0035786479434849523956 -0.086159862809746204371 0.087665442856644820724 -0.13578472590408183218 -0.036412314911283855112 -0.031086299757093850682 -0.15335471091908969843 -0.30891324880207066128 -0.21180707764930539749 0.11457104469349567444 0.031068290481658107638 -0.22226796048553537632 0.074946978855167975531 0.1624333291481497854 -0.017148121945683304779 -0.074169160537794154298 0.14558145317752818615 0.30394628436019205386 -0.10908393172818038608 0.044206080871561928558 0.19175195839123099217 0.053748485640585763612 -0.028730408454281024938 -0.22856612781801818879 0.27093615317130631537 0.11655592564230909947 -0.048291945586889178932 0.35372682953853795684 0.14096766820070752435 -0.10490933680985205234 0.32503400480025523844 0.272335271924761535 -0.15656506944085316069 -0.29353507931163497213 0.2243356610056780609 0.21145508436918397654 0.10171378350241992716 -0.078576667731682564577 0.14473894152975752547 0.10501967758375560513 0.33517834917136868356 0.25864632414107152636 0.15185209570080387964 0.00066708091136883154726 -0.055409233179159377014 0.062002255577769650741 0.035815383961819463599 0.089273021407924049719 -0.27009466953633620712 0.24849987766072301199 0.088571817778897637963 -0.22173478062237350628 -0.28265287780044734411 -0.1999249727631136897 -0.080311814915319731933 -0.085637311133126087226 -0.19770161788907708589 0.18860974683877237967 0.18284448235063233135 0.089505207382396201332 0.11756339861392300916 -0.06183084250644381441 0.26116302966917398498 -0.14560617852393559213 -0.19078828411525841635 0.23424554048905898984 0.15972141576247450567 0.046034601957197864019 0.0054960278015928031026 0.18554859450196725668 0.073649731819730251958 0.23936230098996075233 -0.28496105262803328451;0.054615041958517393517 0.069613668332367234504 -0.16501194858272644206 -0.11274401618566430583 -0.15997153458281407334 0.25740906369553340216 0.12586228633252710685 0.046789803958489778468 -0.25199729970738848905 0.17474891867339728546 0.02434672785619994631 0.19260521182518475225 -0.065099113535442870715 -0.18839926144566213062 0.23724055929209789118 0.18163459677880958165 -0.15463413211117588153 0.091161642737636799927 -0.23903213457547567433 0.19570824363610095364 0.15900975893122279436 -0.14823525514510718648 0.10431762018219695176 -0.20928118517393184961 0.17725168834550467101 -0.24226132884874262974 0.036898343958645406226 0.16930692163526872562 0.17475286959463218195 -0.065351466748223729919 0.15113013634206945435 -0.19054760985469776369 -0.12030690263473448054 -0.18037509133276877216 -0.020321274255431624051 -0.090337548074021514766 -0.25357556016231419527 -0.034484426980651357308 0.160767029762685143 -0.065511121516881293259 -0.024372797270804994613 -0.14778989302936504369 -0.23966015329276049717 -0.11300733043127401956 -0.078774889817371351874 -0.16054546045990514269 0.048494554733268947777 0.19760810219508617713 -0.16049605275970718621 0.0074268534276097294966 0.11035497610161139337 -0.095957168304280832105 0.19450559676341042104 -0.22808908489287085808 -0.22796661604227619335 0.022451146661518317504 -0.058615202479409350689 -0.031718219962933134892 0.25371102635962328176 0.094663760556811943347 0.03956095246062977383 -0.24566832432138233089 0.1686916015902039101 0.15143264379889834204 0.09006744887119033649 -2.0088145728996606963e-05 0.27780094699778257183 -0.020170050611058431417 -0.10389882436320917181 0.092805954748506142016 0.26577592560599727634 -0.093475188997419272896 0.053613317571608837264 -0.085112439089300481743 -0.12680534092897188803 -0.14693042911332648837 0.083640848814221277485 -0.19461641978375593398 -0.18174434959103530351 -0.091261858755531791165 0.1531404844847766844 0.065471025835777560409 0.12546430370570768598 -0.2671929329582421464 0.19052104310704914836 -0.16170902012452567642 -0.1408495038733647009 0.046809246633198131615 0.23288538163004096626 0.011597731451289660168 0.23003000582960383968 0.13860867608582769228 -0.029801574665660114649 -0.012077634601320934304 0.23868036499421868557 0.15696547098292648603;-0.041641557761324513032 0.10555250076077860033 -0.040596091897293261341 0.15416079177929778443 -0.15038457519858397515 -0.30473835494472972796 -0.10422406917604692955 0.0355726007892624152 -0.15549540879940293436 0.0044809452672071271515 0.23369803866286426031 -0.23703308421862623323 -0.18597138239102112278 -0.019050369944427235358 0.059727611237767139207 0.01437442795606624045 -0.056895632014217455141 0.11205860204943637881 -0.016263400798286566096 -0.12763994526685626396 0.021912805986900377869 -0.19361705538762341572 0.19780150879983263157 -0.000161257646055153539 0.17559663561455868264 -0.052053935987270850971 -0.1407442803223284411 -0.1565631545148149506 0.26804792804475008339 0.041428484680209633206 0.0056937039836202673129 0.06230182055642052158 -0.14076005162802532333 -0.36658662186510410086 0.026781163588537115067 -0.31920122321650062913 0.24341098400301530713 -0.027290688421507027644 -0.056299163332624885259 -0.26031459671953016688 0.28347243091911822344 -0.18860367748461115411 0.10665720732486724809 0.27221049492985727181 0.24207604794524328895 -0.04590392121344295806 0.18980418020143838276 -0.19539732004604862259 0.14460114634184145777 -0.17286373876451904819 0.085173436831388241175 0.28300110419607948931 -0.13917338439746473888 0.21873126098888695523 0.04214245593477459334 0.084797805238872384082 -0.24491179423570944018 0.081665797249741295394 -0.21337603973727325979 -0.010595777574391705006 -0.13114152242202137266 -0.22977577197251305985 -0.24177643043803753731 -0.043023549685015094468 0.070442662081076148906 -0.13581945120099861435 0.20776907118041160194 0.19336482518016417931 -0.21098644763104748567 0.12596173750453523721 0.0044689272383641957115 -0.31925549542613163023 0.14880056257416482413 0.060384557607670912016 0.12339606598751939881 -0.00048821250493522429584 0.040208472688294485953 0.17768498738548577087 0.07170850266790138039 -0.12511823293987991979 0.32105542511785195581 -0.059224133357635128094 -0.12438712077672083034 0.097487873291190962899 0.10809452332159842636 0.16669888849109976148 0.33585734942039047191 -0.058145561887124448675 0.21812094394678499532 0.055998869977731069447 0.082119534601890642467 0.078921152689152923587 -0.39732421195220812837 -0.026204143847881937457 0.023591374411965078395 -0.26619081136597355641;0.23361198661082457906 0.053262029949815790919 -0.055163897040431481011 0.014435279237941361571 0.010597648798708798196 0.022745562266379699967 -0.21093983179618552848 0.056757364024883363851 -0.2438108621862170311 -0.1456613019487815186 -0.098757911668739928324 -0.089484939729982782008 -0.18235734212036050494 0.11758637640469284114 0.1025162004117213671 -0.15699659927958928285 -0.11702225700920981799 0.087054092131859772685 -0.012424562193788466283 0.21869813252926120772 -0.26180631474738330633 0.19476175103869916572 0.15674640275898368835 0.13921154278347874778 -0.068485667720930717972 -0.068527918677629751087 0.18666170320832325968 0.23337618749334884671 0.11311257394173356017 -0.22766388534745923833 -0.26419743746935053785 0.0615397570410050887 -0.016376451848660104199 0.21847133784787092781 -0.040305450438554456249 -0.04793502100516154607 -0.14421262026310166515 -0.093724325515587542101 0.037049651136512769256 -0.0066431473636249689652 -0.12951566686240373327 0.02735323727250687717 0.11531150249973730337 0.31746807782557345812 0.25543856578522222689 -0.15564247682699569597 0.083761187081873966775 0.19723517755786465488 -0.26679355078227751097 -0.22525037314394610877 0.10973360984348877467 -0.056218199283816265577 0.18244940431425354932 0.207672288250883047 -0.0004090653701279926141 -0.15674626504147071149 -0.16071018670406950202 0.011264674179949148158 0.062045625468596314611 0.0647656830584830423 -0.23502106586757104401 0.20658981071293727738 0.26457818322792309162 -0.089399764144489413109 0.025333686086202317211 -0.034006075406494036539 -0.295098342923969581 0.20953014053327351229 -0.10188218729986070477 0.18541795530320118179 0.075452269005386637946 0.079028148449852730906 0.039931219735121439851 -0.29765639894831064094 -0.096018714971890059551 -0.23714568465565263877 -0.098541287631812163328 -0.15725765112438921944 -0.33950199833246741399 -0.0574772983853653191 0.1048582267889503622 0.034651733429587855406 -0.34596529572211320858 0.14408920061061647466 -0.083753761368724241598 -0.088364983887681033958 0.097272682377521207941 0.060169633051664644929 0.1238768106932042895 -0.30701310916871615841 -0.080298544890635314975 0.11183142989206033835 -0.0052817693318884528786 -0.26941139498793020834 0.12318960234189534064 -0.21608876281759883953;-0.0013409414106458818899 0.13896824542293689797 0.072735223641351667845 0.028747884919704608936 0.30226931534652023981 0.1083017566249192265 -0.021285356721958522547 0.086890406718347037995 0.18806742130148659808 -0.00077761365483904098042 -0.16723334885584362208 -0.1854303405697184659 0.14392739077407795678 0.060247379809760165381 -0.042390899206242935171 -0.35197767470995527939 -0.23894417157826858267 -0.21665772483784523361 0.034816587167913901069 0.031930636349069736746 -0.23555368459729764119 0.097792229978866704321 0.24720708942070548919 0.057289808670912170663 -0.22364789870937240579 0.22156672338689081814 0.022193572570965158786 0.03254002266005631 0.06254655646807776026 -0.020985585533851436324 0.19395011860915534196 0.11775074961393211526 0.0029793160363138053437 0.22423715878944294744 0.23510263195060771002 -0.10541845857638967865 -0.12453548990994729728 -0.00730935030951704659 0.10890763080494013371 -0.31981745947226969395 0.19948063001766683233 -0.38173831626176973897 -0.27155994668999300368 -0.08011193220990238395 0.041845981671828749726 -0.016939300450334846687 0.25326836127851681812 0.022635703000714199606 0.011639195429977645252 0.046203832013589726802 0.075145275096583960539 -0.24561478992210458716 0.17989743583559567042 -0.11033457743719909949 -0.22162840354913718177 0.15452055922313254199 0.1939128624004428092 -0.024188796515180625846 0.077626461945779809404 -0.02014085476153435264 -0.11014193247047998625 0.10696098520631482087 0.037050114345411742922 -0.03165448966552778659 0.20695061925051025375 -0.22904680347112163497 -0.091460920253864222418 0.32986372153204240876 -0.10370197584523893619 0.12702548345770800498 0.15092569770572539234 0.13808904282698206134 0.28003632097390657174 0.11964010903452979018 0.059672767987132710465 -0.024971539063083487281 -0.28188797060784248627 0.055723581051867941694 -0.11845358900633579102 0.14249113600602023033 -0.038315237580984838617 0.12426266255532203431 -0.15504969545867372527 0.028814885656560308008 -0.079658399258305562229 -0.03067518672185584605 -0.16978207185919841349 0.32463712902599839438 0.20966077693678808469 0.096119292950238480189 -0.17172357571845475732 -0.10228953556573808226 0.044889976108157307599 0.24477314771159225382 -0.25319701726264109976 -0.074776659597877909169;0.10502324141094658561 0.23974585244063784106 -0.12305689785095427768 -0.050361836176731254733 -0.10816600634557357874 0.11107451311005535344 -0.026166495432533971865 0.046710361430561161966 0.045522041975077920384 0.073799193013566355415 -0.083731604928651212627 -0.0092268104810970148766 -0.17834234513994967619 -0.03506565243184613101 0.064159296810716276438 -0.082254264828354434202 -0.0049553824671773622629 -0.056476445945706811591 -0.062595657907965882027 0.24462185749879558627 0.052936374191473248296 -0.064095631024862848024 -0.1033142606293414173 -0.3346865475149631286 0.18481470500141761182 0.14008210570865262112 -0.014511026889662735628 -0.055743048798274914823 0.16647693317568543203 -0.11831505558704248637 0.080667399553545252044 -0.16267391950855381033 -0.33786982451157665519 0.34830198680375212827 0.071607198508539249282 0.34847259809868486036 0.03954631885627797605 -0.096372939266861856744 -0.0087032920097494040346 -0.16683520763538414733 0.026717474326462178208 -0.3413036031398699599 -0.055338018087125427635 0.13987634423400763239 -0.19793609307626167104 0.13659515306808864277 -0.00031403996717371341144 -0.14897213773946349491 0.11598328653622307083 -0.050565066341549350093 -0.089652875329034528717 0.19663494167063808038 0.12649266915184825821 -0.23897272339980274447 -0.21181581107199931591 0.097359515145393260571 -0.1506947533683788143 -0.14837642144879681361 0.10824787240026711999 0.28560485527275469853 -0.15191110943538863043 0.20229311337582533969 0.15699515623692331112 0.065088924217041377318 0.0031550482343724820661 0.11758599496778904259 -0.11657761709784869586 -0.15442095021393961729 0.23177649785145060246 0.10309002193618176102 0.16663426990521662541 0.48197988306361022603 -0.16496729380274785526 0.32089889996923220972 -0.058699870299817186181 0.033291073691208108998 0.027023492214685907592 -0.20737271638960275144 -0.2996632453234006066 0.15944342681883486024 -0.45674231922241059767 -0.28061062381382584352 0.0051249711797428983834 0.11958609423822019746 0.15687048356408186955 -0.019952785744604007584 -0.020239368732849115362 -0.084675097828646947451 -0.10551673707411780845 0.2683067777233255069 -0.39492237325412760107 0.12002478547669200026 0.10028888939479385645 -0.062556354429836397157 0.16727033185848499963 0.6968828930562140922;0.070810910341001953583 -0.13760854722525961424 0.070185996083157564662 -0.053625905416224695088 -0.17248514822182267614 0.13109504675207411806 -0.039743789808398259644 0.003710278619711583712 0.11739039559647870825 -0.21033156414319048588 -0.22731281450141876954 0.17753163118655626573 -0.16403648945072069054 -0.11125106259346886906 -0.16893078212881745825 0.19363887463511431086 -0.12872677617151664919 0.012056244883453566194 0.1231948614553186605 0.017535630468422540307 0.16753951371643366342 -0.096253652115238147458 0.19672763735146464592 -0.27764307773936641732 0.10604916244286934079 0.02003898926168522221 0.17796649028607164356 0.10298487096166669685 -0.20455981728246172557 -0.087695848920855176689 -0.022502737399769077303 0.3525572808045504547 -0.055864749147224161685 0.27051226700347502652 0.21183718427958872499 -0.04569869712467707068 -0.15879660734673398115 0.065275329228117420777 -0.026021319016117157308 0.019793733434931189141 0.10267657317157814767 0.10309874946561937981 0.026786602724190818059 0.0078952654952723633208 0.092650952337482689325 -0.22127183152109131115 -0.05680241621583609346 -0.39512884551070459604 -0.049254244629806161193 0.2739107971152052734 0.24354986890849450454 0.13081486358304353357 -0.027440456816292868591 -0.18135032428318381692 -0.10666952474457468136 0.15117197412044935945 -0.070169216479759460858 -0.0042055520036268197528 -0.043121220355602743468 -0.25706554595693115184 0.34243878946408795594 -0.15982243794964115513 -0.17198408355562416761 -0.0029358848455759206306 -0.20920343085523526727 -0.16106476601638855528 0.1946545415025688619 -0.028442861554514132366 0.3175139793995592763 -0.058082770808520874095 0.11857611343046971231 0.14114681859689706678 -0.016255468913264674302 0.092557033487074349964 -0.13643116662837970199 0.11712165712399418005 -0.016485499995074939794 0.0067535269262891609726 -0.24163059202584236118 0.11713867742529278371 0.083102946795841542427 -0.27912730200719704232 0.23194821978997132161 -0.042530406846672808019 0.20276626968513933313 -0.080208476856584956516 -0.25757703330000403241 -0.12570394083810482178 0.28195452412017907307 -0.18849142997385476272 0.2223019998929678942 0.16525513602910121835 0.25262571875926048692 0.47055914209955690408 0.25332327337762106101 0.32569328274347886243;0.2513941650908168568 0.13090346185832349435 -0.014128830892106342132 -0.017468174146996910678 -0.10262734543296449241 -0.098387440287651062309 0.24332634420846399603 0.046377323134788317471 0.090931244374571909561 0.12549699108734899133 0.023387847699991519412 -0.19798139804467160263 -0.14302750466233377091 -0.060841996091876189567 -0.06831983953093824502 0.18290987819020029792 -0.16313074340582350841 0.15265528452652729618 -0.070728853440796921048 -0.053151521968735224166 -0.26261619132099928153 0.012281769648679056323 0.24201607123573568026 0.25029985060054393831 0.30028221894742623821 -0.22365541175629730097 0.28073472494921264397 0.13869772353745909999 0.092163323374207975491 0.26414480461605061024 -0.047705158156470049702 0.058082524882123835741 -0.086707655170258829402 0.17875674638117419746 -0.012348090823224470297 -0.068100137148747963423 0.086999070056749741586 0.089205984913160799032 0.052787928468459997811 0.17150830766760219448 0.054670598363979694412 -0.13987119347817408843 -0.097762727012699071616 -0.074349106269355133558 0.039550817579231567489 -0.10550455270038550104 0.1938925289211768932 -0.11857452228166560915 -0.29190584774245476041 0.0056340370144070412578 0.19640627309880603901 -0.11628523743789487277 0.050323148879127935218 -0.10502960199560462673 -0.0072341066178508942747 -0.35050593290966897131 0.22031354291595814376 0.13391954156632079886 -0.0066601568463654937241 0.15485452515697001319 -0.039825839407199602193 -0.011248173590443302089 0.025805650297154748146 -0.043809223522116511051 0.17441899934929566696 0.0091082478226145631439 0.088890083777533046572 0.1328413545724637379 -0.27050826648213233128 -0.17833884866785248979 -0.047538251916278126408 -0.025776051980146895415 0.055432331095038728241 0.038734981194407193394 0.34332021554369002159 0.16482772575210014043 -0.040503528518316879448 0.3978592098350337003 0.0025823374298359147785 -0.25199643320162318227 0.51912730319561040115 0.16491000683417933459 0.077970273505964304839 0.10029824216327193342 -0.39240281094204826351 -0.0015027655523365190601 0.28267181274852104522 -0.044708344728841803439 0.16662130004314146259 -0.031885219859117359953 0.0087186655567967237535 0.11139817631499081274 -0.39458392961936383792 -0.16553302316655843507 -0.23151287681452062395 -0.14803325996754693183;-0.055052148447092136285 0.040395416503494437077 0.1461571823064056197 -0.099378618962432413442 -0.21773576124149082722 -0.20083985669966669674 0.042634694198375934493 -0.32430358037354123368 0.071458107305582566071 -0.26230357696731493311 -0.3277296590846529023 0.064168445777132335217 -0.030114581223114469249 -0.25778798168519312384 0.10192039908101854784 0.058333023751279980407 0.12922853339154433128 -0.071818392486664994756 0.11148875380464155771 0.064360400838161260784 0.0059704427449930224173 -0.022295346063031021983 -0.13401333480147956112 -0.059652496259643986165 0.23167032555624222923 0.14932626346242061643 0.0037408252328479021237 -0.052569693874032631664 0.098851363391067384456 0.40351701209458012976 0.022977223875445016571 -0.1569915809725065392 -0.15201953340458829178 -0.074093440998891257898 0.13157996848538058843 -0.30497756172160978005 0.018128447498625580719 -0.25572610199217876703 0.058601865857539209292 0.36292229133534820162 -0.19775461357282525521 -0.059771212825748855357 -0.088082070938231019075 -0.072418232606352661573 -0.021189579293916349645 -0.24451108783993702467 -0.39120455174296409062 0.059255944492049926475 -0.086332602626694732173 0.0036778782892162853457 0.058613601058677688993 -0.12042168945526682267 -0.18769732547324019523 -0.32558739506137335251 -0.16475947504949495226 0.12428863952132500337 0.30220264079368552856 0.063882567919553046032 -0.24933952086714963881 0.038097831952060144667 -0.22397651715110050707 -0.38027611382248155403 -0.13220317695942476743 -0.12400057437930402104 0.022738644549945976475 -0.12246096683870796862 -0.070007855792308545939 -0.1784551029179100301 -0.24753957181917968233 -0.29457770397609533974 0.16675211593812239164 -0.054464711044276352403 -0.049597501608759586578 0.064787956736577140271 0.029880623215050892277 0.17317446364701610806 -0.043944229891502810392 -0.083318161444125446446 -0.040258358536365161651 -0.23689048011463659238 0.12724102026402214771 -0.084313573071401193282 0.20207679453267618497 -0.34644415703853015387 -0.30648965921295318049 -0.045253915429992602748 -0.4021668341128087909 0.12903075696969951158 0.25204441918622505492 0.38295029488080267743 -0.069433659483336990226 -0.1085390966834247628 0.027034157260877048762 0.00074720930317079400571 0.21094071581955098349 -0.21169267595347490696;0.37061484217941281782 0.071772203240047030559 0.13349599679097090554 0.24488610486725523319 0.078519645619427660965 -0.29681486534228662677 0.19210563376396141977 -0.23806711537350166985 0.04994439296701219666 -0.11627463403996848856 -0.19456800147376199228 0.13264528826160865149 0.11992103097890528807 -0.12067287522373192077 -0.12387347164453256509 0.082922805439093458246 -0.12790085349632634992 0.36328428294035919333 -0.0090852291065770113265 -0.0029206535271307449211 0.11848872630941040263 -0.081458996997049504252 0.25607788243761936409 0.16249098128623890025 -0.16282626970092664576 0.10996179374066182566 0.27110944935278530332 0.25827025266440639673 -0.13017500794681477472 -0.34064856453457442731 0.021568271624417805626 -0.2815790515702331076 0.14449102594241980402 0.14247856595485178244 -0.25048748981318363915 -0.071550789208571927147 -0.076765699046731805666 -0.11079880091101049211 -0.056334850528663327207 -0.040020155693526987539 -0.063570699094597366008 0.017959992382246929565 -0.11593379619576869854 -0.08485085158318186882 -0.13443201828964226885 -0.1377180246171379463 -0.1670863476300069872 -0.27351076285921477327 -0.21084468315645485403 -0.17867719961218853086 -0.157124746413558114 -0.031402233964989430259 0.14256027341885371684 0.27503807687963205408 0.23329438495750717819 0.081020250852695943622 0.29807672478562802221 0.0041646621880769424395 -0.31315802142084880888 0.18302963497173141416 -0.0069101649630364551588 -0.060794929413179009392 -0.076705863361401546707 0.26782336539962803279 -0.33392321038062294791 0.30244022126776493042 0.070645180354276151946 -0.10190374774698247873 0.29255787559398638287 -0.18279750734488656172 0.042286673328754617596 0.034650695769705745775 -0.25519372213098068247 -0.24287632796350050457 -0.23082036633820313121 0.075466946352195390935 0.2161167853871894251 -0.15390440417721154565 0.10546175990843997816 -0.069182550291316882718 -0.13620111113319263718 0.00024664439105337790381 -0.035702096684603584764 0.0044709865074385197331 -0.027574655936849885862 -0.016848350545027368508 -0.02684352467816526755 0.014741395338656941918 -0.093145181819283009994 -0.031285137666326255645 -0.06615798131580021002 -0.30924028354869487201 -0.2190412632975232976 0.10422252665586297093 -0.0036108201868133241869 -0.052147704813153596126;0.15500293669224296522 0.28613082881305068605 0.065878747853823402258 0.099767081769617321774 -0.023765583969846446055 -0.18304447856620442714 -0.018759102834884102545 0.29340169751426775635 -0.017489549768029088311 -0.034950166732976420403 -0.18472238077057764882 0.096911356851875102292 0.12404129862512283666 -0.25048827832661757498 0.16754328974048096623 0.089210570936346628157 0.20896919206452060913 0.20292146633099009123 -0.10678959110256755483 -0.33390930833648707621 -0.10751973930350020026 0.15865782290438568136 0.13807223927272174735 -0.14068740967456636048 0.1133309322520586887 -0.041196128972906802257 0.12935443456088588365 -0.047935983585779780303 -0.16756640283573204231 -0.064847532315297773398 0.15205147827505355318 -0.13744989878653987581 0.087829010241986971153 -0.17053094552602343636 -0.26222082726026818555 0.042244529570806189922 -0.049076461802124542178 -0.21637980001174131339 0.010345864862354106281 -0.044428577751316263023 -0.039605369678612889484 -0.12856387516039882724 0.010350632320323745195 -0.2165799636234022052 -0.18767142218968310696 -0.15467937146453156205 0.20722152660949672009 0.071364733384114101278 0.084703355551683151559 -0.31819362801710121547 0.18405894748585499565 0.027995386389681888029 -0.22187408179677967079 -0.051276281916081488388 -0.099286449513603158845 -0.033095678138715722838 -0.026028206298405118235 -0.13304224038823264653 0.10111559195254658794 0.20625254756555991276 -0.20746271616401129601 -0.19647659412941342882 -0.25798155376806919392 -0.15512319779691433053 0.15359378931939435264 -0.080063435070841099117 -0.06440388612491412812 0.15239060073657406669 0.056303371105083460657 0.063398575877655002908 -0.19868588938960679569 0.44810673243263465793 0.13246956702965395625 0.19824004942774736682 0.058844368007082897831 -0.31316698068500653518 0.16120624137209685345 -0.14226624790392067288 -0.33039511585888564627 0.092392416063110577307 -0.42894225156419657496 -0.11899262850044368955 0.0047735547138025554229 0.29358146025490161612 0.33512447759359736965 0.1079096663595051353 0.13426741096119701457 -0.11232994924970618467 -0.32105667753039190959 0.059347107782733020398 -0.13948108701071890159 0.051314722479360946883 0.057012675512988400528 0.21400752691260208072 -0.044655921475873563975 0.16637941310706050313;0.059502309959871498013 -0.23221095441843989104 -0.14605175405566775404 0.085688546852555017019 0.010728938771734678262 0.23534912083151998674 0.29834057340579711592 0.098579718519008999178 0.1409460396862596554 0.15079722910331347374 0.10992340673523655348 -0.0020497383570282495802 -0.2578407223795036729 0.16865432219995210583 -0.042017900931564267086 -0.14099483473669291445 -0.18597873828352526338 0.26928916715570816454 -0.008347602284546895568 0.12977124548714411012 0.051956331820744161565 0.064138533193221061723 -0.047783391208716476106 -0.0038420198769284884949 0.087454479812894045376 -0.20733812917537935983 0.32463546933677767115 0.25671503089071784354 0.15515798548849982219 0.21051520911492491162 -0.10231560031971009828 0.15257964086639755341 0.25474026176418129719 -0.18282501663608266562 -0.11441903710523969318 0.21036800430983204624 -0.24972122511913677489 -0.0049342473415201690279 -0.19677735576547542018 0.16051059319181101848 -0.11985880662425560383 -0.041713464514986586806 0.4351949302881514825 -0.039270011636642072894 0.5704845731393802799 -0.080513426015546618597 0.094796339131381107679 -0.32434418657931657348 0.02854238078805367701 -0.1282924842594293513 0.10332835477470811436 0.014350055728186686746 -0.24790638953989782567 -0.10874936841667756648 -0.06842885731430096985 0.13161702950844123006 -0.23827617870513356779 -0.36705689080328901541 0.026512043690204441238 0.2917824935089669558 -0.059877389520001364498 -0.013885610803255484316 -0.17665068314020943019 0.02874228247821049298 -0.090764667281419658673 -0.15935701864299436914 0.22707356718210544577 -0.075009104488683531198 0.074326632880943516168 -0.1909633738232628386 -0.096233650066087833563 -0.02224142630658369757 -0.10331557763195814426 0.14899862351085471635 -0.10512292283196218723 -0.16607949699408497413 0.25262184884533728235 -0.022538611408658756202 0.10804473892879833119 0.15993599583607481796 0.18515438752990184823 -0.079551884276665277285 -0.11996482998030812139 -0.035917142207860380809 0.29785548475866430174 0.05950509042825301298 -0.27810247934403858894 -0.17558827151504532993 0.22135395483056891086 0.078842901265916948139 0.23519110471234247473 0.030503957611659044541 -0.07874421414714299905 0.12306544132405797254 0.12899314417601914773 -0.55340060211395236678;-0.24924371986740434526 0.26187564774742760898 0.13677077054889036356 0.12459219338192137339 0.052789095271648621421 0.26122607659612262498 -0.10502739220945563059 0.19265075475595677679 0.286491221928312223 0.19090544468130768441 -0.064276003825852343065 0.074697623113104905102 -0.19692687150598070511 0.04393986979446051766 0.024534997744633191274 -0.029448831701402590488 -0.12360300795809271712 -0.11451904532221386657 0.13962060354370320336 0.26347659989055866037 -0.26214053997648084637 0.23722389170046057072 0.062604784443410110839 -0.064660611847248902762 0.11973384507802091459 -0.18645851516272260451 -0.09618004366387655768 0.067114792189928385024 -0.20453599397171298713 0.24134571206552116185 0.03828334930566615335 -0.040634251949340324805 0.29258052631334913185 0.12650746633443982203 0.3024563467350629975 -0.16907706342817049872 -0.20509014647500739548 0.050589441291323200556 0.25122336531334632515 -0.16428646095237589564 -0.12166927970256340152 0.33012061520734331532 -0.014451801425740000775 -0.082541071427716036779 0.039444014333566999875 0.1183189448727499371 0.11250318964370838171 0.14863987058022920529 -0.29458788237368899177 -0.16494210060841912879 -0.05366029720195710645 0.023754286460676905801 -0.14510491666846533909 0.05813440176509403895 -0.024474183142939684443 0.17366076657280549167 -0.037632018624421920139 -0.1049718257495968754 0.046150389675252499744 -0.11621901396973673137 0.0061489098141772969078 0.27641667065703118267 -0.043571465209453527634 0.20957860023168509156 0.023171250621753798626 0.19367016961943536724 -0.23029664825073342671 -0.069604895035835889772 -0.26084717843612986732 0.18638899936070421615 0.17435296929664217958 0.25138608254508987283 -0.19790605955221163281 0.074234084533368244196 0.34481750998832116917 -0.039230818342915731167 0.028933591273952632972 0.27099684714801314245 -0.014918118842805493107 0.16144749154235182864 0.02811772195608408173 0.06168210458605628832 -0.20085426407904735657 0.20739219198228150964 -0.27316545079882414981 -0.19191847300655082154 0.12971578900178554195 0.098027707997030283371 0.095678505930577056882 0.30004056887623342664 -0.077794406932699664003 0.1118040816437453483 0.11053921485035266004 -0.17613470759703298008 0.007469484481480089498 -0.01857798419698383427;0.12112750647297230999 -0.13238435806911522108 0.12077615081703726996 0.12030740802306862103 0.16326927892361745021 -0.029064030657023180032 0.11926808211840667084 -0.099769734697904635667 0.30302203489866597064 -0.16411452611388757661 -0.19322597014043610408 -0.083077673050969094715 -0.15101562441308125084 -0.24872703152438752072 0.05857400405858752962 0.19351328315635152322 -0.0012204214584169330651 0.20135587901730184202 -0.017275366817971038458 -0.20805200583830851802 -0.18774604035311265315 -0.12155262683957475389 -0.17196506679928424965 0.16362809448411907987 0.13681669394143233798 0.38582829203013374597 -0.15612223337636438325 0.18941808943784049779 0.26849513298287097651 0.011802044119753898888 -0.064958212934158071628 -0.11260751288711950968 -0.087425010039325332101 -0.10382937911630868433 -0.010611120251110241902 0.16331771817901655219 0.070105159289109472698 -0.065566958775269579274 0.24016345712578551774 0.2817134680265442892 -0.26828883773032052851 0.060216927112995990989 -0.319509437715296718 -0.18065318149559428385 0.047867053839116852076 -0.0063923357991436799072 0.15269821682756035131 -0.085307304326452407239 0.29369117257204213622 -0.014787470931119171824 -0.37502495623560189175 0.14502717140781135052 -0.31577259815771296925 -0.07442630122941518156 -0.040374717036546062254 0.1857399470811464115 0.068204691146552059999 0.22577930215435446093 -0.13151251794006352247 -0.13083490878988796036 0.25190412884664875603 0.20521225643185406207 0.15500322597151500181 0.1301815743526042457 -0.13902647830830397457 -0.13832581720744549503 0.29550974466087093218 -0.16031638616622459481 0.097240568399389382126 0.21833880301451480399 -0.065038901030001899928 0.32468527414738490577 0.093391177359110927325 0.10287749177752500418 -0.089736337032496088506 -0.020967743412999419877 -0.21206699656657479469 0.015674530597639353691 -0.19506504634394417064 -0.10426724206134299622 -0.18296204332950286031 0.13975460779903042807 0.21865689083166456319 0.038456957880067137168 0.030297518961162207829 0.33183579137989371866 -0.13336080246898160406 -0.10397802027706844197 0.063424503276901217363 0.14232979340077797636 -0.11028780376547757391 -0.20640476328761300784 0.20446231775259732233 0.55195587097260268017 0.15067920398903292267 0.98351806259316154613;0.13586944518745522337 0.13644802511113501842 -0.0053951989940524388081 -0.11431051682770128342 -0.15121772085467249935 0.31341166294882377708 0.30976955213560641855 0.035917091495327575779 0.21611596747374398064 -0.32592949612621108235 0.17515099505535514091 0.085548567392942573284 -0.28054082263646323847 0.078003380922694209865 0.24980885238341982157 0.10243392712035240266 0.16083028769473550756 0.098561693150605006464 0.013056854923628499754 0.1344016517756266571 0.11259588531655596866 0.073336371803915820222 -0.14792650709562912836 0.10230275334042540636 -0.097191985281350964931 0.059529324058719704227 -0.041265251750058844216 0.14565196958494214252 0.16493595523959339588 0.10585648345467509046 0.13744479330106762482 0.041829581287043136884 -0.12786164296153232356 -0.047900880172788158629 -0.0089557036796356868924 0.098388056177990998452 -0.066971318637924937001 0.14030478158930426158 0.18280231506157995636 -0.16381159152107138688 0.26330115716680513316 -0.056839977007108195839 -0.14190472164414866252 0.090920148846458881398 -0.071866988028192552163 -0.0014237197284592112943 0.085196153278502412265 0.3666038956557938211 -0.057892882864780566277 0.047506218454033480314 0.29147953602774462345 -0.26276747752938783842 0.21786061786655025463 -0.021526984650320095394 -0.23898331441038997425 -0.1983512299178374072 0.13883110665713124798 0.099082188272143767449 -0.051875333452943088453 0.1542417025956229204 -0.056483987467594747034 -0.027673280087132740013 0.21754585185484240362 0.059552490444921793444 0.25009561933367779885 -0.20378575186635342065 0.14794509667261235286 -0.12975453918532434128 -0.35309915845551442803 -0.13130056022352107337 -0.080823271573234947707 -0.37067067052846802699 -0.26543004165862638111 -0.19649639240722857614 0.18076567970205134617 -0.11375032578282760765 -0.01219154189393019741 0.038809303859133476022 0.24588299225799284398 0.20718333263674343359 0.0070472489776336692119 0.14914923847020311598 -0.096341784051892143115 -0.26649805880895155452 -0.2446447894459838901 -0.25490740666179539931 0.055189475338883221822 0.26489320709921471142 -0.0027684079750015053861 -0.15957631105823791295 -0.12085150613983511314 -0.13578574840546586699 0.031439454324723163647 -0.26349391439130642745 0.14181893216675278691 -0.11116424244000486232;-0.085786657426638518453 0.181424954427070656 -0.089224992685710907692 -0.062066262839664154694 -0.040261995521221942418 -0.28666735937210946483 -0.17754516968703024093 -0.12668841518228957099 0.21641520114803367014 0.1048178525896262675 -0.15371026609229837545 -0.010760099210065893899 -0.26949987728474833482 -0.031484747296618618984 0.2066814692991004454 -0.1559065263443721594 -0.017688208487609245051 0.080822727830353185974 -0.066241644381337463909 0.01042657125461362265 -0.25043905675233218977 0.023450417971516594046 -0.074630757864183425165 -0.13600462027125012621 -0.10851196927085879351 0.15644497454666483893 -0.016082974019353664386 -0.12440054863245884886 -0.20450044353980897927 -0.28090098111764344457 -0.1441691334518658274 0.18542756528706694219 -0.23372782897558211368 -0.045881441067129900835 -0.021511423981939597344 -0.15152129545898584961 -0.076032872667246523268 -0.012159217943098628648 0.25686732953542606994 0.21265159000638558795 -0.025692309903311724012 -0.073012215966683002843 -0.073078943868567725062 -0.16986780724334288317 -0.14271089955074203748 -0.015771127200764102627 0.094785178134259864824 -0.14766079891372785315 0.062747336196847608436 0.10931960542457355712 0.13611403324958215588 -0.15271387335519720496 -0.061481571656336650444 -0.092727527253051056366 -0.047520956338666625607 0.11918505961511556557 -0.16964076694383364852 0.041487126779349625672 -0.17000405586105618583 0.11722628092573533776 0.095026042703185917282 0.048945640252706326678 0.10253662909147287507 -0.25827727460423655081 0.031245917197936581844 -0.19544801127419389464 0.12682839600084289122 -0.15621615102291144805 -0.047270435602170972345 -0.072972329159532431375 0.2627973976499078379 -0.054205881101853446713 -0.33581159177878078248 0.047794453022129021469 -0.25054318967579730648 -0.090112072292615030822 -0.21933672494892644811 -0.050432036118554957049 -0.19394023787950417925 0.019609512585742332191 -0.32623860355397749089 0.2014721602709106385 -0.15728042659353330679 -0.062420409455665938625 -0.021300331360488179711 -0.17059913803461515536 -0.1724648143597200256 -0.069938936078149549491 0.25689334102386685021 0.17560358387398256053 -0.031851117200633563553 0.27929961468097108668 -0.048169024533038735936 -0.13403658957866393386 -0.16930010679705986831 -0.18256485229016330973;-0.12910817400429491775 -0.10298188083169176887 -0.050525755163436276984 -0.30735168076077090671 -0.19862290594170414759 0.14780938007772356779 0.23492763464653670935 0.036202266409244440726 -0.30197795176693453811 0.13610344719729625118 -0.072206308372563712816 0.084025631441955142553 0.079579484424357971317 -0.1488612219193716224 0.12109750686244666329 -0.054538301243858236522 0.056004820341136768436 0.032263214278790877665 -0.22090619814338371962 -0.089880643576275898177 -0.10047664749242800342 -0.22493072038105499377 -0.039709947213248025788 -0.077988112413090018848 -0.42068425643485918286 -0.053461710684643580505 -0.18679472239984926119 -0.063487269420686276433 -0.35431388382692463601 -0.17144607170375256167 0.16147885562911770685 -0.14206324709933496053 0.076670508747847365694 -0.35392048856620883512 -0.25868333668607107478 0.23605803468274330625 -0.20849192358980481177 0.0037519853224409396159 -0.12895513245906331523 -0.1852747166042132132 0.098654019691718441987 0.05717133578117403192 0.18703644053179299678 0.25947555512477932238 0.40443642512141253498 0.027693494776340466662 0.147767842810627964 0.041430423825132629834 0.15648433710099576843 0.085189392007006786711 0.17545118175604329513 -0.0884366025476546469 0.10728093445807232453 0.012016172190174968099 -0.05847726845936904172 -0.28779142749459712958 0.09499786061058386466 0.13519826991423924967 0.0455182610561273987 -0.15490744941792797262 -0.15780781873302832108 -0.39433608509999029668 -0.2710631084938868729 0.17394200983625687784 -0.27435037552237068192 0.19378343782584270261 0.12732701807221347146 -0.032540036324316054528 0.39502094120081276962 -0.26576405415316251002 -0.10320376975099236627 -0.024843130742513128834 -0.025110681712944372956 -0.18442415633300537903 -0.22680059462029042439 0.051278398977242706236 -0.028577735154457759026 0.11165875769675306928 0.21283084575328109489 -0.066373415197206131477 0.13095136523434583453 -0.2061814902293928331 0.10997083559876236203 0.19293510428276625102 0.19935069927414533764 -0.068593171419505452602 0.013634969765621620177 0.2135004299059973798 -0.14052089011410748287 -0.018690825782438157121 0.22743429051984848099 0.1129119479607584714 0.26372487124692695071 0.15286213346597574136 -0.010182225769048047076 -0.12121903891076200865;-0.17877559367554032854 -0.22527997834629256979 -0.16591214006267085423 -0.37967658763451023196 -0.28540383997031293362 0.08926699214345348854 0.068702508410698026609 0.096992850060693885927 -0.0028515450616710341994 -0.014560327283145782507 -0.027362925564620471652 0.085576813708316781804 -0.12891226184748394434 -0.25901399995042950763 -0.11917703765279617778 -0.057462188118348640764 -0.068417750547564756824 0.058795229427639830733 -0.088867229047712478773 0.052644540128571552795 0.27129740362485871286 0.27414495074079231474 -0.095626302510732411055 0.040220042025257092544 0.11825535780096270433 0.1686838724861410288 -0.11181234891058006164 0.24103480042448358067 0.062253711573052913919 0.092501692824601855492 0.22039426844549803164 0.098277811056442745952 0.061146881328269085676 -0.022978518245378325158 -0.11519263126858743373 0.11357139412144387491 -0.14012370117884662135 -0.16511721688344185854 -0.15067445525447406562 0.29378645712640022447 -0.11935409869715017661 0.30447711057078469254 0.094227972362660186723 0.17176192377610841056 -0.11618416131337142017 0.17498163883143735831 0.075040623730989866602 0.1231212157264489071 -0.0081900960039479071134 -0.10355234522957393328 0.088150326418965072039 -0.026238254843795803112 0.085240417144848090736 0.20141159500389749226 -0.01715266085326783152 0.049972514105136853213 -0.11343103599318554719 0.14670103626290653676 0.17573827239360673147 -0.35121875956073000946 0.057743191092421521093 0.048656741632564046163 -0.054732135379408158871 0.11816854427588907583 -0.20452361382927045086 0.044505746539439894338 0.22896963480561835502 -0.30903010524535801107 0.02977549684463731694 0.16686128637826003196 0.15345191966556287477 -0.056746735686471400095 -0.22936754395841510434 0.068211842196013477979 -0.1459290325870075955 0.16825136384616790064 -0.0059684446800234670569 -0.089503029934257100075 -0.041961315750192705598 0.31416193280066129212 -0.30813827637282853456 0.17202626186467021019 0.081847287879037736169 -0.13999631699947209795 0.099742593373350715846 -0.13014271588085887799 0.12520256544157892797 0.34926932214114203568 -0.045859857163865730412 0.069169515968007008744 0.088777266812376187666 0.086616456331317662198 0.21741917058120177608 0.21592903240762487127 -0.16750703626336160834 0.36092627600407051203;0.13353612698926592417 -0.25517170156851820551 0.092718212204804015264 -0.31059277180468924939 -0.17711308974152203954 0.27767980382298135256 0.076708900814370789556 0.33142822708300934131 -0.040227377337304665028 0.17620415683603538048 0.063118021052661441028 0.21764075316005243588 0.14081568181463155476 -0.048984270228225788857 0.061375601914148703031 0.037837317863412850416 -0.062428577853580503876 -0.14555570006635973335 0.24837741914620017902 -0.24601608965298743525 0.051376060435886598821 0.1246890049592494637 -0.2963594506691459296 0.2067769661190531072 0.11468551442785301919 0.25271571564070588467 0.068950957799964407435 -0.014777654321373335372 0.037856808502493441426 -0.058880602035979411057 -0.26449476869740207174 -0.3446681791013833096 0.29138373236917453069 0.25415292991278698453 -0.2161551320821141764 0.11664937567330666002 -0.16253834870413630398 0.046397122864976839129 0.18710040594968144201 0.073777829676592146524 0.35083809033659535404 0.32842564332446366748 -0.0078803883718305822725 0.12259388673538909598 -0.30505967767105163224 -0.1089532896950987928 -0.3199195152200460246 0.041952230240664738214 0.35716977109595182682 -0.11041505803294220101 -0.041500266641097502407 0.364976864572988835 -0.14601229337319254764 0.37818790050626299726 0.016293453971240556138 0.058718111231578745679 0.10570612564740455852 -0.095834657349088886447 -0.018901035335704908374 -0.32143431640542724503 -0.0076637466025231667024 0.29334335027324204281 -0.012077623817018505806 -0.17797438006432977908 0.28193261854028101032 -0.4511941758554826043 -0.50365057255788991952 0.0013238139521688377723 -0.51395363109648006805 0.10511174792955813029 -0.098374547703079795458 -0.24149968196341389803 0.25580839823238277209 -0.17955772727958788093 0.13652247489803617797 0.56457422443659321942 -0.5026138684751684238 -0.46803907037942915625 -0.085113868839058651194 0.070351314343636908721 -0.35851240295227887467 0.0085612546686745540081 -0.17349697099862981808 -0.30745928406928196841 -0.11975808426792899919 0.065030738685857569781 -0.38887944452589062738 0.14645937614450249553 -0.36337266840636617271 0.16472679272214862944 -0.11246871940159072767 -0.11611124771497743913 -0.27437016837678523951 -0.31506739436811537214 -0.10321476204443605362 -0.45742252423177159892;0.26314883963960350455 0.11032513771326971086 -0.17448534157633552311 0.24261840247143504068 -0.094095788487297576941 0.2808539460078375849 0.19229315177846822982 -0.19353947026758419603 -0.14252758503481885444 0.26292321959831882472 0.017842340554535689873 0.067442774710970473939 0.28055815195622663127 -0.0027848875458936668548 0.24295365145176733845 0.085717633114113137016 -0.069483324860898421083 0.057942813729082831564 -0.32242101394600730657 0.22368579526475187991 -0.092975809621554675322 0.013320079201702649668 0.021405751617033289685 0.21353549080134093252 0.14635550436803551611 0.21212362594036640595 -0.06188784378070679576 0.071741781348022989895 0.24627137129624293577 0.031531059073255249259 -0.11068823664235204196 0.067953532363046742493 0.094422068658500724059 0.030940442154776086336 0.30238308007436359715 -0.078716805704062114968 -0.20618364793150364966 -0.18431397361983312133 -0.27005900594660275926 0.19410667846043705431 0.061388402394694618902 0.074363579611722616103 -0.10044840665911541899 -0.024834234756660567706 0.18216004049216941163 0.098937827762901234263 0.18255810726122870258 -0.287704472542167633 -0.017024859823365229988 -0.062702359066668725274 0.099161507283651084688 -0.15826203727177090563 0.065135550642490089301 -0.046758687980630653236 -0.085943545536325730017 0.3338455272814170316 -0.09401364107977577822 0.13773885378618472286 0.25693570920613445496 -0.45989384531965066261 0.26723299169704162193 -0.044861820553094358677 0.19827229679766028569 -0.075918609764368136239 -0.13900365839173592364 0.27814549138449773391 0.19652541044861515651 -0.37485857975151443133 -0.018192851223171189329 0.32742564443829552667 0.098888345689724460597 -0.34848504443951039411 0.091903131350298969404 -0.12137181115752161686 -0.13197250762783865885 -0.0018087588041816628215 -0.00046814677177856338017 0.044512500180557426632 -0.32689906765632770203 0.18888644475498739261 -0.0019911748812956025362 0.17904676842325259467 0.0065509413889070725739 -0.1333971913173361834 -0.013060603782185226801 -0.10313088573190497266 -0.049202678455140244629 0.30230137255327854673 -0.18556453857374424765 -0.23146109439467088542 0.1743642664872318282 0.13322544408226921764 0.11748063553938054016 -0.35383175390236643043 0.23907483287308664566 -0.077612377636456161834;0.19735844803543112214 0.068079078926029684693 -0.075575247224872077467 0.10783628551710021382 0.20919833208239066447 -0.23030570732500571518 0.24703706467578753769 -0.075962663197555332917 0.039630392965466970656 -0.050570010154132621905 0.19927730445743677135 0.035831638067106458267 -0.037895902482950348522 -0.21441529557963368013 -0.20094615655068390203 0.0031049641602821130906 -0.0080764448817644066136 -0.15940126576072680131 -0.056768633239666951851 -0.21021795858606415197 0.076462193100292633052 -0.085167450346121928439 -0.0087113462454018082692 0.16659444297211803421 -0.23990469983902423801 -0.032469662665414379676 -0.29333853084026145774 -0.039496959788805359459 0.004042110008622889529 0.0037166718198092260975 -0.13684107382038143697 -0.029650729681192256049 0.019526529289612994111 0.10609022570410735209 0.041470809069219342902 -0.093422439332657619682 -0.31825427535209738217 -0.089746724736231922592 0.15939735857693893006 -0.41874324381184641064 0.056357872853738409658 0.066001628965981190555 -0.12405638302315023791 0.021687123450476894493 0.2139694761748567875 0.034649507864478262809 0.14279928534763611236 -0.034707476517625186763 -0.17521981542503464735 -0.16208839349908427119 0.19630845629692733612 -0.0085612195958306505639 0.12815817297333284563 0.084302750680671917349 0.059916322610691061246 -0.18111110211287625993 0.028528534958074391881 -0.10218682948669265131 -0.01852476638139727988 0.25277953618213649944 -0.16986556475642536346 -0.15772713982888730833 0.064823040085189673198 -0.10393732624506235585 0.0037915247746013545221 -0.26070289236622179452 0.0065516355866484425954 0.12210565216286099754 -0.15431350575041746787 -0.38477290807761971303 -0.084423609160775681115 -0.43909150406348840256 0.20188664622039945162 -0.17004621506986669632 0.058034016728211165748 -0.18313285408576251978 -0.22090649917543606073 0.18490490300333750628 -0.11138766283989848249 -0.34076458720130559099 0.02135568215072747994 0.11851724628046854393 -0.2215974537124782151 0.4341461731161623816 -0.10743278427736020764 -0.43300810809837891879 0.14286175426164818281 -0.17125112161866651306 0.14658573344346265133 -0.24468524250141143739 0.10792154880479644385 -0.18059269782811279703 -0.087238707686512942385 -0.01975395828113670621 -0.42800757826600976941 -0.78770374088829930859;-0.091158977272215627186 0.012259943448685662118 -0.23226386966326564854 -0.09994723488323380145 0.21512755467307198565 -0.10736380945308714174 0.0821551315910189206 0.16760341828958022492 -0.20936719341454360088 -0.31043164637385789462 0.017457337966101823395 0.12255521952217697523 -0.25074171847446086181 -0.23231789273540023877 0.13242428459496036197 -0.024380680010934331625 -0.12354261246113260042 0.024130044359344644117 -0.22684938567451565228 -0.17312404877656112356 -0.20170378744673025939 0.16910194826985883165 0.29061553767924858116 -0.23140125902583502659 0.28630012012652011899 0.077234327308381159338 0.20172258602150999751 0.25098247439636361955 0.17004232847206768309 -0.18314137938579325149 -0.085265709475392512107 0.12131860424916303398 0.19711426600814202503 0.23044654990639887315 0.19436363552905253083 -0.25573490731887243976 -0.27575625875812115329 0.080019983286932647171 0.25073846943314875846 -0.099850661765701939632 -0.15981776885330678528 0.14722535398572683674 -0.10010565272498921086 -0.058156559641330853039 -0.077923625046186287268 0.12970201826880334295 0.1721255288226928859 -0.1355431150107119509 0.017248194600903030138 -0.10325891906206180471 -0.10877079642219146527 -0.074379974564314832453 -0.059765204049108094919 -0.13518646317635527043 0.079196176264110323961 0.023236945614889439882 0.17677778853719480767 0.029987787215850391503 0.06442351016044298162 0.11421752038177555855 -0.31563747564904642839 0.13408065340784405817 -0.088820999175553166927 -0.28545464513704277287 -0.17372658987229647187 0.11767172270103566645 -0.23623535619243635209 -0.073880354658607150231 -0.17154657575214571352 0.21438206804237625036 -0.20874623103272074709 -0.25523706935060147538 -0.09898291679420127831 0.11195274160255613838 0.062162955777000240831 -0.0095749832278171319311 -0.036520974842253417503 -0.0004773617801167033721 0.23291482810068767084 -0.12235537858440251324 0.036853238083904234224 -0.13574519020568118211 0.012543796760952921621 0.22969899258791767749 -0.018642543561623030335 -0.022088353257711131755 0.20350300769855511618 -0.050517547418058597608 -0.022223499656173373307 0.086900772410946847124 0.059138072689726643716 -0.0022575194054729715368 0.02405022961760832842 0.25667346955014158638 -0.021414181312457002127 0.05910342529425085395;-0.044445397486121591968 -0.09519684749416074121 0.029691389892054428912 0.19915133954690961149 0.080230545833377520104 -0.33531645782500285602 0.096955923595047843744 0.078139054056811180216 0.048254309507982387495 0.26034852352622112059 0.17231374368646815154 -0.19596010651463291463 0.058211780714574251627 -0.023973928726407103124 0.23710600769497072737 0.17631295627067133935 0.15980337710621372871 0.10372191153825040255 0.33390770136051328709 0.28526901347031485834 -0.29841936074423597303 0.2731447768201256121 -0.14620345760020483916 -0.3380970759922592439 0.098891299720083827851 -0.19265469061473525225 0.029558511759668521651 0.053656127425256008867 -0.031836224353044458024 0.043609635092068277373 0.08454941697463941308 0.0051527332495033602994 0.19983344172580128073 -0.032055038248728823236 -0.06672468472063371181 -0.1401563402024296745 0.43160993749473514081 0.20159992147792407668 -0.14996586013883253519 -0.084078787236129701177 -0.030834112386643530018 0.0051250709901290913625 0.15211425816273135836 0.071984302998605378954 0.039929217114310321113 0.03549176056935653828 0.01002055705157490692 0.13720314583554973908 -0.18417269065882330148 0.079038581979951519352 0.0092825857257787941501 0.25522544424362114679 -0.13594225545613197736 -0.041861818454675181478 0.26800788319331114717 0.077733877265746320617 0.12004330119070691363 0.069116232805185376376 -0.26312458110330910754 -0.044012436218077245764 0.17044194147807062434 0.14175245027692301436 0.32767298749154816218 -0.19827586608915109823 -0.068989591516885856448 0.10112559187981437492 -0.26710510259548569945 0.16378560514670811865 0.13221960950500732945 -0.31599819549790331141 0.28687927776279459335 0.11354071056924630589 -0.15211135726298050108 -0.034139862070289149487 -0.075952506562206784091 0.10311031083013040555 0.23318165069296695191 0.47147899003968335441 0.15949150999713568311 -0.19747117672144703926 0.10709991146403145812 0.13422610177701449485 0.011454088979780490537 0.25729205227172952108 -0.14469086913822842844 -0.22894945098090357938 -0.036559677263286710636 -0.12766655316775296636 0.25226263415425081993 -0.29494819780562420153 -0.23453141250408821028 -0.039271677779734663616 -0.36393380018758991756 0.095623771306576260676 -0.16758928037751860685 0.17614762293087316003;0.16029233421741290178 -0.014690202128092149161 -0.32293462225985397618 0.057035615021860434914 0.44714111442739074009 -0.073503072079742715061 0.20556428254490538565 0.16268322968818346719 -0.23672407640382081562 -0.14835580926911159927 0.042905869834225937587 0.1883244450411176163 0.15749086989563668149 0.12796218722061589168 -0.20412724901969050983 0.13241862228259218548 -0.34990396737106749248 -0.011317541620334107405 -0.023577847393925509267 -0.04261964201476795 -0.014769805953358989409 0.068174647664896739774 0.022942650400239739117 0.052872374626228284267 -0.095138126397278560686 0.28371899740822614788 -0.28305913473233201838 0.21004440848276909048 0.43922848924864388298 0.22473904966144919726 -0.15114322262809593012 0.077260493257278406443 0.10148989320773635359 0.066933997573414699689 -0.31292276500099042158 0.21907525149231130146 -0.23026019915809270433 0.19144168855633192372 -0.26066762899749351678 -0.36862717239666525915 0.0055069369527092756553 -0.098688680017082267004 -0.079645677155153749016 -0.27925404263430753105 0.30610030560193363103 -0.0098823403327116619149 -0.51265797720836092655 -0.016991419314276501318 0.21830331784205875278 -0.035531796985087793495 0.12620449890960017125 0.3626445078547314016 0.19997344704368341661 -0.076598472718485258182 -0.035611181011114600992 0.09887990617789119141 0.20889180429453424459 0.072973797002657020405 -0.19972799147677725018 -0.0096749814396584598447 -0.096219241827699725222 -0.16220169975492607084 0.086321454191679067303 -0.077815712135051035014 0.0033540101766211753015 0.17840603326476014989 0.28487140015650369573 -0.045935056872883843482 -0.092438240250585904101 0.23824691571291201075 -0.042890613370377132785 -0.28928987543105849634 -0.041697429955225399911 0.15185313088446103502 -0.2113799346849849492 -0.0078183932337435192023 0.24888851013011625835 0.025381259716094610457 -0.014690985994818514179 0.10018939497461928911 0.31944119887490768361 0.054855203323663302706 0.28935935131855744507 0.39079466958686054356 0.31565153612930230143 0.45411291837664430338 0.082298100761132753078 -0.25505053017631729162 -0.12191038917579813394 -0.39750237396534554568 0.32495898079555540772 0.020698863612318714467 -0.26222219379299288589 0.096134512985940140384 -0.017675022520180248137 -0.47805506516302298525;-0.12526115108626789674 0.12511164876636401977 0.38937814270078441314 -0.032087338898403143517 -0.097757284774133160199 0.019094286386398619942 0.13374769182132320577 0.10462650333658488067 -0.0062307990655028977836 -0.22187848307447780027 0.13689732769629900377 -0.060220622740772673798 -0.077989179894637383761 -0.086375103899487465364 -0.090355704654194290981 -0.05331588793903262874 -0.22022950352730133461 0.18174150278923262292 0.10941454166762759614 -0.2559611111763968605 0.18254686106145925906 0.25711165289576259907 0.037811455038454594435 0.12152151923131623845 0.10247905716408978183 0.15848834356493210485 0.076524120330527078959 -0.020735184561793653518 0.36099730547362085531 0.32144646469524612575 0.030911789095000571925 0.1347504086030844872 -0.043452683382604717632 0.0060396900477615086261 -0.016596497070689820302 -0.02722856398885262208 0.13520249666801911759 -0.25619661049331815539 0.19358721618960719746 0.15978215038612483823 -0.026311034916172110903 -0.11824228694570181053 0.091818548860102336406 0.17315200310423892183 -0.017315098605463673243 -0.20519861041237380528 0.19390769774684582516 -0.22292847396434756213 -0.13028006018579590952 0.10943125721033247766 -0.073813269374833193059 0.25042100086879603982 0.031358682738176220373 -0.26133455281797385306 -0.099815025399179233001 0.060666198164711158947 -0.13423186491826333278 -0.090896045581398923763 0.17627018252844509072 0.18477334020739297205 -0.21701639519698623371 -0.19413845897986145572 0.14057532431868521861 -0.10674167973070951276 -0.19680570407688155465 -0.066371439680829591445 0.0814455180134718848 0.035145396728432941325 -0.11437683734345158171 -0.43193791166118739033 -0.1342484862615689889 -0.01618789077459676512 -0.10857216169763425628 0.13275435767786603058 -0.16933722725339081516 0.086178197720142152294 -0.27018245106926930266 0.39763138058576430467 0.3109136893861582096 -0.37989814468773341893 0.22934837443827937875 0.29462238825194370095 -0.12709872513173911535 0.25080596847114872139 0.14633928788897074269 -0.11024516362071824782 0.33845485753197329659 -0.17290132393356166807 0.013670512110981761222 -0.10784970152081642392 -0.0051622019411276471104 0.018438841868041452171 0.012093470393743276092 -0.2010976821863834918 0.1467579127477931511 -0.29314870679741428239;0.060665482654331109869 0.18025237352617154429 -0.19646182290767613687 -0.0015785504690208423083 -0.084471966867900233344 -0.057488140485958266757 -0.11849028413151514727 0.22941681595833490759 -0.064826952695697256934 0.058114841554605937979 -0.15544906355524651387 -0.073658909645602746452 0.11935942404600942413 0.037542088100538974216 -0.18025629759845851474 -0.15115432105167328491 -0.039788283002251637055 -0.11305657730421386775 0.20168256587217989195 0.067445172529015745555 0.18486601370797345334 0.24177185012609009318 0.1051825206225329018 0.21669825120951521913 0.12577248978344005015 0.09370462102935210591 0.11132526343533796775 0.029748444231083547018 -0.070613604998731940854 -0.012725088142846787201 0.10679938465775849765 -0.15878130307375712404 -0.0030513813691374408119 -0.043278038393307911857 0.08175496694255574015 -0.0006522585630206693269 0.059758565357698426035 0.2401643406100520961 -0.092741705310452351996 0.14382745771977978322 -0.27933283814681098001 0.012530932918394282333 0.20185547627882557964 -0.19165334349806800729 -0.07138547129825463522 0.16788962714581379121 -0.029303870696052565503 0.32638709705419693963 0.0084619553943990656608 -0.1590097152679796344 -0.24518630630557461392 0.19935562843668305777 -0.02939893999740853317 0.045525508170384441919 -0.043319469378978153751 0.032563138879168736228 -0.27227981900254144554 -0.054127747276331392157 -0.11950941453208967225 -0.17419861000867348233 -0.27940086560209120847 -0.12619376302934845469 -0.057996161306144988767 0.24320130923758967456 -0.083551600878427390029 0.26520879802093072497 -0.11391492477201997646 -0.0047336858386694694381 -0.066271175489431052852 0.19069052489636592607 -0.12555382039351906109 0.37159959535360326255 0.30209374085454399061 -0.18561164185366732515 -0.017577665093147478576 -0.089152324619604886302 0.12270967353795733668 -0.1069334218730517011 -0.22753288976204116834 0.12017324059645630163 -0.22060227123686010353 0.20102051686040200984 0.039277891549520535519 0.18245281591218456829 0.07244257118136424034 0.02932011467372592009 0.12313907779862000302 -0.05854770335611833576 0.055860603012553640412 0.0074148141469881356791 -0.10671174854192856662 -0.20406925800361214174 0.4874647645238656124 -0.10603467481291016516 -0.15347541667526473641 0.28953551131049870548;0.2946341913664758394 -0.29457360983527591802 -0.13898008818767024208 -0.048672221455847770877 0.0015366001078589994547 0.023715002926958668461 0.15965753792813994205 0.068384335185986022676 0.0045869629506672037964 0.058809444975527043475 0.27744322711725127872 0.063763708469947527613 -0.38397058999942457191 0.3908547140916824314 0.093234224415339600478 0.18758737230136007801 0.22327525435519532393 -0.012224242051606885179 0.025879140972341167781 -0.30273118666955617373 -0.20112151546719614359 0.13452639300971908076 0.30498660764885876517 0.068355022455242359092 -0.21460459031252640538 -0.11386942211502215638 -0.14960403659636714591 -0.0021175512523011223373 0.23241816637809994961 -0.017496392545677190433 -0.16390081844121220933 0.17821257522705966081 -0.036705884774353804423 0.10055468501698014427 -0.049287077705538272221 0.38044020854205534699 -0.12130996493379177237 0.26380807190680372054 0.047992985768461879359 -0.18257512713403287186 -0.20391972594881141445 -0.43319604089334579067 0.072204680603720108878 -0.0087719498594496549126 -0.33017974777598424474 -0.2570338869149845773 -0.14621923926416849349 -0.24373244009028693924 0.30590759244522525151 -0.16826855548149755037 -0.189698461823401332 -0.026519635542217329799 0.02586534322984634926 0.095499608682239223167 -0.50462615685231582141 -0.1117773513090678239 0.065229064932835353896 -0.19455748454747914811 0.2965008651013564811 0.25235017835747935999 0.29995629955637798103 0.10898667106506905455 0.096021651790006143368 0.084851750512849086205 -0.075979996436623467582 -0.41071260988040730888 -0.41125884274618002001 0.18158520865341545858 -0.14541244344342990624 -0.25514901173164306059 0.40882189187587514301 0.078033231271951136732 -0.18216712827766745608 0.23968084105949119533 -0.0018002972615906442932 0.0017891408065064673405 0.059766124921325637642 -0.033794309218391646588 -0.27597465095289741566 0.24513629068484382723 -0.20578212516316990444 -0.29083138024512067421 -0.16066531521865193288 0.064934510064445047361 0.29330929303538488817 -0.00270099666584355802 0.067306540365210762444 0.20768569187926000374 0.060431606729609524398 -0.16668263700030072627 -0.037520903643024162977 0.0099631040778379118678 -0.074089159428511339178 0.13791279439909590043 0.076258594954317790449 -0.19219030854285315546;-0.086110673263255665955 0.038365602042284861761 -0.063193384887263948091 -0.17885984492039763705 0.13161730379407912683 -0.0043901888644811955589 -0.24445752261099573666 -0.093676397448043596805 -0.19913911835009209805 -0.12532232785919700246 -0.24781799047201755193 -0.21243771011538081783 0.067321989654204800191 0.14069941472145827688 -0.058312347760812198449 -0.20718232814094078575 0.13078449490535262734 0.045594432432905493413 -0.025801190755394814297 -0.064113895278209293016 0.062249515792843164441 -0.20200692758178209751 0.025459023826898220799 0.0010914606433184853313 -0.071077724387813831508 -0.095547819315901519333 -0.057093376982368250483 -0.034530486240253684127 0.15198138300779082122 0.004239635267628433582 0.12109378110180293864 0.021938315442513896952 0.23532181709517166479 0.18690773369036095541 0.025105675398588569308 -0.049546470751234403251 -0.09339002984410467445 -0.24916002063867742633 -0.1928247856926404713 -0.3602638383361662644 -0.082515133564404791189 0.30255381299678274498 -0.076592627693099324393 0.016634991248652461482 0.17500546807343481115 -0.079689035874989155861 0.12988748565033131355 0.19464584476989540973 0.029214258427398904355 -0.2168876731635424604 -0.11541508684833273746 0.10777670778064039891 0.058918395914484660014 -0.067741311691514843885 -0.014510609171061807782 0.2233569666320325553 -0.016934323233358965222 -0.0057873300959252419601 -0.21659032752585832826 -0.19401821521615469912 -0.24080599516229334034 -0.18895945008974565638 0.075686248182461945966 -0.14220892012864827514 -0.026570190689516146043 -0.21402973917750531263 -0.36928331654306689735 -0.20802571895652186007 0.023191527198650436353 0.16011821461518085941 -0.0026029696098671980913 -0.12742058463543759483 -0.11555904487949096582 0.053208577829792345903 0.0461890440369328234 0.14589121071797298002 -0.15122281904797049701 -0.057211772120137248387 0.093434502235380648139 -0.3043375443059726515 -0.16721289497007341129 0.09606726746072490053 -0.082773061751187038126 0.19036397268446927922 0.2149928384746773169 -0.080467762489393926395 0.30069227355253275169 0.20194662095404208868 -0.15649919481006158151 -0.18850327724466220403 0.034595901825991023926 0.0076921903548481645324 0.080420338746770889116 -0.13598188968721733327 0.13161810989617120371 -0.34727165071685128783;-0.15231599087194397368 0.31756185986371515684 0.014700310289182491608 -0.30415090316501353085 0.27636302142034374629 0.13504334157455408216 0.13907442010529527665 0.12886729657941631277 -0.15783695882349027539 0.17678056748271550602 0.054083204476778931613 0.034761132237124084399 0.0033947336805425247161 -0.0055746588609407411383 0.29939599788237120093 -0.019582141826813524721 0.05557020720788691942 0.14499776882436923864 0.047513314415656981993 0.25286314638170437341 0.14734077947261214891 -0.018885326046912249282 -0.23045553176400759843 0.20426313759983408258 0.36057558645438614331 -0.17925648610884503675 -0.054607195435547636886 -0.17847698153972596513 0.12172394747387504932 -0.0049369816545915858053 0.27598727190951116706 -0.12563889048256052239 0.34897250570581012097 0.033408289176168184942 -0.18955261543298135285 0.24914441190006328397 -0.26486486726738289743 -0.24543206413430893043 0.066406457437890656359 0.090808553099585215262 -0.049606454712483115388 0.11985824288696977913 0.10498556323709491711 0.050042009152098845814 0.089483359480779345319 0.20456495918961817293 0.10879524220517032551 0.10816582806842009457 0.30396919630107105403 -0.12661271349171920875 -0.23868131720722063349 -0.048601928312518354047 -0.11339446751438773953 0.09684440721828325993 0.11497072434036738342 0.16174743654338408216 0.20525616821221934205 0.0075779289315046670719 0.025411196211025104119 -0.22092251806081100729 0.029311747193415088608 -0.15310754952586239086 -0.02512175665148601994 0.14040969935602184981 -0.16104223139976528434 -0.089867792156461387409 0.13342718353059682124 -0.31218964686452005397 0.25198424087760901147 0.036576270418262099571 -0.065423564625926688976 0.38191582706955051751 0.14495111594471526972 -0.14766623979197207595 -0.090732739063534892376 0.00023220036536057025479 -0.015317135360905655139 -0.18241952403957636952 -0.22877637028394318119 -0.063655296143457745783 -0.12591457231468708433 0.27241427989810873544 -0.045172429022661476916 -0.12242250199328792715 -0.13237339810150816621 0.044636009299363489655 -0.11119977020495463993 0.063360235881346815834 -0.023092999339169223427 -0.012026373314370685658 -0.14833496867696141508 -0.29082492158381545444 0.28140140527881291055 -0.062215741213283902444 -0.22228533755637044922 0.3991879915640331733;0.13146687560248301874 -0.23736295628930270674 -0.33086924927766414584 -0.093817183811544496708 -0.15438911203376909365 0.017848427971698044986 -0.033159705280428761198 0.076944249862040639543 -0.13755651102504562466 0.080689601341982275517 -0.1014660347102693122 0.29342776207981258185 0.032749178854447905107 0.026268928922359574551 0.25687614289921145705 0.320508195633574966 -0.0036535010454735181509 0.2057770496581244335 -0.28003593392240205828 -0.11619403267295028148 0.25457612775460075616 -0.25340216601692278076 0.13276824664919203989 -0.0065678965657329675676 0.085450876247487858595 0.034350424772589094324 -0.25743362588665397173 0.21143654350224844185 0.058359262544571112452 -0.268959733120918143 -0.25655117478672984088 -0.27670393428840395211 -0.15549341956488410554 -0.20739641633678398969 0.0029735820793411506247 -0.34849416050134318645 -0.084457627182046940417 -0.16648819221749761033 -0.04444761854979562693 0.1659609900070908306 -0.22020073506914572548 0.21644281741997320467 -0.087147523732527445994 0.19169174385272927386 -0.2383328549924211559 -0.16124225689692853192 -0.19103848129965145253 -0.21548933791268373716 0.26437658803322156009 -0.18632620470412444846 0.022406446281626975214 -0.12402266720115126541 -0.021060545934169970506 0.15674281708212814412 -0.10258177857112017739 0.31165891676258417053 -0.094042384042410651079 -0.27175364958244779823 -0.11932080154738126943 -0.28109312735352542933 0.17635832282634297807 -0.067700750726957234504 -0.23080289680795623708 -0.1437810951749226851 0.061236583913293271553 -0.16840593169462142464 0.024214957494383390624 -0.18987960119979074847 0.017610181824160103803 0.12950121625650734547 0.090806965338763812046 -0.064496976300083691536 0.070392794386842094667 0.1284838731813521262 -0.061578565649288659334 -0.16678074090451328049 0.12761589186522123707 -0.11442681260081200012 -0.33819012549757654362 0.10287843842940849748 0.040443049379234131957 -0.33790853361589140436 0.16745150996494370665 -0.33975333741006052968 -0.22918439044244715008 0.21124327824316063706 -0.098159890724299064813 -0.28715626078698608392 -0.1543202297051738392 0.039603517883472244554 -0.11104192193658103671 0.011466547584981806596 -0.052308753527447605924 0.1238282561690506739 -0.18573909654563156013 0.028514884740902055743;-0.072370210001590690174 0.086191231989323768836 0.11499414569866572844 -0.29532656417530572801 0.19583264940453418146 0.12876533891397037856 -0.031814956109672935802 0.25219268613473433405 0.055853678973397734298 -0.025576328358777180444 -0.24461124381979398867 -0.085779587182505528942 0.042032297756504133357 0.15044594024030322199 0.051965565879650794934 0.32505827954788829581 -0.26568926846666268693 0.27220566923941313942 0.18257609062954210932 -0.24341723353199926083 0.19755341861951281057 0.23336983758530044364 0.19238921510742221233 -0.34580463615161188828 -0.027998085204661980752 0.059042673735626258202 0.10332685199867092107 0.32001234121761512608 -0.051027300346103622586 0.094576896106038602086 0.11016181804309481407 -0.2482628521338022809 0.16527979014651494882 -0.24509147646618628658 -0.047378197984044585767 -0.1252389900360158792 0.088270356509278155577 -0.012019019525520495753 0.084808331656244892449 0.12213097973594791434 -0.061386064447486815565 -0.0017868641575518595666 0.1929736841741390152 0.2288467023824383717 0.10571183729047146926 -0.18862903295680527593 -0.10365540975664015722 -0.3591955648636714904 -0.15124769900847020998 -0.15077022545313936708 -0.10353021725604158454 -0.0054502361229812994192 -0.26516822745671086992 -0.0023179938370290640789 0.25806230267672453094 -0.29644622434511691544 0.22467440360624008067 0.099271876246404336386 0.26730184057976030809 0.20516461730799770424 -0.049313801484369805539 0.22533590481712595377 -0.18055759320352551822 -0.37805275404730764865 -0.23887981925178544684 -0.164637854588703475 -0.034282877218876850467 -0.13365871986066213406 -0.1790581959568467163 -0.22983457073222526845 -0.043015156910340003604 -0.28195171743995950386 0.17506117037200757958 0.051376678524311575336 -0.53458470727562001912 0.11414854552827397027 -0.10476103866035164913 -0.15803699292957704148 0.24304754532154665414 -0.041396420464730111777 -0.019943561001237258834 0.1227784194948377261 -0.092920896546234824087 0.02706586420925350539 -0.16978359063329903633 0.10012649020116891341 0.1029004566885730193 -0.09848140779687511448 0.085177667044080210279 0.061531460727644371467 0.2486904598973467273 -0.17888557836306340221 -0.3655958210965000732 -0.15819295849163134138 0.26887856116422170771 -0.24655042809875540866;-0.073388038435552666039 -0.25159724657565496475 -0.045640647275827207763 -0.12960913072761778841 0.054816253196696779204 -0.10970883127051327122 -0.017816659201157783454 0.28579672860745913843 0.082105021201792929841 -0.21433033147448871114 0.26034355879889892194 0.031109746736551313617 0.039610119353540730602 0.058585830471073921388 0.28728830717260595007 -0.10974757669284036787 0.086084232327663642859 -0.26899265212485451437 -0.045808465056015990058 -0.15516693880516296833 -0.0078552911771742669339 0.2606130507947569952 -0.13068735274212733843 0.20189795776792407445 -0.059836813164291950684 0.1247550852928743792 0.079591917912942219959 0.15554835368945177376 0.15822921862879890664 -0.14939963665894240297 -0.19226956883859278036 -0.14888595222444397925 -0.27508486880628230109 0.0098431826947747505518 0.014507333928358647629 0.26786286647567225661 0.2151876277746186672 0.21469125793428922577 -0.1989672979803039643 -0.14257381085656486985 0.062044791866160207972 0.10757253722106907556 0.0015084811370941371422 -0.20986739086184644232 0.078102927911395961247 0.16837904370996131798 0.081725287261146278839 0.037026795978342005866 0.13099008892562011286 0.13394395853367779825 -0.23001220511281689207 0.19385446419596261136 -0.1904318833872324368 0.10292303376154887662 -0.19122558327267585865 -0.13344875005089265607 -0.10368073955034837197 0.24419960195300940975 -0.023111957436725633769 -0.12792174616796161968 -0.20286914869368849468 0.0051156453987827258528 -0.16795792547691490437 0.19818056850042328754 0.19342853129840867354 0.22993196867091544866 0.054141894133265464073 -0.13150908452876011734 -0.09501800499042467596 -0.041191979227020170118 0.14681166902066050683 -0.37329582815468514978 0.21714763459196650963 -0.050415155255073236529 0.33154017245142897163 0.24953492965729232034 -0.19381573521131381654 -0.34992525298272103562 0.011690300484403174514 -0.017029549641432373958 -0.12007748075937227372 -0.049803979495175204617 0.086991650225629865711 -0.32825362815982539466 0.12218337206367264891 0.27053608746347784786 -0.05302966809419449451 -0.087446348239574936412 -0.30432603243683564731 -0.016602040325570794482 -0.099547004450519241403 0.37290038954401627525 0.025654508780239740351 -0.25831063980241270039 0.088888471971778001968 0.13956416336986818272;-0.0031481034777387333079 -0.18828697750863981897 -0.076573183973054362306 0.19514305752645449976 0.046813053686553425525 0.13686741081332881587 0.0089531450275157544588 -0.11431856033529348704 -0.12001462544140996391 -0.046929053491099555206 -0.13020159198641681475 -0.30299296218892646237 -0.024498727611547001931 0.16476714606945169761 0.12658104480965359784 -0.057602359092196894763 0.21072447910046812614 -0.029273955610950138512 0.23629248182917941823 -0.13689085578463858206 0.15265466461393273345 0.063798105124063336779 -0.074824014802804636459 0.084827025227827423937 0.16031623155765342692 -0.28244677509886539912 0.09944569131458320943 0.26515752943687015408 -0.04807458925687601442 -0.094349256215422547256 0.089900952870677841577 0.14459851249632443837 -0.29719506790219335501 -0.12319911396768920553 -0.044591986283272530556 0.098970384711428951996 0.17512711669224945155 0.2316010460772816304 0.17746343598102068406 -0.0044718332447578482483 -0.047010509862942348458 0.19681342910696683624 -0.077964677506206822577 0.11348329017727259993 -0.037597540739390089559 -0.0032163583425334281614 0.1576455333515508761 -0.04228434848602151408 0.10135908493951022169 -0.079691333393115015848 -0.18944133613265279337 0.19621915303482684312 0.089924474382405514272 -0.22928633514901303192 0.23676469504540911815 -0.027330044061482910295 -0.12049428166564986331 0.010876701278761544134 0.16086961952300962708 0.021255570665907982941 0.027187419863646929141 0.025699012201763692803 0.020135355557017037276 0.29963529856886916836 -0.14846063102312870297 -0.010057751135829741743 0.057254332523990952852 -0.085064719265606880683 0.27465684658972988608 0.040446755385597915611 -0.066222760841744179872 -0.11934199386477811755 -0.10391620817223412576 0.16858918210099818613 0.29290958796668903341 0.24140726684383714828 0.23467135118585466524 0.019182531225392963903 -0.081865147092224907488 0.1414569309408253428 0.31908631792272523775 0.10361177128396316383 -0.1976077429863292434 0.0049770983909697046402 -0.13580212293559590364 -0.20056836882342321537 0.2369610072187080807 -0.13208906054388511175 -0.038839166928987416127 0.2375473784226903029 -0.14490295289331928119 0.28343057204803562277 0.11330012388578795945 -0.020764142151394063274 0.20243818595904930491 0.19590700262373531015;-0.20005326250242050357 -0.20826622407985659335 0.019696838043630968129 -0.071557230814257577478 0.19427017713912386743 -0.032494522437263452519 0.19271491037473731378 0.13351305296094595487 -0.38609564596855766583 0.22864384696489056803 -0.20835447857767777635 -0.21706547812709836576 0.18487595724055164159 -0.23969186601117389857 0.068053480738331673106 0.16486501449138676878 -0.19973379237449137569 -0.16800706458863692849 0.086371374810660900279 0.16440915734435238016 -0.16085739279628213927 0.067926427335906466864 -0.1786759323933719279 0.064810794806193644524 -0.114896624871860073 -0.24088747887403169634 0.12482076757820351198 0.18193420814212074577 0.26394817950424070974 0.060358235013637226429 -0.030610098239359478933 -0.25099109094027671762 -0.25905169052931403817 0.028503390232492705619 -0.17215041822000906602 -0.044726264138339723309 -0.188735732064051559 0.016932236944411895724 -0.2354829971022855406 0.1053257171168188594 -0.14411176649431189922 0.059012230895354442217 0.12343869090159331758 0.10224137894634666157 -0.019015550776511399439 0.07747301435094194888 0.057697640201023442375 -0.056867449712964597552 0.11371764530110828328 -0.16810934301728738816 0.039207828445778220017 0.17132915440588292189 -0.038199768961602625916 -0.38267168313151539438 0.12736171913403251943 -0.010802440484228501005 -0.27484498790892641917 -0.2777773047194050382 -0.19645580971084519728 0.0021522786951238825903 -0.020871287972484633272 -0.00025528380552359338646 -0.21320173112001947202 -0.0031932800356397139999 -0.06097812087630879313 0.090485962412298365232 0.49856895580001397983 0.12341120675705634369 0.39701269177858822257 0.032550127174223245086 0.10042193045163223808 0.0086474889606162185646 0.24486522689541004305 0.11580603633566800836 0.094325214301963014596 0.082902171081115250129 0.038881817068606570886 -0.068871461384242604886 0.16070301576765211315 -0.079719774189269856923 0.017367775659641468411 0.24420280055961238186 -0.30587121607833850367 -0.1207773076201610063 0.025151900862977822487 -0.12841032422353140796 -0.21365375945126510726 -0.12377171597169822626 -0.046713775877990595942 0.32347466532096103009 -0.18156162474789516725 -0.13771055794721728804 0.27799620470847780096 -0.10592233627757348391 0.25900298398375060094 0.20230689567537774032;-0.19025514852810065936 -0.32793457890015947909 0.1456702620519424729 -0.13226953355119472344 -0.24967595307016432482 -0.13782275698084578419 0.21092536271130210568 0.15995358957757349616 -0.18767623507509978431 0.14584590781449094377 -0.036133538875776874399 -0.12547970136307487476 -0.23924927633501050228 -0.022132295452038000527 -0.1289434589013523369 -0.021813470718250644459 -0.058131135172191011895 0.2727643432270449031 -0.28462740370563133219 0.011274335384645589597 -0.16164466726692688914 -0.15031560809159649761 -0.027071648913374723316 0.12022533185465619776 -0.0024936301629383626072 -0.052283602983152779875 0.029084084730130878998 0.034790949800116759139 -0.13972851226951632508 0.14615922966680378048 -0.070483445931844287968 0.016213992859601129848 -0.0024094498546154341154 -0.17367323651394567241 -0.071429286149561663222 -0.050114233568822191822 0.066531197228151581213 0.27639487170895543633 0.046095672081035335421 0.071069163358573356204 0.23385817876918643665 0.18533646993133509606 0.039038005571409517547 -0.13869037317050522673 0.022039644051266620017 0.10180828457181470559 0.13710050530139697433 0.16914894057283108575 0.13896020585366664069 0.12731308627498028052 0.040637541244065822355 0.078017025384971946944 -0.23524231442649992663 0.070111695636872251036 -0.26299997747574349605 -0.062303930813493328678 0.20092656309523265756 -0.067806283389424751307 -0.026319242417514127075 -0.18293354876564429934 -0.0532159813458992631 -0.078238145676031420339 0.32441698128325208161 -0.047455701730147584194 0.034722380114632057924 0.14600033722309987971 -0.12867427309484946729 -0.026281827421893385471 0.0043125718003208498089 -0.017283823617145269158 0.22921869912967879346 0.27004446823821048884 -0.052333403184900470495 -0.066727453478495804551 0.31749114390691046683 -0.19798056286597770503 0.19117427473234915869 -0.082815408147374841574 0.040072378243387739294 -0.19416096604614305199 -0.098244150837285076916 0.29353884987919331984 0.20259879937585856258 -0.078562935352572790815 0.07394240183959406576 -0.22917469183926372778 -0.13140249347593055407 -0.1296289916197717329 0.044823368385751856391 0.14528087480780954577 -0.0071222251566985831858 -0.13746730974439236306 -0.091143641286247925604 -0.014764515603269082883 0.22884136999288456904 0.33747988456595678919;0.29099861806985466428 0.17546246264733883491 0.0090788444867233794588 -0.11211045546697372133 0.29817333782463489866 0.19737913074957297299 0.12577435605224568382 0.093167413767171636252 -0.10193496865938095342 -0.12309127448101842006 0.22698712601042450587 0.053872287034589627641 0.16189856974424279845 -0.11852826264363702791 0.16747221210125948221 0.032217301177634730114 -0.33733892654817604351 0.12534550924232035207 0.035182820921399876601 -0.22564729597439120434 0.23606445765066397247 -0.019422752448425648769 0.11827289160763858333 0.16527748777862563689 -0.27745349995897672368 0.02842732446489587908 0.071151552825757996557 0.0777914289706088391 -0.25150520643147866728 -0.14154668712562493149 -0.1957489451762265964 -0.22797320664615663977 -0.002564907459267376684 -0.067647359845281779256 -0.31431585041152854121 0.32848495621706358394 -0.018879372629037195763 0.21998876491814478573 0.091944629143828560114 0.29236039035622035653 -0.30499351422428644387 -0.3125407708233063353 0.040317112827732710933 0.080216340298526714325 0.31144020092581031767 -0.096164549118679387707 -0.25150887618282447011 -0.18901456510363312535 0.16697695842867954497 0.10823546040350433273 -0.13988273976103279828 0.16540815871347230859 0.0256785110771151244 0.14309900647617340708 -0.036431088846233077028 0.061821451804527444152 0.18157045644372868387 -0.036756494784724758063 0.057499160465123301533 0.028596842305360820752 0.31036900308474579813 0.046291219101898789523 0.023725519265604420871 -0.24982697774417159109 -0.37417897119242177206 0.19481033405838121819 0.056698444940245687484 -0.012084551713190994776 -0.2582179086233194476 -0.16856555872791695316 0.22784292615435552953 -0.37948969707017388142 0.27788658106145086579 0.0026794845716175286904 0.17072828599461231658 0.11833342868477617071 0.11513072853943777385 -0.18481050803486526179 0.017680160237992327554 -0.036354926406981874498 0.0090333735424123345892 0.054138155545352895093 0.19897049565103880342 0.21849090414104005431 0.31655031681839801427 0.3308793114958391568 -0.25545511701626566481 -0.33746445165261562682 0.056105699228474553708 0.10654686939725242778 -0.0047676040028858425457 -0.31265174888815855381 0.1664810370251896543 0.29997318393788241497 0.29814097196337041584 0.049757925451927705052;0.27517874649946733046 0.17873342136594730367 0.16821699743409951333 -0.17087033857137370885 -0.20374557780567897902 0.23526698211258861848 -0.036895867622239605921 0.12150457369685203901 -0.22271434378475579718 0.0334527219958579633 0.21680080372047816351 0.096508601873041235941 0.15625046603133405099 -0.077430112586017271759 -0.21369499493550425662 -0.27338815658203091674 -0.0051817944033061870412 0.098920545541714810511 -0.15880591906669602742 -0.14684134885093311218 0.16986558566710285856 0.073658070476415302141 0.23314387659698365685 -0.10616756006973067372 0.13887888741303108797 0.2222776039874723164 -0.16588935841128379933 -0.13276032242413038365 0.049912316910831984462 0.022768314424499249554 -0.27834111447362464009 -0.15069512149198185935 -0.18428666178070873816 -0.12828934375239844923 0.082864043562370440221 0.15804353619166711109 -0.0024037547137297689964 0.10063242067036554106 0.057724087230416207261 -0.079227033521816855877 -0.1247999331256756661 -0.063421202803872936404 -0.099465883483079400862 0.18355134898420438772 0.28904129979805093242 0.012807601730050133249 -0.094550200545829923837 -0.16078002495904428204 0.15220167604516984805 0.098161840300285005401 0.076838181750835440886 0.03379366711326971251 -0.27346824238329608958 -0.08453805180861155566 -0.040056922828555989458 0.034538170820269865902 -0.092010887605435937031 -0.15682926025419832716 0.20578328801571060813 0.062407735392934898799 -0.17329866309845873285 0.078778902338004608286 0.28271390565655246663 -0.24773841246506708713 0.0020570908463051328779 0.21636516308504513684 0.24063375294989405861 0.282395585600818122 0.20917434354876013325 -0.12540522633208414649 0.38094762058354497691 0.033341290193253513008 0.0923301460713111255 0.22606351614231864899 -0.00095755953680688688998 -0.2781449013523620839 -0.14704067666960995986 0.19315149203292930613 0.030632493076463627318 0.14566923811830878588 0.31302985568550267814 -0.157962943157548108 0.10903951317965165924 0.14244057841027768507 -0.010181769789113098018 0.23959319739481921285 -0.40431375975069355766 0.082539044926915466904 0.2309354723522986097 0.23708304039249314399 0.36537536375649604103 0.041343338220958328333 0.20606495540771477271 0.073157570995425136307 -0.007863450924940063036 -0.13144253896387847469;-0.17601452727564834144 -0.18745514041327723809 -0.1821062646341330693 -0.025725114101953581308 0.020817067700909141353 -0.18963140262144087544 0.24700866896623763225 0.044210533167065232951 0.19773073560867393539 0.17026075032518209196 -0.072496088884662038265 -0.034457012319798210886 0.040375072802769848557 -0.25397607033894986639 -0.071539481923324127477 0.011919585252056372204 0.2908748231482164992 0.013777766279492176249 -0.092710149190894416971 0.23881932952364623435 0.21239903210861954541 -0.03629795396964070886 -0.14204134989158892499 0.2896262843535784004 0.17289838458622258655 0.27478101740191984703 -0.048051309286383424302 -0.044548271658272943496 -0.11887680033769371102 0.074235658025094422574 0.05469103216551076535 0.048918398652020113337 0.088719344039693684434 0.02348211819259624078 -0.13414448313237775645 0.047887631223321631968 -0.12016166506367954858 0.18090924683282003094 0.28884181864692470842 0.097345491666006700449 -0.061253883873119308046 -0.04891716467396790835 -0.3124097141616036799 0.2766840983598042869 0.054066138236571650855 -0.31012223348370798748 -0.13513915167112502957 0.17144563419841712948 0.46918222843139723022 -0.10136180725689281079 -0.22134204220430844789 -0.011645834543525511798 -0.07718099068414159547 -0.0039630767705203526555 -0.14619201555381886037 0.17297138528157648962 0.22818732869362653992 -0.17553066230226282984 0.041702839560036994437 0.23700764339136581871 -0.15485356122635096643 -0.094491623752113784729 -0.2338126589922464027 0.1918664320388031308 -0.0069191067564303232809 -0.086427115841454155154 -0.18591255919323465551 -0.060318701170722910376 0.046352555575246763564 0.0094735718228299396759 0.050444749029809970997 -0.163638053483217083 0.2727645440559108847 -0.029849853540451519451 -0.21994965224221094124 0.13499608385522887666 0.22543660455443972901 0.024603378618327717553 -0.044893880539427527543 0.28107228504495906929 -0.31051215834289652706 -0.10928039831269574511 0.29760872545266287004 0.29892341244526687838 -0.11387533940483086925 0.087209911308844423328 0.080753108872439166577 -0.07625140289166912333 -0.37607677918139431616 -0.069160968191916527559 -0.092512156443815260487 0.023548150587563713293 0.31272153166122113044 0.11369346383503264875 -0.040983317923872913946 0.028616183452373732121;0.11750338169798787979 0.064179760633462784591 0.24736011253920217601 0.074732259372170040113 0.17015121411763081682 0.056876759342262370178 -0.0098790618720347202208 0.25741505150080074005 -0.15971530204897727012 0.11517085981767183345 0.23899604487438003142 0.057850611298660405135 0.092943490811480872216 -0.10875672013711616681 -0.061463279892485851719 -0.011560474976513187423 0.1043138668811149361 -0.090802572873818224175 0.028515585612944493316 0.089084284501451921345 0.21350285243898697862 0.19760408023823344825 -0.27521914422236459785 0.21593386410122303309 0.29719234901196683873 0.17052594789301531164 0.15000703220219885337 -0.19144522823171883363 -0.21308605707716643529 -0.072530818931703516794 -0.26989970966946852382 -0.12205362371608267924 -0.078009290476133336112 0.040721928115727272501 -0.21363709973642050488 0.12515339811958170468 0.0053279656840124010181 0.17151510902139213699 -0.03956067548001692552 0.0482052547266005188 0.11416733195721004424 -0.1567992673058126174 0.23454730577507759692 -0.11592286583361832708 0.091450588504424862313 0.1490601299518764522 -0.068245916746315041235 -0.1609878655086519339 -0.13399982543227401122 0.11836408554847863139 -0.2190481593937949889 -0.073927852428015222719 -0.22075624877871408147 -0.061354774218100004146 -0.1214299802241561449 0.17106434860009778198 -0.21850201591116322208 0.014059469005363424768 -0.22059484400101997403 -0.013556236436104653412 -0.14702378089040005205 -0.010631748827975909949 0.018065170170647844999 0.11029266733909724729 0.21488272357206580909 -0.13345484716009131665 -0.12740960301902401475 0.190076105991710681 -0.18043280119157237285 0.076120467945710174051 0.12461156130227998839 0.27447177707477454778 -0.26329340395623657134 -0.082821303053776579306 0.30067930723418567762 -0.24708957672453188414 0.082742704880276726764 -0.060445688809104725081 -0.037945130048229441799 -0.14522124757863505429 0.11732291941362327226 -0.060434818277087992699 0.050834133226016146867 -0.11437015165093705749 0.064679411223304145162 -0.20051728542256300192 -0.11459587547668265151 0.13427539332194302069 0.23173666705012810341 0.25100758960738356329 -0.25588945590741446479 0.13168299034572594763 0.010808410545795664806 -0.14148198731760047719 0.31243650757721114219 0.37149670491778707948;0.011981918336920241094 0.28970218438427314256 0.05942640392318505882 -0.28689610766479733961 -0.14980052633242385562 0.056558458677221729038 0.047725446819600524095 -0.049683764003375568974 -0.080347551532583397216 0.073487984766759426036 -0.0095523877626234512256 -0.13775592338651843072 -0.16573723434737519522 -0.19897769219131147822 0.20429433899830246046 -0.0020642679713265632904 -0.081066942567115898854 -0.19312281746372333968 0.14621813554372137256 -0.012048262269912811406 0.070937310964445582373 0.10750199162264892361 0.1836018140165414092 0.00068353048359929104768 0.07163360822164861752 -0.13210470691775194618 -0.27617290913003261776 0.092089155686550419611 0.14885726338323651552 -0.22151414686507470142 -0.15245848771777867348 0.18842969982539739537 0.077164333435945087203 -0.25701988094577282729 -0.030650128115473875695 0.29119285786566173613 -0.11804802505209113783 -0.15868632403697532918 0.096296239055887411507 -0.22095265508676661947 -0.23945302799181533704 -0.021640625337621795243 0.051170331361310154861 0.19533387527908643855 0.01498396552652806607 0.12894056494202513208 0.26539390213818642161 -0.15335028298478881048 0.05782843794941151111 -0.16792016055350569848 0.021786426955430364394 -0.21320484836372952109 0.17759650196949031131 -0.03134555581455361617 -0.070195997085418487815 0.10063021209844355552 -0.15288547187522150139 0.10291943518115743983 0.063973390394515688984 0.14505463235761564822 0.080513179228243469954 -7.9630480190113822267e-05 -0.14829780583580931541 0.1779280933120834518 -0.20250566731535155074 -0.22812981800053663828 0.081160825581124140804 -0.080309467068627654607 0.25899057427585009394 -0.20488395106880327723 -0.062247890732488528331 0.075813974737471936938 0.21083304764367521988 0.13500262251550196324 0.090253259055593143545 -0.020092836063732071039 -0.18410328750075366511 0.037949368525216194137 -0.082301187569466777161 -0.16621555810144844623 -0.16392577402111918605 -0.0511528676298877924 -0.076985824384067993997 -0.10045784766279419742 -0.049469953922799431156 0.10154831767748737081 -0.13121953461427252052 0.082270714824450835723 0.12034038616498070329 0.15918529932360719892 -0.13599579262129796176 -0.088932312338063479462 -0.10675729199514066847 -0.055704373861623933395 0.078477405159454310946 0.0855221985954649766;-0.2874365568311679775 -0.26112657825082036256 0.23093708888078445796 0.23300651682082754168 0.059499148720020794689 -0.10686925636259267391 0.2171830261741653223 0.19619023063485310776 -0.10705127643934701787 0.18489858590337437949 -0.21083119116928317194 0.33204320492961941769 0.29527173170116099987 0.098049974480323848214 -0.31003837668998190935 0.028075169583900216885 0.16191153365153154731 0.41456626104226101948 -0.0074854620816599080207 0.040953966608165665031 0.39200748107856608904 -0.091652634770085755767 0.19546743285439474591 0.013963721107003933611 -0.26484450836058470724 -0.21038354875517734088 -0.084647209847551710404 -0.13362687413554624749 0.02649305386800805337 -0.022315976887757087849 -0.21062516018504257032 -0.33252053356505711923 0.067274245364237608702 -0.1450496455381501959 -0.2792204702728343646 0.020468450603479272643 0.03103954361911732962 0.12922564277772433106 -0.26260782406920968324 