function [Y,Xf,Af] = MLP_7DoF_ZWrist_YGrasp_06222022B(X,~,~)
%MLP_7DOF_ZWRIST_YGRASP_06222022B neural network simulation function.
%
% Auto-generated by MATLAB, 22-Jun-2022 14:32:56.
% 
% [Y] = MLP_7DoF_ZWrist_YGrasp_06222022B(X,~,~) takes these arguments:
% 
%   X = 1xTS cell, 1 inputs over TS timesteps
%   Each X{1,ts} = 96xQ matrix, input #1 at timestep ts.
% 
% and returns:
%   Y = 1xTS cell of 1 outputs over TS timesteps.
%   Each Y{1,ts} = 7xQ matrix, output #1 at timestep ts.
% 
% where Q is number of samples (or series) and TS is the number of timesteps.

%#ok<*RPMT0>

% ===== NEURAL NETWORK CONSTANTS =====

% Input 1
x1_step1.xoffset = [-0.280204184746242;-0.3091375880134;-0.380468901454489;-0.278713142583303;-0.318362740838269;-0.346086036241109;-0.316398613233858;-0.324997274481933;-0.260876531511213;-0.195650808114356;-0.286625094558256;-0.189082331842842;-0.279355067721263;-0.264912198163587;-0.159546868062293;-0.263431111099907;-0.283378097564116;-0.241829614875983;-0.278833520790379;-0.294596244337616;-0.274996552016592;-0.422328465843055;-0.374025843247995;-0.251095116196066;-0.26397931509079;-0.290405063559923;-0.320748093387048;-0.295455265571994;-0.274260367239831;-0.263323112367521;-0.198193439052128;-0.25406477331374;-0.210901483585528;-0.195958887263532;-0.22340328935233;-0.228122824642256;-0.208675837669388;-0.253116061412272;-0.203079977502054;-0.290602818236769;-0.262955268855803;-0.241488801272213;-0.290758431274274;-0.3328420582704;-0.211833731283543;-0.304258474648476;-0.295344234671214;-0.284785713682454;-0.264962413912551;-0.307357009753332;-0.302623560228906;-0.246067601412451;-0.289561139114954;-0.221099530286315;-0.266121261822447;-0.313073156041949;-0.230510646796653;-0.265375412066796;-0.330286146726253;-0.299590940954479;-0.252292940905577;-0.342939023507659;-0.265101292110848;-0.310191519605012;-0.337446762518625;-0.278783334675893;-0.318166003038507;-0.304269828335751;-0.330294855161136;-0.341298353044038;-0.293668252792718;-0.298198229246213;-0.242875101520838;-0.380256961736003;-0.357596740001726;-0.302400542573122;-0.340876054079001;-0.342462116258355;-0.340149364955386;-0.399775730707064;-0.391418678499916;-0.339767690080835;-0.381536636122584;-0.340419023789879;-0.33186396409923;-0.331180202737098;-0.342623457725232;-0.339219716451229;-0.39017321716492;-0.281510713630075;-0.320441108615267;-0.344057963400639;-0.345351073401702;-0.361956016860561;-0.323966439900427;-0.244980952856878];
x1_step1.gain = [3.37745768452243;2.59453311473815;2.90720910350877;3.61867891162249;3.03506615542702;3.57164547870666;3.5599945134409;3.31273088926699;4.01495147246047;4.22769059435424;3.30056768678343;4.19331011681402;3.80444679934769;3.36796860456192;4.70461976294996;3.51605618786579;3.22194751070268;3.5275266808289;3.51917830907577;3.52223580316982;3.93316079880206;2.67040635882725;2.86361840645242;3.39490019357429;3.78185328408761;2.88478779942839;3.34805264761295;3.466547838074;3.16384548800277;4.02120430785268;4.26776873196078;4.22811251476625;4.46264344329139;3.86815847264099;3.48038846396156;4.36815794204414;4.01166910986639;3.19736700494267;5.0869133057646;3.1298322676669;3.67217735739319;4.4059337653676;3.33582547533816;3.2605712207987;4.22207679270149;3.25424213572404;3.38978003146521;3.09085128822411;3.87432406819083;3.35698603969578;3.6413497413928;3.18814582261897;3.67087412430729;4.06399088769162;3.86990700975727;3.45105070688504;4.34460168973476;3.88594793230147;3.08266474352193;3.6202342989118;3.67062345775076;2.9492036755513;4.73782899502182;3.33498470735256;3.2356419241187;3.90007091034837;2.9356500690466;3.22220518121225;2.99867695522567;2.7984923487506;3.03352060694014;2.79631982119018;4.09342784543627;2.73691791944647;2.74618769356553;3.62985683794769;3.19511340594368;2.8980624897106;2.8568349529614;2.99462696892032;2.90284392751481;3.1504424313611;3.16437016212151;3.53757799884327;3.52757313783087;3.24259275174851;3.55769367518048;3.01749513335892;2.8898897923627;3.37512481542804;2.62590416546035;2.61280491469253;2.6204726368105;2.69950834030088;2.80552139432922;2.64648924992279];
x1_step1.ymin = -1;

% Layer 1
b1 = [1.2247762177548120466;-1.1749473592612262873;0.97011875838220573698;-1.0861659300397152883;1.066646747310610932;-0.88516857224032186036;0.8699762527510120913;-1.1079897816408632583;-0.90089944908373309485;0.77465401832444458208;-1.0119436433013355714;0.68265730981581818071;0.62290957614679731691;0.24476996892123520366;-0.42385552472054283113;0.60052234397169557134;-0.38103060000613131475;0.26294997542873799201;0.14893993959934129223;-0.50234764367497497517;0.61408433845552845565;-0.01098125960278231554;0.0033019239503343056179;-0.10415693491367514212;-0.079955016988921753796;-0.21780549104266189175;0.030588774196043069797;0.21353067555300092595;-0.059369319806080428359;0.14484698896380177047;-0.28343978657386742492;0.38346213960448338742;0.53279255207263065408;-0.47931891165834561441;0.54334177143708961566;0.66674839927133400241;-0.96273795052570687591;0.52667721050678317773;-0.82814373127786589102;-0.76305547333118406428;0.71768343377651611092;-0.90301316443069545858;-1.0795920319033787127;-1.080470536349684485;1.1257396045876966184;-1.368179038857612273;1.2302865309951949158;-1.2423762442110308779];
IW1_1 = [-0.17139837805020963213 -0.27462844855127771515 0.13505749629756161334 -0.2933805365971162149 0.028499526199427527295 0.060532526764342890757 0.01024643848713859863 -0.29201466617149357541 -0.21636030353258906 -0.065159855516020798172 0.22007415571979455082 -0.19007550720092472596 0.27158243303149043335 -0.0049207916544681548979 0.064959087096656348281 -0.11363537026105698102 0.20351262183218199464 0.10223372545914853615 -0.088531327373850790541 0.16128255148369038952 0.10128966361728776457 0.054543312725779127814 -0.25893675571159335824 0.15090431617134036912 -0.29847634948312612435 -0.020246681859068509785 0.16470485016636748909 -0.31050679336833159061 -0.22711213207558450522 0.084281907705111819284 -0.16651114942131090002 -0.13894797069976083659 0.058435886527895629372 0.24646776825736585459 0.027678241016095287558 0.14888319561141058478 0.065018511591657376925 0.22045030660298653435 0.099646320048310838002 0.0085667450510463691304 -0.053733839573317919436 0.12700272209094995435 -0.096652893399789774342 -0.28588800489139770677 0.17223336469174965746 0.28282849489476191707 0.18584784525837699798 -0.26765993595779913328 -0.052043809167414377403 -0.24547281875306237175 -0.058376170642287006363 -0.31534373026034479004 0.090177223245028401144 -0.014511991756327103503 -0.0010134191367487553267 0.016975017687800273564 -0.067411963661508478296 -0.16368179292078841036 0.1001205295864908279 0.043929410103191249282 -0.23175026197214149137 -0.10033012396016521839 -0.16720765500776607615 0.091166608268081483768 -0.0207304087115045034 -0.22224307750633989778 -0.035093355509490491151 -0.055813636762277310521 -0.021673038427127404998 0.044319556582481316187 0.077250459489393116796 0.0077142098294724547811 -0.14478728958776060365 0.17888831161700169403 -0.10784578214957583897 -0.23522054589767027455 0.3650300640814239661 0.069196279710050198619 -0.19981429609827505711 0.1982050535377858913 -0.069631879020584999673 -0.1639087908682373973 -0.1121759165838847605 0.12037621263386837078 -0.16623288030016747374 -0.14827850907935163915 0.07758032056118600861 0.1516167515223263984 -0.14184083139440034627 0.054061248585674646916 -0.28147580815561762391 0.019867707872406391995 0.11557551152266158645 -0.1987667914428908611 0.033014185537554467664 0.21127283875851454731;0.029147602817487541088 -0.26264317166473477583 0.59557766400707279342 -0.14173108307152332275 -0.28011422634712279667 0.039128720386587864666 0.071688052435662674711 -0.032603054221886834663 -0.11663344182047462316 0.046105072546712699832 -0.1244607532199436678 -0.13084206638546166945 0.18019601576965299516 0.080436058368008683805 -0.2144921374583638185 -0.12428216999538632681 -0.02826389671178371546 -0.0085244716329026561097 0.063114393801428636532 -0.035706052981124419832 -0.14058296930486993692 0.13187036741684166063 -0.075289638080319867819 -0.10886220991424089277 -0.1803055989321458441 -0.014382294416958839312 0.19142098401621221448 0.25749547081826335004 0.04000004913291361347 -0.0030161434508152499233 -0.3817749001586870361 -0.038062482796954830166 0.090904993352030838416 -0.090020979239516865644 0.16820411139460891836 -0.20269741553329936878 0.16822667001408406207 -0.050955298132608364825 0.36377678456203904611 0.015277165795667043205 -0.27846034764474897338 0.11285346374284430104 0.063022336755191074587 -0.00753384763998993668 0.016490300203432766563 -0.45771136804640216722 0.059243427925011804547 -0.057278706954658246964 0.1496132972270760586 -0.057897373359555422134 -0.25325037295083585587 0.062605577002498996597 -0.15699835928065389301 -0.2272070398236547828 0.09592098053437725369 0.23739838637334201299 0.088130930580684094244 0.0038956379314028562882 0.27211785269228228046 0.048936214386940776744 0.20360447152395036441 0.17473466949368438028 0.31685307682328828216 0.17409775439346442116 0.41682386632383383596 0.29736186248374418817 0.57213586418142425849 0.064048524042211257834 0.07746657895687424078 0.4408771159566043929 0.02305729555724593885 0.0039932140351137028825 0.2875766988364040766 0.19043002176859205599 -0.22422540684187738935 0.15073435752743477578 0.089054418671539847807 0.090731020448374194443 0.17308783268741662065 0.27494909826037222667 -0.070168982242881663969 0.20050460604468114956 -0.14601904591314238124 0.066258591871157748732 -0.031629896598265185015 0.10041226927432340965 -0.026950499058932889107 0.30470836897249103936 0.28354973395461008367 -0.14405731407928856758 0.1929749949199472403 0.082231794240411312802 0.18335586279798957166 0.25077907769735729993 -0.044809593414318456273 0.41980251647342070598;-0.10705417237727594959 -0.16404608856452593257 0.26869455109179801733 -0.078460537552830278418 -0.091039461848955949286 0.35302267697962941284 -0.033913088219422113379 -0.24129389752255558932 0.049921859433912522952 0.15183912123633591662 -0.21324294791498607515 -0.19784147595485435112 -0.054858213383998426227 -0.030152998715417305559 -0.051616281797807375686 -0.3137611068515454571 -0.1728960533091662144 0.10639561015174317515 -0.29832375989802550897 -0.12574975963162621229 0.039791806532708959288 -0.53080978448055704533 -0.0028690835732254850107 0.47067038255065096752 -0.058575006980482603736 0.080707954293058228878 -0.22869800788354821552 0.08226755949328369566 -0.12988786584516184841 -0.30633711390278550724 -0.049529878872644796106 -0.33689489597329158599 0.33664853684025808356 0.20898906827983465551 -0.061553338747164225431 -0.084455858610599690572 0.097138611972304722553 -0.15827486926307549053 -0.072834220673499622256 -0.26718146092176081607 -0.18826706735060447229 0.20681652872017430855 -0.085559365894374753148 0.07826207571350789205 0.28487047690592420812 -0.3207887997224337373 0.14635916298906367916 0.16088073282277112752 -0.036218261422817733808 0.2663243408408844104 0.26262331904264096805 0.23104090425927256702 -0.26023016619069461175 0.01505335369942760286 -0.35305083284931976229 -0.096006637305316874786 0.07856175512636802416 0.1661816130913819356 0.091356665165547565333 0.23949605992583539171 0.1773518562435644208 -0.00063422461702705929323 -0.1569449597191688861 -0.12063413644359774479 0.068781897064071256809 0.073797651012399198556 -0.025274767187040175082 0.14819143187330677258 0.032052495058857335963 -0.1170513967296038238 0.26051964523826331988 0.03119992842178192019 -0.38463249091913143118 0.34490540254845536428 -0.17562063242478245795 0.068571788337198416596 -0.245720309886166971 0.025614631226168044914 0.14909073540671016755 0.0097639031242810689348 0.0020884457276614983023 0.23240909504145049191 -0.073924975882473917266 0.023383595025275132756 0.10200538404167253104 0.20064258493529393834 0.0085115747026694547894 -0.15729252432854326504 -0.1072043128043251442 0.27847231306604314227 0.059068437587277915213 0.20668202490050763265 0.29687191736557722033 0.17070911188482562615 0.063728845908266662512 0.28779594526155166667;0.28130647428233490626 0.080462145901290402228 -0.21595668075405052844 -0.15464707480031866793 -0.021932672127655348376 0.050948796571776790165 -0.22130400061878313656 -0.19039205735298436739 0.028187233559358770146 0.12681339819612805209 0.095850452077497622083 0.28377139755295816004 -0.019550551189356901033 0.070249819940237101523 0.23412374832154225768 -0.21666459921027508839 0.1487371866567017975 0.1168287169785473395 -0.083328311945323849108 0.19619382955802544544 0.036067042052967165922 0.045034019168098869679 0.24937363579771487654 0.11234251982057442965 0.12305886594946484347 0.092074420071753176886 0.15590731740732530208 0.10615490642839944813 0.19450659328460420672 -0.077480382662742250388 -0.087661245792999734072 0.26784426051623871912 -0.17964045749753498882 0.032210401216510212152 -0.05030838606455920875 -0.27138162836507012665 0.1162635575991889797 0.0091096037196506021022 -0.31033446741103243305 -0.029536752344885012361 -0.21835110111891994911 0.30196775968675398927 -0.17858679938728005965 0.031791034410441967872 0.060690556497768118061 0.0013563364178388816368 -0.019853327350366902632 -0.4183086311207075414 0.15569817041859804196 -0.035291140598318886112 0.34027230552101916938 0.23218848823046553398 0.042955119540519157151 -0.040613809659522139006 -0.026704039872888059304 0.15557510417130701597 -0.1139815630470704666 -0.12827215677305939256 -0.17008084407154244744 -0.036446850479689485436 -0.041587766086058228221 -0.2466338976966578056 -0.34437072739082136286 0.18171700765411274991 -0.059252226806185567809 0.15262293842415763923 -0.15168828557768587739 -0.01628670715294855062 -0.082905365572802758312 -0.20643188057239872379 0.056927297332363409332 -0.11181980667823199216 -0.02181162580472395876 0.03386480464916358929 0.048724637353588444444 0.11355943860553117941 0.16228175857477034061 -0.30130143073841242352 -0.18158806986206679768 0.053334071441485796095 -0.15347318872749665664 -0.31073407907671379835 0.19021195980343583165 -0.26737603933467224415 0.052455376939418492388 -0.07992857893046545481 -0.37690076480427886496 -0.055905399997504275078 -0.032631582631711647524 0.056914944986290919027 0.079532798759571268765 -0.090629428323800803602 0.053573666246128519297 0.28313244395071263115 -0.11688208356978291302 -0.16431627063974346692;-0.064696626179796809519 0.29926203311082244518 0.18444094912216613125 0.16758267617899011426 -0.24612584233340598083 -0.11447560860325083076 -0.056462679071599901348 -0.13376659256722772673 0.055974685575317054131 -0.18750960167335328777 0.30286010414247616085 -0.14985437828090703016 -0.0053468089732905243333 0.35197370753606388449 -0.26650208247943352191 0.086602231365429813148 0.21667064368762128934 -0.021918662648410695143 0.18560074433152681794 0.042281887448454645584 -0.094852778782959390469 -0.21558158171238547829 0.033285147333961720428 -0.16848354635876963692 -0.23969791943234022846 0.08286940101813952686 -0.05995110550120358317 0.032151515156264291739 -0.20828710963987848159 0.018997947724578429646 -0.21445074748798581554 -0.090314361210235616362 -0.12524137758995390612 -0.076418095381818970657 0.37306060992291018019 -0.077215198370320689558 0.27657948404487348038 0.2301574733236651793 -0.29400335831565393985 0.089496853435748438543 -0.041596352008263406952 -0.12883755784812739309 -0.14386378635332844333 -0.12623146866367801477 0.011455666932712790448 0.066501016749106703352 -0.15472746058676647984 0.17017136869983723324 0.36720534417776889979 -0.050757514963699325306 0.17208201450680296607 0.23523979017916329948 -0.24871461994575050358 -0.23498327711573502308 0.059616369115739878404 -0.28028501529915594848 -0.25525855557107096638 0.083686407664799053463 0.16891416310578177828 0.02150717221529425266 0.28477035609728323928 0.067954493566364557178 0.13866221201149697695 -0.026593182558799298432 -0.12060006480123665329 -0.061887252616918971004 0.22233254987154979498 -0.14137418111136415555 0.31130555044427477007 -0.11749370466160320714 -0.0556083680820276538 -0.0074429690043223695195 -0.13156364597905578773 0.028255006810539488871 0.23920947935199349255 0.026387929255706103066 -0.11336108737757064069 0.16939042078639499067 0.18526005001091305768 0.075865401278154526166 -0.21184482610037164152 -0.083856712386422727068 -0.20286716018371037107 -0.056507625714674429573 -0.13907149859711451234 -0.082328796265515050146 -0.12511483420801103317 -0.10544031752313387518 -0.21962888356621934616 -0.044278259521321264303 0.24494990343165051749 -0.26980320680617636553 0.1316780828692171168 -0.17152049780209951968 -0.26560721004798282241 0.023504493361259534007;0.11626256883848629098 0.13124343568624913248 -0.098814145942134501421 -0.30431671102819002339 -0.16422631451796493307 -0.072055603275467200453 -0.20040874809812039836 -0.21205809285143342735 0.12267435574974208667 -0.13177235775393350559 -0.20777404121673370696 -0.33263793288195087072 0.16212842517510486773 0.14849919630959709793 0.084001101122670562837 0.070453661853919921643 -0.12391575685331845946 -0.1183379960557765509 -0.21429931792791062639 0.11605607665877752666 -0.06415295675262826236 0.27969482914590393374 -0.19588038594625875599 0.018019194952409351568 -0.20426307085978542832 0.044868025025779627313 -0.032710827609710620145 0.013404988570595048267 0.07735840386214712372 -0.19571481965742248965 -0.12868321180016997762 -0.16289697817096335242 -0.0050712962280195766213 -0.0078054825190060402734 -0.30721681911041281987 -0.055580891575818358596 0.0058727851416425173176 -0.31550286171272651226 -0.35859574062044152765 -0.036681635433560497161 0.0021499392714632945683 0.28074616335269175771 0.25269288353916058432 0.15470704790642778037 0.085589359975343434761 0.00052053684009088297194 -0.22994899536162438647 -0.12123221339539973218 -0.24020395716375753103 -0.20551804951719213066 0.072034508235583008529 0.1392161071356378399 0.22175455888596909415 0.16976201647209829271 -0.18227614787024509768 -0.48477242106708479108 -0.36631468636160846586 0.16154670110175656239 -0.18201360222572648961 -0.18486815829832167757 -0.1385925151959645496 -0.15477169735115109406 -0.072021231064102672614 -0.091493097510233475922 0.38357187055122299313 -0.15308459374181701551 0.0066781479932548799827 0.1070126019458996075 0.055121173876677309611 0.35867582925196939136 -0.0089068958273697158845 0.21868388234349447896 -0.015140438471471086984 0.028437264576989116499 0.28060626538700894628 0.0051705952691654772854 -0.36401955158965687565 -0.049003143054118639133 0.2228767534543441009 -0.1757289734094145961 -0.37746228836820400199 -0.27667415505371556472 0.12361071767390179044 0.10354891457568775326 0.081923134379527959292 0.072952006630186722047 -0.26848933464657448456 0.0012549177544564883106 0.057212464958377250157 0.053451536679234211424 -0.1271795687338155012 0.37362293752134112523 -0.025772700367833606405 0.078454508232676314905 0.36595023049523456304 0.35799574261645250584;-0.091540974127556407058 -0.028375466766399140561 0.11897642013259662752 -0.27512814078355718461 -0.22448816847868213742 -0.19646260285061084572 -0.066346842152106566548 -0.18658119995979446926 -0.24877788542421894191 -0.18910185008811702945 -0.12252448926769414494 -0.19316413994998316017 -0.17029528225862744506 0.25391066194527733835 -0.28520664431659964455 0.019731852239251279624 0.27095790568816191524 -0.32834414367872338802 0.10251996287656234275 0.09480311473316004045 0.10274639085603774757 -0.33852115509763852641 -0.14095918181943842273 -0.12625912505407249631 0.14792798602351223125 0.16989421985689431849 -0.01723978041643464687 0.073325443672603171641 0.18422309199180555983 0.08195941078442695038 -0.1604569996457814729 0.034904016415151763175 -0.20076102575123047633 -0.26237149648834917626 0.079622322429440520186 -0.030720686028906749043 -0.054430507551871752658 -0.16693183665917118996 -0.3556163791244742467 0.13218434928200534229 0.13084236463077555945 -0.062375171437777467143 -0.10368940442833055049 -0.12954351044004730475 0.031076587240498294157 0.1233255324001128056 0.059541953303367874117 0.1519355591827374341 -0.12318209248384187626 -0.15913437851400075163 -0.015794180801884390164 -0.26152243940447150727 -0.023197555108300259297 0.016345283515068996516 0.15214277768463549401 -0.11902604297645066889 -0.34839648780149518048 0.0074290526511581207042 -0.12131761731082679745 0.11783020844430448781 0.16836958124823173111 0.023983727801062251078 -0.30478676642334717739 0.12765542833029017156 -0.13929704539045320577 -0.034058173557936416431 -0.22902332803303648845 0.083250899254237037406 -0.11352868702089229103 -0.24737162182879879335 0.037134931054094343084 0.0038444232332039878289 -0.096888374360779697114 -0.09468052817578788416 -0.037358779654277002313 -0.14919610792707474478 -0.1212545363232769291 -0.074551225770696685768 -0.18226693107574781783 -0.072836964482980368074 -0.30984126279326190678 0.070418493990067124177 0.093912408367426244982 0.07434856039259708782 -0.20837698402561763422 -0.27292674398627403409 -0.36038377609301230908 0.10142264112011817323 0.13707120025379640471 -0.034869425305580584173 -0.052151346673748689986 0.29066612146710590903 0.074158521000672952828 0.069161666125386211945 0.13642268262119597311 0.17441185861857005923;0.28697367628597253431 0.22067224073069149903 0.14134439243987409474 0.14396416471803105686 0.3246155279069743993 0.12178105712247082326 0.060745824125768392576 0.075990145374494069697 0.20005861053274670569 0.093274984557355417047 0.34608677948752858411 0.26846512769043839874 -0.15540999054086734876 -0.21778228626203036122 0.27795319450800515249 -0.25071273017908213276 0.07247164967347662079 0.13047673915083252139 -0.15911882869635204929 0.049427710863347164294 -0.15869016914407688135 0.24560778581280259814 -0.064768234660806001113 -0.22058785647828318965 0.10023502455046030823 0.24785360645096160548 -0.10523451089234132916 0.15864790993174010536 -0.085964339139796869249 0.043759742879939701743 0.012929839022548187538 0.019843120846546147967 0.22085323439223394915 0.055942111622245604963 -0.090641955555475411943 0.14137401466049726029 0.3438044827729358488 0.00076916121521715136861 0.082058627521402513483 0.066016865698077367708 -0.30322981622633593535 0.30886765085424305877 0.26471577256452444304 -0.35630874587762595418 0.30672414489281968342 0.0082724256144097139953 0.18558226952224834982 0.15141053985118776981 -0.074356332639501213078 0.15791865175198904758 0.033825484701836598667 -0.031669237644873129978 -0.37502579934284763219 0.073807921861866035429 0.019569955919442293124 0.073312907910117408594 0.12243798618654518073 -0.10562403023888124187 0.44585146392389352066 0.3887538537246826853 -0.32439808160647637392 0.19875712976003959143 -0.11399386516789859758 0.093486308782853827504 0.30767182977542995026 0.2627412151133983742 0.44683804404225280216 0.023164077358421478192 0.16709196103515250309 0.30464305089330212528 0.1193911103164963794 -0.16616570504642905193 -0.10308058278422359277 0.012174974741255915889 -0.15844006428414070253 0.044043390074670417389 -0.20668952612993696238 -0.025039037079548000231 0.29112451015181112224 -0.095875647380801343189 0.067520715297091610241 -0.032762754680009380237 0.23673278805247466305 0.34392766827283710596 0.14021849132828717588 0.31575186049548514822 0.12446934090794783967 -0.0011169967722483406698 0.30142425499896879915 -0.19589954182334293198 -0.041490531149474624284 0.14183459432905351494 0.049514222904088141253 0.2699611638732941632 0.065456517017663695679 0.050733223121438027203;0.00018784156550291793673 0.33274906953918248487 -0.13792435350400431004 -0.093677836229285868508 0.073403764323990608465 -0.28308354023625176277 -0.076169539370760944164 0.14834979867081818372 0.04191141632039119963 -1.875784176564774218e-05 0.035303150849602206451 -0.23797916516760125871 0.14463440952182571309 -0.20385294669520734323 -0.15087130529266676304 0.11997659457092521573 0.076239966807557763007 0.27867390799604291329 0.45049177679311130928 0.16351367260553137384 -0.047581936366939546479 0.0022543324873004620852 0.32252265060328555446 -0.0061419799353554438079 -0.10043497403672160817 0.2603447834706037467 -0.33940942063298629172 -0.17660113946360120329 0.051027802603399147197 -0.089448467548232990509 -0.18171811704658577535 -0.11360675882120549463 -0.14121611348830587218 0.13788485930070246144 -0.21280232220239597707 -0.090080576464647468815 0.00381827816581448631 0.11107966292768362004 -0.076528078186203718491 0.31505533857450634949 0.033414386904966120184 0.41912572999879033064 0.49185792597075550514 0.080942285310631009732 -0.25792823920745533428 0.070029252202958400253 0.1883915634088809965 0.41867307623509220083 -0.25623159227798597559 0.043310615761506507382 0.29070715349653097892 0.40575817335360342408 0.10968750843369873271 0.14679072727834716061 -0.23525880876038038347 -0.34476828260007924554 0.14445881795551382409 -0.078738275744066582584 -0.20287672497434394714 -0.089267847312643963664 0.048175799801992678917 -0.37346880546830102388 -0.14790569235277062354 -0.31123353451307006479 0.16424141320393548238 -0.29121199900592381615 -0.08228554394752901624 -0.030830477214494757254 0.056228208481081072556 -0.1138435125192444608 0.052327704272234418226 0.13664622429431241835 0.33667908537766799704 -0.20527712148463456154 -0.12997354081867376618 -0.28531855753714946422 -0.26310705346294666063 0.1241249800517421481 -0.1598179511367074368 -0.20872603834582659221 0.040108518428577551174 -0.328624609486254049 -0.22509432345595772884 0.0065383078379672903216 -0.26158891374275772268 -0.28611465437900868158 0.016448624927411312907 -0.17425828415625693735 -0.24145589284764268356 0.14747495857306580636 -0.059362274776557297229 0.11884921893411699856 -0.041611489551322891622 -0.2821133152792841825 0.27066395596840697735 -0.0420219194558782011;-0.0024878512406690898168 -0.073666658552799052506 0.067696202694462428995 0.21259978931857526074 0.14412877969414561452 0.22701418988486213313 -0.21070663496988706331 -0.0028517909833932937602 -0.079956202381105082044 0.075959375484946925483 -0.21334133974364166697 -0.094871063180829842687 0.026489818499509508454 -0.20495065804454531966 -0.24297456593453667373 0.082617707975607135307 -0.26258398475243610592 -0.29916644366120043186 -0.041378239438634389913 -0.17644788450200832308 0.12257705785798475584 0.012891398232027683618 -0.10491750488839589328 -0.06669254174179413408 0.10270875037272965413 -0.13309243530038772363 -0.28011590779566186704 0.027639763171764628047 0.13396224195345815544 -0.25326851051384852154 -0.15533687184914138357 0.15942585419573515604 -0.095357001327185997308 0.25569911745130202707 -0.051475570090081655683 -0.37746098792443083525 0.054591608879976764868 0.29666229532776933198 0.12884393709491512303 0.056679480135237235439 0.042456982940064592891 -0.1453943257542008316 0.023188619721761682263 -0.027313408858473980229 -0.1872825559748304558 -0.22259597295954847151 -0.13092062511885593779 0.21821664915438754306 -0.11069479752028779651 0.087213939668100537439 -0.18078729606079968484 0.18079764754322616427 0.17220895664755639376 -0.1627487554370559697 0.03639500213749331109 0.081395351433993304302 -0.10781819600848276119 -0.097791586267653815567 0.044103950037058012312 0.27067637109500025661 -0.13848663271942110442 -0.02428525239373156494 0.01191009594105271914 0.05726657163008367496 -0.16021945721204941537 -0.079988916133062554215 -0.019990932732558922696 0.043940510929748481661 -0.087165018647562861331 -0.3403483087926605366 -0.20275304163440885374 -0.10158303424859589648 -0.28653606378572643587 0.23762622990393575395 0.03839140557039631696 0.1328358308342291183 0.2019718390233909977 0.29284598658506560964 0.24793734871126429931 0.16535901570893776769 0.35637944674988841776 0.098231559366474305306 -0.30361672183562965488 0.37280749952454322882 0.13278997519521434922 -0.044366776839995722415 0.062138612100484907907 -0.17262362797585020791 -0.14022041348597810706 0.028154728677970506517 -0.14934487874712129574 -0.048233324098900791366 -0.013406276787357365027 -0.027222740717290586782 -0.11225344758753157126 -0.012803127032812057842;0.12607355208348272613 -0.14579613433937607669 0.32459003936111396893 0.066986436925800529885 -0.11402339076090353687 0.13729871674835381068 -0.067363886857458657453 -0.16716355905967897333 -0.10456236062152142463 -0.35780316076900714473 0.046584617654942470089 0.0069608165171679281524 -0.14426596771474156644 -0.15538124745014580963 -0.28708359700147789706 -0.046939698693860422429 0.075392483936403645317 -0.14246332353006008198 -0.010838081018417511717 -0.086471918490058863327 -0.036390876254385612354 -0.024393457844992274403 -0.044607685402503635674 -0.10074105355714976784 -0.038561027485701372675 0.10807710973174967928 -0.13016933317792420133 0.21382256847136768552 -0.056163974143387959681 -0.27810038543497744845 -0.020869598187672179501 0.1484845522906848847 0.00292894414301704889 0.37665186047259147095 -0.028081168758710781802 -0.19556844240875470575 -0.31436053681897807577 0.11229526456068306128 0.038711723485460244887 0.016915397140237296153 -0.09332496224559774789 -0.3012509813199535369 0.050253869308759087364 -0.26620236947264847016 0.20179139423325084812 -0.12879172344810535522 -0.14151012962632869563 -0.099808000456642606557 0.14981817169040179127 -0.42670048813972788482 -0.12854024022597654309 -0.13411178637969753402 0.064038807182204268709 -0.061753753735098899924 -0.13894926833301438074 0.18277006881547547268 -0.039950362072236005051 -0.37192603354592368436 -0.18559539823388138124 0.08994338871822803172 -0.25313107763765857472 -0.043918900842911855198 -0.21706795493927330543 -0.19538901322114698988 0.018242761395829767967 -0.29276089924373099871 -0.14397159103801002167 0.13088913834845175566 0.09999738668932477148 -0.095443344044557509864 -0.27691813907507284442 0.3207480648157570724 -0.091849901433604996814 -0.37365309254548761952 -0.050410978256742573766 0.00090361500246224858626 -0.21222585827170381556 0.039661975722062918492 -0.23269849616792931402 -0.28510423731555367688 0.013290946971032533558 0.28083265645824539991 0.051285923589376378184 0.043176474041439240337 -0.48772149642685880266 -0.11196336801546719064 -0.050224633555263811791 0.032971735522492648385 0.18024113776095437855 0.31518792329006145581 -0.28973776628165548441 0.08126383635860956467 0.25145950211357248616 0.088950950230878109148 -0.13830079378098483756 0.28666612216923603729;-0.017366335980071374856 -0.0067712366111255285761 0.086965713528113455788 -0.049756263910344843138 0.010972684474678457908 -0.035057386792004582854 0.18414187810004273294 0.10220928742645250809 -0.19900058312950058559 -0.030608150797306679647 -0.24034851272128415767 -0.33535430861978154926 -0.075246906878714783784 0.12753715448596364412 -0.17911508414511129184 -0.049891372249864077149 0.35364307201375710932 0.22903139934552727008 -0.21618820426152576819 0.39168164092729690351 -0.22044813199852811292 -0.037097060375804312427 0.24977855870169815566 0.16554354984900657155 0.095838655177590492684 -0.11419108407790212745 0.30754571845669315122 -0.060540948902573193946 -0.34078715585139918165 -0.16295425843177821501 -0.39270675642822805429 -0.43100698931384584522 -0.3888448164072364488 -0.23997706279895072989 -0.19639541757881495698 0.063362964612893618588 -0.077463775810963544921 -0.45284596420621636703 -0.16864211159860531541 0.057945009049572046567 0.1951063352259517214 -0.082096865399656202 0.066341224144772850679 0.25676505535105897948 0.10987042854919648605 -0.053459733208175909402 -0.086369964458565498533 -0.28668015989019079992 -0.066403729869395092256 -0.045362139457597060177 0.11152835923031820253 0.42265360112484762212 -0.080557045357624715298 0.05932809600758384011 0.1566202002300839391 0.41869788811080294044 -0.42318526702561004571 -0.054509100052831903349 0.29603690618498790244 0.16197066878227225906 -0.29708530554837381255 -0.010912459900605313637 0.32897234039902584213 -0.39033329658267668094 -0.13373914593770530601 -0.006294945709386631609 -0.24448987481170078584 0.13647620540324684191 0.015056957110846714773 -0.32310289981248624391 -0.24385401862603089951 -0.83660425776555025212 0.11916770697545131519 -0.062018706010451896127 0.29529397556503222955 0.25492376945458317117 -0.12594543555733836437 -0.36263110865203396216 -0.21454249675728115365 -0.0063903451503486696783 -0.1043478868050243813 -0.0045488568526201693387 0.040120716302438692857 -0.44626392531471986702 -0.10816578677471601344 0.12016117764872082108 -0.209445370117082863 0.26691798165327634829 0.30745583627862260734 -0.010922978197445644757 0.026522991944776273809 0.26065312060172329822 -0.21573018384997275088 -0.13224147090852750308 -0.099787398666660642732 -0.2816344257076320301;-0.23011859289374683724 0.016913542410727556292 0.0088915662308764360777 -0.02987892271809218861 -0.24704496248958415783 -0.41554180113019839604 -0.12891712442863192956 -0.18129835441749023173 0.037485279076624404559 0.17529025721893926049 -0.24815252113785057908 -0.25738141349929377633 -0.38787883899966579815 -0.087028101840811292189 0.24024238351495816324 -0.057242313934914045015 0.030607582486241069475 -0.085476706362104803993 -0.27243475519304344301 0.44129616456922698964 0.28092692646608652396 0.22866672473009541644 0.025277958904852081828 -0.0026186583938644478371 -0.13124528054787107378 -0.1390160510137130323 0.036570374593981623546 0.054873480292025531013 0.17498402565269907671 -0.045679042651896609173 0.18405343743545796165 -0.11827445343481811368 0.091839980540212057258 -0.33624461630592195061 0.0013717193920372190707 0.38031504084721079462 0.29310023342104252198 -0.17990838185893634482 -0.11202248147190249639 -0.055062513583199648726 -0.0013861749125688303981 0.16792875242637647637 -0.17166441347989636057 -0.0024992098081104297674 -0.029695166787949905246 -0.31637154328953398519 0.0055001119832633069487 0.14573688275858073804 -0.16988883118676789685 0.13158711569064832081 -0.16736786385195315252 -0.4235283962887606557 -0.23101765437307220097 0.075861848607361281882 -0.26909500618142373485 -0.35736669510250801407 0.1890687544089351968 -0.19596408473017523644 -0.37006110370789829789 0.46556506550708354197 -0.20285237412731321749 -0.080970660849733158693 0.081346330765302246602 0.23560524985119668528 0.13149228486834779739 -0.1129421943726141575 -0.099268151973405938104 -0.10562294989096578102 0.1838566453300379544 -0.1069253211104110729 -0.20065175871132875929 -0.21143415265030457428 0.01197367819992984847 0.17198845510731949893 -0.13708380832521782633 -0.060369966114142276092 -0.3537152285501555804 0.22494626227572725452 -0.11191950053666542553 -0.19976789142929216037 0.53482071997500013616 -0.43593519686494242027 0.020017299163615338842 0.3731198088404169555 -0.19030274000368510579 -0.053484765136713893763 0.092494423667116881793 0.070000395945799612218 -0.12649262261195046153 -0.38568410429897043157 -0.13443047449691142292 -0.22738132811598352201 -0.26951713564633611453 -0.020756521578259794214 0.1604516424058102797 -0.054225494197988076406;-0.2595428367043856599 0.38337677485648352649 0.37412322131088665556 0.036804039797274153145 -0.34430733586525125167 0.16538156379712487531 -0.10761207265800346033 -0.13858024077951383579 0.0060251172877828496066 0.52385528889098387229 0.033456330929992547651 0.038580604060183432136 -0.060530169631724722867 -0.23448212834557918827 -0.61984281102248828255 0.3645116033101672981 -0.28601753845142019461 0.092561421924023681851 0.090177471671664455322 -0.046745162978031863654 -0.18423610006519605675 0.13515893923139105093 0.30291378996628975928 -0.31187211690549226928 0.050241457716828259727 -0.20979008599035200988 0.40201895004754806262 0.1233110009029174392 0.029422888420681303501 0.21429540417090564564 0.079392110480739130907 0.18071981946858420298 -0.1091530834517278753 0.22576196849414009726 0.39815649479927317511 0.21483085979312147029 -0.037624602355070244086 -0.25027663210808870353 -0.26862014347191864871 0.40219750002112458764 -0.046732375279567514581 -0.065243038268731262663 0.25533505326234545718 0.096224903084493065841 0.5322435709290381789 0.37940472960324367335 -0.14801089387313351442 0.024757063408845973729 0.37595452311056420935 -0.32838279514834650685 0.023395756925576601665 0.10760153290226362466 0.063755558177233981332 0.10322418081528088318 0.093586619644780072447 0.15723763022765790964 -0.058509735950147460926 0.050448560286550821197 0.11949699432459368054 -0.35636258051861297025 0.25285027291873107824 0.11157188356132834162 0.15432741685065623494 -0.14260266381105896061 0.18223764400239547689 -0.048709908232899258584 -0.10413477289777244017 0.20996118057501084175 -0.019238604827402954606 -0.11437795988614320175 0.41309721878286631558 0.6918291542691857865 -0.092076014130017092008 0.0063726255088511702188 0.017777231341794721975 -0.08705248923659703042 0.061426665507706118552 0.080237433370764110752 0.30764931796484368265 0.26265637368108346594 -0.48632642862326719291 0.57862308243523474793 0.12160914677723846933 -0.34090356617697747943 -0.20647267331952118274 -0.19028839404186093098 0.092969310833757576318 0.1331906907214606417 -0.33645134727993331047 0.59486747371054504718 0.26424740026086235289 -0.18869142711859696049 -0.0046146091672251629556 -0.25760650906157611661 -0.067273111835889784493 0.067859883804382029049;0.14898760830517057685 0.040376460050139610647 -0.013905915995721331371 -0.32631395797671436387 -0.22135818208986582367 0.33603666092731143689 0.26330070082730250292 -0.4399094978610298412 0.1524080295325904999 0.031496186835732679909 -0.16777190733833807768 -0.22759142657415101785 0.3760566014252179623 0.073830716281748948182 0.091628066343641761948 0.022493548306788253149 -0.24958338870873042481 -0.4048442269690822326 -0.011201435116085504962 0.10817169620867195245 0.10060417847409713898 0.13674644403420332939 0.012738385094530145503 0.14652722918695823551 0.20717842946329212417 0.078275173677336468137 -0.17271090977504513497 -0.077827059606210280407 0.010813598668349504867 -0.33068326873420722523 -0.26624170374627093016 -0.30858895726108021007 -0.11352157240326508914 -0.18981564205283940616 -0.23642395166310536947 0.18467354471283292661 -0.11009176756247660012 -0.038549877208733505929 0.31258582707569043668 -0.16968600793617460987 -0.16593685594717966225 -0.18874269535137097598 -0.015520182454594955851 -0.070056292001563630345 -0.065330541496137026214 -0.22273493476890832143 0.012593585405099588445 -0.44331983115935025275 0.23497580643310628234 0.15716269163074528259 0.18772156212016782861 0.17325998820287641378 -0.34809975815033611379 -0.47089790089511318616 0.03767137857701049336 0.32396217185406933625 0.42756997919548528353 0.30941272104023770373 0.24379737215478283763 0.17086318241512493676 0.24788625872024419583 0.049838779714961964351 -0.029487512895977639749 0.21189055627500777423 -0.16869509181641895168 -0.17261801730996637061 -0.034814222171758127389 0.12736936574392815347 -0.1743436809749946137 -0.082416153399983788086 0.015403107690793883117 -0.60650289091747267012 -0.051543207409209229608 0.05884558582917255587 0.47099378140428355133 -0.036878893620636836459 0.27305594833592805593 0.41545680183634930982 -0.21917422165123948141 -0.080631036172962494701 0.44113400104313804651 0.18203843988122431208 -0.0023170543229754283349 0.09086149410327164222 0.17317505625784979095 0.28966778812363552786 -0.13556253585494287828 -0.14570777153640052104 0.098342045244398323955 -0.29197469250022817233 -0.32861209337031527244 0.037936073488143186305 0.072260552372654621167 -0.20451923229746579724 0.39739653994896489975 -0.17853197200701384495;0.015344485542365279146 0.017226152899048809142 0.31601890192950377045 0.36750541182747581415 -0.057378120362623255546 0.048131576621555163809 0.10318554856950640231 -0.098330057668351900091 -0.17300575310439225696 0.092460305044324023194 -0.094939141672622712198 0.049945673574484213131 0.14498472756373070869 0.11941693504332863418 -0.1136722363681096637 0.091329639296631820455 -0.18396540092971638836 -0.37282999420697476856 -0.08449111793457919628 0.43560002556828136822 -0.31077995521569184989 0.074704728732852401785 0.23488906902646150554 -0.086873129409248669996 0.32597621810977178702 -0.25022578593630956378 -0.082103563726998604611 -0.19817411090453976308 0.04178049783506639081 -0.27083263220566294871 -0.051041880158180404081 0.19713664591052457165 -0.037151260103662250844 0.017203895030732180987 0.4834555074726507029 -0.15981972621464388129 -0.0013081150413377057133 0.02580156391303833549 0.24339317814885580438 0.14913244101263944952 -0.35400783955096737365 -0.22581098885648620556 -0.16569275906316394131 -0.06282040308833287956 0.34945164122813737739 -0.14905087407574596492 -0.033607872927544468755 0.24328108397743350433 0.061908913435187874763 0.19457819297843270689 -0.013643509868714398872 -0.0053349489059082442002 0.18937163390862979395 0.19393643502776783394 0.061069596083797694774 -0.10116033338018932952 -0.10485576683095555739 -0.29700744974571680057 -0.12842867485974140962 0.10104938955908635001 0.18068563362577766407 0.38254810776330683275 0.42561405435714816381 0.064044341911793950528 0.12104838104065135385 -0.20181564981703484229 -0.2185706881506712107 -0.067823469443858822037 0.22157427645874064326 0.090604076560103025129 -0.12923870941030793369 0.24562387346794362086 -0.023279815027435160624 0.2646493316685389896 -0.062870842544379496042 -0.041468740143673091247 0.18240787423379428711 0.17246206743004038886 0.21095417024066218104 0.16296983421533126069 -0.21317653064956978981 0.11110280198247249328 -0.22624190167143112817 -0.05043393196423299335 -0.11418129553353394134 -0.25406614856573583872 0.21497240601602912724 0.22501403759411953143 0.35165184042790526009 0.62331586488160306558 -0.32563237969573310959 -0.12308354670580795576 -0.17580094142368127286 0.30754842836945905926 0.0076062713409472447815 0.56383661170706411703;0.2124898674607183513 -0.040288438977925465634 -0.40696060080616675014 0.023525670427612974805 0.3917875241537020492 -0.30091854747820034888 -0.054611987967763273022 0.37929153602861015449 -0.15954109114744657871 -0.053163183036686781358 -0.020467563442765939613 -0.26955704088031340326 -0.15691423189062908561 0.14427331695499856501 -0.2068535478209826417 0.040738151822517380818 -0.095883716180324179978 0.072208789601929751489 0.062754124801969166092 -0.051097975791003343027 -0.1604244492255286203 0.15325392250189337484 -0.33070312742485136193 -0.21331714014441660598 0.27619442130969495963 0.35036152755539912151 -0.026172936655043908816 0.11538198842665027544 0.1674658413558222092 -0.1285801360528207038 0.45551828867429683401 0.24672995208867992689 -0.094421186143938060087 0.14411902782546340274 -0.099538066447991749297 0.2335289692730072586 0.048882236915715387982 0.31430641778855133994 -0.19975837873726287608 0.086946287339810010564 0.047478710584713555709 -0.15693051665516929982 0.60394079362230779218 -0.2483358842590146498 0.2696741713891879777 0.40077244516285143172 0.0011567587205012662063 -0.33348174509663791598 -0.015553767043569895548 0.025796732546725077706 0.20099425705772080986 -0.32622293628319426473 -0.22881103115311285379 0.071384518535290819585 -0.31194863181570586796 0.04075207388997001412 0.34416151436824704568 0.22105753821944101878 -0.22556947494590950942 0.045698185709052659143 -0.0096096795801246248647 -0.27498249949215231025 0.08609821640872901416 0.22333562635037979005 -0.48141920327036946681 0.34088461084593341122 0.16072718921621625965 0.082839906777576841068 0.17144461083520295963 -0.28224945968039855115 -0.11126973781152856013 -0.42541936544279540522 0.22448200113609229067 -0.11011464373646405457 0.029575091836128684919 -0.16174317968873608287 0.076471212125187260078 0.21975451684448771283 0.16698034971906577928 -0.041502612832219232253 -0.057299246580214756308 -0.11206292403720694018 0.073987358089452587295 0.31585707209174473942 0.23696586478835207634 -0.11177881487314268727 0.47846802957439737991 -0.088131657656387862865 -0.051932188971104846498 -0.26656196845221608038 0.36498842074012155523 -0.16255298296415518489 -0.061193251147587904293 0.20347287022815091495 0.048932146308297432002 -0.53956436924724748838;-0.16976852595911451349 -0.075668467379372730819 -0.15367391083044143474 0.26618329964826203948 -0.23092369117836192283 -0.048218724627606360245 0.061766914206179177049 0.098945590655730566998 0.21532476277118395291 0.0013840234354652407572 -0.24012273314231716292 0.19365325767826913061 0.013353576584180227443 -0.20802403955171930305 -0.12791626600074376685 0.060355036064761301284 -0.22993541113700768919 0.038825756711104691954 0.37026792521820900417 -0.3585986086107211257 0.024832991559934534942 0.050298201800620841173 -0.13522709270461127917 -0.25932251326100558275 -0.032503099016577594038 0.075017666128159868344 -0.078629354619250635405 -0.1784468651035372444 0.132933467692086138 0.20291908224290924889 0.022208269553036227156 0.0082565214694351497793 -0.11273238432233222139 -0.12332920184964663024 -0.096423352429141268027 0.20429268956801321933 -0.14485651801985921505 -0.046219899759846881648 0.25285025166499836002 -0.12409523333078442686 -0.01317192388903690517 0.012545778415499387118 -0.092667552851497775324 0.077900236486923929435 -0.0031644073061217001946 0.33124768882809280113 0.0060449667322160557242 0.088682004624147645067 0.31019109291077051616 -0.43287864036117323918 -0.20529946465196505234 -0.010832648009633088007 -0.12660617492502848624 -0.16017714273862776464 0.060324982639452871813 -0.18094568993757642605 -0.17887144362218343474 0.11018391401732410828 0.15684899026515991549 -0.031787972951330865923 0.19402391196110324589 0.015536063282560854185 -0.29598331250021864269 -0.26858856941365505389 -0.077020482312945906522 0.12860529774147766435 -0.12138821760729456845 0.37691112148902949919 -0.074597854169073163355 -0.38460416020416982041 0.44828725914079520232 0.32239964502479190323 -0.34898391474306567073 -0.16381298896322954439 -0.14177214282522301869 0.14857560462446398053 0.21653813378291575376 -0.15099634911166678886 0.079000357791594366663 0.23255780342549553508 0.0090166163534773288712 0.012067063844204075837 0.050502976287981150849 0.23976762144327437576 -0.01994083411982353754 -0.26515811105697567607 -0.063158164793288978922 0.2500871473751739571 0.10979113537624114738 0.1290473746946038669 0.00067638533929697760867 -0.036695159683078827639 0.37683401423136747566 -0.29857978369750243219 -0.2476528858126155197 -0.62945763943933386031;0.049284982942347510537 -0.30855560276021104515 -0.25982807514608330379 0.21885378167950730877 -0.044692029362554716587 -0.0087784216733572083269 0.12318297573936808076 -0.441912443244734221 -0.26103528301873857309 0.39696275969411715101 -0.44040323947664217208 0.19013925345521590082 0.24709403900181667324 -0.39839037668823312766 0.046759522219097654494 -0.073026181462561512436 -0.37760909181055024586 -0.15417025468787878828 -0.16192713674606845631 -0.14185525569417289926 -0.14350989389017584918 0.13251726523901660726 0.078092593777493585216 0.31078186018672193658 0.15286552542284548295 0.058930168658242736146 0.1730027674467191634 0.27126123820100761508 -0.072108381646524652431 -0.074662433729269575555 0.22273762130990559793 -0.39847277109013851115 0.38593738423069590127 0.11309632180658812928 -0.36879032732572430975 0.16679939510517494128 0.21487562934126749892 -0.15574610940756919431 -0.010345575500234401728 0.077330316469196622164 -0.044099949641157931701 -0.088983684184489403313 0.18985359674295312904 -0.1966175149468943617 0.28969322904261579632 0.07820321961116601106 0.17355331613289581849 0.20604415897949021619 -0.056970364822823318929 0.11737259128138145814 0.24200609784013740744 0.50359196173119769036 -0.19846618817109845656 0.090307721346075023328 0.0054157082340927685873 -0.14539660556419259363 0.47958768845096189093 0.26250765369525624893 0.049933199320030020874 0.43323131011862486828 0.28772366376189179027 0.12270662052223396676 0.20378750422162492106 0.10862618824053318911 -0.23487807172124836042 0.23183114851911662546 -0.026266925833934584578 -0.2795932573958148093 -0.069126603434902872403 -0.080521322398630648665 -0.23629477844796259456 -0.0064207663084190520764 -0.25295326127404149652 -0.24680196850904068118 0.091522686268672187593 -0.10462035338543304586 -0.3229856053653611947 0.22327738012480641272 0.23769521488134914833 -0.18359118158682286026 0.22403702474553049973 -0.040101229120125134187 -0.025146361859238727798 0.16335683496356823152 0.2692008399719035272 -0.1214544844736747814 0.20469838886393157407 -0.0070930688990576357469 0.22504906047171707728 -0.055414365524560409149 -0.38075022961468996119 0.021140197257583391577 -0.21633320970894645563 -0.16138738865862176097 -0.13937596360981052701 -0.12817568137000839856;0.15881548352425611803 -0.16157966413522714677 0.48741750134578865072 -0.069318150799262817641 -0.0014922340104670456847 0.14222289528602219399 -0.19103399855298675014 -0.21775697705368401991 -0.11183335686614549742 0.12858730018235414727 -0.23628409912476733279 -0.34390478109672689699 0.24924321067676702413 -0.080883387282092267245 -0.36651941783080649317 0.43520882428055684965 -0.15154383660022482938 -0.13668441058195074378 -0.1370383185231034695 -0.099662234822643927523 0.35760578706350942824 -0.32104122531194706491 0.076904245103477472667 -0.46333858758797996646 0.17266306226110322841 -0.19443522732529702757 -0.063891837951228144798 -0.0040153747023230802748 0.14840846932542084424 0.13512995385487031053 -0.31477033848508878533 0.25984882597672442905 0.06957385585909939274 0.00070679730614133309818 0.38722629972937261389 -0.15091500981254035718 -0.12213805199075411512 0.12863358626305387844 -0.018485564765420074013 -0.082781937786818790559 -0.42056926583381604168 -0.093443410409179625264 -0.46442294188209737316 0.12544845644202856638 0.020568791741166887743 0.19274761539799645238 -0.25511606896525468313 -0.46171337542599122372 0.32992329649426260785 -0.17103193025277438344 -0.28299923781715069504 -0.16544550014336592558 -0.15624703439826254092 -0.35392591600657674622 -0.26018289323065602048 -0.045943490419331545205 -0.17140172434662007128 0.20951534134337501669 0.0084951307889946387625 0.054625080910974926907 0.20607639435017119367 0.48749845666680563516 0.095668315983060261964 0.10249884253858383698 0.2692016421366097978 -0.38076261209529832508 -0.15457993677296477664 0.14034321414706218967 0.36812819574733546268 -0.67115697828884068876 -0.27674177120004173069 0.63717946853750651037 -0.11977288641633913879 -0.39087563363335137145 -0.06309198732866704018 -0.14112816046268397696 0.42078073534849702586 0.57818028300048152079 0.32462982637693454935 0.0065796056767963885525 -0.042342143999845809066 0.46498276950562356102 0.18285208993273369127 -0.090196299811567862137 -0.17205276439704425551 0.47857743115187634242 -0.43199707466586306781 0.27262466863811607443 0.33118511011268392252 0.24072199800818983029 0.20987681052434967177 -0.19496417422518022566 0.37197670004731459015 -0.073135796882492068449 -0.28821943156363938332 0.1348182505188721958;-0.27525970564178342537 -0.11858196471153609197 0.028232479331802680378 -0.28759856964093755138 -0.08030016286549175597 0.081276098399345103607 -0.20629021432096328326 -0.2252669194381708706 0.28634792012291498953 -0.036177937694342597597 -0.33292642613452022582 -0.51411575979154189309 -0.19759892158030403775 0.012143320985644905086 -0.1480431330267261425 0.088898973202693423734 -0.58929197488037987629 0.19335814146336530173 0.25256195925802638058 -0.20488877281518652618 -0.15238967790069324337 -0.11700557806674410921 -0.095158026909135787208 -0.059399590965756997318 0.22017594575934468226 0.13930477332995910844 0.14640080608215233493 -0.19215113759219293321 -0.24838729022773128885 -0.011850613941590159434 0.057105724694386683638 0.22597924938201627287 -0.034576326228974621491 0.37595724008754766166 -0.01377136942736632147 0.48558693044456752164 0.070902303846582984126 0.13049972906350484902 -0.169059148974154555 -0.39051759800646124177 0.13664636542261435204 -0.041174546537171501093 -0.064664988982441939935 -0.15432882549342574752 -0.73075889984460873361 0.12204813308990590526 0.25652456078365931669 0.45046544537234817218 0.18328561143572630332 0.29979820573984777843 0.40057717375225382339 -0.38156974309632385456 0.27096926134514015549 -0.018409463872533945311 0.13537409916198850368 -0.37337219898139900609 -0.22898736266254834937 0.0043510312616562522164 -0.23708854462301445776 0.021398312665494346324 0.12171147474165955327 0.089989862157135919185 -0.47476167834249516364 -0.092494439866790401084 -0.011926880496506954421 -0.36090956527277257004 -0.59412933824668867633 -0.034783186049622334679 -0.02651703169951734676 -0.39644870322724989897 0.33413084896691247483 0.083080571566027217045 -0.031219867732052954817 0.25573181111147996747 -0.11606632972845201679 -0.19274282007268836447 0.43022208361982966496 0.035486237272011146582 0.11363947366365392821 -0.050490887652533733565 -0.13902606050739790833 -0.19815705920715206978 0.16899628292819812714 0.04841333652515485142 -0.24151733689202481425 0.0063093951474596518883 0.13373563454152206931 0.091705196486697393432 -0.48567062138923178249 0.42985857224392887144 -0.33574752419668818515 -0.16012333275836740376 0.24225828934313053953 -0.39249322728488994505 -0.49620038658957743571 -0.27091224755029430504;0.18547576021145900649 -0.16023814000707872762 0.25106116350246865387 -0.39008724940092454059 0.19940759364274768251 -0.032334271883973135508 -0.00034156013663705299312 -0.27998813565154512251 0.14827254343874937681 -0.36716769774801161219 0.084197497188956221814 0.20334445543156881575 0.053319573410183493389 0.19837437106372002305 -0.0816555142643050208 -0.052970428318210568963 0.23086300106245308261 -0.095947523245631327615 0.18091594072289612916 -0.077383977298036088488 0.1000341969554227467 0.1760694597116961857 -0.079252870723479099113 0.27846842219411149788 -0.39591264627670719189 -0.16035528518362582306 -0.28680035948884208263 -0.23053515498643675774 -0.13512250731370609169 0.086316992412324627937 -0.16714346433395957381 0.13313867809172286183 -0.009971270081489170406 -0.25212391688761165431 -0.37299430460435756274 -0.34921933314674519222 -0.075446712628061102235 0.20651279373425765473 0.3175934998980268209 -0.46623796232555109187 -0.15306978905354381992 0.13072313747900163317 -0.19836732654341343585 0.072625234852273970465 -0.048416263632625682056 -0.25364803605371605277 0.14059999843167567124 -0.23527526977392271279 -0.01302957775171264751 -0.10214719341563585631 0.22197306921965156978 -0.072332104065052971187 0.057055077818071099627 -0.25207771961454239484 0.0272291491933120966 0.32765549014773820424 -0.048482703693382526999 -0.052361395396339507902 -0.15615916388375858381 0.04566698312105416796 -0.14411325919675202489 0.15321445981395151459 -0.28954196704044093957 -0.14373222283580450176 0.10938439986958867212 -0.023721685890187641649 0.087627075841723661709 0.064185143749722756157 -0.11242945397278383823 -0.15516423799125328431 0.22184844837863768041 -0.47057757213612844138 -0.16598107983221460637 -0.19530109244337640062 0.24087016992888932165 0.16905576375006373113 0.24882356337598887652 -0.035286284583535804105 0.29577172327121115103 0.060174740387509105533 0.27238463431268605808 -0.098136263879848611991 -0.092890346313084751206 0.27512359219203985639 0.25648607142931179048 0.17591394858443198945 -0.082794481052120894038 0.1903783674922402136 0.24281556358848027655 -0.4728583841795760967 0.33555535723840912432 0.19130880445751033414 0.21454382992886059101 -0.029252504619911006561 0.13495277095024740821 -0.38205032369170521811;0.076910296628737689906 -0.023804646964012261129 0.076081250919980678016 -0.36386243499308007499 0.29065574555162099202 0.013327252528042152907 -0.18365183321417594131 0.12801497687107543655 -0.10707126522079264686 -0.15488066386436283306 -0.10443467364943043174 -0.15240670359642141674 -0.050685706605016637993 -0.28485122244136612535 0.25376098717158285245 0.24808374152826676018 0.030011840127045847498 0.11121202599380676512 0.11023659613358623155 0.045220938896503679039 -0.15825833768545116698 0.15051719585454065298 0.035381450164663354185 0.50305130933798059001 -0.53413452457865762124 -0.40168408573911795756 -0.10197925725004292064 0.036452951416754759972 -0.089712238474343591887 0.021131865174405104618 0.08994784433078804875 -0.038829745713875644941 -0.20852105557922198664 -0.057033551535071259908 0.048844290083525351842 0.21341725559402993651 -0.23767546482079840442 -0.12612335357201995278 -0.22867911222767464685 -0.28246222810404647552 0.23782333028827332133 0.039484273779305814611 -0.0086110502912368457051 -0.054837199432890101902 0.19895789931470489464 0.11408861659394534116 0.025084820627612105376 -0.10384846443966094798 -0.51932638361319738429 0.01096159028650674043 -0.052120479129469911295 -0.38719316882413101766 0.017544753054754110705 0.17332740880032848629 -0.32829644756138265382 -0.11820045007365305445 0.015386198924129760798 -0.0039849938534898352721 0.0084286186960201084362 0.092790207150036704831 -0.1651468686266779895 -0.070744503386005144763 0.12154734516209546313 0.021927897150343062666 -0.10430955303679355362 0.36049074174946926785 -0.021293507948574454808 -0.095874446087190118293 0.054710238684704676215 0.32750860441629536801 -0.052816521974874963696 0.12822965419834100875 0.1694290957651679308 0.12947786820237625061 -0.26680696594107655706 0.33814697992703768303 -0.19169734777185390429 -0.18802447797186208622 -0.22729396829362932819 0.028264098681559896714 0.312861144784530254 -0.05593795243070351364 0.18452789020703505574 0.024738225068084943037 0.021196106643620385435 0.27491336178834951953 0.24221126441117094008 -0.059002753721712028478 0.082080405689351348952 0.03476852135518478798 -0.20058136310752736065 0.12612660301775605043 -0.22297943563387345733 0.20489784561520815731 0.12651281580330803189 0.62058295994246026606;-0.063162227999267309131 0.153743961116420913 -0.24580433121890118975 0.013473464273474700451 -0.1985477453159178729 0.23660430693538161973 -0.16772246804632093276 -0.23417132379874699977 -0.079385034385842725979 0.23169766205455152863 -0.1285689798808450357 -0.26735304668577408727 0.061651721257421979172 0.14973596127040827986 0.095751457115578392232 -0.02841934589383635773 -0.43276341428951892176 0.13090261954187631943 0.36839204828128985225 -0.14452509715500982956 0.079749877986341782821 -0.091521761516188085417 0.25846215922850818147 0.22365741733648547562 0.17501006175298192136 0.25528352246625291011 -0.095325992110687207681 0.0048673107202212738051 -0.04037819938834070338 0.18095518489338802137 0.11324457131693538292 -0.26273121714478042676 0.13835624036329671749 0.14670843606381986368 -0.047957038444191385507 0.016469294046142501919 0.20067365549325799634 0.39088619657171563837 0.31870678473624936 0.1100141709430225434 0.16212916574744745679 0.14127407308603923131 -0.042214313903732689215 -0.22912281622725680363 -0.22628040914397540284 -0.42166940028698907117 -0.063485783696978798085 0.046670366893370771044 0.11802678550930494061 -0.039038340843109059497 0.28502499802925612693 0.36540569960939345284 -0.2664092996880810249 -0.10006075989335172505 0.070139328076739240747 -0.34834877062492841659 -0.020834907720614935511 -0.22141894903650807813 0.1093181365472337685 -0.019770946975380260247 0.41605963644310933747 0.369234836589960147 -0.049743506560261677163 0.47693694106951373124 -0.074874946621290086601 0.02985604513001168317 -0.16060750136199086757 0.028838305042535546108 -0.30229376265309171323 0.053589007156681411903 0.54596553217571885952 -0.013038435126626616439 -0.20648004206715597775 -0.0032766063548216833694 0.26435764200220002174 -0.14633023628602526145 -0.29057209176625908853 0.15734578242641480972 -0.053541969374897996348 -0.12933819748182190379 0.14774048248097998437 -0.34204614176998060504 0.058392432351533948842 -0.048283994515598289976 0.17971272794667661477 0.16018653117169595612 0.041412958037651707854 -0.29791608812145359275 -0.31863936252926100545 -0.17223021221689752136 0.11741918523211691827 -0.20645770098533985926 -0.42116724023344581651 0.021495660936629176763 0.30573988616545472174 0.015626771311330781705;0.24435439467202677011 0.13083721563803601962 -0.26473914402182713301 -0.0049120494965320723318 -0.061646531929404169148 0.018048213182117103098 0.17636564422651174189 0.18774409553352988667 -0.31343893829872593315 0.082559123692801883454 0.3878066039206581328 -0.11432943958804615836 -0.29166363865005834333 -0.017013158016089272723 -0.17499643575757611869 -0.22203697285394738414 -0.23651354536991692212 0.30408258585624808878 0.071419434373532403315 -0.013463337455294542219 -0.068268909600754629219 -0.25250075520147480246 -0.084508257467991593215 0.35697259266006770018 0.039327723231224527567 0.051787106349321036791 0.034028469439141430242 -0.087680676962507239636 0.22086625664836345706 -0.16892220563771018216 -0.15596287659825142091 0.18567333451041209691 0.069445896971660300845 -0.25715053894291772796 0.028534437591609920076 0.1392243761245170186 -0.017562826558788373343 -0.2868831485955513072 0.21676765469960962429 0.053872765995758860325 -0.2611688307291524791 -0.068944334562310125025 -0.23935542195059461568 -0.017714884232417817816 -0.30359363260014499142 -0.044863855850849593265 -0.12709674947856230975 0.25214817284935114872 -0.13505030321315439346 -0.046514119510059251383 0.31862789501705579553 0.25519435817808144851 -0.18728968858759501015 0.017066730567673670665 0.66051324124451105124 0.38741329888153441807 -0.48994750320691804468 0.17239328983711163512 0.35721053847740957821 -0.52344907268426354996 -0.096459078078244997467 -0.062417552645725189742 0.0091698818202254669257 -0.78991309957583066836 -0.044065485698544418214 0.10036273708283663386 -0.6788360506824242524 -0.23008097954386458328 -0.30272542196564894423 -0.25412677372890785099 -0.018691762867286739608 -0.14645754527462306882 0.039842617868219770694 -0.17149554670305985904 0.031785439355068299816 0.27176960634320640464 0.26557523572317243143 -0.61462785877074421759 0.36034074266930504749 0.13723266055052932288 -0.14094490768535791747 0.33054180444289954499 0.18084560724382051089 -0.1800139614479419059 -0.12332413397164609936 -0.18342196514453165679 -0.0031690563950307042845 0.31465190140475007841 -0.17422965538557505516 -0.15159677064356316678 0.20094635935213278621 -0.036142361685765345136 0.0065652218536975427698 -0.3249501690642562779 -0.22565785249440847848 -0.12442447111216484168;-0.26383874290151737574 -0.16656421138960053607 0.21572385908841237856 0.11148330269659999237 -0.20537541839890491313 0.14213309361500398031 -0.313763779227361983 0.14731588465152969936 0.22190667971496744193 -0.28702846659052094758 0.084144765631206625001 -0.20341756691729215301 -0.10584211236308128934 -0.043514603452296816977 -0.19828755874378342638 -0.20898688273235632717 -0.24378723708781022128 0.34454692286399052348 -0.18295554703892399906 -0.27352388206600763976 -0.32609026271092911298 -0.46732039650687257071 -0.28435423561227352041 -0.78278942346116364703 0.16102537932358793049 0.0035557353145360586291 -0.16471048095432219704 -0.1445150924313930163 0.063853737454191275558 -0.26988524800470792275 -0.11299128170286457107 -0.04598544384263039686 -0.035478562938918919989 -0.02627848168456007466 -0.35642401535388695821 -0.2611993488594195334 0.14324313500437746427 -0.18701494091642661965 0.22946788170561840947 0.34557146080828032852 -0.22559807225874126124 0.00092679629018335750804 0.060039681779177497822 -0.19817976789884342304 -0.62044448947437513819 -0.41821552990378030312 -0.37504036230432630239 -0.17983681918851643355 -0.20753850068667500928 0.077247069138138765854 0.27878190433952376726 0.041940244717712432676 0.38447973607644286842 0.38458929595131019497 -0.065098780687580570792 -0.2323234361258050551 -0.2914559505626324043 -0.10309635983761686329 0.01257317674620698697 0.17153974401107691117 -0.029666585148981169939 0.10530350591288105411 -0.055271038547713376154 0.07546447709584638841 0.057487571861207301116 -0.31535494190932966685 0.48102962219272843436 -0.25609726372919217052 -0.34158253381712738728 0.069404302670292836175 -0.013862790611397550478 0.13443522585478742681 -0.41177129273974655277 -0.25014962294677728361 -0.46537916821404651246 -0.15271230983430947314 -0.062675238160021989886 -0.03679960830631527624 -0.10765015827188915976 0.31663180216796915634 0.15164920851409718905 -0.20164327196608924919 -0.29637759049523015875 -0.090036950101043192185 0.19677710483206076186 -0.072310058359547790818 0.10378977187691802719 0.036182518067859451016 -0.22629752635643227143 0.038590909876684446889 0.15951900300878743555 -0.15347065356879963094 -0.35938700776983195651 -0.087928189216652893889 -0.20443455415475683679 -0.22684212394351579989;0.21294898517744076383 0.11194451188041454337 0.054253565117289861974 -0.13118079244310631992 0.16970999069544590032 -0.027012933231055115402 -0.30730842643544342696 0.0063906512710160540136 -0.23275870072665266752 -0.17099944382301407453 -0.036687081056073850283 -0.15964552839234275039 0.11898949357521224068 0.094569105837401870596 0.17154613278051958347 0.32852087851788258632 -0.038477016527671499546 0.019990926703120574792 0.16841241852201835338 0.071055941885241252765 0.083874325085104728394 0.17392483656136317749 0.23015548916857084261 0.10203240453262427123 -0.076228989444661915398 -0.10212500257960620276 0.045873424891817407567 0.14174179053711033482 -0.060064889122038118974 -0.10464832704235881022 -0.31240409213565889512 -0.11788276938294622864 -0.24938786504347931761 0.098976093915481302976 0.2564351501182476345 -0.080832765267593309488 -0.10065399941567015896 0.057433476819765912069 -0.0080044655246258936132 0.12149728945438924288 -0.056322739209401673222 -0.17089273867794815831 -0.079570347339279923204 0.37370349192570445629 0.29356458154391679161 -0.026188634915241634782 0.094347345378526528692 -0.056408154551005944277 -0.22475962030400323255 0.14191730786998305036 0.15371179757283570666 -0.04719942996330159235 -0.14206239522178490398 0.003582628456792169222 0.12524214763562491193 -0.14754621887572402783 0.026550554317339412208 -0.039466939416776355976 0.090468825007069389454 -0.021864812923502147113 0.16323260976429590507 0.18288123296314021116 0.23241867515584127557 0.11307591190690634286 -0.19073100106398463427 -0.019677907668389924695 0.10239158602359839378 -0.28287166792241680291 -0.17104068065885066896 0.53835056750515286605 -0.018238238136470914796 0.28503805275791666007 0.013941397776611394455 0.081966225727687802571 -0.087829013416153803306 -0.25331502503792008296 -0.29181777056145713489 0.21205330485288423348 -0.059146642472891822195 -0.1259272725471219101 -0.12984458897609163497 0.22690841507451831038 -0.18917173025856962032 -0.024761323327851286064 -0.15073685022313496051 -0.14817936494685751692 0.11020355221872779605 -0.61101269994472928726 0.19798016796910042348 0.15830649657444004208 -0.12282298398607652268 -0.32206206754842964246 0.19834186143716547868 0.32934054055363193303 0.039144754422914547487 0.94334198438284755373;0.17972624671283732312 0.16480780608724790448 -0.013284991548289127108 0.28279327463167841517 0.20028322230571007911 0.34800631904459344845 -0.02463584144102871909 -0.055539768817537138457 0.23903167025299223991 0.1725828129027229263 -0.33514384928692286802 0.078475322239078423858 0.10623923749370095537 -0.28569872099645643448 -0.36647695557866588612 -0.067203117200591425129 0.080907949826941133464 -0.040479480578922873157 -0.27574161884987291593 0.034041612966012352315 0.060017475526079916426 0.29124462531771178053 7.22766747424734529e-05 0.10132081052374784791 0.0063414033717641878074 0.066751385882730510102 0.21940357210424071832 0.007578652428832808631 0.081156499478263713354 0.42670375538194160736 0.033591454503325089698 0.036628450005090892883 -0.04817946387917189377 -0.11436292460118137326 0.33604675651894172494 0.22087843242605972871 -0.29570147681865271982 -0.1179021113994459663 0.20702085793379482181 0.059580451783331961346 -0.072422124844673502198 0.018615693234050347676 -0.081846697078055516417 -0.20710606974556311499 0.17854405300808670609 0.15085069505997780737 -0.12346291673041787096 -0.1344874988881512301 0.035250010716330770766 0.35278659537465462126 0.016052356687952275272 0.17813274906364084949 -0.075429422329915743473 0.37233719690183481044 0.20541231698286163687 -0.21624794495845278686 -0.12933223409309546614 -0.38991633786446511234 0.18309737787519222985 -0.54128238511682158496 0.16203799986149705625 -0.22291703700625020712 0.1717653023716602112 -0.067563652816523711575 0.35069608007354552415 0.078641574967349428538 0.21553521936010844318 0.21048809411487118259 0.13785172639889189949 0.5295562442440528983 -0.049282437211362044305 0.16632685408354483392 0.094520009977278288127 0.26147647939019424967 0.25977091351162762134 -0.0048427545826777249754 -0.14433421886413205781 -0.17640066487952582586 -0.063372446045860272856 -0.11805393692805346562 -0.45088307664437393685 -0.032344359150775089939 -0.099452767525166616003 -0.33346432605275622141 -0.21112773188040417915 -0.45092840742595402537 -0.18214709741528689602 0.087070905776841400758 -0.23452115496309935971 0.33444129886310491884 0.032434126625369173735 0.022060143670810564154 -0.00075438943932673487979 0.10660083076193471729 -0.13168381842252430136 0.67491800312076555279;-0.13443564173273966911 -0.24421187431805355117 -0.18987168332502837864 0.13842166552821680292 0.2577112086774434041 -0.037840790199486377954 0.11980537364331869665 0.082751452918479739829 -0.2391390091815032426 -0.14434681393844853159 0.20529928447351714071 -0.087366120295247234884 0.2078002061963776792 0.26970230148370427647 0.378135443017291073 0.023340171275706374232 0.23426444698261186805 0.033019253406530939265 0.22963588453372965614 0.063725423809221748428 -0.23497564198775572342 0.01677230516146557826 -0.29296491444621536315 0.31812307821500379612 -0.010789864795814641321 -0.2220311435092733876 0.039170969507437099211 -0.12143798623356179267 -0.033912614135417851191 0.16365068833455020947 -0.0043775591810938764906 -0.091323453756674249915 0.040453947330522391224 0.016398804834762130411 -0.35022499952832381043 0.20231072850829634469 -0.10823047489319781445 -0.14535149797472454725 0.2349146441294193699 -0.27292567749101664942 0.080148528560263290754 -0.52385045855046086238 -0.30006812555539175147 0.11295906695744419024 -0.23462240843228410192 0.59469090935333823733 -0.085067908225758034901 0.24257677735134097752 -0.10668846823241977251 0.0079264765483750485031 -0.33008927868639553749 -0.034428590083438986857 -0.1889477535284109222 0.28781165116316781427 0.16226006921315175302 0.05660506452220517154 0.17170355234293915858 -0.01824531014130409759 -0.18110379082821304042 -0.052782552222057126101 -0.54383682512071584991 0.11381127611449214088 0.067198743566420221507 0.049284451907622144062 -0.099920749952320309095 -0.11430391615302443187 -0.29427258001498324269 0.14834294811272930037 -0.42471611973359552072 -0.022698400794204327824 0.27848153184257268267 -0.34037632805246437195 0.12245160778530790602 0.38252559666242275105 0.11967180164559319822 0.14295659672557120556 0.20015146344350848162 0.02105011116561118778 0.16816360611996888919 -0.23697792689379346132 0.63395727005398427867 0.35988200229375638672 0.15775237330827412974 0.10015755561642004923 -0.41563360890898032318 0.10843536712470348837 0.065688190831950141191 -0.33070245487044674926 0.10996360915786701495 0.25548628072278189993 -0.094964311653542077263 -0.28521771477861646016 0.39110386901701571505 0.42436954620377687064 -0.19527815429162759253 -0.1905027660286589819;-0.016177237871837890637 0.06140036324019591818 -0.18288703336860895332 -0.22577904006564658568 -0.027373192794477356482 -0.67900505617501305533 0.04524526497563165911 0.12159278680325556754 0.10319162387681124482 -0.30533699820988535745 0.38497279037478432384 0.24411573665817903889 -0.026128495938814944033 0.020402875459388920137 0.040279778867222025551 0.39097064497652556092 0.21118124922313005754 0.13155752716758531418 -0.053727172825249240595 -0.13202770225740906307 0.21519507825043326932 0.095095367889957760354 0.22000667341873944571 -0.36271785195454109285 0.13938874985681534713 0.018073944322367328785 -0.18653578927569525181 0.28312351760318588134 0.44602927320618979135 0.0034311686126144284349 -0.057555623276760198292 -0.038745134515192576619 0.37288569965039358722 0.16747518312370129889 0.050936205940804522851 -0.13788843419531726653 0.24649837254538270459 0.22821083823750734632 -0.17940166998266773857 -0.057618866147704270175 0.0044121029135276461017 0.45299066146365879471 0.25423982946507062142 -0.086628991919613901329 0.24090957818916930444 -0.062967072261632076047 -0.043837482541562285132 -0.16888862208508698126 -0.34580941307035067966 0.15890536042148650786 0.050507996054855792967 0.023126909090183209172 0.18977567321441432546 0.11753820739773668258 -0.014187198119659728129 0.02845047398689191237 0.62601459966665595758 0.12379741662472584784 -0.16885176933799186938 0.40260294165143017953 0.16028142485626517555 -0.19071661937502379369 0.39558733479402174993 -0.37834348568119063883 0.087308715522683905119 -0.38727445657754028252 -0.12471799050641911577 -0.17014608895193034099 0.59941829511906830064 -0.44918639613153871215 -0.49247266426078312174 -0.10422459877117098981 0.080464895612151088322 0.11752664633871615085 -0.27998285035377401542 0.18562957669840210451 0.070586423028450778761 -0.14922589958399434806 -0.14926747144565621905 0.16915482360485462054 0.31153514178878688456 0.19240300762593887107 -0.065582084934941595189 0.19383233714126774094 -0.61721940419434950797 0.066363780026354651786 0.24088908867164177119 -0.0018362132451642816221 -0.24824237375314800458 0.42692279825086992817 0.077394623871161541406 0.046293178054560582546 0.16926355772179410564 -0.23159122162740217177 -0.29645284587280212873 -0.39337122440932692502;-0.063792462672126612477 0.13233230961656022862 -0.45226529540854187861 -0.16571398318419924833 0.17495597186999131689 0.018938470590227771823 -0.097773106753370572775 -0.13694537695831476842 -0.30060494636865975338 -0.14306151049355203542 0.051443595984923720654 -0.28149879542639211216 0.19935905108074239434 -0.18441487973054412897 -0.00079292858584071625183 -0.052316019308718111902 -0.046496763092201680301 -0.044488384308236449127 0.18315500952617352892 -0.21100711111362144279 -0.29337397936481740546 0.17728237036915409086 -0.41971699723885796951 0.037764609911591626168 -0.20220931043102371993 -0.041906787166051888416 0.11931198517187509289 0.50384947709904259749 -0.1807798394484373683 -0.049308890251756866407 0.16029202035315567865 0.053557463036981951821 -0.29513632356911517762 0.074014457876662678726 -0.018503352795847031326 0.18987163449423810624 0.24953706268221853559 -0.018707119541519198758 -0.28501066358090509922 0.21430319136916631262 0.18245462818736127297 -0.30164669229375112858 0.1451854988850249939 0.088795646592088273152 -0.29018001921285024869 0.17087179713797917557 0.044426589687803358375 -0.53836185955216464549 0.10340977502140599742 -0.26122842153432696 -0.18976114240884534023 0.43041164101238643669 -0.24225816099811309234 0.34148780384331811621 0.56680849392951182519 -0.040290116450867136111 0.13149625503910733482 0.11489335383087653786 -0.00067816628000390895975 0.23373000525055104282 0.060072415645766388814 -0.036872777598964415202 -0.29153004747461147561 0.2140446999439859499 -0.068668592510415876751 0.20539076547099074932 0.27963734218066027548 -0.070161245088541324133 -0.2421757830649629295 0.16084483959649362173 -0.18734356669361004744 -0.55427866664177560807 0.32979019220425542791 0.012158370496946718092 -0.17398348999994259212 0.27134815448403204474 -0.26339990902426807518 -0.25339220896957270757 -0.26969825169905503603 -0.030589243498411425315 0.047202182941540986316 -0.053193566476737015603 -0.015483278688484971783 -0.31091101529754494592 -0.015685590976821640191 0.14500614206574266585 0.15310619185523441366 0.071318889637060706166 0.064803835134981918609 -0.28594889186527172598 -0.16701990871336133693 0.14411033558039870739 -0.23215768927019164725 -0.46219032373974727745 0.062946021599120424717 -0.46348187262668733011;0.27500685633545268738 -0.15908425795782407675 0.27640045933022572289 -0.23419479237524290505 0.22991821132645970382 -0.054174083340697565259 0.015919855264919048621 0.25056273196148753923 0.1122751463602542632 0.36131379110199390858 -0.00049132674587875659056 0.077419201792760711234 -0.24068771600816157852 0.21177339446384402244 0.5119842440335511391 -0.050721327240308089479 -0.064502404628811113585 -0.41943460856700781614 -0.16129015857655840116 0.18509936600670542917 0.55215759449299794959 0.032453044298333656725 -0.12431210424093594447 0.041676596772619409204 0.11719092766401037475 0.094074449472954235763 0.41517357260931142537 -0.16821943163947916666 0.075395450869917612913 0.028531475928000961384 0.3470512750681705727 -0.066212090414003860195 0.068738730985249435479 -0.34503540464452908676 -0.19918506191249285564 0.40932694403081681944 0.22421299311903661322 -0.043709918043983241043 -0.15499905435763175476 0.30731592889426739834 -0.057505105545259914412 0.28385310247247008686 0.13682855945445399071 -0.26829424513839117417 0.61176164257110166034 0.26933937506750693647 -0.16392112264316846537 -0.40275243649595016127 0.18900544078391531833 -0.087473024313042949118 -0.035358099048475408188 0.22550794584550168387 -0.32924554776447817472 -0.13980398961821469128 -0.1077597196152135367 0.26975074464166554078 0.26726673503009751309 0.27689358542891406856 -0.049089954697452573007 0.17497516189871636927 -0.07951026782546652405 0.11399696172784708204 -0.075079975637335871763 0.22218231600931456771 0.040005795859366290179 0.27286902862104511769 0.42050866477911996721 0.059652453797147314551 0.60168711707333732974 -0.36660168986068131236 -0.20359843731487028973 -0.50229773044640579904 -0.34495770329954511535 -0.06210949109995957812 0.32907794097248499465 0.10272431992289415836 0.040166879547634093406 0.30975578012711918463 -0.42039193083660769679 -0.33864756986091731905 -0.11299057159539065143 0.089145868011041323742 -0.33052483455515646593 0.16478073457189332252 0.32404807341527558373 0.40154208783480338507 0.23829882861557674656 0.34144574650484127432 0.045732200928492061642 -0.29921154569160379744 0.235796002124950832 0.13298256084891380002 -0.044344363102262876475 0.020613276814547526472 -0.12994990404654174765 -0.85736716832087789264;0.30593028262409749374 0.2456997476999547847 -0.26757898180024519696 -0.20599929641127195934 0.12190970641081941284 -0.15311161130723224821 0.026039192811920242043 -0.016035909105009106546 -0.0073397436287030749791 0.17909397657641887291 -0.43993083185220166476 0.17636251797748936365 0.26079234774585069445 -0.11938211907552004343 -0.063958553613267341009 0.071395941966626325081 0.073627631158332998429 -0.024998111678491231891 -0.0053454557816910493878 -0.13980088487232597561 0.38995498868427080907 -0.0061945551611181752516 -0.064832014387017508628 0.010286668593286595746 -0.25826618329066308721 0.0010885115450349393956 -0.0034381663991724436755 0.031969644645588927989 -0.071708582637122250669 0.33446532211477236762 -0.4655068237004051368 -0.0078808346568893343498 -0.4101475692645009663 -0.38211557421208736107 -0.29064932823073236223 -0.053068228838470718478 -0.3278812940690128408 -0.41083530815963503757 -0.17097136588869185636 0.075336386368334382069 -0.35694932201373463787 -0.40566855127855416807 -0.076068398229018549528 0.10828433075990506751 0.24173969845812440238 0.25343458082431991052 -0.36744648046963734878 0.0081820347703604936335 -0.15458228030609980075 0.12872932982259530088 -0.069465129672859227128 -0.02181005163348584755 -0.25707962134819012379 -0.25279379081377933991 0.045263123385347860117 0.146338742913695391 -0.20226644467117388393 -0.05159814651254952117 0.23052960641952879861 -0.0036644901426582257922 -0.30111909565983357995 -0.05603827825654617012 -0.47336606507785239373 -0.22518187111264023614 -0.058587567419622531284 0.1872824616677944698 -0.044921732732273421396 0.19478171320650783382 -0.32198129475856079873 0.023050940943206754685 -0.092478736140678224897 0.15446866683309129487 -0.2684897491920126833 -0.17613534371036923543 0.29825307775213183437 0.085360950618832864834 0.19720669223287784488 -0.26660547456801891864 0.45654641117338817802 0.13496600182968271353 -0.083117720887400659002 0.13845675155166348169 -0.014670784289078272686 -0.055449105223834400935 0.19916384219824501134 0.35217250119928084073 -0.035720967088281457835 -0.25587755984333226955 -0.0075280980382559700009 -0.44087381611016690508 -0.20187730655985458572 0.071032775910043893797 0.16001745402314543343 0.16885676636396737549 -0.16542594846615596427 0.17142218985909521423;-0.29065039850545304478 0.045165455860153629064 -0.027480692805168429466 0.037272530681986611178 -0.23304932725385810177 0.062824758462900490152 0.090316737452670547981 -0.069249410189968621521 0.065015193743504950952 0.15538288215386680813 0.036125228934922017088 -0.025677535817949202757 -0.076463370346213338502 0.22300706063207018093 0.0093504490459869159247 -0.14689274704188748366 0.082287928843956692493 -0.13119890270556097689 0.21321258767938564005 -0.071054259454106830085 0.2134988808747918243 -0.065496170140061010789 0.1629453468122696036 -0.092217624940737943917 -0.033058000417708878482 -0.28059035482186434063 -0.015016107700830106514 0.045479282452317915109 0.12151321145490605324 -0.27030896179990437922 0.10494721902178727468 -0.015289459999836638865 0.11875849421124506922 -0.13336189303434942133 -0.10550150004264371995 -0.073624628365663372098 -0.17559612042584901714 -0.069229351588486615077 -0.23650593423392610171 0.20504670939463895407 -0.08123070136640724026 0.021904531768207072262 0.18948816097873791287 0.18195285854252232771 0.14612433104380490034 0.0058630150200473891628 0.058097422945957925833 -0.17249940952364792301 -0.32442952734142055382 -0.2145720395002155001 0.099065820735309381706 0.085336762358632065051 -0.14066267705751778205 -0.1472706295617093597 -0.18285216241928939351 0.34864005426151090106 0.015369044318012083788 0.23835471085835110983 -0.039978340237100687404 0.22544755059525423135 0.086377142685037225367 -0.24233258000173116264 -0.18325259452666980975 0.073412995516492621229 0.01491809328126687817 -0.063445696560897185678 0.045377200178560089805 -0.16356096109050941023 0.072023221999091113776 -0.15039358937813018802 0.15353122362187981986 -0.4801997081880710061 0.28073428217704449184 -0.017169562078174910313 0.042487641218330290949 -0.068285492743196313237 -0.12133048901845196188 -0.05617349595914371968 0.016910385973069923249 -0.054581995311501312063 0.018691233015995480787 0.033152191330972718974 -0.22198812682072552316 0.23306090408808555203 -0.16115072034974223247 0.044645443243496403529 -0.21243621240450136223 0.272737266415156554 0.33663006557127950202 -0.49567538948293154988 0.086631439231319981586 0.34414884811086565719 0.051124156300792256147 -0.0024188186450096616636 0.054754080251558048809 -0.69230955903487212399;0.18480516904450883242 -0.16767980979052241053 -0.22300142527657243474 -0.097955320528496342414 -0.10176643780135709305 -0.0083320455014395129051 0.11763664040658003418 -0.1408511891112559089 -0.17919143142828752868 0.069239624068089020148 0.16987978464133127177 -0.069047282379588043044 -0.15372036059969684807 0.17890884203581897127 0.39114768004301952997 -0.053123713840661439256 0.021119231869680791386 -0.11706874786304519165 -0.088745282368516476001 0.02919280088280197874 0.08039669797657422734 0.17564126781414540757 -0.12280516775885882974 0.49329012621373463654 -0.057948034206907986232 0.13377316626038640579 -0.11027858040215895996 -0.054876717253575305056 0.13890548446206887889 -0.13108441809176019088 0.026157040501630958451 0.1538597515438795138 0.0070781152035771927045 -0.098182968584001203971 0.28357204359794380144 0.37191488134081818195 -0.19483325128010306471 0.13009570585437854606 0.073352239421734702352 -0.0069049744786460250795 -0.057230777935184287686 0.073824506415947954707 -0.19809751961128674314 0.081504116663423539779 0.36043866344794195378 0.17742026476625460951 0.1392819892483529165 -0.097193037506482643506 -0.22871722874633926281 0.23851784955613636319 0.1577130093398141919 -0.22788955311945155446 -0.39327436468579995976 0.18723434038694866666 0.1225999666126378479 0.026993429125684788306 -0.045501549668272384119 0.15690162552345870983 0.10485520395382731673 0.14949681205116563398 0.070923390788482351677 0.32551060784989177543 0.11348402233182702803 0.086607128078005843341 0.019893568825292508306 0.031006357572573962217 -0.057261457414292858681 -0.061894938149813699679 -0.14765551633841761392 -0.3735066683258083664 0.091587505422181136883 -0.44037517285813670975 0.15065381676581035553 0.36017688399277925093 0.051161684044494240564 0.2547112533612618801 -0.27028328044446936484 0.072429289878062588781 -0.28924438881934988466 -0.31240148830935610125 -0.24940547741222587885 -0.00039670436335415091428 -0.18158156929696245285 -0.21519292644782272994 0.22016483530346694919 -0.045122335593618639882 -0.0806280234789591016 0.35421648241292397197 0.30647436476052281051 -0.10593047770404297181 0.026618729120128550164 -0.011935114412809257403 -0.031742071784067335538 0.099579884944534666213 -0.03207528512403487464 -0.044669890787686190869;0.071766847518935458772 0.00830377386191337441 0.090915157465464940811 -0.34212658635819226394 0.21825808473121388609 0.019440780764426471294 -0.15855357393730698523 0.14072235432643331876 -0.28201429245131404144 -0.35246816801450969736 -0.14132801728162708299 0.32572961483088064272 -0.16285452348940143708 -0.13416346599391729133 0.077593670481007237516 0.13036420112680749406 -0.13012979697905827092 0.30880750816466417952 -0.16608896979985823816 0.029248555086209361564 0.064811786394840795178 -0.51535280535992900042 -0.081781916152160155642 -0.15988130510358097847 0.21284648391445992743 0.13749185602073296653 -0.1723588383988526318 -0.090455189007589462125 0.10596815501944405191 0.092391764565705775114 0.37230422614857811014 -0.20395308308790618956 0.32816412939508154967 -0.0070205982986634822562 0.044286347725484051518 -0.46625076124411468648 -0.080973309733425175017 -0.15447566520021480119 -0.037593600156313661254 -0.15640798794518934178 0.10017115252144459525 -0.12343048751996141266 -0.14375851516245249928 0.21342046280200560604 0.13896027887085557473 0.067595608737577361769 -0.091530915788445271764 0.33284954668541033573 0.41363085858465120648 0.1137220534482063089 -0.42760061174467245415 0.091000168778053724949 0.20303342614724526061 -0.097685146927513386017 0.19012182079862249839 -0.01017286351136788107 0.1449689272468640544 -0.36676860633920893573 -0.16528677384344245271 0.075496362196342425843 0.045148772002643347556 0.19220152431577869345 0.30523803799352411392 -0.084280807034178673032 -0.28602182628508099338 0.1646296182044960088 -0.33910645723300852916 0.012568040428342022383 0.013192004329385838279 -0.28222659729140592288 0.23020236852482345302 0.092635047908140019657 -0.22561178833624515039 -0.074929239341502640315 -0.054340667295397090952 -0.12496871289511719827 0.24165865624887244989 0.032777424675546174004 0.34341648710907302089 -0.071939872786725742038 -0.050309333236586789573 0.50107800184422834899 -0.23019930427814533358 -0.0064180367282977131629 -0.30031788983943685789 -0.280022994427348626 0.19306240729803078593 -0.25798008974090691492 -0.034550235357435475636 0.30603019277234627671 -0.32514485868050019279 -0.16048968605574670532 0.12560726515018189042 0.13942524589387078615 -0.41798389620539400102 -0.51291934806837202743;-0.086403366967743339133 0.0001428144100561255618 -0.31129024731280335869 -0.17690812206011294339 -0.14422451509194786357 -0.037403240597980197402 -0.12957055557249547162 -0.035967285306470031525 -0.18385811461862938687 0.30711303237583986725 0.035073641083983295164 0.16180285388687185022 0.33957285550505894589 0.17755694512268199725 -0.045713529079235079577 0.18088787831954405982 0.089040888653426339405 0.24494816171064251464 -0.21745561475446448241 0.33654366204151203723 -0.42038421644910778374 0.10860101535781319093 0.21891022641490817668 0.17059973728421423678 0.018553892187206540848 -0.00085958795383318190725 0.2043473663955867603 0.19044036022773921935 0.27653397474904434228 -0.10038539569466610468 0.42344505840740459535 0.066379610088950560809 -0.28899963314833704286 0.42175589872040575301 0.11156011783233016343 0.42585478923219721725 0.085732310036559747357 -0.17317795348268133493 -0.18439349808499058692 0.075919792426453525103 -0.16613151378388282819 -0.51427452549912011648 -0.26991374025720266117 0.24570490461259886228 0.054340952982011123118 -0.16461456970613386197 -0.092884358884476492246 -0.22557693173492565641 0.37934242284920693944 -0.13493384542016106931 0.27549013064576211018 -0.21080374366640652894 -0.029633122850147689681 -0.16999857745416513399 0.21684871815097556125 0.39658371532464337106 0.116050694479749264 -0.080937510863161921115 0.19366793961038733518 -0.36287206132436267136 0.40594577755997657276 -0.24853448277722317572 -0.17918283726770695141 0.12293059361625835457 -0.063782185762345219859 0.3350172713740965369 -0.3879569753238914509 0.14078574582559522099 -0.40484259562864255422 -0.29362628733966672501 -0.46268700391148115392 -0.052525733829626816696 0.23483788637241945207 0.072617823937086420361 0.052451769276503933115 0.23909570343078620502 0.12829871091655459248 -0.34084784886861102526 -0.028188190542396251298 0.20964134820650690005 -0.83288217832872946111 -0.24777420298043853486 -0.21655446164339126058 -0.75860381206754257111 0.18256603248734870615 -0.27943060469182057215 -0.56419042757691340029 -0.064611584391053980547 0.12307000638729717612 -0.10606025281457127918 0.070027897691083390574 -0.26854307466032090179 -0.0051387308880224543892 -0.30975241936852260238 -0.1900943403370818352 -0.16367938610579621517;-0.026439170452260737226 0.16826038030814616242 0.11540021316804220664 -0.12057904330510903212 0.13499337254326626567 0.33436185556145964215 0.039165898729972566106 0.23100029456496354308 -0.18503414993906502906 -0.3496077227820720279 0.2036695275500114144 -0.25098756220457152377 0.022847707836707312895 0.14725323480619878502 0.027145867567030478734 0.22672029245266170361 0.31277862740202488911 0.27368025427215175727 -0.32091440440620744301 0.2359179413368961975 0.085926501546646522067 0.039609809708443965981 0.051654537425525372252 0.21302618477678106346 0.46309722035014266872 -0.27104920968688822613 -0.12227391228858758288 0.034351478488539158307 -0.11535779125255390953 -0.39229739183704653849 -0.074370406607149816547 -0.0086071322622598318841 -0.19765701270951127611 0.29118433325895520802 0.12732133101234963113 0.162891998776802438 0.0055391842767781333465 0.12861773001587670229 0.032091525310894430945 0.41889992729680053385 -0.14143657534803968923 -0.12026763609401358579 -0.15712387103946218181 -0.029405113212364449027 -0.09210039879590509182 -0.040425361492239700323 -0.22445415663707751763 0.31937004702796162325 0.46228895805221192905 -0.31269289447710962859 0.2365873934663067224 0.29897922443567348516 0.067460341331891049421 -0.15589701031968217215 0.0025396415218296016988 0.10753956956947327561 -0.10787264305573029954 0.086646868535514315335 0.18458211905829505217 0.12983998125465648354 0.32216755635275545755 0.059798553718397137735 0.077429587341904373976 0.11113068868747856544 0.04323885188051020817 -0.2378925007916082579 0.20318670329711319145 -0.095590109747274984442 -0.048656001482999061691 0.16194660423800233406 0.18436908833905854554 0.43061813154880967947 0.099500202992201289276 0.16157748492611412328 0.096200520426821492515 -0.32290512667000592639 0.021966461563581306249 0.11542922287249701707 0.21222824007875074059 -0.043561997585714162806 -0.18568143149483037901 0.27996225379636124897 -0.13192230170527494137 0.23671735117228712153 0.23703529587065921835 0.099617743427015542634 0.26305684984020138995 -0.18613024188294585715 0.11519946691493869462 0.61104964041714326939 -0.26673545088501676714 -0.063065663178481903839 0.21738182303072037249 0.26470371096260092436 0.15238381634346409577 1.1109706195649953209;-0.34883150267278645318 -0.049516075286525948473 0.1215641773597326003 -0.038657899236063171522 -0.22706751410096898125 -0.0070092176266179917477 -0.044018217578708662696 0.1380411527154876139 0.041356186355212327943 -0.028634207564404379198 -0.10283352648764280957 0.0087330317887929186094 0.12930230694429065141 0.041468127912128213697 -0.3056810853888426438 0.037792222265686584159 0.099702215712819369786 -0.015471766352146039403 -0.27599889131446708745 0.24987760781732029636 0.20747302449535712232 -0.22762810504385080912 -0.0057225895759706584681 -0.034925143283070246569 -0.1479349920082672909 -0.01023830159469553587 0.091476554608950350067 -0.12243834707124405525 -0.18181279094730087853 0.082963627334770820299 -0.13144929407730934767 -0.016708983374171343383 -0.013092243625353994219 -0.31292856655372880414 -0.056176696788198247912 0.24509617756414869838 -0.067824353746924706532 -0.30450385469012875017 0.25306054929828530886 -0.092843184051445384886 -0.22758983089804324385 0.065072402612682211931 -0.12799876665495665828 -0.19636743019104324626 -0.052103537361114199422 -0.08345963898579958351 -0.19332427014385211717 0.26678159211351820668 0.15750970405246744743 -0.27258901891712933319 0.20296230831282704998 -0.15391673809067621392 0.0101234381828007175 -0.019122110389445071132 -0.061881964434133955588 -0.26430907886803645113 -0.089749372109382885565 -0.19241370169890545383 -0.026230952381363605713 -0.15012947946477109284 0.025868368583116866516 0.11551835633326387742 0.02637996320959980906 0.037433681345194626255 -0.0275896776469339855 -0.17108045151948589324 0.048901925734252636724 0.0020040268423744452692 0.26709117554199196531 0.41116483196377229259 0.14278451475316625285 0.065050328976396620817 0.10841646824706749341 -0.042572523045072467596 0.0034863857881411771528 -0.052188015528928669018 -0.075062746247451961334 -0.27785650478209655834 0.21556674909416440045 0.22899157155363517036 -0.014500445474610421104 0.084036222553589029483 0.092967836619815655275 -0.37026187585426639792 0.16387777253444169023 -0.16431241361186990635 -0.13290683182052567823 -0.22255519201259338358 0.17464785667683566106 -0.23558068623529460073 0.073849704511410055319 0.019236615162026904358 -0.077616346467794763986 0.062771583784766063485 0.32529374616372908058 0.53070375104159839275;-0.22892818820102481259 -0.26305940870691019162 0.047639764617695867788 -0.17064114324427692715 0.3856185968091981886 -0.11846798981492283331 -0.037802083499223274043 -0.022359787960753978869 0.19478411938690384786 -0.013861035290439832623 0.098625969912201183476 0.25284419958250092808 0.20621271544453245728 0.11102699987418906957 0.0074924830944141304623 -0.094209444315718343654 0.24114431367787092508 -0.22738422155919454926 -0.12072175506054783067 -0.038624524933070766841 -0.055087257770507366827 -0.1781011545875044455 -0.057426917498372635762 -0.2258917793693042686 0.050644677280778677142 -0.1432182215787941304 -0.19831844624125002929 0.079590727280830095292 -0.047873135307732662957 -0.086035420600685655335 0.1860720500808441813 0.25744540870600224336 -0.065975050592559009166 0.067675319907772077399 0.088173918033626813573 0.043294999798120265 0.032535254869603881522 0.0031290799541685873457 -0.13233177975267004789 0.26012653268064628298 0.28797244574720659571 -0.23022332805958786728 -0.10181331977196318717 0.27808308121993008388 0.044590660248499350282 -0.17603394973816607894 -0.034593971192841993512 -0.31604095391821546146 -0.13593857159392983003 -0.033679540708239891211 -0.058129735377610680658 -0.2521165241130295942 0.21629260751365295135 -0.12956691776821524509 0.12254484277631992606 -0.027452844221147427312 -0.05507945300906852415 -0.19598636663758450815 -0.0035699641712458318743 0.17020581638838142013 0.22089163779313203406 0.22553400198491896367 -0.10623342237760470541 0.2345102581748624293 -0.16589775262543998702 0.35278183441545540866 -0.14776336711063717266 -0.06027292015736892411 0.16367827343320087707 -0.026051253870876572155 0.10536999926307746844 -0.24535258824815589507 -0.033838676563994724011 0.13792755151278723869 -0.16103363449479984881 0.21596419180421613793 -0.16200911975452331193 0.1323101498609206006 -0.22838285092877821936 0.041358039550118970429 0.081042396418935028213 -0.17564343523392170199 -0.1268637598843793679 -0.10358321542087400857 -0.0035824772599513301369 0.095012817412047215204 -0.12046871412280656111 -0.2609419758595394323 0.26693022055883802723 -0.19025237065729441732 -0.041767266024628088572 0.21999183873267322276 -0.063006272262833895592 -0.083364298856706597896 0.0063563045255935930744 -0.53155790918605416717;-0.072964518502158293156 0.36790605805624021496 0.14304040840849521765 0.0033597759942440050089 -0.15098844538400943427 -0.042107342409778175663 0.060192815458222193037 -0.095096468233185446617 0.42823775390591822809 -0.11587674536865619213 0.21083147147674854982 -0.023276065545654638089 0.15986329149110728443 0.11674661958088940195 -0.056256608208930372617 0.23917433577024180269 0.3608037748531718325 -0.012724790468407420202 0.057594985683173768876 0.24780436360479698998 0.026509237222468371581 0.170460707158121616 -0.14093489030615241608 -0.023707032845259504161 0.040470986374519984929 0.096819609905123088511 0.10721342331725329522 -0.0055144289677121430954 -0.15209913597204685609 -0.083462959358630003925 -0.0045197770318475046641 0.11265775270009995013 -0.22032435491923874071 0.18144389038460412289 0.025140924321139835468 0.20621329920998898722 0.20694365321678134806 -0.06005502660031383777 0.052758521893946724868 0.1302337452831101583 0.12116040931052066143 0.35300124474241434402 0.3352709139188827514 -0.2406224286607083207 0.077416362115474077199 -0.2268027008051002047 0.29778670211523150524 -0.23097502263842800696 -0.60737383867896588274 -0.0047499879678387932694 -0.094405336470854986364 0.055566835876109131609 0.12066318893215750851 -0.1771732419842512174 -0.007208861474967066113 -0.20693227215902909588 -0.19609830991817753243 -0.17615417910392588974 -0.08492348994726467426 0.2884544733545301165 -0.21267999297776021828 -0.087890036880975186406 0.04284653791035191589 -0.23938286180824241978 0.3740357019608824829 -0.020714045499584173016 0.12246090074931019476 0.052624869331089854652 0.17656221316206210936 -0.11133270887786206327 0.15703059841503905214 -0.13828787687053464839 -0.014199050047239624925 -0.013005594650093359882 -0.27859542715318685868 -0.081837646408900885375 0.2218318376483201515 0.019736931066008139152 0.32829233124204892924 0.24625131878520289952 -0.24339951103816337419 0.057660245253504889551 -0.17918032485692220179 0.1683050678439939607 -0.049713353984525046614 -0.078725150355424419746 -0.15745311839216491467 0.29566038706224445631 -0.01375845653684961041 -0.058470478640441587992 0.10071264845613060734 0.052675383991260149585 -0.1741500289385953526 -0.43398830454477965723 -0.094942619729531593786 -0.4225365775877957808;-0.086447183897207249825 0.17558201491212990786 0.0095286297140431217706 0.098733534334714365133 -0.10149294078788510809 -0.0097664078696451002426 -0.056100150332861371816 0.035893763614584954513 -0.073712759826890808523 -0.20738846629220819562 0.056971721783174424092 0.15968354735507436781 -0.20202968314073280198 0.13663017359818810381 -0.04353884087982494433 -0.13347957372836841139 0.099421165610070541541 -0.31168199309980620937 -0.20509645176016569335 -0.21204243364679031814 -0.1133522059108890423 -0.2782927862247172035 -0.14812599825208883075 0.039245022907868999662 0.11881154926415661566 0.059870758120095214638 0.15612633276396845061 -0.11471918700099828503 0.25235401791072648026 0.22826241024776150468 -0.17811700524768422915 0.16706920644551020994 -0.1121063251279325601 0.17563741876496857808 -0.063486899065841775891 0.29873318192612347 -0.052568924763746985307 0.24814114158982958358 0.21759807842829070879 -0.14524339647755357685 -0.17547531385458242648 -0.17401238161456675235 0.086406920142297088949 0.35004637964153306751 