function [Y,Xf,Af] = MLP_7DoF_ZWrist_06012022C(X,~,~)
%MLP_7DOF_ZWRIST_06012022C neural network simulation function.
%
% Auto-generated by MATLAB, 01-Jun-2022 14:41:45.
% 
% [Y] = MLP_7DoF_ZWrist_06012022C(X,~,~) takes these arguments:
% 
%   X = 1xTS cell, 1 inputs over TS timesteps
%   Each X{1,ts} = 96xQ matrix, input #1 at timestep ts.
% 
% and returns:
%   Y = 1xTS cell of 1 outputs over TS timesteps.
%   Each Y{1,ts} = 7xQ matrix, output #1 at timestep ts.
% 
% where Q is number of samples (or series) and TS is the number of timesteps.

%#ok<*RPMT0>

% ===== NEURAL NETWORK CONSTANTS =====

% Input 1
x1_step1.xoffset = [-0.443494323201433;-0.378023181814318;-0.224237210867079;-0.383515322528123;-0.379884173151263;-0.195500165930604;-0.29254386691315;-0.339048111511933;-0.225906386594748;-0.303734582176785;-0.323873767643307;-0.309597495562935;-0.265742207563935;-0.276378977323259;-0.230417721013332;-0.280492108750687;-0.345269322914145;-0.24896595927673;-0.284726512451048;-0.324048980024708;-0.232807945680031;-0.413643749968364;-0.408333092310951;-0.226828875694195;-0.344441045254047;-0.302319714533348;-0.18883312867348;-0.283820858240601;-0.271519128704824;-0.218693281345444;-0.29925357624906;-0.288544104017082;-0.248705080507456;-0.318982039820437;-0.292999529327903;-0.32300191093627;-0.340272629092459;-0.283258203574641;-0.322599557752059;-0.247775278855721;-0.325220639330774;-0.223145251663617;-0.340515624340149;-0.321784282516344;-0.169479486386734;-0.433243589002708;-0.355588566924472;-0.226874314896807;-0.319209885003422;-0.387444185630905;-0.204160303048419;-0.28282932112551;-0.325824246798199;-0.252950484946314;-0.328645518202697;-0.362826985744393;-0.228602789748914;-0.334724617010077;-0.378819513907012;-0.185576267306133;-0.327795301109629;-0.422873473877962;-0.28749472602728;-0.361613895407725;-0.328963078221041;-0.258128119727048;-0.275654593516726;-0.301764414897228;-0.230677179622109;-0.350562164059162;-0.366179548101853;-0.313749138803679;-0.285165948690987;-0.360441485421837;-0.16470076092178;-0.279267378587088;-0.343714248915137;-0.180994870737646;-0.307090281055867;-0.334432609256241;-0.188622681388801;-0.314590390883758;-0.371329142403682;-0.216471593247906;-0.358410017682223;-0.407150272661972;-0.24249494891063;-0.37452796685863;-0.382638706775448;-0.260779543936502;-0.358577893661691;-0.298221764469047;-0.271653851747491;-0.331135364239343;-0.310680487389841;-0.205404850854569];
x1_step1.gain = [2.4674132650437;2.5013588213046;3.79287698699276;2.68643027852446;2.68275675397274;4.47271199183826;3.40674652392008;2.95896992978699;4.76458663975561;3.18072924543978;2.83574890145338;4.57026808294116;4.24949144068476;3.37133918454683;5.05531587947126;3.5725975090387;3.01465258420139;4.58659609755746;3.36936183111914;3.44819377091774;4.37667948101789;2.78249261476853;2.78537430489624;3.95631864089573;3.06569505770675;2.92217686197733;4.43165696791872;3.61588808598226;3.40281073285468;4.98554257920019;3.92335149720615;3.68341489276858;4.87722942139137;3.7075736035198;3.17360698910186;4.94016465196776;3.98772820486709;3.16499963737678;4.80251940321159;3.5357558272115;3.54906316057285;4.83286586932197;3.04017207501303;3.24408406663382;4.88951305699925;2.74027098050303;3.09609894209941;3.8348596752409;3.41451743311201;2.77045120691934;4.04064414441472;3.64422920955432;3.05948378382145;4.26768258807962;3.41697953222624;2.79118924931319;4.00999180237919;3.11462330338792;2.81156646932328;4.56086777323124;3.62214190288482;2.82384609876363;4.40232061640371;2.95235889705103;3.44837533303026;4.57369984793546;3.16535875446185;3.26730668464175;3.63648345093934;2.58679414631988;2.83141610671645;2.85379126008117;3.61803599851941;3.02957059275234;3.53715905872416;3.41264333736901;3.19055670899348;3.89899279508456;3.07814962220182;3.01365548476491;3.9788562092058;3.18309454255031;2.81923147541325;4.07462520594689;3.02497361463813;2.85981260472431;3.81235180755487;2.98698069557683;2.98034504778434;3.82462381653031;2.90787664647175;3.21121595022722;2.78471051727902;2.93257746239493;2.76083101441102;2.62012016817881];
x1_step1.ymin = -1;

% Layer 1
b1 = [-1.3744138104722793958;-1.2522164103860791151;-1.1316919411867820688;-1.2468248006902837854;1.1469454619123395922;1.3282544935807636399;-0.9763231212328056241;-1.0671519085356080403;-0.87887097434356509229;0.86796676769236369431;0.94966869793997576998;-0.90677269353099865246;-0.85057779941101552268;-0.78336245165473916696;0.75687920011190734648;0.61007150146087596454;0.66073272248632541892;0.60676387075568516405;-0.59213508517019597388;-0.5634345307314830853;-0.53491548528422117048;0.60470919672514877874;-0.2968049655442241419;0.41094655577777522426;0.30101652409449353165;0.45767384590276927181;-0.28295869869637013672;0.2650175707069940545;-0.036864912230334910548;0.102270158809434214;0.10848360365548286033;0.20990779413418958477;-0.0093078780009253139771;-0.20043965707438252122;0.045638916521495792589;0.073899629513259540436;-0.23511960159838846129;-0.20992369088684817435;-0.41294557365906925384;0.32104233715556390605;-0.56091344959737721165;0.30321102118705006712;0.35008223974210045393;-0.50095364737793790511;0.48301487947944288237;-0.50797440775698921023;0.71235498149224607545;-0.89199797967406280197;0.74404132788475119131;-0.78901455988599034086;0.83001436440488984836;-0.78779619694207547731;-0.67015460057117903769;0.79889023019800098346;1.0125723432145867786;-1.0031047444731149287;-1.1238798598562635966;1.0845348427477667919;-1.1214419020379757796;1.2293246307616525481;-1.1468638894898610658;-1.3529598647715908033;-1.235089600131187515;-1.1501574583108988836];
IW1_1 = [0.24611950165656731881 -0.13279620618698576018 0.029935105477699435611 -0.065641204797819624472 -0.11485854462309773305 0.22434958668053120445 -0.056182555626976604657 0.051099806173860305714 0.14565465718021095021 -0.087309062079267404921 -0.0050805172504269236616 0.22946515699283467904 -0.011231879107829658565 0.21702148741397825349 -0.16566165164933047138 0.19074200073934788335 0.20712667909915818965 0.19238698724697081421 -0.013979970210580252438 -0.17829530567696050269 -0.18022572098829248155 -0.15798901358074043944 0.19325717258742988736 -0.13981805066447672292 0.11283597518477173072 0.056721961919494981452 -0.1193913915973743578 0.15494785206928643473 0.10312571257946030745 -0.06616933000213917615 0.22092901077988466585 -0.12646417210164620504 -0.081308198649175114636 -0.16117041366888462672 0.2657460125073252688 -0.058116433375493714575 0.18329117423269628007 -0.18412178348136426509 0.0027109114715064856413 -0.12052756505118294994 -0.088664893482454834595 -0.178318732664466989 -0.33006697525772316082 0.16823647364268243254 -0.013059483360739485361 0.21091853618417982785 -0.22512905759852591681 -0.12255905009705493625 0.1557148032171832841 -0.15165929571513447893 -0.043435875412051981603 0.17280727480859345291 -0.12363541131505732806 0.15124905142890893162 -0.071614163432658042852 -0.025476288626851133212 0.026827795858536594015 -0.074227658237608254432 0.045464352500956622949 0.064577254299192962672 -0.18843487702493755265 -0.22507266418664051422 -0.063786322923474900182 -0.037750860937084393387 0.22402824079651428857 0.013397612191940692222 0.11214771851573354655 0.2333650607190775883 -0.15755380138042646143 0.14225553423283160415 0.13967564967879350646 -0.11023637331117647209 -0.077788695667353774388 -0.17422605077241257177 0.087108978008964263462 0.058237367222912214682 0.1160584027058797485 0.10123198510444246512 0.16640900326629196049 0.17585820346476047082 0.10552053386785857636 -0.12127826886759295044 -0.0077821719803739045074 0.063147811431965836237 0.031768143960229269784 -0.15756576110730635687 -0.085690018937134210253 -0.056027473405375387283 -0.19548834556333677392 0.013954346337811425818 0.14162140798594119451 -0.10501588544704694439 0.10892473867229741924 0.14233194260071829751 -0.16717675006698856643 0.086248442897617030867;0.18548158786179572144 0.010878683558849269047 0.00074794017733680094942 0.23959671335090682032 0.023088260676780998637 -0.090472727841195851872 0.021633710236848374686 -0.1816657234142231292 0.14751235631144021809 -0.23486264518657185008 -0.26469909646567957306 0.14036025439985305718 -0.017160520246651073117 -0.06115714822784591026 -0.025826515564703715622 0.076535350460921108828 -0.087738131288792500784 0.20840046310752602388 0.082837240242698811921 -0.25798426629817439171 -0.096632107701833100388 0.071186744028145315655 -0.22064266378071070718 -0.037281285676190510647 0.098452266314033823336 0.14477996172810644882 -0.044077067735362296386 -0.01624482188993417453 -0.05597078165185909171 0.20186167597339849111 -0.15274878867610539035 0.16416951436753707272 0.035332821960029216213 0.037198927080347533869 -0.1478711331662649342 -0.078270828318098700782 0.17096069959236079305 -0.27097152945132763069 0.077671363138971050155 0.33268905022485556477 -0.24152383276070038542 -0.23959645889848560363 0.20364523531246603305 -0.14875057114589701479 -0.035429999439420649388 0.036437004786990363769 -0.05876668248718353027 -0.084018370476661302648 0.32235708838726129244 -0.024162092735296882007 0.030337561541628317585 0.36729968586855304968 0.096691101570801948895 0.26227590957741231392 0.1938492671523312505 -0.015991730269248209673 0.22752488100039641727 -0.026726738113445926148 -0.27499448728417735799 -0.049108413034533789088 0.052913027709195176174 -0.10490728040627214646 0.11211073168763953378 -0.21154392234896615688 -0.0042141725298104233677 0.31243980615330069206 -0.25334301395793495937 -0.085433086677201675041 -0.1476020816605063124 -0.11337005827068236119 0.21611966958352565871 0.027246257844855459318 -0.091834075501129167063 -0.1703932028817099209 -0.057699525795282376184 -0.27754433219612484329 -0.17108684093028558859 0.024048253433976620602 -0.10128845090035332177 -0.17808921056439988573 0.042419128760631003017 0.0034238205460952650903 -0.072007231951246086776 -0.12529044405970107823 0.11971637691527350911 -0.0041767755217446151522 0.14013887674215055879 -0.14312465375700672565 -0.14034590211760394896 0.09580738526856469317 0.24167780933513161035 0.20024778328217943124 0.3072339614001356467 0.14189613032530157266 0.13933203673849064996 0.22446710583041118436;0.30299007854711590415 0.17248979746692866266 -0.044774131717204984637 -0.24167448317953843517 -0.042826712126246474499 0.16972730035599134513 -0.055105537920927025186 -0.15509434538068017639 -0.25906213850013970479 0.15137700167863299416 0.090679828165497022852 -0.081736815288591876949 -0.21350905059211267023 -0.29221411093113802693 -0.019399755411745225886 -0.2013700193471398836 0.11081911443859489286 -0.10365220824078066886 -0.069950459657220451226 -0.051508600314867349079 0.23463029199509408129 -0.015612972757962882697 -0.037987362697580913384 0.0089024186319979839443 -0.039214304439773868538 -0.24603657585198360214 0.1774169584933610877 0.10946565854186976474 -0.022103458505703443837 0.11313116672669173979 -0.16849695683566895399 0.16990495590831647399 -0.16123464636990511578 -0.12085359057861370935 -0.14436731802764221633 -0.22452877251529537728 -0.19526849474940830009 -0.12986603877649172123 0.092954486396378002699 -0.08203998409325179153 0.067321463195840286486 -0.2588309264011395272 -0.24249888588063767125 -0.19425817823359450842 -0.079097752440270313601 0.086954664319213934021 0.046897135296845464392 -0.29288785602788774964 0.087222322311024849673 -0.22737116635489804106 -0.34267915197195147892 -0.07550772069362399197 0.0048498524247589849118 -0.27579520609941005072 0.22016349510813335022 -0.09245724484719587688 0.061924662903226387889 -0.0060539111846624055202 0.2196171528741522605 -0.20418865561803492548 0.23494750122228094669 0.1912239646039569918 -0.11170112432641890465 -0.108562867829511564 -0.20946276855698486852 0.33287119550539501223 0.13176586640375448356 0.028944746739763025506 0.043134342927382940402 0.12080383662140141421 0.0044730233075582128549 0.052102876840362265243 0.18816762461125297046 0.088109251258350645974 -0.043494295949151128011 -0.24258943657471473965 -0.096998731017911399288 -0.26004317749805350157 -0.051390106359184742346 0.21152923104350140893 -0.32767020680011671452 -0.25462822772499360546 -0.045331986971704332778 -0.048087487955578905874 -0.065583685828696267062 0.18536770327863744123 0.11119653179874451621 0.32942451096706348856 0.095724371078668518686 -0.10302227373845104785 -0.11838874792180499596 0.17746408013695302852 -0.16090953802480770229 -0.086778820091912553525 0.13381413187833382517 -0.32325339365611882592;0.064076766318796468669 0.055240553394268719634 0.18776163507622273263 -0.1175376990582539527 -0.063622860651269402821 0.10915942862092074817 0.16053090187355975593 0.00041172614284512890851 -0.014737883309277983665 0.083449059273366876788 0.23909331845242973169 -0.1897708775878341747 -0.16390457971936034376 -0.16459596760899863899 -0.018429277035918630034 -0.15828543038136974608 -0.17271525394003198195 0.065806362452993968915 -0.15550934376842043272 0.22642259480785398296 -0.12237690787323711461 0.26243156863842814763 0.12577911114682185922 0.18437953949645571883 -0.14167007621611479862 -0.013182811209206604305 -0.20784289008862416592 -0.13189244687971754533 0.082519191775486083751 -0.10783592332156594074 -0.15991253855211115531 0.0082365857871638369775 -0.22130984107968507124 -0.19113061551344140421 0.20267687825927632739 -0.083698254593441850924 -0.18459302304895408575 -0.24440224471680946361 -0.01724977434179389077 -0.12263176294837078995 0.0065468790209042447212 -0.19045469069538240037 0.22337259369744880133 0.15480789573569680995 0.056505160713720442578 0.01412858408194182791 0.17712360722115513822 -0.1281350341135336357 -0.21991769706411931629 0.0051444462872727416206 0.13399299792862806591 -0.18611947554737062749 0.23754245255409664472 0.18103473907877412619 -0.035183592002869218396 -0.1095007570000067626 -0.049995256198920569324 0.12721320617078696324 -0.13331799729848375913 -0.22396101357259684539 -0.24423107133898785959 -0.16671180144749003782 -0.17816184074699858986 -0.03505627387154783281 -0.12333834148317891766 -0.21734062534122530752 -0.12771692081539462449 -0.070471164294603358402 0.06864249104222384934 0.12980225708915013594 -0.17257595919363866166 -0.026992929096096657249 -0.082532029542149304424 -0.11440040694726227866 -0.11476397051217722411 -0.16867647770387139694 -0.13375563477917712385 -0.11615318109325561968 0.010903463135861169928 0.17276078194914223918 0.072360286757854275219 0.1330513189916517347 -0.0058744778597067410369 -0.040243849854843617708 -0.20317758843221794818 0.035320978085519288969 0.17671899008770997064 0.12547442556736004837 0.20078727611335572822 -0.011369765800366441952 -0.15741712142089331339 -0.047702271678849765546 -0.05881931583612001746 0.033396723190629432065 0.13538271982161351192 -0.021939020544388156131;-0.24073105882897607999 -0.14529716530639225081 0.093069507294402983866 -0.033674251222286233354 -0.094330947554991800841 -0.12243547673588368874 -0.19377794887974947313 -0.27318669119939531509 -0.14857426155691794145 0.077548296981496483982 -0.068987881119216720727 0.13593911880461484465 0.062782228324464353642 0.20957486079586196137 -0.0585301930172378998 0.27156741486316343659 -0.068527733608384627795 0.064770481794684878207 -0.0098095499716102079607 0.1378834587540826162 0.13891849997620989154 -0.12852041167283603795 -0.20739065738786074955 0.17618186475322569762 -0.0991037321140697397 -0.21087076598425685825 -0.15193135103121443996 -0.20929733047818288583 -0.28726424377110448827 -0.14533316166244802936 0.025935913255688395479 -0.2066827128411026504 0.3016302340195453624 0.2845380800681127087 -0.125411506769403297 0.030347988279485829666 -0.10788350261006723896 0.18147871381125782464 0.14754304472949181237 -0.2533207338503506989 0.0815348261181186168 0.068721231276689331846 0.073547975810800511609 -0.097768850761214790013 0.06699868452093939164 0.065413425223134633035 0.16751444022845227155 -0.030364955278541862216 -0.052701764604267696546 -0.20479267109195500862 0.030371121697539270323 -0.090208973108827181231 -0.096175619114610991223 -0.015842350811401558625 -0.12051002209852205993 0.20240406182328168905 -0.16069447610762513379 -0.080756112976538813042 -0.21134038769889476606 0.17902325235916327628 0.073673674540073508243 -0.00075054714543661929949 -0.15344439372759952067 0.041536458928606530272 -0.05592811844968581525 -0.15275169092417559269 -0.17956767216481267502 -0.043448166265651337603 0.22395381135846170739 -0.15588802725200737176 0.13641073858253932594 -0.20767678565051431172 0.26104459450006800569 0.066290397112536175728 0.16602221138363687514 -0.060611122839049576261 -0.043325722483289440257 -0.14623244607510405002 0.10733904840520297475 0.040378518652569583836 -0.18188341908000668634 0.028028510782757601327 -0.044796526033470569772 -0.24732537315904154496 -0.18655965047021780268 0.02216280502905618871 0.21267522496882396155 0.13196354297934598243 0.1479562591243694103 0.050872179403005195197 0.10826451050930908926 -0.21689276042324456828 0.18344966476352539408 -0.047777082778303295307 0.24394929886033436817 -0.068371897196207204184;0.012881621001918966071 -0.12475761634519322296 0.30212270677831870591 0.31881079454440663934 -0.12249954128181546331 0.021016875711887268718 0.18065396464734784221 0.14960543954364075026 -0.087631418571353050795 0.31925313008506300827 -0.19949586273820388294 -0.020986755121863768375 -0.025526305278763952028 -0.030414467798745844357 -0.16725675963497763088 0.41146805973001993051 -0.086316118844139019806 0.094418291938659026918 -0.2134420658400319748 -0.23784924417618044656 0.23648862264519637799 0.14456744872046833894 -0.11018563817755594458 -0.20426157660358365553 0.25732402014130212331 0.031140483906462269881 0.12976181313858684008 0.12540546646411579457 0.093601008081071981892 -0.37803834644078693206 -0.0092586438715031461194 0.082297524730088486566 -0.16655248793312535383 -0.065272679010563439128 -0.11700683978704390364 0.29720240927853669444 -0.087590969703196380758 0.15667816066047435264 -0.42014559595934303227 0.19491139545071672901 0.1216216931201964252 0.25893521324680152107 0.22607530549281887322 -0.073955042368656215279 0.13172085416780449085 -0.14358778545786146652 0.21568754972146994553 -0.024504921893048918491 0.29233432311364654366 0.28022318989846067838 0.21390373846445873141 0.0052424420256164195112 0.0032564946253085492664 0.083046493426968001628 0.0043817768393461537652 -0.13939875689634015354 -0.011628219105150043589 0.15813018621093410943 -0.11537486990244644192 0.11418286460809978777 0.075354773577437902943 -0.15815802436067574743 0.23441887617961207346 0.14533331724499776172 -0.16242017970451427811 0.036582184898428161957 0.053358402706735440224 -0.18302728121727901422 -0.17420621038703490435 -0.086877552106101360585 -0.1828544141703824788 -0.0092392784363748824833 -0.15353031655376275788 -0.075076704070818470194 0.15724317794735620524 -0.14671473129943504721 0.21327553987818137493 0.17001900136121447793 -0.15902348126603252365 -0.021107602476583685325 0.21988973496931238372 0.090823363797898043481 -0.14124457703746848281 0.052276299007092581761 -0.18404259811473888675 0.1025022602266478372 0.2179814708887484187 -0.042890949538696286625 0.0084041316010092046579 -0.050037483410247010629 -0.094495950250829394146 -0.23550344455124622156 -0.18885168383883252363 -0.2883660764039246982 -0.21942003535651308233 0.07670294912035956203;0.19897318716281356399 -0.25086965691464208073 0.14964119727533456428 0.05845112287228897141 0.16311005700475164626 -0.28157017474253992484 0.076286556975626279575 0.21696524158169294694 0.15734944533802158739 0.29866764969090736637 0.080980349801139370203 0.024288026036831705107 0.025253878974989575623 0.097908883712190683535 -0.17680621668180834805 0.36851788383827771556 -0.076420201768476747617 -0.26461589355481102137 0.24673016570273392789 -0.42890767416205455298 -0.043946902561710542157 0.074278453326911172971 0.062605619220661393176 -0.48433522846654281091 -0.20295212444668359053 -0.43389853718538146099 0.27545112215100325814 0.14452163637240536542 -0.15832912787793756992 0.087444261385058397185 0.14022621797453463377 0.3497433774956602015 -0.11816595322357549558 0.087338602362016751202 -0.11752170524117282191 -0.23444825298162885741 0.15245606908235723176 -0.060364443154816441184 0.17383459696983019627 0.16354546818084475523 -0.14818388477880875542 -0.15747338220908990714 0.28752781939608451633 -0.2065615582362031466 -0.081761630361865372807 -0.01791305706298726777 -0.032910429776228954102 -0.27037931300075973562 0.17107663199100195395 -0.43788945262348699661 -0.35406442673156268697 -0.047819192629057760691 -0.46416528044007637765 -0.16529149921269434276 -0.3178441346119735833 -0.046665929426834402982 -0.44896483148049687317 -0.20865742783864352217 -0.47185529105806850447 -0.14986156872251035765 0.10946078577748273586 -0.07522041467009427107 -0.051811779945989983043 -0.31330624026590575548 -0.1030854373162819887 0.057897340553126661056 0.040228776715857464397 -0.20691974490106709861 -0.078622690461115585236 -0.30014139144923795977 -0.27821353112248425887 -0.20394368611612678777 0.076592561978316806015 -0.13031657232125412604 0.087665883256566809467 0.091045823797961000778 0.13794140969920942741 -0.065314894776437579238 0.016627182064715594761 -0.24779808306338566015 -0.13450413089417029289 -0.049059744861535102556 -0.37492983379937111499 -0.16090244033653752775 -0.20995082528458397508 0.078369545816410701722 -0.37706307649620690592 0.53370548890500557615 0.29278528040673962307 -0.17262964269635086567 0.30783509778486095598 -0.074718333708745032773 -0.22436742824577249333 0.1671919114004736806 0.093798896097770728675 0.11642179797883789316;0.13536024335629825988 -0.11362019516514268447 0.32959871204787288823 -0.11755989366284894104 0.049321734411821971378 0.28432840545218512895 0.18584092817266550934 -0.047760595423331685117 -0.086946593737731517337 -0.12596686695524639266 -0.21680612849032196432 0.31476348737328291305 -0.18358196635215204284 0.06685127159046842793 0.16287202191194283252 0.011290607891513169958 -0.040219964617568396137 -0.03402039852750669835 -0.062378208058423069426 -0.22947340755000841805 0.07258890450046272258 0.11981668139559786823 0.067096769082404278395 0.10529944085153429556 -0.11762183231788789217 0.084109963881851351752 0.16143746985250181925 0.34505906343884290566 -0.18532845318449489569 -0.21289045984423043967 0.074417808265852244953 -0.023199750168213018053 -0.19053941653565900638 0.30410093337709698247 0.029586027674661084796 0.16954134657765634886 0.050269618544224986545 0.051279625414758153723 -0.033894485896236316302 -0.26578266832581121104 -0.026868769724497396784 -0.2357679548489998167 0.067584556485304508877 -0.057122978604655094692 -0.05086534640805440155 -0.21161848171142910724 0.0011404394249297038731 -0.019706208285021956789 0.20400873143650205543 0.12950701548332099744 0.045582757290291452124 -0.023796949964995088578 -0.14620185817175659904 -0.015312912543782693925 -0.3682674622795273911 0.095237405601057339988 0.070026365769311829657 -0.24745650679379094239 0.13624062477094847634 0.16271148093178702809 0.18474357921992520803 -0.03195059504710693471 -0.040703954413608592344 -0.034401419934628335584 -0.077083335695592045123 0.14644919977432957481 0.074657008195897656133 -0.020078493128199627338 -0.23612963445552734298 0.25271823281885247292 0.0024803331790243239412 -0.078490377248389101017 0.040837253699399916895 0.099303600674234701606 0.13406517880730400849 -0.31166702395486195476 0.14492714985457549881 0.32993845294716994676 0.013952972178607395484 -0.062749323070588988727 0.15573372667747184539 0.26084064596806072478 0.011574278605358069572 0.1097752663144610924 0.19831415484519424042 -0.23508971006023426931 0.2098378261526902544 -0.15640237818902311129 0.070841197094198476991 0.18489089888820434138 0.10811957679107297992 -0.25129852570274763268 -0.26974606699303022017 -0.037817780392553054791 0.13824284699971645107 -0.04146784420918930153;0.067953552683394161105 0.10624565004222626119 -0.37937157293717310713 -0.32244984325487957566 -0.098702039898691418252 0.14249055323656573124 0.022557916199943933711 -0.049706072553334257336 -0.11191166329238178001 -0.19610843791180743168 0.074538246134943059173 0.1365030066736714065 -0.12281242173431101972 -0.31952409059079905917 0.019382671573397149828 -0.17526111869454302772 0.19223151462135501522 -0.18499224787140555737 0.17850752556852805819 0.13155345973772863966 -0.014941204149032612236 0.28183449428007456561 -0.026894056510781010755 -0.14514129493300556573 0.20903975708997174499 -0.302627267958217816 -0.084798448677244231408 -0.25127735946599505379 0.027600993305858714105 0.19954862425463462672 0.18550084470923153268 -0.11131745478738562516 -0.084189855367244659234 0.075415758346456002181 -0.17450796221767592153 -0.12781138135294387026 -0.1512690031785600131 -0.31558399600277481367 0.044425428971254968258 0.13708891309739609787 0.20303725564158500716 0.12228928223452148472 0.057575527167144417706 0.24070585442803024701 0.046070463632665190068 0.33253147047091979882 0.25336811337094439223 -0.14313996170506529393 0.027434058535657373373 -0.079681675235173235472 -0.17490408329569923085 0.015051765164070193131 -0.17276983778216128962 -0.10716348836875001782 -0.042808850571953875608 0.16246469606482702441 0.23457371447822633614 -0.058237006217141791542 0.17070916619376116929 -0.063265126473571131616 0.15454513861529467489 -0.16369064789322129716 0.3679482863154921457 -0.1658989425920631422 0.18477004155986173628 -0.20788798033503955165 6.16638096460767407e-05 0.27535008492637347288 0.034032541685385511721 0.18450345048001184911 0.12500096343233357832 0.011740131350543987071 0.15737740229351049326 -0.28653324611725611293 0.2759640013872826092 0.085863867596648740799 0.14339637355830975318 -0.35144742875744833244 -0.049176386168400663956 -0.072060158549036759656 -0.28771187640703815847 -0.046086775339340614599 0.063387102235847855858 -0.24372805805946298752 -0.068065613947905126424 -0.0010246524174103107709 -0.29469386015803272771 -0.0058162481047509618018 -0.04053923310041147865 -0.15707444933409717147 0.18565207446381176704 0.23882629830566323714 0.014816391376708233987 -0.24111073093541041112 0.038528843446943718265 -0.0062191162728490005651;-0.31966359969658997287 0.11093066399856923998 -0.17369097067376149113 -0.074142319524001631947 -0.036632098428802342682 -0.076019135747313337781 -0.086246240477081015374 -0.061674022934738143009 -0.24955816124439286763 0.25289454511148196092 0.1110944083325471482 -0.0033590114863405622948 -0.21829480685064306389 0.14497021895600020747 -0.01760821204087730657 0.046597612673354528445 -0.28878650263225980055 0.09945939696477776315 -0.020667304272359406786 0.009371626427918906127 0.24375714500980372179 0.081863766870125517783 0.11542416484895895445 -0.17713215495219045148 -0.1440480133637279947 -0.0075116600492131655256 0.3050013628521953124 0.066834569405977262146 -0.053244734527264560298 -0.031567375251289025995 0.21173733129242294781 -0.14327771125297908417 0.24698985730964695406 0.010171740059929977942 0.10403323293159087715 0.24190555856328313511 -0.089744441094440394191 -0.05955336466248066507 0.06484764489574978974 -0.16232040216535845167 0.17401679651679174965 0.14222357833330820376 -0.077761432868467594837 0.033384683258179233267 0.045317547300529809062 -0.078737726083874609584 0.3345932255111210285 0.17231215126845456087 0.11682735600170512935 0.00015307545852029803141 0.14338769493403752397 0.058271525026891070331 0.24092282692506106212 -0.083061053436314757903 -0.054497009687837473513 0.24224510751855438118 -0.068371946341777345424 0.011425852456882101826 -0.22209503002118849424 -0.046391860377692238637 -0.055604791280199607206 0.085908658478868568653 0.12996671663310335743 0.059989305489542892047 0.16661491498782299292 -0.2641557318891604722 -0.21006079917174280691 -0.27304567574232779803 0.13328891841816561947 0.028243922368316180804 0.065651641194927709555 0.067691481693854180235 -0.0034272184187129797577 0.078870278451430769762 -0.10496958416819579529 -0.12752304329284333551 -0.042352915832377047156 0.24595610667283235307 0.10587140877049948384 -0.0086412338090175785238 0.24585216268153278762 0.10955389205784728246 0.25376026964112180506 -0.021443609175553178525 -0.023448080981541052914 0.17383874325957252016 -0.16772729688538587367 0.2019388260876237573 0.30510547311033020534 0.25803458030696302394 0.17479216505747069421 0.12920441287140985165 0.10885605807383742782 -0.29465565464909093674 -0.026262025711708401887 0.068222560709590721051;-0.225361314656768702 0.0042077731941707321658 0.1886757144908663697 -0.14749831280034284009 -0.23766740780744910477 -0.076842186449657914893 0.021115366348326686935 -0.1606205394576898926 0.077652123410465359599 -0.13813263044166637639 0.37405964318656609313 0.17878200870948021683 -0.27460845214279971938 0.069997535469766877791 0.084815152728989387509 -0.036701100428369597128 0.047916779062924047539 0.1096838341032293912 -0.14394776058052735634 -0.075632437174758621046 0.10069200103717676487 0.25239382667800447368 0.19936665892438201753 -0.095402753684559374325 -0.059630756571107286501 0.021610420058833190032 0.082264859322175726275 -0.45782512831824806465 -0.027777523232422537958 0.18109458085260540794 0.32997066714168937773 0.18983246926246863384 -0.025115683750809976449 -0.17009545143646614962 0.018348696577938229668 -0.027260388089116009691 0.17624981498652794731 0.0114560613676132593 -0.030340415510962823187 -0.27443792485310686269 0.02951356206089303727 0.32740022957145792359 0.25143282140863820739 -0.25241615338383571743 0.038517495895470377221 -0.18899003415524875948 0.0035068255472021671315 -0.2372032502360039985 -0.16250391812959721904 -0.017636147738538276997 -0.15689804007203794756 0.26544203431609042498 -0.012553065090945149385 0.12759717227432834652 -0.054385744903463040245 0.072697826167847603984 0.18581818496643739969 -0.3027322123185185454 -0.087635689185229292963 -0.15425306061805096891 -0.24261188737553796013 -0.22562272582685510836 0.028243842163891273722 -0.21668184624692365947 0.26469681971257524866 -0.081895708595534758012 -0.1680794377718934085 -0.18043410972440315776 -0.27146269881276147151 -0.048983161278507159064 0.17354435382544045052 -0.08790289992552786924 -0.28577630301787720901 0.20666984362771881334 -0.20074345540078405992 0.31819982234720334269 -0.038740086696843138714 0.16960917750667187098 -0.0080089146247068494083 0.25191729413817509631 0.30710318446492473887 0.048933614154028970411 0.014627352957120373991 0.028071757408621569874 -0.034079433788556039164 0.21449845182608581751 0.045449708712703908164 -0.084229658740110693871 0.078556580767476957838 0.22580203459265574262 -0.099486546565383804364 -0.068814829482921988091 -0.1502667096003599545 -0.12370892201530571397 -0.014519807363060839231 0.12349720003725202233;0.21161106329050530239 0.28204645069845835081 0.17063581600302549224 0.14965892070062014607 0.29561979309059593923 -0.096800842555437485726 0.17119470073828485512 -0.3159879671634081566 0.20886612180135069594 0.12115469208890143615 -0.025127260220834477661 -0.096085698029656316232 0.50497251424926703489 -0.058719056212697663677 0.31278207616211850528 -0.097617583191343587634 0.16594526158161171381 -0.15300821518124527176 0.28013890741657293537 0.013772495173274411362 0.038316220404525452858 0.0080072799089097226183 0.22028528524914750553 0.15244833678974820113 -0.24885805273666014581 0.30533456705677552989 0.28728709504055693902 0.086867285477467498511 0.081778383497347367781 0.43503725755954109067 -0.014355159497864708809 0.20872788111513407294 0.13142912689584082542 0.35313664700101571325 0.15340650047998233285 0.12787162356161060894 0.19810595421833310237 -0.14057962037661048127 -0.020084637157981862637 0.17274765220417553913 0.20255850691609053604 -0.0093539914640728277773 -0.19646553411557965418 0.17404443322866611221 -0.17879474690314872687 -0.10844326665568029822 0.15581255450000580653 -0.11912515415357087523 -0.1822489291556713964 -0.077001938572845041175 -0.076399158447172238473 0.012543805379026374408 0.16956421519805373044 0.13003272332711390824 -0.32492499921331680079 0.27802025876314823138 -0.10292881771247697209 0.012153003260703159477 -0.20400129331477620531 -0.16637366738825862256 -0.26021549766904639167 -0.086923324125300877041 -0.12765511752302238779 -0.036912000942423917049 -0.37773088024906820159 -0.29772698522024670931 0.15402700042320532914 -0.20796154450840881323 -0.13012820167169825147 -0.24017087992608954217 -0.13957585405344802298 -0.078260521209335826009 0.09110353428949043153 -0.22508144375438737805 -0.1338149248067587449 0.064445933723858400688 0.17900065926571642749 -0.15407371684656126498 0.1394251072878332498 -0.028008800878105342275 -0.092683725707145114825 0.22207521175944966441 0.12555139471252615979 -0.15919118937847143158 -0.0013985224414025704438 -0.12212894972601465171 -0.16836628522135826946 -0.062796384966745139034 -0.20218199378027232327 -0.42600875454790104735 -0.286825092132543924 -0.35898258517749936924 -0.14520844983922495675 -0.045032178430795988255 0.077576471990832104875 -0.25283890009436077451;0.07383249179852943711 -0.067277110039346776915 -0.0090402958407053805867 0.21347148321092487833 -0.075425791966537453215 -0.27447605611971670481 0.052622063998995140255 -0.32197982190954033133 0.1669288965195243335 -0.097668435991965160681 0.1489362179149824883 -0.042264249808222360827 -0.031688122138574144337 0.014236086724926762942 0.035417966610016761442 -0.14850651919571969395 -0.041216509547211815923 0.054548892646074799428 -0.28433676521921752434 0.2721238585198463289 -0.13864699599096652616 -0.027639686705044314713 0.016074408558988499685 0.19727888566186899122 0.019274175560488902847 0.21022135641926417704 0.033143194825150580629 0.16277465668503743323 -0.22785855892572806636 0.00066581097723916846283 -0.31941750810637847824 -0.053223416664725006764 0.15156120238089301755 0.15109454579305328648 0.19158674930020538896 0.018999913982528551792 -0.094160927508424918653 -0.24421383213156955261 0.028916845081756032548 -0.19755269296746497121 0.019200597496576422146 0.0010128274355953959061 0.17167069259659026303 0.11129358066149243334 0.37565006102031817115 0.22914723145077123267 -0.20695445615539695416 0.18952277251439927919 0.16630316395328550994 0.23741771707045836171 0.17340532304977054889 -0.10700987366080513818 0.12873934025829675276 -0.19268200442497582237 0.033455958655125392354 -0.21683448101921845574 0.46725391739408023151 -0.080047867802724950725 0.055352435345043700388 -0.038983941675060196363 -0.050218761396596867108 -0.22010117275980484175 0.13662235722490159717 -0.31949856943875465376 -0.36359716554300980373 -0.03877152631567060137 0.163076492180124627 -0.0063062334018357613444 0.52469072098631586165 0.17398903926670478137 0.18098327252537058096 0.23974651446848466163 0.19658654515070064783 0.14476061969409903529 -0.1160083047750545826 -0.17602225936015378216 0.0078810150624682231979 0.067375938324149536873 -0.19864796973242462852 -0.28369547883468015925 0.10030603895484732635 -0.1623313473935522333 -0.29705441320627135049 0.072898261764134719698 0.013745222193728506843 0.013348702744918755636 0.11315759263171243365 -0.22977040364958384311 -0.22231014075430194366 -0.16626652571352262822 0.074465317577108627867 0.047119500821436698101 -0.40998771070082357104 0.064198913671856344676 -0.42974300211780563918 -0.65067124177398039109;-0.030423271742623853031 -0.14134241223861634951 -0.12612008958786344315 0.079300575558657618314 -0.079498578413748299809 -0.08530149959523773695 -0.26060300657071072683 -0.20690567893571257252 0.042963191067457898176 0.18623239297486449129 -0.033746133067018624363 0.02667996203900204269 -0.079772230079359573995 -0.20762593571818760418 -0.049812298879802985319 0.0055361485389258590847 -0.0047401417465086212108 -0.22189259923900059301 -0.19133969534666395163 0.095549723475484807378 0.18728351000353296585 0.14473583969685904771 -0.22098118377491868247 -0.10812510159664691367 0.10771024311584188882 -0.10095759405527478247 0.16001825150053672342 -0.13109107272358880292 -0.037833218174223172403 -0.24715880493334010937 -0.00033987567790744589811 0.18021715144631991756 0.10423386441706944394 0.041796432681550935162 -0.11060695078801928426 0.16719306407447293017 -0.016631964897961197536 -0.20001187928531674598 -0.25061788780261440301 -0.16049148708672070218 0.19558394011494070752 0.24168113610718930384 -0.11127726292870405989 0.1012110330157458965 -0.18959852367182225552 0.050562277443996508919 0.14856886430168916857 -0.093482518862241570368 0.18755221323730750238 0.020232516922328629139 0.23210502814227043644 0.062820271953241746399 0.10105825453602378106 0.17321927224820626856 -0.010262347621898789199 -0.061327344383075285683 0.065575647175820803159 0.18129160809268932142 0.19391234629348924612 -0.1249793355171024134 0.051552213645870828551 -0.12305978943492601463 0.15499636224124493933 -0.018919015842562340174 -0.11732211600280510744 -0.12076422772209687018 -0.15252426861121917701 -0.19672300599918013386 0.12070349786507084122 -0.20398508413684454665 0.01979876794865621098 -0.055963674472477374644 0.34748277302902996766 -0.15302065910967194151 0.1235579324201559609 0.23825463831266591175 -0.097194902103657998538 0.02555445481191657639 -0.14856848713555328989 -0.056858811690015692575 0.075251696771048232071 0.069118596287779152099 0.19174487458294428577 0.2130678122752975856 -0.14917260042740793091 -0.078647085868367827555 -0.19799950015344211507 -0.36117899486470761428 -0.28625065777584729476 -0.28946582635396461702 -0.28442734934397895241 -0.24732941503773453462 0.013828323555853117011 0.060096181279476322545 -0.14802233553071331151 -0.24656921383765956213;-0.035804452115240727184 -0.080569391281107641256 0.16128278842635032642 0.22489389475186183365 0.17649437830237152403 0.12740489178595740261 0.12620114002445104173 -0.091821135358737981935 -0.35068986325733680909 0.21122852783183707071 0.19893222045617256488 0.023707424876025340321 -0.2406592244836843475 0.20459845614219246412 -0.10482069563322993222 -0.2565856370071751269 -0.078723539303057879502 -0.08289120214166298406 -0.08719617931922531151 0.054778324199923116022 0.05394207745026202705 -0.011035546765426285098 -0.171258715086062413 -0.0061017186982003264462 -0.029948115417761503321 -0.1448262162824802135 0.17708712730629186383 0.078676767002460235023 0.21450605142321799157 0.012736169754128431886 0.230637509414415659 0.031694003115723012876 -0.04780413437114730546 0.22702357856324725804 0.12190029267641662447 -0.034961431295357538185 0.19273255125187174763 -0.15648737582739383201 -0.14225146859650042441 -0.033115647921344769367 -0.070961489649836700933 0.11761424490838560952 -0.26251902182417274911 -0.036059014901785979568 0.23125596802511375061 0.13127976819222092475 0.19301273674706079242 0.035756153474556247318 0.25709324329276711518 -0.33538012256923849241 -0.19459844810070187071 0.050739407353762824848 -0.0067380706920665625614 -0.20813712280018861756 -0.017664188208230777177 -0.016988074875864678237 -0.13711615504961771617 -0.28052067503310290641 -0.29088842309684803666 -0.21850895752015986329 0.015794017516972985726 0.051361625383294050307 -0.20343199190996966164 0.24357530436624455494 0.15867330096922213634 -0.033511480458358590406 0.12860238091281278594 -0.0050521409892944693643 -0.018253772995113128758 0.12623581504612546578 0.0814166259776282486 -0.025163481575655739786 -0.14918078426243824852 -0.061852684522812076406 0.17550516767258828033 0.027627940162565013671 0.061283847542708470846 -0.19847173993114178292 -0.2673793344131543126 0.10288942432867002885 -0.17633703894216926078 -0.27004117822647449865 -0.024337668385166516538 -0.17954951270291841237 0.22931836306011832427 0.078584624627736757163 0.12437006018642916827 0.56767601053317839899 -0.033999443340080419407 -0.078088665796626002824 0.38573920148754720083 0.25211990299127368109 -0.22633904748105884708 0.0066199456923667545499 0.031886991472718180518 -0.13520608555627941505;-0.20927819520215026894 -0.10370030947143872579 0.13313915416162699912 -0.14280376441530087672 -0.097078273058584879651 0.3076603311849461786 -0.03706342504688256434 -0.013547775347947529911 0.18832054612555221285 -0.10354453037359051537 -0.20569512552774155134 -0.061625677665635522628 -0.024615434882914358217 -0.21312687043855571556 0.088878573703179336585 -0.13976337888502196605 -0.084582818919766947219 0.010175222945090794946 0.18122173955312587124 0.089952940429942465639 0.15306900425802971721 -0.071083516401491644854 0.027122628631542501643 0.20623872682905886045 0.079905496393597480465 -0.28895358256835179667 0.043884940303853578469 -0.18999843493838530772 -0.20759519730240191815 0.046444228800066822416 0.0050583005842170878502 -0.16569359550645518242 0.14292723088797565367 -0.18058034227893465795 -0.15042504738165995981 0.11956351423549752 -0.23312145970313938315 0.21193017929399049493 0.23397996310731011826 -0.061645760811680452851 -0.14302573291800502187 0.1609365253378314542 -0.062540322665764466747 0.26037044948017912249 -0.2174531772925582529 0.26433467188139853077 0.1738366424602930671 0.17567292853299673605 0.16597061250411415667 0.040451427184253485603 -0.020794789055415298373 0.16592407655249133414 0.075520771020517948879 -0.00058857102479905969682 -0.14193201837886018635 0.12969322432391772182 0.24483602665364728734 0.070418604075392507435 -0.01881960384260871269 0.089061714200302066757 0.15156045448498861594 0.22783568629591843813 -0.040940709396809091269 0.091236427846323409074 0.30171976606565026335 0.082338145845533505796 -0.012973898193008523427 -0.24343579756065361619 -0.02917001256554548061 0.27038826930525539094 -0.36128106748593546982 -0.28121987251992508483 0.036293398082987329833 0.26177577213083441654 -0.13119422395498972489 0.32333013960715178969 0.12490165333568720163 0.13215333405306572967 -0.0589360353113427618 0.38883735797727503325 0.27094781786169885862 0.26012652693705612394 0.22971186532290377436 -0.095946472888008657587 0.40510562086453166808 0.20608543549596877731 -0.11173446447571526441 -0.081294067992333865491 -0.1003419951313846703 0.19893938294546203993 -0.13030459312648356995 -0.17082180393301898969 0.19470369000727599795 -0.22354863939466107503 -0.025728013829978316207 0.42403437439248198304;-0.11579347690078480027 0.051804452479010998367 -0.18914881204866607067 -0.075979632220336310033 0.051401346713413738343 0.08762656359056446298 -0.27901526381425134637 0.033063650327805761686 -0.21917287009708560919 -0.17377964787902833166 0.023919331441244202907 -0.14064921450150477678 0.10230142349915953559 -0.0945809467059752218 0.044931959257816643516 -0.094962870385191508471 0.051966342741775958802 0.16156233354775073607 -0.083433999928906057986 0.10189409894163041492 -0.083507722418706131773 0.10113335766760722656 0.0028966141085971890134 -0.30636733640090557662 0.30518197632336235836 -0.11471129769750537664 0.080017631746961845329 -0.26241512692381230298 -0.031761720618140462657 -0.12792763103902499155 0.28900480309147491553 0.27794988835065520538 -0.04960741244425366514 -0.061362861571259183502 -0.058955385788700499783 -0.16469059846895975352 -0.15762990830280110277 0.089163438518425064405 -0.028548306200788645115 -0.39293480412026188242 0.083341833645345794745 -0.14561419987499896189 -0.34220591527997179515 -0.16464428442113554496 -0.339179141979662091 -0.11750036151831676212 0.1079657457385869157 0.098206938915759836584 -0.40708153960558418616 0.25129306608175050464 0.16274576911838500859 -0.12794386103439533975 -0.046207271563254770363 -0.010593238413361735079 0.21024444526958011026 -0.01975171412107366159 -0.055652342125500381398 -0.22268730334306940932 0.32385943142350409607 -0.19294049902200305358 -0.39771814228229851462 0.41990372549201021579 0.26423093064354047366 -0.22129047397081016979 0.12856250075925501619 0.058642243304894724198 -0.31539453227628078125 -0.076773873553414459514 -0.13201054782090954065 -0.24384272144931976034 -0.077987024028305887424 -0.18757604445733577769 -0.14857384698476983065 -0.051840292733979546902 0.22449044216778679672 -0.18306351056899586305 0.067371650706191138491 0.27271955772347233893 0.017390131494516368471 0.14627704519680626016 0.26319838508834714208 -0.37775306210957448894 0.16843641729924424544 0.001344248158150619047 -0.21091334188390972737 0.1131320386698639463 0.24023506511439091105 -0.040788488291114886886 0.19099825824903435278 -0.071011441405387940029 0.047445487123127197404 -0.0039930389818099432109 -0.53045693731140375338 -0.10609400176357347556 -0.26290576165354451188 -0.13905271281533179706;-0.26194865975471326447 -0.20582573218056693376 -0.25120024202699892113 0.1428660714679442223 0.2834469104481323054 0.29242236155735185088 0.089669235533723301579 -0.095179628908807212273 -0.39960113201899433166 -0.042438290760287544767 0.23886256890223456217 -0.27047594102095801061 -0.18553944793867641061 0.11086718233570909409 0.069407752529917460249 -0.019636494475421935324 0.071932173258159731732 -0.0062391310472364215622 0.25783667879921823296 0.3641155660966259866 0.13895050882565365691 -0.032641096192370426532 0.0055068134773920869585 -0.18595828410390061181 0.38070102874477379507 0.15544443442991270898 0.20928589051264814835 -0.091842699940118621704 0.11006921253782238346 -0.03367090291546856462 -0.2392836039089712985 -0.012693986950135661973 -0.30561300646213279686 -0.12568721290076992347 0.023007383291659470187 -0.0063966845934059022444 0.080586088175525247279 0.25279962506328695904 -0.1602574522121902878 -0.053313654287240733187 0.023756313379463336877 -0.14156633312040239892 0.027090202070570536252 0.043988893004627098449 0.031011256936021133063 0.076878912817308561745 0.26509306209201660698 0.13808941540534111492 0.082731987908536336329 0.2593197544339391758 0.028419109242685695882 -0.15187144943592437163 0.2506394119728649339 0.27184072980567941524 -0.036939090215148850938 -0.021950993740654612535 -0.20095943745922914547 0.13290124219324347954 -0.26170887232579576054 0.20823995503952516528 0.056777733862441531754 0.012378781437107942015 -0.16225188515667518518 0.01481992762035982264 -0.14742778808139772595 -0.069083592216589551072 -0.12714270653472467543 0.1356368716547447506 -0.0038281933533928017011 -0.38277123415452907196 -0.025858552188250335385 0.088458668679394503176 0.19939326966951356757 0.14547727033304722055 0.42852570953446716961 0.11077355207098558976 0.15463850144220619987 -0.14798529968006948754 0.0073675830020969064471 0.26676027142022867844 0.11448955761697555966 -0.33035036755172947354 -0.23976171243540383982 -0.38047039897578632806 0.10763612854883593262 -0.01937975221185626179 -0.12874644878454180597 -0.28965891191702275442 -0.070182684765395353388 -0.11185625049324329772 -0.37579511932128667473 0.073171358954770934768 -0.026599892380175349516 -0.012389455170548199434 -0.11703604843235193567 -0.10283274109830681242;0.20257292352470465668 0.021882789081537006026 0.39882533099091083129 -0.045179038419250361347 -0.14898533133731942102 -0.16621845388479206118 -0.25945025788866138416 -0.1570895872080806388 -0.18918206797441042277 -0.163856947788767221 0.30684255702886337192 -0.16505134704691915015 -0.095977285703429143782 -0.12353906862338998041 0.12849271446937068908 -0.12320871925057846896 0.056679334094493535878 -0.086315067320307650722 -0.039648431138032000365 0.0066967101420435364706 0.17895716604251851733 -0.091332630083500634943 -0.046823074312646789652 -0.35180692907034344374 -0.16743996166865313113 -0.015578505410402074607 0.31135281790958435622 0.088672591224345218008 0.12512895055885150941 -0.085624927838143669034 -0.11829713315227219361 0.38982796238177047643 0.062662902019947008814 -0.065467104454122404533 0.036325422765461190533 -0.0975657189633828692 -0.0064693086466843276183 0.024883513112693256969 0.056908074959521562364 -0.0016323245260522786619 -0.040158123874848537793 -0.093181413931549453289 0.055080350191475876964 0.11049783998422442466 0.051032844069208459226 -0.17669092929230684197 -0.033104310478928623829 -0.18318111904631098619 0.21860732719053591055 -0.030727346273494045986 -0.13787140157816982211 -0.21348579058703212596 0.17557833650972753947 -0.25717563889546918299 0.12520290392351718367 0.037723853247377800435 -0.15735883144291065716 0.042893172585164084099 0.088700607926053054442 0.33515097949854322223 0.14844522702644033507 0.027340968733678666647 0.10678145512523126714 0.17264758520752740423 -0.25131951152120834969 0.21606786329304081273 0.0058869592857272081549 0.14009170680708182832 0.24475836694456473697 -0.067028986388717931577 0.44549688063012476968 -0.075864399357631326359 0.12594931082168425718 -0.18959918715541893008 -0.31981084099872270077 -0.20407170804437194112 0.17461242352664091415 -0.23482571983884248379 0.17390365431139556684 0.096769772673701043297 -0.0019510088291193909346 0.026018445074283899632 -0.12919276109353783344 0.15013379826595796285 0.0076373082243202401048 0.08167069050822227394 0.27602669017487885261 0.29735188794262090717 0.1581558647461333289 0.13954612827995593882 -0.059591867211461695131 0.28253622285186580365 0.1990315157237892707 0.2801979063914468715 0.1722151782342402071 0.041405716266039359341;0.10561162490870014408 -0.05190142144407526581 -0.2857330333875279238 0.1458066050751752607 -0.10701478977697054251 -0.34661073612267934152 -0.32064627980451443356 -0.10791950845199412001 -0.10450006589624133424 -0.21095129572856005651 -0.039030480737651411516 -0.080727883339115569239 -0.32569775847964904658 0.35156151051612821723 -0.13719467144006675108 0.17408015387006386954 0.21088223981395343154 -0.17094595780713589539 0.13576609746838469439 0.095965260191475193485 0.12375312784267868127 0.29359170069988932417 -0.066284831761944468242 0.27796858595447765383 -0.15437302189692192478 -0.2427036433019456596 -0.14642583481118479072 -0.0070685447325351804734 -0.39033162852068242765 -0.091740720288296162543 0.016120787419841325905 0.069332950551357463986 -0.32256711995957387806 -0.26611190475851181914 -0.016677324210966789492 0.17757078407832382894 -0.091176666654567500858 0.24243569178744422965 -0.17921995919931224539 -0.040098726868191852946 -0.03770520301075658276 -0.0038756251780930218304 -0.10267774871813852011 -0.095539548685456374133 -0.11045579569673599774 0.19138371283454619354 0.068217675821220971621 0.22315560724148844618 0.08467031598334716358 -0.17551096574081534452 0.13214786181618826122 0.048108566645418245067 0.24801972724125789793 0.023419311959792354916 0.35213437178230089231 -0.050010696742442600771 0.11673659068848174503 -0.078146060212704607228 0.17597084041272623156 -0.11370156968476188841 -0.1266859915387663349 -0.023343541473231390476 0.12850478267224524354 -0.46348920356556722044 -0.070586579160991605453 0.33773348302947664434 -0.37971033787595120934 0.27093408353094489138 0.18374049848931306439 -0.35576276054456418274 0.023056805692102458338 -0.17907929020712573531 0.042100644494355368708 -0.048431291604960430286 -0.083589314508513354318 -0.12590316601170892241 0.48329587331146606211 0.21548164971677336021 -0.11596290180969508199 0.055015558851281023967 0.33816144734440684028 0.34715241734879714874 -0.30674336817022362922 0.40501142181789184793 -0.17058997289157795674 -0.093289211860559315137 0.086409255058762346469 0.17444501746127669128 0.073737778387125155199 -0.17703652547694950781 0.0032017662129808100585 0.0018493457425025616736 -0.099053128834585779661 -0.20967455881889229818 0.13343719836503076248 -0.39086856830401200957;0.36222780485592659394 -0.24159809245644822684 0.19869356466664536698 0.36990464246578835805 -0.08163755662554315895 -0.055147179341653196349 -0.16411487370202193503 0.10793197259105202779 -0.10273584249824288528 0.12002046117868758746 0.0774280517003675256 -0.097239221678940279681 -0.23933017390859750995 -0.0060223298825726198982 -0.057225854627828941223 0.15567905469610401892 0.028607638371815308914 0.12109092656364882357 0.098508560713209694648 0.084849354332085652475 -0.17228949577756605405 -0.32043754621008607719 -0.037361040173921680752 -0.24287012732591856112 -0.14011017164431929793 -0.20046200441613221122 0.26888085107231340931 0.075073653421334651803 -0.060658581453674940975 -0.059045121263546995749 -0.03091389997715621521 0.16514164569136779992 0.054959439560173656281 0.087380434522355276972 -0.24433670944770954914 0.10239178563209445916 -0.16388902213478306891 0.023691864007207255605 -0.13371947003450540548 -0.24284008195632916793 0.14651904154774275657 -0.20846698571939725753 -0.30221330302884047425 -0.22591022164777141423 -0.17877433977922591035 -0.21328367532295319786 0.08317841561991831667 0.031369806500449411157 -0.0029517787676669763816 0.2453528343567089598 0.039653464664649341886 0.29041141565275940817 -0.1483088834486266383 -0.16366054149277470264 -0.12574846535978814743 -0.08769355788042766664 0.18854737381730690693 -0.14279156336406312322 0.12092354286780145067 0.11702825447697544348 -0.14131792511648896826 0.076536367593889084726 -0.18031527964862209545 0.13530929901057209275 0.058981615752840478584 -0.025868230644631267506 -0.18783955108963745761 0.15929706594897494187 -0.067331425655194981905 -0.38081279586581190388 -0.25394775544242564891 -0.23393049646092561877 -0.16271599014681267792 0.2385206517127686221 0.12988347489096596643 0.021428716751558267439 -0.00053141861801828203099 0.19187719288701265974 0.079998941929644504234 0.17608877040497963873 -0.092558385950765945105 0.14547980489640596757 0.1116560284434957584 0.29474517263710309223 0.1184375330192574266 0.09925008376786124964 -0.010763700354351368738 -0.020963351891313243558 0.22547542223599764677 0.072990800570975802875 0.065762711494296480219 0.18732215095239129754 0.082816314643615288049 0.15238318899456815281 -0.048864487366555707515 -0.26090707819070552143;-0.081837254055651870166 0.19026033116946466928 -0.0677855923581934805 0.24405716583472597536 -0.08429499466209640357 -0.1505744098117582086 0.020468293219461104054 -0.0051893593014521264412 0.35383472405703797481 -0.022352394202959788988 0.14424733221099655944 -0.20119514332964708037 -0.26898275711591479453 -0.058506871322677359015 -0.36277625908307620239 0.13417639424046806651 0.27045919909585580676 0.053174033630097705672 0.043738788516957817498 0.21816110056835741338 -0.016133206820446173435 0.22015524325803714767 -0.056014253163549028447 0.094650551502688640149 0.15785154851068583515 0.31696607888878342019 -0.25940102456240127227 0.33358304473344480012 0.008613410810126512912 -0.15052366434834366093 0.17870095891063120241 0.12015263664735233162 0.0525413657545564447 0.34206783546622132608 0.087092264325776963529 0.1575544337987115906 -0.12022969544125096386 0.044668216912946291652 -0.25346838389954395865 0.096397939037663873951 0.15367195895075491663 -0.11404379204084283406 -0.12321525111114178808 0.1699883853363404751 -0.35838710577432303372 0.016458275971562009304 0.18934348571556769425 0.20698788946837770597 -0.002071496064130471694 0.15355396669456672365 0.058717730127088092751 -0.27492072150360763461 -0.27699792573230858084 -0.13433625733750897968 -0.074583366961647537541 -0.19752497475039829111 0.10222210315971291816 0.061655582504160359736 0.072403337779911661198 -0.1952095515416815974 0.13343162129481667133 0.30663052633772641675 -0.089811166719184556961 0.016586443966444694431 0.192587912518069726 -0.12242453340716330512 0.12654554449149671425 -0.31232604401728353283 -0.40754727123072703732 0.23435658806714323998 0.10201168308953230401 0.027402315936039662453 0.02142069227869994319 -0.042797177781421974485 0.016797609048951788607 -0.17138610167805423679 -0.26393574975968592256 0.019706316383006565462 0.16202420218922994333 -0.36786175625084566176 0.18083639241482821203 -0.013827310357505668073 -0.13095722382096439129 0.060639332330996512099 0.022016184715969784602 -0.18826826622779152531 -0.2348916243796266845 -0.011864481184102373609 -0.049978170872322612295 0.19073388641130345489 0.095225948110377683919 -0.025677599921242365982 0.28067534093996782119 -0.021822365345068393816 0.12146478470798158233 0.68647425701684050559;0.039913729104584329266 -0.13196016947804231623 0.25051820839068889013 -0.2842310895065411902 0.046334174845981415669 -0.012435935720177020841 -0.078604692494037731176 -0.023190805791311257938 0.27131600286941703892 -0.17361759851039415548 0.021829640641567393811 0.029697299391982547034 -0.29934748692288160044 -0.19948823175374699734 0.39117677048946614127 0.026971026279877588494 0.086697922122089973729 0.26282049237314841772 0.043661845168458612854 0.041355848015432510045 -0.016619781912731196316 0.12014389619542455157 -0.15088888176090006765 -0.25650518001019406711 -0.18051220271496590253 -0.16577103652352348506 0.087780490416588363711 0.033570774385155259523 -0.14555598361980731648 -0.042823688750974253647 -0.23180313423302778553 -0.27613994317551332491 0.34241441261799743234 0.22183980897280014544 -0.21047620737471040009 -0.23115533291574544283 -0.2802780506541578398 -0.037912010877251510477 0.1614144580179505406 0.096918277077790451757 -0.38584153504746654395 -0.0052491286518463325939 -0.16031754514195947769 -0.091638949007772516064 0.071223066249531008509 0.17661676362807679497 -0.051783828166358347733 -0.12564710556223340765 0.14979258289070723764 -0.031685428469730769763 0.020983609719134127536 0.37808379670589176147 -0.16356644563578892626 -0.0073669972613903279141 0.0077649072775253279513 0.26994451136252034518 -0.1383308077587336038 -0.085250494101414234227 -0.099925236180479229398 -0.30025875321017014841 0.37692680534076367094 0.16639391293880056999 0.18596357233239521611 -0.0029358681315558455421 -0.006224672164043625576 -0.0038085793840129055464 -0.078806963763709589332 0.1082122109285817424 0.21578402624249795605 -0.21240515187035571842 -0.14563149375387185458 -0.0344262696336664481 -0.43605123913911508771 0.42023107846682006272 0.18875465620346443263 -0.2633160844202924733 0.061219259818938373541 -0.037216936600360447929 -0.19937003120318891325 -0.071266626505015737147 0.014766535768674040122 -0.1483472252185559781 0.34810712364920487483 -0.051291119990921625604 -0.12071843965625465855 0.050246028924123976867 -0.14936881353631314973 0.55902892894990707795 0.16340203869784999946 -0.1015515661246460255 0.33408329495122862651 0.17184583129048194849 -0.13115988079755303009 -0.28527834716523853276 0.17205037710343190627 0.22842286619983173668;-0.065738357897266203045 0.24376305891801591796 -0.13315790666295129752 0.098097114721156203343 0.19684779176081104723 0.086995466355247560997 0.16921182752292465712 0.031978922197257786397 0.0038620839756139078991 -0.18064885181890100174 0.20720956320036157394 -0.23804275909790165167 -0.18141070410790532952 -0.33192853636320474031 0.23309411619673228722 -0.36885443316388072388 -0.22616461676620747134 0.095729336087125291299 -0.019689045418835798146 -0.040393150593993246145 0.068020371641681315333 -0.057141972216156113051 -0.097048396735311431849 -0.0039689329177118913908 -0.25262454736466632976 0.18180666254627306233 0.16509375300708542533 -0.075209527007723944725 -0.14345371471148402054 0.14098984746835430126 -0.30092243895374970464 0.099830991844890040743 0.13820574065772661676 -0.057113143123879647756 -0.070701659334845998184 -0.15420350354834108653 0.25028680499809574656 0.081297437385430632029 0.21045055183572539126 0.0080016080939362809604 -0.27386814982344004354 0.10358973796510451137 0.22045505074634832998 0.10353663981841750019 -0.15339897964084059367 -0.042230736965398155136 -0.11726622618006686538 -0.20356896738454857698 -0.22118960005092203058 -0.11220550017712305202 0.13494027262226046537 0.19931008966597810184 0.084928493114278358345 -0.23716514424391701987 0.11706548994848850476 -0.11770452280201480766 -0.025440917309169291255 -0.31699298191624281085 0.20288928244765386255 -0.19338033316668487571 -0.15538192434923780993 0.20494388740638228019 -0.13410917761477597621 0.16517072565607637813 0.17356178490145959814 -0.34548884875236840486 -0.016826609455308273039 0.14766937842668811931 0.06223905851343173451 0.21046064312281639874 -0.0025212816007890315878 0.16636182325195358889 -0.091019114928455158164 0.14241371354522855408 0.024806562295205704383 0.12860369995988935043 -0.20867807716264155649 0.034709281055969910812 0.072257696316157055128 0.051585383399673861993 0.2413363407773794489 -0.10067152561714290404 0.12740362841454830334 0.026208500997491654405 -0.26746761471860952541 -0.22109998266192429361 -0.054346764553928117447 0.083659778254596500746 -0.052128997138000864042 -0.065601232461024741593 -0.29643964746032991364 0.00044085454049025375386 -0.14266458345338134395 0.038163721059758820564 -0.12504257479319275115 0.47214481573007310855;-0.22483963622701075291 -0.18456819798845675029 -0.30586812169917665383 0.18744111374445726614 -0.00014766223036031395077 -0.053380165071419134748 0.29081165428152733199 0.024860625047438061203 0.042214604283842799282 -0.15581221602373657165 0.0087152951758853788172 0.13780420409105784141 -0.01775329360067591164 0.10829612491229642646 -0.12641372995800612133 0.023019942261689577828 0.34508147433236968649 -0.137989607951555876 0.054473325134723360463 0.18576598348420050866 0.024075562982618987917 -0.038462850903213746667 0.058752584375604717526 0.08833719012537763482 0.23524478873628759668 -0.14507877959538775792 -0.21356746537815501918 0.073045469881096364295 0.065199731983376599254 -0.20065912599463600618 0.12945871861916988244 0.20987229106543159318 0.26716314783980937841 -0.012368625689999041689 0.30036746738473896201 0.2243729168517410999 -0.14003715772846872523 -0.17850987427398673502 -0.13103671302613217886 -0.16772174824278771044 -0.42897035580259429421 -0.063772690544099439047 0.28459079444446022666 0.1173945990107530396 -0.35253523211016424277 0.0563513085181259199 -0.38128997481717119555 0.2353488275024793186 -0.050945904058586032048 0.049956112193302849855 0.024162508401131252422 0.29584989787057236477 -0.062512150200514607357 0.083313327510673787502 0.39549941827236739789 -0.21465698190696261283 -0.024188004016059770629 -0.076909479575393527306 0.28403516431886977056 0.064488898270116404299 -0.046268444354343116198 0.23095114794243901124 0.14888647785419381608 -0.066344381358208193156 -0.095736058788498293315 0.013626840826507471277 -0.2724146010539615359 0.084961363643732981665 -0.10663160076135064225 -0.30387742160021852245 0.18328374221832757773 0.36447163320832126621 0.12101846989147679867 0.0093173771119725735251 -0.083647080087118408365 -0.29206239862277216801 -0.29122212764586608014 0.10570815657874299553 -0.076875781006249116478 0.16697343617294635454 0.23260430309687193939 0.018550420701221967401 -0.1072767008606908129 -0.086978200047133621964 -0.11218968240755536336 0.068387674328077019403 0.14872067740662750501 -0.12411865720123248236 -0.026656172150625420669 -0.11220901007711038544 0.2258150087644151538 0.16695014456588541663 -0.06310557258288831961 0.36478203472650261308 0.14364721923605286436 0.26299808962343895757;-0.083288978495401566615 -0.1688717034406280737 0.15930617758585921551 0.18284107425107928857 -0.062322458344632937488 0.088485525713692989025 -0.1113587490524121093 0.28577463811744158173 -0.14604456876304466872 -0.21899810434991176522 0.11859270118136031047 0.31662821659409273733 -0.037515690190524503267 0.095031930661065910915 0.1252114971892010209 -0.17300475487739402913 -0.0840060279145344313 0.0092191534777289214225 -0.083472851317858018372 0.03315064216280271675 0.27575908209830707341 0.27511136668874303091 -0.20388132287509172502 0.10572636265262462529 -0.0029008472868301189186 0.15003069137035202063 0.24075830141835885545 0.32436481423167617955 -0.25492367643172791913 -0.2324757938271624913 0.25844326950063978288 -0.28844973927611894382 0.12555731955014839962 0.45999403865805627012 0.12360376600859451779 0.16954931808711248831 0.14490510923595914528 0.125390320414375811 0.22134424151563780736 0.021663432166662 0.09547958362843857183 0.34463849020363063191 -0.21774347653887649034 -0.025667853508795260287 -0.15715241896122542076 0.15934980464176490278 -0.054693463523820248784 0.088884728335280813183 0.45485940604227287354 -0.0039962772456062379406 -0.11327326934318301954 -0.026007210157360370617 0.0035126935832868184766 -0.091058824258883300229 -0.32391128317360551314 0.03777580624070274451 -0.030987147787387474274 0.00094393402575471477278 -0.21675278805122236148 -0.30266501630266873235 -0.14189953219832365794 0.13807591086911927269 0.069240806432485507704 -0.24746467781988382151 0.0055846920580510991255 0.22340936548649864557 -0.074481937957907792813 0.071609847304109283672 -0.070191139878165220711 -0.11871579544768080805 -0.2591444627743466067 -0.32679256717915278196 0.14468711714549456482 0.098584788520373264897 -0.24447110012794517897 0.061190315230355188381 0.27946549190342750979 -0.075761235633314397142 0.057127159675840172293 0.21679723796647071277 -0.082527937278954965894 -0.29850493663742239114 -0.072948923294430506603 0.21298164785888581974 0.41640111893853354319 -0.08495158048010101326 0.1700996536459276065 0.21451372545876926101 -0.074022212226923025935 -0.25357778563310706677 0.20852890189224657091 0.15363901554118747361 -0.0069665549605903423144 -0.18286111036544988595 0.34228050181278873998 0.13830183096496231898;-0.043763070338490119016 0.24752611656114592575 0.23421715422023151043 -0.11765799619042445479 -0.16974603658944706353 0.0096797275177646930483 -0.23281747488077769725 0.33370721252610685559 -0.12822802256012463817 0.075449200269461419444 -0.075159059579900058812 -0.51895616917951070679 0.43556925152928088751 0.13959592099620984906 -0.050333503171901952666 -0.0069810385873629084846 0.062501068993134428764 -0.41666619025409035171 -0.14557727889969665491 0.04608830309099997552 -0.043866277918559307136 0.18181486713874797645 -0.09994237331906349886 0.22917194274962413014 -0.17858787890715638325 -0.48399918754421999978 0.0086563959244762359035 0.029848135384896560401 -0.15022866801210660315 -0.23536516558409650846 -0.16349089481307721439 -0.26480866537707542507 0.048664233412856777727 -0.11389937547914721905 0.069112181745078563044 -0.056005124983345470902 0.30639193840014922188 -0.24891961018969649411 0.13890771426531242638 0.042886841192441918502 0.14387869658741378465 0.07904096974140518983 0.12234670280190200475 -0.026388468675936378044 -0.11365942523954661314 0.42510649777155784523 0.28028517319528495344 0.32202335944093668507 0.21217147466566557701 0.12427712090144711621 0.6185504255596842027 0.098204419941959941731 0.0097887931487507014866 0.015114502076575095368 0.10653793168374563194 -0.0046211741611153914558 -0.29266227278603323958 -0.02998478311774125174 -0.080576970790127822042 -0.18623444576190048561 0.011809217589403554066 0.14409627071283084843 -0.041655763004752523193 -0.065190276742646019459 0.46163039921405274457 0.21359719925153081155 0.2018982660282786501 -0.39106587195942793533 -0.2739025879315865053 0.51336513315886245223 -0.094943568200836339632 0.39111217361057576403 0.040914793471112501089 0.13584435316499135493 -0.32222806374386508965 0.022821663140850333845 0.32580791508927287037 -0.034862656147412622587 0.2338243801843153391 0.23654672544554827818 -0.018618718892168494711 -0.040020916442409570912 0.22746358729470739224 -0.35532496683612552202 0.10969893680529736735 -0.21340419102687951947 -0.11096662610970253748 -0.11306784413594313243 0.082894653407366541975 0.40967987731317206945 0.11549961218917025041 -0.34235784147653425258 -0.23580375482333129633 0.23449166017929423678 0.15444068099034494179 1.1220601156636289542;-0.37091242602893864655 0.036058163493770611918 -0.37303082477050331089 0.39964650796921763476 -0.10586193586589714988 0.24844882521219330274 -0.19919447164904169334 0.15240900928962206051 -0.26432223017935796427 -0.33758189492403994914 -0.0091075283392190228143 -0.10608825888078993183 0.31057218050120277697 0.31700716364247472079 -0.11419359219429779662 -0.25618771806514090139 -0.24498392027538101745 0.058955048582526169143 0.33220153131152618808 0.23223774900869911808 0.20744048837773867988 -0.052733654336100756199 0.02215613310985275336 0.29447006430444000458 -0.22209839275460932506 0.16726738237404253917 -0.12353156305576661056 -0.0024633281837334050982 -0.18161877821367652941 -0.029325166008991338656 0.32640298475382506505 -0.1422430500375644058 0.18042861713797417322 0.32281727290142109288 -0.14612561753310809864 0.037752973686807037024 -0.19533451589610570376 0.20953641391803509708 -0.32816992806029832153 0.092946982873735928266 -0.12270677071313697282 0.17884373032348585553 -0.29308069119749380338 -0.13689080570398973191 0.20398579719537418553 -0.16797594840119217663 -0.035686111772054253388 -0.24322223872191808813 0.15068943707122606224 0.20794593444648085123 -0.016625706961134620321 0.095716204361955353752 -0.010516469872579023437 0.035453935790241530857 -0.29029628202993518205 -0.094856185748369403754 -0.21535733810553389644 -0.24881142022582286577 0.036344823132481399175 -0.057104332159065324115 -0.29580906592655553666 0.10876870319150387656 -0.079960129792988277053 -0.31004200867150677468 -0.045087830741608304896 0.13148239337147385464 -0.092084789784632289922 -0.20854223113377351462 -0.19912543753455244633 -0.062878702898995539328 -0.60942178723460682654 -0.63691874348232957459 -0.23860291757720347716 0.17055789707997795479 0.30699898073216780325 0.29297505776777604813 -0.18493386538830103305 -0.038710008609498094967 -0.20592403642517945195 0.064146588243079616376 -0.10279545418301413995 0.043578104553287401457 -0.14044088915026325948 -0.1574824690484620815 -0.01058829808399516792 -0.28611058838938857596 -0.15126085704532032938 -0.039755239778591619504 -0.16812370264703435652 -0.10206196794935082361 0.013870654848745469362 0.11786622186813211499 0.34187360268500482929 -0.14598829960456091714 0.084353343310526379684 0.039609994780963567185;0.034802325922179265516 0.018544159788660887628 0.11166248756915561624 0.033060586637484110084 0.15104537772438528243 0.24466163065717555503 -0.14524316615593693691 0.038121497656252223418 0.073639721107564448666 0.037840489639986978065 0.072565316035904853242 0.11670108805242890293 0.34626476537561740043 -0.08205011498275385784 0.016841887930137612595 -0.078124840667323336429 -0.058405132373600975038 -0.22688276543826829679 -0.17269967658616730555 -0.24272605184560552827 0.20329228357581838327 0.10332384241309382211 0.23132293241642015724 0.012775382329652624699 -0.17359943422998455609 0.2191590876929671583 -0.20590888338927126888 0.12696749133034967993 0.23518663391295860365 0.33016544921048118777 0.081428135727540595923 0.099608421719012962825 -0.20293996606435604768 0.096009183962984662175 0.0017229745018364202389 0.33343121514231260916 -0.054606331518564449334 -0.2021736948755589458 0.3542329652078608504 -0.28527450140548799018 -0.021863317546591206492 0.17815667912249313898 0.038349370539070122554 -0.15951710471263952362 0.17100857992586090961 -0.35327355298652868276 -0.036845788527528865186 -0.25170100597581779311 0.26234722386810138683 0.16943973082381225126 0.089653192492150521331 -0.12158550963210573714 -0.33102235571898669386 0.25300814531086701642 0.15850421317654639353 -0.30841884206306269256 -0.36840739405601474754 -0.079656090720903516278 -0.19917441395637508483 0.060260258172061452464 -0.22347622428849017728 0.10635258192533864063 -0.107892034014620955 0.20270317820801525555 0.17777263847144250675 0.15334362213481964043 -0.094417346851894942694 0.041461123680247846668 0.19258732955571403189 -0.01681278017844444958 0.15543831447624062436 0.31218276151985757672 -0.24529185752386578612 0.31050489482631593585 -0.061375782942495363259 0.10145149825710958469 -0.10006815176018842017 0.003997799827085476293 0.27368275298700811549 0.0047523276375130091634 0.20194536128696971566 0.13774392314186179043 0.13114948224781047825 -0.005399502041837885187 -0.054095916537748506281 0.36220033370339449474 0.07834258027464208185 0.049269522714543795283 -0.044629522875183652575 0.061723984449671358277 -0.04240385641336661543 -0.32817939113441974008 0.054374875814435646992 0.19890370368403770263 0.12857277577342615671 0.3591292076826378965;-0.32368847773467118722 -0.12413695429406955417 -0.075789162592834441456 -0.1577650194953256757 -0.29571376604542426447 0.16975173346415461939 0.075648360167949554866 -0.35049098857906230142 -0.0042118044040990757979 -0.059662661886163856351 -0.0748454457658894734 -0.17628112999415790352 0.22102302282614727513 0.21699358206284929951 -0.092854728395413629882 -0.2373784909330909354 -0.055729569840670525882 0.14392487759278874138 -0.013257285055628443421 0.12449587983822882342 0.29991629064657709947 -0.080207438044328088766 -0.09630762197450830342 0.018264582019349516473 -0.030608379758407053967 -0.077787427237743456132 0.047048005712545477863 -0.05263502007379036729 -0.40735558656302078839 -0.22439910900545001482 0.069807454060021187359 0.13723311763729242885 0.11330633864111787357 -0.21120959048529958091 0.04070591517893467487 -0.23967445810534279693 0.017177296881250594951 -0.32278272217263986876 -0.31976782715446727678 -0.14669797632755030015 -0.33590306047188966954 -0.16719400947452661699 -0.1929202786599176489 -0.21430938233753846212 -0.36112697074181188128 0.092977500145242794605 -0.033033719395838580246 0.049000313271490097966 0.10953593397916969177 -0.1098675502156515188 -0.1714542454849159181 0.082240025839640573668 0.050125351924732983178 -0.098386978114282291896 0.16564954890338276505 -0.0093181462717841188892 0.097581655924260560231 -0.092793771731822710658 -0.18369355666012773809 -0.26476154030582416121 -0.096593282573375113809 0.20494939868709571851 0.28600632738150971734 0.093563862469179234771 -0.0025208377774501738479 0.25944656468695881379 -0.27217235823590507637 0.28269966235349730521 0.029912107418471268333 -0.35505149717490985806 0.1424260438042293242 0.16791018915302438619 -0.058787819657526795003 0.079818761857993136832 0.35168205840873112411 -0.023043495543822439114 -0.12106120274870521558 -0.07291395161466353303 -0.0063539853648545072118 -0.040267831178298366113 -0.17897684440548600193 -0.34637058590427777238 0.056066997599889638326 -0.05974015999653960185 -0.31537820863756949041 -0.037205075540301731085 0.19247528390563969913 -0.14590517954601120443 -0.10253087677799900546 0.095700732047866138297 0.19275539297286684026 -0.25654470166523279939 -0.22973901114329048356 -0.025612102529673035772 -0.35052451330969131016 -0.2386012170811695754;-0.11024158533083104616 0.30498249360602042168 0.12341724680959101357 0.10183136537429285373 -0.058087839123022413923 0.27917845227284615595 -0.17055942122135928085 0.20421607202985966878 0.016199623832946079965 -0.3016325646077216982 -0.09828396737857542087 0.1065897219329808715 0.13217573186853232015 -0.22594604441494425817 0.21388202252666169145 -0.090823420782947653085 -0.10200173228242556678 0.3116258800746921076 0.017172211759545023824 -0.0019146973001356304683 -0.022267344446091946047 0.46096327982953816393 0.074465959339808443507 0.37854783782294681993 0.20641989782195110936 -0.17143981554060491734 -0.267227315541259558 0.033409325615369682427 -0.010354888574828493425 -0.026417528116868465443 0.097890443678564420527 0.16836603762063634404 0.14335015024247235726 -0.08410109301060514353 -0.24488704334356556358 0.081320754074823253799 0.23734902393622545058 -0.30736808132233955915 0.011185580685333295844 0.10602892687667672678 -0.16448368568962745684 0.16833059319898874273 -0.22110592817304328128 -0.1083135196466145922 -0.073943686057755725338 0.2300146169820490305 0.0436961536399207498 -0.3446370965225221128 0.013339436683638279321 0.037032122918600453298 -0.11654283131313057653 0.16821044752140471013 0.070016455490351514612 -0.26831391668988369137 0.18426067565375447987 -0.042582427112402378155 -0.16835307182617884059 -0.057796059358917795112 0.2826363473132499915 0.20010760413077546827 0.19351556776971812202 0.263554518096967616 -0.1290646787850097954 -0.11693399243022345457 -0.13001812708990412304 -0.16591043313548675675 0.21507959218491187747 0.1949715035196414592 0.13954487745756805062 -0.14615612532134139578 0.11493241208949740717 -0.2035302522830164107 -0.14846698660384632928 0.35622446283595593508 0.1224846472886093468 0.016713867270563686346 0.34174041604765631464 -0.17505037453241678591 0.023561179406329197522 0.025214852828946365815 -0.20797027538483245368 0.045179192895869940694 -0.072944318062650434498 -0.1175533031251173588 -0.12829445992279486788 -0.0020254736241811770875 -0.10124797331568509418 -0.32825965197873807622 -0.021752314228418695441 0.098184429474199197418 -0.018685332838263520039 0.14233779309495322996 -0.085457480284146486449 -0.22172977422842063411 -0.23182998836552667909 0.059809481567321777506;-0.21326462343478827521 0.086436277477396475377 0.13013228438560209277 0.27195137489851350932 0.016216448641451219892 -0.134737208199617986 0.3267776098109880234 0.17992787507900073751 0.15024398879790837324 0.24713391916645716107 0.22254930384347451633 -0.13920983503996034458 -0.193233338771239882 -0.085495662815259512723 0.064328792377058768848 0.030701464793705939005 0.18663899854769258613 0.059544086921941456747 0.031697291584077677551 -0.099528315323835131467 -0.1606251592471572287 -0.11413694615797898013 -0.26936224708438361031 0.1637204985644144517 0.29204849521257908451 0.053709524710943236381 -0.21600475859198700612 0.26087022737008297435 0.09932923516056681168 0.069495230716395337001 -0.042870328353139551536 -0.13752009362130984682 0.1117605178014779016 0.14743618137367844878 0.13143434451527660767 0.27566667356649549037 -0.1557211715994098189 -0.24697737104551181764 -0.0070773352576455599711 0.13208513198405255618 -0.067282583084420713448 0.11494976952943011805 0.34330394305819639245 -0.15924217416960279037 -0.047822753359951376828 -0.20226305316040593674 -0.25742607907709819104 0.12721226137853991478 0.055193330469501152014 0.023836994033174088714 0.15310269890382086078 0.3902132012302387265 0.0015542123462024977874 0.011094304301497709755 0.21925921663377515025 -0.20086147328864156769 0.17155705024126435831 -0.20222810021062043173 0.10528474420735584038 0.097652265837814000715 -0.046469571909676016253 -0.13365412596439921189 -0.39427674318337013748 0.15877574194150009812 0.20752944626162161956 0.10119406486653047261 -0.54152678508120688505 0.13694136921410421381 -0.37708450386150316191 0.20275562049465606362 0.0095185744345868874422 0.089441258399747411434 -0.36527577917153647435 -0.36483330122746748803 -0.47734749450660801662 -0.23332561095147819064 0.24933124878406093261 -0.10888070094522714348 0.048567134767705841258 -0.292742012257431794 -0.010170772837550223419 -0.14422229818348888952 -0.18384708708108013497 0.060390098115330699546 -0.15349364181009070296 -0.29955772742287578581 0.30294801825085082569 -0.21209995628469632822 -0.16743261473448192711 0.29438276429107151921 -0.16107572297985728316 -0.024915356523860236054 -0.59574726592707183404 -0.055775309587487741092 -0.12866639597041804044 0.32685902187042170652;0.082092915809150263096 -0.49266092862043192602 -0.12153447601846903425 -0.20237352123181301389 -0.37156230840012388628 0.24714088756741234287 -0.070388353196796621392 0.06869935808624436091 -0.09513791428367139591 -0.10930366722227936871 0.1283021993917292658 -0.28720901527630676719 -0.085894609700561438959 0.010970677669462854803 0.014980906508881257008 0.13129187772958417213 0.41499989931618169736 0.35964485983572891392 -0.17761189723449558042 0.11202831422614414891 0.31158286280405561586 -0.15780078369074260203 0.10460473019629212832 -0.0051103841676412541106 0.094929434523937275547 -0.16076815740274244537 -0.066657084210140465919 0.087953191110835868272 -0.11237431884948485827 0.19909936953235893298 0.042875363855823703241 -0.046061429995023883688 0.18294849426060072473 -0.12298880999112186962 0.31830654833052712815 0.21210852902092575123 0.15740147026034553845 0.10115728382808647501 -0.20807109553500061083 -0.18589258866908103807 0.040745399822085720531 -0.22204828464465931059 0.2437328865200788508 -0.13574088093741343286 0.25149975189576306844 -0.27306540095778519817 -0.15706575487594806595 0.057351826303445700705 0.41087819553905829961 0.0046405868369198965961 -0.12242323754430470273 0.29170400914845751039 0.044139834369208208464 -0.21000796305436347788 -0.16067797887030896287 -0.021659022063783568701 -0.012639704687032878375 -0.013478110587608178872 0.2732506151341275169 -0.20941632085885525383 -0.56797425784225996637 -0.12352183578217725002 0.28492784791439107472 0.22862017868899958684 0.14756062059727217961 0.10974351494058530443 -0.033523867226676731801 -0.019495074760340853903 0.17567892372041712945 -0.23561554446235907778 0.21467304494305988749 0.62661886337640393396 0.14025128867241093422 0.32366083466608319696 -0.39443383368312689985 0.055188983369329230877 -0.20284988605920498128 0.21929503899722915805 0.21974636909228137394 0.097159892622532689765 0.019668245009487418662 -0.34473778603813287624 0.17730899122251730926 0.066287043452149529976 -0.32303178203492155518 -0.036958535954426996462 0.13473609637946093454 0.012107025385293714026 0.057198988976409716189 0.22642831095747190107 0.060893316418327181339 -0.16150729399084451376 -0.043699642899498444826 -0.38735233065970131605 0.13902835077188530066 0.01480474999364046404;-0.0077835833022503429779 -0.21554878856685341648 -0.27143777061264628969 -0.23537537710583764095 -0.025662897282781153147 -0.28728910399852397584 -0.080729067516621649814 0.097432609337372300118 -0.24380931690321380745 -0.18215530950647801367 -0.030119282158940101357 0.17161031614239224963 -0.23440202303753801538 -0.25042399838713291782 -0.18372500881285791507 0.0089069631315833053958 -0.11760284171550146326 -0.45207555787865344454 0.1493407985714245434 -0.019609723718055249719 -0.17843507361346439 -0.15339528296887428027 0.27828613565823007159 -0.027133989224291527043 0.18118445625449786096 0.31727019880405704644 -0.22799652376446261082 -0.24812037960433261374 0.08724113516424518433 -0.38062982585396193391 -0.24249746135517075141 0.10524676053305020984 -0.073956627841325714434 -0.47913200995079663347 -0.28662330840083066752 -0.047784530695053936689 0.24093247690087365998 -0.137223413692173557 -0.26408236855478983696 0.15584529147965930918 0.056788621771163790009 0.078357249562009997912 0.42019804353313572332 0.061588649048558020971 0.44042572084771081098 0.060636933829747566294 -0.46999728376954408304 0.11452985779651043974 -0.18413825361377744727 -0.0072932445482557037991 0.049364483317883948998 -0.049319607806010391793 0.1823936901556940382 0.090068816100926221702 -0.029686694711032898808 0.0050082175576792601138 0.07271365332106603796 -0.10595529157390168318 -0.16938249791641885045 0.081791135831633623998 -0.048062274271411485616 0.016445290798287992562 -0.22419931776796769851 0.20843289851697663351 -0.22004577527073035381 -0.09851244409208625985 0.67806625701352229996 0.074557499948051039751 0.47798547124239781914 0.49723018828763698718 0.34213486173098539567 0.036907898269244190925 0.051111765785822743657 0.12167912781453373017 0.16983106374331535804 -0.39771992996592597791 -0.1119905366179771572 0.4093702911621211471 0.057099805144202257778 -0.1974553375372465891 -0.0034455360944496888666 0.19216060086190658862 -0.050262762430441268457 0.069520492250921217536 -0.50125289261023897591 0.34332498790950066736 -0.059927442862622130881 0.29669554466732367404 0.014283505300549064962 0.036003735809186476757 0.29782066274735230493 0.37119844005236457551 0.033457389091011313642 0.10229110001259823781 0.23371240944441920573 -0.027216670054379929478;-0.025320005974051793679 -0.043395104006762642845 0.045238408045825115322 -0.23894745794252841842 -0.022629009120493228518 0.24347718777088259157 0.19521709167010986574 -0.25156928271132855679 0.51155310083799498955 0.16618437348340936444 0.016255874941030892117 0.43030554831047679309 0.0030914591861488085675 0.11271319928220335793 -0.043624209764223847996 0.071025415903450142552 -0.13158439903443325258 0.15309416955281696104 0.23638897706865541481 -0.28889107132950447854 -0.10024371038900330155 0.019630846157935758628 -0.12197864986021764167 0.12715427895284067694 0.49984692726865975754 0.12818798962845620593 -0.12985709987722715564 0.28726622452132904995 0.10953228805389271516 0.21807487815029621969 -0.12240631866817053286 -0.033725221752342507409 -0.20279337026810770328 0.19443638142179511807 0.47213971648234404066 -0.085888563603923787082 0.19078179142245127453 0.31963860914725861218 -0.22226383641916877543 0.011460497011948327789 -0.42468306803245353676 -0.33168056965800840619 -0.62859449131114120135 -0.19047384464197589238 0.25597299641238469015 0.097584106359128716668 -0.012918953741799337614 0.11104940372551574956 0.26799961379279901852 -0.39834704689614719442 -0.021590069503052158884 0.25318503032435174527 -0.093521426137014779245 0.10780124951030217728 0.21641447276982730963 0.24206916070789769035 0.12229727108023662197 0.59127914339283260681 0.25649391121629050438 -0.032534274230843159004 -0.031513919688602204383 0.24070694761782585047 -0.10771881661148392795 0.00925618579160466734 0.61696617338621961846 0.31947360726754608917 0.0062316817141256797968 0.16890875849791275876 -0.11558159454092174767 0.11750780364603828632 -0.14043816032931633053 0.27386378327921889753 -0.085302657729745351434 0.16578393451663880898 0.1837581304523648873 -0.22301140280306588903 -0.056883148316006965084 0.42444152735275869626 0.052527264555830822934 0.29850873407128691861 0.15481097835594659351 0.1808186900189757973 0.19760530178436408466 -0.30747594923362303598 0.065905214032270217905 0.13525389257111197772 -0.12542807862579311018 0.48213044088334222614 0.48500159924377361786 -0.11087011471789749717 -0.03373903897376483163 0.026741037474213490144 0.23661843449576688836 -0.065274249985623117309 -0.020002246392113943313 -0.12428494111047838633;0.16810275522750442456 0.27969998999777184734 0.2032086419478833228 -0.45423160058435135822 0.51382927080372220452 0.029972318229552940422 -0.074938533922963845857 0.10983935352082527248 0.11319405492847714467 -0.10535663353257716801 0.019342712622496510688 0.10705958745418507616 -0.04670102710644049443 -0.15270820899577131069 -0.12558076960323527604 0.16446504908172104864 0.40709600586969496572 -0.14656585915845329882 0.17649639275557874041 -0.024615078535086310635 0.31810587382504890153 -0.024207881090208681341 -0.073150923412575438731 0.067300492919940863024 0.0056162680579198900194 -0.065393224599699775745 0.085690467071048562198 0.36744599504685582225 -0.039027483403452335742 0.004271240254504179816 -0.093355524373314638376 0.3106151718177118104 -0.074454568230945844531 -0.18823840512799061564 0.31732730592266655822 -0.54937267983160475993 -0.070595318225529210543 0.067141868447893937599 -0.13929809350988769934 -0.29787090326765036652 -0.035053347604642765001 -0.18055614973396652556 -0.24795178752891949836 0.10080655508128906483 0.25127329077365934129 0.11562425239302769053 -0.30333521660660489605 -0.14355627373932716706 0.34690403998104479832 0.19727179105652450919 -0.022238287029911440323 -0.057837420774920475508 -0.090551838092825118198 -0.1625721284036191483 -0.20630749485597543735 0.020247630922666803172 -0.26961851249154578092 -0.33054732149257043394 0.061603012062928300119 -0.022453203196862274449 0.34998084245892818744 -0.47084184011388130475 -0.058624394714116741245 -0.055859980759395168326 0.37751964780429514423 0.30385254125372046508 -0.31259498199792296047 -0.038943498304020614242 0.41000367719279640077 0.20289036980365385276 0.08173835542747627525 0.25934740143283413483 -0.16441656407521898497 0.28893735820106919432 0.063698891189470432939 -0.3085812914268186713 0.26723584881110584721 -0.1162199362671188646 0.44151726746346237062 -0.22726633958032069205 -0.25521585541254165896 0.056301941953090003934 0.054072700988303190606 -0.22160158419029424293 0.1527046898780139994 0.33483914839021566845 -0.23299679902032427448 0.15838379055126772244 -0.036833566209218820964 0.037530140463304294263 0.044674742264974080797 0.00051390032560604025427 -0.31920041773329294044 -0.33318792863506929702 -0.20611570284922936525 0.13786523668600161874;0.011077453314489223851 0.1889967565370860858 -0.32515839002229390831 0.19420676305876843903 -0.10685058241916546573 -0.044748435221719937149 -0.010871389867794897105 -0.0095074697830051339842 0.1619604467517321289 0.27601588720709613334 -0.3443854457716544748 -0.0660268238497619675 -0.053395580155231610331 0.22332250980757309411 0.044211564587403467952 -0.12309664910803749804 -0.029220707186912213416 -0.10825521585833018656 -0.01064415359511659484 0.046378246500928893559 -0.0049521112997219524782 -0.19696729599258225307 -0.30756495054340138307 0.0085809373520686748477 0.089327904072928315804 0.12032201634511463517 -0.068887669057283398844 -0.077886460061216675199 0.31181952199933049563 -0.069149510926555760038 -0.12284842126351280811 -0.10423643006303030811 -0.14225569533059567728 -0.049937323134094407928 -0.028060705977449237891 -0.025682457577048449504 -0.044214907592126186098 -0.04380337685561484784 0.13747397419009516062 0.21945973787980907477 -0.21705455572088167004 0.33262042513984441117 -0.1881207388627511301 0.11635789153802060525 -0.46858427328728635697 0.2307132590880030254 -0.12034681037538343118 -0.025296225857296655848 -0.12337342969191000819 0.21174797054331184754 -0.29787686816707836801 -0.27140908036166155881 0.31155076476596865742 -0.28713962441202223186 -0.032381281194081859565 0.12891986351346795825 0.13613258331410388324 0.042482563360782467365 -0.069784265865059341705 -0.12648203129416571433 -0.054771315174991348773 -0.016850205861074923214 -0.0034342944006170291957 0.15184709648650543401 0.168581078350039687 -0.0063127336218714762486 -0.12085977752975557431 -0.20229054628105103131 -0.24653168256073726416 -0.22227473985118173516 -0.006411045679164159572 0.082136332469955469771 -0.021776657010175771295 -0.072755852309885390983 -0.33904875068674250604 -0.11551253305183060982 -0.32497796173436832579 0.011304521167875624527 -0.014495324174475861245 -0.33529171912728861216 0.12885308900575373481 0.16001037597172754201 0.32968229380110475324 0.18839273467676168061 -0.040280002895048169775 0.13721535821318919801 0.23768912424843974263 0.065527351162742539237 0.18689002305226218303 0.028751916442130355522 -0.1225224991140635572 -0.0092992095841564984676 0.06543684613511394077 0.039112775931265643392 0.19451040349167844634 0.21649412551581115327;-0.28862020428376883308 -0.094626083056036050523 -0.22824542514365955825 -0.29490602639888879866 0.10704410270099895541 0.047697892492715693313 -0.088392341002308069675 0.08923737282069327259 -0.031032540943145756757 0.16071011870814566613 -0.20900564740192256741 -0.081481940286461787548 0.21095256062961603716 0.068158929283840458124 0.11088607581950032932 0.20582298617796920825 -0.19536940868375035629 0.22533210550117038773 0.039482773737345162879 0.22262518142799256338 0.013338995328049189568 0.30988735631324110242 -0.022376207949308279943 0.34913739884785038869 -0.039974244237928807655 0.30293991881179826997 -0.10916322491397466299 0.012865249809155073282 0.057906443348371063051 0.25867807722933416903 -0.037907934431574766276 0.21965682682477319365 -0.27995634316158751753 -0.16012109317524048091 0.12440924830155174197 -0.061163443599119508842 -0.052775147287291719611 -0.066880086965953572387 -0.10860354546070098702 -0.082785670342179151771 0.025089175553546626957 0.10100921547095847997 0.031852558281314086175 -0.17086163483235541904 0.23585294142742177503 0.22970467329816626756 0.048492013594704272417 0.19279534260331560036 -0.065744284321720081188 -0.055601053798055175004 0.11710490354596833629 0.22119429850520974656 -0.086453057077926512286 0.1964581112909322691 -0.25263275805417617637 0.084398557954584535468 0.10839293110107027507 -0.25249265920844271571 -0.0848125842966203497 -0.085065103210638703946 0.041682666825632520846 0.2308257424820819026 0.079715538437144878303 0.1594277160949469363 -0.28772304352708749642 0.17407519157255718634 -0.18127053347511143389 0.040743467709476489935 0.14234955951191430312 0.16800404577823038754 -0.14662123983020761142 -0.12848488481371986292 0.13769540675971370103 -0.26049254514190939291 0.39685383156660286597 -0.16989583153719653441 -0.24159723521047662964 -0.051444423088910798403 -0.082031054185681226421 0.21570430865439196855 -0.2548466571796701996 0.065428022046517528287 0.14540027436727381849 -0.31608354915134173613 0.26560360765059420896 0.078442381809638805912 -0.39630723651148369591 -0.077074678220456591116 -0.19643483260636432353 0.050311835526264864216 -0.18916132366729099257 -0.076107428962951501061 -0.17198664261784529783 -0.1610257947014218094 -0.26227072219792813002 -0.53262309173828026321;-0.042803575134354038267 0.027451187565038472765 0.10906739818331454006 -0.021384678897595224556 0.064429520006052745651 -0.05650849421904147879 0.011504487823798224821 0.037779340705544506296 -0.015850316583548573757 -0.046725381356648408582 0.070413162340443938292 0.049248008151290940948 0.14463056935662349511 0.31464700817996404947 -0.079113154692590961781 -0.056436588929583669794 -0.20154076920808228213 0.0078090712594436227298 0.42111187791869819641 -0.11750243674337641775 0.072014309540338161675 -0.0500248793067413558 -0.2702614851918815897 0.17204551070904799959 0.040346704476665155858 0.19137095186653776957 -0.0037022010440454834225 -0.23447217896479774502 -0.097590040272467523663 0.26917420521654883414 0.057090901763912529909 -0.10530955428493292414 0.096020919922222447429 -0.016098530184228323353 -0.3683324932087802539 0.28007130877326086305 0.39707528127619007297 0.16029784367051674865 -0.068145745090205475658 0.35425418368600358754 0.016951135390442524653 0.017466540737384173704 -0.053048941556701874334 -0.052707571958720500493 0.15993871501693787684 0.19321706313037606551 -0.16320115158610357109 0.040208061383459579863 -0.13794500211270288581 -0.0095578255156813698296 0.12489432091171590034 0.08843178836284894262 0.030807182301939368269 -0.17072461742606340196 0.1935389143348133778 0.24289719007297705389 -0.065505989241778639354 0.35192405703823109731 0.065775486079591771738 -0.19357170934497358594 -0.069302432208831421523 0.14300634684927085449 -0.01412186602675648793 -0.013525000336633220127 0.13831247030967777634 -0.16328861588812451644 -0.028316595419341384493 0.0041306314148704436143 -0.023890375082753077113 -0.41432941699610636999 -0.18019659733622275799 -0.29053416824503980331 0.14009421067625488222 -0.13068465965748427005 0.014856001446091251367 0.094848958263110003108 0.22244146466673406226 0.33669827952158287721 -0.14490941620192321349 0.23415024567807621314 -0.047448688530408497654 0.0099324890726684676723 -0.16113127804437704649 -0.27580041283344169933 -0.16372469687094293178 -0.13164055369766719528 -0.072415522186782196878 -0.23914846361125266516 0.0014728335259730123211 -0.5260190707957289602 -0.091319059776342234591 -0.19089442737468617639 -0.017546946334049167565 -0.29746222850777054303 -0.058950647024364498383 -0.78877763729726413366;0.12878165441186656404 -0.27649963632219315413 -0.0053924681874028337902 -0.051020302211229481837 -0.12875318340305136333 -0.00050346397088529446992 -0.15293601367668607782 -0.19994392761818613469 0.16095237521840438655 -0.0073870205443430075193 0.069407641014201867935 -0.25871399583306808889 -0.11029195356845621079 -0.024771190449122848509 -0.011705761376457702108 0.13255634790868936479 0.13873344125504691315 0.14977619074068443394 0.45325341894974596757 0.080408728304512649965 0.16112092425921803462 -0.13150582379402894762 -0.0043841764934616726107 0.048197391780067204425 -0.19751532716463834904 -0.19181120659026992814 0.018895879688952788023 -0.24698923447840168133 0.075742570314955057209 -0.19960631348755419889 -0.092146518792098425221 -0.062405953954678912432 0.22796729569889778722 -0.04608824291677274948 0.1650505395941565534 -0.0046433872372364636688 0.17974309522126918903 -0.11031612260278772508 0.21644480694966608536 -0.0018183650234026562872 0.16506257647344027562 0.01423660627203425337 0.46467534773365870571 -0.079724440860415607402 -0.26317573878598210513 0.089698079362518126634 -0.055118622390428764768 -0.27630351848147577387 0.14811108753644311453 0.074408410772666688793 -0.14135407456243503921 -0.094872635599823951225 -0.15366668212599987609 0.17181709501301259402 0.089077417818200416155 -0.011449904937250727013 -0.21302591547463881061 0.054923807537809593571 0.016968055769706606728 0.012140154234467084859 0.18197282066054301652 -0.30364445073958351573 0.28222067907020981226 -0.043360663587130768293 -0.20414540029738961757 -0.024267107885706983017 -0.53530779968274389002 -0.21000977599749023894 0.17944700076883146611 -0.14142137489838019215 -0.059541786530105215991 0.31863987080516531503 -0.25895238261501535293 0.13586476094335098175 -0.15667922134264483658 0.22533542828071867481 0.10492919616758232537 -0.086400217118295374874 0.36404141914214183107 -0.56470169035134964997 0.12293637414929479978 0.48860224540947250205 0.044098405313136045114 0.34161836202900963677 0.20745209116402116289 0.071921790298166629607 0.25602684373538470153 0.31516072484619045424 0.12935291281219027382 0.1093461905557275432 -0.022796423790929894182 0.26439507185724103744 -0.10354463427628143868 0.14266940865648963799 0.038706373530295080931 -0.20109356857350527137;0.19226260530703490059 0.063775021949012827838 -0.36455836194671720207 0.2142936267571386999 0.2638797963108365785 0.0042908755081878984308 -0.055239247030738097832 0.083187426459109550803 -0.04709958070168644706 -0.029856298941951780329 0.097293943371856386748 -0.039934742811371708171 -0.075222216524425566941 0.24569221101956578712 0.23052196533432328662 0.12226592544540475227 -0.028581660504831216812 0.084185275321248698166 0.14685108619489359305 -0.10484701284501041219 -0.15630716555955931346 0.23781647979857334363 -0.03295209303879849394 -0.13815301274399652276 -0.16846886363949389875 0.0062208687355134835092 -0.015037796151775573855 -0.18542844067527916585 0.12904142554976896773 0.39281610348916123909 -0.13147390693828062136 0.011955678605988232649 -0.19509662278492184706 0.094563782784492428357 -0.068566232896149367781 0.14667428714498148556 0.21051855236520577996 0.13166084725492105401 0.064592069675816377039 0.33269805494537002533 -0.099476443476054859927 0.30075817531582738074 0.24634241598225650738 0.15581516941539197418 0.11948560388164808366 -0.091029469849247618418 0.03879481160005610052 0.15042404312325058369 -0.049683578498573556514 0.034478726233217071862 0.091167521483198246668 -0.062239941736259206395 0.081685724958840036369 0.26630839672404721385 0.33665404722388714287 -0.017661699346720835524 0.59181882679577146877 -0.16653337151483299516 0.12112049049591186445 0.076113354659047019468 -0.38954957068490020378 0.14918285156650229473 0.34313309754427639975 -0.013412597598164252566 -0.17321532838460634851 -0.0036697964113159460553 0.22118570405797804979 -0.057391617456793268814 0.40498717574222725668 -0.27478687319379035969 0.058979853218832166417 -0.14961895407031500227 -0.11840581115663310896 -0.21787325160737874841 -0.20014609890372084267 0.026677424472045858928 -0.18574332945225027758 0.050141140006048273703 -0.18364605978333764513 -0.082052588019598513003 -0.10844500591809416723 -0.13124989471077455616 -0.23515248894543136493 0.15044892964770045785 0.33361976171185864226 0.058326385042262278435 0.34023563936651579631 0.13503778287970302774 -0.28687263645989463656 -0.33684578108510287997 -0.021977601916105173746 -0.068449182943895223175 -0.30872590815575812195 -0.22186665306042571699 -0.18432436127098261736 -0.66973260303236947788;0.26168414297581343853 -0.27187297238518781661 -0.020077669276332053838 0.051411929528883286433 -0.29666493846475056051 0.066786235488138334659 -0.33057340761130310502 -0.080442983058707923094 -0.0029862574891730371204 -0.26532916961835950609 -0.059265000399271447473 0.098052103700811521492 -0.068748628718242082991 0.018072427502642009894 0.30563436132772853204 0.36144188534474391838 0.30229143407414837963 0.17617923045228198187 0.068122720716712215072 0.12173710558195459386 0.13206182653705617058 -0.18714927706958123244 0.098388809563454637797 -0.050239087151932239339 