function [Y,Xf,Af] = MLP_PreTrained_9DoF_02042022_PM2(X,~,~)
%MLP_PRETRAINED_9DOF_02042022_PM2 neural network simulation function.
%
% Auto-generated by MATLAB, 04-Feb-2022 14:27:23.
% 
% [Y] = MLP_PreTrained_9DoF_02042022_PM2(X,~,~) takes these arguments:
% 
%   X = 1xTS cell, 1 inputs over TS timesteps
%   Each X{1,ts} = 96xQ matrix, input #1 at timestep ts.
% 
% and returns:
%   Y = 1xTS cell of 1 outputs over TS timesteps.
%   Each Y{1,ts} = 9xQ matrix, output #1 at timestep ts.
% 
% where Q is number of samples (or series) and TS is the number of timesteps.

%#ok<*RPMT0>

% ===== NEURAL NETWORK CONSTANTS =====

% Input 1
x1_step1.xoffset = [-1.25598203886052;-1.75926808296053;-1.61764378162775;-1.34702912584565;-1.66643970506182;-1.13533756709221;-1.24117529756789;-1.93972420403203;-0.891580683500955;-1.53080416061358;-1.7018878729175;-0.781170180906698;-1.19085518776731;-1.45311652527984;-0.542756148231645;-1.25707395679901;-1.58682910650529;-0.853086058672808;-1.38081732301581;-1.51751578621727;-0.596080222148134;-1.58170252199162;-1.94663333259572;-0.815814936421623;-1.23645585169397;-1.62226164978994;-0.818868003684113;-1.07498125412334;-1.86441400435844;-1.23459072285308;-1.32475856205364;-1.76110102183675;-0.836799216215404;-1.2841739060623;-1.24753911449002;-0.971685797490902;-1.1132224497069;-1.27171318854546;-0.742819155142739;-1.10666665251031;-1.67663187943552;-0.930721379928523;-1.14587025604108;-1.49819813525749;-0.919651745539665;-1.33151588513753;-1.80385459789983;-1.01900437871276;-1.19730394660344;-1.77047407573881;-1.00452354538693;-1.07270245489958;-1.78021606897833;-0.668883642264523;-1.30438562641647;-1.91326955228209;-0.830105486478367;-1.15569044650238;-2.02649381785621;-0.878951039106698;-1.34842825037665;-1.66192674595329;-1.07936872697135;-1.50469595423798;-1.80671292997791;-1.31574513835169;-1.61144643276751;-1.6026378037161;-0.982090841148632;-1.71181379967933;-1.39455377549552;-1.34758314582553;-1.45719278698154;-2.36577174147806;-1.0381599158878;-1.1529122415352;-1.77761416890875;-1.05430620163378;-1.30458178463331;-1.69780050308505;-1.18163231068531;-1.62027602717746;-1.88046829758282;-1.22679018931969;-1.28907051867717;-1.85572721275175;-1.0795590694911;-1.30502751166393;-2.07339601283632;-1.24224754180082;-1.46506932675427;-1.62166036356101;-1.04137847764087;-1.44242302453493;-1.68223959908764;-1.02195442655358];
x1_step1.gain = [0.61658223174024;0.346162063068692;0.160227772314001;0.734029647812333;0.440514166398976;0.194567173716548;0.737641545011485;0.475379993305058;0.272731367662622;0.667553297866358;0.505065374479572;0.36714258223028;0.871032883830899;0.570268916879554;0.3122542976078;0.718963318441225;0.605128803227783;0.280860755997708;0.692914984460124;0.585471890674524;0.23171400158476;0.648605867689088;0.534261033456;0.186457606587392;0.683135819846577;0.383510942127072;0.179675294162714;0.784808552449786;0.398857223622383;0.247381858699618;0.687878904048036;0.52792472947611;0.446467161819472;0.763711082244914;0.611005275227911;0.642681156154072;0.90296828262539;0.526164790338753;0.487398751130864;0.748891753525428;0.556501648113442;0.266752243750119;0.674334728302296;0.605906141659066;0.223289458383099;0.638089924737436;0.567005771602219;0.216608441521583;0.711983031186768;0.491189528007722;0.183580874171725;0.604661184674908;0.509858682174618;0.281228115527121;0.65910457192213;0.498973291538777;0.319464316937376;0.726410230791398;0.506429837110488;0.39866419320561;0.760315207153515;0.612487673383504;0.45564118359001;0.557547685921113;0.630016924887473;0.286164398293385;0.438233533240314;0.548690637950055;0.223410022291833;0.429603074471217;0.499436909381431;0.241738625561493;0.727227346149368;0.549438686782359;0.148438062686003;0.795466028286675;0.623467243970998;0.171592638994514;0.573364307857118;0.614260293751117;0.174811504428929;0.570310462296233;0.589993964682022;0.210801633868123;0.710170067660264;0.680627207335459;0.270094238088711;0.641715328562269;0.561810834867167;0.267943818098448;0.474451945683951;0.569847003454324;0.253058155333444;0.50256069536688;0.429075599537121;0.262704294922281];
x1_step1.ymin = -1;

% Layer 1
b1 = [-1.3308165859961968991;-1.3504882357146053007;1.2534882475336319718;-1.2577470179586316412;-1.268657623853445493;-1.3195948407041111494;1.0291178750177369938;-0.99466467723972429305;-0.98676573600254591234;0.90605495076148923062;0.86265388318385904931;-0.82271009218615276382;0.94962052025242904563;0.70867305991054052594;0.71514433113915365503;0.4892041759860983885;0.66736173911367557832;0.47742561697320823333;-0.58608243464377651755;0.55163151912215480088;0.512498702292592756;0.51447185171112230773;-0.43172425248992174485;0.44010429316939952971;0.37840862265657848607;-0.36928522499768895448;-0.23869432615237279327;0.16121264291087950005;0.070494844745055351698;0.034437442619236924291;0.037241099053348721004;-0.071543518237826966844;0.0035599607177292987709;0.14719880420819028699;0.13766021681059012471;-0.21158999654217663933;0.10961878875240409215;0.24238633715811738756;0.3713137570064174442;0.57755308968589602614;-0.24010689536298726598;-0.33208431311280600662;0.65736561620785727289;-0.51813886478752346765;0.44847020177136359687;0.48129944031799487547;-0.8321752586332979984;0.61447190185423372633;-0.45115568137158773565;0.80253270217802041842;0.81284337741891987683;0.78791243481582973196;-0.77196310545146296089;0.88947611198847575942;1.044517425848493275;-1.0785851094060778799;-1.3843356453104243009;-1.0403807538358180729;-1.0672378265789999041;-1.1336959324337356758;1.1101309859349510756;1.1455651069576091583;1.3308715583720394093;1.230967077065017623];
IW1_1 = [0.11361553259338909305 -0.23202541478381796813 -0.20533162487876663316 -0.034602477164805363341 -0.094198186926514992923 0.066335192975934348381 -0.14104384289842045175 -0.14029425959343280739 0.027616995590911620068 0.0086171621077623297008 -0.069402294607220624267 -0.0034911543278315256 0.096412558056553729346 -0.21093026356834801427 0.12610506458630532656 0.19785714551833247232 0.090883969357868202299 -0.13440596653983949427 0.12205009941119850103 -0.01474264299705483304 0.16514798609310454847 -0.12506806432380426775 -0.081375353192563532057 -0.024782599370637911629 0.31301308777649272663 -0.27002509520452872005 -0.014015663876089178019 -0.13106047129088069236 -0.27616376950842635996 -0.00941986517687004761 -0.031381215216220510744 -0.09512705179689644186 0.029814521039086900461 0.04664548468465761627 -0.11673809116339116387 -0.064537375049801865012 0.032529810370222525528 0.036634289841423882395 -0.087828701128717323598 0.18072996892723311446 -0.019572222457052427386 0.16588870944279165975 0.081149567684535087175 -0.098492848174252439764 -0.16414571696810170698 -0.22982660935843410299 0.019897508431529827011 -0.25628427880485521451 -0.0001981572601665168229 0.18912743325493819313 0.25003275855435042052 0.034985794523574816062 0.23293502732758541995 0.14193284059116351159 -0.052049674127329442763 -0.19795905603706315246 0.21752666548521160106 0.24148965865588140067 -0.029891039509606528307 -0.14101896608960831636 0.19707398852841867543 0.045504160791041060874 -0.1468633337695302854 -0.069986815866762280836 0.2036597020935443092 -0.020230877542798054308 -0.080571230683594757815 -0.068371755518462057344 0.016649927469881725672 0.21257040409261540592 -0.16155430034808862527 -0.033596948067902934754 0.26335270970504631727 -0.17566424221203250089 -0.141332389415953108 0.10910587787935974169 -0.028545872488520383781 -0.13984489098617769454 -0.057840996347269912903 -0.032210126024908775078 0.13966340578807864836 0.19986566019932783256 0.11122661037305621445 0.014511442524465737597 0.01818287270439381681 -0.097527236602217154404 0.11205756607461375696 0.25033549885634898136 0.057230814044853327294 0.11070683109004339495 0.2989067004914118808 -0.042593315850246241117 -0.2414971666988054988 -0.094350779842290413701 -0.22540531087142087752 0.25171413823748184369;0.20993607162435959368 0.18365045503742410959 0.17813067788026232252 -0.14057577256072792404 -0.093425019002274026225 0.22613160692938458207 -0.036599510097832466116 0.22050811975929979214 0.033315477107161962922 -0.12483893681355311134 -0.082129360401486661836 0.24964331039119133648 -0.041761061911456724693 -0.024834074079435834032 -0.14042691613252625271 0.13313830848258090267 0.2099095374606548825 0.019695116345644487349 0.18433847916555456958 0.2195784361910783633 0.20685122990317070246 0.16967546481534603875 0.065080687728107405876 -0.10824502590443646488 -0.15789856981090621968 -0.042253196310052726359 -0.13425239675920136451 -0.069574717022306054037 0.15198242850707249785 -0.076126840153034142089 -0.18736447356729260538 0.10952597739545613664 -0.057000661293821600073 0.17944090711953392114 -0.23111265771012579062 -0.19145070050800142014 -0.090531056280114069468 -0.079079468285679868633 0.025061287235038472859 0.12899426613709039091 0.036546541850908956239 0.12056429093485941662 0.017396004947812414992 -0.097364892530545088523 -0.084897369877104264524 0.094345031058520573142 0.0058656726664899922624 -0.13782297339478055687 -0.03985509160716672189 0.12667861461765439479 0.15081223841593052737 0.018375101697540151963 0.17002956236747845953 -0.22730978352655872854 -0.044932309441426523944 0.034410433532288522973 0.0844429925708958945 -0.20408765150341628969 0.11464740537239050122 0.14709466451932620701 0.1906737093238818348 -0.12141006722242123073 0.20311947297936958079 -0.038744103763598991552 0.089932614462492302398 0.046297607670545838643 0.0082907888491752703558 0.086465901626706864747 -0.02432757320544518681 -0.069841880418036114686 0.17355936258143131456 -0.019415375147081994495 -0.13738120806295001097 -0.16425063679511472947 0.22040863743050367884 0.18210199355912798369 0.12253276833114284949 0.093149011810673032485 -0.12958343398000932156 -0.058831180172283621677 0.056528048011714807086 0.20387320755278756645 -0.019814468155738992894 0.22227864335066013779 -0.14179615252522956292 0.07576568448067526329 0.17293167631025960218 -0.12793894590858709281 0.12127115864093686304 0.18688933894191309126 -0.11915415040049930073 -0.091908377102549773663 0.21325535847366866582 -0.012540131864687184202 0.1499414293187033842 0.22839579604035234461;-0.21728003338471971184 -0.0060931560770597610957 0.059879105296487801502 0.096063315009924529764 -0.12617429295519669297 0.18013139139348482987 -0.087460851786557394782 0.0465696590731100174 -0.15565623119813593034 -0.19576261450824983257 -0.034772208510644615764 0.14405897475661780249 -0.19801519560491043226 -0.085509850364170192361 -0.11439963638032578375 0.18315360642359776455 0.025847131225476095012 -0.084821176550378546422 0.12417168573653693253 -0.22108195602930064139 0.11367038512480062695 -0.21212217366538482777 0.21306855074174360642 0.14510691551470258909 0.061696797615257065184 -0.17399048805943850837 -0.2063077569945568901 -0.069181285319991084326 -0.20307189281131748926 -0.22008742744224424337 -0.089774981547657159431 0.098613860982704984459 -0.01897602549704870134 0.06907749646510946695 -0.10952301982163241412 -0.22337149066354150539 -0.069727019857297942163 -0.13198099520741032875 0.013001632651117372638 -0.16978365175470166992 0.18763372664688232616 -0.11125845797113667612 -0.10080784144507411171 -0.11793212592831828212 0.11626008202808646441 0.22113377914630222287 0.10456580167020895766 0.11912158920038774801 -0.1210248493161035499 0.053584465234148774548 -0.014140895839949603474 -0.005906572788492533109 -0.19991044644334302061 -0.10543334161648788838 -0.069219367716625304632 -0.1318202794831029312 0.13210145521975705241 0.14397966427955749547 -0.054761107593956623307 0.07553778974838594451 -0.16345894845506517279 -0.12456298692736275657 -0.10929090231995695903 0.1307100984003851385 0.13124677538864323867 -0.20092283974235497501 -0.044493857626339589073 0.074152607212978671747 0.062701418826375782123 0.20922502029534909007 -0.11282192264256760139 -0.16447530868703191809 -0.17361810216556960995 -0.06329008516421792685 -0.071121288251299180638 -0.15164322906090174636 -0.16827236500127165653 -0.16925649644091186885 0.090787812823997032785 0.04376857642864372816 -0.20646824545696260134 -0.14826062965950315142 -0.0085115581101343831816 -0.19341056375449536264 -0.073663980789983471431 0.076175827952031233137 0.079278723299172002004 -0.18357502821757754052 0.17091107739246402808 0.13290655305350609905 -0.14616556894415846934 0.21405239016629953874 0.055553718078717714834 -0.18651501336136716569 0.22696350648980842535 0.083119235156900339589;0.17096238119339809969 -0.14006735361512348548 -0.22263238602529153431 -0.020471657362072723241 -0.21432765354789101719 -0.017977194003696263941 0.15975064539757574678 -0.16514678127914120265 -0.10297758764634404316 0.0069840870635470789912 0.051615860772942334656 -0.12471648396097315126 0.17805953466139401442 0.13341208409436292048 -0.14009174799118465082 -0.37170270675116023895 -0.14429487632088727755 -0.017534015344661514624 0.042036322810072877798 -0.32286768604202248367 -0.22860063208796110867 0.058784292733688389698 -0.00093516934060548307164 -0.38100430195904055886 -0.2787102777554603672 -0.090275168143396894438 0.11884150316099917344 -0.47876006639103113605 -0.28354605622553941124 -0.045292447573060036492 0.22777380821536719058 -0.076980932773000387837 0.39643895960629804698 0.088295670771661893816 -0.15762353073423662764 0.28623904866540161862 0.3031260529468057241 -0.055052749210913631828 -0.040560982048506277753 -0.0024245573908663431255 0.31119794754596363795 0.096477674132745952496 0.14423962728175176995 0.10227489857254107308 -0.34249607626817041295 -0.22154904962389693202 -0.00173578846496919687 0.13677033401015475933 -0.19618456175343326753 -0.18489110214945911337 -0.16199472318466057175 -0.045620596757973155833 -0.13884932261325114156 0.32625785905550203081 -0.071778270857542056382 0.1613684742855377996 0.23615404096544451162 -0.32556263928706030697 0.015934940254773939661 0.35599348368846034374 0.015781469997472142436 -0.27322071190439461974 0.18441339485119337405 0.14501027669034496914 -0.12406171786045284977 -0.33570428998610057914 -0.30806321611173431707 0.016202704574264287229 -0.20394397100958688851 0.090484773864391715437 0.036188282827358850269 -0.10121634009115232367 -0.046941677076526612533 -0.18291803851220139743 -0.62256884431522185874 -0.10360807893845529193 0.087033469135317384491 -0.17485856146754621965 0.17257798199576834808 0.43561678483890109437 0.14694341640177122077 -0.24699742398345539418 -0.2860154179669391894 0.41661183480837454818 0.015915722203721810457 -0.10925707695764541594 0.32493859069975306042 -0.25375421314618656909 0.21104993357670451259 -0.24610835256218044353 -0.23733945988528559745 0.29300205495625797347 0.18430158147585357087 0.035363967936326533292 -0.26287911899844029762 -0.36213755210931614092;0.057537810106823732148 0.088387313877754294933 0.23269054130470040453 0.02619529085595161122 -0.081065644755517266007 -0.10899381242474000253 -0.17233782580774914539 -0.015194063943773475009 0.22680364743477884892 -0.14985177950490083387 0.18278729147986017001 0.10312524148401322477 -0.17669351147195985763 0.23063091233303281702 -0.02103536194707596868 0.017943562792378606879 -0.15120253821836984742 0.084536504351654342959 0.13606074248141694638 -0.033151901487094306842 0.18329217200280045752 -0.14745384221353055598 -0.10292448035520174177 -0.047550334742228618501 -0.10360042739829432301 -0.19398521100166243869 0.22702165624654985221 -0.048707673128830668297 0.031398669031955768471 0.22237034262741417479 -0.023426502379786884322 0.15076369322956786889 0.23712974179918855366 0.21364075956651093491 -0.12534978389887491135 -0.19390602819160107639 -0.099501338424770338631 -0.05209515643047681055 0.042290859301035786666 0.068613282660097127397 0.033898273903682191177 0.061461775385583575226 0.094448081302472897125 0.15503054477677613576 0.16655499452927663429 -0.13775195061391715123 0.0050467285761022486965 0.087720815238500740585 -0.11266410385402422789 0.13217949167089529383 -0.074996109681791753299 -0.057456553953836683735 0.014620179755949832753 0.20577999220052112239 -0.077132885993130673175 -0.12762588512049630185 0.066780306179862636284 0.10585784618612438523 -0.12848593746758896206 0.031385158248010296134 -0.17263001989004841952 -0.010318513111770981003 -0.11667896903873208048 0.21414124625184491335 -0.21015650649033393305 0.20787907025877452871 0.17214893623130769762 0.09682378840184761859 0.015668908776529471422 0.18530628053394959665 -0.14569532449418687303 0.058809040429870791666 0.008815105572208116122 -0.02712128769551434837 -0.17226715585819279974 0.18451670247591889229 0.21339376843477667056 0.18697712257032716998 -0.064482745942499503089 -0.070224004224321498469 -0.10049709839573542358 -0.20655961216847623652 -0.048956577583684879329 -0.14040234810056026471 -0.11441211349891318438 0.018075078255506828867 0.063554125317219906099 -0.20680525350572565024 -0.13782577868701104129 0.17981250622633193625 0.12060832110141872509 -0.11663906440464606729 0.037033096746303791058 0.19854476119633937548 -0.19478200817589860772 0.099775116987521589307;-0.18639826496278574797 0.11229915139150462022 -0.16196541488494536898 0.031764241763918669992 0.3040940588344638873 0.21382184343859972353 0.6461639382036976631 0.016495228797257975584 0.17043928064139954315 0.38440369968281162816 0.065090282115748965275 0.029286459554814323752 -0.025985512189522729648 -0.018498028869403857627 0.033919468708531838597 -0.011506184629480029763 -0.024404944497954644128 0.016168203983967382315 -0.10086451419602766866 -0.19005214422903068949 -0.16027486523479733682 -0.0014388136741805728543 -0.23955520884142300631 -0.10602785883850250614 0.018059016498754864449 -0.16908179516258239894 0.20901541394731001922 0.23144557689242173382 0.10535917857362109284 0.11977471015058896442 0.40867851045445718894 0.14586190054099268387 -0.032194267692676151182 0.29823117684153477303 0.065732472991181276067 0.36914056849157850237 0.62119772849096976941 0.10079135277915619862 0.12266469358201743944 0.081154195499407499881 -0.24659630932662718328 -0.24648392883112707485 0.061582551365182466863 -0.12110296875250237125 -0.0012347960358153808533 0.30034358392299737028 0.16680231883207877197 0.19513684757613194987 -0.41104037896859602075 0.1243645679819804506 -0.26774311215848833889 0.39383155353496179796 -0.22277101453310538259 -0.016008483892186085862 0.14629801622052016064 -0.0097702944659690885154 -0.16021141849721765027 0.18826645540063846607 -0.069370096949234419381 0.15586115496118449486 -0.063359964435375962233 -0.38644369920093007975 0.065122654266023510816 0.10353305498096514181 -0.33971913599759812064 -0.158716380274018104 -0.068215178777993129566 -0.26239690393190301387 -0.32576137351101847051 0.32120522749836982745 -0.13221744730851919813 0.0054574906523605125688 0.022758791825792917124 0.054829509983752945657 -0.092074190847660983272 -0.011975293373034890873 0.0087698978355143994423 0.10367930345209673548 0.14903531503566436189 0.16474550004155655292 -0.031419486944549046559 0.059570905834361607967 -0.13836225515098193872 -0.12428489842320218639 -0.085278129261067925349 -0.38776262912097797519 0.049575296876868617246 -0.041182591027020938601 -0.2667558294647539574 -0.12723700132193460632 0.20589833272868557357 -0.22060314090824648114 -0.0066986704816958293762 -0.39236088748064484877 -0.1505888161406777892 0.23380173602653595011;-0.12101879993993257256 0.1513818248309183323 0.12431722872623464371 -0.0067135064558408504704 -0.29625139152725427083 -0.1758379529732561064 -0.018004351917726799104 0.088689407284431379108 -0.061662108794140045587 -0.15286606925596496476 -0.042699664995396797995 -0.12919424668785697841 -0.043052933337281433512 0.0029208242534410800047 -0.093425102689792788313 -0.30863594040633329785 -0.1388336550125314206 0.15635309533452873554 0.062537399568219298462 -0.095793082613746305398 -0.0054406878394301621399 0.064674378510424332389 -0.01998350669581890407 0.0087876760976437710143 -0.017219521920755688493 -0.16096548303994664963 -0.10240581837993303904 -0.18412088974993631729 -0.12674703245453095013 0.18943813638047857228 0.089056964856042961087 -0.054218564845605971003 -0.20089194753520106529 0.09333375331722247592 -0.10118720944957595997 0.057930473356647985139 0.17043414205748042001 0.24562512691457183411 0.12494964586537789242 0.20246576159213822144 -0.0042312037255379762735 0.04903505360338393515 -0.28136088797107272619 0.0014041210358691797334 0.21874654538005083859 0.1632365755166525767 0.27252057505519133862 0.21265269620187352007 0.17900822828029269718 -0.067334590355947437912 0.2084616218056566106 0.070397174293406875045 -0.17151429470900339536 0.20362429257471278965 0.19966997283216933456 -0.24548020079480534217 -0.22487816240076877183 -0.18110288679860611638 0.18783910613855611671 -0.23882523166752653299 0.098603126108993077725 0.12449877422982776054 -0.14114261479433984348 0.0049481418182657881111 0.019770796571856825985 -0.18169175649697244523 -0.024430495364327349528 0.16450027734862834872 0.18118481448002823897 -0.10531680613870582353 0.11079389039908996151 0.2487190604155157525 -0.24379611285506150309 0.16693622773212415944 -0.058570909517483754625 -0.14577572756151280231 -0.12568989732402879866 0.16331411827952951876 -0.16338258193061616641 -0.27173529194534279396 -0.03751523648011083345 0.0072687493573788562393 -0.23283788126580651223 -0.17186780186945105342 -0.19922517195537098322 -0.13272666532631638425 -0.01545037549228879363 -0.024900845364085384681 -0.14609860848608136052 0.16111326088554858704 -0.1209898639925079955 -0.12769094757498899995 0.18852992506139937268 0.20996922718956267939 0.12678824183144560278 -0.0032106540465181342484;0.17848024593614053579 0.04182293788538874596 -0.14352578704506185892 -0.05393227016529113238 -0.11942980695399853242 -0.013880356128340317484 -0.065308280765252371691 -0.2305860865172813523 -0.18244045137740869111 -0.058413716058354783756 0.033859139196257291571 0.10592513544399709269 -0.18122736583858678472 0.21507243639442893968 -0.0655419387244463858 0.049931049808199595708 -0.029815583137630888994 0.0080647338836325101891 -0.060354831825780122512 -0.35460411598592472826 0.084669804819129376727 0.048424178025740872988 -0.12410791568638639137 -0.16565293465717015331 0.21881032731775051925 -0.046052740011954772237 0.09364430517185569347 0.10855361934719129358 0.072701073768612636816 0.15331165158588752617 -0.31390785415502830968 0.046108195347789919516 -0.10229645060612324592 -0.019322033673126116221 0.16097715276213672708 0.0062640362989904259036 -0.031367448296245895034 0.010005190399192370743 0.018955613332046063885 0.31015324822600076615 0.1042809449582254161 0.17505542110102101372 0.32318639315564978709 -0.21511385051978962335 -0.36247772560209440273 -0.25110944893757153329 0.23705475466476141899 0.14394188109500424821 -0.1504297163282820593 0.23315546445298424016 -0.19329711642251878878 -0.20091776162709285014 -0.054432223512351038397 0.041819471882466215107 -0.13324417162699817019 -0.20528296936965212405 -0.2560905578889233758 0.029908087961509840363 -0.15835293236157804708 0.025526087666533091997 0.30586015805037436444 0.14473573618453153267 0.04804527502340549816 0.27890444146069209852 -0.015706094357925217547 0.04821594661835192086 0.072094036248341375472 0.042469802691330812983 0.01799779344826838573 0.017248594539793497132 -0.045330039798875211565 0.065060749184985555704 0.058471537021273077561 0.047653706393525355201 0.11970775461569277409 0.070306984406890177253 -0.070762581799509741143 -0.042784224277023205629 0.15969496858908999171 0.21455628621206851436 -4.4346583701344866046e-05 -0.014512694427876324244 0.1957184780788632783 -0.21778617525157006884 -0.19614909183403586579 -0.085493227129141466381 -0.1445324221234755846 -0.032016025745021818583 0.29994071854535098165 0.1654740735001602181 0.23223926271464864768 0.1163645890510215386 -0.14923022988698639302 0.076393700332992767188 0.20103248840482765281 -0.1806507472065873865;0.20470498368339304363 -0.23632356891068381777 0.003942983354752985399 -0.014148222632430623724 -0.21596766418037016688 -0.2093208647733816874 -0.20790521124810446008 0.068208328305208898445 -0.18053893533092266188 -0.031936163974925081688 -0.0078833943076880314688 -0.05788851704301586909 -0.046663193567406127671 0.0079974949228198352613 0.13699176298096057969 0.092504252213059828813 -0.0036548729939528770173 0.15392158526951049691 -0.14526600947937548525 -0.096027123948104725626 -0.0080812869209741997056 0.073207694620742211344 -0.22597188863307463014 0.20914292186499988668 -0.016080559037538230682 -0.066493239314130314632 -0.19564832758169167781 0.1687125478869570816 -0.15863236399397367959 0.14757558178800089799 -0.12815250147280596305 0.0063133660064282884003 0.082709017354235442321 -0.20740944325859461683 0.031248176373292278069 -0.028530184747063355721 -0.052075487397892243624 0.23455767712014843895 0.089908876076995672411 -0.016332193068428601385 0.2154204461201814913 -0.03209369301752763165 -0.19850263575053900267 -0.1105894309836124717 -0.096706494728818120921 -0.07384906748631508977 -0.22461150689987988138 0.18011619174881035588 0.14064595102767984969 -0.078104875413881807988 0.083445089812908199156 0.072416210723798224436 0.22527820213765797908 -0.041627123573096939946 0.12199335388145687853 0.1566289971594884145 -0.057385377158205262693 -0.18385697058122074665 -0.12458485083053748299 -0.21369388614854825659 0.19694806363284358963 -0.13236877742410391168 0.17700401939139009944 0.22607300017528203506 -0.082994078035696791651 0.14447414082165729865 0.16282418047850044651 0.0061701443283695795936 0.22472078185187008281 -0.053596410437107576408 -0.12309170155671637914 0.25599879513861423241 0.049432908843304187996 0.067965194829384678599 0.28647880904812117464 0.19481815648025055387 -0.20973218160568504742 0.23147050432120944152 -0.063458643208472359509 0.074077820764117396912 -0.029847472632847694279 0.025135261865161143136 -0.0063494609281062952891 0.086712035723886013439 -0.14627554815084811701 -0.10616337496385973294 0.026767158582094864594 0.027333184959404351055 0.036914218772497328636 -0.070446156617367902686 0.10603524227627314502 -0.034111211705353639001 0.23657547935227915548 -0.10831244668899987771 -0.17742451145907314758 0.20453394552848169763;-0.013669491711438740145 -0.045492792648206721584 0.13657167081265253472 0.039175624466178102234 -0.17037266947738066714 0.30264446827428004294 0.13527102087917292073 -0.26439703804067715698 -0.059966169831488148889 -0.038064241425180118938 -0.10776476068983410761 -0.062996889797208230344 0.28667809518696052429 -0.082945438833454329663 -0.1206127365735700091 -0.14566041614617664113 -0.37457515135083890856 -0.097970431471839730664 -0.056123048517065794727 0.073779726057230071712 -0.17098203385983418157 0.23114155961444160514 -0.21789167362933492544 0.12530134162559372624 0.11829547413033333902 -0.11237808010886500554 0.13297602112848211364 0.035623338682034426383 -0.013160098158886206557 -0.11965020946406375313 -0.14491788482854164877 0.22424935382304617137 0.064730116420334674054 0.014375680121376618881 -0.082499663064074232888 0.11047613356846761046 -0.070727095959926405966 -0.1244753627101678195 0.238811994230677338 -0.051705005336383912107 -0.046734273350759081289 0.086354666889566597532 -0.22597912164833761084 -0.27242035463562719322 0.14021549898985102844 0.18925482159836351514 0.14741996958405248486 -0.088353158320562133476 0.021241012608822554958 -0.079206415732580359723 0.14102167181396835227 0.23057639360381898541 -0.24035046281150826419 -0.051998964087770542519 0.025355028935678692453 0.0018121151969374303323 -0.22967636853527087504 0.10054884167260191852 -0.15791203849094581635 -0.23165724495837006214 0.38593341377235890199 0.11272420190859681888 -0.10445283439263573777 0.1536356503878778812 0.025236057226586342678 -0.027338582504523804839 0.20299421595007358099 0.083559290181360809657 -0.24703674193611513399 0.11598303265671411344 0.18059452316855537091 0.066636505950564930978 0.22586013601083584912 -0.1248460770305735712 0.28850204289057657103 -0.1712835683028856304 -0.30056485456409492985 -0.054665088094457928158 0.18486012565978052202 0.054544800570030055331 -0.020828570432266910878 0.099770507162735541651 -0.1449753268980418508 -0.072454437429394488723 0.10463533012753749307 0.20813882064506292191 0.23546629229456553234 -0.015080386302051307021 0.060718959978706271707 0.16964967633831648519 0.0080314893937550365516 -0.041453032203868450667 0.20435320838856510517 -0.082677807913419720798 0.036558432005972647805 0.10826937866418766265;-0.18821185083368260904 0.017931501084066513163 0.0047925486947751018071 -0.018235693851871161153 0.35510877733420043167 -0.18295117954358877665 -0.093396703555965729371 -0.099604324446811887128 0.064103051953614084701 0.19993993851339250667 -0.17786846314608251163 -0.02829161112258963412 0.067343909897399023556 -0.0034528031705082454922 -0.10142130153694993433 -0.10520135277223459369 0.13212154152182056799 -0.090158688699383884857 -0.14545935520755867709 0.23448420046992893284 0.2083049832041381777 0.21667867939697613155 0.094360873125609909251 -0.047271135650145186535 -0.2908924344160216946 0.074508195469357760277 0.075635803078581392844 -0.0016147886344969656323 0.11777456902896378532 0.098692132948875924137 -0.2044717062330478341 0.17320507175989682813 0.091233783129559403724 0.10003078219889016687 0.12239096150557400577 0.35354469205977173685 -0.20443813761167992094 0.17636243271546539479 -0.016611997746060487569 -0.34017278144240936655 0.20961728530680914795 -0.17966915779678074849 0.14407557656820454972 0.29709376856553110224 0.088198371558755581101 0.22235249783434021809 -0.13070487073398329159 -0.079763062537650725181 -0.058640673960869631187 -0.1230207093113746819 -0.20015953410981465743 0.13749191696999132906 -0.047553486480547448034 -0.19256026511128984668 0.025021648792560271385 -0.053716585596895113919 -0.185219232840174719 -0.23235417163824589881 0.086088374076588036754 0.10516320316579240435 0.14308632120751274552 0.040386706591226124996 0.24727999874140887959 -0.12093347646427141107 -0.14335431013261240585 0.1485664144043195023 0.10238749698021355761 0.040344323560658548744 0.0025428918735178542183 -0.12167331334579098434 0.15631342555134361549 0.53311432662540714222 0.2136574355732912267 -0.42546223335985489111 0.37474954172094576688 -0.19698581087776911858 -0.068165172523733080778 -0.15322103963622141221 -0.090864743684035520488 0.1874609357120285702 -0.094277213486713348778 -0.35264695212230218191 0.035611889271228581999 -0.27531962205070742433 -0.052303624145711408167 0.098938910054476955636 -0.18327294090562454287 -0.18433244368610002262 -0.1635932491663033006 0.30685624218992729739 -0.12278156233095856298 -0.18587678339100649483 0.001414441066565890609 0.12481926205932726559 -0.10661739338442456637 -0.15833972735218493355;-0.03253702105484383017 0.20709208908651102754 0.057671106671400643173 0.28787973277365680458 0.24939138694389495488 -0.043932606862791309665 0.080011188218912537851 0.15304211194558869913 -0.23056062217939912729 -0.24214440743836118664 0.0013299362514611642698 0.090214483719374849446 0.16262299755150694258 0.25670441972993929269 0.13737667054467717076 -0.18526789524927705921 0.046961837749726356717 -0.069566727532867314587 -0.11824306733501757649 0.21775855321472498138 -0.066559423656521038426 -0.27916754999844245466 -0.14459089955909887326 0.32356883610173087229 0.059069622928020690256 0.00049066768853467911116 -0.074227240758497237128 -0.092747491211322682925 0.30533562294239091628 -0.24724447137979249645 -0.025116818094455661131 0.27621504779991479239 -0.038110442183917320191 -0.090097554677819338687 0.19489068579357296529 0.13990921139604273193 0.24446039461635243883 0.043035103808728769614 0.33203610749479428588 -0.023852460608120417546 0.10002923043217350207 -0.26902338774695089274 -0.067292010239417013318 -0.046862090676347778473 0.074778680134672412261 0.051552790632588121889 0.25112689054563647195 0.072434254930887329027 0.15825121019846347115 -0.053648156404128365116 -0.029425212926874499964 0.14946131180531102567 0.15493801645368540654 0.013727700366084512329 -0.19413838917772349713 0.044018268193942271249 0.13594308635198429358 -0.044261436794074425494 -0.086535127832271963033 -0.1172784695439722108 0.10360116609303983426 0.17350829795943856215 -0.21821032889501582042 0.023896242312465135194 0.14895849759427526315 0.010096468323544769904 0.15784856476397654546 0.25575906761717664972 -0.013514043056749360308 -0.062551385445378152039 -0.081059035979644630809 -0.16216223033158969069 0.34755564201248662082 0.01149250442350772429 -0.23783028634491232278 0.26250470531678687935 -0.22112308042451236934 0.20659083174208323075 0.02839338486434110978 0.041604214090179392205 0.21915403915555536907 -0.20449370835936750423 0.14506822261480431524 0.04997045371277623188 -0.21624081753112828208 -0.10170670179493176977 -0.2758134110217648205 0.0085832323762004437279 0.17340113511155269554 -0.15006470346063102705 -0.11904798841389539754 0.025986299390702859852 0.17208152790306555091 -0.14715077355677633197 -0.15121234775728356614 0.34987354012961319194;-0.19363129449970117868 -0.13151272318181547738 0.22093033746053655775 -0.068282769497754761123 0.20053578271281047307 0.058347086353004964931 0.1694900673478414721 -0.18623296500287428445 0.24802551326294478007 -0.17236191290471775117 -0.17867591700700369284 0.039021307614118795615 0.027429219953349605332 -0.023611410953985705746 -0.28721419599910208431 0.28423647426385639791 -0.21293180955492349571 -0.037840046310393254947 -0.016830100503719191973 0.050573499374654655447 0.023564835924469493267 -0.063538370932846338635 0.27343190942224149254 -0.10583163766511138881 0.19854776310172017606 0.096286911390353682738 0.28597665812820055597 0.3691869753584937075 0.22822601605226533472 0.2141701236627133742 -0.25622907164473035513 0.044133044731531963223 0.11861181901268950944 0.34118099570168652912 -0.30349446441766847471 -0.082285589281548096596 0.11668714533370189157 -0.12961112618585687861 -0.32890596185296933074 -0.097473444555508187426 -0.40924173232473776141 -0.23405869056419509322 -0.38950022313069965207 -0.31599238971999088488 -0.065979175521010152705 -0.29444687927153129214 -0.02199356108933556847 0.35574379285590373989 -0.2988108069427178326 0.12737497856302093524 0.090425823271050295715 -0.31608223035641613841 0.22583985895734562388 0.15659925929690329816 0.15262581212962944566 -0.1180035465764537328 -0.023591095740677959364 -0.33394461675723147165 0.23010272266408696162 0.093385659506917018113 -0.34036876912775021475 0.079024166959891506412 0.14714504730957431167 0.24844170540219231991 -0.098540075776582830569 -0.09891556691314577765 -0.0071301768893045998007 0.24143952387955433525 -0.14020214668149497128 -0.38042869040933680047 0.0023061612039552157119 0.62588020270217481489 -0.17024747597338432681 0.26855772748780254444 0.28095575269646877459 0.045976546140818946862 0.21448836810670912634 -0.1781300191512731057 0.042584834677678484738 -0.050663046081436277635 -0.021650211973178581926 0.22612467370053032645 -0.094090814891553034571 0.15102379151284767156 -0.024615774738142297273 0.0056225339046219752898 0.030455970721294325226 0.036419167880538325099 0.17546022084349779946 0.41498417447951801984 -0.2263443326272817635 0.11536970665591116114 -0.11991015991262611584 -0.38639520986376302281 -0.37702573323789578819 -0.060809330784743299836;-0.31489682191174850345 0.20422149255967278481 0.0021676141127967905702 0.014408148377629850095 0.090978816691928615645 -0.14645038809834395876 -0.063846988863646009227 -0.29744833173478330002 0.025530832870533273771 -0.14322063168856136173 -0.31083470356743475582 0.070854907498499208884 0.32845177123129148944 -0.044424982620700083358 -0.094207599929409052697 -0.027281664048974699904 0.013505749997862389125 -0.26055620217878389111 -0.33366365869561004365 -0.36932773662431855888 0.25192108019976455768 -0.092419557287096137932 -0.49380369486313974159 0.30042351189674060263 -0.35064793238641073225 0.0077877463073786120512 0.076404170191819970048 -0.1317193859151695734 0.25640180411171420438 -0.10435828713392923672 -0.17792443417432626807 0.10256125945466415539 0.16802707469873051638 0.10446998168707093135 -0.10564490913329292743 -0.21113110192009856836 0.33121643639378722801 0.043775275621346476651 -0.0166250834565644795 0.04380086232548448949 -0.18740982813946474583 -0.15355820975417364127 0.10928444705609903498 0.046833567499721333316 -0.11010241072264106976 0.042739288889862808718 -0.38396009288091131895 0.14550545515153381904 0.072301041995202028345 -0.059846799351593336913 -0.19823727954267109097 0.27130972977400275026 0.24791987647867122502 -0.27946118868782837685 -0.11442350097673133213 -0.031109446626395372004 -0.14118692462811407995 -0.020136502634775080289 -0.15861424097883655704 0.03623744219389996718 0.22227701168219612948 -0.13706071759448873459 -0.060784567713535395117 0.18004454312133366667 -0.17688720695572293651 -0.062927917564333191169 -0.24778627999800376114 -0.12795350729828372516 -0.24806481851675041272 -0.10711475828549808786 -0.064376855393505419412 -0.26982005782896650858 -0.10367010222669340025 -0.41048905166172083847 -0.30011769051921116658 -0.12900410835142564481 -0.051352933559390676055 0.070848336196815422938 -0.12539462883499868928 -0.086045556348232105082 0.037584137599538609831 0.30835831128223700759 0.1089603844458051779 0.31913591594376772287 0.21962642686115646518 -0.11212315319278443049 0.32521558421670737626 -0.027659384445135725555 -0.17608506691334427363 -0.032961917351832945022 -0.1538878134372146933 -0.18680722361548929289 0.13542171112047832193 -0.1770455403890897339 0.15671288053235013504 -0.00037698188606479800505;-0.13568648975228392306 0.26863160120415680021 -0.055737380057579777315 0.11462073459209642934 0.14019425920987638179 0.11921454573973487567 0.057455002713128713876 0.17101023730861936167 0.1834838390649489448 0.10963207671833569146 0.26697649145084750844 0.26852299492187814423 -0.13872798327421925757 -0.33189206736333687342 -0.076068605520933169073 -0.15068730192967183523 0.17517949596563087145 0.11797087340157752511 0.11083706458467407208 3.6206310139834168779e-05 -0.12033362192375358923 0.10031065629694130292 -0.13818067555890062303 -0.29796300868265140904 0.070183928953922322669 0.13735759075869533041 -0.13240489990299303402 -0.42874047432312395456 0.14677777017951312843 0.17820017346236413647 -0.048787856009133503954 -0.14337594986820947907 -0.33359585034553251859 -0.30244239007507678352 -0.17067800318234691015 -0.011066069180649444614 -0.12253146192562178185 -0.20024109783615159919 0.14534884566065911504 -0.12717701557326643869 0.054040095494967285705 -0.12975159457128837559 -0.15112130630136413889 0.20235818432672797451 0.083920730882963853747 0.074285439966268559941 -0.17628580663512125049 0.092062313539538059848 0.09820067003791406457 0.2949225462373407658 0.13001762492661356196 0.30670260829692164162 -0.085333968534169565845 0.16802657252866690096 -0.14966235882637118904 0.22674539257071582576 -0.030937974726913970019 0.16150794813950247741 -0.085987416578090725139 0.076690036779688788848 0.017055649873033588981 0.14704298833690621073 -0.20218239252026906638 -0.17532421774174239415 0.25682384558666371266 0.053535044341735504858 -0.019883453849479364173 0.20660822202876291676 0.13954657387345989483 0.096087302103311469925 0.36103432314377104095 0.57227065324486603437 0.19093531335386779157 0.15608391627781192934 -0.10936717259443150263 0.18376141331944961799 0.10367089620266091432 -0.028886949935870688544 0.0060377798309423800702 0.14468756657647585673 -0.12239464086120538378 0.30339490658543943891 0.21368593857016898729 -0.1279035117562085655 -0.18127927707136307078 0.099412448915637913194 0.11341308837873255444 0.1722830522314706958 0.060961513371245175386 -0.027639696712440993409 0.4020246904963564738 0.10514803692629949572 0.32014504899295448404 0.12900801049826940425 0.046666012620887251106 -0.20776942159360936579;-0.069643939480605848713 0.011828558572249006295 -0.079024083722294483079 -0.16197660119105206089 -0.059693480149646260813 -0.059825335625353782965 -0.0044733857355439632722 0.15052950679364804354 0.18261462749078793966 0.091160468499274033283 -0.1837439531867054443 -0.14260874420850402911 -0.14764528395415299489 0.2021343940905061809 0.039179190513809733498 -0.30957609044014727795 0.094552352015907059624 -0.073729177207010665462 -0.12229211256994794443 0.22040219926637874548 -0.10048561228349667251 0.18381097696872217284 0.25372500407973136438 -0.34304659637694573382 -0.082749329964340728738 -0.17023017174697196996 0.22801657461267330063 -0.18837625271371929991 0.26861462193878410387 -0.20658267263552279602 0.086657948472916440652 0.068835517865876910681 0.24581017273724292682 -0.11316483241487731992 0.17244655576765116622 -0.11374886401750865239 0.099121250885330344782 0.08785819418526860658 0.0077589078534569212373 0.13697524929664695037 0.19147830391983103326 -0.14991022864983782892 0.25422293963796188665 -0.089667415463415001131 -0.14272962236927230761 0.18841602025672271603 0.30974080736060666252 -0.18106301874034055888 0.21820517149210574837 -0.069562466249492860282 -0.0041353713300505230352 -0.078914425105044178066 -0.11622597713918335349 -0.30468420904937165705 0.011466074218829537534 0.17782478023386130705 -0.2359743754412533534 0.04625978487403489825 -0.13085264967590623519 -0.17563510940488585854 0.15198138555419704598 0.2555708637051105625 -0.21743386204442741172 0.24678410523446006608 -0.15879015936495141648 -0.16525067947128677104 -0.26691486322317820035 0.09152119596387210676 0.074722100656079135095 0.017439251662214095423 -0.018660839338766697232 -0.22712886835186796297 0.23828860293422299277 0.12083691996187444218 -0.076502907156066279892 0.12875848144885040925 -0.060629433951634899291 -0.33656742489508573168 -0.16056898556804849454 0.15525653147839527102 -0.16822586960616200957 0.14189353232914420078 0.099489922005098263558 -0.15419091392208408853 0.12592143440338565696 -0.021908336268502838495 -0.1134811427998301675 0.013830663662901827166 0.19277308171111665058 0.044557205294168657217 0.13663250349828190422 0.17589942752457704556 -0.15769465048846856292 0.066820073230424562039 0.084343549240312301607 0.10038538377926556344;-0.049420721818743552911 -0.22838831524421696062 0.20089942650989645045 -0.13772154492192176245 0.097454366720216165088 0.091311779743077733928 -0.13024186417055449994 0.072675268091971764739 -0.068646868972940422449 0.074245221337188263555 -0.14507244053532611372 -0.043502578372784116156 -0.075926958596134463964 -0.35972670721468158472 0.21884297201413380196 0.32431665834170259055 -0.35953715567454780366 0.19834247439071922559 -0.18090152216840302279 0.13762676811001622879 -0.033439116309096503232 -0.1874549770020100814 0.12370923419116919284 -0.056525910150233824036 0.31849166961377090024 -0.18822732685252241414 -0.047010622818708922011 -0.088340685007280997376 -0.18346467731573223858 -0.18040423854068646237 -0.10790272389733927827 -0.026563588748103453274 -0.033955165181399182828 -0.066857978667863193767 -0.223322088077395009 0.098323889620881163576 0.38229320072942912789 0.0082167234303456692518 0.07616596546833558079 -0.2648324226968878925 -0.22996916661232993939 -0.41108404040548363056 0.4027451386973132097 0.073550982286155711098 0.12361357875191067435 -0.27118793791722917152 0.031721693905336627306 -0.32452228020447931867 -0.094724010781092313205 -0.14137565204369670346 -0.049823629314158776604 0.10622534552310021472 0.046733461971040134164 0.098146982980150274112 0.32352464708839873131 0.068928545361881532472 -0.032954732137680936566 -0.10097018909521292274 0.26656897089015718638 -0.042737827125677634033 0.23340967557963337997 -0.097667759120109012838 0.081637848850921637678 -0.064501561808548657506 0.063249172032493541917 0.32592405437183913364 0.36940557765550063873 0.055458799537582210981 0.053736992274264087921 0.15227529074599441272 0.16884462851549852935 0.57319004233192705211 -0.21667465194137400242 0.092641258494525549616 -0.12448446689361251927 -0.009519456111099569573 -0.060668012094058532124 -0.035388871343673036773 0.2591507582380350172 -0.22718207276240523496 -0.34013679388172329832 0.34081104468966211263 0.22204474139466859328 -0.16351237997990458739 0.063319743495953817458 -0.17195474161936186164 0.16205973914936577795 -0.39853612967640489329 -0.20780633158422598394 0.47566844434488420035 0.067800333488853697927 -0.23905085608139245434 0.44609131989477690539 0.4486379584276452559 -0.020035350651270465022 0.85130908442719044338;0.009353377488115915267 0.15475400831887448083 -0.15461744144361208586 0.27120106068736354876 0.27327674925257561256 0.023361977217385282435 0.21853246733841172333 0.067354766291638154541 -0.1751801666441976657 -0.10941723347033353864 0.32524959153630789155 0.14610714693187815127 -0.16313789348901597265 0.056914019775378806021 -0.2622721389958173055 0.021617393149122154233 0.30508394183893239315 0.02534811403128373053 0.090753146777312776461 0.17499513065058880379 -0.21157209232940452082 -0.035854434190670185501 -0.087144253022603979097 -0.14953837885885132297 -0.070910582643571071215 0.20901352648242263466 0.011130791783894637692 0.0036036029889604079442 -0.046036946669834044599 0.13373260468982064997 -0.23106666596076261277 -0.12319807272973273826 0.20559508038753604442 0.12056770736669994437 0.07899840508786409865 0.11223994395015497727 -0.076287061641251555089 0.21088677271373695854 0.16094569991956120258 0.02591230691663629418 0.27817936959074585079 -0.079441179913598447548 0.087270454017432455562 0.33963175896379133034 0.096106524745121782449 -0.40377499811099587523 0.11766096598991601652 0.028820852802431295991 0.1038394249226436139 0.12537080954320850568 -0.30423990195188116425 -0.077837100455110538877 0.1850941906079184851 -0.12009995960295140327 -0.2186315130825997044 0.0033186413563976524879 -0.28336602748480455016 0.056242325604381943061 -0.19409635067843325484 -0.23513431720025482208 0.027474053535883488641 0.087214735292259149002 -0.16636768396787107727 -0.094865022675194518587 -0.10480049350445887202 -0.26561238588744423561 -0.13616242074807474727 -0.12348129121808498754 -0.066088103283853963377 -0.30318090205254699665 0.23221100901557625851 0.0052531316518960591289 -0.070470205905747124175 -0.16355797295850790785 -0.11733250322219196393 0.021092189184282801595 -0.0068176370630125956648 -0.35827707216747900487 0.10213960084931451855 0.15322650878546256736 -0.12802515309388382003 -0.28400447255230099053 -0.22586118007788208439 -0.00055954466527226710652 -0.18617599566519529852 0.19797824052721338384 -0.015108203064713440072 -0.3311064893950119159 0.016413377772764345397 -0.03346603276034821467 -0.42189907045615998582 -0.061730013484610025964 8.1963894584619056971e-05 0.14076903204635035638 0.037576791876327987618 -0.43620106722969509416;0.059988639384347473837 -0.033507809109729197461 -0.061133709884812266477 0.14989433942286123358 -0.01008081808537021791 -0.12116036764583575092 -0.18618578995348672445 0.047528891577724413642 0.2008677135413109438 0.23930466603485686661 0.015515024603385647525 -0.079117294635468113362 -0.061884574308582580848 -0.1352061945128382181 -0.20275830368558608874 -0.24349910971442276231 0.043131801980590189771 -0.21579648558881880938 -0.2432493204759921257 -0.21838021945092603304 0.029696397883165182724 -0.36912871563591298507 -0.016277899951710247256 0.053980873815582586239 -0.20492188034747216285 0.20320186909673770836 -0.11653192558191088901 -0.10772738058877068257 0.032802056860092521084 0.079939770039782226396 -0.075162363073581595074 -0.05018739371286808082 0.37700965735749542018 -0.077518830691760826079 0.23599598166872753913 -0.065730501603358665319 0.1763084977986704438 -0.1149654590450990832 -0.1854575984498060548 -0.14167367535189925865 -0.068589909158500966813 -0.18897406503252203724 0.039670209793011244892 0.01661695361314668995 -0.24199458037098392493 0.087282315304993182692 0.1595236093678054079 0.025831991753037301246 -0.28018371005768261117 0.22906950216730509462 0.21585328941790249413 -0.26047407526641846998 0.008012464488769122789 0.29199048519624987152 -0.24772489122595103828 -0.1132396405147534646 0.24312295911774986501 0.058781069267608489215 -0.14931385993351567465 0.29834145652343158073 -0.28045061597383841301 -0.18066009377930761226 -0.076072583508465990709 0.16278467793162582078 0.059851153080416025221 -0.11574947232190976876 -0.065330255548672180876 0.086219470659452679406 -0.078823217872427922548 0.03696684372612968339 0.012774425912630789359 0.016793891788314665309 -0.31002866212191909634 -0.092833430497662641767 0.08693674080898869394 -0.09083702163602211388 0.19533904791915912558 0.096028490992622062006 0.2245773264256742674 0.24337406320968854589 0.089013145011074518154 0.39026174673308133833 0.31051751074314848378 0.088374607174733582626 -0.060058131912687010012 0.080065203210225116548 0.25441101290010204039 -0.10924715807186637095 0.17900482795978361894 0.073725059447248927902 -0.19430230573632178981 0.014228143924788447597 0.15109442542805487375 -0.20236875236263218714 -0.11027062874399551351 -0.32026837474292207952;-0.25207723694228317823 0.083866677156963359563 -0.14721952598105206289 0.18300663091864954879 0.21119472028784841422 -0.14302154433395825039 0.097014051618535157573 0.12862897852892976602 -0.25284356279031450221 0.077997412327204779237 0.25282807828270043027 0.080977858240525960043 -0.066277934572259847301 -0.066749006998885529462 -0.16123425242624639386 0.13239286603826261324 -0.14615368840042200493 0.057956184239453971407 -0.36369790894564457684 0.17692159631911902329 0.073983807632308745683 0.26651106623812759189 0.1584842617464033987 0.10980746760530797623 -0.18287874595155195756 0.09119439279779557872 -0.06941818829619311737 0.0034586155613738640141 -0.056112615168748450345 0.075383414720573346801 -0.17074612941303443647 -0.1724755633776499375 0.17879423776360467424 0.67751558810426504298 -0.025397958577157125903 -0.22796646735030587361 0.10851707087547957098 -0.29649774631701614203 -0.010109729092072521073 -0.2959779842910724712 -0.076790625331570910861 -0.099705829319361435892 -0.041479658100012008204 0.33709848753535676114 0.38522488849648556242 -0.26164897229841044268 0.15577272390693297499 -0.10859861696605294101 0.38178755667543745611 0.17735406218967786351 0.11937429145536407327 0.0072582217697926987993 0.0074757765950707270181 -0.077637779203210161016 -0.0036761189623363715352 -0.077849485287814781942 0.10888269723242546827 0.093900219552865676897 0.13103139198983854152 0.10045569700649499556 0.054527926097661438831 0.027700397274779436918 -0.28367071266926335849 0.041216717289140045177 -0.071071433848296935998 0.2201834396161845564 -0.40661247276092365999 0.046735473908632849116 0.73574593888855732704 -0.32713165849948488972 0.089984609616970134827 0.13548201345790564232 0.042111904180677679765 -0.059617859915940332738 0.21664903133670837532 0.049533459266160692613 0.13053556083055969927 0.035998530653474580809 -0.11576057014956506186 0.056491808890507706764 0.1012840241772703237 -0.43022648063796542495 0.2862577770407808142 0.16749332456092969057 -0.43657357941898600195 -0.052703771084324127494 0.37064497777188332162 -0.22609191395362890353 0.05710304168863922919 0.21981722728220084995 -0.20682702454305448847 -0.028995754382067241012 -0.6237332348512456548 0.22543036075961514486 0.031616710838527108118 -0.66524668977404299852;-0.27841843828272350159 -0.20701799032853795968 -0.14287674801835403837 -0.3406047504930321268 -0.27811666029560694335 0.032957312200026539495 -0.089703996066890029359 -0.28416429088728822894 -0.33999279209824667669 0.11431088619482748792 0.46036105972698060373 -0.28010215131872384653 0.038268608374477514067 -0.16838340507581686656 -0.29867391491824341054 0.076708263941601517732 -0.071814202241338664923 -0.18733973529454578388 -0.062829607855946031925 0.33932239136662512013 -0.38229935433987455307 -0.1192332000632523592 -0.20419505055663728088 -0.46156834323996714931 -0.025479045169599961324 -0.037042130479707328916 0.31766710961639182953 0.055978820899679933298 0.10487010926498882557 0.12708755384123143761 -0.21766817725361317648 -0.17915875263777084059 -0.34064480427290905196 0.20342388189630072892 -0.43524703427853450588 -0.57689262814954078706 0.48392063497467147082 -0.28044003636427639048 0.081297884571275666477 -0.24287598733267326545 -0.065003201122282416868 0.036750221558889017981 0.17599642228070189187 -0.10330763848159328633 0.24942849637432923382 -0.19056143726258631399 -0.042910129152941942077 -0.44471842922422044619 0.1140778920679219044 0.20033572217221726208 0.29518113848197435889 0.16318124861030705586 0.016549407586445269436 0.42811584759537801848 -0.11910796705605247725 0.20066459979320619422 0.15683800381601714635 0.0164841473926316609 -0.17589052489098225274 -0.08015907876681480082 0.067497893671937259086 0.16725643364605377594 0.29430522014015708665 0.16054658782657380001 0.18961038604354507608 0.15246075431741912265 0.013956442691666830908 -0.015976875131863202406 0.28972278887363095423 -0.10182685060875978911 0.50332751618634086199 0.64816883711903827692 0.17766782372383355115 -0.10157606441329324054 -0.017563141106236138805 -0.43713675370326021685 0.74769817348540745794 0.038299072931646908902 0.052076853933415247211 0.032563683094108043792 -0.26108343039332859714 -0.19822816652701552576 -0.10443976914026133207 -0.36695462801326000912 -0.093590815177571659578 0.20740854805719932674 0.192012700724018881 0.034109943489027454155 -0.2242706646514783797 0.24356533043709963082 0.16557541900038760807 0.089134510769122640705 0.19974743135357694857 0.54292457419768180849 0.11978549104500539613 0.16340491304170795539;-0.041165873035581911077 0.078953657509271996107 0.076838337016320631956 0.22549858225073163287 0.0097019390965528262 -0.11884939268131460011 -0.03734642066319403958 0.0098387508528073562564 0.055573454596955833285 0.022000861601481326579 0.19830181162780310955 -0.12878814758783263539 0.16783820758045692179 0.32192506937297749037 -0.13285633679382377603 0.079479782409819565991 -0.065343863591368872568 -0.1698688074642510093 0.20403338813560212284 -0.15521482726142990516 -0.25870731975272465153 -0.45273232681750463779 0.10350500388430812493 0.0558825487854189909 0.098156401063208484348 0.122836852547113351 0.27290456828144427082 -0.1793096030939008434 0.056695412578464880748 0.033212332123309963594 0.06852068977072267586 -0.15057055833644639176 0.083875918966874879468 0.15976147624116412982 -0.20306328153887409638 0.028587220503241275033 0.13062143987718494165 -0.12941401147772871316 -0.0059784125430074157304 0.28919492264958762684 0.0012264279696131020342 0.6473797014529488747 -0.0025593078926486679051 0.55694559703544788132 0.26288224165554241463 -0.21482064288507624061 -0.23846893151582573833 -0.55725631987338841711 0.022712014624577482602 0.10091191922238891554 0.057041531059559072436 0.045027000577763418021 -0.13309489549249975404 0.26099702749436215488 -0.2945718709307514338 -0.27600803952170976929 0.40162477516243128006 0.09404855072470326427 -0.023706795381786566895 0.16207264537387966463 -0.16206217340694425988 0.030523407038015086534 -0.13816513811355829455 0.1811226427434613484 -0.049630659537769329648 0.21004296510551656585 0.10702220269460231694 0.12357920590285810525 0.087328585137387962356 -0.1315822214775280441 -0.37018094612596036397 -0.63221108200676778832 0.062798302051611465391 0.096186719192546996093 -0.10629095000219344891 -0.16278612172003789627 -0.15387334157882276431 0.10895431558260214311 0.11785084565126462131 0.38393646198747843901 0.34962214408340858141 -0.12626053392109365392 0.2195849718611473933 0.59672216472890526884 -0.076153822614491620269 0.017652330990170085612 0.077964891133925739997 -0.22436159083036749662 -0.067763402617541532158 -0.27241896913776686429 0.17051951818395719163 0.15258594687871226969 -0.37657107599296868461 0.43916034141641480115 0.078538349224851464192 -0.87822482568768889255;0.087299895306345104418 0.0048218449101916811828 -0.031248538717923258351 -0.14780292196620359313 -0.31943161719185653169 -0.21223730925600117758 -0.1889139715969107014 0.21901284452555244697 -0.093351350707161426246 -0.45044885325496891726 0.12006592360556077315 0.024817335160998318239 -0.45750347601601321079 -0.31090514556458703765 -0.13351527955230133027 -0.066637463156346513071 -0.19831575622070374276 -0.20456011935526260959 0.12956382762568055544 0.2459061848285419849 0.10995689263738279984 -0.3890212811956596517 -0.21390447224016628791 -0.041285861838652661293 0.078950353745965248797 0.25895121143700716715 0.063596358240523551131 0.073024307164539142834 -0.030494937279160392457 0.19423747203981539533 -0.068693443138475862586 0.059143177719155441696 -0.32173989192941743198 0.07781391307996771145 -0.19760071448474250677 0.24842231757890698152 -0.099276573656842434512 0.1124071392819151749 -0.11294081978196585103 0.086827879493096962737 0.31109411153064009392 -0.23723882847194782686 -0.081623287144103301438 0.14698177709386145429 -0.099793839718843396769 -0.083798869075996221256 -0.3414782514522857193 -0.094642171452693837908 -0.36412953477204806907 -0.010896217243509174338 0.14260737445001214763 0.13499085471545677062 -0.01158210666051977776 0.15458010963470603105 0.24426963092463424565 -0.36311341420578829853 -0.17148000004574007193 -0.024067024315738577006 -0.037717729746330343199 0.18009611368200814652 0.2150311038211128456 -0.088965048116260977973 -0.099494658092018364859 -0.088259417564885103702 -0.046198994459082959319 -0.080753179978096334413 0.29662324323066635579 0.028112100734273368779 0.1949978844418542856 0.12655712602629856645 0.36690230301335596819 0.35836259692463945381 -0.53321536715364481474 -0.23851148505649499842 -0.1426816313892171062 -0.28784875114601482515 -0.19276323048897892054 -0.026226336386245031884 0.20297655427832875241 -0.30948522534844769005 0.16336399240148674616 0.27006062235455841058 0.15166932453790507584 -0.11223968049635602018 0.090300029028670181219 0.18886209323885344569 -0.12571948664595006262 0.21472378066020605947 -0.47976496596044510001 0.15190999011061429025 0.4456173541651279324 0.021566518598871080997 0.23885615476387503375 0.067344899102961472415 0.19879796426238804941 0.036885794556179227199;0.040775435666198976692 -0.071972603163129547643 0.19292331657344233276 -0.16501389399555244086 -0.0090126375620864836863 0.27905272144289561265 -0.057886970915779233093 0.10178488720426580316 0.032733560041525645856 -0.29146940964224010706 0.15298511991799554344 0.17306368760853058086 -0.019798366826044178773 -0.195994751816502083 0.30731032905414856771 -0.047166051442566962748 0.081919309275301013806 0.044388189439662044389 0.17114895805451685318 -0.10067364782187780692 0.21676558190393294123 -0.0056498128772262921904 0.24052990004552851633 0.23884779010813955713 -0.17976929809940644933 -0.070325589640042845962 0.14565225901274114761 -0.41582694923909846452 -0.059154405954998837136 0.17614463007938813144 -0.11138881735750845448 -0.086777366545686962507 0.027768431823737008829 0.34739354462029925497 -0.014715362323117335899 0.077432436744110724747 -0.22900931184609307767 0.42308793790952731184 -0.12124825314028675471 0.18809932880167931635 -0.074258082609348685654 0.049079273156265167122 -0.29623701344847025441 0.20918811049167695959 -0.16594750825318524412 -0.38965079775277444707 0.20705812172966955864 0.44869664160651911988 0.061706834401829523118 -0.36671617753942592488 -0.12625871074452987841 -0.090009589162810293983 0.052885329616258934526 0.25641599487739447083 -0.0999741577874962567 0.10198746403495577428 -0.22574352192948091145 -0.22549143844600136322 0.35508555824806231627 -0.12004148248927672127 0.12206257227072103699 0.2621446727891883488 -0.095268874796101743474 0.067011783089005738656 0.13025399622695069124 -0.20400596872914722457 -0.042053430164128081936 -0.42691756203729963604 0.062238457456555096314 0.2082073184222979767 -0.28536081650257744124 -0.12004440529079235533 -0.28474845700000139814 0.074648355772385030504 -0.064124089758218177915 0.058431025271060421655 -0.20715124751862060148 0.41424447791343682601 -0.06739434739934915819 -0.21139122286948780483 -0.02512408551377231028 -0.2517467954467044744 0.025340225143180687001 -0.22011852359324463047 0.076360403883989250162 0.0026795064822034333346 -0.17500548917337185872 -0.18062865006191827777 0.19508689266826786946 -0.15991019107128359722 -0.43919804109092391853 -0.10136634954380173423 0.33165368391584693075 -0.026800924517442502315 0.26604127215936179685 0.55033282938975525145;-0.16367087212930908624 -0.098973095782107292639 0.20107442369463765508 -0.056390805292884288447 0.10388260793950872263 0.20324794720942490622 0.28581264659703992104 0.17606157508034087078 0.18745678309333405065 0.20118373590762617109 0.28129703178022519294 0.24330312851595337076 0.64464678184297830033 0.21710809977535994175 -0.1553811417656472682 0.10070239827238994246 0.098545273362152199792 -0.31222272274343260134 -0.20743118830088588811 -0.17461467292564206155 -0.19514013203286398324 0.4658826815827843415 0.55460258487559477292 0.41552953842923640027 0.18343126727961447942 0.18223409361970660525 -0.071990436777218017039 -0.42236141616738726023 0.22899674972862679723 -0.080821726800090074039 -0.26203782910746192814 0.32397937249018221584 -0.29885570889360923985 -0.4264366866457308114 0.065599234720786672725 -0.015781458849246251391 -0.27189401223482473346 -0.019726997011280736349 0.1494474939173291439 -0.073272752442119726268 -0.26150895417326752712 -0.3109368005521765399 -0.14521982419801013342 0.039548882751538463887 0.14041349640833752921 0.025877577165793756026 0.61827617342167950909 -0.36489584731489094205 -0.028136950337546050988 0.18099593045140349723 -0.12546138465833878151 -0.019541830078042166097 0.047165884457057438706 0.15385356439438782616 -0.41766233394380641863 -0.074110430232688359609 0.056004999497253377116 -0.29031007194507979507 -0.047962458060019828865 0.044523424214713912261 -0.04003080873556699032 0.22503097183389186853 -0.14851189818971305412 -0.54935580913174164586 -0.32090603500884645749 -0.28421997722397340791 -0.067976739041253633755 0.021571257990196962551 -0.10139848927270084245 0.0072919280656920078612 0.027184653417419903793 -0.61063125168910004081 0.0074145377605120913606 0.32054701774999289077 -0.26708350176989770208 0.45531987999305278958 0.15244011702190665702 0.10951376381951358208 -0.3443414792927381729 -0.17507428238349181937 -0.07493430997112994485 -0.090468425947165032053 -0.37153778752375438144 0.1850242431979874369 0.11939683148331010909 0.31622552680197946184 -0.076398743196739088424 -0.17260224075899749385 0.26607021118853380059 -0.63602111045184384075 -0.26853529736381870352 0.17245673632818578347 0.079690219510555632132 -0.18684090721945414981 0.027678230004992025737 0.19705353970062253199;0.27066690826375366941 -0.065470825709485230837 -0.056821638574066891947 -0.025314609729264067606 0.24159986458778448526 -0.030288272711664145781 -0.059388094040567718235 0.39396419124906739695 0.25297027359049129025 0.287202771676196289 0.075820649175281709664 0.13049270230603354781 -0.30224581076351192399 -0.40990123674963874212 0.16387027378686450096 -0.0025301369868672334354 -0.28860147697748711471 -0.1650131943338884466 -0.19369530286020286702 -0.23794603914992712435 -0.13821512158117885138 -0.20125146964023510332 -0.060544047708286662102 0.27251600774917250636 0.27091856764563360116 0.21908494235576142506 0.047349592099480315721 -0.14004318673918153548 0.15697703366504722755 -0.19453774555203290353 0.095473313452256874934 -0.085106872111993733809 0.15308777205676035726 -0.21986388667297976363 0.080895719106080885008 -0.1665860638459284726 0.18214456650066146448 -0.1330303095955368553 -0.16385423766137949264 -0.07488165764828677573 0.12775106171843078617 -0.1926504042298783359 0.2067428656408067944 -0.15255965465330292852 -0.098492567301582345518 0.15802612665525109237 -0.28703481282919640627 -0.19248521761966411181 -0.018685363534152683862 0.013207462536554926899 -0.18805788892122179967 0.21533462410676959542 -0.013158137918380836962 -0.044170250016726267384 -0.14630151497068499822 0.087920445222309961952 0.076412334159617678608 -0.090529190350081376049 -0.24993969850554470513 0.092796886869991004887 0.23873301870654298207 0.081013817739885377045 0.1167977203718620488 0.10016516025169769355 -0.33447160299561057295 -0.11446921986709900076 0.24090694259294445634 0.031047375066067021965 -0.15977669262704563558 -0.15121506087021063802 -0.14803080620087849528 -0.041722344131463882932 -0.13594133913562150839 0.042899934810407387709 0.10842495461666974699 0.19212458033530319113 0.22696306864123644287 0.20681896824084269881 -0.060416559562889743384 0.2374526313615726858 0.017487392229255657033 0.0053530090545943938285 -0.28826405706187380185 -0.33549859488210859171 0.14681414610526538622 -0.039210755091958572616 -0.35636187747684283655 -0.10727864154007125952 0.40217356075310961572 -0.045980863319961692848 0.25599327652858200333 -0.13027370386011036252 0.26948784239464546042 0.016012258722245476666 0.0028267784153528986192 -0.0061243386526058721242;0.0092344756176862483055 -0.041771546097417358578 0.065921931824736171301 -0.095073877797412734147 -0.13053187310061095672 0.21472754746098382528 0.13560129132242243477 0.18175702719365657845 0.20815135750996094366 0.24284867681842928211 -0.091387066288202464803 -0.16263499997221392279 0.28259385751183091484 -0.038732921537552186808 -0.25238628773845023234 -0.065373887505247418872 0.16116858525143146208 -0.052535632860890628393 0.27115452602975254059 0.070302810450135921894 0.048853496121297114441 -0.069708055948449018646 -0.13484646035446470891 0.090843596231666240426 0.04348469671328452496 0.17345075441064652932 0.12428686723832725602 -0.23938366484837714232 0.041681486817331428463 -0.14374041173102447555 0.22968430867182401678 -0.068648042335205841646 -0.24186057287805795557 0.039814526400258037908 0.090974269441527755298 0.17824175913435383323 0.02830405128029485351 -0.10747758241010370306 0.14942542197075311949 0.0031547361151799653903 -0.11382823067227043623 -0.17719867483745430081 0.13626529667391334977 -0.034884848585338593119 -0.018860308723231421907 0.17750022464208853323 0.1023281459179666425 0.14917541212403162554 0.082508517373527878735 0.02003066222586390166 0.13367208353736834137 -0.024087955153193132962 -0.15823425459086926104 -0.11793861496088595131 0.18864390357429833278 -0.1396814547264933204 0.15249423964644640006 -0.15042603991270162012 -0.20521986981537262973 0.15819357325089139499 0.038875984989627222765 0.13793263204546110656 -0.1981733798532978319 -0.074612970100806322304 -0.16657220452491117157 0.13941969706577744814 -0.1971912350150600568 -0.23509000740159788356 0.27000642955652354171 0.11441619835410213324 -0.092559555463408674236 0.32338953399353492779 0.24017423474168383968 0.23095427737674115165 -0.12374756208624425324 0.29102078468593217675 0.168323147435347098 -0.084511071019581135433 -0.041633322465915036104 -0.10536682167467205373 0.055062655288964153233 0.061054699259873779216 -0.24558961838928575205 0.071091478970756211142 -0.18678033195814533474 0.12166521416711408021 0.20119923047183674303 -0.43658491876202210058 -0.11711688224488930876 -0.10039441278963308346 -0.24563491916885382693 0.00051061203726703843688 -0.057490752397583902433 0.14543528690007440085 -0.024438976016751486758 0.18280464600648066442;-0.12777682414490870721 -0.13021660724485334404 0.33886362547327275596 0.23766562925104442461 0.02718586623386861148 -0.16144157985632270891 -0.058357600848419649564 -0.020634805854053181462 0.21732528891818103656 -0.41234970759263572804 -0.083630583746728465178 -0.082266263405483971982 0.034451486011505660922 0.19776169483280853223 -0.2684860082636711387 -0.038725951410737195768 0.20618780399158875838 -0.087990276838469036469 -0.1229298300044872061 -0.35551765125956796831 0.11103320530253849019 0.17357129481522756698 -0.093887927162792331193 -0.22618599506800687871 0.42256295069554877797 -0.31311322675852654163 0.22479410710910482929 0.0054854588321416319907 0.091372981457827656682 0.32210684376881099089 -0.30121881207342349196 0.11730843146898997653 0.18363317357566008581 0.17287404973048545176 0.028660292077258776172 0.11088178128900683106 -0.054058003342224603127 -0.079385865873288344319 0.17493104523107519399 0.27048743173405592755 -0.41626242672703994696 0.15640623788398375082 0.16513443293507915066 -0.39098418794801681475 0.063693738137902036756 0.23622765232243356226 -0.076804558132771302836 0.14373330796084712868 0.15607184761957071384 0.010074955711852197002 -0.20321829571793190161 0.051454658325300238475 -0.0047542370414627044967 0.23202767061961646067 -0.14792278870697456172 0.040048786743760778073 -0.23515666683662170278 -0.0093032929455900727211 -0.0068559581090915358223 -0.095865869139993967196 0.41392154545623444095 -0.33355507542411694244 -0.0097135880942665654703 0.15042242671834010759 -0.094208702132377072913 0.13878238243135398999 0.020462263477851100335 -0.33223507969304677534 -0.27157671034396280163 -0.036726834055243552657 -0.36532182702283422238 -0.14797797203779375352 0.49241595816677680153 0.037757797568317458259 -0.071396182224992277288 0.28154778466206331622 0.31645784368377183338 0.093039759924496687193 -0.033530880803066251405 -0.027802833278149884089 0.31433283085053342898 -0.01259698487020173216 0.082511038126478003507 0.19943275746218372402 -0.16704441899812444428 0.13938866326818399877 0.18423716850741964079 -0.47647017554916237803 0.23097405513961133394 0.38270108551721732093 -0.23440704951910085185 -0.12289870646018297151 -0.29538658201788853264 -0.031398681105086499732 -0.1652002847685678788 -0.18746273414797276491;0.1124257499489779849 -0.18905306964665039016 0.21386618110730726272 0.10699951744282099053 -0.269793170525813919 0.19523121958218409011 -0.1036843961281723181 -0.1754569808638217765 0.097536762691284487059 -0.14915758906787937588 0.063559238519889010854 0.088042237696948008607 -0.081772833213316270529 -0.021025984153922046282 0.0567942377678178692 0.001168385376973239383 0.0023778495305786383381 0.067022873801645121983 0.14113029363743215261 -0.0028393582123946948734 0.15353881911865885357 -0.10325634606821838812 -0.43801292389219598222 -0.24543659633018247157 0.18982651582596127282 -0.1335880116402833051 -0.28428537138691423181 0.046221296521328877893 -0.12712377392446441715 -0.074260045530381610379 0.16818614439371171176 0.23808224100141189838 -0.24306983455631850366 0.11509954067885477813 -0.0080554659148602079238 -0.16319039197836959776 0.055403083412288292586 0.021212641443028496663 -0.11904952683223359033 0.3786025044796640926 0.014610839541781805648 0.30659007784806613373 0.16222063353940185948 -0.055118584065892796409 0.01405961565130755403 0.42774119261779391943 -0.17658840555331084543 0.091126498416963144789 -0.087879858666570595527 -0.39940851428998919159 0.20261946993708471187 0.033548771295035230422 -0.12656710799792239563 -0.099539538244144534773 0.11407529439794295012 0.12489458218262351752 0.21568561096178234804 0.43792216578258563731 -0.26115768600773087149 -0.14670054321535563879 -0.18007886399092848384 -0.31161037611477621079 0.02504873489792617397 -0.10828972113063708993 -0.11386596657749673001 0.21558605767700042555 0.026775791220286490613 0.096608916777811706944 0.062051645503807095761 -0.035335535894754008246 -0.21373526524464292464 0.19346758570138408717 -0.053213246551292496533 0.0072661506875286640747 0.30293528438155831184 -0.092189681440675352864 -0.052335705294705874013 0.17095413753696214743 0.20290848177857950807 0.022287253969190363306 0.18877835774977511085 0.19466092746013696768 -0.064542990888834333996 -0.19707733817095826612 -0.23533217908414080788 -0.035175517030216492398 -0.258262219152957051 0.23743689820959218428 0.11482864523103436527 0.36958500821262713076 0.44299099869150665443 -0.11274829860884297283 -0.012309694190923229848 -0.16582130826620700148 -0.11787309710404647589 0.45596226910865861326;0.14598249542436930737 0.4438170349165942441 0.022121231359823075729 0.064221526150566976554 0.12734673603067683811 0.093985190859940115349 -0.11052950257431849723 -0.48835669818180549306 -0.011880337415337564183 0.033013681710321089724 -0.74615414596459783692 0.027390515050647365469 -0.17200115364305551546 -0.10997587297337717283 0.065944402360238518757 -0.081774232598971485775 0.12788517127844231669 0.16162842408263142224 -0.10987479550692909325 -0.15405795238713809736 0.052811672653992731974 -0.058569314959259710651 -0.42172829088377078444 0.80433414490678578623 -0.01083592504371178912 0.55708743923900794215 -0.19343227255509415352 0.39041100169654052721 0.32129957703527789459 0.22182903401138476251 0.26924356476322908183 -0.22504607929486655782 0.46597540130939874015 0.3020575660790094652 -0.03997726111306808966 0.066033122465474367035 0.0477753055817640368 0.35805436954599301203 0.13525868548475028508 -0.32717176107526857454 0.039133991519938418624 -0.13611543530433492522 -0.13429212555668190721 0.10623244253132456405 0.13314815012974759445 0.0072893018943656238615 -0.11716516083934026826 -0.0072672275929953839349 0.23214662973172503491 -0.36308063332783857557 -0.027475890284714817036 -0.035651453053337077426 -0.17197810233208576935 -0.20236672486524109882 -0.24458881109157828981 0.12728930211823896723 -0.12297924582601912902 -0.10878966959167457595 0.42489082789036403121 -0.16198149900299907422 0.23385309599563036675 0.18337868387881306464 -0.33751681048254750239 0.43007088626841255552 -0.10512332088916313821 -0.015168282512329262293 0.43686203932506295633 -0.22633247073240952973 -0.3306734919827511443 0.21452474378620423057 -0.18919747640637879504 -0.88520335709386521739 0.18888019775961881197 -0.18128370894545597913 -0.13695611034816282392 -0.094565898868390563248 0.13100987201504768476 0.34602769208445516291 -0.085528746373415370785 -0.41176685030159176915 -0.44705561676367877588 0.10154175769565623733 0.27110447206440879686 -0.56224814223257679746 0.064759838719207152291 -0.41634770743306814822 -0.41580968925446004647 -0.058455967667309385871 0.059971122875315231726 -0.23028446642370295483 -0.050422144189651671442 -0.19438977284669761714 0.20023534109106663759 0.117252178289356912 0.43034102354896036635 0.43680719073939533459;-0.20362873009529816604 -0.31489782880078109883 -0.25536124422555633862 -0.42798104906847261875 -0.38506501127165404519 0.060254210787656310722 0.090421439035348397106 0.081704474301772009315 0.25933564371533718296 -0.15302396079417746044 -0.16503314112566672134 0.29804101185828801857 0.25128210117952065605 -0.4587570236151214953 0.25030653829142163191 0.12488858853041109875 0.17261827062813137057 0.23199550056131074127 -0.0099034376333024809469 0.16131242727608152698 0.12497339904742699179 0.17730338341887164066 -0.11977257245766180505 -0.11945714185501107862 -0.23173232797166784525 0.11121377179197683427 -0.068055880368719956497 -0.26180750467525748526 -0.3891734712350368719 -0.0011636312122043361746 0.43128996290649435075 -0.20932971992599166966 -0.20560226519057048233 0.07105615838258073913 0.07649628844772893288 0.16363566401269749595 0.10761489012674357868 0.053239317978956215982 0.010352153523903447757 0.22245554597542854802 0.10704053584954068001 -0.34447909451871450148 0.29737407352374978231 0.13809451916957368733 -0.17538278011683267055 -0.0022244835126926437371 0.00073531934343959079719 -0.14324643444263418512 -0.082242593203057171025 -0.18527405640730595926 -0.17004708688073050249 0.059750037466587642421 0.20374605075853505221 -0.12926091729282121467 -0.10753159638405411502 0.16749803311166552855 -0.059774693672964500368 -0.35252382623158756703 0.11963441647225719899 0.22527788623817937563 0.093876399307891128521 -0.14405753658356804103 0.11727654335992442058 0.21986766100874355345 -0.19201952914430714392 0.21416094646793903955 0.41042590651424976089 -0.14417486036979534902 0.58971621866686374513 0.20978637982970477216 0.43646814443976400533 0.37205836159151450815 0.25950750208832240595 0.11925527271149770348 -0.35480854511966219977 0.22554236089530349529 -0.17917282260735409305 -0.23016615070890841799 -0.14740311504079220417 -0.087669148391951959298 -0.63117654672360046231 0.39748683492611591728 0.16812224377960338639 -0.16832790819710313768 0.1421064384657798052 -0.0017249453813675424442 -0.095686586802128395512 0.28375585730766383907 -0.052277821690735248872 0.041510984829261243778 -0.062566827043748121651 -0.032181042098728220024 0.2991399160764316445 0.22342300624539720988 -0.12528313010460062626 0.18582048921891836102;-0.14115974265442021718 -0.26033976188743113145 -0.1299998939440087653 0.021618756393179429376 -0.017548316480873887152 0.2080171106621900301 -0.049122617384035144328 -0.25714072070928378766 -0.14814141875557151895 0.42704530917415517433 -0.32267720119620652008 -0.02019954110242368206 0.066283630905502988195 0.28983379223421146254 0.16719294468897755168 0.25071165463135247631 -0.14816420946739114473 -0.11726513470154030505 0.16501890176724892667 0.4237838961044989583 0.25108597679506605704 -0.18763908613319693619 0.13148945457550556548 0.060934565941177555592 0.18133824365624340302 -0.30654069760594171434 -0.10249395898006116723 0.26503507271206666607 0.15170121182246712466 -0.31711711173925727358 0.32132345551719865284 0.025375937321746661751 0.13951618167959856098 0.055777905210952813397 0.062442903105775847405 0.31786498925245842972 0.1639407347668599968 -0.015751473025938159817 -0.13876419648151291919 -0.012274523969356998174 -0.15498784729816597605 0.075806661172651806924 0.16425650234411809381 -0.039561230949931303069 -0.086189658932638163469 -0.37398400363317130246 -0.0047567674137643303767 -0.32262873277466003197 0.0043672951437493875981 -0.27054133009702002743 -0.13040762122078780605 0.30126628423644835619 -0.17401041602959524401 -0.38360319554241806284 0.016241384024685251442 -0.45631695772791336374 -0.033763723378812546261 0.3710530515390358941 -0.20566856306525099773 0.26948904447107441262 0.29093909793818567566 -0.23849911575615007076 0.10766772798103027564 0.23435946293795212325 0.063141477059639877778 0.37640612355506974929 0.074166711731860776591 0.073078438255644709298 -0.02255207565937846631 -0.25423779931171358593 -0.36520030433147065985 -0.20149393071502341712 0.15409362505110943409 -0.18612118164587343472 0.059970209919450033487 -0.21884975319388336179 0.14789882113431396249 -0.33921460557280802561 -0.34852357528805438802 0.14749010632263548359 0.026981007424036758391 0.34765963926817150531 -0.22325776505254646409 0.19477657076192750329 -0.079409544038465784688 0.21539310273258230333 -0.26132712715137773607 -0.21555303888320470618 0.13223722256006634201 -0.053787170848598887807 0.31786106630613858437 0.17153058653938926814 0.078778086557075022167 0.057736758363302997932 0.29040765414040436987 -0.19675541605807922441;-0.039588289446046601161 -0.078681639892021620897 0.092590797380854780729 -0.14215427152326434723 0.059296311476564243781 -0.027877874209215745827 0.027316616549025122401 -0.047219181780351407451 -0.16280573907423240287 -0.2996820408558088511 0.090374280846621662944 0.034399247222919093758 -0.057262248568527782111 0.14589649476444543907 0.3224295667322885639 0.42680612522967803502 -0.20889182661645636085 0.2185186380297597375 -0.087574663119963702673 0.074412925074415228743 0.10240918728363780643 -0.19183930387804534745 -0.053674234464141726275 0.39129325680276427768 -0.057946813373083563836 -0.12124866042237315844 -0.18400986111253975208 -0.27541091992032007418 -0.061944821031077457185 -0.35885629393978951684 0.030140416015881781736 0.061421881553170895596 0.17568507660421966987 -0.15378008429696732318 0.28486670940117081452 -0.02960542753849477321 -0.24697042080174455569 0.13027641301767917126 0.029759597737762048114 -0.2019251146372631478 -0.055545962560674587427 0.036923454891025060676 -0.25577464536924254812 0.16984925744513634793 0.15150538917698622154 -0.49397469130290511119 -0.033789184132157437657 0.2089680923682744329 0.35095070036201153618 0.076586600804681936872 -0.013414187932337683778 0.079060965632775759282 0.090097218455449365471 0.18180960052645625535 -0.22273361461645219128 -0.073663719182221587545 -0.20994121840056922945 -0.21128116695305115824 -0.023561838590549357558 0.19543905958113583221 -0.30918632522039413146 0.43683922223658994133 0.084936547320340283207 -0.031221788889977744597 0.14633153846990970548 -0.075839912999714431674 0.19074742635807859226 -0.38328153942690112999 -0.0059867949149521818702 0.22819953600353454215 0.0061403672831234698548 -0.29671990531180414408 -0.16576464628785783639 0.22245279353618674367 -0.008402445188266712689 0.26176989124622013216 -0.082064505158458034284 0.50691124009723120825 0.096185115734366111173 -0.42324504575688937091 -0.13499955569004271072 -0.18380162171822622685 -0.15792002145731648399 -0.13489607595586805555 0.10802511391049321454 -0.20537884954814694671 -0.101977675558115502 0.19738919552121009238 -0.13930049553366144477 0.20295433041823640608 -0.28232712982350127717 -0.38881081295782660145 0.10975037141677429497 -0.066150131064706033102 0.018701176966810739016 0.48136122660431024389;-0.078016787152137348493 -0.013210904718482661263 -0.0060164141178521163972 -0.3578462520338903663 -0.098683310649194291853 -0.50690081109708140517 -0.11988375395638285748 -0.26725900923959117206 -0.38072552464593012456 0.16735916823497809514 -0.32256132470295828529 0.11438388362058046765 0.025472520883716581047 0.20105728647287271493 0.23178245203411046438 -0.22284200996403774608 0.21456223098917617809 -0.3148791305885211278 0.16747765677175655008 0.11851663184418838315 0.049627363162748974745 -0.23510622896527377801 -0.047824883460322889506 0.20139280878729937108 -0.096915053808537793278 0.035565192240952420155 -0.25781995195934576115 0.12504254716679305548 -0.25404233727174213575 -0.019211265913909109787 0.045298972040533375116 0.1767674644923928895 0.26084818914162627435 0.23167228766946318386 0.28026584304830243211 0.083007733083091034265 0.3836149947161778262 0.18113318555342380889 -0.010956395014932179474 -0.11627717445214322267 -0.072739655035670508498 0.26885889394391199181 -0.061335773464139230204 0.14477785100688222997 0.08618945047791096159 0.031288665800564809116 0.28177420707447076165 -0.20701445690747047323 0.14767243143231026381 0.10909167482366886881 -0.0078492597921145275397 -0.056875727581906058983 0.18821505937063162661 -0.46156583330137285204 0.25564063873003090022 -0.12335259715788199353 0.40246881981706461584 0.59363499264224284246 -9.953032590444342402e-05 -0.20186678701264543223 0.47414780395347527753 0.094019766504087054493 0.3676612728471781999 -0.021944536071102527242 0.24225233478416055566 0.37326411953352989226 0.16479253539304322684 0.18590496426768596261 0.35914007245778589716 -0.081775592972198510311 -0.36398079264821187051 -0.11800634305882180819 -0.14209559997885579108 0.060687337217505694931 0.16728983638650612997 -0.33967230844736340245 0.0720364428248507771 -0.01730542922006474485 0.019743727101930629714 0.13918412311644534629 0.29330636690337757999 -0.044457809919695022438 -0.5181506250210007325 0.67651780832271446453 -0.052641974224804738425 -0.18442588883782254361 0.055416733635780909828 0.00054771279369626301326 -0.12727181704759329972 -0.0055912189676205524894 -0.025435877817698515635 -0.20570925299022030375 -0.35664401012084256948 -0.20036504852138731225 -0.49438567550884682245 -1.1270117976482234567;0.06750261100537922887 -0.24834297406473124226 -0.12851767395514682168 -0.10301712322540707012 -0.42518316439649478378 -0.1298785706316497035 0.2347544631932030057 0.032708606728254048523 0.19519402795203327772 -0.33485506170513379409 0.23488239635925001192 0.18393792321700591641 -0.034285577896019200916 0.010628283645257335932 0.03216837514911349144 0.23854242114689758192 0.36481174924047532482 0.17335802955195209196 0.16826924254855141205 0.15744594455966898217 -0.079952903584843484919 0.2840181806621183136 0.0045702188234664669134 -0.2365321731338110578 -0.11160783061833154384 -0.33145306753171216441 0.45342871146064345211 0.14658439946230716888 -0.40526134192946250412 0.094781203371133229685 -0.13633547293628803243 0.0027607287631180570803 0.075899755227523513224 0.34144751208416601607 -0.22770096817949272983 -0.037326059499440719658 -0.059986558074159063159 -0.067200707139395243761 -0.019830536612197424001 0.22761892104078473853 -0.22778739840595021993 0.0036577978096721096984 0.20874889004350283273 -0.20529676160283055752 -0.1171723960918935048 0.062288546945671367794 -0.030040796335014767482 -0.092171539318140566222 0.36534409396097833334 -0.030966710212683660336 0.16465595418766895697 0.20859120573771680607 -0.36391909634403502016 0.022959374622531416449 0.25205219717549387504 -0.29556266843978679093 0.094211126462948074911 -0.042448711366606689532 -0.19747473094567424834 0.1145048107046237329 -0.13206728135609901997 -0.15236282635544234898 0.33194318294566554917 -0.10219667956925525265 0.30723317976246494743 0.011393285613181002025 0.15119078023252913168 -0.0052512544537655705956 0.13738849477489956108 0.26414914695876506867 0.1463951438426568108 -0.061226596157310284041 0.26023977455923025248 0.016132088556794831752 -0.27725597362386228406 0.27972786949244465848 0.20386864140034899329 -0.2090930394292641048 0.062896839234709039923 -0.12788740537638548789 0.28327408384114183271 -0.088711152616095162449 -0.067414238991334390905 0.47062550543962922145 -0.2684310696786779693 0.15667744859571830496 0.28540621016371325869 0.012488527953299303347 -0.049656270893607204475 -0.11783193781914302889 -0.063352981822403398038 0.36710264805780623565 -0.06406616892237840255 0.072089641405134255447 0.15762389444070876166 0.095973582823635605887;-0.31055443846433722355 0.10642035111059322539 0.29572347291122474955 -0.089378767917659932007 0.18111827214278095055 -0.028428399345961301303 0.015767002021009182688 -0.18618796774040674569 0.25991653579652274075 0.24151534130106916409 -0.21614995828555233492 -0.22593578195244060081 0.14299053640818126798 0.10706302369587938905 -0.28005802597448103963 0.037159670422055368633 -0.052584041688019986238 -0.30313029486483117347 -0.066989554025963973793 0.17460556793492482131 -0.02581237263179177871 0.065637212939134867429 0.36150906727552289954 -0.46149498758422274891 0.32287524062400252411 0.28108331561249749742 -0.14968713047118653581 -0.22611150067160376564 0.19277173708177131051 0.062835407136457577248 0.42793182211857322406 0.14890641199118270777 -0.23060624854565583974 0.025822307042824038659 0.12740144798830882467 -0.010455952871671673338 0.35052994618490368461 -0.25085248927281600384 0.11606898815368466016 0.0424732119081928719 0.099120020325641974845 0.31044169793506726229 -0.13899715552359884208 -0.17436158197686818516 -0.012530201848065738654 0.1078537402448147553 0.45041581609858521995 -0.10741062103245570258 -0.040999519908359233211 0.38704039022289138394 -0.031437330643165492527 0.085414835520242426981 0.31514758804128606418 0.12168237238031946734 0.24445813312966865882 -0.0032549887131836604572 -0.020855553828186674387 0.30739244043718638721 0.12478873621707088637 0.026628103551205241362 0.3182989257130039995 0.17042961051764241032 0.24988240331417627127 -0.044910787595582202236 0.038981196958748381975 0.020132439261410471631 -0.2096621727697267068 0.268343567722508336 -0.26919189468376553132 0.01252672932448741297 0.16263501495544516184 -0.013463408474632442349 -0.26573321311303199632 0.039745923968191362863 -0.051167927377266553268 0.28601582794979807378 -0.21548973145921362926 -0.44884999757110738416 0.023450088927312328496 0.11523563292035325645 0.22676324565922398313 -0.18353902270130983965 0.15144254575840146448 0.36556240488546692946 0.10717362445511763314 0.079434854050932340863 0.31037001379832335202 -0.15186591669076029976 -0.14389772613536061519 0.054329033605825714781 0.14216090086453636587 -0.15384558694532954326 -0.19892878480489809001 0.1235925150102050174 -0.029625754308664552922 -0.28935185914020816744;0.012257935583718281361 -0.046583689781510756456 0.42334070410710283872 0.20806002165302414642 0.18505999731682951093 0.094007631537184568882 -0.058842059201914799493 -0.037179547819026721733 0.49151969041136989169 -0.099312677899423620898 0.089682958373149268549 0.12829063214376443258 -0.082497730911461161774 -0.19630372017266559115 0.076872597053101912601 0.076529754255136542285 0.12508753289847271417 0.068237875616691673342 0.24450939739075860935 0.15180916514597184164 -0.20913076140567993244 0.17669662024422000401 -0.13917421093348647521 -0.33815070240085093323 -0.28274410658662585405 -0.18687914794224030901 -0.23741163991830716018 0.0016516711740931205171 -0.24895543482100307431 -0.22242154932667002054 0.09158232755195797048 -0.10452433423548013192 0.055867044406647609067 -0.060498426271205676952 0.19593288632807312477 -0.33963098567117844251 -0.12390824673630239372 -0.19622692397368632355 0.083216371833309862871 0.30973254300631797298 0.23460838659473445822 0.061417823534682391973 -0.035556001921480798189 -0.3868549444979886287 -0.60680554903433692182 -0.022144376282112392812 0.32418032059130730271 0.78890627222999065715 0.41517625022206283703 -0.11707308509949794495 -0.23481428944590143626 -0.46495161457466621657 -0.12095462769909785805 0.045897892552148447654 0.064284042182675471544 -0.071741536277088374662 -0.52007398730445986157 -0.17141924210034256704 0.26811630458449109415 -0.54390099824174142906 -0.28048560499053004635 -0.22384904898996299538 0.058940500572707901772 -0.18226297973031022059 0.39513778511443514718 -0.39547312250171129389 -0.35260252327950541984 -0.053346806296621175625 -0.72986588047562195314 0.31171930094468941475 0.35517831314659092934 0.88623114384712387004 0.02175028817723046945 -0.21631732976620540732 0.044645529337164209516 0.084195088631641545884 0.23206764785696526454 0.074618334204208408567 -0.012362162674743729096 -0.11271420666110860964 0.5203791807892199639 0.32964306416780075892 0.28283239861628911571 0.048385269529484041529 0.010749934140564699689 0.11862304265994300101 0.10694192289375496763 -0.020023661643904906715 -0.28599621312251422012 0.78562151278599789972 0.084693960917245708631 0.039744168790609872566 0.0080718078982732702903 0.060592921695728003961 -0.38450950310122744558 0.50495190565289949092;0.14437143297637441974 0.26764890975999638956 0.17960903273255687806 0.29629585612048187082 0.081557255817904364403 -0.19950514099321528527 0.11942747448148979816 -0.13050933974993481068 0.010020140039452816311 0.20291883215071354618 -0.085503058114322266769 -0.18898654478144641389 0.20755952928147264336 0.17136019477653491316 -0.14817051537877981571 0.014516857562376516214 -0.17896468199576706648 -0.11117003795376344255 0.32248049479750934276 0.03003521202870076609 0.1366975877925259153 0.023258080228861752886 -0.049373981173500697262 0.12850769420045740632 0.030344751282619354671 0.11913949465532057415 -0.11541443652767068018 -0.076960408235968266744 0.14944848359814033589 0.19079821175272032585 0.065371625976774150324 -0.10590635846057047664 -0.043438895722209908135 -0.16658574207553203395 0.12563459191242576374 -0.1618334578317007777 -0.059559752386792452761 -0.14713066976770144967 0.054760860773607908381 0.011877530031763941162 -0.16649177598150552426 -0.1319676656791725633 -0.068460783592177790191 0.041150342623694324828 0.10546415179080075031 0.42546700177026713918 -0.19184872050754883666 0.009293493898676794332 -0.21032232971408273969 -0.042896619559268170385 -0.027945755479628259926 -0.24791254515951244297 0.076586826004908556409 -0.053484601268701810473 0.053629888849290492658 -0.29994412601577163935 0.28620280577494822127 -0.28290300626763231762 -0.12848001262606811856 0.13244525273650598063 0.061770031077909105799 -0.25827318709020624654 0.050181690302332264408 -0.14469449692715835587 -0.10804801629078265857 -0.19132276605952650006 0.082843793323042522192 -0.067012619036058831967 -0.065527205240258137864 0.14514687098910941665 -0.18594803938455375936 -0.28510152849115288909 0.23445526150663076326 -0.22107289145414102394 0.083192964536520586094 -0.032844781181405074966 0.036329140894399709893 0.14030775902655776011 -0.069814342538309037689 -0.29683694983114100596 0.21861138519254560975 0.04414759825170998242 -0.28050217397656029839 -0.14568035404637744157 0.12281939757755251652 0.074602238313003943482 -0.16556723581267365764 0.24671432442413032682 0.084633546779719084907 0.12086793766047350396 -0.015339959688160039603 0.31097986608901589944 0.10610289079672970136 -0.26592565267819884278 0.29777665316645324234 -0.29530116563081798553;0.13670015094246149023 -0.13368612136217797315 0.2262827142374583822 -0.12021787978615737502 0.019894021198500189823 0.22368699665395477827 -0.30369182519940252085 0.083516932851363537282 0.30135557181670391547 -0.17634340029383138715 -0.26866181956879453541 0.23855690670424911648 -0.04621081691762644883 0.20999496506350831537 0.31354440415077222681 -0.38535125329813085804 0.58710296463296074432 -0.026169441147470946796 0.0077513938965349119328 -0.24817026917085549531 0.34097735422263847349 -0.23246425073623008806 -0.10908272344575957458 0.21444400721392350984 0.014601644222350820476 -0.13425459847274962 -0.31225236913432091734 -0.11089339442462459173 0.088629611706524974446 -0.128916780434198186 0.30462022277836714457 -0.1583199006803111264 0.26778772508947090714 -0.082395477309601075633 0.37731959285761867973 -0.1095194545977890288 0.15076680631790750908 0.31244829122332878901 0.21280402147555549375 -0.28115545294782090524 -0.054000736397125985444 -0.20596439729095669668 -0.20651445984276861623 -0.068300341227683414314 -0.56117383084560423789 -0.20072283758139419785 0.70901619929118353536 0.73065305022411286551 0.090544750229737291924 0.074357852936019333545 -0.16631325028764276652 0.051605695394111868179 -0.0027048383907981986968 -0.26592850963827197042 0.17880005745151678065 0.21607970705169413095 -0.57682609427882902686 0.0048085301742028171978 0.16389017955501136714 -0.18847770723731327447 0.43219645556647889872 -0.12357444836492782747 0.0048106138386712687591 0.014830856425567905468 0.14285409862594725117 -0.0079832728446887820523 0.065176013627947837481 0.054664683011498384213 -0.40625011962778784236 0.13100068277586718324 0.19972455630168764462 -0.22005146594614638511 -0.066948495122530815582 0.04010392398142613446 0.18449557206004282839 0.19529776654557035043 0.11344393152347891085 0.20361254032182260487 -0.065609111755929067078 0.17402501660713046161 0.051540433255050630001 -0.0094422589009489042711 0.34852817731358748388 0.037137771367489573471 0.19971563014131976654 -0.55138870817919549694 -0.27804638526289726652 -0.078765732051073539255 0.27416140876663297465 0.24654271772723396206 -0.19093890472380639634 -0.14898004883978246959 0.083277146441447430503 0.10825837664142744232 -0.53505803358608416964 0.28825759665051470249;0.19902749164374389235 0.19611097716463044005 -0.2060971068323120825 -0.13074092944938511818 -0.12643352100653967862 -0.066725116955413776854 -0.0010196394766470268881 -0.12591812457568365979 -0.11763407300797555644 -0.12710401684272984446 0.12475600700503611251 -0.086705109625246523652 -0.11909888543662894289 -0.024700870775617354835 0.14255184974418400046 -0.10214823154229812907 0.0078891462682310897758 -0.095590555140624269836 -0.099122455128909561783 -0.22333487984796993042 -0.34035621018567835394 -0.015794760764434381817 0.25152688398054562358 0.079783033277922729698 -0.070601660738117022476 -0.0083206392465819956072 0.47665514548605497636 0.31080133832968448448 -0.482019218436540553 0.0078568713370146259223 -0.1201040333911742447 0.16568057326125970596 0.17313122247330403614 -0.3380628842906694409 0.066845622141843169528 0.1717749264212086735 0.081462384345577232292 -0.27655980124391282837 0.079886269482849603385 -0.12139197488832390026 -0.057583084335670123299 -0.096397370847747146372 -0.010064640754475330867 -0.20952508837341909942 0.0211878040967025498 0.16331518010163867394 0.019135788369515165791 0.10187835147215036635 0.12534851789325870963 0.17641347315086911007 -0.19877459056009624816 0.21140700837231210518 0.11128058270712523625 0.28255079401687344109 -0.4124874377743511511 -0.025132349228701028609 0.16453142160415462625 -0.1492237733120632126 0.21074332699942985303 0.26417579728436113573 0.07924070059852979242 -0.30061969119221204627 0.28104190505183995752 -0.056111084143303652239 0.41313170591232345474 -0.1690291284487403789 0.063071060039351714566 -0.19951885342299677251 0.24297208215848284385 0.058695814079919188255 -0.53895389795068449068 -0.033883759167035294724 -0.071260610049348888095 0.016552017815670037187 -0.30128475234590412768 0.26563984005041030301 -0.35701605109190154286 -0.12822965899292856906 -0.23196826372493309365 0.34952255371585150279 0.21273754322145388418 0.030034502900695661531 0.0041044529401479800529 0.80279612738833738828 0.34598496853096499803 0.14912673581495175523 0.52244681778240542602 -0.19715198971060426958 0.27663460357371821852 -0.058724025132695048534 0.25993018919998628347 0.37345371113367370475 0.15665653931919112929 -0.074377206414361754505 -0.37914300880626194967 -0.47415463742842656192;0.17207347071261888671 -0.25937360570246914548 0.083751610913440674433 0.055012464628599391792 -0.21696077750582387633 0.11746716618499794538 0.32069020386546670531 0.2868985644074259489 0.22538777302161819294 -0.024758046465095003008 0.34005408618119137287 0.068032070757342272271 -0.14390510481089954786 0.30450168199836885607 -0.035972033606205731926 0.13579028037206827828 0.18535133667489428477 -0.034100887513958885733 -0.19096420315662138156 0.538765189888895768 -0.0055496941136606130207 0.1486726741340226865 -0.14783455416434712615 -0.20877882691686927563 0.10959837240548259141 -0.077592524023843131853 -0.069395144001194897232 0.50273340964013812915 0.25069407436863516692 0.15365382926694773347 0.093408903885527860833 0.013896947345001492424 -0.24847063283682835344 0.21477266662407226705 -0.076384705214814954677 0.19436524310068836741 -0.11615288460189683584 0.018592028660651974126 -0.28887666922671323411 -0.15530957413371898612 -0.15315274066717587953 -0.35026485140293855958 0.2651485549322067925 0.18611248832515808749 0.054653081595395114345 0.51244718597204397259 0.080674393042224540329 -0.06747234825602735353 -0.12119120247163797655 -0.034431555113524317524 -0.0042502721624532247349 -0.18808556359562514371 0.49826384094852049778 -0.0014875135184076260578 0.096847763911385165159 0.1472387907967075138 0.16040829566357278635 -0.057337529596542965993 -0.18225931762469943509 0.15928711675338258491 0.082510919753234740481 -0.10699335163541923155 0.15537350244459724458 -0.10853885546580828436 -0.037127166741137800077 -0.053999911812944237366 0.0066407043761820012256 0.059564051286675391561 0.12783582778393970392 0.1207270820775084158 0.29734661144229118657 0.42423568672193623375 0.15954645128256880748 -0.039481048286911638034 0.13591570402399286155 -0.12418550378253845334 0.43212994128317611109 0.10123594191895633754 0.006553997708340881384 -0.12712765094787933928 0.1666389500205176788 0.15247717950309144785 0.10893494738388556642 -0.081120757693446135517 0.16689827413066282702 0.028431787608192510275 -0.21374291425069055772 0.087750582630831436282 0.14796993823242801658 -0.19977622474206049863 -0.026428699070382533076 -0.11754272418597573602 -0.11599663201177236316 -0.14260668013177923985 0.05883205583116025289 -0.060752127440571103423;-0.00081588334998377014945 -0.16241474770970346087 -0.3688493915655651767 0.13090761160335165347 -0.25611909664290632982 -0.0098464650130823637431 0.3752153441561135172 0.19407327984734878967 0.25128660673460478936 -0.22089413536398211368 -0.071166697655189362082 0.61308906322712919401 0.33438512533339970201 -0.36920631404479442583 0.38239670276056764164 -0.093532533153673963477 0.024855635197005031267 -0.20073317927264119898 -0.22634245626014828923 -0.20784483182744753482 0.29535270429221410771 0.31883745169274113618 0.03926580552290591386 0.49137121127229221873 -0.025319525477782652695 -0.0348632583593935369 -0.13253481082471874064 -0.070887111621224865865 -0.1905817442098255432 