function [Y,Xf,Af] = MLP_7DoF_PnP_2022Mar_2norm_0429_am1(X,~,~)
%MLP_7DOF_PNP_2022MAR_2NORM_0429_AM1 neural network simulation function.
%
% Auto-generated by MATLAB, 29-Apr-2022 11:46:54.
% 
% [Y] = MLP_7DoF_PnP_2022Mar_2norm_0429_am1(X,~,~) takes these arguments:
% 
%   X = 1xTS cell, 1 inputs over TS timesteps
%   Each X{1,ts} = 96xQ matrix, input #1 at timestep ts.
% 
% and returns:
%   Y = 1xTS cell of 1 outputs over TS timesteps.
%   Each Y{1,ts} = 7xQ matrix, output #1 at timestep ts.
% 
% where Q is number of samples (or series) and TS is the number of timesteps.

%#ok<*RPMT0>

% ===== NEURAL NETWORK CONSTANTS =====

% Input 1
x1_step1.xoffset = [-0.374597557001054;-0.386388436374462;-0.47412134925835;-0.352068166900761;-0.332149151052086;-0.359411679749629;-0.341246683544426;-0.398211749816826;-0.32157863757558;-0.372464453484694;-0.377465100955719;-0.312260313780916;-0.322055020012602;-0.307183714645627;-0.301410865430202;-0.352161196796677;-0.38793952840743;-0.346268897841881;-0.343567319122561;-0.33346128690816;-0.281393158256798;-0.417163556599857;-0.461349231911295;-0.366793124667813;-0.331136429364731;-0.377375448371756;-0.398594590647436;-0.345045642592654;-0.337683601843603;-0.340247902982044;-0.366934684509443;-0.322506622075122;-0.271852769911835;-0.360735680863188;-0.335673800597234;-0.304362551953784;-0.355530149219844;-0.337173340530697;-0.310325559584686;-0.321371112822801;-0.341917083752802;-0.324626411009761;-0.382012223801419;-0.306703942891629;-0.254675655106233;-0.363981750089272;-0.410371454683074;-0.311813869418759;-0.358765228880857;-0.45691355571446;-0.439797844640686;-0.358877042657939;-0.378435272684695;-0.29168873862888;-0.320555405408664;-0.390591422798177;-0.304418616058466;-0.387925946839659;-0.399042327685286;-0.274863881481538;-0.445295031241349;-0.394714056183386;-0.358367505964686;-0.364973160786756;-0.364778191909381;-0.361624356247486;-0.420302464970099;-0.333728950750019;-0.355321512057436;-0.401321296455107;-0.408507589883656;-0.341314254873676;-0.380839402406009;-0.442017475983231;-0.516869935621221;-0.338090258700099;-0.359899378392166;-0.451134191456589;-0.400722290103747;-0.431658009584269;-0.383707973816447;-0.382133615609253;-0.456913477006189;-0.365151845569621;-0.37696524664193;-0.408047907303914;-0.31851991325007;-0.432540016020857;-0.382930790933757;-0.413294830475632;-0.419267826662458;-0.394079032922739;-0.358986190870465;-0.367972674163091;-0.42058270551396;-0.366899652442147];
x1_step1.gain = [2.67477647549986;2.08280567540214;2.12218177782944;2.94385150377931;2.74021496731274;2.91557209824935;2.85008744333094;2.46573486491859;3.14579778118649;2.73468086686627;2.56513746090617;3.12131778007956;3.19839656749223;3.25879056279773;3.34640667919675;2.82071696815421;2.69892159637393;2.99306422192271;3.06407449379268;3.25646040169101;3.10106682685729;2.5633278736845;2.42440765414968;2.45756672447416;2.98523079146825;2.29684230586557;2.40868465556958;2.94778167353288;2.71574805434901;3.00746671520967;2.36568052145792;3.12002188150581;3.37949048578328;2.83941176882149;2.6870696630691;3.11793429127858;3.08208520598241;2.69619524827252;3.07315363713333;3.06680402438436;3.14567073167191;3.01364299805029;2.4982363034117;3.30792075295726;2.88290924031373;2.68163639917142;2.65049883856451;2.63396498468261;2.7799209006686;2.45531616095259;2.18224168998732;2.68929139284245;2.75930935314686;3.20409741487298;2.70264817745751;2.52031314620578;3.05436838357764;2.61637489680097;2.61440108055025;3.18868098258084;2.50816126310766;2.67479975173551;2.94359325666951;2.66254843194408;2.89704989651516;2.81698508701243;2.39306748293179;2.9484133322946;2.60034850263288;2.41705991802759;2.32576025990929;2.33333532590891;2.04019306169231;2.52811004998094;1.90738896324144;2.98275883073425;2.79876611509472;2.22689189420726;2.2590694782667;2.5377922756276;2.39257432757089;2.5127933233986;2.39116032354333;2.58236999159944;2.71962131759825;2.56036378913543;2.86251282701132;2.24537564259223;2.38187784612133;2.47064850755466;2.39306830952268;2.41131100559217;2.32898625341577;2.47587529628721;2.11147295646202;2.19684944515005];
x1_step1.ymin = -1;

% Layer 1
b1 = [-0.42346051788112837322;0.64079687997968792779;-0.53075144584289046801;0.27144317649319932295;0.48392609880282472234;-0.45912464091806676203;-0.58334254675235430732;-0.7757171443294166302;-0.31443159437077056184;0.6889952266384657964;-0.20671002287967277233;0.89081072513273307223;-0.34177440672417308543;-1.2824074435019903184;-0.65280952000702774374;0.015386310070495276547;-1.4713924652103684831;-0.36933941924570062865;-0.52445062254341545671;0.76899223607836542094;0.38906933580218705515;0.11632037016828333797;0.46284729020215414907;-0.64717829115112024407;-0.046382432518026789348;-0.075169480169456889818;-0.3813644144719449125;-0.47140374846593902092;-0.029449750949587693433;-0.4588613372103811372;-0.08549179263736690626;-0.079356769107656127682;-0.088239478500942977734;0.29216588948120358893;-0.24540242782430607416;0.011853850773335842389;-0.062187210687936742004;0.24168267162365497658;0.18395150112592975611;0.051132326719667615944;0.39467501074314542686;0.52036295759645134762;0.36422738658396386358;-0.10555032444099778088;0.5691275261605946989;-0.52863313243505027916;-0.83524798675270861548;0.72003887506497255;0.19743792785831232317;-0.0082075016543307691141;0.51018442868523783407;0.7536891782342248769;0.040620980639941767221;0.29273712938148160889;-0.4042245439178070443;0.92294662009110239875;0.67893728618863735669;-1.1921997660741234792;1.0683849539471268475;-0.75575101147911805111;-0.80658482288162614005;-0.65520517720955295804;-0.58286936496304764255;0.27764279034440680904];
IW1_1 = [-0.12245692171362848599 0.14103480329689283002 -0.11070472338818164448 -0.2791456634072523868 0.051931627873210123303 -0.24122042373285393357 0.0019679992344495298925 0.31809863966706297678 0.43290562777401792038 0.22167039205019634096 0.43456723480628506318 0.3134166501745070943 0.023184121208445689771 -0.12103834944377867 7.2945912562753106607e-05 0.23105299524740838257 -0.094906915426584179118 -0.20401569232381186469 -0.010703529218437408607 0.14373191208016530829 -0.015024071879856248576 0.11558699567288369114 -0.17502344382066925554 -0.31353477677950464253 0.35733323177399156645 0.18779038128646940997 0.10473839292772532672 -0.11308484292374762492 -0.15539247323570243298 -0.036351795569615201476 0.27866331315301112737 -0.061537621051312295373 0.15572470015469039306 0.51879643372001216228 0.20846552215747385373 0.55249163921882138428 -0.20776644510103603469 -0.21619754840754609737 0.079878328629171768682 -0.089244638423468289345 0.13727037010609147161 -0.51796819317398290483 0.072912049374320025974 0.035232107482327593151 0.25886233663752400425 0.28662877506115119752 0.085277956194621404307 0.29986532280856154076 -0.16949186135385740926 0.046386678497690986278 0.25699678588979968374 0.20460659815469431355 -0.15731255062515100973 -0.0043026693157782007482 -0.29902777588411316723 -0.003909519536632710679 0.21686160807167875753 0.23311801705476667412 0.073289478529726573286 0.06272272441520429509 0.47700163956930702325 0.16906774670552321416 0.23963969660462638989 -0.15153958944579146162 -0.049061922278584399471 -0.0030159221137325653399 -0.2034593657814557921 0.24560265387960200645 -0.029424074577852239731 -0.076238363414855916944 -0.014716067984556406231 0.41284789703357710478 -0.15737855297766312201 0.48668358060551708544 0.035059868174389760553 0.0097540581305143193164 0.43079022474137701471 -0.067567096487965397356 0.031795082393782113372 0.053585680988612070796 0.22172217875258748432 0.29486807981159873782 0.22248198522817894118 -0.012498566583558398668 -0.099965154422976890136 0.080272180900467449138 0.25405198656416694281 -0.36450788069328532437 -0.25096210902077087379 0.090536440965667847047 -0.16777306315543855098 -0.02610337658687027565 0.22334637346314742401 -0.19795578170331731838 -0.24470855963443036152 0.36965103895941953116;0.10322181601811004914 -0.0093654095231211903494 -0.54175626080541727791 -0.013101703418519317426 -0.17356761645156459917 -0.30854526693291595141 0.15752789554573412567 -0.16919948324120751004 0.13047594940266629693 -0.35720141175476932682 -0.011559624624319905783 0.23418858305910980611 0.20279928121592522006 -0.11194191396318928233 -0.16240359988701383309 -0.26540157444611844895 0.029144785306507631217 -0.16552328146510122964 -0.51931954029800009298 0.21524171521990467792 -0.34707060530901490125 0.28283998324844628058 0.017394211601576475834 -0.32013276174969590437 0.069868884539411701962 0.16409613227779901168 -0.22632923875529512014 0.087682153723912859 -0.17462733417151843351 0.13993779552965066038 0.050081997960664551006 -0.12905473813842269215 0.17880160426172800325 -0.1063741872519308046 -0.28897795667258346919 0.13289014276869587361 0.29172966896553892413 -0.0708478752215831592 0.10092111854649006564 0.19141977522254483013 0.013195286085761530337 -0.30728177941458539868 -0.08413700271501228789 0.022512426357849450037 -0.19414924722921686473 -0.046790515105775636051 0.081090513945130726636 -0.057705593993937126518 0.10298397049564333994 0.21686139885423724727 -0.35180077420318911496 0.26314370494570832326 -0.071235884388005515921 0.10302270830891047115 -0.13509768014298842442 -0.29328829408925721767 0.13712892683099991986 0.041451417283237500244 -0.38920253382171199341 0.092234793500301490154 0.22869241674570278677 -0.038868303658629844988 0.40700855848309719365 0.092443806336802755719 0.0051691902528741649064 -0.037560668782397346743 0.019151563382369205663 -0.019242169433717412619 0.10079350429898117913 -0.22657599233343228562 0.024111477545246135651 -0.1552018402622103721 -0.25999001789240366866 -0.26322205836451911809 -0.54231704522620238773 -0.14915686806852265778 0.058317672444326479342 -0.1939316512564339956 0.12933618830481610762 -0.082937251347940471602 -0.082147357045411026344 -0.1838629945817306377 -0.095255995273982124738 -0.21836000713053274613 -0.23177230596622397374 -0.29165788778565976402 -0.2382196342304440384 0.15445868999198750227 -0.10026091038936746358 0.2341252084482196294 0.0029582096861718691627 -0.01572838464583478299 0.16169248953774539856 0.13999861604477448207 -0.070277177953672859134 0.090480405200393992926;0.056867309783176098192 -0.26948649850439743147 0.58375195817405911569 0.13073952578874140085 -0.097139166481414462861 0.36695854660125121205 -0.003219072795929702694 -0.061755996213689261232 0.21593048298906344917 -0.050821745697400132202 -0.18699568137157712711 -0.083909638504917047341 0.043300036770423121213 -0.12836622804947772636 0.049313728544681037502 -0.036817279685720592786 -0.26294385857791152672 -0.13893903765101944803 0.071461598744784554649 0.00085241645189993819724 0.15974713553602049032 0.26750241216462888882 0.23453011836425249892 0.23011689549152339329 -0.23982494899842513036 -0.046543440638406166632 0.31673740407251299578 0.059622052441937994915 -0.060819168523133362858 0.57056381218313190207 -0.049654129618099646093 -0.10254658536382763034 0.0034866657607803440075 0.12462910047064139352 -0.054179840449321413354 -0.30141180811242451743 0.56958333158520746409 -0.15717375837862235244 -0.13283093050913946653 0.13879898809409482729 -0.058257122123455191975 0.20939458497830235051 -0.1306467033559115809 -0.33262482002064897024 0.24007132194753305621 0.10772113194150616244 0.18632459534448930771 -0.016660989548615112721 0.1296525735137448454 0.039105613947817856324 -0.15975153972819614023 0.025645033107464243471 0.017394086337467976749 -0.0039600106454690227678 -0.057518664465767442573 0.32831457707928063394 -0.22365224025146537845 -0.27829297520305945612 0.28181285017497886836 -0.4838693791134723865 0.34585172512108947052 0.26309557513431358622 0.15900021333067271279 0.02115539909745986491 -0.18531394092531996987 -0.047529124621216146951 -0.38780831437309648546 -0.38802833191360913689 0.15656899218239436755 0.41788466371733290483 0.067992957163802686393 -0.31641470283164663257 0.16045733613835416742 -0.1617908205576922831 -0.18198284834694575252 0.016457811901828985762 0.18999839707472834793 -0.39858485808517668536 0.05623617827570992489 0.24932401582713284438 -0.25223500454675579219 -0.041304149387665037296 -0.032485058811876417473 -0.29084766994738636692 0.00094776935838036260266 -0.010203339519603041655 0.048095356779706062433 0.0047886292695755328791 -0.082206780717510488654 -0.17016493800033893891 -0.23415247717711834552 -0.01132527022998263723 -0.29808616824218875374 -0.13198115747596764202 0.27886039886347147032 -0.24819608023884828785;-0.11037639557143306968 -0.17503600007638001057 -0.10904301923674465657 0.18312704569410462319 -0.11890943116001750912 0.033236815706574406037 0.45933223562234015702 0.03366517799293168578 -0.01400394831255582194 0.29268776819048858417 0.14250823730073519657 0.019621895239553887452 0.060530497361427258729 0.064546130431014578366 0.043223728881323308926 -0.12253639258323797967 -0.17711573452762072178 0.19352676793493195362 -0.16183127397356353305 -0.24575520686780558122 0.20950475052412281807 -0.17200069546477408933 -0.039695638063577745602 -0.15474436416297931984 0.068776669266971748873 0.05004310689918253785 -0.10266486654895164154 -0.060159572236767697162 0.091356136701033124892 -0.27290535183064379421 0.093888582014805613274 0.11672923813522037562 -0.0092559175384785297852 -0.25682342558914361685 0.1012195941941729932 -0.16390562058880056573 0.0088421169889974834261 -0.22753969374327345787 0.34921499465449445943 -0.33049103060463475012 -0.5422145540104278405 -0.34210698520067461814 -0.35562853372302449806 -0.25785198104670520314 -0.29381664889747083347 0.10980313352434935281 -0.20410231044392576627 -0.23193355711397764529 -0.13922079133979850529 -0.047164758455403264781 -0.53856056032797727795 0.11304738148337950543 0.22817547577071736753 0.21987794009677125162 0.08205134691636567501 -0.10205678946256625805 -0.092536076224772570442 -0.012330205954133779261 -0.23350981124135777867 0.10736735654954072949 -0.28896125547708134684 -0.19156561344549283277 0.058074448613343418457 0.056627045252595632763 0.14255292781827749726 -0.093953390326193611526 -0.16601181212208390714 -0.24669806782562564429 -0.13949048222057555679 -0.19669847099384180078 -0.15436036642750070036 -0.095828064229729378876 0.12385646170806675903 0.1464264391288494227 -0.52902916200623595344 0.0024237230269392993388 0.10962918745156105538 -0.010138048621183884043 -0.22020579795429195968 -0.14493283513275551089 -0.039471316357575295108 0.017374025835906130311 -0.007084077036408981988 0.47969734863364554833 0.017990002765050468886 0.3729035250676700497 0.32362346657235913083 0.044704512318031200402 0.3415731351686312478 -0.13692262781743380629 0.10120941037964814591 -0.010679372325744363251 0.033290028670546326084 -0.1060989293363646252 -0.070226057433519145645 -0.19594078525594266216;0.14348452816517637265 0.3665596699702243777 -0.19001924153619528801 -0.046808563644023692962 -0.20049727433324271431 -0.1798661945963010711 0.10880932955392552675 -0.23521440267730450713 -0.0041723382090238896047 0.026250464223076076103 -0.10649175659759044232 0.27100452436636834896 -0.13107550528128486533 -0.039395175086137698695 -0.14943955756946339375 -0.24674942496545285153 -0.28044487287562602784 -0.33586775174006061606 -0.16971715348599500373 -0.34176496566905106844 -0.30088714791757875666 -0.26584958677974473984 -0.096490583567338528148 -0.42350313264702371674 -0.10285231352507169522 0.3865564383886914146 -0.050567123879016136201 -0.06650733228137396813 -0.17385902440243766742 0.022649400069717322281 0.0098341222983532958907 -0.22575642696771786033 -0.1343493394525371587 0.34696972939450443363 -0.33833788627810895688 -0.38413538371602240495 0.072174783915313123206 0.066789245245539086149 -0.478802176327296658 -0.29281011833113418374 0.16027893893005198955 0.085088217108069838512 0.15635689666394544939 -0.14845569877494274591 -0.5465975897165712416 0.088604939693192455441 0.067330953440968926982 -0.28826828356511047247 0.062308413874774974672 -0.010713532566076737138 0.092331658900940291601 0.10922044031810593245 -0.40793050662972729636 0.075646620344763673693 -0.38752207142521577499 0.02762008613102934565 -0.54933813509718987245 -0.33593987700245764305 -0.039688974391347289772 -0.22544977943910879392 -0.17132603935605653089 -0.20739069446817220976 -0.21342866558811415811 -0.37295926799931000684 0.11270978317365745736 -0.012432028933835007067 0.1572181821804930768 0.41513927086053470372 0.03403681622127130435 -0.20026706935090049511 0.087452222547375280115 0.11879139957200786359 -0.11729980995657414422 -0.24845567706620164117 -0.080583302879808083041 0.23851190488596291095 0.036752318302121597671 0.10201750535032756695 0.10334337466089182911 0.062904202084825652785 -0.22873228815933963065 -0.010324981351814992506 0.027440664171737488841 -0.038099309096664001062 0.14439439012919771943 -0.18076050956098499434 0.22256238837732536529 0.31222114419831509258 0.077785601654074373879 0.29161603176466527332 0.36507605025782835506 0.093938111050665351609 0.16636137632433148359 0.091984365057654893238 0.062044647867714630696 0.38151300059011794552;0.5158521142280567684 0.37497788155222389062 0.084919175292512846798 0.23321763732602596164 0.035599778584501431955 -0.082952970107331644445 0.51733186244211315508 -0.13828408757015359098 0.01563140754313457198 -0.14718280853206619496 -0.01251280092133677177 0.4170822824541157714 -0.14760541323578890704 0.017576945070402125171 -0.3882829358186676294 -0.14872384316594369769 0.13137127667487089044 -0.017648064598308324524 -0.27237069860183010794 0.0024226930911235232922 -0.10028475352217718075 0.20015034707446105466 0.33043467818645294587 -0.50389236495555078665 0.26053943157964221111 0.45613750254966689557 -0.079680303514898270789 0.32962722444670194966 0.33305837276596639285 0.16175699474523552723 0.04188304533663534529 -0.25063453448737199603 0.069728637852088645732 -0.20360650482445144527 -0.47168683931324567604 -0.127982535505000522 0.11079795202355641193 0.22007387873459641203 -0.43149948710995794654 -0.16925695351588074256 0.013616859542423871698 -0.034236771550772406025 0.29833732841777610423 0.2120304712109992995 0.18720444305668340612 -0.059689844719780379978 -0.10465349092298541211 0.33866465491755270989 -0.22364547940573503704 -0.11195066731117042647 -0.19164649376520401236 -0.14769667819769161099 0.24411482533642825388 0.14097725319795872956 -0.27822585193322724173 -0.10315665076409762102 0.45903268459670237833 0.18197953005085346079 0.079532838018528284607 0.14834898110575672758 -0.077635346007329547602 -0.050021826552739900862 0.30739841014371355188 -0.074542037238425201684 -0.2460480882341847253 -0.41979363902192701197 0.19111162658123195812 -0.56290005953039479181 0.17162851366354381355 -0.67041660876808606417 -0.18026528528466853607 0.40861977491782636163 0.14750858622578616464 -0.26613964119980676459 -0.05605071778764378343 0.12919024284983657291 -0.36804795951582325308 0.26938753287632477562 -0.064183804593534926619 0.34220244142677480603 0.13567906451321992689 -0.032870040907499634142 0.15350499303451978217 0.16822293842655045015 -0.3655789188361582287 -0.13840418821036148955 0.39877280989022895197 -0.1515029735920310483 -0.19537676742607373859 -0.13670774103049077031 -0.054167118260693897236 -0.43996252384160089433 0.18887437741583606998 0.015865554272046843848 -0.099504035038217905629 0.64026447371661288077;0.17086020640383728364 0.27902500710059774391 -0.0041247333636531026413 -0.14536503680940152106 0.24816812490363401866 -0.089825660453771369318 -0.058123141046171208912 0.051310117556283910134 -0.26596753700589315095 -0.081231619667769677795 0.16546952805700873568 0.16994420363308021527 -0.21525552874810904846 -0.032527386724488814573 0.30906707731401561468 0.2073910173108158006 0.014089342518935918033 0.032077128108913069426 0.094876951824924185552 -0.10578311121020764207 0.012110694860215296537 0.22292903813279990599 -0.2161235034290740209 0.2749424759584488398 -0.10406740112656664987 0.21775175280556707813 -0.13008561483738018127 0.1442512444570229202 0.21283858246185599628 -0.17182936344509808224 -0.042215770240759273313 0.17104908269971988433 -0.1299982180500923179 -0.19388798393743056359 0.13049389588198412326 0.038565929818193400713 -0.0012543182730189548092 -0.078608379300648331678 0.096607682483781653904 -0.20156652660454504877 -0.13387885726992346247 0.094894250542208208321 -0.17879589195573800109 0.13988215842354331797 0.066806113239530479087 0.30643970720630347992 -0.11206864638128592737 0.11325185672507746826 -0.24450144647242696982 0.1913425370685226945 -0.22388241684929344189 0.057208886308626936967 0.10021156808248371517 0.12421327681434034262 -0.25699391343358340967 -0.03260624826352306882 -0.098029430775238970974 -0.2558991897572095997 0.23136256197641896781 -0.11124462773470376875 0.18437850135804625951 0.13569582391888906914 0.04268761519625545453 -0.063785265778264529923 0.45586605055445927892 -0.060533994060617234145 -0.14324806587202892905 0.25453378883221056128 0.075495209719790540293 0.016346095519462311429 0.069607644553994055259 0.20562889377591034301 0.056211142216240322922 0.080920073617394963628 0.22801482776978321265 -0.063274275189194817415 -0.19835977655539566156 0.16340043373061896581 0.012837668098587122836 0.038524071207985330356 0.00047154352121278478652 -0.16152407138050409174 0.2649158442830346627 0.20254443019653303737 -0.39131508076972987276 0.25886073777414086994 0.21100504433426855999 -0.061187077662352304386 -0.059110683030526155191 -0.26024570864798934888 0.028860201075625136619 0.16017747753786057419 -0.060395293050734606688 0.38161812597871430652 0.15443018775117978159 -0.098263292137646174318;0.12598443363717876098 -0.090905809411224308692 0.18520054242216121843 0.015917269921659808751 -0.29799211797872038332 -0.074109675157531473833 -0.047105586195269159855 -0.19761625665499774063 0.12113897339775646367 0.13921930277111510543 -0.31969134405074922656 0.31976339158628913628 0.033349054295661977043 0.095613626762096101674 0.21712216283766774816 -0.39845583516799942814 0.08329696955014352644 0.076039274338904783157 -0.55832430029602175825 -0.17328365353047645026 -0.091254540830094071913 0.063918990585433432816 0.075866637055238259069 0.072665843161780097059 -0.049189839319142301954 -0.0054444019675224317178 -0.050790243774926364939 -0.015859903832598939294 0.073051275410430133173 -0.18796078219345335736 0.069950236001031715349 0.035441812318529122838 0.25081140423685399643 -0.070395820027785771522 0.0023867720263344655365 0.052923007066128853471 -0.13428947933481713561 0.36284058804765578765 -0.083822046246853257334 0.33598653485731366786 0.2887613828283639994 -0.2095102486312179213 0.065026152344751286805 -0.051269108796701268194 0.024786861138951517269 -0.47211695344074183778 -0.034682285616600062872 -0.24971827849975336555 -0.036621775605768257245 0.31610179995412551746 -0.51172769142920437879 -0.30993091924169358098 0.49805110278583830663 -0.073064021399045220306 -0.11726546603475541952 0.25764781957712223903 0.2408181501687514936 0.29515206593769077736 0.022254535532376346768 0.30481264796846702092 -0.17393397308183991545 -0.48563214990995673404 -0.35997708596605426656 0.079000197790813533882 -0.0033895927763422984726 -0.54116861711856156791 0.40473271619415607248 -0.02193590382537340816 -0.20408119999834486991 0.21377333940636197851 -0.21219790617527731214 -0.49468377003674979253 -0.079690607916859307336 -0.17198666517248359376 0.41588176975454438367 -0.72381630709042843463 0.3606344104132204742 0.01211243687526425937 -0.033117288007352640999 0.12291862541734832615 0.24181670712368652509 -0.42012128612908872238 -0.17920996681510834025 -0.053002835796196079432 0.017512465280728636147 -0.51149457710580481518 -0.10615885911591391166 0.41172171569144849768 -0.22450055086191592069 -0.14752345641071579196 -0.16430388211340132831 -0.20406715966507096849 -0.072599988440704893433 0.52440594443922605716 -0.15810093950494050197 -0.030808840164940103773;-0.43106645482045574669 0.022824567481782079975 0.40008478272616387894 -0.11887410742533487118 0.049963891077243333116 0.023947912435181344104 0.026469236772010268366 0.077829430548235531417 -0.09608538370588494415 0.1863610396725814411 0.039310900848306712385 -0.14976394250714336609 0.12061773433570163738 0.14921945758579743813 -0.16355090073782732607 -0.14628691409403918322 -0.044655510348684562816 0.08402127427484358535 0.038103779033463625048 -0.020346401930976996952 -0.014087505152900692273 0.13096538705154270321 0.19092893461683840828 -0.016810513288633078394 0.2126284441265910985 0.026359784474336556831 0.030304350109343909658 0.0039872521620433233613 -0.02381086951878353189 -0.1840394404889955926 0.063649776594584345224 -0.20941989574369351823 -0.19260682500032233477 0.36596823190096222644 -0.1771994781745657721 -0.06357859611623274676 -0.33581645495523748668 -0.1891121145444966678 -0.4333855089956979989 -0.18440129122591764066 0.024270960254143082724 -0.1901209322878446295 -0.17280579355611788706 0.00046046252861987207496 -0.36979966827742444258 -0.089438385256354294151 0.25593652195161908924 0.20878129813740448073 -0.036370520053087301848 0.18839512944748801337 0.37002728806411133711 -0.43856548947258633397 0.36666605955235437309 -0.1665409985471657528 -0.18698885911570184426 -0.10383212327473394232 -0.0058211696463637621624 -0.27405836565301877616 0.12930478774854944901 0.046738492772214854099 -0.31741588907315959611 0.062621650027020234197 -0.11520857525200386973 0.11217496144534697122 -0.085750866274677928214 -0.10357183021046233173 0.056240239787212938094 0.036011785706800282514 -0.27638787019249144716 0.14457674656040270245 -0.01086404742348760083 0.15733192612172472447 0.013137393254954662231 0.30343796288663682503 0.11784581876623315133 0.12784963679160327166 0.1065459825606886457 0.16518221913398270506 -0.059469318788194919234 -0.31478868342714622086 0.34952638665368401805 0.053245344742077517497 -0.074115162788020577667 0.073629721173373380294 -0.17981296018517203827 -0.16040355283882976045 -0.10836091529093005992 -0.23721976071702896571 -0.55037884864730046708 0.31712882023570931889 -0.025279720134674072557 -0.10515923067435384297 0.22982863661494754015 -0.22295970667684564259 -0.22986589662788778354 -0.014369594178437203671;-0.077102894654853509904 0.35163137623680751354 0.11520383239831866184 -0.21990313417630266701 -0.019795515611334177364 0.085797418893740526324 -0.053982849715454049588 -0.16527524605021584603 -0.14149678883078448122 0.28555817698438690222 0.15647357024344177301 -0.19269835387138403715 0.0025669598005907800359 0.023640150698888171693 0.18891357761111063351 0.035865856882866704869 0.078698624795664542941 0.43630332357741208327 0.028709360502779883439 -0.096527594661587293179 0.74796151581615721859 -0.076724995549072125267 -0.40839029199044651897 0.54802720257564174755 0.092008055862105295186 0.32453549980735502123 0.2124060672897503943 0.17162535286104671495 -0.33467110423701756927 -0.53847467092177714321 -0.033477530004700745137 -0.023622575102940648883 0.21709854706044071082 0.51272922340100124394 -0.22756624669931171945 0.02259168619845283027 -0.42104427961509927059 -0.15929270595208261385 0.58036322396594730577 0.15874301779406127522 0.22762154645766405348 0.12204392528940402607 0.21387540865273124702 -0.12902959619675383185 0.38635995448531867957 0.30247673756893556085 -0.2076252636449631428 0.14667030886249438071 0.35931084901335769155 0.3944454812960259682 0.066632097087373276523 -0.52569884933519916981 -0.20887923757722282048 -0.048502639167574329582 0.024417850585424057813 -0.079561896361209458184 0.04929578975118135975 0.33016054620518464624 0.21142033384839842292 0.3492306985433221711 -0.41422550825143406028 -0.090198410104402729215 -0.061997995762947150089 -0.80240648141470483079 -0.18404248805410095002 0.060538535824318520651 0.24445462876552401243 -0.11408789977383762548 0.38434991633317677762 0.23060735025266013154 0.40251510218946146002 0.40448108263356907788 -0.038774150615592431479 -0.19945122707401050088 -0.4139268612750824361 0.20283382560940599326 0.30717307304613883367 0.048575839970964575232 0.17682311183669827126 -0.13584723535438772424 -0.07243936989162010065 -0.19660964981585590805 -0.34417803529761081816 0.10738273794750037571 -0.01112921355225733426 -0.23314486051568547587 0.21542256092921230337 0.055802422820864498731 0.10280607058334143011 -0.33489128366865472675 0.072872859348082602571 0.17792249830691148071 -0.3634947603377530756 0.016047540186423493724 0.63946138429479426613 0.66427574984339299302;-0.098100987537312098197 0.19181553337655704583 0.32367798909431189092 0.073970962664909975515 -0.0045198634916768336278 0.067031309850933737393 0.0015272690641928233016 -0.22413768629100741525 0.11593456477396806015 0.24340093684302616106 0.11126767990164344868 0.20498673107221043743 -0.14421952886574726516 0.26051529811669832393 -0.19388792892834746939 -0.14820091403672058794 -0.049123559559593472923 0.040458058602316590568 -0.079613921449917329776 -0.010994454141079787468 -0.051147283020708228518 0.1110333258420976299 -0.352687446600255472 -0.13847186741215977701 0.52846746938540622995 0.23736380521323624526 -0.10539166503457927937 -0.10971454731561075535 -0.25772622455934196539 0.060619970857253360763 0.35850339491670785153 -0.13137654242359333989 -0.42534853183743492888 0.14338476656462398329 -0.065066120375158062461 -0.052892772523045590571 0.23223078637326688423 0.057041849813303444061 -0.15042200989218726392 -0.30806828037409644816 -0.15588930146146801059 -0.30502965749494542758 -0.42676792268051400026 -0.38564602117920226965 -0.06238907048106033526 -0.31521733454766720506 -0.00021420672592750255973 0.0011488642494380226292 0.057220863253211719235 -0.16921149998970022588 -0.6974616012651307928 -0.45955454107811422038 -0.26705790634489273705 -0.3155918853701198401 0.0029856648122912922416 -0.18461966208908964227 0.49908338683799124968 0.03792359530095662512 -0.0054170941700560212503 0.33942448061802354964 -0.022582676638863555252 0.051714348261344300628 0.19303145786439310228 0.4563982940217451989 -0.049942561651976240256 0.5225864376070753492 0.27382311681591897656 0.011233197117268138229 0.76987529097538054401 -0.12615445601493147088 0.14567098969340774861 0.27325638576415439696 0.040678336886886094781 0.28658539553893497276 0.40012806180609727935 -0.022902175730323132141 -0.038409015167305340932 -0.089392923381769795466 -0.006858229084587148458 -0.13656374127936590779 -0.15499261154419038955 -0.15646379514464014981 0.3075752038004136435 0.21867741820174163569 -0.058786863345803831715 -0.29863505264344952783 0.48694972544493242417 -0.29180296877808697964 -0.11608078277605549111 -0.063686667163111845835 0.02796225822915138215 0.20292796520732692134 0.089609528193170820409 0.58543521688135591319 -0.12131526527631086854 -0.44442595229527570577;-0.075603799232095106331 -0.070241424071532027051 -0.044493090786332623043 -0.14363293263056339799 0.1019056695339873031 0.39350856784688326151 -0.1458346944636663145 0.11561549253717175179 -0.030261924191636289244 0.057775684718479901336 0.41133896526660851389 0.072014826537702136822 0.0071022110342011173997 0.32986833107302876433 -0.23381830878023240894 0.0040391461272081732176 0.22230699206872442386 0.022857033160375874598 0.15068475838666967048 0.40211279828291490723 -0.25434660785248452974 -0.19759690234660631791 0.38682432575247072126 -0.19955809558517384472 0.0193730900592034537 0.019564368329734720814 -0.016414464152941572739 -0.05092900319386738095 0.05980330297808270773 -0.088654280775229368783 0.34911848139857154516 -0.076105796189232632898 0.40224456230453570216 -0.14616084588329691929 0.22544219068758544755 -0.51279355231366541279 0.19561317269545094866 0.35542624849880677385 0.023049590808744069986 -0.00075777687245391850759 -0.36088509241581395726 -0.48714361786497306639 0.23019637357675531986 0.16881720421730628257 0.25146244849307741731 0.34336528868247301327 -0.061691942093034475569 -0.34887138778891746416 0.13608197862559170965 0.3692542383328802913 -0.14347675925249997464 0.028030228049453768252 0.2157322138253313093 0.61435011708633902039 0.031014673916729809666 -0.14016649605190603656 -0.1961918154155776195 -0.074871400707964497201 0.28959792143643398044 -0.42159987299888007639 -0.05767733422930720194 0.36100384347889130643 -0.48744999677553674244 0.053731125058617844326 0.17845387108589413905 -0.35744781546033649322 -0.19558645113788494796 0.28074244721070967801 0.44028725533799339953 -0.11392273715148650004 -0.35515561385631561064 -0.31255692199364071282 -0.20806600827442306434 0.11588435410141913195 -0.27185288190962314525 -0.06687258994534230061 0.062428474630695687808 -0.058127755086961815922 -0.057949619587704066792 0.11290956907700744338 0.14040412490445863813 -0.038782815687769152391 0.1028161649508598785 0.23879226975835168845 -0.046819370656460558566 0.30580763556594992014 0.062268907944500913321 0.14360885174000487252 0.2172633098510910743 0.17876854573174519314 0.40266947239619771404 0.36301871616501857343 0.14364058464252904557 -0.22491709240109294954 0.22032446722919390991 0.49560387070771794171;-0.28474131098998040068 -0.36902519504844472076 -0.055038367422848559485 0.065733639400460841529 0.1039333159871539819 0.27042667391775915275 0.16197201347235742896 0.03688781381159664946 -0.21934120024656988956 0.090765326195741097282 0.31242682395862209077 0.23708165929109795145 0.0036121463352772609223 0.28977789823824900983 0.30090111252179457813 -0.26704274587916798644 -0.15592493697827333743 0.012973057334079194508 -0.17749294286059280612 -0.14237299495250507753 -0.30179021878760586839 -0.17823776398935986531 0.15353842749805771128 -0.3373803859508998082 0.015215996280245404002 -0.3784601572834044303 -0.01395748419784269799 0.056333297704301427133 0.11690082113116437301 -0.12719957252517385959 -0.38694513322026219404 -0.3539059513361827447 -0.2518012756409387376 -0.086889923798634735586 -0.038028722559207014942 0.17426518391368397976 -0.22197873145208296686 0.31059783891523590205 0.4121011970987701889 -0.19143713208387763691 -0.027844985392518572381 0.041323174599041091748 -0.12296655486467029939 -0.33005968112630529321 -0.26121199124145882964 0.34567049656775566957 -0.062777432634764193664 0.17234023138936682695 -0.47037755944304177058 -0.13576073308479985613 -0.12910836770776201732 -0.042504988855233322154 0.15040663417903976651 0.14344985232965618005 0.41775264569537218229 -0.31613400877318870164 0.16779698000838907945 -0.2519730190621941035 -0.25670323683707996221 -0.46474713837669284766 -0.022611752977932449149 -0.22964531862584183775 -0.34338064487254843504 0.1677248808948914871 -0.38323933335632481834 0.27188115232168064139 -0.20071235256076411235 0.091512432897191200998 -0.57760439464453250391 0.091495725403466565684 -0.34416261961826005722 -0.12132516112365912542 0.13795986406645924238 0.18917390193885988414 0.73398034860348349007 0.17041047495163735848 0.34527801992501011563 0.18295482421214001589 -0.38776332689555337296 0.17706139192124994985 0.20187599100715900025 0.17248616086830681482 0.028055138908443712914 -0.15264994548873794811 -0.10129372689745151648 -0.43664787791220754931 0.31667805916337571359 -0.78764792746526479661 -0.059148412686931023385 0.042929797140988962267 0.13260358034411595662 -0.096197290266544124848 -0.13074905568505956754 -0.056177080612620992894 -0.49937177132437710059 -0.37377773203633468668;-0.30687982584276368714 -0.44157699934124822194 0.18800076719834171723 -0.1953447993585096798 0.005587758074988212649 0.35962571566868256623 0.032000953087730849012 0.074210198713313760277 0.62589182600296344727 -0.13375459443794066039 0.24679512163993636009 -0.20705502742704695596 -0.16473426496035806221 0.14410377014612490987 0.21440597455460080889 0.094403846655121761988 0.51256071701490479864 0.3078450450566204144 0.1597673929040756835 0.22938194953397231246 0.65710860256928527168 -0.40748362679762595295 0.15418988473863301514 0.29676412393477796803 0.21438147896281828375 0.11188392201229480083 -0.19943960253053996667 -0.10480568170429552244 0.1366913994442401914 -0.041626125046474386771 0.21390274617738802565 -0.043075535223546276842 -0.21695602517720749547 -0.1072334909142288184 -0.18308611099626939667 -0.36365499728843009297 -0.12864843272183348888 0.002016896914118872404 -0.17343785945195439036 -0.0059188980128475569137 0.082200714899583235407 0.078588690992035095673 0.64789193241978915161 0.023723094371169168443 0.1750994912670717496 0.043428228532843768384 0.15647727588505633278 0.076885892679702846908 -0.058867695029114659733 -0.010223180268022056053 -0.31126990347968613859 -0.30276788653678465835 0.090890634291483973772 0.41906818342028939739 0.052319828609831073307 0.069801822182057021715 0.17415351971755771432 -0.18239700659090996027 -0.024459960889528929023 0.25487764075310942458 -0.2390184400938640541 -0.17679639984177902834 -0.17282928754401793991 -0.25892786412663976181 0.087885431580539893903 0.035716470287182840171 -0.090061451830203989588 0.090529717250652660954 0.088579969960617885305 -0.10718845952955444178 -0.058160277972479343389 -0.49138651039959591049 0.11640814414192159065 -0.51963991614346172199 0.19135089694190396403 -0.15834836085142189877 -0.7243513515470756392 0.21608297274322044168 -0.37322241662603972134 -0.29657230744621027041 0.26335934603095612072 -0.36592646375451642893 0.040686831886274234249 0.15051356567489787563 -0.29746634072168220975 -0.21915024265077953647 1.0715531374131845865 0.16064220072041640597 -0.34189458043632892092 -0.3793510410082489015 0.018610107994069282483 -0.45803000817631367436 -0.75908821117358682429 0.10479784447932856406 -0.36204458348125068134 -0.35765623355499454039;-0.15079996923769994899 0.15315281496148469564 -0.11736465249013207368 0.035934364784048232477 -0.047053746776383381656 0.067465756235435131449 0.045227075077767776856 -0.003783610298300264449 0.34720252530984530015 -0.33278832402632829712 0.25129515889393599926 -0.048290885150613097054 0.12909642857061018328 -0.11406775228628371344 0.10400278124823617021 0.029542217426009816789 0.14208352100223425873 0.058702324531497637738 -0.1985495390719100306 -0.030063267072836900862 -0.43893740638240524854 0.20746206156004320942 -0.20183310535136120278 0.030275111165127557844 0.031332270803662236325 0.35629203085143240637 0.48202562962748835007 -0.003761272458508939983 -0.19164455306357264242 0.32807614910746629722 0.18667158827145374778 0.12847215270113190866 0.26063867914146537919 -0.20281304315480030986 -0.00081623945261270606545 -0.086747335808868189511 -0.32923176485075861253 -0.040474791855593300616 -0.4103905462616153077 -0.2812782559949593697 -0.0088670049075170159075 0.27496527947599558317 0.24841155619181967684 -0.22994403916465630533 0.30916280662551059999 0.12933539296894280834 -0.079398808998035794171 0.53448653661947442828 -0.19202341825983068602 0.027406388280742342844 0.76867557981607970152 -0.19481676967432765002 -0.25017819816197645055 0.31482575829761794139 0.1636982614554559623 -0.12860205273510003088 0.090367403710535976202 -0.10628858229092670584 -0.019342183624665592462 0.0023867506586846836021 -0.25209111841163017731 -0.30466858144671926656 -0.11121928617431479924 -0.37959593183386208803 -0.09505784817699997058 0.15193132610283688333 -0.53279458650840405554 0.0096109939712929887135 -0.11832345795464387084 0.066275467493630849103 -0.21200887714563138031 -0.26259255002011355762 -0.46681607791986867717 -0.13088597540900148708 -0.91534437399511869859 0.10071487758449508554 -0.15310572791697613093 -0.4721824983978528123 0.12020051179798993402 -0.37763218153924826836 -0.10140487882900507677 0.18955816328644295443 0.062716468499057154151 -0.27570614974907425854 0.30123350280376071098 -0.078824047628367643892 -0.5004345737587110321 0.049802519358987315523 -0.13822220780677280105 -0.088696963584333765596 -0.11450602361908157611 -0.15569351901659544968 -0.36238831209299082747 -0.085753664589910905125 0.060354271117590528595 -0.58913650587301258366;-0.28964994167543484105 -0.0067065326239973315284 0.15098431500017528428 0.15234780545822249054 -0.20188010370328218768 -0.11056186849266093353 -0.43376261676218075269 -0.14344475812400220294 -0.20717617433758167556 -0.35573926331099325893 -0.30151479969188887953 0.0037346442746797594778 0.26512732026301571997 -0.15987601588430275235 0.239629946889891976 0.32227338504661778851 0.26041979421044508802 0.46312877047106609796 0.018130719828588305609 0.29392435696636992626 0.17874739124105462618 0.14835086941614050726 0.21958847545595663875 -0.043462369572915139637 -0.08205669601664145052 0.023845984416328316197 -0.14971780371372528373 0.1662013945830984607 0.042923161697811532123 -0.14029574850121068197 0.10074585345546749338 0.05155079061111541433 0.30687287021728293368 0.12798020497463169498 -0.3130893529083840221 0.19108254741479047123 -0.49864576648086283983 -0.00052032294932899446696 -0.38502364251268261786 0.14642300511313180444 0.10531542757422754364 -0.039636841230290945082 0.33594057212064964979 -0.40070751398565018775 0.077661217492676015706 -0.01331434255833789139 0.21022767544499992853 -0.64321765424768329034 0.2621962279384872363 0.064982800727597989088 0.30488239952612167238 0.27504814200058286255 0.15758509991001415362 0.038054201562232041478 0.12574156682109388639 -0.05472720130341639927 0.092946556340288269404 -0.053678257283103825159 0.11033229039493182289 -0.059204483336097145363 -0.5751510960347968604 0.066466605229879516248 -0.15326342184581662198 -0.05015619754688235149 -0.068200363874181602064 0.10615510067097425062 0.1382723273714817902 -0.15365537572118756482 0.27583416271957306165 0.26692219424273044837 0.17102605488945157863 -0.32691814394041157632 -0.19758742623920477754 0.025107218910319570315 -0.17160098142865803927 -0.23701887084783143655 0.31680467105931953142 -0.40722333757313822211 0.19202077909742323869 0.032409090980398222448 0.1251241870522728783 0.071022398685539403496 -0.18361931248274818151 -0.23208121173427270767 -0.0089931802310523542565 0.14353233951284669057 -0.37402989946308290437 0.52719710878653902597 0.3111806279172922296 0.13976855722756403866 -0.24353915078021948215 -0.217426473410899046 0.061779172260281380036 -0.21958075422387107745 0.16361119463936854568 0.57158754646033593794;0.16117211168036327251 -0.26310569373837966456 -0.091033012125011983362 0.25546680005131477964 -0.17392417490076123032 -0.28979637886558329285 0.11562170350872053026 0.20276185500106128079 0.1877934422742457421 0.50760866336937549015 0.042813107960423209264 -0.49188083730996379206 0.10890654659452572717 -0.20355978641085034631 -0.29452559285926427357 0.1525124772379664595 -0.42771564445622450856 -0.026060006125654480019 -0.052283537554214491727 -0.20118523085658704397 -0.073580355794975141337 0.024937461941962849044 0.027727613855995092429 -0.17506903576282750734 0.19374383652145010792 0.27819116419387929229 0.14566595120114544937 -0.38010668731931024356 -0.0082997363403238405555 -0.39839608350748850762 0.1361168912901191963 0.12721159805798809561 0.26074393580122640079 -0.21565118612068626125 -0.065935005872884963618 -0.56654062774738533914 -0.52750522151901413359 -0.21289929779110158825 0.14716020293933484986 0.52186408168009856823 0.33295730311645704846 0.13661905255458103858 0.14814150089267563715 0.38156590831059855606 -0.75794188178344956697 -0.022270501006585275566 0.13443414426154434715 0.030191348638907898605 -0.21321889476661973206 0.14189915426327998071 0.022048674308190366333 -0.32248246889959097938 0.19010824682123914076 -0.31577281382320754322 -0.3933180443028598261 -0.2843830523865253368 -0.45639273422652393286 -0.60482343817770867211 -0.27540841102976881816 -0.67050902093348674349 -0.46943130739798066831 0.075411171729177467471 -0.57762149057912104411 -0.34821930388255889488 -0.26626321349442083619 -0.5463261514156519949 -0.10194919695749068977 0.11645877851226295319 -0.33196426183265470566 0.73592703331024544866 0.010784613894717579724 0.29491004692135058818 0.25585532181900894066 -0.17180045995162560035 0.17667691449595651632 -0.055065840803343320264 0.14373883682927718342 -0.17578046947099240649 0.42602106802106792793 0.089964589946917486452 -0.48819899866099436547 -0.21858079896994850322 -0.23757702969777694246 -0.51361620272101771167 -0.42244238558162383601 -0.29450907956499872142 -0.094185741445200643618 0.18960919576325119262 -0.067665268463309988234 -0.1640671491329904752 0.088029439298856121399 -0.13937468918371012649 -0.21434124339418925143 0.037585351022526074238 0.17793124018864958646 0.70506762780522447276;0.18682632291278403192 0.047284910830024728945 0.06575791754526444377 -0.093868555205096779193 0.14823972124769835279 0.091994287820734932382 -0.1803468920231712791 0.12331300136843317827 0.0055566481024552725337 -0.057832351433289047593 -0.2699250125797531541 0.034107876043128607102 0.061844237617817821029 0.19561645936731822393 -0.19344603319591141544 -0.11504214604694558421 0.27990189980436902539 0.21294176963415484272 0.065218671327463215159 0.074737171484345915617 -0.13412390110998131942 -0.57275875193316738709 0.13759479909963345801 0.18537292304720009994 -0.1586300435266029818 -0.088966746791945480743 -0.053372775083219782533 0.010247211166972164387 0.087076244644062772426 0.32229402597877182535 -0.24461450216916630351 -0.20659794679937620865 -0.048490483821980255585 -0.24065226215565896362 0.07752266547841724087 0.23141347426841990531 0.31021840414650231343 0.49601115849747412501 0.09826468976701285829 0.036625886753076868085 -0.19693445633803977057 0.19974241184521659975 -0.33366276601565725279 -0.025536707377679178366 -0.16271005832721971429 -0.88261504743418828234 0.38107795886800205354 0.16203255367087848748 -0.01397830032071274188 -0.2481283029854163269 -0.087020104780202639505 0.066207506563288914814 -0.21663606519685746354 -0.12357908479489082554 -0.15571382138458139677 -0.027893010010517405722 0.61024795962064126709 0.27320108259152059427 -0.061281364049534270411 0.0067824842745868836949 -0.25865951260727237937 0.069527747729471803262 0.045541132327571877403 0.21088250565889596344 -0.47255451292218936254 0.021402142292514178545 -0.30869611499099053331 -0.2141757624889110978 -0.42936770272263297121 0.1605056449100383531 0.089593352404206627604 -0.43455541213580506366 0.51765222259038368158 0.17738741651052936099 0.1267772532104787242 0.21771951751989684909 -0.55229898421245327 0.21137361152590944391 -0.665378318485556286 -0.011390884862999783173 0.34781440503639282635 -0.16524660817246542011 0.13643356700893058409 0.019580703819411071631 -0.053574453929162733912 0.41836188938539314863 0.42510250236918128985 0.0079838213915643801988 0.20873997301298652385 -0.36551254087142270865 0.38674208959128503205 0.094251260728698715852 0.37853736507833635194 0.045081507231359681243 0.11318429190040364685 0.29535471504577204271;0.055156975186781330434 -0.13976426452362269992 0.11417757632655702038 -0.27327220660504897287 -0.034416414531564715196 0.55160247177381360739 -0.21557062630517365154 0.13988821364001083336 0.41795498807136122199 0.40604647003392357885 -0.0090851847370169696444 0.14215283090614225237 -0.10440543516603686958 0.043737392870643071463 -0.18846306361089676384 -0.022256633253943728518 0.1953567836714282524 -0.14027539739665242924 0.1031807230906438555 -0.052647621415745964046 0.10332474909501818128 0.32251517524414907712 0.11891209689215809231 -0.058685882101400799193 -0.049317736259134090093 -0.28721714315240043369 -0.17686516545064787098 -0.25491364869090532563 -0.34291443291972600882 -0.4970262445450009392 0.15524532318599762459 -0.28453245075271454967 -0.13647749903685552075 0.25990067951578260663 0.13397094964510838921 -0.54294683847113645037 0.79084597348580565335 0.29073323495141056849 0.0070366864286847841808 0.41120385127789133017 0.26626217947403701958 0.3190930124840132831 -0.030184099750203530199 0.084802786291393095208 -0.072656478529978141268 -0.40171215889525124787 0.1686673270959135329 -0.097786594660752929054 0.11582124916938076054 -0.11491167714018765689 0.080422039236241082971 -0.18703558129790831543 -0.074973047871181211499 0.03184252380930666787 -0.2949802592160225001 -0.52184115027396604791 -0.25933708505284591705 -0.095275935397957187134 -0.42542490820237349736 -0.6650909652730482291 0.0072120469103847274078 0.25735504379153750776 -0.18179611840696735525 0.074584724265943758148 -0.1156042672540623234 0.35005597843441055295 0.067970231252691026835 -0.087992712449630111626 0.096228876668706594955 0.41446056856292484705 -0.033595274441720966718 -0.14396261592859632694 0.26469781618565435544 0.24638998749427956647 0.55714256821025642807 0.23757310687443813912 -0.061905833470174705113 0.15851604082656209349 -0.2733211132875671967 -0.30456690152427295937 0.032041034385112306115 0.41593254946201219102 -0.42960629203063749326 0.011498141872151684123 -0.030376027965499312333 -0.30033775535335005547 0.0018594866668029039463 0.1850566661143488445 0.082236810329906998018 -0.15321427569018250536 -0.0020726156171102815863 -0.12928244177644773738 -0.21579314150384962256 0.12058931930787650244 0.38909850445110621964 1.1822387321048852815;-0.63712072477151671102 -0.072784034787487669749 -0.06717043805097591691 -0.52152655454673535473 0.0054640330988000125265 -0.076477101419538159877 0.18924867913951406995 -0.24348489307708065521 0.27184220888559601503 0.015110859149285510092 -0.11527193082313488826 0.24534063673915307291 -0.21650101680046479613 0.046252249999944775039 0.17527977770627001242 -0.045255444813183665076 0.0092342647324572934425 -0.12092663969423332604 0.0044012736971053238039 0.026154255333177608284 0.21254361751676081882 0.060967311888054341595 -0.14905001901389036689 0.021696500647253539468 0.14125925216335724621 -0.0019224196395409521784 -0.28486458702447697844 -0.34219249723066391677 0.43950374210099263372 0.22229280439755436105 -0.0092355775689887068675 -0.069724684330266337162 -0.1125371873096369657 -0.014016432272582653173 0.038556263113744666804 0.33449985683227090316 0.26105546153426339995 -0.0076000810778850350774 0.19724716074035314461 -0.34793125740385033584 0.088369986242063491844 0.42524924494852239798 0.37243949323150005171 -0.14706418326607048619 0.038816616851717278269 0.055507424989630536893 0.016248621622810290738 -0.4051773947463786496 -0.25046594639276176242 0.19959812873975898984 0.12156854302234472442 0.070649727743871904018 0.22746672137201906505 -0.35087814185486476681 -0.058788407276877556462 0.32435304169597328761 -0.49161635363672023802 0.046538534958173616296 0.53366293628753880274 0.13119909974766488792 0.019558339922283653201 -0.016061211183215025333 -0.0052911834104939180212 -0.35704293916099216766 -0.45845478847386550436 -0.30423032453726545077 -0.34835103871788009045 -0.27021509990789405187 0.030091943948071703946 -0.70875573626702526031 0.14142991763015158591 -0.24559247018423724374 -0.22938829152914050336 0.022254785465891550184 -0.25146990021758564016 -0.30553929666168899715 0.046500230502802837595 0.40172415304586522877 -0.17617197057149824868 -0.28400074391103447002 -0.037125668780743220632 0.10442657213023923135 -0.15608117874236368539 -0.12553517283986292963 0.017813350277716775288 -0.20228379012309791185 -0.022456816133161982413 -0.089565615657900207736 -0.21735098773213779033 0.10641086790241502391 0.27842709259113546105 -0.17147430111630732052 -0.20614679881201852796 -0.39552261393038989912 -0.13216588133866052912 -0.51544536392654349832;-0.048795956368108357737 -0.11662342516537768655 -0.43173158359448471355 -0.10414519070344054053 -0.11411803214244997662 0.22612938515454075739 -0.12893793096896385975 -0.16418240475862705408 0.18425944348043252208 -0.067498600648577794514 0.087109645717018846511 -0.22816315523817728983 -0.25493973623488402902 0.090477768694183141607 -0.27704584841546869844 0.28329944221931585568 -0.25271218114142113276 0.33797378982084852472 -0.21565580666436601209 -0.23596702602903460444 0.086606333129859339182 -0.29056995139894359337 0.085938805140785237691 -0.043420388030946444058 -0.60545065636464800995 -0.22654017492739525474 -0.1614081031856114401 -0.62968962102497927358 0.12624422352643499545 -0.14069257886995645279 -0.23005006389742174711 -0.25949772274834337349 0.18335224078102069223 -0.22378873577176988663 0.12720698360571469632 -0.28914126426834607653 -0.11197318573039125034 0.069447813944300454403 0.095436299409629554713 -0.00054691374666314450728 -0.20777109749639513514 0.068885405283362510787 0.28589010830939814989 -0.24344587013311547175 0.003988437222552041958 -0.22748027707615706139 -0.1865498155359084087 -0.09874722845089596579 -0.23017570339341283936 0.13416574277760301426 0.44667964184879915823 0.27152510312593947095 -0.064280226926333366988 -0.0096058516090844758839 -0.53705555743990784912 -0.1913944892350074034 0.21124101673842729521 -0.32889369485107611268 -0.39372473060733687023 -0.35695193073517500482 0.41247546897007297817 -0.32478207068986830741 -0.21129680470747899679 0.15924910855155513523 -0.23330651484994202605 0.37426778085669676344 0.098682442410839676938 0.093652098837536820741 0.076636421776909963155 -0.46314604214589455422 -0.3133256408355902245 -0.39413267110347899314 -0.059289167378432920674 0.4127149436734074972 -0.16058548395343633097 0.36120895406620107115 -0.36070609319475666066 -0.07591797653273614499 0.31407089344774880013 -0.027380093335731488929 -0.22325415536359916047 0.3695519601997191983 0.29508428577036577289 0.10571650987281623613 0.074199915832237769986 -0.39825848182320455759 0.3639813718957535249 -0.065122890826930637798 -0.4094609581044400537 0.026168388986169383026 -0.05156508052243819612 0.084773941454468523804 0.27233739850300259233 -0.046566089675080114818 -0.045221615677988082072 -0.27297279326445295089;0.33180159661157498929 0.14605261963263646563 -0.21775234494424208775 0.41834774370496241591 -0.12477479799646774838 0.2726570718861070497 0.027865644026153640195 -0.19840133858490160979 0.21040309910084259437 0.081175734848965702684 -0.15201421996130745629 0.074056836611490067801 -0.042794284551532370264 0.36100146824059137218 0.35354978679465337565 -0.19064370671718725014 0.24091145596873717039 -0.24011412370981460862 -0.43804863981058500544 0.24708023521860633664 -0.014547091554808181876 -0.22484212577463905114 -0.27847243970378598998 0.39839965838158708511 0.41487665596386369415 0.32041070379327918349 0.027036763086102741371 0.097956822590635025949 0.050408119772789902746 -0.0047271986009216589511 -0.1439112460667380522 -0.36655848916354433209 -0.81247517808425739894 0.060556425511976479104 0.29247906156339736894 0.19549077100245823568 -0.30494609269729733292 0.50037294448451574702 0.015214315222034379554 -0.2371855605101579334 -0.1588260703920905681 0.10036652728963661729 0.11225347087058538953 0.075006376693570783742 -0.04359640581256998132 0.20630577933865160145 0.017767597576912121798 -0.23782515194641304368 -0.27625504423756086503 0.046349035135470700864 0.51353898129454167432 0.4260015332018073364 0.29522478841295440866 0.17019644429961483523 -0.17530175542878514983 0.10715362868492347981 0.73056153960143255244 -0.33714188546378526246 -0.31492720130996448846 -0.02556013616267677549 0.38235600221457505254 0.053823200754076462593 0.21241676395126957155 -0.092694923619033128825 -0.0099684717912466754008 0.088257734368905854661 -0.36764630427003314184 -0.0084720249276907938496 -0.34124745864436517584 0.24226992326348253948 -0.59539239426437451375 -0.4411121886059935493 0.39683021469231838374 0.38669151922655414788 -0.11725983324361062554 -0.054998239559637632223 0.20052540797693557684 0.15508063258539150908 0.32961588373407196828 0.084698155871214209078 0.071527789860418536372 0.74529503099011684686 -0.27621899608498950984 -0.18188366197235222854 0.074909617518481699805 -0.057936362219181775091 -0.34318855612244719699 0.16377157782816059717 0.43157952214470546304 0.21816198644249126803 -0.21934321754770741419 0.37328402743587374424 0.22070572841290911348 -0.32355712751255871762 0.16817817995587081015 -0.32916786493919064638;0.31104343613137069857 0.016915014717176178605 1.2082795358115876461 0.1855159244329956103 0.16030110390793636532 0.2602701299221026332 -0.13172220516042901228 0.016948032676641779093 0.096837129429589940965 -0.030611860811954341721 0.15701789740270385987 0.38571643126671251167 0.16262064369460346724 0.091690492570385445648 -0.0710108158396385164 0.2866027982441805011 -0.020900889031350511349 -0.090193126917442606461 0.23442381160268455087 -0.14889029873700374007 -0.34931429732649793563 0.034942857554934064757 0.14182099678944329324 -0.36387377477807114623 -0.51192791886017818825 -0.11766454248976844499 0.23255656494366869214 0.20642870935237236929 -0.28330726384173349208 -0.34811683645323243663 -0.36949018031663682926 -0.13307414082519475329 -0.10498714010613154068 -0.22291304032720091199 -0.37435009917786249423 0.29912534948247332389 0.15367524937413978847 -0.12290950486572575773 0.31166687686256577816 0.035420295193403200651 -0.00020006076868525412638 0.011167495029891482891 -0.16915663063166530566 0.03203715039235207479 -0.34161719410097940441 -0.14720715219836028043 -0.27730086301773659851 0.78258549825004131151 0.11907693735669844237 0.018792662515459235967 -0.32586626897148068815 -0.17612964784876336544 -0.23897704775767061869 0.19224032490071038537 0.50485649831081769179 -0.20542642656239831767 -0.10425385609321372038 0.45283375733318997902 -0.11726608664593925202 0.2950573422094688314 0.092863771432423164454 0.23818952296922230039 0.19724120431817437904 0.12620306497158803594 0.30475813747594265868 -0.1125975371415989662 0.080943624362227975522 0.16588609750966692991 -0.16176881434631434908 -0.48916242996484210481 0.007121393198593986909 0.45305767711351813132 -0.25206966038327327517 -0.01340072265274406052 -0.041857889945232769346 -0.26215608114221183866 0.34987692762044209083 0.55518286287526619205 -0.14962790956192831282 0.077465296495277891076 0.1557317675597533202 -0.016366366688451702144 0.65112367072652399536 0.39485854911647788601 -0.13335553864576885075 0.68745574816982268906 0.16665060218595401098 -0.21030587274025810962 -0.12166389409714088721 0.0017946292803604551799 0.073958632033487847757 0.012070904088230485773 -0.01363860618601410446 0.57586767926937165729 -0.371559520538207122 -0.28793220221897797284;0.11248477733017341051 0.31898125756043094192 -0.18326130162385520506 0.1602411991375636835 0.2770766538497008713 -0.056350703848379507521 0.47559934267375397754 0.44316797640522509472 -0.12491491563688600364 0.05195790030021543715 0.39641233741268749879 -0.25221020197781462979 0.071548670660814439604 -0.077009074904337004863 -0.28307885994194548207 0.19565069277945004722 -0.28101278845798105532 0.2402420051344925922 -0.24655747245474124441 0.29130862813228991515 -0.049673658468156384194 0.12081928118761704749 0.45099988076738056764 -0.35313508461136311478 -0.47943851170292867137 0.24459942567569287197 0.17234171637291154089 -0.13906431330209309549 -0.19220656146806200382 -0.054465313830130618333 0.26867423378603888517 0.12743905474065153616 -0.51542355232038872259 -0.34278901773360853644 0.034999388212397938847 -0.4726389268606576155 0.00030463704934429261268 -0.25148040447671055064 -0.2611244082563418667 0.14183254728575594994 -0.34224026254727601959 -0.15713590721549505758 -0.045594632040071712831 0.2253118338613883942 -0.17534633331505078413 -0.1273784794407155363 0.1108410254859174271 -0.24273331192632796594 0.26660406386321899852 0.1746945449900686731 0.29258913771267797133 -0.022469719645621416548 0.018094786308020329585 0.47768277833027966706 0.050184785275711372987 -0.1139366874144359526 0.27347497821757016379 0.076435439127612234134 0.37591467877989737101 -0.56391093882644394153 0.35041196586314837802 0.069518030530867538919 -0.21015634805740263102 -0.069847631126072201591 0.075420603905246477727 -0.40403799920522392997 -0.1590096333114214 -0.33526792852000725231 -0.31894264130765276333 -0.22681301757028701771 -0.37243144440808967355 0.018830620546456948439 0.056009235814501415196 -0.0052817373821562769998 0.04133798686501735653 0.14615317300666252898 0.061216939517649386626 -0.1202124778867351973 0.31887008395637667091 -0.11064979237396549427 -0.18333359335955684566 0.02394283672067315169 0.11545376113130670359 -0.72482368636708660592 0.098547109513345498844 0.20058055903832269773 -0.43034983490027639563 0.12449750314101977466 0.052967049142666637607 -0.11148122561043333212 0.18340213269339022961 0.02681452656060244813 -0.13484142508298010976 0.23525773515418135773 -0.10390852904457918704 0.10028990478409502418;-0.14217458365264223907 -0.14294259487185356772 0.22697390814363094247 0.3144627297691358625 0.06798610669070179191 -0.048145701748823314936 0.36316241320104786228 -0.13651329043001744767 0.092421696175961173814 0.43293774223870790108 -0.20798341437995365721 0.081405379236082486827 -0.12568646115077200531 0.24328779966779112698 -0.17493493688540462383 -0.29978672146934831622 0.01549643104432274314 -0.040259379369979406138 -0.27970575916924123039 -0.10960663130851849845 0.042261852641564470745 0.058844475428545026108 -0.24179402390429077796 -0.090683881884988368216 -0.053232868716987957747 0.21093397861700782792 0.34389804311324689845 0.29938966494009167096 -0.36107677011955158219 -0.037531019720272146278 -0.11170532838072540216 0.19744237528258262726 -0.1773131757818335319 -0.00066751817904110526646 0.17558610542853633762 -0.17231484509621275425 -0.23547322494513517332 -0.070516008957624859432 0.50534460894475508042 0.39930722843121929655 -0.049673164124618085502 0.0035773350250811975989 0.019160166917610830378 0.079626639568842957906 0.27164677787105118156 -0.33331191331633841513 -0.2141388417248105136 0.26827542211663951699 -0.15099896087001113409 -0.29700040691366441648 -0.051893424566244225615 -0.47338162524053140068 0.012473897202338438822 -0.10929378355700630765 -0.62828844711213993612 0.37869032340580499607 -0.041290852894554169739 -0.40892428996308083367 0.26497234358631860385 -0.084820258308835591587 0.020045410421133232071 0.36594666438252282381 0.19875566051873494455 -0.52327295040632082479 -0.21702372820009205312 0.19813095703891894783 0.1814065318428089435 0.26823487351798830369 0.6923866855423740363 0.010471119166941348852 -0.050326526699316934121 -0.6181542852773078689 -0.019735447872940910241 0.19596160324690301002 0.48833983033317768241 0.4260911701846890054 0.083174676426671631524 -0.64148479117201284705 0.050043704206281930391 0.10120644766648516366 -0.56343005142990232326 -0.38589902541091997135 0.2189280525237256303 -0.49001500560292532427 0.2829360982889888021 0.14446550967237778429 -0.24097033051102031975 0.28197849540565456117 -0.035673979758600871115 -0.80603283079307463943 0.28410913566370660233 0.2508958392956970318 0.023918243869810569546 0.38892258594588202669 0.24730231415315701016 -0.29678575770983572912;-0.064816133338393616681 -0.48193083787302964938 0.31249432553191741624 0.31528528082254653198 0.15599703011020504828 -0.11470665311394454 -0.11743985757624658683 0.17804638105038192442 -0.42876064183754214465 -0.70663633175417195353 -0.11312690988621744437 0.12645635451059653032 -0.4909215361785071452 -0.43623931947976496426 -0.0071240259678319603834 -0.26436696901106943036 0.21495445421379946738 0.58824671067045108952 -0.055304286285808121337 -0.10325675455639236888 0.043079061456949160891 0.39005061569460680593 0.07531282756818986901 -0.35673823114097386044 -0.35389547010717681275 0.12628575302948674697 0.44411642590749694781 0.079879446196537959302 0.18956868776353377748 0.019544081760243511847 -0.082525990113241035062 -0.14447380667529141629 -0.49262436249693419832 0.21216101691782454641 -0.35311683545896332959 0.17148057334963293097 -0.082041139843162233514 -0.2437885684890934157 0.44835731631315295376 0.27556444231192966932 0.57722630528467167021 0.13793659371773633882 0.38000903781490208422 -0.092631878680452445218 -0.5833268976097638614 0.43016315593829113073 -0.057233852854778943797 0.76440413997943590374 -0.21027046016605013823 0.41470114231479066058 0.4208034061789682756 -0.1401339986532893489 0.10941119836773238738 0.26019076172581401263 0.016992436986684580913 -0.10144101120743284628 -0.22427929907703531009 0.19046012501279471762 0.081091282117365354187 -0.22201420539096611284 -0.07739658560833036216 -0.18169952462636437818 -0.29782584453894378473 0.28436172483992444571 -0.024355989526969431397 -0.38669828859007482347 0.27288269592390518303 0.35227347586146584568 -0.62154044215396464512 0.027144667383719980197 -0.12763621564086211069 0.52567996899271840494 -0.16482599306698780817 -0.14441762315010911455 -0.91570395545956539962 -0.025594103213541320035 -0.27048997321715961828 -0.42578458783567479928 -0.38952506339261161461 -0.38603754184267963234 -0.0048726819577294949032 -0.09627579167717541242 0.11512902468830864267 0.17279827189673421795 -0.21259780914690970532 -0.4286158250468380948 0.35368161813458304232 -0.43693757508073366447 -0.036925121527069157401 0.1481398913198994638 0.057960261574831757614 0.51657533329510951781 0.0058198200938044380298 -0.3644169353096602948 -0.63907364765996654832 0.58236375070782608887;0.011124759018019342652 0.31988307945606614391 0.062794153701704727433 -0.097974649297570479134 0.083413636373902852461 -0.12544365491668379997 -0.01254781238186325823 0.10401882765520367724 -0.23441918995212721044 -0.15122299551522710992 0.10007594897567041736 -0.33899750122740679448 0.18378456443881152627 0.0091448096937461129108 0.3775099890107562195 -0.23314686637778628264 0.084609399021473796765 0.18835879404430194706 -0.32189408732251778567 -0.16725747724533587824 0.39602927967621798233 0.51849527665807504384 0.072063487048787511213 -0.12707962947082532268 0.21450418994012418472 0.046947700673714828912 -0.11358378072692310035 0.067618547892834071633 -0.12714021702553252036 -0.19547243383206022727 0.3758376950827878038 0.29800055201718378406 0.10819432953929784824 0.54686810297662402647 -0.20628285568292051289 0.32338878564329565091 0.18614739793298587522 -0.14947965435567930892 0.42185893833792281749 -0.051939512704892679129 -0.034535928520359873706 0.072992757249970521838 0.078725091048777937064 -0.21702292830219166442 -0.28444448261308857839 -0.3199159686328627572 -0.023625994993888128903 0.26501151728185007306 0.31914027153241558699 0.37743007596243227653 0.24490658952760993583 0.10329005172263200363 0.0079060494256078875375 0.071267519057144235184 0.48397534907996414555 0.19819551292014081501 -0.026316776693024828554 0.24869594099811292987 -0.10951372725900841709 0.36809464150153853312 0.19306054497659363989 0.06798244366219369228 0.26868916553478755516 0.31494681717862327286 0.20183643657314728759 0.18253209391460017974 0.373490582169392904 0.19134317021768398881 -0.57402871724302395595 -0.18967002396135435038 -0.33186170892882660421 -0.87965739620640026608 0.15302195518638234129 -0.17635634447972331484 0.49437150725712314392 0.028156830891854400106 -0.066991027062546990023 0.27847916707164843686 -0.12000159008153937767 0.1181490848002699906 -0.14809158360124791143 -0.41366897100965610568 0.43729236045910685471 -0.084072918935485921321 -0.2393489345046383443 0.19262805660828091758 0.17486940760710587006 -0.25498393147169406969 0.039028130077476949622 0.51867174570022656077 0.30430656880123946317 0.19885736568686171455 0.087724905769170857806 0.25930091914759073601 -0.32780869179250454737 0.12119732830260662726;0.19046928204590846123 0.17977462955207743067 0.096939472090846037777 -0.20397660950067544872 -0.067926517734466632104 0.14300903971774150958 -0.23435837281609120386 0.2589623674381695273 -0.3520051184418223067 0.36603366614797311351 0.29300772623383414262 -0.085582610633382308341 0.28460099824674794933 -0.091995958517743461891 0.036869592124658560894 0.33286308648606593996 -0.48645109330700336825 0.10301466509440583563 -0.32628847180140330142 -0.055859250347171700291 -0.54162629266649853221 0.43366918362288242594 0.61563593276100336826 -0.15044152553519593574 0.27962509136044749747 0.45516355907303496231 0.26399569360524138828 -0.0094860851533751615328 0.10705560777612330159 -0.40754048439870776965 0.0072642826489448236033 -0.080969124379740367581 -0.18842068027989367085 0.43010195179950516664 0.06516399020655340435 -0.40166614598766425814 0.13425034607046851254 -0.035309430183749851428 -0.061618137178379481234 0.45711963253244713989 0.027535651736517650218 -0.34527295504675348248 -0.16846252111942133789 0.26530896901960704382 0.28009282169935545426 -0.018798420479950082862 0.062246917873852170011 -0.53476887248263826891 -0.4637159241671081622 -0.043649271831083635842 -0.51649197098045063203 -0.06291848182980183668 0.075397162544401458151 -0.22722736527076889401 0.1428582880646646347 -0.43592109275521861989 0.017899610469836114285 0.58056230272090625366 -0.24898921360557946247 0.15372818334974752696 -0.0073988481166280426968 -0.63639401709277043651 0.13319633645617307005 -0.25772490205957820919 0.088872915364714741293 0.20901904920152006295 0.12954055445504059074 -0.17275272166088570525 0.9258175248749512809 -0.14597740469048714473 0.013770199244744716141 0.078057603261547994777 -0.14747349530022918485 0.31731688493672205453 -0.37042526161749839142 0.10301734124598785347 0.088413690020220730981 1.1631988979486018732 -0.31002980443269506639 0.23757449517027839914 0.51292980665265841544 0.038037065462682324857 0.19385514988078836329 0.36182407692246820741 -0.32554608719488659085 -0.18393952137214233944 0.15035350596233806875 -0.27592064088354018025 -0.19111719183213318751 -0.33683729124943245781 0.29975844038058946373 -0.045677194930390747907 0.34705464454888540482 0.39046715501673945337 -0.12983145995282563412 -0.97069517090009849181;0.23331500233850610559 -0.077063894126954954333 -0.21321372239673924698 -0.11646898338854475008 -0.03742289642330434013 -0.37050031085852769275 -0.021365641321048539636 -0.046926239232337255136 0.087326924327539509618 0.27420990442988407709 -0.20373769329438329301 -0.10424924915428648853 -0.24959821785942395977 -0.07486855623632208967 -0.065926278177863770202 -0.089286006963556693861 0.21063522709721946291 -0.39747452067409727583 -0.14394639213825377588 -0.067393134378265134865 -0.61484468456140795034 -0.08213263825364984505 -0.23141952549509403614 -0.027033271353450176455 -0.11945962071173979457 -0.23500623609203655229 0.013572700276878563522 -0.042966376546193355002 -0.29971951391762086114 0.20109039655160257376 0.098043640382331653793 -0.021765089447509867321 -0.2559525462917314198 0.32541539415348702535 -0.046904500975491224268 -0.15138067425780504793 -0.098812370125759538264 0.097985273509322318164 -0.22422326530044958681 0.27822223059017187063 0.091559540036632289239 0.11475889866027320918 0.53084436402867019034 0.1428078233620209414 0.11631666553191896685 0.26637039561506287155 0.13057898534233070009 -0.036231035651207194048 0.2176380961100532474 -0.38017298061771592765 0.39129395552479440124 0.28154056069005289897 -0.27689241144145554374 0.076824872622247963871 -0.38696664877223480028 -0.09565614675533613831 0.19641073284162194335 0.18332952505941046972 0.1443513128097705378 -0.28685923553378950279 -0.28843329862720690215 -0.062773698229163413242 -0.53467705978756219221 -0.20146440980048807567 -0.089752129124607490929 0.0029130366027259424304 0.037891691713268380037 -0.27623328046731182583 -0.052365466423996941125 0.1368839675670759648 0.067406602949158081484 0.072933201770290667643 -0.16727381695519732974 -0.19842555082310342485 -0.0076819850515130183588 -0.16060639169339244181 0.22141419102984746803 0.30624030386651562852 0.15750104230035869013 0.43125362096423758285 0.52603652240933729267 0.48877444774282369222 0.13048101892820690439 0.083781271320647138223 -0.24376203943018179277 0.021510676457932590561 0.090496868593999815755 0.53973775488287623059 0.10077963422844919694 0.01431290773339664868 0.36804044413047221074 0.090953860440463649151 -0.10937362730030586455 -0.17385997063237423887 -0.05757385578443472568 -0.10582452404897331466;-0.048215194735479270649 0.026067621841219173334 0.23237334431716019645 -0.12450876331946116038 0.0030158337429071506094 0.22815420595632587841 -0.19691120809333120811 -0.10119554668740475545 0.1065068106008597304 -0.018267145754545709158 0.17891646476987585479 0.28796445602400938535 -0.55682320455899569911 -0.16684524826001095876 -0.3281328603646915254 0.022782894200787690009 0.00075438471127884146848 -0.33712992958378479313 -0.48914842846597672565 -0.20122832272477825244 0.25837980978666885701 -0.183081776188508627 0.052428214972266198868 -0.047307577125549185593 -0.34120517274679451614 -0.23040104302075481435 -0.03102478680824047319 0.021121999680100922436 -0.074946136134001320461 -0.30283108484914250669 -0.11530904336299512003 0.81381271270593458222 0.17246802205593367296 -0.17088957227124976224 0.20828548772205596196 0.65063306973392631694 0.12919355631747489466 -0.25620803925704460635 -0.33921335728564533385 -0.041244666897931270277 0.053868315079634895848 -0.17386056774989669393 -0.033718584739443543952 -0.096241156170258065905 -0.051928333455826009013 -0.39431552108663525669 -0.1939754439922605489 -0.10439809016723847201 0.40540725424324486337 0.35327585829632396353 -0.16195608882721615474 -0.41390854009271921266 -0.24818557960358458847 -0.21112969008381507474 0.26440109346247431255 0.039557560283780490717 0.099949109410250799868 0.21543066020944090511 -0.068410577968566685381 -0.14252478061376838703 0.29980701748075339053 0.16219170217497014264 0.13633027067806771648 0.26697393166494420846 -0.075038075429246051118 0.39304723497137333821 1.2892787125258005076 -0.010322099527071814523 0.15525224466051587568 0.48031403108575210226 -0.036459552952815138527 0.23295644055614123102 0.35362089332121310337 0.055869925258193918471 0.35318347698554708458 0.13376629861668901111 -0.18888482178608997919 0.022567955558065320304 0.065300577894237446519 0.12177715210394793321 0.048573460934402207245 -0.10700830237768645115 -0.16869227803465292048 0.018370672337578705657 -0.029858121201307631642 -0.0046963161430029088522 0.55098728892641024579 -0.17721026974458020664 -0.089298544408172891851 0.083146453551521032344 0.55494219081827056428 0.19230026144444106739 -0.45420862471824197115 0.28001441214224764842 0.014380484062789388941 0.53817704510694863718;0.026140393133119544516 -0.17900165141830223781 -0.19304512176277680013 0.064881145182879046418 0.23101413384836219644 0.16063825928056446601 0.23063779047517549148 0.017729755455298479294 -0.013891599807671021344 -0.052901038509781145303 -0.34669984301634937385 0.13339493777770286553 -0.37216608508568344016 0.10245050149589549071 0.18677995018689499962 -0.31238738162677770482 0.27806699940894918921 -0.24515594304838247974 0.21518019787898759465 0.82794235876074162572 0.1587314266610713176 -0.070329791588773893363 -0.060809195773637025884 -0.0050907255379270934317 0.12118700843740713713 -0.23260450834623713767 0.11112245369275139395 0.28214097583318920037 0.15576713088690669062 0.51368910285660462911 0.12731586939777125855 0.031709362210814315275 -0.20322520969357166232 0.18254792966757582562 -0.080469899085034490849 0.50785476208663216102 -0.040159230424822889294 0.19334639528944741471 0.25507157079071451911 -0.22296811028118135312 -0.39228468859462484186 0.14431524750386581779 -0.054518633172963848477 0.23981531730338556674 -0.24019470105972745566 0.49464545683961658185 -0.10359920935410651954 -0.64718747671318299641 0.16703657935507254528 0.002734079092416088607 0.23552441934888862507 -0.14217659707923463452 -0.14291555527089139233 -0.10593916368858162513 0.14068941133544529687 0.18585008871213462567 0.23117222754643942939 -0.15163226372269061892 0.16390199721806353317 0.2209692868789294995 -0.28918270648348676222 0.080529060020198231507 0.35310928444392158942 0.3578439997067407452 0.012375624129886851274 0.14793054423319143553 -0.65430491220899911209 -0.48833653344147009978 -0.3400417169514806659 0.33613037422840380541 0.24378717065620558735 0.66439182653947759238 0.469134716399824514 0.09728654198679408116 0.24288279158873296582 -0.17682833868000624733 -0.36610292064157068381 0.047776721545302922034 0.029426170166557855806 -0.012909201035749716044 0.36421739082055210046 0.25305963143080056899 -0.24599349252906138608 0.5839793944798132852 -0.1981749141914618817 -0.26538296207676859151 9.0012718308763155911e-05 0.46202741562287752419 -0.56020284128040009897 -0.35061992426050186955 0.54723981876462524099 -0.030785718934312422679 -0.29809437622481482766 -0.085571971449466002757 0.32107403304196946436 0.0071173334301845078004;-0.15636026755992912807 0.24520538844193884298 0.45401446431211917032 -0.058259546904947542845 0.08952415180367805092 0.27267237133202565369 -0.1563855096080090934 0.17001385183341177765 -0.096720944313996332076 0.0050851909371253624023 -0.35639640263394245512 -0.15783451935534872912 0.30420145795826997182 -0.14732411832445752031 0.16369492226110060606 0.64051271323919622969 -0.16029477531677108204 -0.55574025545534078141 0.28804863839969641059 -0.040991452750853453468 -0.24608177857670887612 0.073029840566315659678 0.017251520331502973732 0.12172495501068343604 0.22300809516415887046 0.0094054328002419786137 0.17716382819335230181 0.29190733652638689577 -0.098396310924066032744 0.32113360208573793475 0.052370235050816719979 -0.49766147460991416729 -0.22165547611608690803 0.038409655328621318537 -0.96488512255149283536 -0.280601672620963416 0.2944878291572456952 0.20789994790894850141 0.031153354537838434668 0.033572997575755769706 0.20425091372519008082 0.31065714247175302276 0.15009245556559006052 0.41919897395557031983 -0.4128041242699763691 -0.49052331924920972162 -0.23492456673099026965 -0.42974386460528685161 -0.21204941996418905092 -0.41168468733330920717 0.34707992576698015741 -0.13530436718800631368 0.40903782556259604686 0.079609425657954938083 -0.48802384460574299574 0.049113576855046525704 0.026577085075184702506 0.45749793720637838002 -0.10306706867306442144 0.29071945834468426728 0.086056977068907275497 -0.23384496306502330909 -0.21818584728733772526 -0.086086340591368146202 0.68304613775927502939 0.25570490477615914759 0.5964683953370445435 0.12226852282720154785 0.59976856810259215891 -0.12989606389337685077 0.15007155102405017599 -0.17726862087111938671 0.2014373764067889927 0.18668124674606242919 -0.38925090347092017318 -0.1522624071544139146 0.12186027661657275467 -0.47624476572792751039 -0.73897065871316980346 0.31169420794575958267 0.23442541441437783623 0.21207146865887388509 -0.16447822335365902546 0.20115551857024663307 -0.057888547230501824492 -0.18019350326197358658 0.77312502212543798841 -0.53188517009373481592 0.25131621059119890749 -0.53862091139389112193 -0.30877844723602870802 0.31304152321036821105 -0.8156935524503199364 0.18486224457034289292 0.44344329781257374457 -0.76941739631230599006;-0.18902140206768053288 0.08680246938319192973 -0.54847802568349457442 -0.14588831529668369602 0.092755997694337788406 -0.56472305228864250193 -0.18327882115156662879 0.053520784263306982187 -0.20788306907490008979 -0.09111879530928791715 0.029400309565823776192 0.20905329324215307651 -0.1725604270715406785 0.060715296586814522517 0.1201649421038707144 -0.14560726633412393594 -0.023039764095454697002 -0.22022001055505588396 -0.06298286109431192048 -0.08216913037370361661 0.34692856739651423137 -0.1776482629532015467 -0.41733141559944969545 0.14064750695628053245 0.19076342074076160782 0.32385939966890481267 0.035774525072433040196 -0.12106241532099157321 0.25541796596340743397 0.1743650476100298552 -0.21469517358853146272 0.09900373724311187229 -0.24679741946337485636 0.33171244559141449537 0.023505943969689448159 0.05045685134844642844 0.13322981380963394571 -0.093432343579831836355 0.1777668587671156486 0.17954524029037116639 0.29174686502738134131 0.27252357439767360692 0.45035989206219934067 -0.3112414291355583007 0.18849159699775536181 0.25450764836337580466 -0.030307434088689209906 0.56748916486635625489 0.096025100022006135148 -0.22644451395723116938 -0.24441720253714935285 0.11246493684439794192 0.19939094213780633735 0.38125698677859315433 -0.12839204531570735934 -0.24716349923139810385 -0.052034223246124125528 -0.39319063474741244857 0.003435626670711554656 -0.28866155273749921628 -0.21282779092766726525 0.38597904959387824286 0.057833225190522627446 0.14694342064129536918 0.44090433760764369264 -0.16247359647146852879 0.12273217902568762938 -0.17458156671366500956 -0.10089397260304473758 -0.34167994951206326348 -0.42265497023733672455 0.10989056106242588162 -0.046725995224757489732 -0.14095747858517287954 -0.31876077708886529916 0.11560101059450920979 -0.24703045758032918244 -0.38956106007488849885 0.13989369376959218116 -0.13244144243080543943 -0.39793760089505270106 -0.035134332425264466759 -0.029655827574480191772 0.076972730230098374005 -1.1958766851065083525 -0.013307166310733082107 0.11514166485545859753 0.04114418998841514602 -0.04295316337600372375 -0.30081726997774993482 0.21172437614210831702 -0.52967687682818653805 -0.30498856536457424893 0.26731141294187854562 0.069241091663438475434 -0.87500953292005689832;0.11140803592482960427 0.17316263149089211604 -0.032280526242525038605 -0.10001045857003355855 -0.32481364861463235538 0.21373293443578106343 -0.24037740762380233051 -0.1080673452070538415 0.18977127500198665011 0.069029182936771654733 0.11264901674963413714 -0.32162026687185302221 0.12181993618626511811 -0.13822525817567082873 0.075684990187990658361 0.41349084860813284381 -0.13763381068916807903 0.37250885486748136488 0.053944690306210477115 -0.039092911212587684588 -0.30865471301590263753 -0.19650647225196712919 0.40898182238475327965 -0.1855008582914533799 -0.14181881358711800889 0.38663146203707388082 -0.096176682536614363506 -0.021174777232590733661 -0.045213994297394033417 0.048923721907191533576 -0.13541981504750119636 0.33991498719739854373 -0.095469598265165822593 -0.084292857000154416958 0.069773516966297341457 0.12566414682397997193 0.44730677457273798625 -0.031275411929572956293 0.095531806221303389171 -0.21452337954648398322 -0.0055445347674782530928 0.35339101825378282928 0.043219740770958199605 -0.17311292425983235144 0.11241540365188933126 -0.1365951014029107291 0.1560205266790319345 -0.11471081468576795059 -0.0088415711933861138722 0.17460629043896280788 -0.10737895795110571906 0.1721848741458451848 -0.11324501958870485108 0.48022443633848405087 0.42604195813458001219 0.26895199349529524957 0.52437704867922996232 0.042694589551229865376 0.47263987763630960215 -0.2671941392054831832 0.32422489589072334137 0.025811830025224646173 0.045056709762204494307 0.052026583508878100626 0.43618401954987567892 0.51195514471460046302 -0.066516296657310125529 -0.32307066496705794112 0.48505453662572112217 0.39551939642847888656 -0.10397160641976886664 0.0022118578167842316284 -0.30679994429036105963 -0.050971833563836457803 -0.10566942098991657928 -0.35539476021327515154 0.23023078366856125632 0.3529481386759050765 0.065046237313281018988 0.029775165866981062601 -0.39440904058809167498 0.17865701594578942135 0.050210138308583153466 -0.29937264654161116484 0.47259867844001945958 0.10450595656196835781 -0.10973013846883736266 0.045650361465520664095 -0.23086462984954417288 0.71421117531849853677 -0.020370521477568827307 -0.3399866289041920675 0.38224414492360037077 0.5004101025449320117 -0.44508904004916094443 -0.26511353010947380504;0.098776472136170384575 -0.11446082222617653956 -0.042984470424744236627 0.06283521085936663586 0.014588465386332672563 0.41325326495964104234 -0.14175132059882603053 0.50476716901075058264 -0.017394239378502616977 0.22544040903874709714 0.34618255130078251502 -0.0038175731291858368277 -0.0012937143753061434298 -0.15407312001538250867 0.10270888143435706608 -0.045578611061995240317 -0.059866644106012827098 0.11741233631528354142 -0.12989893276069552908 -0.13604718960449574405 -0.17795225122260702189 -0.1198763031827107528 -0.033095210354455097124 -0.11388180772975672883 0.055302464686516283887 -0.16159464613374485698 0.34656594714584204597 0.13580404896216455302 -0.052509323362253938761 0.22190632930127940359 -0.14284457318234197731 0.17348839100762314391 0.11347257070814070756 0.012496952597712348773 0.27616362684228679125 0.34659896190899791568 -0.24162021080527334993 -0.11309267454177143741 -0.16619656478133537636 0.30343760838270961155 -0.15533325854456478399 -0.80367519861864056274 -0.1104632322437866937 -0.048695567731460505378 -0.4584253380359546437 0.51557271748421229507 -0.19758220684215666019 -0.13421750803061233137 0.24186152519019929463 0.08322479009818484208 0.15318941589911910794 -0.37498154934949096129 -0.29603281066479947281 0.048215440795165515064 0.28049039806919351392 0.12965370460034023048 0.20939230677340828213 -0.5804163068047050178 -0.11969486999327393073 -0.012401603250116431665 0.54865587169691709679 -0.025665285682041582421 0.32121044146414917675 -0.016555058738145094627 0.018099930872867212722 0.038069832713053440576 -0.32160592002419585711 -0.35946176360366016711 -0.180258589296824423 -0.5715762979519577458 -0.011718509425455169576 1.1864718943017980024 0.046869032552947414993 -0.33440580735116531841 -0.20907846228360954521 -0.05155360820052028864 0.16143458938138430248 -0.12091240408894869673 0.090237940538168845417 0.1326072562432534796 -0.62086195910524366592 -0.15710287142742540567 -0.11458106218468430693 -0.14000587634633593348 -0.21522210020870558012 -0.29087897965428527458 0.45009905369923647322 -0.6070927752643023867 -0.38164857918278194404 0.50140807269324438877 0.067715208570884879991 0.0055801638373659187553 -0.13806264406690113566 -1.0190812532086179765 -0.49800279129500035769 -0.28293968534185737207;-0.30629823071688144775 0.1473966605057365209 -0.42034522255747713837 -0.042203510396634398572 -0.031580913077246607068 -0.49598340440514221417 -0.18209446771654838604 0.1322808368674561752 -0.20383822076034507909 0.028096677323993540787 -0.019566183703062008797 -0.24470724322026074504 -0.10761424965287037792 0.21908279984998815793 0.073575316148195624155 -0.093224807789071689745 0.25727168760350016541 -0.2264168613007705444 0.26959855124214338051 -0.042466801785318634976 -0.010088472936446079772 0.60376040919923412709 -0.046447109379828543929 0.00664578643434030579 -0.33691523956167834797 -0.25856917216544322846 0.42869715543075931352 0.31363506173049077175 -0.14086882644872861237 0.16783693098907351282 0.13803318627561272924 -0.025373055286276542664 0.34076077391128711813 -0.46920273161658443417 0.45084715291437166274 0.10236268484677596424 0.19009197597879057273 -0.083930728650052174866 0.089462220242774073697 -0.21574402916708546041 -0.35627715805489013068 -0.70983089443132418861 -0.036093825348165645139 -0.0040747736121747157173 0.032630330693852287183 0.14601315537414363832 -0.42007713945151409218 -0.35434591302494827803 0.26707268068722389565 0.019266820574200201749 0.32519722564454761615 -0.020556849819483521274 0.046261474653456112482 0.28236805979511397924 -0.1263604295968097091 0.11908896391980773599 0.14195728970295792837 0.1010193990671685027 -0.25861150981107389191 -0.010728727159088019202 -0.011485092249657956331 -0.064899112330521036007 -0.32477565785575274182 -0.21338448801987777714 0.14686982934014727875 -0.26284477026418534562 -0.34251635153469139894 -0.18216074325408282419 0.096572220547429657445 -0.36806710916076101903 0.26814553570773663749 0.2781918897562078441 0.072584100411756780069 0.05665367131944423762 1.1094516469693864735 -0.50863151193053179888 -0.11962110219198612837 -0.077689463212305145956 -0.23472338477495813258 0.34356150742442231882 0.38364219489924450412 -0.49457373036151153212 -0.27829854887017407838 -0.081818479632693716375 -0.55180627156079142814 -0.084978140440095217834 0.065663064665384421326 0.25880014322326400089 -0.12271192371339700866 0.20592720414574541832 -0.092212711813531827998 -0.34091202177221407998 -0.27696963216745490444 0.34490912847398952357 0.40603463157060992739 -0.33674996374653015652;-0.38988937140397195158 0.24351226527283290069 0.42768347724964023149 0.21234605993192792739 0.087809245249775680353 -0.27422321333931531928 0.37225427169694397245 0.072539045949530894797 -0.16940200008196357184 0.55125895698295368508 -0.036599909441823202938 -0.05319752534980673464 -0.15685607815266941478 0.019276358345935218352 -0.29868325286212860092 0.068345419951963110039 0.068124450718178602981 0.23790074970950111921 -0.5192393344604152583 -0.24589520126443228931 -0.20059637121401377446 -0.16372924614064432447 0.17641154061821889831 -0.23832618561996551931 -0.32920496542659988259 -0.043203029735080548945 0.15503583799023845646 -0.071604651355846773986 0.17800490169540258978 0.13163490191722865275 0.02772811118770260666 0.29040658965865756569 -0.055256954432552268797 -0.32219465776809369517 -0.15557233153172686513 -0.15251813416696249903 0.3104635029875458252 -0.24266549307131399238 -0.43563707805600154765 -0.11837241841602055836 -0.30966500363306537214 0.39095836127415833916 -0.59506216121445953959 0.042534851047366664667 -0.49752251549792614327 -0.22246926336695138637 -0.062467989599990357552 0.10448354942970346226 0.13388303524795511223 -0.024826134633967374826 0.094466297134579005346 -0.42987905070153964449 0.1896628224280274555 -0.29479396534347757086 0.060279296451800530587 0.25131917538896936248 -0.065428529366564458503 0.087318114975406396772 -0.2438749752156325612 -0.013298461925935084818 -0.082726836135142117756 -0.12265334244165819466 0.1506219249624609624 0.38598000143423488728 0.36899387587151777357 0.050660234534594360267 -0.40506193743680435349 0.29174062227015234994 -0.034999463202342949442 -0.36774601668277617783 -0.030313211290499641332 -0.045895452769357490685 0.16449546481557511535 -0.34101778706062063629 0.8781067764623300409 -0.11678592605079765598 -0.043664429399799316311 -0.22859289839637381148 -0.16432278916272952118 0.20782370924054832662 0.24791922366988777826 -0.24237244906173904813 -0.078222470871096988487 -0.12287368298144124568 -0.36069013418270584603 -0.00035272562731462805399 -0.14922310566794239062 -0.12843042680262486965 0.0084351275485627201511 0.57632780076307044137 -0.17055982905135003147 -0.47370203436756885829 -0.045262784474875611407 0.082154703757237879103 -0.24655191303970125372 0.78025461749914171161;0.066819723200831765419 0.45490789952161231335 0.22775038258546587144 0.26503418430520875315 -0.091247327291032492846 0.079921606785701690412 -0.057079229688189021819 -0.1439259993150783512 0.038640700043395398433 0.14825428136007012814 -0.10159565868918454812 0.19860597268326332654 0.047036742317896458598 0.090276242753328864166 0.41735891509872508065 -0.18769263618674481009 0.60638728447239931274 -0.2516531071130893582 -0.092553535287169308443 0.11988790928980697092 -0.48105497823497100907 -0.1041587010175745176 0.31363706064975060972 0.31612913667687875252 0.11417451250901200499 -0.22192689645369534368 -0.26413758234479361997 0.21891948594040014364 -0.2046147168314620679 -0.18501388112751607218 0.10827806104423225164 -0.44063061541298786938 0.36036959731432699483 0.10191352365194256135 -0.16841144833385821022 -0.20013895868616154994 0.15821948869005289517 0.0064415583639565307181 0.46770062051028532535 -0.14178117065375930861 -0.089458082059413801534 0.013287813208016044375 -0.0014953243303570330942 -0.064228854987212119498 -0.47126000717321536726 0.082336485770803713446 0.29276024090983465697 -0.11136075909505926962 -0.43111780666353283209 -0.089503329665627046063 0.35841444506033426354 -0.11468631276613941439 -0.052553044294114753532 0.42830440359948102058 -0.20243391176694255917 -0.079610097780074356999 -0.18679703977903763801 -0.36142900171537556409 0.2283997500659420421 0.085769397938234112622 -0.37921808729050349163 0.42730231513623484485 -0.030452554164667175463 0.16475076913709832405 0.06792683325539104755 0.21912410896453091147 -0.6766410163141746148 -0.23823972437103799193 -0.1364303695521443538 0.2089252775617014557 0.31099592521734176209 -0.11793249764951389824 -0.18308858184147153159 0.59060906558311787595 -0.3288555796407551246 -0.09267947517051976225 0.19438928065359684094 -0.3755606370150189055 -0.090615475833624628543 -0.15659977681775102965 0.42544270232376130148 0.1110060055660381656 -0.18320924418521958299 0.23228110299235868452 -0.19862222559076672668 0.21727511079088251966 0.17882417483960613702 -0.2833501148518598467 -0.28890757388968907327 0.41703029746187442184 0.034716373863659139021 -0.29170308478025314125 0.41748985415242012564 0.29843400695580346582 -0.10248275576680086763 0.8638273338298567694;-0.12654071317279130815 0.20481072985747350579 0.43476809211980688152 -0.13458758466591463909 0.20851057580950121961 0.017390505241669775016 -0.19406512675292492132 0.36875721108173925566 -0.00060999505893793927631 0.13800394716850575283 -0.18836439623358475215 -0.34402906482480560824 -0.34679445051737711747 0.059834143673023774956 -0.056287785896639797034 -0.092085038025368451398 0.26822372590584220298 -0.48611174907804666212 0.41227050688514993437 0.11349097501626027873 0.045911225017973740503 0.16489889119051459598 0.069348473591759121626 -0.15125245895452821276 0.26210482100109505632 -0.13105031596421057305 -0.030009989082705978286 -0.10532058053421593236 -0.16578893231450281265 -0.61158420665572565955 -0.11409227977669843257 -0.027664757914142794337 0.080399461532514149287 0.48211852717583758565 0.034070198240597468486 0.26024959411975534529 -0.41475780665877759468 0.12897115538511857991 0.022230116511350012098 0.061088614184663367346 -0.1801985580794918107 0.40935341210906300846 0.23812355127705403524 -0.086006619735611147815 -0.085529707457257200809 0.16242304376722532799 0.1131455605805654907 -0.24978018970135143495 -0.14327050495575563427 -0.61350369132004756167 0.0025461468926930141271 -0.011096091921764956664 -0.094418607418018801747 -0.26395742671125893564 -0.44222318289993950424 0.065066331306970537351 -0.16887409027124039573 0.40395677910751309758 -0.16899464687207707558 0.37129098603094851105 -0.28785400412116801672 -0.30651722566100109146 0.021915694981481614184 -0.21032436013388849938 -0.38317375049088925332 -0.36221373768347259192 0.19813155703110757466 0.25209842604062521199 0.091723204232067437336 -0.3180907607416694205 -0.050729266715577592262 -0.52603793087398820205 0.10959411395732521211 -0.21370550562471513079 -0.10149306738842943376 0.12159613248736536595 -0.086567980555327037062 -0.74086496870774198875 0.20464928133693066625 0.29276353667176979734 0.08812823907729190609 -0.095076071966539221769 0.49555044126313729791 0.39729957353073591664 -0.27944592169617377131 0.0086121184728188797386 0.044272103046260696813 -0.20785928726214583651 -0.52016700470519183774 -0.42080727783179106005 -0.11211289475858247922 0.058276084574325884291 -0.1670738787230124367 0.12884485452675698003 -0.33499479977685564513 -0.97005999994026970157;0.63507510962247182285 0.41667846736940900021 -0.25775306128065500477 -0.046699391323703993983 0.054049486757777175094 -0.25278931298633650071 -0.14355084289388372887 -0.041800026608430414232 0.034821303609769531373 -0.050251801998889469858 -0.5231175483721799413 -0.42015813081314284938 -0.31380789998316532818 -0.16979991158666501994 -0.42124172488183497798 -0.043461664644018321857 -0.042149366510128669083 0.097865046956863016581 0.102134199700148115 -0.16006855514142043218 -0.10251346355451612657 0.15813698698238562446 0.28464371122314174878 0.33433066620483958831 0.028715808081357641762 -0.15277365551401630994 -0.17149622067836872708 0.30727537061561788212 0.42419132803881443028 -0.073350210005142954528 -0.31786482876246441309 0.10811588221715560942 0.068240168110835650039 -0.22664954145569685129 0.073527154680343195792 -0.41344950906359451137 0.19960456042632401807 0.13414626323687398046 -0.039918266161749219045 -0.023656754031505928398 -0.034676043476401442744 0.58524403881284958739 -0.22932763535406086586 0.11879962879434277645 -0.28387665394228517313 0.073171007344406319151 -0.017778497404622541078 0.401770419604585316 0.52107922621718327783 0.25758402218384723881 0.28617866695433330504 0.076337372674215406287 -0.28143692397079361767 -0.039324072848917958345 -0.13531293603615765497 0.41164627300862377535 -0.26247064636793387971 -0.099471219926505982656 0.19199421212788475577 -0.43704806028710174726 0.37545840871096108904 0.36266104773978774523 -0.25360198039465076114 0.031505397937082429971 0.29350078365193005281 0.038599106239555362741 -0.25282267242957973119 0.02593420669736056991 -0.55247638201511706235 0.13794681357686089385 -0.34555089999519361665 0.50050926832802389299 0.39617243849771682784 -0.41896468912632167658 0.9002462619519316922 -0.052705181387854051211 -0.087003805775798387367 0.48978415398048347207 0.30317358142948358513 0.0078600999813232732411 -0.12781336505064058717 0.30197191756367769422 0.044912089663350356072 -0.027446235972897900512 0.10120907078856161698 0.24198250444611538179 -0.3881478273434898485 -0.080828058896637952624 -0.15806590841664483471 0.2377885340564100114 -0.28615465779709536864 0.082854371815158728287 0.13740674746081216195 -0.59831966558779081655 0.19251823814821023007 0.85020241248406525081;0.13614757323631115904 -0.43167021615408845969 -0.35628525101392560792 0.13382528653320821532 -0.086587614960965994526 0.12753500819878529904 -0.26341443400233660599 0.20206298862878180334 0.080411001589252434352 0.0029505389271033926994 0.33324452666506176879 -0.25849847813915410866 -0.30251344233377330806 0.39372414294070129381 0.4610977312567758335 -0.083014028008111195867 -0.17240050696291830956 -0.19232900125501323219 0.32923243067776303272 0.061912400219559245163 0.18084395279320306105 -0.0030227181147555988797 -0.23642144824930103053 -0.012000561298100164212 -0.27562676770023636363 -0.089752508361559957262 0.086777795631591922443 0.1682507558360000488 0.20907753722904362514 -0.066185178698685037668 -0.29488219985605973461 -0.0260831230777977853 -0.24906384411091325726 -0.43586819934462095461 0.43004592869526531151 -0.42496149558585155637 -0.46166206559941708187 0.030450323447123461146 0.23480897182521281996 -0.19168011925425637587 -0.20913038804719977226 0.016465487158814250818 0.28443780154813264049 0.0012763188271180064912 0.1015340050011437345 -0.24328050716882099191 -0.44371729744390814298 0.29598774931336763183 -0.37630981853150974326 0.20771194027134073923 -0.81660999753343022078 0.044732699101470992098 0.45135132108461401002 0.21061513584981919611 0.10879330938197227796 0.31482144814248053111 -0.44490359285036995551 0.039773420604084099017 -0.036234418020620710876 0.0092854242840592383923 0.24263230357689657968 0.1995160641628807574 -0.2587081496264985736 0.25129536506115635053 0.5856475695146252658 -0.20633690552752539937 0.14295053427814086167 -0.07244748775069834168 0.24743084863547615271 -0.21444682742414503118 -0.50823121424914563526 -0.1304621395120132421 0.4443982964780537892 0.12588183894584434319 1.0302100161026108704 0.077371225245183139485 -0.0080197406313675667633 -0.22614778918214589742 0.24435077801322793722 -0.10321674866493377176 -0.67207007006307228902 0.18694641511473722439 -0.048633037404909443269 -0.190778503371575342 0.026492801039818790476 -0.40615279270659843114 -0.14350056722637968831 0.092038345219921394169 -0.49111087872691738809 0.33593602766528984915 -0.049673861309254455088 -0.29099186503717083818 -0.11544658335200361221 0.17169473264487711273 -0.16351384082623565686 -0.649039846820270383;0.21514860251949441405 0.28324748248188602595 0.25601729622264951525 0.15364052622370955037 0.23763930077361489213 0.20431120608044120446 -0.1383696934040944404 0.17972983223727537205 -0.19051243052644314946 -0.31162681877082987203 -0.029304587926441361123 -0.023042427459429502129 -0.28629290029938431195 -0.022616963521321239994 -0.14033806488154834669 -0.30030191298662228805 -0.048149661884480103591 0.14963196522165189695 0.26918102565148999128 0.24028397981115581783 -0.10727785455885104071 0.14008603039418579539 0.14408535855915846624 -0.057165777670414488765 0.25270914192388921338 -0.011870886310817622272 0.084450964520028953819 -0.069783855758614080078 0.093813308529367922528 -0.3442023501341351932 -0.26259835707919987335 0.22707586197979401366 0.2641017979552583439 -0.41376294308822919588 -0.227821062083218423 -0.097138852213786319734 0.15890182673700870009 0.04056638256501674672 -0.42845659495182852883 0.5231665100168689797 