function [Y,Xf,Af] = MLP_PreTrained_9DoF_02042022_AM2(X,~,~)
%MLP_PRETRAINED_9DOF_02042022_AM2 neural network simulation function.
%
% Auto-generated by MATLAB, 04-Feb-2022 11:45:49.
% 
% [Y] = MLP_PreTrained_9DoF_02042022_AM2(X,~,~) takes these arguments:
% 
%   X = 1xTS cell, 1 inputs over TS timesteps
%   Each X{1,ts} = 96xQ matrix, input #1 at timestep ts.
% 
% and returns:
%   Y = 1xTS cell of 1 outputs over TS timesteps.
%   Each Y{1,ts} = 9xQ matrix, output #1 at timestep ts.
% 
% where Q is number of samples (or series) and TS is the number of timesteps.

%#ok<*RPMT0>

% ===== NEURAL NETWORK CONSTANTS =====

% Input 1
x1_step1.xoffset = [-1.3060035679629;-1.50645236210957;-1.61768064193578;-1.16817017157525;-1.35030944268041;-1.28811476611488;-1.09315718878103;-1.33001417760446;-1.02972343013767;-1.10561529860554;-1.27085872648302;-0.966534283115403;-1.10082202926834;-1.29552665281396;-1.11767315468793;-1.40702390244778;-1.28930282595035;-1.27241634832248;-1.11685629135428;-1.31755043619044;-1.36592022703223;-1.48616919860722;-1.97172681736952;-1.61994753132383;-1.27677747648586;-1.49718715105421;-1.32809747379852;-1.41125707263672;-1.49036843390449;-1.01671472878367;-1.02908962347308;-1.57918211023182;-0.928992461371181;-0.978916323114317;-1.1137286232681;-0.97388241053299;-0.811062623851086;-1.0562778198112;-0.667541191843699;-0.928969125108238;-1.50656922178246;-1.34345661942716;-1.10454443881619;-1.35301448859531;-1.21032024201672;-1.62222972482417;-1.67175436571034;-1.75582789183061;-1.46556023731464;-1.70458493735482;-1.45807894679295;-1.05667658276963;-1.73815215505452;-1.04313379675605;-1.24873930203184;-1.49415037325981;-1.06101310422421;-1.01055319114102;-1.55268863236242;-0.870006855072714;-1.15208182874554;-1.53644311665969;-0.995821092285474;-1.30129172067844;-1.64349183398312;-1.5104660278737;-1.25158894828227;-1.67383047866895;-1.6940130295376;-1.36644151197301;-1.79702823594394;-1.62353377779814;-0.951332954235844;-1.50717950005126;-1.34220987191992;-1.65043635049904;-1.5434674152077;-1.42925659640613;-1.39791907541248;-1.63543108631354;-1.24928710664127;-1.24916206478434;-1.71062529256416;-1.19200630181164;-1.28894139949919;-1.55082347239594;-1.23848264347329;-1.39616291626555;-1.58467380960645;-1.3956688762801;-1.35973140502322;-1.62375163020004;-1.53101278726467;-1.41856374260905;-1.41257872210248;-1.29523956603109];
x1_step1.gain = [0.504300586825365;0.423302440880965;0.713160462015572;0.636774501696887;0.483480205885934;0.728111761545228;0.750729266458234;0.531750245603661;0.880377112813569;0.777291496803858;0.48574214858619;0.983889806152895;0.826958011517414;0.579997182512607;1.13715082374183;0.647046105013391;0.531417429290287;1.0426970194995;0.692798981363614;0.566021852124376;1.00410277556624;0.607065799379719;0.448515481542389;0.630962816835695;0.623802172948205;0.472528804937289;0.851098193088315;0.586445789737374;0.472220278431456;0.95467150238373;0.819112319548722;0.579377207183547;1.11631955256049;0.989082506612732;0.594546874001714;1.0052246003368;0.911037682486305;0.640491532970999;1.18237310107802;0.848519362769646;0.61219005766534;1.03597084563744;0.687177910819778;0.572075342960858;0.968242099518848;0.540684504512892;0.50691533391229;0.67547974254046;0.666249805176509;0.480167982783461;0.884381854534054;0.840021346079064;0.523339981772081;0.915691009418307;0.735221275625378;0.648215173111332;0.900775057269067;0.843705333863273;0.486158766331566;0.894045648587947;0.907396953588208;0.494834793020217;1.1485552096468;0.608630864956359;0.591801300945982;0.855666212998748;0.521361015721364;0.481302169432612;0.615392161360219;0.481816875084521;0.378229170552815;0.521859307305869;0.773357389227817;0.635095797208493;0.877908208249335;0.720356561504503;0.624483455841554;0.721746724022397;0.733752983644643;0.610343031284214;0.786981571757519;0.737803109673843;0.531636249642042;0.754510930301978;0.75663395954682;0.549252539285284;0.819519602419994;0.602752424948737;0.562324719952003;0.615592504877032;0.521022352511267;0.526980287201937;0.469091432724806;0.520085883893653;0.413688531730598;0.458553687691212];
x1_step1.ymin = -1;

% Layer 1
b1 = [1.4012878039794303131;-1.314567574729015087;-1.1344289185223459526;1.1894151757730480057;-1.0761353365170311935;-1.2134911081363264351;-1.0784511784972166115;0.91375208682081132672;-1.0313964571266935888;0.88462346833907035126;-0.86577990396432491504;0.95233666522998150494;-0.84312442267907738991;0.7007480870990538957;-0.65814993980721103739;-0.79543076003286972142;-0.58105661852480894325;0.87655007257332284709;-0.59701917046730912375;-0.57213117006884695037;0.47731209999432139268;0.33586458511865407983;0.36326747952702831412;-0.45699360063506977436;-0.31486590317257995286;-0.22143655726853850307;0.27960547334007435083;-0.15102491861598191236;-0.16223327312591476201;-0.00088135070853761631089;-0.35150213417099251956;-0.14607609711473104608;-0.073723532518779097411;-0.036978497320881660582;-0.15182916635190474297;0.007929392087899764241;0.13106947640186497606;-0.1786470751664094303;-0.17689208214842938593;-0.46924369365050949687;-0.29320818519326063978;-0.27917249810670291543;0.4720115517313014375;-0.50979092445784246479;0.58600276885447144526;0.49815993128051155869;-0.64720594550519094934;0.77015237575965278527;-0.69546590494295223994;-0.6895491363299325327;0.78911557273948340629;-0.93706960310091047539;-0.75587788168248337684;-0.85619882678488390404;-0.94335104976213912664;-1.0348835934996487573;-1.0459339303910644148;-0.91034258859528038865;1.2417569863196105118;1.2757049654217385015;1.1458923605023405567;-1.3095885756513609977;1.3152155121329276444;1.3899958425874034962];
IW1_1 = [-0.19455170556428630357 0.11751051805413255391 0.0017827016673532321712 -0.21037916359673689004 -0.17928426442821057685 -0.12158004010214609747 0.2033802080101304588 -0.14884866598113233316 0.080988687885687721257 0.070391658557214589753 -0.040765262635440141503 -0.020851357297340732816 0.032809886402438516451 -0.21639375662144300083 -0.18635140957713508536 -0.24973084137777754044 0.020551850375402545834 0.27819300011618985913 -0.05273218984965821754 -0.17336038467721506806 0.14896723592697239114 0.15555660046096272953 -0.030563032430537394324 0.26040640115309282576 -0.12683756304760560041 -0.067272659718433477916 -0.03001583358061752152 -0.071023780849850795538 0.075548762333482635811 0.22308099515236790022 0.074574086845077824925 0.24851724628192436994 -0.10334961723211666396 -0.19385734300509904759 0.19969555651987316858 0.029588916556180986511 -0.15578661116102321404 0.21699395402235988062 -0.13797131199773615684 0.06783551234345279457 -0.087823055023535809283 0.23495310055897078438 -0.1331293376047663346 0.19945184997404394323 -0.15529025616523739473 0.14548888381049335239 0.10432790205218769874 0.050730507653112884292 0.14023771742179849675 -0.083095300115325620993 0.01324613009777352024 -0.051282469429641479308 0.10110747786392765279 0.25464912708807857511 -0.038526784438633998597 -0.10825035133829051526 0.23745967431911679801 -0.11623005531715840943 -0.24494340629840924417 -0.01936090280083486645 0.034756951395365116853 -0.21691693395233974107 -0.10624775724358019591 0.058651865149543007394 0.157916257702873708 -0.075123981988497706697 0.01409431449820971842 -0.1111187127832092697 0.0045763631624263605147 -0.20682634432517496559 0.1659620635686421819 0.16990621321051738168 -0.0098727513067278747927 0.2430840869338616872 0.10358832755114412427 0.15844436330831529469 0.04052435905301670499 0.073610598263156121202 -0.23348737006161157659 -0.20564826484171316867 -0.015443151500006614685 0.042514904078499879403 0.072183066314829069654 0.2579570850301913798 -0.14878628711841579424 -0.22200468850060309234 -0.17082281200028218149 0.079528661174872186668 -0.21334049309775410252 -0.055612632785171201011 0.0061358298478210188814 -0.19901998711010812637 -0.14952782471997624891 -0.25626356108257691835 0.02129114170867246747 0.21599464515190405778;0.18622076840107992801 0.12642330016272063098 -0.12860432692493431461 -0.14146259353995499497 0.013003387975042357549 0.12143947700389406963 0.038396122890886182077 -0.079797217941549508646 0.25601526103505928278 0.12658300654617921088 -0.16676312012699703868 -0.12257271110410133952 -0.068454359243781001676 -0.086779817902153069675 0.19564078718052349548 -0.077616315915902997502 -0.16527235167315496023 0.18444433066519913544 -0.27372832949929531976 -0.052921952789987465604 -0.20546276695388085431 0.1661319759438024124 0.10607558204362867171 0.38647489727614925403 0.1014450940168412918 0.16116790719834353518 0.2254491558708310861 0.11489977657351188589 -0.10070097381281457871 0.14019800498712234327 -0.037826900025481807743 0.25408574976672465562 0.053214135367506229524 -0.070277983965448556636 0.024881074418224156247 0.22572754720751184165 -0.060125998100807251379 0.23536026534146267664 0.17487027986298639415 -0.084549272147333986993 -0.092755754664575459922 -0.09142795513938326013 -0.19635612218094325443 -0.17064067996352591527 0.13224731197455419363 -0.038972303068104348356 -0.17047325585049627472 0.20699314139329094697 -0.11011823246535593079 0.19250691145311560337 0.30411935250699018152 0.13294318307191349549 -0.0584163326123906812 0.32860969552233204594 0.089485063374162468475 0.075073960964987862532 0.050378291192882423966 0.055965539322266590061 0.0068478303825405123506 -0.034486660380683056837 0.0057573151663063756173 0.10305223934570285904 0.023540410821134217373 -0.22509793571431979675 0.25739882187294549354 0.24881809202564589278 -0.12682800038978722657 -0.0065325896254214942116 -0.051446459792315726856 -0.25187040351984324449 0.09046057182806820085 -0.15781430189315451273 0.0019354836002940072059 -0.19718902725983544766 -0.1360374671216179332 -0.15941360525607176091 -0.20016507085521628717 0.4199084755113279277 0.25198687350654019879 -0.22325326995091174243 0.20684217897400633546 -0.096122013587253862799 0.037472500892869554934 0.019441025473623755465 0.15149557546132930153 0.11704956309165152895 -0.092497807069342866115 -0.091807366011769697689 -0.28591301153698733817 -0.075575168225827507595 -0.066429744403407778308 -0.20758015125210971252 0.11501993844347722928 0.1511939634920700104 -0.16172407637993052587 -0.0052568298297588859219;0.041167192481412623328 -0.011454522781656593586 -0.10075167648736758907 -0.078870951850490755852 -0.11655374087162280461 0.027131806590349187569 0.064350284564512721941 0.093191640132112466 -0.2600962489283368817 0.11378637516841837163 0.10262536164757614376 -0.10028548969280863534 0.091223160603522646106 -0.081942995447374891715 0.16484510643081398684 0.43521080140093487687 -0.10755960467616072773 -0.013334377703882743446 -0.14062188679575449157 -0.054740211963112288263 -0.030974656974590408093 -0.069212283488511383567 -0.18082035186455447384 -0.19111797750474709967 -0.200389565418366139 -0.1314978090406207778 -0.13256841729305773869 -0.075657199148059628424 -0.068673513868350161138 -0.30106769831249280411 -0.22695526000096424846 0.057088532579534882749 0.1098379045391976172 -0.044633972077711407678 -0.28868995314237660965 -0.065844582929619657752 0.10106511857233915763 -0.15954317374469295654 -0.052174106070558133597 -0.088843511934074040348 0.23225104266072188475 0.12923883040729500227 0.092971020251276931257 0.25134070963172400193 0.18835977589864225101 -0.33452773857310458272 -0.17787667337896947983 -0.093488358098039278654 0.18957475748934121684 0.14045606178625855143 -0.063094311768373795291 0.081109441531439924189 -0.19659538821070984826 -0.035573739104777658826 0.028378141725408596863 0.10435605104992187742 -0.29692165372579015781 0.27252137074096910441 -0.069442155207279546159 0.14688050872975522143 0.24240691512143938691 -0.081019834995594203209 0.33926591964817220948 -0.13797140027303203547 0.34239229022809947178 0.19880160216564166098 0.32026897976523283074 -0.063640345219971292123 0.2562699335529589062 0.010153847015783522625 -0.045983242778203196888 -0.18641737733890140216 0.21134190482658940513 -0.27279188171964457998 -0.025034105262800691871 0.062371440978118065923 -0.13061789933293635468 0.033985647565379320523 0.068402474207441554821 -0.040514891018915311083 -0.23351861313349328575 0.0073171995046069021953 -0.22961736999270457305 -0.18217812743334096948 0.043086462033234233793 -0.079466424020052078836 -0.21445344882907607653 0.2115924147579136827 0.26141921766560832774 0.25956631519553008403 -0.11302366593048246424 -0.06606199556264451267 0.14888403724186238808 0.37783911769649108914 0.17655540919830137181 0.11669543556610112445;-0.16862109892910004394 -0.0057458647180398791238 0.19077087759473590478 0.044836899906248880998 -0.03516438061456706593 -0.11258731317758445545 0.070157294746912790551 -0.13552367822216387916 0.054923996889509940633 -0.1263183968713902372 -0.036654887403715412375 0.21315669261426264947 0.17077295796090774527 0.024791817266168858502 0.20488043748581000192 -0.14250797946929780191 -0.039125189790331263429 0.21555367011970991142 -0.10482028886163027859 0.10837818222066482321 -0.071823218817088529953 0.29867548758314965696 -0.060436455708254434305 -0.048577927436575130127 0.23242873798688407083 -0.02601723306761314497 0.1458525221516904502 0.010748917132893739609 -0.0011194975116446564435 0.083910758998592266389 0.073052068451158733153 0.078307407400521084062 0.10257238752993035058 0.11528705461137192523 0.26672178595466955464 0.17236246291842596823 0.22204353998666961911 -0.047058571779900526533 -0.11606245211694229957 0.057552792540412123223 -0.16171317219649691821 0.11618169716891169063 -0.048557250996547854371 0.043516641443974886372 -0.1023714012891541042 -0.14800428524063224955 0.16872323920532303343 0.08816675127386625066 -0.21198200238844519538 -0.26144847119516501088 -0.15976406846965265918 0.023064768045482193781 0.055392670758960767252 -0.14361535801189773132 0.35544513245672587631 0.21617425804989581772 -0.011164345455753376876 0.10460599205405252121 -0.1806227790158193014 -0.085216534622139891719 0.00021907171466743714447 0.11692639261759833758 -0.29170712006363730406 0.074528978567232770369 0.028022181541748614891 -0.071775696960165752403 0.0079488150423435988134 -0.15645886079134441182 0.098947376246175666736 0.08336307783966191709 -0.23457617394898150343 0.29314427568821455061 -0.38725292657090348847 0.11253717875417468264 0.15238711707119587113 0.19149016047783379291 0.16643907810408559156 0.35775886512807802964 0.22289405097623979368 0.29274555327206924771 0.18135329630736668483 -0.037611742226646774356 -0.01418280789567478474 -0.11350130080000686572 -0.23561789753876663522 -0.17999042288330721617 -0.13576024145984161295 0.077856257338693224401 0.14316124464355386992 0.02411095786104232308 -0.097107373875799735119 -0.13970707048245581405 0.1086822714435722731 -0.21344722925941322922 0.19705091483974918054 0.10572503203875016631;0.056462456138862478217 -0.39550360608648471583 -0.1915601314218836615 -0.27032304852398958417 -0.24685082201398184099 0.070065958453834648045 -0.0042408255840688732774 -0.17349257340545556905 -0.034756841040830405154 0.15285929308559348394 -0.080039989539406164454 0.04229944634937571335 -0.1655411487328819764 0.12698657071887481385 0.25742312100385233986 0.43585717049507732845 0.15678231191304298209 -0.12598944975051784567 -0.0041730074876867809947 0.07289954383005201044 0.11104080587057310603 0.061055411943148632514 -0.073790613183903633332 0.04356760880952337267 -0.16717464968015002813 0.057938644042113525423 -0.29721089650072840538 0.097395007086070309321 -0.054098543085604820779 -0.27048396637355548444 0.099925711702315914153 -0.088428188409391761393 -0.040929722612565694329 -0.024106592847680040348 0.06187196201860527961 0.22859641549792647508 0.076300926494656820531 0.20345819160884126564 0.21454996855883526341 0.16193022752817717858 -0.031564758308275937815 0.10118765796175664684 -0.050048132523771361735 -0.15158465066931978149 -0.2721360577836414163 0.001534152668169278368 -0.021001327022144973544 0.32975482300644087807 0.13445699946777323053 0.12165813836774597156 -0.28300622090565180633 -0.24644768646929179901 0.075697503913817743015 -0.09133539029373624607 -0.084392490169850162274 0.048085527372663756929 -0.14262498094495193457 -0.020870016552284771649 -0.28193534915294277132 0.21120423620344164206 -0.065475480723366008551 -0.1602543881335367626 0.18859019169714982822 -0.073249203134863036246 -0.023736618504671794933 0.04479011777581084347 -0.16224182937018127859 0.0043753071290460465725 -0.2936292628109344327 0.12357506973665376149 -0.18006379661143501192 0.021265199966777927065 -0.27392651352567842782 -0.097243011457291528288 -0.12146756039985923126 0.25330321754181922556 -0.079509736177817230685 -0.013909032361333945396 0.14547228355552202506 -0.016836831665317089635 0.20210148823310380983 0.27326851852057632009 -0.20561256157737384243 0.12325701969479202491 -0.11296189381841452437 0.014927427017393732345 0.2314558080160853959 -0.25114191876331154463 -0.15157822161661307914 0.19401321057368109413 0.28335087344991083391 0.11628865014230505004 -0.14296994712662727811 0.3692042818446429342 -0.19970196086512034817 0.042352834759710647483;-0.017646535826678751147 -0.16416611846253195695 -0.22198986362029513031 0.011115940243947299362 0.21570378472448809015 -0.12609062299481385572 -0.033973057531990660807 -0.22462160965124747247 -0.0017446029885174834089 -0.11540736452025601722 -0.034369327811469764511 -0.058131821337955101592 -0.04168414007149996714 0.078296378452413134541 -0.035220496436609183277 -0.19784394235260308048 -0.26108759459441149842 0.23018541768442887796 0.13810649928827353761 -0.11029044433342913289 -0.20610817710303208639 -0.1117953904563515205 0.0097165595619227908969 0.20536731371448407879 0.073563860766014066428 0.19743875994115314687 0.062171026470362433791 -0.22974731260595776527 0.036235592232786779932 0.27083703233272793387 0.16305874345418153171 -0.076318869876546041597 0.18993041906280891395 0.0022829203877958734528 -0.023564132384149141103 -0.13535832245988402289 0.043623936628946306804 0.15463544433161885427 0.054692705720383712198 0.006921186172521673341 -0.050448330033808920503 -0.10009901458420214504 0.11112296312619705796 -0.070291092251828279913 0.16664231317282160449 -0.061312664098753841269 0.016235597692131974179 0.2328309173550257849 0.24766105135823918149 0.25747126755603044757 -0.029528523690249421085 0.26619245493601068064 0.12339469278459828938 -0.065072012753974922683 0.072528999790133816261 -0.085897814436159070084 0.143561571634894386 -0.17838278211849833976 -0.20365471756101424794 -0.18185505618364661284 0.18425124829937886139 0.17281683206524636742 -0.0077857877515315207853 0.24869601679530925487 -0.049237273756383384549 0.031998136394205400901 0.036582531073926852216 0.14418997592222396187 0.0929253456891659807 -0.22281053455645466466 -0.041507213717224072935 -0.079275471397347391234 0.25997965585053051107 0.2206322827071445225 -0.023249250915098686882 0.044389361922660977577 0.17120162089872972833 0.22894492669294352893 0.010699119518571911097 -0.25134483262397283587 0.21012595369533865197 0.19064392641095495584 0.016153900708366607242 0.085089567468467297573 -0.045565054579691836867 -0.050054655026218128344 0.029591425156357042958 0.11690661106781587153 -0.21615320026124415498 -0.10863858303171848585 0.24503833363650653898 0.033409004949023546338 -0.010929736129406191283 0.085915335279755908338 -0.18015059684057499467 -0.15947425630950287645;0.10148623778502324777 0.2150025709070242097 -0.13056941441100622381 0.16407784746148965094 0.22973480864385434352 -0.12119697632583667501 0.011546038607741827137 -0.14684135799016434509 0.12613886629066034528 0.30548089630600683275 -0.26418451498411626988 0.19081713146222709088 0.086407119692085906926 0.22443149953098545657 0.14744756015143684058 0.14633142998103168542 0.12738841505551970479 0.068377394979059022417 0.15920183890830591489 -0.041398861487727249553 -0.23145619226764671539 0.15037854131309291716 0.014385199226680371945 -0.078565360885447924066 -0.11009288865391361756 0.10830578122938848418 0.1695922266264788536 -0.070373840165646156519 -0.038777331279730077596 0.1180856414608743854 -0.14456111250498629439 0.023396332946415979159 -0.20690720765690059912 -0.061996438132522480036 0.050381942378142467731 -0.26315244269905557761 0.17781019571560438552 -0.25591781086887638308 -0.10999860278426014382 -0.20348746972133030519 0.098834508143133770197 -0.29552255172919622561 -0.10727909809847714639 0.10456398390263314802 0.13580099797147990315 0.17956122015346340226 0.017855653779362351541 0.085318452935556607364 -0.17279151107565429712 0.037021278391124838592 -0.20029752364221184435 -0.1411556688128147441 -0.21808249464512644011 -0.1818678575070235004 -0.12362578562507726965 -0.086081586290328498956 0.026159995990849081726 -0.24483903961028821716 -0.085652228975164862446 0.12359801225877196929 0.19079503703603623022 -0.23708443034654405612 -0.1270764452697017155 -0.073364544299178394149 -0.18047849776188507054 -0.27366441887050613202 -0.24720361636949744755 -0.051401240224821648228 -0.18123274413944195915 0.041398660888908866973 0.044509602529328583242 -0.11280672270655578426 -0.21886388361496439403 0.19330745021444264986 0.088442080348502760678 0.095914447436857702689 -0.12987477906017744211 -0.25432023568519684931 -0.10184548572763026109 -0.2251269968271772115 -0.27740471618730444536 -0.13861515809392602194 0.34709550674980960139 -0.08483080168221183992 -0.13996859559154517516 -0.18939385555628712732 -0.15827008434325995356 -0.13115274929305467677 -0.081282477946580500294 -0.082074680260944749 -0.06365443611822621528 0.029090476460946725762 0.29243477136763607049 0.15284505785893742758 -0.084439299226434449963 0.27322611878246272354;-0.0017998428090127281849 -0.13102003568975401082 -0.051845552482271295425 -0.033778390321878265512 -0.18537946269821314882 -0.16561634978648112626 0.28850422875637915521 0.026034361125711953655 0.30380498955915247183 0.19707932209208514629 0.034103063088115712076 -0.1050037316419051292 0.17754043983144057739 0.15888250275052276383 -0.02136657034843341546 -0.014970018991150173954 -0.065603164500957794614 -0.24004668009226720615 -0.060630879122633311862 -0.089351400724845486678 0.058861140457608387977 -0.16463328868048687781 -0.10960418554604726971 0.032945119037678452512 0.47039867217635350505 0.021048630166627290555 -0.0038845697918798915635 0.18816976065045035171 0.24116789615784128831 -0.04980545569708613729 -0.053036952401450988825 0.08786746162963549045 -0.23883149555684787813 0.12650227655545925876 -0.12284538489911228654 -0.21828536646382534769 0.059210248385233109347 0.11613864953148722581 0.14213486877068187697 -0.028248296816403693776 0.071076766757923376394 0.1304700873036888642 0.048602692656823036355 0.12868077496369867418 -0.26235427137944938858 0.13293022611940202848 0.11050494721384324093 -0.35001455706947276481 0.21905427591768431017 0.27940303606347804966 0.11876982602794237953 -0.10563052816529808209 -0.1167346221060661382 -0.068370140700427101121 0.13858452817302788218 0.080081595631153162929 -0.35760975500884834011 0.31130942339619338544 0.061437436779994941682 -0.10262110255510398238 0.30155181279696946506 0.16269923474233577432 -0.19382594109904102697 0.33914232060962717918 0.31283196920059258561 -0.27214730014261062641 0.07011999330300701383 0.046670541246789418177 0.23230312380466380806 -0.12402868759359558792 0.14262392548630770106 0.029328611388784658204 0.078850611613069401806 0.1634169602569108537 0.14211677155393825922 -0.084213413309086646019 -0.099034546121820887787 -0.014567516478096750529 0.20054858825479102147 -0.30720295985923318227 -0.12388249851968088922 -0.033960574531148791932 0.18965358053927455773 0.075638837466265304577 -0.42048290684631250969 0.45666984404938448794 0.11325021815812123804 -0.046340482948981118194 -0.18697579293084784502 -0.30723122444333039738 0.32600465697593089542 -0.33744948380597883375 0.22001394921310352126 -0.063502651526564313222 0.20218011629815180186 0.018756319639047829007;0.1140327862561959088 0.092803203364621195126 -0.07583578997585696535 0.12355055155005707779 -0.17456269066340876495 0.2359150183495427322 0.11054017761285164778 -0.30311183739856728536 0.14168373165844500017 0.079859430052354657414 0.074607680571451590046 -0.16739234446403530865 -0.045382435340809927637 0.25119468489167379177 -0.17927348216442784423 -0.011803916958324825112 -0.1191266680013405993 0.13365129983989726403 0.17243368600871694651 -0.067384824901451464974 -0.24293420090334980066 -0.24463300695119302719 0.2788838215303904855 0.038201382398331693024 0.24952619694519687088 -0.11634288950535454088 0.025115448074724457811 0.12306519224145814895 0.19448820103983263663 -0.10749362976573230422 -0.31395972673288174981 0.058533525976826560056 -0.13248653274188357254 0.19242547881780175389 0.090579142249855387758 0.20468846207510463242 0.010985469429617738396 -0.038622126251218552584 0.20169477029924973155 0.15893725116342394266 0.18810234345382975674 -0.11142166802853405161 -0.010439091896860645814 0.19876279015427900099 0.051013090921508699727 0.010847390097703409756 0.26393613218252948149 0.099587204509664975505 0.17143763467279785062 -0.12570259684599666139 -0.089141505797566161773 0.28372786603817612416 -0.019923141970051350125 -0.26102372647355132074 -0.13295119710677158475 0.11612878056231400181 0.065335123269505857024 0.0058125120738668906162 -0.1275005802432138402 -0.18806584877843507408 -0.19587348470045182203 0.096259515886422578057 0.15407623828612396211 -0.11063265934970706317 -0.19667876097340955543 -0.077733173872130217896 -0.048171206434743735203 -0.20522552018467501989 -0.084326250961441584497 0.055347830444150980522 -0.13887367021032887004 0.28382848388178288923 -0.049529909534481768307 -0.097176951667140090696 -0.22327087639243964334 -0.18752200136526051 -0.0343861255823679976 -0.012943686898820052494 0.19955276582052675072 -0.24715534868649996492 0.096656060216900721582 0.00047476397862402926024 -0.14728111204668378753 -0.059129083412702801437 0.061572507210204227568 -0.26475756386784854435 0.1309381518786849885 -0.19556037443514956431 -0.15567026687082166636 -0.080317031282856041208 -0.13045491941590989238 -0.33537573227657119235 -0.075117929223611698553 -0.27428694983362006399 -0.20892225238588182923 0.27977306372748417251;-0.057016382422983569178 0.19267783120798501195 0.0018343363285591286847 0.14033059773771663914 -0.21054895897480019329 -0.056673214166279552162 -0.20731973067283171464 -0.022271063487791523117 0.12871819952313778845 -0.099778121771892380742 -0.095170125121382828648 -0.17167844335017173885 0.11645568418418680845 0.047491716126049667024 -0.23541026603672823847 0.048169060840396557555 0.16216644271572283609 0.057575075872035912095 0.2164965780518706695 0.072561215691149816287 -0.0998721424603660618 0.17756120563144600633 -0.074029328060626842234 -0.098229355234449589052 -0.11508725766311490857 0.029731401037367086171 -0.26008316952121207644 -0.0054518320942448473751 -0.28001551745075753397 0.20159558159491397511 0.073455196515369775012 0.038701589716222568882 -0.037744694738534423362 -0.083726128132678601101 0.034214442495923189091 -0.19711126161765904485 -0.23061067285460248866 -0.015011615886595698621 -0.12350151120625532664 0.026130503957375976476 -0.14814253503760865804 0.19885152063324215699 0.15804692213655635591 0.005737967572587435866 0.15498400001545720173 -0.052271578757019376837 -0.21327824057972000205 0.090416305583965933534 0.16208839231750282739 0.22398259777666351678 0.1836597541830232716 0.04973734775201750502 -0.12625018290793699194 -0.019527596837782379424 -0.13233156362582318422 -0.026001008165325304594 -0.30206194434242567004 -0.08950791316115201679 -0.19884709581012732782 -0.10290913169112078651 -0.24537515994888639548 -0.27452287634680772044 -0.26301408027573425219 0.20201494727544347385 0.062816887931066031636 -0.13149816589412813284 0.39680633025217804111 0.24975907400051122753 -0.20053435671656991146 -0.14044195468160217133 0.24253846036341514258 -0.23797573188752149664 -0.27645885892864546785 0.27493560103087261171 0.094731421587191763645 -0.074428584216775325877 -0.15638475187436887137 -0.12524784519811998917 -0.11909387211303609777 0.079272032248403956345 -0.035012366732459380969 -0.11956542518497563499 -0.036218342036239692394 0.0098501536153628097003 -0.016217956769764157315 -0.11801953701692267928 -0.26808818920922850015 0.32845130769144514904 0.00054539768612911617915 -0.044747682913700785601 0.32987389790525639688 0.1849694395989215645 -0.069883462881790647803 0.29480690818014337884 0.13005638855087353623 -0.049359315007974691181;0.26338810984723537434 -0.024415430856609979249 -0.24677974528980622937 -0.1508659742370172252 -0.1395961713414015648 0.003270603174130343356 -0.19930038706934291581 -0.22243243676792379127 -0.27459343833985466743 -0.23263161996990527891 0.03636920437399438627 0.044012787200517468345 0.11120040273354588056 -0.20536103184437026759 -0.031940369542438916406 -0.23929934451978326915 0.11856533175119622625 0.10402658026782322931 -0.010735068484740331596 0.12120187993318090602 0.21506706316761484143 -0.1315508508691735079 -0.21821248183698452316 -0.25317106133941935653 0.093947582097017756642 -0.083012717574984171143 -0.25744347827510705162 -0.013669482297024717482 -0.13304212555530356421 -0.0047516845260711752796 -0.0020686147704659513247 0.15544368607409161931 -0.34676578375596517345 -0.096492597907215357789 0.07599613878409208767 -0.0051815857864700581858 -0.090982676978483445485 -0.0032505947131420366222 -0.0019734070674661341807 -0.1426699224177623293 0.083077989747896055506 -0.16949634670782881551 0.13064814205428781912 0.21778300586820226181 -0.14071282004671561983 -0.24633303991839075597 -0.27675974920166751536 -0.3206705293446376337 -0.026532168219416115557 0.25442322321616461789 0.024510907274954842061 -0.081519635294660469649 -0.067745266060473749437 -0.19035764193108745124 0.15643733602485279666 0.10261249829089906516 -0.2021541225996212332 -0.040991590463798938115 -0.14919504690465887342 0.30490869575011131376 0.20664634864426201233 0.034618323911464250753 0.36967600224991020719 0.074405227707446230934 0.077168435654223557774 -0.10324680364443147851 -0.014298435430942347743 -0.28757979517207182818 0.13876987620473560381 0.011914902078929324666 0.0059413009734933753744 -0.2695872824173203286 0.055907070083590491849 0.13669546989867903397 -0.12321348481539322328 0.23886523867353162687 -0.22566181003846622066 0.03437694017612075853 0.093056492076805566449 -0.089293706417919449514 0.061257409214922009522 0.1868614758213784921 -0.12537810674693181112 -0.074570382435060589277 -0.34746792215841970641 0.25333013488996708462 0.12948263437944232401 -0.17199913346137052361 -0.15146555608634068579 -0.2143591698881014973 -0.074571079154498329244 -0.1109123627225898634 0.13235874989345236541 -0.26652839842774944668 -0.18759577782422776071 0.10673798745578080838;-0.26420237017449199612 0.055132384378725626806 0.19181090167280981373 0.026920714293295257974 0.016566852048176802792 -0.14420612098310819915 -0.075606982617406837122 0.1703999690892046559 0.06808163007817866208 -0.11496995605192036893 0.04451702316606238885 0.046576207638992839222 -0.093135913632880110158 0.11041978198939339517 0.045969541488066367751 -0.05386579386412807674 0.048967601449604943042 0.14185914720220174634 0.11879325755810103693 0.031971656272421107581 -0.015711566996448229211 0.059841297070714172257 0.097307476021836245006 -0.044654666406129472911 -0.2649503863122742997 -0.22654672774777354083 -0.19359706372584700729 0.081565248818928931529 -0.10206544096295241952 0.10045069725676282479 -0.12751895539928403966 0.22269892119804010622 0.20039352067547391845 -0.042581717585662155756 0.11381345218673394326 -0.15871325337395200683 0.13472972787900780456 -0.12047502610878116358 -0.22633073832290592775 0.11960143133500746038 0.088530910958209307893 0.13405365206968350433 -0.22263823580407371416 0.090525374543266923233 -0.030921006752803677914 0.070510713833016297469 -0.045937663320891046481 -0.13277432237364847345 -0.19524468313901788274 0.10693754306889838301 0.12220071625922951375 0.29120080034763345944 0.083033875818559241266 0.044590220696130292155 0.061665128682304497232 -0.10391714690306215474 0.039548895616815675502 0.1259807073790647769 -0.064189296154535627204 -0.048717918475608058826 -0.12134051035509506311 -0.05411360110218996905 -0.0042561136307933756032 0.17710527275188397978 0.18569570465661472403 -0.018879746847778346858 -0.22560160487963445974 0.18218485159445368948 -0.26914366515220494724 -0.097159899651104136842 0.19633703177858646827 0.25476739739522830108 -0.10231935771043756955 -0.24816127568122609004 0.15604482775632541602 0.091744072462820125402 -0.16084473368848400954 -0.06237527524353005115 0.193504053048569713 -0.10161728667699668205 0.28335842190324850298 0.1089141909446023071 -0.19607789026337113514 -0.0643522291084678566 0.024008349383630382679 -0.1656968241032283351 -0.14514360000818704588 -0.15424106940380444275 0.059505354452997025194 0.1410179495128659477 -0.34204701800569492498 -0.16326722201611776342 -0.02952398448900814959 0.024737332436160951871 -0.081736555087591644675 -0.28343103217977705377;0.19532183715381332134 0.18410394553157941044 -0.15031364823445725332 -0.03199813703502013551 -0.1114449305585320793 -0.18381148734209601381 -0.075280123311175950462 -0.045595905388639043632 -0.15903892040666964269 -0.31131749843191419691 -0.0080125847674678424282 -0.23570514433149516997 -0.31098128554252263411 0.16371834076780980571 -0.16806014619163958668 0.027238542478067121616 0.1270804334058693863 -0.22686340455715223174 0.077134109377590173717 -0.18646004181023689839 0.13047527588524909792 -0.1410113981626032742 -0.12224703606705439318 0.10793742838476987067 0.054566678157080376887 -0.24171785687538979714 0.18186710369182473856 -0.034441792199166508526 0.08156299805770943212 0.26064964527570821939 0.10977322939488944054 -0.18408434713624727275 -0.15214591791702403167 0.031976369471804731714 0.14938675912195223394 0.16131433068679881804 -0.12273773694630281395 0.077635260066980543714 0.39277252478473512198 0.024347613731224189426 0.12543809868657190831 0.1134627845527417106 0.061893512027223998584 -0.16177584318693780108 0.20920819013861574609 -0.038326254752532436243 0.18485232710040463977 0.063029909381599510954 -0.10633700640981819108 0.08212417416096523537 -0.20711443097821527481 0.10784339574466042522 -0.27371924324574992138 -0.22696777678874383022 0.015246017000698683028 -0.26139782482324758206 -0.098304139347530780646 0.28549543557468998189 -0.15718698525444785297 0.0039795348806789575605 -0.19851400426054308102 -0.064732670485288495987 -0.017453212074242149821 0.14955392142879592177 -0.1702626733272687154 0.033030090666101172281 0.052239896778267139177 0.23541239232429217454 0.20986258719756356594 0.20494412757990401741 -0.053991884448155960663 0.2756468045476422879 -0.0091952647875211904888 0.10703787990756449822 0.02558243319959370779 0.09318181336913994306 0.028078281107626206631 -0.24241086093604552465 0.20857733461636221439 -0.027935814845145186258 0.1372091761302398627 -0.11747042807297777833 -0.20767266074272591747 0.096065472028913898028 -0.014131267362457263295 -0.18814796107220541077 0.11510534065645514068 -0.25316883041946453003 -0.20846260670213834221 -0.06859186866721306286 0.062984019269099272842 0.038452322649855832926 -0.063901987661880668701 0.1399413256463754307 0.097503644740990144668 0.12217753289502579495;-0.025880404412518896728 0.10937341287127544387 0.03280826387731487076 0.074387316121786617451 0.25548094322169773163 0.12317010625900927379 0.23383106211469378843 -0.15786636573872991907 0.047092770952037253662 -0.071043006623378146536 -0.057109922704325015441 -0.013859055696672697294 0.010421064264144765804 -0.016640473591910391604 0.11991322778093124746 -0.258746775657406336 0.012675724569148441243 0.21896081956990612327 -0.028592697565279410338 0.12075500362136783183 0.032661036981743420127 0.029066565763285718421 -0.14188894180823227731 0.36235519860704767936 -0.32687866216681776832 0.022102599682398232223 0.28074849022540854238 0.059208144614017493845 -0.28250953769321751619 0.065871571935446016077 -0.043953503984013493622 0.20112191939781057237 0.060741151851327480904 0.092264158639144847052 -0.15358107956121563875 0.091155967259980638651 0.13095694907217447778 0.14085523272303573927 0.088069487205393842677 -0.16877274454645174728 -0.041982441784327868828 0.14976757327347320348 -0.23860988089999457529 -0.25270787971057490084 -0.12825187048074385143 0.035461943541893733989 -0.19304381418553048788 -0.26206922539044097409 0.032068826968866662175 -0.26353074204559218119 0.31921015558133392087 0.089531580876926836199 -0.2262389619142126107 -0.074947296541695351824 -0.14822757825312529723 0.081759054157598556878 -0.16574494921860524754 0.25448685429851247708 0.1881586848920748789 -0.041839393486418713364 0.20163656965060872128 -0.14959065177098415655 -0.0797726265310163829 -0.24594599670169256522 -0.043487935195272428568 0.25213442078071429675 0.20891720136769684202 -0.24919345321107280733 0.21922433461835424962 -0.03664020168755499629 -0.056985931539896582387 -0.18721156707386621409 -0.32320460816582152752 0.15546760779631346727 -0.019853492477201219873 -0.23903333925963524131 -0.12128479978320422239 0.25320479144526925053 0.045444287658819290665 -0.061379301589145285334 -0.2092384420151542912 -0.24872059353209433064 0.056953650886579103296 -0.17528511208610064731 0.037360994139603052877 -0.17203320260635401873 0.042678237896364434878 -0.12038467818443868151 0.2286584172452144903 0.073521314952304725465 0.18897489416833573861 0.16108429993525577584 0.10864281749355847451 0.26793881047204171075 0.010399358646454961649 0.16532174857645234867;0.059301844427195812837 -0.079670458035918004236 0.26588102141664843314 0.17739536417200288398 0.1748520591820939829 -0.055786029387092095355 -0.094126010733825579702 -0.15932668724917622982 0.094958784424696865423 0.11714692053398385874 0.12871269790327230509 -0.17715270451171788446 -0.33842255835992546276 -0.037609460400765452881 -0.31257973219277235266 0.16751457434069888519 -0.23675898486569574297 -0.11491994055519116902 0.11651658902172817855 0.10142759158970965361 -0.29004253489353859496 -0.031299823655584327331 -0.22980431156186351127 0.17732728851114371027 0.016247557445295778694 -0.13111632473995432635 -0.17000081811424716527 -0.072280775947433123507 -0.052220806031918837187 -0.088149192214726487804 -0.11730414931772895071 -0.017884505889149856367 0.32288008757008052063 -0.3396682472106187789 0.078175960670866614932 -0.079420012187688043825 0.27430709006108872083 0.089191451117361056355 0.17197428202281758725 0.32402622789970331185 0.32991121028319342345 -0.19879720945731046977 -0.070865484518448221274 0.014838260709091725259 -0.020400744742866225301 -0.26550330674382627283 -0.066874400821041971033 0.039169901970555170978 -0.26262406678371935653 0.1281120969998354453 0.016509527154297317514 -0.27017492997439873648 -0.19278514936662743962 0.11907684313797795017 -0.12693813331154429891 -0.088199937800979122393 -0.0046407985818648599119 -0.40814959153266050507 -0.16962003023668786872 -0.010459901369579666097 0.065852882782430122166 -0.14008886947938287149 -0.05244674919545486147 0.011310428881106183649 0.080484299512886714467 0.31078256109170798727 0.026379925080156713113 -0.10254360339740355157 0.037406761010222680519 -0.057549971312372119603 0.11585278730221217069 0.091619640787172287877 -0.29096947032167119751 -0.0033033616465238850937 -0.32141183812030105216 0.11562717718714252135 -0.23987664995270097101 -0.39187415247514656436 0.13564451445876343771 -0.062702063341595545842 -0.038872456347821285338 -0.14930569819640779339 0.10374580406419525724 -0.26537966600736367928 -0.1617262852419321939 -0.22231978325106738215 -0.14359929376001628887 0.017765325193520226099 -0.014844375466187824386 0.13970400062439475297 0.043950982151160042366 -0.18955265718452249391 -0.23908277607344197158 0.45067311232327306181 -0.32200643553324120871 0.29340954047729417287;0.15741311158031118245 -0.22015551101693051073 0.13997847573882482575 -0.23511460726518088049 -0.29622566713431869312 -0.18980878785438995426 0.032715101804833300603 -0.0002247794673298171347 0.055897107171855496544 0.1236294145635719044 -0.21003931661940944409 -0.29916501316205024175 0.19280462147489141334 0.10016065327889533965 -0.1531094265585046521 0.059364795054633490157 -0.029487967513185078111 -0.16161072940593812497 -0.16879279258562407406 0.0070930841208458484531 0.038994319039512663483 0.14252874032189416509 -0.088743043562208495656 -0.35389978488147361135 -0.15166861282071289474 -0.20149712184219389921 -0.1572826307189137407 0.13956827465531276844 0.2668578499544821403 0.31403616934039813025 0.020738445506445546407 0.21177488184464152154 0.079848793948843047041 0.21432842642383323484 -0.35198023474700257385 0.18185533342341966834 -0.025425101354097385392 0.040468485319178335025 0.038521006852740964643 -0.30142383435625907939 0.18224367825054868519 -0.10916952384431524714 -0.25123060403619629222 -0.21491963293552118763 -0.085688750581866313105 -0.09388234330558670182 -0.084775867702620480437 -0.2973179852478812224 -0.19513334529705217424 0.032697285095546931022 0.056088392308022934352 0.18668184809086646458 -0.20803855451974728741 -0.10910290626331702046 -0.29097628453724688757 0.04240407944601751189 0.15055387141365778048 -0.084278930345678862435 -0.12436943893061604138 0.19068596555065156495 0.28381920520831066534 -0.18526592398182337162 0.18905302873322152313 -0.00010810320003970834077 -0.084645013997961801588 -0.067217332965618381557 -0.062283454503363921972 -0.2603206024755802539 -0.084216579676314184955 -0.29100808128358779392 0.029034306838821605234 -0.28719437557274446471 0.30236630110956480566 0.21435688984161421766 0.20214192913532805229 -0.042692166806308141924 -0.018977645167432919543 -0.02336024470582425544 -0.13438103327143530175 -0.025244296493198294107 0.25947285373024159272 0.12212386848150837138 -0.01730422254648751601 0.23291358299825526412 -0.090102352737777738345 -0.024982836197325945099 -0.10323284947604544071 0.2415160872002782011 0.1383235324425052537 -0.13827068521262109169 -0.11620135632592551445 0.21078409741305428882 0.090287785326586850188 0.076900702376792293147 0.043243481116701447398 -0.55948037906471503877;0.068790008979025638047 0.038427053360646640234 0.11819229398688793631 -0.32955477977063196704 -0.16699826399737885407 -0.059187625306058165575 0.0023516977754385100935 -0.18487298146144423572 0.30736474975163852186 -0.3586453170667533441 -0.13977835405393945756 -0.014532165870083279396 0.15688222813669627786 -0.15337462397416576354 0.11614067861651071467 0.35369840078003900175 -0.36202134595785512294 -0.23005856069299326916 0.055830962235029264751 -0.32204559311370722918 -0.15243084526404251933 -0.032015416135450669444 0.18629377632581942126 -0.18416989563744057268 -0.0027201545417310330974 -0.31467728051407162226 -0.06701004777521411826 0.16468225477822651115 -0.16460265295111506378 0.31645672250464063069 0.15851743410590479755 -0.007194295855327972368 -0.074439358281597908795 -0.12190246373153749981 0.26338121130349434473 0.19494402630454429892 -0.067626707991620987892 0.18930252466661390276 -0.14132773004028850727 0.20800345944291750988 -0.041759975237867563713 -0.1179954894046686964 0.20946765324779451078 0.043065444289479670736 0.15301131527195704907 0.17325991011692812305 0.12220914481194369849 0.048393884551987495501 0.012904482725829089645 0.075756272130962087896 -0.27340179352264160073 -0.49527118343889409147 -0.069604246793409249583 0.038496316797993444803 0.082987219904855788477 0.11032270903529542427 -0.18235846771151237311 -0.11064266727252712597 0.26202436799722511607 0.027892158105618420488 0.17799937904456369919 0.28794586267290978032 0.16273950768520414889 -0.058196558270728393492 0.18648806061104683529 0.13953845808254380922 -0.069002902780596411803 0.022642369491915545487 0.17904992792569529581 0.21419898714938723217 0.26145166400938196771 0.075821867241789464575 -0.020121521923491796774 0.14356272036177106233 -0.23587484965916930002 -0.12321720693128959678 -0.031654039994078238263 0.028986605447549735476 -0.14396781954581222562 0.1448880303766118538 -0.2847657084912086356 -0.30068689308682722272 -0.17812164282701384299 -0.12367273478457185831 -0.060039139486653507471 0.09524238814656219021 -0.0528002705476834297 -0.14720321824387105902 0.037731895101605926468 -0.0040880961265852954617 -0.19658663715099142233 -0.12253811326838848217 0.079621094646738457823 0.096984293135331425817 -0.24897900874627923451 -0.23326512796699300223;-0.077935282160023502951 -0.19249109558344462689 0.089506268446840869801 0.3390092875139790185 0.17178413383340612741 -0.080432195556649682677 0.086319184335611906511 -0.26920536508762948902 -0.47265362225849194555 0.092607295525199209707 0.14326510538108758186 0.16079885316065306577 0.09675900255486055701 -0.032694797449368429021 0.33450420560000165837 0.25194363559625315707 0.074784839808511680004 0.10436484077636863643 0.021714180795323435175 -0.17696557795390543966 -0.17042415694152548977 0.035754281609503946182 -0.082897897544880402854 -0.034327044747687079917 0.27976467217607253746 0.076480628957543775326 0.0015238605836736215157 -0.27089079822287281951 -0.039594030933159461705 0.0055550829825561347936 0.019513010530538433401 0.10169216908640894836 -0.18311009779811451836 -0.38513359433360228046 -0.061397872708975065326 -0.086592376102194099086 0.18842054755602041793 0.23840479441609593869 0.34913000683677242186 0.11213693255113731106 0.30075581997138878254 -0.054292185950990071164 0.21552436485478385086 0.016586843760623349447 -0.13245555619371637834 0.0037531607897902550738 -0.18710371127714647832 0.47328500337647555485 -0.25234037914488227639 -0.11747558886286534052 0.24834768978176652299 0.057727604293173855055 -0.39679701845242770775 0.12168014152193043498 0.19690134720622329279 0.22321693775156989381 0.096689578343576498831 0.10061984738193571753 0.036580087999315280545 0.076524004228138681194 -0.089220697637614296283 0.014037804266118128482 0.13038300149406911732 0.052377233287956424801 0.046842214183841046626 -0.042533759013296465468 0.10576577203253638426 0.35190077017784787694 -0.32639055771521419125 0.46980699936180742027 -0.13402544798428062123 0.4919515571500458484 -0.16965941128813855077 0.20609284770907532192 -0.30200335206308526192 0.041940229991305789936 0.17591105370959211895 0.33376498061729498179 -0.18898907050125329787 -0.19767582053871238235 0.18430204621908924389 0.016639100025079248124 -0.28170583829617323879 0.23984109379861226485 0.24309419578954064023 -0.091913002638676757905 -0.068279242125435568589 -0.076245262246553896501 -0.15606592128484567117 -0.11590709510576636954 -0.19551917069573634955 0.47807546358206404191 0.19514583727401160762 -0.06041246367709452586 -0.1814023157343291337 0.080610011908867337804;0.19990833994497561599 -0.24760063783429978046 -0.21098943788747370753 0.11905385958356502762 -0.18038443447310159584 0.092174267147063351779 -0.0013813618009481404975 -0.091729317522277864505 -0.055898257409410859187 0.17753293531574529385 -0.27066413543406897535 0.16854441023029870239 -0.09775608157836322698 -0.23018602881039476604 0.1219181736191052301 -0.1392031317756425024 -0.021279606224738518983 -0.1499718305720092737 0.25230789803339942479 0.0020087863197815122862 -0.064869279070320709502 -0.049947555312867160382 -0.080485420997551265776 -0.15322031766839455669 0.15852649813026328807 -0.20069076891261111717 -0.19523673121017010024 0.10553702216340618558 0.21034850854458014835 0.12631719058964380187 0.23500224931181870613 -0.15798640919018880346 0.20140819640324883477 0.18543825810842423651 0.086893108420335540831 0.086922401529726731062 0.083628394515351756056 -0.045547666197061548177 0.20274594592993974707 -0.21463707566065123866 0.079651527169216640445 -0.028918813376392221021 -0.1105106529828012718 0.13010279059386978262 0.20655650118622706501 0.32827005005619225297 -0.15660977545096665953 0.084816167086107882578 0.21704370987815471694 0.18225135639442857638 -0.097845583358965287912 0.0013523375880069746051 -0.013062029958542021105 0.0062939015025591307784 -0.11539742262193886102 0.26117467383626419286 -0.099561122196801368767 0.27821548773999660309 -0.056548931005173622144 0.0051567453495154754947 0.043130353205445025322 -0.22000296942270863854 0.15688784961521456962 0.022476892760890512107 -0.2590136067105801021 -0.070914159563769993411 0.22344284153117205394 -0.17826579247040000298 0.049771953019155983078 -0.18011527565518153926 -0.18388055420413462748 0.35529991935695193206 -0.10146598503532758273 0.15632008450609827244 -0.13369337684144033673 -0.041020445728065353663 0.085100262883741298325 0.049626691121405913654 0.02853630845943433067 0.028975523658244711767 -0.0067372540099327818397 0.052923263773639310503 -0.2196120311514242196 -0.090284651447074384945 0.18914959900714983787 -0.10674699475813810567 0.066673832376068775663 -0.02963289532312320812 -0.24496901241064378274 0.1332010662299647763 -0.14191402733446162321 -0.086991415217623199729 -0.033542634285874298183 -0.078143648159419210053 -0.22549763333260930409 -0.11039391743395408907;-0.00044792154527081070453 -0.16724034207354895876 0.29208275145720025145 -0.15641788119651017785 -0.014470468609195577883 -0.0095988172700283737326 0.0014420496378194525705 0.035558314100271562475 0.23968382465223314615 -0.3663009259632279413 -0.0072230425037275646991 -0.0022454375515320052631 -0.049459044094374314537 0.16866459706527742179 -0.083351861527944631769 0.29922001864194158749 -0.16060744884037997382 0.038051792212677001959 0.14742871361255993623 0.0017557939846544524422 0.14712135339769880082 0.077930216997708467996 -0.1190393899733462324 0.20790522377232850681 -0.14599303118682593894 -0.023901486973920256507 0.12982203453620452804 0.23688641828340847861 -0.16248576196673777949 0.24424747632758536664 -0.15038452072263411297 0.099583644425495471131 0.19213777315324448436 -0.22967329388239182686 -0.21297551525317737209 -0.25955373895136313322 -0.20265932495538138691 -0.16402647835477485172 -0.12848559095910733197 -0.19358092084481590134 -0.19756133352817528692 0.00098929483678897615559 -0.14849985266614174062 0.14774472130865307085 0.10894399542981841877 -0.0547053223743408229 0.11990544552727992744 0.048857009305588422476 -0.15520822317043425631 0.26870166324554584092 0.25604456297820998856 -0.060653748855802741557 0.24158136758225987051 -0.17010505537367565099 -0.14242640482272611591 -0.1674547646222138142 -0.134857993075983007 0.090810737547505668288 0.18300626997478824931 0.092895479742340969498 0.14327505259899858681 0.29143513355173689128 -0.00012924755695106781607 0.064820514409073881623 -0.13454995273403708156 -0.040071831283069757335 0.37099518469765091488 0.319880445413954273 0.034719742254433139106 0.30436354963988210276 -0.14665778944302867992 0.30235854409583440283 -0.10613790911367892988 0.074814447428761268744 -0.14111954412837879325 0.043600860820658601802 0.24084147730774246865 -0.2027035303433459279 -0.0096775730726078972033 -0.14584585217302564741 -0.23011277861005935419 -0.23417036923612050137 -0.01287574659018385706 -0.011647730417274439196 -0.019586292913030683982 0.33912167229710349359 -0.10691997532828644013 0.090704298375106642838 0.082320879600167803924 0.47874166350033953155 -0.096157391282143608868 0.015650990127114863815 0.21707831906860045046 0.09175921454267685351 0.095080859415878321572 0.16430252426183600267;-0.13082183847669967558 0.036874760039672334344 -0.16203899473316715762 0.040779656239630868164 0.14007604703050799411 -0.21101927975037501617 0.0068647268263658696441 -0.24973304321580491738 -0.085027940244031971484 -0.050385155130619870001 -0.27404386534359564953 -0.051112357056073656758 -0.2157391699126016138 -0.12904027954518901278 0.17444428500326794595 -0.015940934605627399279 -0.19143120110505146281 0.1769188283059615896 0.03759375083646836202 0.064488647599097365104 -0.11916835763332339626 -0.0010898949576223276783 -0.17008469756230726322 -0.11783946351381792417 -0.030022745716997489146 0.21159404984262880633 -0.23681815142575887712 0.055822599698301667015 -0.17964260235759027529 -0.22021062785414527441 -0.15032212901005093109 0.14933957174114381727 -0.14826673112378122021 0.15779039854907972451 0.1488179304971506689 0.043988398344371591742 0.10584545073059367648 0.050869282292565952408 -0.036482571148256731641 -0.0550548634588191102 -0.047291159355980591505 -0.19282051007538630882 0.015977674267654180806 -0.14650043859426112314 -0.32305805900734041458 0.24231183654256771565 -0.19721800170305658906 0.12610827816172140436 -0.033334403611072961626 0.17824340016856926594 0.0065426598378762433617 -0.21367153139296782283 -0.16578143562386221666 -0.14032344379447850291 0.1899717222978256348 -0.26011066552876588309 -0.29682736644205187648 0.13874060633475432391 -0.14197518305717332643 -0.2259473043933067915 -0.19195220634577134233 -0.22693351406213899124 0.06208898711388998598 0.024802093841061332441 -0.049064140402971585797 0.064917417618676989677 -0.1598458947304715605 -0.13059593933908139607 -0.028751673341779155485 -0.22435641958949614772 -0.24749820211862241792 -0.24931358488885105307 0.14551169094325863695 -0.23605340188818807468 0.27035631552326394589 -0.028169532193701610906 -0.26554530277436910746 -0.022513442866386634139 -0.1378597947868978324 0.091093109158499427358 -0.009440046716533893531 0.16259108221172713371 -0.0073871407906699760454 -0.14530140222122892024 -0.11158856457238544579 0.18131429921707112318 0.13973336866984345517 0.062389267207581068642 0.17565878953510771776 -0.11356082291279305518 0.25782734628926490261 -0.053281297502714479453 -0.1918732624647998819 0.011060735280184910354 0.06473870375238978403 -0.19567482614471096158;-0.061797332217808281785 -0.17510671839046740295 -0.090482485601894896421 -0.058815314971769366847 -0.064543732861159094916 0.00066784459955375919012 -0.0090093085046579809289 -0.13678272113917902542 -0.038816634785961361132 0.060750636608986975651 -0.21114485709949579184 0.26542009135297467415 -0.1363906289764807156 -0.058048091579859753542 0.11545319610159240908 0.28882812448281747209 -0.18153255013283214891 0.037476064200499377421 -0.16916254994707058401 -0.02275647663274282112 -0.10966162936356098345 0.26533894907754629333 0.061945142949898376883 -0.23410531504095596911 0.2439644965896111406 -0.10983022147811050129 -0.16870933852830466426 0.028174438421829681861 -0.15404312761086699779 -0.15758939493130880161 0.14958029589134064219 -0.22047796962414453747 -0.01531096529696862607 -0.012619060750369148413 0.087404803932923130771 -0.043423600226634946619 -0.064235418217592488155 0.11243481629664996146 -0.22383085103712943575 0.31438029087746188761 -0.051214261616299452951 0.11064299088748857924 0.26035477395207751172 -0.21295561378539137887 0.24799504415517095723 0.13461747242102525823 -0.21800233016279965681 0.07333248989595113343 0.14969515600056607085 0.24020338332127111336 -0.29176174919497033233 -0.24208200204795835009 -0.27674227036682502723 0.10411650667270615223 0.14903285968084162283 -0.33325505994459470038 0.15733471845120047816 0.033753071585864741211 -0.16794032503945394152 0.028632261643265627393 -0.090828846040046803956 0.024105669115891178306 -0.12347101360855958219 0.040316089628724557925 -0.24944886625775536393 -0.0044250804918732388263 -0.023825492573327593931 -0.11940122224528317008 0.12332027572842435559 -0.11246556653816751348 0.14651312548624498278 0.011713903770927769007 0.0067251433349191907379 -0.073568908344407643596 0.14135801097652750391 -0.17124398789652842123 -0.2271676188375815475 0.088463828205535624538 -0.043814362190445502176 -0.26133913524343549417 -0.074017533356592404847 -0.20803288942095959912 -0.17157657287545663438 -0.049432082401386613635 0.12200395969025777665 0.10849590791564479864 -0.19023675513349957988 -0.14536075311693952283 -0.27902300285279568737 0.17160519064022489166 -0.08788657681043282599 0.037017578831623661195 -0.038774007407856574126 -0.19517227414716711853 -0.047038515727919817666 -0.038144170444002770126;-0.15691981828762446849 -0.16289042107377396662 -0.15901848962254222508 0.030665950873190826048 0.14928393423090802195 0.082304632102787420034 0.039781293586889886205 0.29609370881300994816 -0.2526581270426083714 0.018793347724329258208 0.031298292091944325544 -0.0079524921325976379721 0.14221689387213903855 0.16170459242990151139 -0.29817252886356310215 0.11253555382066512958 -0.18511925097577797139 0.15511146430476746572 -0.10064123917597796176 -0.063958275186845589544 0.082855431716242725071 0.049095285072397118475 -0.11789319857130112212 -0.16338663728320895752 -0.019436824990359164583 -0.041286439057670640262 -0.10635435318392805204 0.25144992036157781667 -0.15472968071726708739 -0.1073163576385159218 0.03729248199755137716 -0.035704451794946273635 0.087443052493081083187 0.25784764443041019444 0.10050692378075963551 0.20710988768904831092 -0.017294910098749744637 0.29868322946719899624 0.29993184340370121488 -0.03600457762448192045 0.040251669391628587535 -0.12170772774767681101 0.20818507605947844663 -0.21424191926031843636 -0.44563367947370374766 0.25502171501826315092 -0.18916914452763411436 0.0081930195170673604521 -0.06078760685031368155 -0.16834909291574989831 -0.29467322726021266677 -0.064035845916986383619 0.20405978095617260948 0.21064783430573844059 -0.14668424455837886233 0.092378660839886564404 -0.042202299145841920547 0.46129369665361519282 0.12939749800420979886 -0.32136425803737095341 0.19006302567162694506 -0.042338321834818268274 0.19501867282637827539 0.085717989698885777017 -0.045600134548429177572 -0.011105838019391458746 0.23869964313420910518 -0.17398709329140063518 0.12944387770322079989 0.44897836020735854001 -0.20519360176701104126 0.58741935292833113991 0.27558891020898695912 -0.0080317032453856747332 0.2017823872149109854 -0.34346848497486898166 -0.0017890972943226475435 -0.1177568053641398077 0.4562994896249190635 -0.0058100262955548265253 -0.018729964550650169547 -0.21151305132009798338 0.15489920967864082013 0.17307213618367991992 0.04195668367603917065 0.040007714870404803564 0.10621790135168615588 -0.20004459209309671808 0.19027594649489584788 0.43642278876261636489 0.059625507488886085594 0.16840431087011056843 -0.12012664792905225486 0.25442515121491809937 0.18047304691569743262 0.26163786660419635632;0.29476850274718396916 -0.25726871832428294118 0.23972200545503943858 -0.21672352824478965938 -0.074478046858232963001 -0.00018333912290394101295 0.29226824302294979185 -0.26842922065460411707 0.116993491561183105 -0.00958507090278502491 -0.023655820989343399885 -0.21049558399821988175 0.031529280593803693522 0.23629201081554790376 -0.28881332410280452505 0.046895627896480371333 0.042071479059638490494 -0.19226236845357674854 0.0031807077828826988385 0.049699896510972930985 -0.30431826767221609176 0.10541247593683436556 -0.12724261190325600324 -0.24288209035892058263 0.053463981964273467329 0.011706764251949351718 -0.36852126555428665888 -0.1096209720670560106 0.15695218742659555744 0.20326525973026252081 -0.28023102750300660224 0.068697353171781910808 0.0012870248584097446556 0.084854945897742423133 -0.036296068282843152453 -0.070463006812176556815 -0.11952737133781847489 0.021432370862314163718 0.16865133551317823546 0.10792290026282967685 0.12245790147019115779 -0.084919292912988442179 0.12894370409644950737 0.16881614190348179227 -0.082082422452320544237 -0.12444939978685709558 -0.21313043323566260856 -0.33321706201232403899 0.083622219977729325691 0.14224724971367888604 -0.064029112937381157944 0.041281942174025566816 -0.11493899181592454051 -0.12623757032334229078 -0.13208683211688487802 0.13011404499763001841 0.017131453065318807266 0.1672342426012007055 -0.010338180456499760501 0.33751970781890477946 -0.35389502881633744247 -0.031425476180324443676 -0.074591392302734288444 -0.11540246896893488482 0.11376441237835356601 -0.30759994724344730255 -0.11046286460916800165 -0.080053640616592647294 -0.0021835583936722488194 0.054032409799551775476 0.034983559438887680548 -0.32889363350963662924 0.10555247460711428276 -0.17317537195835963626 0.049805705404342412446 0.072159737405652304987 0.17243219601222103954 0.096315184595304942361 0.11736383266702737904 -0.11834396878485828331 -0.18316560938686857196 0.027882572281894019844 -0.19689365150431500928 0.23274313370355420583 -0.30354817394686106624 0.20660479118335417503 0.1373232528436382216 0.12433900867171618354 0.36860087172222505414 -0.27702356884889578481 0.12060165420206961362 0.069480382253229902578 -0.17284691374889174509 -0.1738603635315710827 0.075583214774522428092 -0.19449347336808373021;0.23399712168093123044 -0.30039325103757957836 -0.22455658719277574176 0.25248516537668558302 0.22183447372632533745 0.17070206007592972353 0.081352401246338676422 -0.010315675164421989757 0.020488381493665754063 0.020956511458371046563 0.21925012692609874287 0.064238715595265283298 -0.0087134774038910272481 -0.10757371329023165951 0.14983636605386138618 -0.27923973374979899065 0.046474357401498279929 -0.0057162473560875438211 0.097269113337477314252 -0.05750380211718814083 -0.099411662445761744822 0.19814692983240944635 0.027679155537873752907 0.15332138290099997513 0.22954594370527017788 -0.15326205886059954264 -0.038338652817685968388 -0.19481324879973407893 0.057288785086728896689 0.10028572336506570706 0.12545209472853416366 0.16001675032594375736 0.18309210226226457774 0.06063199748573479958 0.16031864826924038803 0.30543007217548223675 0.14398929122450676577 -0.0070446369947542771678 -0.007016874092517377641 -0.02371703746445498473 -0.083574234085540585748 0.13549623024759524514 -0.10003090292108091086 0.065174789062862420463 -0.29323483419351464851 0.44759074486213629163 0.094141045829485847651 0.22921497852407915485 0.044512751767203859177 -0.16859889947075701322 0.054372994024928782142 -0.22866633037423825248 -0.1914516832318301498 0.24281467970767864339 0.15649533908299215201 -0.10501116325765935677 -0.19551215916675104833 0.14181591886996636198 -0.093880616649917467131 0.076032940252557634775 0.35324876259391663202 0.14058554065188957893 0.053641052958417055618 -0.2361820871921871956 -0.034736697975119149029 -0.085310748849205753075 -0.017268470088255213207 0.17252087644962590951 0.20142251291124776968 0.17385729453296092095 0.042011134427439825179 0.33944340651995102975 -0.15243080497229588577 -0.0031160654035271482219 -0.21967472835261803166 0.029223172631657957227 -0.30759024250536309841 -0.10312747419424966866 -0.096118665428066199508 -0.26341017265078092713 0.033618849685297574892 -0.18704797753559154749 -0.11032282251930269901 0.18924711876632482888 0.043341331643235711524 0.21215729847707096023 0.23846815577707750067 0.076188138477671835114 0.054849505182652115443 0.10078000597388850346 -0.17130406266737058241 -0.058849079589833173942 -0.00079300449518360477223 -0.20616847631240492467 0.051333594320634182151 -0.015349076033282031337;0.14225360475909437641 0.15899576415619470771 0.044764074043068015352 0.01165040180768292695 -0.071073076635232684817 0.070187540731599523669 -0.26865552886360100082 -0.020055806616526911795 0.19527977942964858116 0.010889220531663829084 -0.14465300513637491253 0.21789976725091092513 -0.17916725717674275575 0.057966728216929948314 -0.19329101882058116746 -0.1042153646832538888 0.22033813113707179099 -0.0013712963823857737995 0.060217535926174139971 -0.14855606265277090938 0.14616713700612296578 0.1589345095124978513 0.18755345426187583491 -0.065535077685098752642 -0.34791154661870060671 -0.22195682466333302441 0.03511011789261368754 0.058014893940984864351 -0.28927625878522350567 0.18046464331080031007 -0.1683125260251226718 -0.32295391166136189209 0.069598580461425751942 0.085022774928641978165 -0.017535878764515896305 -0.020113507096868970397 -0.24950887354420608899 -0.097824624231629103699 -0.037463290835298750092 0.2355175602419087022 0.055766427962594580792 0.01738065678818711407 -0.081792745223917620589 -0.13900926636593372021 -0.36695387901032805456 -0.15973638101879866769 0.22187028215705087431 -0.011900695393602143263 0.1101332406534955427 0.16362121901512768907 -0.015538909163378952782 -0.091618761748224419872 -0.15589914430026977077 -0.17452684857962946774 -0.3053449730481728186 -0.11286583464240274033 -0.10312561358169637649 -0.12106216985070616943 0.11798194024659390544 -0.13695916265898117059 0.15486028036315652168 -0.03433279260786546716 -0.009490109598530360735 0.10096969388640060494 0.06239514610186103899 -0.17536425156318216634 0.36406170298011869546 -0.027750466264146837758 -0.25516849246726247546 0.17975531470358338537 0.16716669049482346665 -0.26659809132179856928 -0.25125112707025426539 -0.087403968243246407677 0.12017494509924228629 -0.1225743743731089741 -0.087248584036561410704 -0.23692313618312546564 -0.23112363656140902379 -0.12417238658700061049 -0.3237183098266266934 0.0040665168950860582781 0.11047074687943109206 0.14402250695411800141 -0.14036715611175692997 -0.067621073748049029262 -0.28090078812405544495 0.059852205605788189047 -0.27628305977006001326 0.032855711461554464037 -0.24533277718498885944 -0.03888094226699440048 0.23409458718640335784 0.086012692811799060233 -0.27390406669861533384 0.29709860698175444282;0.088560617092297233555 0.12090700264910259065 0.27157404282619002078 -0.10450498166688798607 -0.04920924494244757752 -0.18261934242033636688 0.23112870560573109402 -0.088988650847506470254 -0.14255995553687847432 -0.34264416581976020471 0.048057938029197055929 0.10143026797383399018 -0.0852008323982428456 0.031146629407177016391 -0.10261717092531695561 -0.23357626145964599518 0.072031204478535615365 0.12684982891172813524 0.11480148497868947199 -0.02394674299851511784 -0.053257495589711156825 0.23792174833457307992 -0.038218449826677797221 -0.051980952673953161047 0.063487834481571386869 -0.12921906407223981983 -0.28651796933791051636 -0.045345873417476589839 -0.0013095426496080725398 -0.19698042205940588523 -0.051848471629913767122 -0.017215846572069013615 0.26132302431120851827 0.022696963609117503519 -0.20421284283739926657 -0.070816149641224138134 -0.18428281032597618183 0.20141004608326351644 0.29632540091354570011 -0.096274614203283995217 -0.022586373493986074135 0.23945777387627059651 -0.18275028855314687237 0.19794434479103431568 -0.30586431216624909712 -0.030320992096821736128 0.12988615986611057318 0.17236201661100150617 0.11063197023162540944 0.16398264271641294076 -0.042608743522391030745 -0.25039358887705320811 0.084054945754294771443 0.15482438540743384547 0.062436593576492074864 -0.19992097593875088335 0.089243383108633195233 0.002512111662019411544 -0.3864675021048129544 0.10021634141300651832 0.21075382188186222998 -0.15016735775029757538 0.0040472854213010802521 0.14929182490882189627 -0.17615001312860309457 -0.01912870007539910211 -0.18619855641916979727 0.020451033821631499354 -0.022238070049286459001 0.045359403192135099026 -0.44028255633392487933 -0.0033492181832766565984 0.050545241585791295114 -0.077214168071643607405 0.033599434974304655255 -0.10031945190143017055 0.073266949896989397306 -0.056901981800770086439 0.19689748062954476326 0.025407617414125876348 0.21913291221814815146 -0.13805795370815052148 -0.12772248557236576261 0.38103654295413053044 -0.047508184747374324064 -0.13106433791964466895 0.35272985605404744147 0.0018538827428985105595 0.31434970881299018064 0.17684259455978487696 0.10540588097834364956 0.18056215317236223861 -0.0041600103275928196345 0.41819834483046891549 0.18392165393645112936 0.19488902646375053096;0.033851664825993915686 0.27590737126545894498 0.14035110902337258332 -0.16390436564658622531 0.24097836572869846261 -0.16729916830598157151 -0.20290392155994102508 0.015031281396073894671 0.055875030513824343326 -0.00084822292228599815381 -0.252640035202613078 0.2374288301816006308 0.080495845657158032749 -0.21647360468523332844 0.38047391937299973597 0.064546859049682145382 -0.16270333449675861148 0.10555063998783413559 0.068639251242842425071 -0.27730539809596510548 0.11185085773719739832 -0.097310023257230510163 -0.11819132432799506205 0.0053390075308692467801 0.042606296375140045862 0.15350254755452624744 0.15221463073736157812 0.20597151756525494681 -0.19762881867291542948 0.0665708155322773526 0.087733919642689853213 -0.045129447785091543477 0.079840841175203472457 -0.16639274734240841469 0.088832275231788229708 -0.24780265749045471413 -0.15280156932581939744 0.12154274534923836804 -0.10505389370517981273 0.25525447968914211083 -0.0067049147327078850028 -0.22291214998967417982 0.019381072723142302172 -0.010458796129911452494 0.30484622814181905337 -0.24873629379106171333 -0.071657988048444046236 -0.18887633303111719951 0.16406941962262344692 0.1485226407232071999 0.34342047743891523925 -0.03380008100887851169 0.092494117964881036875 -0.062800839464823565717 -0.1342164931305467046 0.24260754666654857359 -0.22956689013163200652 -0.059551500542702584529 0.36777227780531379642 -0.20412771238943838714 0.077623118857616996147 0.15231331465470654418 -0.02205906825851834327 0.0095785101274853557546 -0.11288616385717407942 -0.022482389452361077609 -0.15536259154680776007 0.093725157527322022766 -0.37616112308160865041 -0.081776219547426615142 -0.059899773500499797763 -0.38550621919474159505 0.23641039740016348003 0.11855567227323543511 -0.08213186340330647095 -0.158223180738690683 -0.081875865205466150099 0.17511622995099337952 -0.19055411713077974323 -0.0078225873376257908098 -0.32770397309995363821 0.095362662944987020008 0.056259616255529443229 -0.19776487883375687415 0.18613871029623663134 0.10536545246463499548 -0.35543355774302781702 -0.015389461257429173577 0.094898131602607335711 -0.13449608429407325372 -0.12539333152393758453 0.18626837669641282957 -0.30153042528734796957 -0.27173554707681252252 -0.030557866986037247881 -0.29225045738238253357;0.16585303176901039501 -0.034814247483956034523 0.060909619516270677164 -0.0073639270198873419196 0.0061125042016260261457 0.20756096087444039777 0.30432710391994277632 0.17687749258208157466 -0.08773501057430689587 -0.011759260505938586711 0.021928174736976353137 -0.11197933052885251926 -0.043304249656527731005 -0.19360958572600128758 -0.36745287145334459833 -0.037228932107162514276 -0.024390876649578445423 -0.13787320985542947382 -0.18238567245187187194 0.098590039894920017405 -0.0012386540221829200545 0.15007173129945869383 -0.17125364507584958651 -0.14441445252496168394 -0.059316191930785820696 -0.13414396408226589297 0.15872698267082821499 -0.27492026301272781685 0.2499780818185309561 -0.016574856429860194973 0.25941835880190122765 0.26180397852751413623 -0.33228469609643246363 0.0078436461112362954734 0.058758404186543086722 0.028103686595561682554 0.20535985769969958281 -0.075921974211853801573 0.09767448921591946609 -0.24308990750490511168 -0.3000809841456588134 -0.19698423228404002283 0.21575527345501183119 0.1985885039830755372 -0.13158235293193526472 -0.13154663382503764546 0.076548131599063193309 0.044133212171932556522 0.038546372387668732806 -0.031106003433024928539 0.094720747243295558282 -0.05705083496972890994 0.20862098178090957012 0.0633207841082788353 0.41520941045382991907 0.020526870978762060127 0.12541385323846679367 -0.10108892408366146332 -0.26314113562025870374 0.21283905876222863895 0.025201268456267911233 -0.39174509907034232858 0.0059144157305613120901 0.080434188852690560734 -0.11002882085349617591 0.19473996097553053497 -0.086682580430358174839 0.019798342903154055039 -0.065170897561567464606 -0.39979691862668226277 -0.41258923060286289974 -0.44960136519963445068 -0.11105999876389328895 0.18048921752147603637 0.0054516103445320929222 0.050504884295494510693 -0.018770647182880701581 0.19936428909224931938 -0.20917210943732292283 0.18959686702369299427 0.4601416941185771381 -0.2853062873444384695 -0.060604889096322729636 0.37759288619201686332 0.059762945966641091433 0.064358048516436228148 0.52023944899340079928 -0.18335344360687197418 -0.096123164704838726102 -0.093139881578651370631 -0.011305425492556045453 -0.019662624421941915509 -0.12822080348586745169 0.39822143521042691061 -0.1728610590870306718 -0.41874735362054710253;-0.024330955668969402039 -0.12248245851549210972 -0.32070150569914807059 0.18721891320463296404 -0.095872931351710780068 -0.060985265444691835746 -0.32448923750705943592 0.057188265466928643599 -0.012773931929820247361 -0.12217193070734251592 -0.16765322771452054185 0.035898293080908326436 0.18294081248020735431 0.19133488792229824682 -0.035047268135436855652 -0.068248974996682101879 0.009761898788141907396 0.32626619478007018449 -0.096579309038773278329 0.15606594699691742067 0.18056180642840044537 -0.018361872002199252502 -0.10312920090330442158 -0.092830283731862181518 -0.061510555641283007344 0.3514600797488318662 -0.020406158964222730068 -0.069670413948773490809 -0.13949971413191994407 -0.15567589019091823688 -0.078690748677177888015 0.093881511997469371811 0.06398683942559844906 -0.14638933523455657792 -0.20641855726961538808 -0.049089097393999851782 -0.15198946349909647768 0.2485327250255530418 0.057740064245410692434 0.12726799257524107345 0.32515782969277579051 0.022313117323124985469 -0.021467427547019999473 0.22572491286408064015 -0.24063059385397117529 -0.021888900987230203166 -0.092790534318586442852 0.10842273805444135881 -0.21629345260984819688 0.25677060334853335499 -0.049503910333592394954 0.35181258410492899369 0.090760495648752007036 -0.12532094027641890732 0.14934764444325249189 -0.28173215611598528829 0.23876002743346189106 -0.1050717452897823867 0.16756534114280421943 0.1456546355710564844 0.26135936746899579575 0.035729160410668710235 0.23922482895396723901 -0.013460697469436979506 0.27471242602394180254 0.095987110684682575013 -0.2479524009749101976 0.24366834789532842986 -0.16886629725384766365 -0.096110323815363829514 0.27521108225141727166 0.26250523171394940514 -0.15222745992621367073 0.28171677983938081535 -0.074187832774902803812 0.28203762420553546431 0.0057596696097380250742 -0.21139304512422141258 -0.0022366931475154196857 -0.11126800251749015269 0.16450845614745643331 -0.037865826165492597055 -0.083122592455276131385 -0.13455713756622417199 0.19148357056004960963 -0.047849314873515388924 -0.0024611220008268538256 0.22559064305943848927 -0.03830455671376672977 0.31173366315544870364 -0.19629863990035761878 0.18812948203054197238 0.35927610169296436693 -0.21390089814911383836 -0.045637762051955237108 0.21638522570773260911;-0.036798759030931368907 -0.36988167160371793196 -0.25850620382736672065 0.13055122445335484715 0.27322302505365780867 -0.079358768154735331857 -0.027227556187700494017 0.042995957566536860406 -0.15633869961550272976 0.15714970193701671697 0.29632867050149303001 0.44345561861661253467 0.18928532647121346089 -0.20373969421251553191 -0.20440428584088962682 0.18487855337721667559 -0.17787571945627400627 -0.040360241836806497184 -0.40260160106443909633 0.089482810447795976816 -0.34184467047559197184 -0.00016132180409899644913 0.20649855120262983199 -0.4414321679389781039 -0.4342945466527563525 -0.014919901179070362007 0.11084288331601691024 -0.11151197327599854381 -0.14725717163946361321 0.09981869756530289961 0.25565394920977257964 0.22520278082969671929 0.049122363035386126806 -0.086137918814252631416 0.12634938588934399584 -0.055257746064871979264 0.14875196492995246267 0.040885889768802176347 0.22291820218001789922 -0.10939915508322892168 -0.10527121922524797226 0.1833681248038498135 -0.12004400999922085203 -0.092327746440194397026 -0.10180621079147358921 0.22988698617991962236 0.019558700521871297956 0.13326982616493876499 0.25933806263149256077 0.17629989854823466255 -0.047488734772917241822 -0.065517181321638334746 -0.30806626914208418144 0.10591316539152349774 -0.16766478482152052942 -0.20512104556967852842 -0.39312571131868961904 0.064249980110014204282 0.30879247210093618836 -0.26350120843394947423 0.07527668084848727903 -0.33356340280671881171 -0.058092590621967907238 -0.48756527389701215247 -0.22367822325371952696 0.078999427295884341871 -0.11734181519687440776 0.26154815826209620866 -0.20199441396759354461 -0.050778247944190640917 0.019369176794772267197 0.26793157872601386371 0.0015273028613942490287 0.34030151127150071177 0.22384601715562360558 -0.095027408414729161445 -0.10474251353409502752 0.20548021244419345521 -0.22765051949207187887 -0.12195256846976787468 0.0033498868117124713795 0.085498453258042839131 -0.18630131960028023519 -0.11179331915032449107 0.11500039496827160757 -0.29052542877885589867 -0.10475258676280020664 -0.19881842800262966575 0.022169889652652388645 0.48914245797898137091 -0.052172346627147946074 -0.22149277562225344607 0.1104156613866970893 -0.25913554849531456048 0.086946598985040243757 0.16654608786974747781;0.23052458628400898655 -0.20979039599607701705 0.071830848714603559579 0.016542982024803996877 -0.1305667136633290315 0.026737677964167684552 0.091078263549159030332 0.13889711005444044245 0.26532950911207980882 -0.11318191808018840394 -0.18083735448255236489 0.15417015377453474612 -0.039856312219072674574 0.10829329679033228295 0.024019825476831832556 -0.10520941395301171284 -0.18823565347894941069 0.08102312458058133493 0.14702038171287543089 0.079096041950579912272 0.054527945678461788026 0.11702053368136773603 -0.09819750246448641362 0.1151204030002040829 -0.27393501700792199927 -0.18327479011970071454 0.11341541092874372898 0.06917916333429645348 -0.0055877134654621048518 0.14624356724795128937 -0.11728947008515104578 -0.18421016798439654449 -0.12553374813831430501 -0.18244411740709515213 -0.11190257417385952865 -0.002520457786522972872 0.045181041384381906423 -0.26290254571304483289 0.0041248203742746342507 0.17657361913923988461 -0.0052403841381203526695 0.052078930337020087893 -0.065873628892320484907 0.13859468898120561042 -0.1900031830495482188 -0.18324686599022427247 0.10115372417269337391 -0.20620972606097948132 -0.30651196406457797972 0.019315742478539486143 -0.20351784082744481252 -0.06741882251060676845 0.17912367529909867248 -0.067730056991875037253 -0.096764037616174622403 0.24745050559231873688 -0.27968712704847542572 -0.048540902169404327726 0.22336563060717065654 0.14460390939033804236 0.050517450173805114599 0.10898319978631487714 0.19799484245034634777 0.09509030805106820361 -0.13378286264285399465 -0.23845578059647568048 -0.097131205188175334664 -0.12519882790761746594 0.23532024615241470267 0.18484163423811059146 0.27051618047874381734 -0.23210564673775274658 -0.25520568346060001907 -0.24600955955235040418 -0.017109441277510451657 0.36823818324021551085 0.052458843917040288984 -0.12743390391258910266 0.11462643385987891786 -0.032591398122776060742 -0.20627117579197948305 -0.29835050208989283282 0.091877293629417031151 0.22416730084946129287 -0.10701153199955990014 0.3392704267310074906 -0.018037536864911638684 0.30129701030275396478 0.25728251193232898331 -0.024512713263555054727 -0.025960166626336347168 -0.33556868366340641963 0.10486158188965544191 -0.016751988833297877524 0.35729152412302250807 0.24637533715921061672;-0.10348754678622559822 0.033871443913649365576 -0.054754493419342450955 -0.23848185283123946032 -0.2151582834212456552 -0.24315146794178071898 0.21724707444905913545 -0.05534751951979777207 -0.2030240755761949234 0.2413882841442552829 0.25791244073952263038 0.16477885154320071059 0.49117214501704548058 -0.065541948955178508385 -0.052151774799177090525 -0.18315673714145347395 0.24134084973626637738 -0.26036508607958042116 0.14701321787995258461 0.126559604229262046 -0.031672065660405888943 0.0045021324442371946084 0.096244665628726092099 -0.053138154247121809071 -0.1301264947798206062 -0.29879160959614020632 -0.081775288553911293365 0.054644811159892968389 -0.16458983144044997404 0.22729732649285103174 0.15312770290340077528 0.20363090035479197715 -0.07842533073364761631 0.14546719275692238105 -0.10169941537823642963 -0.025722333810735732024 -0.13797463431513182219 -0.025237493599382324755 -0.20007745815894517616 0.14830210459693216052 0.20496970296776814702 -0.12100771181050558323 -0.0021076050801895973921 0.21614889075906851268 -0.033103562221850936498 -0.060553401237470091956 0.076245367294889010434 0.14390373733471822915 -0.17691851295504540387 0.0089156994864441150433 -0.29262529760972783022 0.22510281406930635062 0.072072959492459912068 0.026709400857174769861 -0.090753652055512931685 -0.24468424566730126446 -0.098901612364489882578 0.080110405401124476499 0.31126963218267111877 -0.080431996522095525193 0.083669505971576824122 -0.22619278558021863046 0.064591220580254848915 -0.12651893920609738609 0.24094327152229783051 -0.010146386605910221596 -0.024770330592143889603 0.23112645618204097353 0.35684237745721381074 -0.10917737035099389642 -0.15825466126596032801 0.083279984614195681769 0.20218624998241899182 0.15348660727967486372 0.14837488931355446997 -0.067298140023964864165 -0.31039893722709105406 0.068655000275982550062 0.072437085125662090124 -0.074335793481111078762 0.04429187827685264478 0.14450108517518869822 0.085674238901587443373 -0.096631777925155329378 0.21985191542810714194 0.022344770330161398131 0.23973451919023575085 0.28521682663154296344 0.1272530850569032479 -0.1119196001148460573 -0.25354567941844913248 -0.23600749290451417117 0.0034118090817639081663 -0.13878361557065338472 -0.07294086832191006009 -0.3212217875548901147;-0.12317111207079288471 -0.11996768269600534274 0.045260671735341491406 0.082150918297586181249 0.025377645867941389657 0.13386737535512563402 -0.15231476278602160135 0.11822649441331441189 -0.0035368865872092212881 -0.035950841553866685896 -0.080963056889533244198 -0.12026130419142039285 -0.06676955795372715996 -0.0025413255874505852328 0.19181859983613627763 0.030033556692993144954 0.095116898319071524481 0.18199714863549118493 -0.12769434226508100116 0.211683553304163663 0.27699942518708897676 0.1543449475643078328 0.1067711171140636045 0.085963702500505945192 0.141035217270433888 -0.059608927111626464068 0.032760115291433279661 0.045967652896254679318 -0.2615965695008966585 -0.2158076004111412205 0.14327192234954169714 0.11062860957341122403 0.16488409958216168616 0.23543339542821933863 -0.14107407068851127163 -0.0055981040220373637015 0.21339114717038670799 0.0012925969813471450617 -0.051826227447009542981 -0.26061859334376524799 -0.28588867375831961137 -0.0091285617324249022919 0.18511877879451935081 -0.066474770929430729294 -0.091800527217120328483 -0.016343086871252590631 -0.2131392922999889028 -0.31828253071448170397 -0.11861293703792696874 -0.020306910759393739796 -0.062768106750967708751 0.057379558687336434941 -0.30398439758118184217 0.0018283976942582704991 -0.18867951844008584716 0.020306922747469327573 -0.20331649178161542713 0.13913401789003063125 0.2226675867749007276 0.19218671963068675868 0.11646424150313079704 0.098201025242199077581 -0.04675292468355227854 0.22330894296481990091 0.23535575133392752645 -0.13367247654113206812 -0.048870609842198077521 -0.075677526273819961666 0.28124925875891920724 0.12526648188551911534 0.16235683180377261103 -0.3865862441407557637 0.21600643737352601126 -0.071466714171855336146 0.1284945315325357329 0.0084692497099094644214 -0.17214103158551846695 0.1580718774750768385 -0.0085676459065250447356 0.2320824258910054172 -0.13738531401467621307 0.10376398175001246005 -0.02275852046010946178 -0.15955835365262452386 -0.097435613389544387108 -0.15651184958375249923 0.2055287867380079514 -0.36131986882294164776 -0.11719972068789165365 0.084456116265403849419 0.22692216273436893736 -0.020967537145275261939 0.11743171598424423374 0.29606771866974446183 -0.11250909931818772747 0.11081687680412914687;-0.057786817473929087685 0.045362967243326883515 0.1119862800231464367 0.16996322179093242832 -0.037652311181207112623 -0.10582989132637231344 0.041483285659256338707 -0.025970188481153691495 -0.17998850409597030864 0.19241849426922644217 0.056716004179602694246 0.15224403374946229861 -0.28422307874428742736 -0.071811134313317259714 -0.28968297691042799169 -0.03673247081441475409 0.309595292512150011 0.11556303838347881108 0.25727090099018617986 -0.12324680585122052556 -0.32192371234242550537 0.0043860905141004588592 -0.1519796794297338105 0.57773126615343339818 0.2060600704194353594 0.26315059511325722408 -0.014052972732954508231 -0.11381330028776383279 -0.13998278047301931926 -0.043391266934424563284 -0.11479516395785482885 0.090689257320438948495 -0.10811912386071970138 -0.30274920892158663221 -0.060004471002819061154 -0.22223394763703252508 0.10210373515654108667 -0.2217405611384046793 0.051302232795022689738 0.05123234354384736261 0.23101720458994046137 -0.090494693707001583327 0.15779308006164288747 -0.21862906602059328787 -0.41937985822717926965 0.22455992576688546536 -0.13290340281178181225 -0.032917691148594045714 0.17592143841871751841 -0.044064327050112261919 -0.078161602262053098134 0.026024920977970662783 0.08911241547259100837 -0.075423455628908495085 -0.049925473440187204122 -0.077442285597598387037 -0.0069990804275190561523 -0.16747129569413210515 0.23400519917634107769 -0.26377066587914571594 -0.11610935893105341077 -0.2783805970077931069 -0.1218765676322963315 0.24218872396697968541 -0.15869959069638658877 0.34501678029017118776 -0.31038835457781410732 -0.15144086660326278038 -0.34067385791339799272 -0.33705369693240977425 -0.27490309587243222378 -0.085673404911499162484 -0.34468433936818271279 0.093869591767777579849 0.19367052979524401746 0.21244508570298747951 0.054919488243346484269 0.14660846329067050986 0.074786224363123265935 -0.086674909374820238717 0.025907441711529081985 0.28852032538136646034 -0.054682262845207392499 0.15942304025309075866 -0.1720393449110133588 -0.13400549744724044032 -0.19800651242333616731 -0.28587396779685819714 0.18557760218015592613 0.0014840617941333385764 0.11805375050454045005 -0.11369032359479255834 -0.12213710145876052748 -0.29961868222232873604 0.11768543435777042983 0.10438647792343004606;0.092830972904462349948 -0.050629040484677000078 0.1837949255692645778 -0.025058101104705771123 0.24337716493681063601 -0.071722034882020210822 -0.058427141538865960679 0.011715650751443819691 0.062877913821538053418 0.16705487693488418888 -0.20807987289912541207 -0.2506458301543268985 0.13890710235547343299 0.048538496817920578907 0.01972594163319884783 -0.0068186903919047470168 -0.25892060089326801586 0.083788364951936963876 -0.13140527193019779784 -0.017196984201800043918 -0.04430475301372591157 0.060409523618816435286 0.13074798756837049951 -0.13624109010145540877 -0.25716587704640714307 -0.0017459511813696015556 0.076601847359481292643 0.22929505847019912568 -0.12995529226926805233 -0.13158551660268955064 0.1075124330053622429 0.19091687695676204384 0.002661326335570639301 0.091696376063670287371 -0.019459536587366248889 -0.090395454660025825744 0.041124638709424093941 -0.019868932333528762507 -0.00074955898014239562624 -0.31222421860932580984 0.18765770494492658993 -0.078270250152676468236 0.03209350249266186561 0.093843158057132419758 0.047754872467786674273 0.34779675818322652869 0.13646574267086425403 -0.5508227647165148122 0.027874737922121976125 -0.16523565279691651564 -0.021181230497483407443 -0.044809954874420070137 0.27341197453112220384 0.085972038411614923326 -0.34188566819445176392 0.0086540024266405085607 -0.23200245096350310958 -0.13299704872057732663 0.36922655785084501634 -0.35751904360748681944 0.3249698831921667419 0.073590607691722861872 -0.15432425141277880676 -0.010436520281853479269 0.16969448079475690783 -0.080846843973721729815 0.086526666972572149894 0.24485284430959250446 -0.10926710840961686988 0.049643127328336034143 0.30620339191108447707 -0.095498655665613246812 0.098376932539516653842 0.12293686762617013486 0.026744849524833448629 -0.24681072149677862893 0.19547817990628724161 0.066659411084493344624 0.3161010125312182506 0.042048324523475066883 -0.040548880025765343671 -0.44243325484154144567 0.19628002327436294694 -0.27454784029843237736 0.081951920198866975986 0.10007369423092807303 -0.28797217345179121351 -0.092271606584514928584 0.0327679620615459119 0.018586011860558443454 0.012284339659602516726 0.023949897398640916657 -0.1120513104491566575 -0.16608219933510925959 -0.099569264108404442748 -0.22209142204355292183;0.067941971872343853711 -0.063234915165865213105 -0.08698504897438788519 0.063973064192633752323 -0.18568371853158660567 0.32913706246234797348 -0.019995297726202568983 0.086975626894794766386 -0.10349713763521638243 -0.42588774938590734376 -0.058435118800432284125 -0.19484764375372923273 -0.20176825410253773629 0.25180499147500962076 -0.31886605814252422242 0.13699453891512017312 -0.051966917746111139509 0.042567828743314939377 -0.045255524613457477623 0.42574649991110752323 -0.15696129113834242363 0.13323960133438877973 0.32659356227425739849 -0.14362777241143373508 0.08581158680442449449 0.038896238329082427621 -0.050627312826515169508 -0.34892520081543515476 -0.097005240419366797755 -0.22911678967568310794 0.21283273632080412785 -0.010110232743442325309 -0.04652510352950816469 0.14184786950268124528 -0.31969633196481178627 -0.0032218791886226799508 0.16178806880598228801 -0.21655209196841340713 0.11429309968160664135 0.0091796210169462228584 -0.20923595128160016321 -0.11576726184671386199 0.19200400072582593514 0.22168354313243848752 0.040901364333876498447 -0.19612340683942589004 -0.24471266510315969889 -0.010264617911111573526 -0.12233322362743685729 -0.0046530206227848687137 -0.037256782463276877371 -0.1623355305233874224 -0.029402105737751614567 -0.15040151482551866735 -0.227297337495286772 0.10652412254720369789 0.03095359323392509257 -0.05942564676592451689 0.13758453817589447188 0.056123135150383855752 0.12234336798362696608 0.2347914720507160713 0.053791381571099264325 0.28278137785360668577 0.081711482732207740831 -0.099487829108085443219 0.069587756863758662429 0.1043279669478025945 0.10045725665011258354 -0.2701965953951162569 0.15457088333243684808 -0.20890888360983450589 -0.17724563200055379331 -0.24180001121475447334 0.085616988166671958993 0.059924210371617089854 -0.39946363343345442365 0.087427457686053089425 0.16698327946689464629 0.057219822758090038706 -0.14197883939292985089 -0.11536526601542232418 -0.044093904319333333819 0.29235859176990192099 -0.043807933695088702164 -0.078743790878388550403 0.38155581014281197971 -0.068797247727121063621 -0.21526360832637930764 -0.12860798453257343832 0.30171044053416473663 0.047054181073298152749 -0.35402494154990987729 0.55897784874607348016 0.21705646934566796835 -0.34533513357420414502;-0.20881950566592741292 0.13049244868461717939 -0.023621156891314595838 0.059476579588670253074 0.12840010900760268076 0.20718812138006800772 0.31271703659211746995 0.097149543211861533187 -0.053981804232708548164 -0.16736197617266609927 0.072268024379301271098 0.095501353980673095445 -0.097304816877239061479 0.1714118001762660326 -0.14059812961548853738 0.087987686126089759142 0.10100301988146466459 0.13587974954627357604 0.31649913100231757968 -0.14357244663324400524 0.097776070035212117593 0.051368492675991271612 -0.14627670717002458356 -0.053526738025112721719 0.21325706676927055905 -0.1954962233808139882 -0.052424611715634797382 0.1091592450566049588 0.14339620880886877474 0.085022283410293553185 0.21993851100035885504 0.033206462079417943534 -0.073609289578930980902 0.4212685938116262907 -0.11090655776165088409 0.027391981893107378992 0.03849905227714046918 -0.19890705762077207086 -0.24330022031974463115 -0.20811864074122632395 -0.039845726155855666628 0.0087916484046116349926 -0.29827370289493693178 0.040466787966666792342 0.082333275431755087448 0.31171088117009110308 0.22610674318473386601 0.16683647803275300503 0.24590890026820616532 -0.0034520885121782801143 -0.020442869150192010536 0.28096722740221169445 0.052890519754746290193 0.20939053611456026616 -0.15026292286871584247 0.074099797655702653865 0.12385364488599555355 -0.21178763661402455476 -0.0064200997831543532915 -0.11334963350319558761 0.2134011357275650278 -0.018243389829652217199 0.13523092835368669129 -0.25386101354690215892 -0.011306372904359375878 0.29111819619218126665 -0.2860042786463982134 0.039568883128552626016 0.48623433488134731872 -0.29697998263024522059 -0.092658378238043251351 -0.33926322462396790725 0.16919033224887783384 -0.16735888785992833472 0.25561648323103980385 -0.02060935183111077193 -0.070003329959612115019 -0.17972431722832693524 0.091830653511242060771 -0.071775473780194609663 0.19349974926572430234 0.1083735056680226877 0.26565062718668480679 0.043409625394581603797 -0.030375970124154619278 -0.11314490600785133412 0.30689386728852391384 0.19297704156212031057 0.0044598668115118792268 -0.29957693878804697585 0.46861938546778897363 0.10061008695230189147 -0.2091388116242461348 0.14909763085024466123 -0.048736390654636932429 -0.37126048565365854515;-0.25822730662867210416 -0.026515123435366331345 -0.12749747898160843085 0.13010466338280279874 -0.031742509741290211855 0.17919955408242499439 0.2113782659216822124 -0.1168251555579405826 0.39370263662998866705 -0.022298407114436060578 -0.068279363611153595648 0.19395570059365699334 0.18272267414907036875 0.19090695667171325711 0.43880533633535601101 0.051118211466137444821 -0.049621597333536854313 -0.20565954730706939579 -0.054269876219356166791 -0.12403762292948362911 0.099592761955106592908 0.11361701140610280802 0.1186934871718323542 -0.5103611138849104556 0.26690390565986427118 0.075861951324895579574 -0.16647933375669460299 -0.057165543936970097949 -0.094650705531822004746 -0.051847739861581074172 0.31740344479789001086 0.1641309070589112018 0.39160056099940460106 0.32193749156418943747 -0.4723001431138873496 -0.14412223118692854551 -0.18963029316468568708 0.013027199989877459238 0.0099011281052426829835 0.15742597528228802206 -0.21411838771244018353 0.16193819076825471948 0.26325691227355363377 -0.23619528951979248954 0.45766727874091672756 -0.27856285629220972622 -0.1544663000900967087 -0.17916297315328205686 0.14368374610909470657 0.19423086877953602003 -0.043361385265684185275 0.28395125403229265482 0.24597197422606312256 -0.16766567000553272981 -0.070990121192211097512 -0.24161937467738081597 0.19701502546849358755 0.44424514117105540212 -0.078060228014078886227 0.0059591550588987121304 -0.24477112029521777559 0.010742062314092439695 0.15971009069050706719 -0.0592438432188184122 -0.086195198753784577073 0.20939196452326094833 0.33999401846204868605 -0.18052803881025261679 -0.068196792451500024002 0.22476629845161139043 0.15961122899081461868 -0.56890135095384275488 0.17443189773904491102 0.084045787408517438899 0.29778825522331031639 0.33706794016083663212 -0.26775542879650021666 -0.12005672701503235233 -0.43896192896957164642 -0.177120901468009323 0.047732635772637296845 0.24088806042706187305 -0.13269510296424999463 0.39150829684836252476 -0.095894757305150860049 0.15850596529365926224 -0.32616208176779143413 -0.064392591117678921186 0.29315821375606898602 -0.17379138698874166402 -0.0071716757219715500035 -0.066317301213122459291 -0.29997838697478723669 0.11447860936648422692 0.25535377562340727531 -0.13976086618514282911;-0.22771658979121636723 0.036625811524666214425 0.025178566903122714948 0.20502937420035913241 0.10199436220251587026 -0.26401727455240731057 0.27202503995430393768 0.11248015035938604966 -0.11147049261276187337 0.11995753726139052331 0.37605090441135291535 0.16203910309305760706 0.045825631083759768569 0.12890265533167766243 -0.062946715219381513262 0.29540618236799509599 0.083397584849510000837 0.15319018456390842697 -0.09861850176526761047 -0.0932586250500777314 0.23668663963744240863 -0.38814730895035332026 -0.18450455779404553724 -0.4700151748845118882 -0.11125536891032183906 0.070733699557162410532 0.29431316632601106642 0.05622827785578142501 -0.071918598230821986772 -0.052878153614249523429 0.33961875926897072686 -0.15371735708912526164 -0.1367020084244626732 0.15043644196998676166 0.069845920105948228196 -0.19090222967961611999 0.28074364181183103506 0.31394565504945992629 -0.049499702005263018778 0.27916992962093334363 0.12934266507281971803 0.27688377223990751075 0.053270777449385256497 -0.0080492299108354814496 0.28647987859670859256 -0.11431693057533585944 0.04959953529875912176 0.29888976664307365105 -0.14431038026213488523 -0.20362573560809146822 0.0049929944235171577066 -0.4198476608837394819 -0.051431402598562929451 0.060961580827843524222 0.24055409855968432065 0.13275964834124912017 -0.16891779990635957809 0.11494009455103666728 0.11639158861728074457 -0.17855366071837383557 0.39176523682617997446 0.034290103991426630625 -0.13238623197481722005 0.11810221013501251419 0.29031917361298009705 0.064107628260264268305 0.41625443407886836278 0.1692045892462982204 0.26513436644883225934 0.081284391511592377078 0.053936369509118196885 0.12973853461525999831 0.093666305270914226866 0.13622225258469233822 -0.10316510508974487126 -0.20059917395316953503 0.23926949196748467652 -0.29044476997984081112 0.19674868630883621257 -0.026740084437861074557 0.11249810188570293079 0.12380928129884243016 -0.11719378680170906837 -0.17630958292674298038 0.18306838574273437414 -0.3131056217125987029 -0.3061731030931573172 -0.33026233586171499512 -0.5260938471413075801 -0.20291406020621235995 0.076024005645159556388 -0.28298065608565720064 -0.0072548903031769826008 0.27982194544100758016 0.051214140472105491864 -0.15927604614069207356;-0.052653043240566611838 0.25635493872638875912 -0.051722604953444967224 -0.038299871646291359928 0.18144185807970525381 -0.17114038944565410083 0.064590829794170107059 0.0020823373819087334473 0.090590814319173693092 -0.096283155724123256625 -0.11062871710911999223 0.18533661881232071922 0.019933702601298057544 0.17753623105000349014 0.057814548693608254493 0.33188586552412741026 0.16519738731026137324 0.11189593897947816559 -0.26914249375706922329 0.1025555757276915142 0.22896584445931944529 0.013638868283885819538 -0.25456238627791077933 0.10476659901658687268 -0.079769940202683936592 0.080382397939131045028 0.11597988208488915762 -0.16783423266920027839 0.04082296347755953736 0.029288242431623923157 0.0025516212822061234977 -0.092040337252020307246 0.31447609685967081727 -0.10298159565260825432 -0.094336835125240062205 0.04111516061857699994 -0.14186160795298446979 0.30477111466805406614 -0.040702222999146733806 -0.22055598752393609785 0.11825469266150015479 -0.024745707658293019521 0.15804163645562091522 0.098775105693955506103 0.26419297456197049501 -0.14870229553383051968 0.03366886055124749394 0.016036224691061966297 0.24492520492516836605 -0.19902497023322199277 -0.2818961443681140544 -0.17164054507487608303 0.037614507188855637876 0.14567160965805656114 0.14742329933907974415 0.060694024832313696327 0.096307973452072620502 0.33744183709734260068 -0.13786051760733833427 -0.131199565916477634 -0.18065444371598379791 -0.057456753102627357299 0.13807353649334139223 -0.29206230270642585811 -0.36570250599665687918 0.042406390932237698899 0.14391439403853137358 -0.1402157363588694694 0.14781986528641669065 0.23031091338883297182 0.14379809419304417917 0.16454432564686596874 -0.060463055629292238036 -0.096012625217769292929 0.076154566715303434465 -0.16838541647373458932 0.064134390719864819985 0.10178218392031902761 0.036838062142320576742 0.047549685855428146242 -0.36296344561754539937 -0.080453696247065317748 -0.083608485784799832508 -0.3180535849076599475 0.090306979858706296072 -0.32010163918490847079 -0.050927468216259534628 -0.22655135669755571692 -0.016608803092746496355 0.2597565133153760808 -0.31182917107876850782 -0.27063587723494109127 0.036043358517245417671 -0.043677787698542407113 0.11564653599204169354 0.090457360292450342265;-0.12888964301785332811 -0.014092379611415109877 0.1880298449739573885 -0.063398893596198824252 0.20243316998821125896 0.10634921396122580528 0.27386089478823105736 0.057641027912979321546 -0.15009222091953139389 0.040349098475544777076 -0.11765964148142933621 -0.037017704741757896658 0.05903304865914511812 -0.090795561475507796656 0.031807881596904008514 0.1933282133022972693 0.20439826489695334111 -0.19833529346345513122 0.015950667261910786432 -0.24773814546096167843 0.14883833982192465339 -0.058597046372172764683 