function [Y,Xf,Af] = net_new_7DoF_05252022(X,~,~)
%NET_NEW_7DOF_05252022 neural network simulation function.
%
% Auto-generated by MATLAB, 25-May-2022 11:47:47.
% 
% [Y] = net_new_7DoF_05252022(X,~,~) takes these arguments:
% 
%   X = 1xTS cell, 1 inputs over TS timesteps
%   Each X{1,ts} = 96xQ matrix, input #1 at timestep ts.
% 
% and returns:
%   Y = 1xTS cell of 1 outputs over TS timesteps.
%   Each Y{1,ts} = 7xQ matrix, output #1 at timestep ts.
% 
% where Q is number of samples (or series) and TS is the number of timesteps.

%#ok<*RPMT0>

% ===== NEURAL NETWORK CONSTANTS =====

% Input 1
x1_step1.xoffset = [-0.195287977230575;-0.272727172358943;-0.120625704453479;-0.182963921289004;-0.262261443732925;-0.100675953486569;-0.202394845826264;-0.26321384469267;-0.170835848105813;-0.198841291011868;-0.24720652996979;-0.0937111791951908;-0.170270840652307;-0.202549203670651;-0.0363445008588153;-0.238393227489637;-0.30349965922132;-0.0567326062422977;-0.184102074624715;-0.276990966812573;-0.119326021339333;-0.303778928610101;-0.342393400743693;-0.116576917678537;-0.187252406535639;-0.292716824969352;-0.109816882085027;-0.200456774755135;-0.249996852774117;-0.185171355102217;-0.248556505071904;-0.204520144893019;-0.0482836366263732;-0.231408826358932;-0.26109254169824;-0.0188404717610102;-0.193968975465624;-0.236450467827806;0.00549797996500693;-0.171805923400488;-0.191591361718617;-0.131750993225158;-0.242161931879411;-0.203269339704836;-0.0805419653561508;-0.316837347670181;-0.229887722019658;-0.151220166565802;-0.225780528535922;-0.229130532920502;-0.0842479367718799;-0.276777865875812;-0.212480323248449;-0.0341856485704083;-0.245150042750597;-0.247367094553754;-0.10117384158837;-0.214692089438539;-0.248196829495395;-0.0776778012594483;-0.176093909798684;-0.179508356167265;-0.0528462288581833;-0.18188761408205;-0.220139525293518;-0.0458201678141037;-0.324376202638919;-0.236591565367408;-0.283731580406692;-0.203773335970586;-0.259244597369114;-0.216502718032662;-0.273670973114241;-0.261095398765287;-0.0703846927191234;-0.214249919980921;-0.252901388275935;-0.142939414799335;-0.314325508662627;-0.279529511606755;-0.16094516843223;-0.207689045748537;-0.279003184051262;-0.0893274812607042;-0.25935523827508;-0.391073702408738;-0.165860638530511;-0.354359299973814;-0.310773696289543;-0.339373616094802;-0.28925295883312;-0.327719338668598;-0.259273399033406;-0.279313978410055;-0.287639360803008;-0.226997761475742];
x1_step1.gain = [3.84486612082969;2.94706742772865;4.65866677669071;4.23098735714935;3.39678299602239;4.88141116569547;4.00995287174886;3.81609127376107;4.53875176292704;4.32143521794749;3.59293937426629;5.48148937551922;4.80652992695541;4.12815935368906;6.51107818598305;3.65567098344237;3.00184362132341;6.18658119611557;4.75312631957719;3.79640814399666;4.72816637732756;3.49301068827229;3.35298168348688;4.5321759424509;4.07211891328188;3.03354960134944;5.1603457683075;4.31390610506063;3.51501181724271;4.85100973240673;3.95509154656298;4.39866913982585;6.80884453040301;3.92681369065097;3.56117494932834;6.74931563007009;4.59811082137134;3.79939656491393;7.40587926421518;4.38537989862941;4.5001761526827;5.53955503209362;3.55825325276255;3.9593421571012;4.98715975546817;3.2144829859569;3.94265545958458;3.98757373893005;4.13492431177591;3.82010113033852;4.84464669405457;3.36347284096564;4.31849860726194;6.25638843022725;3.95998055285505;3.69833569254098;5.57197904040772;4.29622196871319;3.4741983274299;6.91556966649562;4.67592886565409;4.27773696286934;5.92577033546874;4.21592039719806;3.72231655190714;6.60899674621318;3.04107199450718;3.90209820095702;3.43762176949146;3.44667736777202;3.00802245528195;3.52794232761697;3.46632511889728;3.98942990015393;4.62625737690122;4.28829452231959;4.32387197974853;4.3434561203653;3.82671566773218;3.59947150035123;4.0744956104315;4.21907407791436;3.35327021238062;5.60601973101028;3.93175614070176;3.05001238654873;4.24607432783594;3.1815836784586;3.25128851024038;3.46021245126247;3.182380653787;3.12759404052724;3.35005496018779;3.1684749380254;2.5334321640501;3.03571459706641];
x1_step1.ymin = -1;

% Layer 1
b1 = [-1.4535153288259514692;1.363725406620556635;1.3196555577841069251;1.167368810886474817;-1.2197155188144541693;-1.1259773841588534005;-1.1947011087615702074;1.0961509022386908274;-1.0430286211973727184;0.93843218658040050695;-0.92251473372698522546;-0.9343831219402447541;-0.88356329674736999724;0.719829778385945529;-0.82262907543494712126;-0.74249307508561024349;0.56906704290215703868;0.54511783102532163081;0.60070291100146933072;-0.55515148640408229497;0.28104249058605484946;0.58583865827736492093;0.45662967862265585461;-0.30179921642949592009;0.32764018689457313771;0.29489446337361635564;-0.40716945842404966838;-0.10728907703690386544;0.1314491933604316487;0.19328288100738083566;0.13087669424393780226;0.055710775618293247036;-0.038782031870614616653;-0.068406338797342411406;0.15110551178391121163;0.21156149355940712109;0.28354581936214878768;-0.23977691832190509147;-0.37328805006391591048;0.2677664911084216004;0.23672048283736865648;-0.485976641338665305;0.38507635412457552615;0.47186928157336338607;0.61835759426037684161;-0.53819040092092995664;0.66704810901585609439;-0.68650880255059543167;0.54033343631518315764;-0.69200440361091208885;-0.83308656821347371046;0.78700022672729363915;0.72093200433646664749;-0.92548516264427582723;-0.82073915460236523955;-1.0718874836867773315;-1.0817089447711745187;-1.2465569515494305808;-1.1467119914967531802;-1.207467887614044777;-1.2005471948695438655;-1.2879609353377257097;-1.332771205754263999;1.3733936615969826178];
IW1_1 = [0.02901663255819815837 0.0044340805205256642041 -0.11677813799046163346 -0.025862345650253412005 -0.057086904894962896273 0.15206355963783058094 0.17900035539102041038 0.17862093514695900898 0.20906024395605957156 -0.13723616152050627237 -0.15861708031450671985 0.066529708962034569963 0.028527414925197384921 0.097042424007480698744 0.022727860298482574497 -0.045752976831309931371 -0.22970388058053248237 -0.1423842533635505947 -0.21796569785372013617 -0.28980140725814790281 0.018821665433313521792 -0.1882707285020137622 -0.096502005829734879838 -0.23838437108754473304 0.17510356170068641646 -0.11266337189662749274 -0.22067996454423896568 0.19674512225952442424 0.053046475230423717484 0.042475127559649453191 0.084803990691717748285 -0.034077917722485563667 -0.23174964340106307681 -0.20156760206504523159 0.15947516815305365356 -0.11740710382018457181 0.25107290240708191043 -0.15758117955084000039 -0.14502809771941477246 -0.24600677712249180429 0.072856330200705032851 -0.011991407210749751786 0.015068184629050672754 0.23695620431166802833 0.048932437337297934876 0.1811907751886535356 -0.099631874633047928791 -0.25240035073913597019 0.19569086473819144456 0.13040394626328741245 -0.073603825796182992258 -0.056658030361675854047 0.14465613607097824178 0.15518092329533775264 -0.055885993228278620093 -0.00055586720307472374004 -0.2023193898775327848 0.13678577300928812521 -0.18157483807264326869 -0.16790262479976228449 0.099346328679403336781 -0.1573553633701082477 -0.090057876953560753175 0.31639728668359978769 -0.26823917753800435859 -0.073189294019153208759 0.23916129638470848273 -0.055289687827572722711 -0.22723180871412088089 0.23989928883216835032 -0.10272972564376708915 0.047133132351595628806 0.088482813497253412494 -0.057279893892190202054 0.22000422278345244109 0.17917369479447206593 0.17528000014254868644 -0.025512625087504046256 0.083629611338683171318 -0.0073012521269858144876 0.23618921375176626931 0.0045467240295344671375 -0.14541753948354776971 0.05196084099332874684 -0.0059841530693093714782 0.13560716691280724766 0.090642160023056042584 0.21211613818663624387 -0.078520446249265074545 0.046356436022758948368 0.15258807698649026752 -0.08457583419253507373 -0.03827233437729249399 0.15156378585202784359 0.1507108851756659984 -0.070085333426926535449;-0.21047629772342507648 -0.15995549768192121598 0.15258411478552427742 -0.17789254253964983943 -0.19767439334188804945 -0.170860167460513801 -0.04854637272619830024 -0.24240336673849796623 -0.23537658898114677264 0.1640193829845525697 -0.067047837751958855312 0.053093676933957834052 -0.080490032702999120273 -0.14967942444087642406 0.048570178856973469927 0.00091081191863448714152 -0.11394802483327026721 0.14822904254437624383 -0.013219713509212763225 0.15245644105981023819 -0.054467465411441359779 0.13430341624498817743 -0.0080951265962727093906 0.26011130235067925209 0.20133122564467595406 0.1683916116181584377 -0.04203593367356728977 0.051119781333240979504 -0.0080040842761869481631 -0.16503930322630097627 -0.26294052082763796907 -0.12321802570257782417 0.269810348671306377 -0.0088623951303333052543 -0.22360851022061667415 -0.10912047511486033802 0.097009815415049452381 0.075784069535372727833 0.2487600627103860873 -0.033927624658503283128 -0.21250747452287921391 0.079327068082899090951 0.080118028303900731824 0.21834449922928966803 0.11453043727360284754 -0.01129989090811906946 0.13393621579285122647 0.14228836364612687526 -0.22646044075263077611 -0.1420513068938949186 0.21145454556393888934 -0.25950774968348561123 -0.12261853158228741556 -0.037793609997291560676 0.029053633434443885963 -0.1252908741983972396 0.087939733244715087568 0.10723860228454265564 0.17685758271337118086 -0.085604307103822732672 -0.030775536659414216845 -0.11237972737061296957 -0.15278521384562696039 -0.20640290525794591225 0.082817103665117686173 0.20684890671287226027 0.088988391947153716588 0.1319656508633771097 -0.22497246268530768365 0.048166002289487669374 -0.18567206789466506045 -0.021814648932991627384 0.24138099233950996436 0.039254724198961483961 0.30128292777151471915 -0.15473428494195168303 -0.13911209174661939847 -0.016352314598940893148 0.030925219533705673725 0.1344675622315376351 0.2895044815202050259 0.086426745463920401358 -0.15952669967520860528 -0.030131744488079603012 0.025217264835628364766 -0.04377272977246413066 0.093278563919251780701 -0.17586813069270865184 -0.050192179573635663237 0.1978683457972094939 0.19130473724237942457 0.016724249184250788297 -0.098655821768645485248 0.21191371130647607135 0.065754162935416485269 0.1973849914976862352;-0.04794582191847684971 -0.10642434920484447614 -0.13084329692331256312 0.16850162180044081506 -0.059802558198501151732 0.23101102512475449324 -0.085123333715928728438 0.10204275532086076739 -0.03306118962480222162 0.072765254769082868269 0.27099466355604889811 0.22947425759529152534 0.18691992838294452239 0.26750052023394882417 0.15556063164574204793 -0.20623427936113006287 0.26632548993532445536 -0.013623207940582922337 -0.020695312635618318825 -0.1475382363777638095 0.072911160946454306453 -0.15936072574152240766 0.28256068518817423207 -0.0095657022224612548583 -0.062136716741427150401 -0.19558707518149739957 -0.099042575000129001728 0.14131733265903614893 0.2479006490247405714 0.059612635966440397084 0.083466099349997407986 0.1697268873864159755 -0.2843298520681316055 -0.086627005397625370109 -0.097085280997943793069 -0.21038164763739994334 -0.18823684193593401281 -0.22448684757799972078 0.17627985833887371836 0.22223980148558264425 -0.13941063332832251409 -0.056282240918563285204 -0.038600672447330112991 -0.063182508430317807502 -0.032183206760099489219 0.060563347651636713354 -0.16290859723263273473 0.23417983450429230574 0.23597614517828316427 -0.035369980298068301461 0.10887611343449883627 -0.019898514826669908701 -0.043802324834285442934 0.20193371093528358906 0.19191274981596789795 -0.064874834858733451681 0.113269268502492651 -0.27844690042478309477 0.03270059920970917744 -0.093085191663449348698 -0.017609744070636198371 -0.16894478056910283703 0.078536463228594782793 -0.11885474788196373486 0.23942543782296571431 0.21639860628340493176 -0.079347457674657714821 -0.12295752924612834978 0.069514121461250688583 -0.17612291451106107387 0.12073712976529371588 0.048793737147652782582 -0.27476542104839507541 0.11284006131503063197 -0.14330810492096454634 -0.070035538408012673606 0.19597627286213908926 0.058299107907807734552 0.093193765343565562742 0.069188804543362292243 -0.080651786290922178324 0.080641294523988896192 0.11565343841652137025 -0.19629839861387032851 0.20559483505027623118 -0.13085970557559936656 -0.06840921019691023619 -0.01110140836450722833 -0.016664708524275876483 -0.19337688518978637942 0.14713547853965613932 0.17069923336418343918 -0.053186520480353445539 -0.22519656804159515762 -0.035873449551439388905 0.18955985153627599726;-0.080294117996691866113 0.27006709254106109341 0.15921469333257459722 0.10302714090412469494 0.26760208365905086003 0.16786686898248326383 0.053974125904808906151 0.15638237431675508504 -0.17488941007336483713 0.15326691357134836213 -0.13596459619375089733 0.034284319532796939112 -0.075840422080793432058 -0.19281766696725699539 -0.011759641976816948006 0.091783763588085889862 0.051084428108296477122 -0.16149984447814602628 0.1972697335385539541 -0.1993670497609572323 0.071796798714473017422 0.0023584506755410183064 0.18669270318981950885 0.055542375935048973745 0.20083252991705788371 0.11928199006475628807 -0.16032579690014794882 -0.16278176590575524352 0.11629897656644065662 -0.19311977650899606052 -0.21456005051089604985 0.024649579638024981393 -0.091129842516655720774 6.3409243450317904177e-05 0.15106696986358481016 -0.26815424031249973646 -0.078581331908477020098 -0.1122728448984491173 0.077274921903540128021 0.028598730725782270379 0.27755284215913983425 0.1927490755447648918 0.048831441867643821109 0.092135994486544053883 -0.13400279064379011507 0.027218555666265568938 -0.086676463289885860575 -0.078113078739338884238 -0.15847754386378418157 -0.075676820045057879849 -0.061597736410972978027 0.24376151931918743632 0.16865983220906813345 0.19499933975779221162 0.23480252882570973316 -0.12873957088478402144 -0.023614161313732978664 0.24039919849079863234 -0.02964696390560401032 -0.0073754338671720154341 0.2707176903970285875 0.16380440530370815599 -0.19065490899516504553 0.24243294915098259623 0.019688453618580983168 -0.24449258262562909017 0.14851353331568417637 -0.21573512539032899116 0.071336081529410136359 -0.11962240640286189719 -0.039981950257101460389 -0.1799006800161715991 0.072385295692257378697 0.13446336105360978674 0.16512194465903268226 0.22819957753497413511 -0.18866340256088717786 0.20970397799020196183 0.015916356007001915968 -0.17328722104966301498 -0.27204576886460357654 -0.073114576703452824336 -0.10144327521005987169 -0.17284597140631655088 0.16676365166618420388 -0.19081505279835042632 -0.22922563056151781802 0.0034393550479714174797 -0.15416159532554554734 0.068946034312756490636 0.086305463733734905096 0.0025753258066204699067 -0.1895229720329092149 -0.092374696938221090292 0.23705952111161557316 0.30969684883487230698;0.16937439637376902613 0.02580522252217056639 -0.17668052422213034736 0.17641209576332281261 0.09995135216569443759 -0.10585993298319966438 0.11135940595218429827 -0.099250214018485161116 0.019820235077650353445 -0.040782879756549393624 0.19184258808304599508 -0.040750265222536885545 0.025090602187444705634 -0.074706951647347599743 -0.16948277513238574343 -0.024595236419730631683 0.012484418493387874557 0.14683232923803346548 0.025876116882432857041 0.032850872117896910696 -0.050856732520064298897 0.17679170419683620796 -0.27666769063794743877 -0.25718208348211024639 0.092854713743991304509 0.028656350531882091026 -0.11057739306944314173 -0.019146766896953344023 0.1950075601004152559 -0.27236583483950560503 0.0050645167228977067825 0.01834114964267291939 -0.21109982045981864895 -0.30222472726129023801 0.21027463502380022708 0.1829415278634213271 0.26225831691654843958 0.13446503355160741022 0.036725819306792667485 -0.16529069998092757454 0.058692622540728760228 -0.25225738665471464373 -0.094174030360386656868 0.16666602948193770528 -0.070751127664379881432 -0.24483580626557163717 -0.2338859980211272227 -0.25124818213759492203 0.011573303858952447426 -0.16770476205415224547 0.046972774166663351647 0.017773303129465841538 -0.014339814929571157234 -0.033582090402247972982 0.049476646874441219948 0.04874890218484170118 -0.24764874792410401794 0.1243439592048543596 -0.066327224983187632601 0.094331166157538212658 0.15537015150164154575 -0.20639855455323183331 -0.1175710512466367208 -0.28247247936697084114 0.17428726237551980804 -0.26411598436878547247 0.069633984822839500861 -0.085572580378826937353 -0.037859458796435901951 -0.13280005180477250093 0.15834124121253390083 0.16296112546950169975 0.019273945422605260475 0.05616856018609275164 -0.013738594086190306434 0.080366743810721272268 0.010093161359425435394 0.037806811377762858384 -0.15750713877253083584 -0.12774827720436096601 -0.30679758136839702098 -0.25958326952127169784 -0.24816950686727468067 -0.060987804617155423614 0.041028555973561094128 -0.063980886527651104068 -0.31831751873272629005 -0.26103772032286487459 -0.057488134260136214415 -0.046984862531284962706 0.094662169548210509107 0.17223279603609381594 0.18190936242776276077 0.12254270984551329793 -0.13070981045237833884 0.12228917972485589538;0.08050323320661904869 0.10490831353012688987 -0.16135363334427038629 -0.13124611867345284399 -0.088420400906216584103 -0.30414936717642748754 -0.17677940298883870751 -0.065754926748344599829 0.040711198578982234209 0.099487077174809396274 0.16590848521214193734 -0.025129256198637289765 0.26413034300968568635 0.054213898407587626793 0.10788588449201629016 0.045954896237901790568 -0.0029195076590674364815 0.14700119124140523241 -0.10324051627343515392 0.019824914963307068566 -0.1927857703768559583 -0.11971669228411581376 0.033943876074915321772 -0.11335956895698789948 0.23386681029017467037 -0.15653519098056142833 0.22250252102060452675 -0.2029104873554402888 0.1693607860007058652 0.042541209547838465532 0.065080961551061036752 0.15809228235260902595 -0.24785945599478262369 0.19533979250495608904 -0.087275052111591991388 -0.090876559998811431984 -0.19277504225482763878 0.18150244465530465665 0.028378952950935131677 0.29565669355019547071 0.09795312059560637441 0.12893534321511868068 0.04496837468789930542 0.25486863914503704587 -0.11724879324362540156 0.074702103793645197038 -0.15082805256622883183 -0.12174650123448231553 0.043113549212381328812 0.19064200465169431342 -0.10681315304359229046 -0.018638434496259740497 0.072229221465629461774 0.1237514627239589271 0.092034969802788760274 0.1069631462751412937 -0.20452662384587769195 -0.045851641391368574974 -0.090589556633255977069 0.23336333304212400486 -0.1684320794034843416 -0.063570246229430249496 0.029670431764926490786 -0.20229419395729172915 0.25184032423966662417 -0.16542844785269358865 -0.08937267061074469221 0.27314399956588802931 0.0023807225341705871499 0.26815473975397891016 -0.140510834824439379 0.28326331138991139857 0.17140955724369463797 -0.06925471602579542918 -0.065191383689842632987 -0.089267753562473114992 0.23632490008217657551 -0.1514790698134715341 0.047310032928915037032 0.026926467872979302498 0.26155809959672532417 -0.17902346135196237076 0.15429253125086023202 0.086593175984423120806 0.059093944365190609336 0.19773166907581224416 -0.17188414766003326517 -0.071915687907386560695 -0.11831702752998579653 -0.0051546815662080677778 0.062785957672443146182 -0.1426352635854228057 0.045607966606063345127 -0.2373839401851556008 -0.24336750059946579694 0.35094737237902129401;0.17016253779078732711 0.057223441703573532657 0.0054048491198738458571 0.060171037578320089867 -0.15430287266501180321 0.030147723141140801706 -0.12816039582415772458 0.040734310782411124741 0.26807694763782768943 0.042564796117651147733 0.2640963709274171678 0.073085572754891026115 0.11269756635363048503 0.21169051599786986584 -0.33084910706949399728 -0.2094450875824721281 -0.097932371846236210278 -0.12949780818267137006 -0.1119866229885959491 0.19781313988608809074 0.18540356119911408084 0.34779554803023021714 0.13542903959403226888 -0.23129295061122831512 0.026442070214171862347 0.059409470416384203839 0.059719560695624535063 0.21825300415325063486 -0.25407412616915858727 -0.040642696863589573841 -0.16661367421590592142 -0.18641993948247706503 0.087926474759053685482 0.0072663532000748209949 -0.04897011000764398686 0.23995479327505070399 0.16300846559032941552 -0.0023424082938600489581 0.020489894580232773103 0.18797428512654432153 0.14650087609528403276 -0.058488467126926332873 0.17733301847800178597 0.15009546251433245057 0.036069072291745676861 -0.071593370907588702035 0.026300818770784880479 -0.10754744797349127805 -0.04256000078614883414 -0.28051736628798940032 -0.23785814691852749658 -0.10713957374617544271 -0.14681765512253822092 0.21536515041042619822 0.24554675736510409023 -0.23035426453676852154 0.21383172226246136005 -0.10300523454221865993 0.17702948535825879794 0.13501426037491601195 0.23225927624904915691 -0.10028968599185797417 0.06714817904097739043 0.017831324270808374816 -0.06625685319481673663 -0.085857421175871528884 -0.26118517920058192949 0.17523628144730699074 0.085383053482507520471 -0.11606760325399327616 -0.18612521893964231734 -0.120726409354894898 0.029764777058605570992 -0.022657326937044523774 -0.21820642597363260062 -0.18322459804871574218 -0.27081527850569669935 -0.097822775257736138688 0.22931167899080640016 0.1945074780323618191 0.051148078454297453421 0.2437468862186198959 0.077690032879402778909 0.24885927230305149305 -0.020207445397019272587 0.16710707178209591173 0.29523507666818227246 0.041633272534847866331 0.11385730903345563092 -0.18848423747372733406 0.17162805776182513129 -0.15753373222423963651 0.13124474272092304106 0.048273092260445862878 -0.17273766080690677871 0.038170334349063417267;-0.17010030114187071892 -0.13956103978362885409 -0.016918824474173616013 0.065766843828406265637 0.23399988890157297217 -0.025784543092141239129 0.10731707139393636963 -0.029103861020026218498 -0.0010728157996318452971 0.23774453806158912794 0.085968574555566043549 0.20814910838024780482 -0.21734488000687265941 0.13412283697640303703 -0.25646169909767085882 -0.22982647953922527573 -0.0067017319063139351928 0.25591709020979197531 0.093890365025685998401 0.1351103537192992754 -0.18716230655901422431 -0.03042059291783730246 -0.10999479789386847062 -0.071472532486646145333 0.039384545606156909359 0.17747511169758045657 -0.063166305333077973905 -0.10918805016062343993 -0.1101640409671992421 -0.060905408872570260259 -0.015346731515854828212 0.2427569078520981638 -0.28903897203886375067 0.14068231431731895165 -0.073590795743264506013 -0.0068865750027936618177 -0.074227645342808096229 0.053286266774546148239 0.24228198914362031324 0.14467601199379315213 0.12323255460354708146 -0.14264967029452760294 0.029844074710820161361 -0.056442121874364210854 0.07585604661419785566 -0.24941436299403252352 -0.097119836070825707464 0.1756341888660391537 -0.1244949200329303618 -0.039132214941434276256 0.14548218795013362348 -0.18634815186742881288 -0.15168839722996049768 -0.0053767836264529897394 0.17505751070480476961 -0.27747793592543068542 -0.13231962567944555165 -0.074428375290271422959 -0.25567327434550540799 0.11779262142212823528 -0.28090190772380102535 0.02074555510881333914 0.26834588457472507983 -0.18288865069477489023 0.17001611019659010338 0.18203175234997556742 0.21255472998044386279 0.15184359896173663107 0.014088681274202704413 -0.086674466258826604603 0.15735710776619629692 -0.040406683760627899737 -0.079017420647602601425 -0.035194469691972533887 -0.17996320448809710602 0.13327470551132980514 0.10702865447408760335 -0.063002592003971888412 0.22143230659470808375 0.070702557371163210487 0.0036827727994878890413 -0.10880017646172265855 -0.020406945143658507952 0.047182569504209216638 -0.24509762721120029183 0.10249757809638727901 -0.11459413116915116715 -0.14397330108890810108 0.065199014758528878177 0.36927148825283134803 0.21575501789246226414 0.12683232595678642363 0.26263711535702377597 0.20505179133862430629 0.1588662522124453802 0.26081265555572508141;0.19898376696952876919 0.1005943769508757385 -0.063902733736619171667 -0.2019645358434603577 0.13050305731719386015 0.18796300993162126658 0.10659658151288760319 0.063363476644724775477 -0.084316760614030816789 -0.16496218660620701191 0.035715246266982594858 -0.24687274112493579059 -0.062173534415347099513 -0.054371795629162375518 -0.2162208031755882276 -0.05620346843139359394 0.19775306030711958805 -0.29503128588776472707 -0.15554474927936939865 0.2597949193664041978 0.048797776055416006158 -0.094547381062259988616 -0.067415385234111432911 0.12604719861935309577 0.27742579310041143303 0.098301901461596744025 -0.22035533206024354724 0.17837814776564497876 -0.13371457704176092918 -0.061978855315183468966 0.26235153727650073474 0.17102691954211451941 0.27809057420027399887 -0.177552886529507431 -0.033707346574195662381 -0.098402692695275045809 0.20636731347563719297 0.13567356442911893133 0.035176127277690490136 -0.22395200347858340573 0.10201280116654219687 -0.031516063637762353755 0.2494152839852921133 -0.1366265291622632827 -0.12799915266242123391 -0.10794943541748469595 -0.25027996976540189955 0.079396739603378146954 -0.071910058225698667012 -0.26360322772952199388 0.014238321453008816186 0.10975538734807553654 0.076715429884546867956 -0.11410447551272510924 0.074219560405573523076 0.10047844255674175107 0.19815884959101195961 -0.26629467982708932006 -0.033247268060761447916 -0.024337034337602713591 -0.21467419297731232808 -0.079292053820923497076 0.29328608174570491851 -0.20287284201895980362 0.041722965226760153068 -0.25362547515267169773 -0.078288915441549172813 0.06916330954870530956 -0.23330645741182334807 -0.22875031849095975311 -0.09229400725068091782 0.18045450078322239351 -0.029990640748281068018 -0.11676895146844501472 -0.032112724326690225696 0.011063088410143386703 0.19275583635070417388 -0.23245216296393045319 -0.029347950394110262906 0.15941788885726854152 0.0084751841346667935312 -0.21315097104701749564 0.18872294295482591742 0.0579533969110222133 -0.26333158401153688999 0.018370013792067058783 -0.043423116711868943451 0.13629877781528110248 -0.028501080788879439021 0.18092084524795878919 -0.008931893425584681856 -0.067890820467451998277 0.16193720992248966661 -0.096977349984886856982 0.22539485763397190676 -0.23219870039208836965;-0.0033661661339485348526 -0.2901286262471308719 -0.11876172225956307948 0.027981881513883585105 0.080217421724730106347 -0.069824190159955820678 0.090142038003295343884 -0.067529477674342044957 0.16103002296267604487 -0.011153697087042578617 0.16111841023591474964 0.30843616377354760028 0.16576719967119843413 0.19754164248554795247 -0.20558638032072068524 0.11677811148673652997 -0.081837212485188173816 0.22276956089648317083 -0.11677161975697471219 -0.21188477197782198957 0.080902094108802211081 -0.22014883933996134968 -0.11804762856145324668 0.2404129507118763498 0.052556105785890670778 0.12349506553031125433 0.28249640348952331781 0.088649220730940711532 -0.10812471548855920322 -0.015230700585919685827 -0.085491999183641836924 0.012160443965340949485 -0.1754833121113694161 -0.0035054810166433888856 -0.22757972858608360722 -0.10961930205165565377 0.058861457724927242208 -0.15738098222185686881 -0.03715069653014969886 -0.1291623981023132528 0.17868410461233977249 0.073576271959172698245 -0.28967255384583406874 -0.11896213000072330956 0.14598159878955227486 0.16894484805379134107 0.14480284661745435049 -0.26703328051752667216 -0.22376225110021874531 -0.16884647865657070875 -0.17504202449517125562 -0.012093215462940391791 -0.05318823738997299766 -0.19724145251738761653 -0.083049225643051893808 -0.19906917328719800353 0.17423799223258837343 0.072577958802326855703 -0.16637371718690319167 -0.1472272311700688896 -0.10333263743841822335 0.16988172226760597794 0.084418496024704206548 -0.019224315395479224522 -0.19527083027944952542 -0.18214831352237392803 0.28658669143827142367 0.018340402943980097655 0.022629304513987178599 0.25749867922343300242 0.02294883403411968753 -0.092925423290954697886 -0.064761610488118848128 0.22426030586592063387 0.25830754460309729437 -0.25655814566968798696 0.091379870196574841668 -0.23276346363143762819 0.17154941110291696549 0.23559725062998737588 -0.2453528022665477093 0.11301804473966975406 0.26335693972217727454 -0.082310391656176040698 0.11795007659179351789 0.16099534681964067229 0.033335844150291817078 0.11041383173999612388 0.13750070844071970999 0.11420899798875999709 -0.04388484965727686149 -0.032093958158663143942 0.10395757140966106757 0.12070502308892952503 0.0089273038495399012482 -0.1844366761196621074;-0.047484507377645680803 -0.070275202932767816266 -0.079209881872451634588 -0.11583093001492453245 -0.17683110769592330636 -0.14258539328920163958 -0.1326145947036426187 -0.17379933094357558065 0.045494222923714196238 0.12295987412247109949 -0.13025380561458077544 0.16906097143466455868 -0.073119021814521220626 -0.16876004376918560257 -0.1212646753538200034 0.11181369304950516952 0.16460944079735079226 0.12644037721939427321 0.081135629547587656551 -0.18885895447666981029 -0.23778568570196564891 0.044518334194030388662 -0.27467402479792052405 -0.24527504062773064497 -0.36701852304816645622 0.13049593087309502293 0.19876687563451758689 -0.17100626185266262769 0.0032782828798139295942 -0.083877289659453305171 -0.19541939146129944094 0.031903450477204428615 -0.046642405510070934771 0.041626223216268409821 0.23172131712903221157 -0.19648905966331775552 0.0826171768855313432 -0.062169774428230240026 -0.22632331560852708696 -0.27283833087132108863 -0.034261531685475313247 -0.031443709964319742356 0.029064024610066078319 -0.24484452347535137773 0.22248767147897108298 -0.14861755033360032896 -0.030438116801952776191 -0.039621547788437939952 0.062961492720123357625 0.0067184433267272417739 0.076527457867340428765 -0.10959129428490999025 -0.12566028984497451537 0.21293391831847902074 0.10952099826439051777 0.35458963606135629476 0.1301257583808962115 0.074133256637106834108 0.30860519717693152275 0.054066067753089336323 -0.09040499968189220914 0.21684200165875366917 0.18779091437735082049 -0.0069524120583326892014 -0.10129130709638026198 0.081031609681556190927 0.068258551703950662293 -0.14908676797367176325 0.12758362960835434308 -0.038593903246317430578 -0.17081404704643743386 -0.25821237273596453488 0.0080012685340871622652 -0.07038733475757147362 -0.098857192287241005269 -0.22197810011780413908 -0.032890742162178049357 -0.18493026525897585111 0.29781002609392237535 0.42949867670861946456 -0.027697141215557049415 -0.0015742892569951955073 0.39085060979937513714 -0.14073938548653591729 -0.018338487400110837361 0.14803887430838444383 -0.15089977660036490992 -0.04105562036401971121 0.2325053387376476155 0.020741720245930236194 0.30758228133012338601 0.079684157171917818774 -0.035058327106736932033 -0.077983616803154867658 -0.023474884116233715042 -0.230386785894718088;0.20991759715621410853 0.055400843777817343483 0.062104478923594837181 0.17554642607637430118 -0.12629957965924623609 0.17997441866349958572 0.19370787494433322484 -0.16570786406582799222 -0.017034661695217254845 0.25165473774453872569 -0.22898843324286557999 0.21530932065635768891 0.1258121385360802813 0.18943602009074278492 -0.051640669395169175315 0.037681202434926341915 -0.25631576548184209496 -0.063893388076280324683 0.047691659874708317024 0.21563036681839842235 0.1384819423578096953 0.17707849464767047576 -0.16025421171700915401 -0.1954306205658165041 -0.10172269300606222309 0.25883634974424235553 0.08122878217438958548 -0.15053569377843484256 0.19168640841871129044 -0.2217918373279130495 0.080419641073111267082 -0.093478380450125908574 0.13379808538457307887 0.0097604148005098565616 0.17776047785561732706 -0.24396169760383876191 0.2197023125270774202 0.26479834468125934555 0.17493084607785786 -0.048473416530229476717 -0.0026259225016638165426 0.012983164320903080313 -0.039759973876859817932 0.27700041536140967979 -0.18622361962933026147 0.005556661994974152613 0.24943046993152356849 -0.13340187470824912963 0.094995044670161232769 -0.065853401279488674169 0.18230889899532032317 -0.066836528204104392326 0.0092915182686012422891 0.10817583940805933218 -0.10590399474748958542 -0.051704695868958108762 -0.2124029082571300131 -0.21146264028685698988 -0.21720260166084043307 0.097001148217515431593 -0.026985276204882412132 -0.02899494952254439567 -0.071358361767983435886 -0.16167656881268230307 0.16553723543067178081 -0.26121230475361623125 0.20609646610979917569 0.12097900668904505717 0.17550861073774384757 0.047416114359065369976 -0.047404893960902576289 -0.083013923302010086958 -0.21260239339912881396 0.0024650157839206919032 -0.052096901271136815403 0.10564524036620155656 -0.051840351664572750789 -0.16366596989545700858 -0.023550480440156396078 -0.024616007729924484215 0.061569467510378401987 0.19112116214853136498 -0.032803484405595682849 0.11939802104129346172 -0.2938190033746618246 0.19069848065454977903 0.0083830083223675189164 0.073753206556331482591 -0.073424169830708221895 -0.036593558574790456539 0.21327058850521291022 -0.012047934264184005995 -0.20156079135645185718 0.25587658269663526855 0.11515145857878684998 -0.097976505148411691115;0.05146117109699190062 0.19220273251877992293 -0.30907976326621255936 0.18180874024575358061 0.084179637393981182614 0.13321786505924948507 0.028096565988999878949 -0.084441291532534351605 0.21780516290767629184 0.063965660457708878317 -0.098404392627431683249 -0.022090487919298913699 0.12030167362340817017 -0.072213993930477268779 -0.11894908370361424732 -0.14506614319618960085 -0.14082816258955158095 -0.22919476926822890395 -0.062813017878591309584 0.12678280314709167165 0.18333108607163381421 0.066473832993373116462 -0.0086471694682164236545 0.18347443068433841318 -0.17029806412583942121 0.10157380957616801709 -0.27885136584426034601 -0.14671660147241988303 0.14530493972093580513 0.20136385789567767812 -0.20572786621573002641 0.2086558511409857819 0.32132071571110792929 0.045186159004725036381 0.10268498103268319799 0.20865097477545310745 -0.21751310745478549813 0.12604813883995874546 0.10104258635563664881 0.21048618633967614011 -0.020654032952962444319 -0.14196119788544536711 0.062653415915104593292 0.27810658221125161838 -0.10736827607358902237 -0.0048912785833668242369 0.089711396569361750997 -0.19951293362012129107 0.21268248708868231489 -0.103419841493411796 -0.073511341740364735675 -0.10200157765217610084 -0.066610294634862468599 -0.13162429577696529992 -0.077809521430579176027 -0.036706304239872943052 0.13738406869623850937 -0.018629515789336758419 -0.13920283634169333675 -0.0027615012208562850562 0.21865731406403121628 -0.062964150095561235987 -0.12014318665807746656 -0.070303735464702754587 0.28874444017231931658 0.21739333290531195897 0.14698103626129704891 -0.12868552113652728663 -0.22150285748722983725 -0.18800629402452717631 0.24012398894986491937 0.13247264151278043132 -0.020371160885292831366 -0.16440323054169331263 0.21710913694413719321 -0.28474082780619019983 0.17255260769309452296 0.0095280971710504404337 -0.13650944854805671658 0.066237989985711703822 -0.010149547582424447295 0.16223474426222236899 -0.11850836792601167347 0.022760671254719366807 0.1145374015702492615 -0.12497830674692708697 -0.059308915962827578328 -0.16759339071996628978 -0.18208197237828846471 0.094185044093243894259 -0.20729415158959388354 -0.13518236255832444259 0.23132483103423961968 0.046374044348047108177 -0.059118723432839873078 0.3300035244806205359;-0.26553711750556785454 -0.094580491332094673851 -0.21189103390706309771 -0.2200183036572167794 -0.19833439055288401565 -0.078590458259422166232 0.33047963803616969836 -0.13719071394016410514 -0.1355650993205135546 0.071327469675707300123 -0.049732901886526563462 0.10754382190758547677 -0.16762608544612470074 -0.076421123514394687093 -0.24959246624814471205 0.07115427935488030653 -0.24240040811079771599 -0.33735602329821268164 0.21668469947301183254 -0.19480631677161774906 0.0077071573960220138635 -0.045268845902527277136 0.13689815043711026088 0.074595365474640754067 0.1287850187182499051 -0.20775793550611970639 -0.062324743438378973903 -0.096309146033946510523 0.065483652313611986906 -0.16633621449951363491 0.11744336343138814249 -0.021644307649998514864 -0.15859095136878287313 0.25205236485317139561 0.25534987513075380061 -0.11311577169488934436 -0.13390805709074340979 0.11944577678461008874 -0.030256916494439001913 0.20338244554900408723 -0.11681952539927037416 0.10959404638332637116 0.049438083959027552539 0.13566202453364861746 -0.354157267063214376 -0.1174208845245727495 0.29461066704384980541 0.17687141385206464617 -0.13323114520443354869 0.086155610116696271228 0.036754904319740079599 -0.12152095032653581486 -0.30223611147770440555 -0.24682806121357914186 -0.26603784890147086362 -0.17225796698324516432 -0.10118466144490967373 -0.045015613895230392749 -0.0077802045513479124034 0.10133662201398786762 0.077532806316039745709 0.16073501067943352094 0.16781205391181208686 0.27997598844802823459 0.20383212863929445202 -0.25772908943106687119 -0.097071736414467119092 0.25531328527539026707 -0.26295959060883239422 -0.03106387363056419687 0.18538974560109985901 0.26818227914212455776 0.07032603084807999283 0.012758128999422704841 -0.19037885230889234345 -0.091482054780785596049 -0.12285320102730881708 0.20191597342332087694 -0.13330478060399061913 0.031974732466611394122 -0.024787012704543569946 -0.34306761904378296757 -0.12245519732332822704 0.21357161655356318719 -0.18135296779085879892 -0.2520646858687798364 0.067146027703492081051 0.1639535010819563321 0.055096669341828823085 0.25294925435073412068 -0.12755285121341350396 -0.25811673767839743432 0.25516913437873045556 -0.014837836633746132042 -0.19824400586201107455 0.039728144105992617419;-0.13667874851020528348 -0.12080194362087212645 0.10603889084676366983 -0.31144755312363325839 -0.07757916594586078407 0.15263128114205498642 0.035995860855606950923 -0.19252852725775121412 0.17078962241663248056 0.052681820273463415838 -0.12672367285750649191 -0.23722368266265958514 0.13614188666877605205 -0.16856750593496400148 -0.14259986105608496443 -0.22212987043291490541 -0.18513057108040953391 -0.22846250395641981568 0.026187052936522119129 -0.20666229283817658113 0.0079271724136861215076 0.27223523708507552099 -0.093837860192972688544 -0.17394271757942422751 -0.16101787738994116639 -0.29597568530853712865 0.073270887674874649043 -0.017180850892182034095 0.002903751083993991438 -0.13645823902721915255 -0.04487944834152269441 -0.12914413602558594274 0.2190416766354559841 -0.084300243602345184546 -0.21560107183943458264 -0.19348374885527758194 -0.28180879520831325635 0.11204266634958910676 -0.040466907278162073114 0.016596070329767679402 -0.1626242478815377035 0.13219139678361829793 0.16838179801998937046 0.050974798541453654466 0.11783665382901171992 -0.1447363799123159156 0.025444644534772457856 -0.16732033157761547204 -0.24563813527313119178 -0.12353198177250293566 -0.06955116228369924436 -0.16288841606709564269 -0.23948004006545528521 0.15524718779430413118 0.23413472436552670852 0.10518970039249943282 0.15476643942696316492 0.27978532098535041639 0.12403198825492588175 0.15334225282214025698 -0.21919489921484203165 -0.090658454112014355553 0.064757914618496142944 -0.072511925912055463783 -0.12238592578910284514 0.020252295832221690886 -0.23352124267328547291 -0.27200412085239794591 -0.19125430328080558762 0.17253066404228833974 -0.17011330137842603505 -0.24578963037544981907 0.0064961994550212752431 -0.16193560231029738294 0.083374434767291796811 0.39752739432789907514 -0.22846947417601842778 0.068169262443490460934 -0.084631251187175682293 -0.025292137943687242191 -0.11967757243297207082 0.16807300170557268326 -0.091792301781596419286 0.12838364006088451297 -0.13869838585074542592 0.13020039726116924839 0.0097201677893374461431 -0.16031372946672031721 0.067436379267093365941 -0.19630237869185204747 -0.15564606930317298472 -0.31750992100332786627 -0.1000497250564953422 -0.17375566563616295923 -0.053383045270120187131 0.31607696425752207503;0.27648850094157584323 0.072983367037899884999 0.087746094766613422222 0.020762635758256906687 0.096953470200657601574 0.04004670226269275296 -0.01999764617292571281 -0.22498857874789054967 0.042148529367299153447 -0.14643285914783987778 0.19907783191595593286 -0.22832144353303476803 -0.16815653547137751622 0.0018395595347789970696 -0.18371379708289431454 0.15196909942700106977 -0.17245942327537366889 0.068021060049464954211 -0.20185219548465041517 -0.18071591507096304574 0.13929617914624553565 -0.16645345290802096572 -0.21342203512509794194 0.21088297911385670003 0.0033794188921329104333 0.28778960296319400225 -0.070275648554488479025 -0.10206776468806647018 -0.0030643617754256618699 0.18327082809557493359 0.12179949537368213452 0.26408648151937758053 0.12832129960577648431 0.081950579851702495815 0.080650409271326273242 0.017336710060741045841 0.15760024125295538089 0.086264412866607645403 0.025769951423480850355 0.031839410159916509135 0.18133961714016222366 0.039688707172405732204 -0.091373449547661897419 0.051090136957930194772 0.057587250560037557545 0.11715532804196963912 0.29117757306940017514 -0.22689030327371095819 0.048389739924532881865 0.16985958414033852648 -0.14216980176094684563 -0.15842984002317408998 -0.079465654337014982045 -0.19877314622222475027 -0.085641691880444001383 0.28747765154102639107 -0.25264922222182900624 0.058301404629742953345 0.062436539924996023454 0.14807880208100560049 -0.072952120743240964074 0.19648621941725061268 0.30637999220498274289 0.0088871546129677039122 0.23317754280040567383 -0.11816150307463804681 -0.13661793821701714857 0.051000469645084610393 -0.21138699090968829375 -0.2659166287842758547 0.15019576596041789296 0.085863073184137092553 -0.048740429081291031244 -0.034236365912536995126 -0.11095270796018720516 -0.26988810710408217552 0.18059988877887300784 0.12194201276893054664 -0.11436180028314793522 -0.11208722825677910895 0.22744457701334111488 0.2360786913509987095 0.21286135419171645089 -0.019990796716282441259 -0.036821671332735429749 -0.15325611915419609654 0.1468072849218734488 -0.25365153413717034248 0.24454508163482877037 -0.081212269895048760926 -0.038830859260327220406 0.029280725003480022328 -0.31254173809287555397 -0.27527971984321952803 0.029499927616980406442 -0.39470709949924148718;-0.42742487913706461722 0.1335095144075517104 0.077755274710953406481 -0.22487699454938545052 -0.26021757934153377789 0.13428481738629552411 -0.2633480611070139199 -0.049624707831771551481 -0.18302924222389591047 -0.090575404764724309903 -0.29744200435347961653 0.009132431009740652611 0.17973013931184825265 0.0033699997813182438686 0.15333109699539149151 -0.055048129652423075098 0.029385072320342792151 -0.091024604814272727649 0.10078255040743619442 -0.075034390043401816284 -0.25089209299483827831 -0.19900985513655022885 0.13975273911693639195 0.18132916431725126793 0.10458737235487072792 -0.067366534983021988947 0.1379270987873226495 0.20307059055704038131 0.11950553502308484954 -0.038511126323457670062 -0.32346261722507324565 0.062521688932063987365 -0.046494259730533643582 -0.085152020622460397603 -0.027375970884731828936 0.15105321757219913881 0.049554974695187367639 0.30087095779468964185 -0.029719475672644015546 -0.21434395930403121744 0.035952216830119725077 -0.097055671215686714626 -0.039508049511309671631 0.14634565130981366798 -0.11571985880674233449 -0.30269062255235201775 0.085422262333646775678 -0.23097560941732164785 -0.088089007046019407454 0.18200223387555652943 0.09629691122848624274 0.052335137116821403569 0.11527383904132072756 0.3559396412687816369 0.066240947636140953825 -0.084224391552344263223 -0.056002145095492235349 0.012332773794845619877 -0.10844370362170355215 0.25970518941999282125 0.13246732823248305588 0.18131609630629777485 0.2565201255859914653 -0.22289286982725706188 0.021240112807015650714 0.1770882079023895217 -0.070527399744817434457 0.10585389285819579719 -0.60931416958286466201 -0.19436582160063342606 -0.20916159558120747675 -0.21764627926154711535 0.050420146784361380421 0.051133492299396295089 -0.093061289893371812454 0.2639283428412263488 0.16031736103282551165 -0.28675916279368585116 -0.34529723712124388291 0.06597381808695808314 0.17682940054398579854 0.19850706678281465623 0.15259697446178835389 -0.19386566534765106717 0.10034670240034945787 0.0036508277630894260014 -0.26227987277723591175 -0.2222643216624236584 0.12578451640016485857 -0.096146163483393179416 0.19788122567461982615 -0.16082174150849404271 0.3055674830724507407 0.084076389465363110531 -0.053326730194417554243 0.053525206791690434216;-0.15815120808577737277 -0.038254288279161816066 -0.17337402259477074917 0.10811375742581223747 -0.023194618402959232134 0.040417802312808816245 -0.22671996564250587736 0.26694773133624261074 0.017759126814502076974 0.024875599193288001898 -0.05328005561949909763 0.2016906479054132173 0.0024471677926300931631 0.12164741540938246722 0.1861833188404916628 0.058282602605274964891 -0.14314390201442578343 0.050892052467541262772 0.13379347978763156402 0.17143091129922899407 0.2481722885512236132 0.10403005462328870911 -0.24735868357119250582 -0.0082109533973457379114 0.096202652757274270678 -0.15787648077507759892 0.1577677404026779362 -0.20997692569166526155 0.081141261102016498663 -0.041270217271454051611 -0.11909648783363338542 0.27766706178999500665 -0.19822586452454202255 0.21472514423405597572 -0.17804027353104015519 -0.1341781522725566389 0.041344937605405356063 0.085614050443200598317 -0.17108458955049538064 0.086875738281294787035 0.0095774542738647425177 -0.018810232947262753994 -0.24285317997338251583 -0.25566052563065477798 -0.10860279812470806371 0.13120039938798999657 -0.11430569292405773352 -0.14011616352862998891 0.23694442825066405756 0.050495956217628139295 -0.1436554108420925735 -0.22736319777561003752 0.11507687972154639899 0.12690701247794877737 -0.24611307825218797785 -0.066471645468543477664 -0.078463779048757259504 0.19974296240191927176 -0.11984630581926246362 -0.040993697884673413467 -0.10364984222305138883 -0.24491602745392565543 0.28728583589529488318 -0.052894607636366636205 0.092833545090116043053 0.32209091438117221085 0.078123682625989523953 -0.16887414280293297497 0.0028308382514203541715 -0.11748024420248961985 0.025830859472940632254 0.21338667294013649589 0.086970620052582492399 -0.026570268978125834852 0.014344196010739820521 0.23254468381394743925 0.054942618955461916541 -0.015542419133965477626 -0.030746875080586346524 -0.12079841476302044523 -0.00024935787615635858321 0.2981044906313437548 -0.10956945294481595932 -0.13480222359132779109 -0.035719683772931651311 0.16845123415846130488 0.30482876805420194843 -0.14059752299259090091 0.039727851384736029283 0.30717002779058777406 -0.20650043277541577091 -0.050387870732200711055 -0.12686470221858953122 -0.22917410777404245703 0.17760544978700895657 -0.087099460805765013816;-0.14663367981326289047 0.025637674639261132797 -0.12534524663295937286 0.20478058260763823406 0.070899851540998370947 -0.064567384199730584737 0.088335702988873346375 0.056811852541912934156 -0.20549013120850689873 0.018290597328417014522 0.11214337313928517126 -0.14891435524903168242 0.14107687487115830316 0.14441268907443738367 -0.01782045129843723083 0.24700391608251162645 -0.11067088539436177597 -0.032792239664312147762 -0.26532462443360005366 -0.31758676180725642357 0.10868908772146619601 -0.35793951171876431383 -0.15247157742884923093 0.024548049388897180689 -0.33231150023025507467 -0.24207222632886146729 -0.044834318702807886281 0.024306152550545863378 0.028976283339599517158 -0.095541330875718893934 0.036765953953952726363 0.072521221755149564703 -0.13057459230259421679 -0.078688962801916118028 0.11092392225658222193 -0.24809403691717479834 0.22547187421665484952 -0.029348284533884643616 -0.13196502951787733582 -0.099842495525458041516 -0.030163421999085730102 -0.34431497143026607022 -0.093935658503349367399 -0.047666057410030993058 0.26486482556452656256 -0.24693275427447894388 -0.064935334984587395057 -0.22623423466935332904 -0.36497319174025488753 0.099055113702983491053 -0.076169375242223211209 0.12625471521514014528 -0.017690468089317842176 0.22238925703262327205 -0.19305581532645649245 0.022853651735095435044 -0.039669622205513337121 0.11595526842762962638 0.32169733841481124026 -0.32780338558165700302 0.027478002826707766115 0.097433367582200655632 -0.27682839888064808553 0.075514041980366597429 -0.183544233979747895 -0.094060577089759900282 0.37840913678393645059 0.11582282926838918802 -0.17139176939518011022 0.1492688484762055845 -0.031507792897437707225 -0.065083990177575518077 0.25153880478676859944 0.078433352018981550291 0.37311899539652043645 -0.3184995913310059712 -0.15141853473962874066 -0.20169538747869725226 0.20578809918753923625 -0.23704082387024819067 0.074694895958750312515 0.22753186398035157856 -0.10291663704952772052 0.2673805919763787009 0.13026267462758503446 -0.057638932367382170185 -0.26371386700321808316 -0.24063230638590907273 -0.48601001675490751452 -0.39118537450416890344 -0.049809177250211153498 -0.025004248202371067572 -0.47745509966879823294 -0.016839405880679489402 0.31075418869342102957 0.091222007551689798799;0.050225038591556400713 0.10352654676831062053 0.10304424835796954785 -0.071203311221655185559 0.23501826651020205072 -0.079726829399788451402 -0.016710057124396240219 -0.13120798066499705925 -0.044933623394237322268 -0.005931911525935422598 0.12488621832162240255 0.09915190294391505732 -0.04810499918532383512 0.013323402357916933753 -0.15399154049225291518 0.22744460205416397458 0.0097764996287349366366 -0.26479925869945469818 0.29334276000909847992 -0.0070597544559537518671 0.093252457951612507947 -0.19646325752368271056 0.15183558902977672966 -0.24408207925580799325 -0.31108597205742488656 -0.16798889041981163173 -0.02728316656235505594 -0.20922094463570872769 0.18911931276275109615 0.18520481488276921422 0.2341135307352261441 -0.07015369451765718356 -0.30324852415249065052 0.23935242262286021697 0.027219107257666755317 0.0096547292406248021168 -0.17428541581253712001 -0.16336414320141903755 0.28013956625969044234 0.17764620986063842101 0.055466400824725030361 -0.08861642226197191663 -0.020107426119280756571 0.068660611896036075064 0.0685914953985264364 0.076884628894621845352 0.18599735767318695268 -0.17753108864641498066 -0.27178309682184903506 -0.11385667019781323117 -0.12422709328556524877 -0.07474984015614255517 -0.20301065236478074705 0.0848963011814735935 0.23932190511466128191 -0.15496706524566744578 -0.27627001087702857118 0.038547735574437962114 -0.23054188444728992979 -0.177926477289979873 -0.31279154436846168252 0.056775956746559143318 0.066961155503751992879 0.24549930895321206425 -0.10763736759965927825 0.12884278591778289269 0.027472479337456213316 0.091900965202884446481 -0.053476336099030498394 0.020021289397682304895 0.070801057344058185294 -0.44517931133247529152 0.22277998034955145967 0.15724216962849790757 0.040632854496277161227 0.079570829649515770199 0.013704613338102003897 -0.045101377991656275979 0.00615261268062367115 -0.086799385083838401234 0.19312038513607115986 0.19178192682945355285 -0.20160695345787268962 0.034500110024629729311 -0.23244649054591046133 0.14921508713617703812 0.0084330504231226455225 0.27854924359151594926 0.22581521773128337971 -0.15402770792509606901 -0.2003450703207877992 0.13395736481853151578 -0.12860765561493883724 -0.041360225856859222926 -0.056532016535479026609 -0.49061901452064471396;-0.028228252417808848834 0.12708769589183921411 0.044549831106468713859 0.27449733387177460697 -0.19531750333579900314 0.058668910042124912396 -0.11919140390064550394 -0.1402171579188902506 0.1670855720667244193 0.13791761236751798325 0.2896120610698471598 0.074030505437455457196 0.2526870978694632508 -0.033335896320839372708 0.0041545214834492593531 0.19941396003827391303 0.23545503488473784603 -0.086221319145857150401 -0.34154260884550191602 0.13871205745551512534 0.10704459901037351177 0.028462171431153190926 0.029337045136254381872 0.07563302928191126262 -0.16045526415263849929 -0.16553392903983119022 -0.20169763049090178031 0.072465809488857030329 -0.26107692173716634532 0.17633343809639479005 -0.043646999013196609296 -0.2379151155154836661 0.1655675589736797515 -0.18255814093259570274 0.095812632615275727943 -0.037806094581855562153 0.2902966769214846976 -0.0097575663531423752206 0.096012730705140214571 -0.14183186165620803587 0.09063165773096856781 0.22373492161209854179 0.0048765977302286794837 -0.1666895223427597994 -0.13789041219263967197 -0.11900696281958451916 0.064912961055414331035 0.27419106964413575422 -0.1225384425041620845 0.055686236008279030307 0.16861650254584578668 0.088023331285248487821 0.027667762080815450076 0.17679930859413858779 0.019364174350749833314 -0.1270970625428025913 -0.14240417222519261009 0.30227509570828148266 -0.094845204428755089388 -0.19023338031411340943 -0.028820343214790287989 -0.17825967688731750305 -0.15552392342106710621 0.084387233554805471392 -0.039922776520924650734 -0.014063517483312085871 0.021167877869621772036 -0.13721393500569720181 0.41762175806856233207 0.21749392888834681581 0.27240977138272126634 0.33447191870729642282 -0.29742201280400737406 0.31721218141478402242 -0.29987022121434542266 -0.24493952425887244306 -0.38234583397593846499 0.064583756481518844739 0.20337633481255107393 0.14102966182163265141 0.13712788461580424637 0.28394103987219743157 0.0053085465206954111916 0.13054093841965014322 0.24499382778549799733 0.26361779456753337003 -0.032083972772843201426 -0.0051960975553329508472 0.020828090305736284005 -0.14940500656911370747 0.078564087517668218519 0.012237151478012802883 -0.25279344744823273317 0.024802563811246187975 0.11743687211841376261 -0.052476175021758650341;-0.21690946543777506195 0.096998795667942241949 -0.033591950968821844559 0.09620831574745633552 0.10643360305895810392 0.19086659224215857256 -0.27188876971242881275 0.14510116064823402882 0.064274957676194094391 0.029007238758309246418 -0.085631416432729978716 -0.1782639178203098973 0.27653317122514015081 0.26940985482780371862 0.21288337494822051621 0.14427245929196680363 0.19530337854803636599 -0.013736105395933033077 0.21820945863086313454 0.32602977604029403924 -0.093776467941628804947 0.13061065372144331498 0.05620705074501955445 0.45672714835345507023 0.0015036049092165839312 0.2802529861367189512 -0.047403083460881532962 -0.040236833533356941572 0.075444118709946175749 0.043663837721242722278 -0.32334770254013078805 -0.17013499090729466978 -0.19470645663524771551 -0.23712334573185481212 0.048022104393493740548 0.070735242053539842955 -0.25839429419391335419 -0.20744102165439082253 0.056252039410461557312 -0.25225599278725813202 -0.17126048307511712587 -0.17258185140410764458 -0.067581017049659242169 -0.22970169405265475349 0.24302280472351375784 -0.040553263287188376363 -0.20548071655562177851 -0.23827386152930377095 0.021149351337759511593 -0.11975307344032952439 0.11053817797355358632 -0.16903068066888973786 -0.31327836822956661722 -0.20455100512101068166 0.27898241574681054145 0.12188961749669111057 -0.21748341437404217213 -0.18639392998059464701 0.21391400994082696019 0.2804037876535014906 -0.065839273303260961723 -0.12883470731597179704 0.14411229376414860792 0.17239410664304424814 0.155963287473418033 0.18349908501404166294 0.097707028639058002284 -0.046073286792519069222 0.055724032095286694932 0.0038089292775114686265 -0.15307322901815348382 -0.23993651407138066878 0.017477229801581103952 0.20676018186105490915 -0.1941729197495476178 -0.1307304748327678956 0.1170764165045222599 -0.16530145535422993697 -0.24451289866300046638 0.16916638628364280561 0.11018297091439394064 0.026877468950462959918 -0.028748060868252729022 0.070854431677691856462 0.097613743069699235311 -0.07335159922944023414 0.22440230396434868165 0.044503856322428772541 0.043660811381280258126 -0.28055037685743061671 -0.008378529834231047968 -0.31881161013758718692 -0.066951260104297916076 -0.27693757789133405245 -0.22694005572044112506 -0.094574353208002420734;-0.13959173164553814739 0.035360229408713521326 0.14209891845750574624 0.026102535817245229449 -0.0091345329282310067098 -0.062245477600955209652 0.2683457432605383941 0.03847973639897975251 -0.26886787504320130981 -0.25290809228400840114 0.11771837652845359989 0.10927967684594365461 -0.24782559132080914099 -0.30481431787274398948 -0.083948647487335867345 -0.10933672443290139153 0.19088967209286616944 -0.27936351501406458953 0.17329745638048046907 0.13521165536669435547 0.10002662623855410051 -0.057836441646973310582 -0.10132723147937058861 0.2155892427134630529 0.17837775816812032059 0.18541484413552347665 0.25655793294996143139 -0.29448058944722294017 -0.14417253103855115492 -0.23666084887601951392 -0.14380066669942434543 -0.22628103250341688457 0.22580891644618325542 -0.042043795561167912611 -0.092949745983484155509 -0.19291740724418915409 0.16370701355933239829 -0.24736057152167764683 0.04162493115183064224 -0.11628367524743886408 0.18111284852189712957 -0.22558907465714506113 -0.12084512908420320942 -0.03249260983484433124 -0.061540707657124209262 -0.10333000657101036601 -0.16817059551860527589 0.027201786853272579697 -0.24397466034806636337 0.091519458936647687941 -0.16897233873031394791 -0.043970113975681325569 0.081282110544751345893 0.044726682034088895146 0.19445720208086944569 -0.099333505448043535324 -0.10695446543322409405 -0.17563683839772636919 -0.13809338346975741363 0.16391218400752066708 -0.23500429894367433348 0.19109704800358329191 0.015079379542312655246 0.10889047082387960652 -0.140173887615080206 -0.2558062823664623564 0.056155736070427314521 -0.08379972019689466145 -0.17013148711864609086 0.22628001536023706342 0.18521499386650444596 -0.28617256016409226005 -0.15931835922497014635 -0.095278229323700627806 0.11619389351681194689 0.18275490355654305796 0.31413594620089196896 -0.038032725598700030389 -0.02426321104730243608 0.20493165732395079992 0.2247722346823770867 0.084971612846780175676 -0.096551786045586895924 0.14064048965683959014 -0.21090543773977094011 -0.17976180744178779647 -0.010345928713765592533 -0.057365133020520729656 -0.0078190807007176461874 -0.25177872034905385279 -0.11009709762437155933 -0.092974893785162174287 -0.10438481081311781762 0.073374844831259347644 -0.15851308649151407693 -0.093855337144444120345;0.12111401059740513342 -0.32064852512286240449 0.11826617024824979951 0.11976221768966323344 -0.25554057341808339432 0.1140384686334220965 0.13539603621776694076 0.13461268103275431107 -0.038167209398212921523 -0.23504499327445202428 0.15446285695841649455 0.11377325320313415313 0.17304083490799626599 -0.22922545365527591255 -0.064286847293220539257 0.044475961397704738554 -0.096946722290438297476 -0.20501345781298105364 0.070147348606432693985 -0.16642215151221517733 0.072425589410205368224 0.11523384343422027332 0.14880379883669406227 -0.39900144217973804173 -0.09475913732558852165 0.075971659767618049397 -0.040959598692982296386 0.27958600707988146006 -0.068646038401375494842 0.19349865997314533161 0.13173660487740679326 -0.13378968201089899703 -0.16641488865550493892 -0.244525433318903751 0.16074322585461248147 0.083635132036235931841 -0.03408931287684677236 -0.077867194241282092215 0.07204599199387756725 0.18108170320650901486 -0.027551557572556124864 -0.53959221459152639788 0.079267562201895222507 -0.01300845347581305704 0.2345707291611005274 -0.03075940904157531755 -0.025104722766760206865 -0.2721380855892052697 0.31006814803707927197 0.19438457150493212988 -0.15899055570786280178 -0.042083183554305660101 -0.15217198713406812627 0.07382142716132468474 -0.089580679035520291431 0.17230181546981959695 0.083819901045430411646 0.19288411660413240512 -0.031487545045733138227 0.074305735140030915176 0.3617952322666394549 -0.097116112259891626546 -0.020920248865760673884 -0.068565614463374252585 -0.058503361770796569186 -0.070868600618857649498 0.15313108632099861617 -0.021289932433795642763 0.44856408795217939112 -0.10170733964707599772 -0.024816612647097835431 -0.1078036015136667608 -0.046981173108570931096 0.044055611289036455958 0.23849125359619821607 -0.019861794072721088156 0.25557487683378771193 -0.02087637839862282671 -0.040479283591657852504 0.24739117059437137902 -0.53321112009844007229 -0.05858414150067605547 -0.12165542656204361704 -0.41215255007515716468 0.18190725872851848388 -0.15139187645533519477 -0.15722464108012876305 0.2499821944385550998 0.071902358314333045253 0.088880868302007962067 0.17853282887687535463 0.0079599645934541815584 -0.35285763682445037137 -0.18054102833012466989 -0.29683059892743157704 -0.37546441860901030863;-0.08770407517591043145 -0.19792073256772496626 0.08180037445673581098 0.023248278336061939386 0.060975039700366016893 -0.088702332631896849136 -0.014963448446335736453 0.14136546696290810954 -0.17174931304254112407 -0.044237449305126443078 -0.089169850264948974372 0.18023554147576867357 -0.1934872462971874707 0.054341964909801102057 -0.019772515311470624522 0.0077989589792195612716 -0.11114574980548083682 -0.060438255720046407671 0.088135574360566307228 -0.021043607376061840286 0.11580602167582856876 0.03813361212388330368 -0.17067181032980152655 -0.12372594426179536753 -0.23845702330084705967 0.15137854617084045561 -0.079023817056804598891 0.12176156338043656047 0.17966666794860230993 0.058111928952297012274 -0.20134036267437938061 0.032674747884521362917 -0.099082381118141799048 -0.0215814560901754042 0.02345676726177059121 0.075521816575398831306 0.27406325043870138902 -0.17352645708593428253 -0.063341355175808800038 0.098042286275141540819 0.24741189474945399218 0.15976623796593966698 0.30519391324146083466 0.30421216251465832414 0.23936570468339460338 0.24748928891298624388 0.057982789248204415211 -0.13223943314961497664 0.11069922484533877005 -0.076230937023855568913 0.24033401040380808489 -0.19854672008805390737 0.12826936310240838468 0.15561650224945475229 -0.029019699808395513219 -0.11607196028239667729 0.014031103346095355131 -0.27731149958633627417 -0.069221986653954875601 -0.059850298774205237806 -0.031528493288291471741 -0.2344727793611254274 0.16035154518942892898 -0.20607214549505112333 0.27280513677757328717 0.18047342852962658388 -0.0041367582066723935369 -0.065650674037345091438 -0.0396750903619043499 -0.13374788277415869397 0.073422557642116303978 -0.18561514445543295104 -0.15290397374306921585 0.21173542429792011066 0.025919974800301327084 0.19183249003372027097 0.18696359656057962018 0.136327783279071163 -0.069315730160873265109 0.1971732359529560219 0.0069274608723350651618 0.065317158215183815373 0.081118404240158342722 0.063644692222906612544 0.32730245220715165066 0.18014058287236089928 -0.29579335182562110917 -0.20458206493104408308 -0.020527554562843712549 -0.32954162568613215578 0.23706839789630296256 0.11399535523811907267 -0.15388661964009900385 -0.24164905982208911839 -0.17800599386132695545 -0.25152546862453839527;-0.05043783059111975331 -0.084428782538160079829 0.1728708985786280572 -0.090888567752770169084 -0.059759044177054826408 0.43541318010580709608 0.2499053562418656893 -0.18785059402197104572 0.092064803906672196265 0.19707357057353760976 0.062077142751623230754 -0.21512192782637629129 -0.059857572848839239732 -0.30405740221119453848 -0.16379361593086280702 -0.13012326180400970999 0.048226899293057547136 -0.094007902193310302619 0.067658317520586014338 -0.24267788243575849627 0.25647560242629313665 0.1812070150963566717 -0.076585059199496971494 0.15072223367672282768 0.17256817951219621809 -0.013964624367863900933 -0.014418286077106833715 0.088048208393144186679 0.23336888343706788107 -0.02719942751528840047 0.22557747855100801493 -0.044473021110563427938 -0.15124192865300126187 0.02841163719895482484 0.24737043310711734345 0.17140968925933869338 -0.11749007463727798029 -0.086650081282029500773 -0.19715752214777582108 -0.068789938788387863799 0.088039082271129401325 0.1433711368410851561 0.070233624040486664075 -0.30736781540796181966 -0.0054775358488153630052 -0.078960150889792843354 0.089205112185996082719 0.1849434313575433475 0.13212359429979569914 0.050915266206519593783 0.20598162025769911621 -0.18278334701732426582 -0.012843350543542131348 -0.16575975713981733195 0.0033722706034875612677 -0.14261578296184365677 0.13558257351946381708 0.3297096462587705834 0.23435964906300588151 -0.10650890518145958441 -0.060768675010894362964 -0.12626592663974192665 -0.21562366560991921838 0.14262982430486004226 0.15681697885975043327 0.060899021055950540438 -0.19911207962152277506 -0.095469541197787929909 -0.25108790074910752876 -0.27043072509645005308 0.19362506279506011553 -0.31911818218100423961 -0.06909838134184467795 -0.22710475277905844971 0.20834459545988928686 -0.0078774923616540364069 0.035817132550487254528 0.28846681547812719204 0.047072838327569789529 -0.099001695337195536051 0.52787846598089316341 -0.085096785096446095342 -0.25914834913423601126 0.31054407994164218154 0.15123060153009440509 0.10474878806162135625 0.092756944923607226317 -0.10396210002794580018 0.073760391285839568831 -0.1321899592095654441 -0.060436392465875239666 0.27346561234075211777 -0.47470769231845511005 -0.28827076623478142814 0.2786001995173385537 -0.74345357325158212269;0.21059143977896330191 -0.11803412571302233924 0.035689515800154641978 -0.23781027440323435074 0.11642258197252008944 -0.17511889381451900549 -0.25833291849537320939 -0.052582606548590163364 -0.10932387915876669304 -0.063639206249009011573 -0.030385155099575580917 0.29267541174011718619 0.042359863688768858991 0.030329885258332519443 0.1800000316919242449 -0.024557066511349506799 0.35362692708259735319 -0.10725810193001694692 -0.29594820383212039339 0.018749603389213793242 0.16032466564370306816 -0.024987314648389307575 0.014042760794548478712 -0.44471797079415731346 -0.15595729723452692039 0.0035794229098507200117 0.019215693916419241544 -0.14837286936834431783 -0.24957092676813386056 0.11234826543115705721 -0.007765522638897470048 -0.32247244428151855544 0.055528010753980470982 -0.10421809671002123243 -0.040671220051993563216 -0.24751603412003445048 0.33388474372945359248 -0.11474639753004062248 -0.17147093381435166148 -0.18111630939702227927 -0.20014085891152366692 0.10866173902587444866 -0.1056699590916713033 -0.11749089548027767671 -0.041513792076038676104 0.10337273828510869234 -0.18097304505680653075 -0.072510135488615498622 0.15665732459457221148 -0.032392774966979884232 -0.080526558929838815137 0.095649568848925670128 -0.083464605552338394512 0.1650648070042184945 -0.23717987719281552472 0.20796657865427040091 -0.23693892259851243032 0.13566317074810826937 0.17449893094762514156 -0.18042107768770543341 0.46711496209581881978 -0.16722084851316945664 -0.31258761879749014101 0.01328924039946250725 0.21214911951519832556 0.14358105847415125744 -0.14971851976732569733 -0.10121520409326374701 0.13505722387682886354 0.22637571926970115332 -0.056712914114274280697 0.35001901620688735672 0.11257206299646396741 0.025934857933984797884 -0.093542829334237326266 0.02694278707222919414 0.31957022530460721388 0.086009057871798050288 0.18762089743148796517 0.060173585219933392598 -0.28572238200627242399 0.16186051484610447515 -0.051528487520768419261 0.1381766376185427081 0.27442565262927565151 0.18333725545434453874 -0.21922402049855974071 -0.0034336728306058328375 0.13618523992432793324 0.24048830938133330948 -0.35421985313040538212 -0.011726738833104329018 0.042338623472847024265 -0.05144202851050718589 -0.12447323186709544074 0.29146333066263935274;0.13757575508822675325 0.0026268858295204061681 0.035670822133153416711 0.0872572104020144651 -0.22078288050742772564 -0.15826746778227396284 0.097405388988515084758 -0.13986549204218065579 0.1220290873270848675 -0.011054371727950342702 -0.31864268609961565737 0.13928819524949836994 0.016466387834644883453 -0.29098968408300873723 0.14470409922984439621 -0.14250589500025570566 -0.063760990110430751376 -0.10934977496395842378 -0.139547526842045716 0.2197719351829911516 -0.049203550704657671166 0.080330410687878162079 -0.23713022381838030905 -0.039893061418849455613 0.082101474376326463722 0.10836714674664789382 -0.065660408473533812823 0.1692099012298826366 -0.14364389019693826754 0.31216695470173266846 0.37618366209871351158 -0.28847845798717369759 0.26139059758953248069 -0.015727717830368224267 -0.074782359207966359049 -0.21711215419256915671 0.19895691861357003849 -0.17982500399451104012 0.035763682220174591864 -0.16470978201011793329 -0.0020642476141531085343 -0.32357024151774144149 0.11420529513806348954 0.24631349523734752394 0.06533005180784740018 0.45950978131403069638 0.34119451520335103423 0.024071538379961621157 0.2438694453120802963 -0.1198437744369730551 0.13461590824821101364 0.14552214423229567486 0.080536943512063724482 -0.22786171806875751833 -0.043569159337409679722 -0.10156658118618377973 -0.07367174329068704175 -0.2685588410795096137 0.22179742411651898193 -0.093076229137775398637 -0.069906452963348159058 0.1606511531282968086 0.21209023033394161506 -0.18891772288007485647 0.064155860148080931515 -0.13700104382951980297 -0.38419319787271383193 0.11576572867623399765 -0.28559142153166700018 -0.28861925951003697399 -0.060955418551345633138 -0.11283122137925115369 -0.10925960502256221174 0.23644017750976317749 0.20264653009934838201 0.021950608058107182186 0.06684397380931547672 -0.50650922244006713058 0.17966856396496716508 -0.015076554552011818891 -0.35048441945384140039 0.243005957640321818 -0.077958583974207684708 -0.20009932749279180086 -0.21120587712957861193 -0.32042605267023033244 -0.077725969934662991756 -0.27685624849340167986 -0.32231149581131329773 -0.22037628409680973252 -0.2940604076754173013 -0.17132318326302467537 -0.10204578108453497831 0.01264203788152036545 0.080855021143642763493 -0.22094415071320813726;-0.15958850024268866896 -0.030338127894947986701 0.15095086248500039217 0.1260520680804944893 0.0063250809144955568233 -0.020161266497948620441 -0.068683928781469685831 -0.018373752784756464812 0.14020891195320084321 -0.075670215426497294819 0.34702036095851701569 -0.066942090555445948885 0.095406450139895446205 0.068759782500013438833 -0.0051976360743168255329 -0.026488562345646237545 -0.10362277426085239607 0.32903347897123497168 -0.047263692545584941318 -0.032959009231423884445 0.04251649169101687914 -0.0048638842688778051795 0.13409383565178292774 -0.0088751673367861595026 -0.16307996039951669354 0.25062840595113511366 0.054112122432044176823 0.022291768903481515296 -0.092887727545151038688 -0.028416983568583201181 0.26370244220860389328 0.052021789909845864153 -0.1375532329283140065 -0.15083483839168873586 -0.14256645850699836697 -0.087443345046284523536 0.17426232908262090371 -0.18256171899970843886 0.2588886802646491736 0.17321708147234898822 -0.051777593028004047226 0.32680594868455864477 0.24066915855681686454 0.079271290645871211877 -0.093606860291387650186 0.01325656819110900865 0.011615530157024401073 0.29497953322049663694 -0.29894771284628368635 0.12682855791170710713 -0.0024375466889956735189 0.16773796272621335768 -0.087393166336708502651 -0.28346574949604086413 0.19468382575940876289 0.065993430329255267641 0.076357323013715797111 0.14763010387098518539 -0.061671344248591199178 -0.057313513743224756003 -0.32445063313951916228 -0.0030551526449660438949 -0.075844134748181996075 0.010420622133076389362 -0.046083651891414029178 -0.24393237684922378095 0.056463034134650522122 0.049197408418362842397 0.086381046374991707348 0.23201607154759179563 0.15787116889575417145 0.36659652289597555175 -0.15373263717309090803 -0.19623632201493176885 0.071421988198531516367 -0.10976479273641080725 0.19595234257319288362 0.22160093173294040381 -0.15615825720848766633 0.064258468906863430714 -0.11459818693171687498 -0.26237572144301157806 0.036206221735330904044 0.24317388279688426089 -0.051036898435960237341 -0.079155772623585099468 0.098356539410295512615 -0.16468213714796747782 -0.13463881696282625766 0.43678281102068383657 -0.25795216915734769936 0.1561092772406695306 0.16316278185944435575 -0.027817288333620435875 0.16324343975500801851 0.4128931171583601345;-0.084133118139990817341 -0.16821499175941720394 -0.28477620999584446482 -0.12670088866386261528 0.14134913659042452894 -0.065072613827442060686 -0.21876263293886055727 -0.11115503873658119649 -0.019509245629281683765 -0.042026897044714441043 0.11600430202620663767 0.022200681926338994981 0.16740562680989926059 -0.088400087590161297024 -0.13441907194938426673 -0.022093471110596635959 -0.14326613324578102437 0.30055382720279921749 -0.13795400411843691812 0.034291257722634756189 -0.043630753940899824617 -0.07462914874343154481 0.14377343566211917003 0.019324362579032187959 0.032142712109679713595 -0.1718792365766802499 -0.30023803022709916188 -0.017997104924711990886 -0.27164556839420989087 0.15304272739066621112 0.10493173526844609689 0.12729539321756372372 0.15426632476832230489 -0.10125753564963563269 0.22250906998805422554 -0.073701992002217955879 -0.15224600422112877229 0.23241355905762117739 -0.14946968977054334027 -0.19327548417541037806 -0.17376206282530565206 0.11004492738983100153 0.18147439206691365343 -0.13619073395190076092 0.012559759040574504027 0.18974836411121073776 0.029397960925531787385 -0.044911173659426255333 0.17746597254570015134 -0.017714793869554525119 -0.072358648177578338556 0.13361446904821366877 -0.18567368138989825965 0.030525404476490373973 0.25731174989157751254 -0.20356379125959878085 0.29139873090534201827 -0.18712642418317845805 0.010187368233899617154 0.25328757775575561073 0.00048506830957377195662 0.16504021786275091532 -0.0016593956697557596738 0.05240604649349302202 0.00039676179971845934678 -0.19379978251653640076 0.22802816287479490964 0.13097064412971937131 -0.23622916485462600034 -0.090389758724473648344 0.10285126363639685021 0.0118398910219531181 0.17025439204454065334 -0.13211895351255811826 0.034030478034552100186 0.05873035798127306667 0.01211405744862608172 -0.089126164655599721121 0.0027258712794943828692 0.17046589348481525072 -0.056183699237567504003 -0.07115746603412521909 -0.27202457893271164702 0.076538947100557114256 0.14053458186055209356 -0.28031260489417464399 -0.17948211021159868328 -0.24331419905046233754 0.039000467791628981584 -0.12673344167981132058 0.041479176034782481997 0.15203496772033361917 -0.04133103818322533124 -0.18406551789399125396 -0.20297498256792126381 -0.38198390854237718184;-0.033289809947925706746 0.24784712149908971757 0.16509764837214821465 -0.027759253856488474987 0.12287166100840148097 -0.050268831050712281527 -0.17244409757579584608 -0.064165908758489723085 -0.012344258267362157033 -0.08154937833613037923 0.044409297784548419641 0.087216815819064916204 0.14664272069817618771 -0.28789010311466883829 0.15830734093135098717 -0.23403400399540080778 -0.30637255519840805862 -0.03826043736976591364 0.091838343296994237597 0.1861557110676171356 -0.099587034196714205314 -0.23485958700035192148 0.078083664517745746125 -0.1958899066499141528 0.24902863147248679998 -0.048646942104175944221 0.26128502103886042107 -0.018535953473429015587 -0.14790424542929186957 0.063906279051987965878 0.013076449666757920115 -0.17605422486321592457 -0.20615772915415706001 -0.24675280086878667585 0.19056327221809965522 0.1058438169257729794 -0.17550583319688004003 -0.23875209382440926165 -0.23467978809652045857 0.16855670068210179546 0.15326063920134852525 -0.05882626500804974401 -0.25251210692253966972 -0.044660300340554855147 -0.057466740204893881905 0.16068023280907431372 0.099294331167750979339 -0.013966142746409820202 0.25307448055345777016 -0.1171044592950837987 0.13391250378486388439 -0.027671179557278869493 0.11400872666289153801 -0.022758915005509978979 -0.036939395640135916365 -0.12024010312381085142 -0.065537073122234903999 -0.21647643352899326175 0.24412622169224648672 -0.17594638555998959317 0.14301336217882892887 0.23734575033464014315 -0.017891056051299921575 0.24229979461345210745 -0.28389533232805347351 -0.10316096543651251394 -0.30670269381442927248 0.088282892003959348437 -0.077718536323484022077 0.10848334532336408043 -0.26684466975496767827 -0.090357029290199286642 0.11452678763926324446 0.2826798785223667565 -0.15221319372039987528 -0.10172579838476218661 0.07365804054016693303 -0.2202299202793670807 -0.13485893179209904047 0.19985144830019044293 -0.12460743843015793797 -0.27828573076148627186 -0.064107936310122445867 -0.32989243930780093317 -0.3694999794859267217 -0.27426766614888703488 0.051058862886248057578 -0.13128250274621028337 -0.024262405000411400857 -0.033331021458548854008 -0.066358155493531884028 0.15105317065755519135 -0.23598616353596721384 -0.096071091117802931425 -0.00014902788263394253169 -0.27800759555282994473;-0.13110446650886894981 0.12396034747291700961 -0.052183227245865146382 0.073120158458282721869 -0.092846052661717803911 -0.067798582503549198464 -0.12302855115131744457 -0.073401636260652963761 0.13456481704018280476 0.22241848389522719809 0.045078883433988907459 -0.094672632153017632906 0.020826848496161381313 0.015085685670280936377 -0.03796121328800774325 -0.024383956590256151281 0.1713614530408981429 0.029033960068708581509 0.039819298049033835518 0.13955664452808708154 0.21813336437844385585 0.05343036017610185151 -0.16197972994325426921 -0.1878570597730776226 0.11424578716471152362 -0.15731382723273054647 0.0067222589194251341702 0.18544315746984477156 -0.26724191395690877204 0.21895200268157077872 0.056088889231450445028 -0.014617188389420041061 0.018973995601927490934 -0.15044941225459387835 0.24397790554230996962 0.23586129175160250315 -0.29045552445588940227 0.21513288526066920436 -0.24970693775101648892 -0.058711777234456502539 -0.097402557528806235632 0.11460662018084720459 0.054160315174765258361 -0.13142494745268598622 0.38375436484232472445 0.0077023865271873218769 0.17385894713468943995 -0.087438504800012015195 0.13437353477857472139 0.066745518208714063602 0.27839937759495131386 -0.27332476271204791951 -0.14445500924267817844 -0.050068469788781613805 -0.066497336007258669999 0.068345568230698511281 -0.02417152128535809269 0.00069334092124531763318 0.0083190715219776563416 -0.085301685225296214332 0.19034721959662831425 -0.16038997078276109876 0.15435483500272303981 -0.029627346767908416258 -0.054454649166797201854 -0.028226091061054843501 -0.38014003942759161392 -0.017440966343695980117 0.20859398925030972483 -0.25931956075811340989 0.0243895647285008281 0.11919888202921971598 0.13486299440930030191 -0.17078958614228181845 -0.12873376762116855998 -0.055175776602938694793 0.19168949279165667376 0.0069573837722394938493 -0.19502466751000965828 -0.28023697501756017481 -0.0013601649486463564254 -0.0052038177936761711301 0.062023978637779267342 0.3227419489288722021 0.12025298926751935846 -0.048003220764000195664 -0.20365834164130972028 0.33242032619141803629 -0.0086245712501655229926 0.21947100791021956212 0.25640700912362479613 0.016295853022734441834 -0.14169249950381948566 -0.22546636579300810554 0.29212289698068094612 -0.47800935314964720924;0.26823904126208680809 0.22020242542328749558 -0.29961059158248537493 0.30959384617960850061 0.11480763932015365658 -0.14078103789019938419 -0.16221611709213898389 -0.20145867841414602517 0.079570876331164330786 0.0096743899750723425651 0.0097654321441472523996 0.2907664978598681893 0.015815090495356686623 0.10088093478700933814 0.24903273328146680043 -0.20298966127952300376 0.26292114247161224583 -0.017530955407789310108 -0.096421481202071682159 0.23771323602947755371 0.14647336790475767865 -0.17891170068513809199 -0.011994161558762430134 0.024686218661452565687 0.26787566036207394182 -0.14433973720734896706 -0.36173976465196272523 -0.1062171289599857793 -0.1398712044131994181 0.060691111421230597989 -0.12306304928033728885 0.01222286332500801577 0.17529804243657404195 0.083519981014232635985 -0.24843483982235084473 0.045894730168074278354 0.2510358044880776629 -0.26485765045821713093 -0.10841433650678784784 0.048671358828260062601 -0.081857562449900625468 0.17830659575974472375 0.18111686527905190847 0.19126284546166683054 0.13653922023008191466 0.178674540583046354 -0.19399690696580376703 0.13974735308771857323 -0.097271317831490677897 0.20076183113330217656 -0.05962652763002727202 -0.1697976952244941995 0.088108035722349847818 0.086755402940943790457 -0.083399265362014987635 0.0082736015999853636943 0.068265975710061210791 -0.13812383669228478489 0.182247677917999229 0.3366843550780503902 -0.17514490032900201233 0.027004392126027780552 0.14929587213448367033 0.028082772252192217399 0.20213760639086628124 0.11119615574105834455 -0.092490969107972442753 -0.02869004792662534567 0.30750420616510742988 -0.31863559502312721605 0.20450440172109768389 -0.14847997317859490396 0.21194131602367347056 -0.033362361644054948362 0.17514554700579401669 0.18561225832663064139 -0.26001818635215007136 -0.050572375209617242975 0.05522658760764087571 0.17155000373295156701 0.23561409776776845448 0.042801525629948142249 0.037616583259006908246 -0.30302976263956404868 0.23902863355920617172 0.20963300545040960965 -0.013202331707018661808 -0.023503796565861313078 0.038410523563788441515 -0.11216179815649662821 0.18207605270812421416 0.018725196940017205943 -0.20382396863715898649 0.062021283020680648135 0.2023397639531271941 -0.14254725838875084709;0.013310272158195650752 -0.02906303782033723207 0.08485377393040753613 0.14694768265227650672 -0.046923933005574292032 0.15017181892709297042 -0.057463884126868924884 -0.036835014260053075552 0.28989853110112001611 -0.14290143481608183484 0.17720839403967184045 -0.067782190033261635609 0.18812906154925063129 -0.15708568801971456441 0.022168340339906139613 0.087787970178647520281 0.17199046766564160538 -0.046686852870884518185 0.22139688838669083215 -0.25486791068930031434 -0.063746560614286795765 0.007241426191021430904 0.17873492226148798845 -0.095435818753544954252 0.14116236955725999791 0.14336706654357822543 -0.10171212494147094385 0.33517907679737962701 0.22733031762211036719 0.2288798566356589903 0.021187788264784460784 -0.12450792868408118441 0.2523315456057950712 0.35081721563069734326 -0.1596435851520580651 0.18749975969346646676 0.11267663943704560314 0.18219340568804875957 0.20177415190841085924 -0.13352341370076631355 0.11100856747102229305 -0.14069211011711710291 -0.021078274790328924843 0.01669086795763323125 0.17534042502987223777 -0.069074330673260353475 -0.21990145276938932728 0.00208503711282340045 0.1295232402147439843 0.047640159861449940526 0.17893925251937714549 -0.12114019594246026867 0.0367768082900414503 0.069133760361853119347 0.17864860081191091812 0.2094963408194260579 0.46515691780777845832 0.076226270741992896429 -0.080686558716699122162 0.0037187322691343534589 0.19920351394525620536 -0.22163258795657078681 0.20635792222267687612 -0.078375262930018521623 0.060475408276113029604 0.24114998765425277316 -0.23093135258340458105 0.10072659087158118696 0.10058531758309156856 -0.0088744166514933293249 -0.10289957784658623763 0.11007131231430006268 0.31313401285490843895 0.083672606268968899301 0.027826519452628602214 0.27141053521633234924 -0.22049381370703119432 0.088843981909654021201 0.25487077841653271726 -0.075619322698382132608 0.098718957353934738697 -0.13700997794368269256 -0.23421335028046225135 -0.12846039241458778735 -0.083818668885202840535 0.073470738078307451513 0.19010444013361055271 -0.018405536562974604553 0.25995940124109734315 0.27528683297920419903 -0.24874742094286678151 0.14047547525853615324 0.13525317263155653413 0.22406044778092945591 -0.054535202688776485136 -0.19747235435338836296;-0.040017276588630995571 -0.25193936717190273944 8.1966240882258957837e-05 -0.38821539555117023923 -0.25601949238623694649 -0.11517192860363302531 0.18668267362732124393 -0.1944359993667744424 0.099420050031312573457 0.028123634590183601428 0.03354619447042116176 0.01983847492362106682 -0.17199610048692409725 -0.029969114873440918373 0.13437227368444540354 -0.14265812223618701271 -0.1126012307767803311 -0.31258184565189955917 0.26434710439081776645 0.17721018094254001318 0.32303444074873893799 -0.053177688845322562683 -0.015559195477776892325 -0.032271212218419706441 0.041964889497848115174 0.13837760116847977465 0.2533955875352156828 0.063053226264732711859 0.10695771483334300112 -0.19479522280807753942 0.09902705115714477424 0.070914346325211624622 -0.36123386772278914814 0.14674635728545065705 0.19356778917689251851 -0.021796180972820721616 0.17350364554920300053 -0.15921445675905596118 -0.16832832852540233204 0.064479878175060553747 -0.13829285086783904557 -0.010817492065069636911 -0.15309584017112753962 -0.093401730628946702528 -0.29686113792190316207 -0.14101821241642575888 -0.14149760811335229671 -0.19444133113936731827 0.25883747640286219882 -0.20854740245482117356 0.083362397028875906413 -0.059238235690657198296 0.090009934058144655533 -0.23409182292862601438 -0.15194625586878465762 0.08537149741647818979 0.027962689976753475618 0.023342810550857205631 -0.25197384323430455089 -0.15624289655643749941 -0.22678182260142523696 0.24783687868363477036 -0.0029294506801805647589 -0.17230906108920485131 0.0071536912146262770368 -0.30099305226267608626 0.19720553709643040552 -0.12768165403091541465 0.0033515124578858807546 0.10971754160953162138 -0.15551260066979108454 -0.16677287766288922954 0.065509854902489686457 -0.2623069502594977398 0.059199408234897887837 -0.15410035007966182974 -0.020733550042960853521 0.12091175008450871786 -0.007640879510357864203 0.18296310199875781555 0.26751269578379066605 -0.19663363586120857773 -0.10054619967659375601 -0.11253125468696646705 -0.11303074949078038836 -0.1443534376284218157 0.026416512279676871572 -0.18836984131792486319 -0.10144426794025240834 -0.31433037551877301974 -0.13414747683266772804 -0.092106463647088437918 0.18260917656892394767 -0.078871650300324100402 -0.12247789239443808429 -0.25175605447118043489;0.1062544816571523304 0.1330996064992612804 -0.19425903485045536989 -0.071199483230748469853 0.22384455838586789223 -0.19639142583422625199 0.10121523300592305539 -0.067961933947654595833 -0.12494093555899155046 -0.029538535513950903849 0.24970618000105493373 0.081739097210495423318 -0.042403665496033041138 -0.17227756371985458728 -0.081056649138149791667 0.04718275036908412684 -0.0076986174921463085621 0.10288165456303163814 -0.0062726123689997911187 -0.085365114633048272408 -0.0057702040279879202728 -0.016736335601681424923 -0.047425864990417614109 -0.15041659332658052772 0.18201306188307025957 -0.20297340136227157159 0.19356141182315020344 -0.26618434500539661647 -0.16693690090489168854 0.014134687951500447822 0.31849272572607073561 0.2300965132758188425 0.31540613695276870088 -0.14530111333715103883 0.20840303426501632922 0.012367569317173060517 0.033855309547543184501 0.18111358410706407396 -0.22522250015409128743 0.14171434738492713623 -0.030560463084386049748 -0.20553386235613640975 -0.045904609954335942601 0.13888999007393079688 -0.24138548207227075726 -0.0095069167496253294963 -0.013691910977780700001 0.43175967613950200219 0.013351000638051342684 0.24142089832601854038 -0.26208314360794743303 -0.13795537080367498151 0.1743199421228487922 -0.15693632721696040844 -0.12158079518473857705 -0.24171327692560526379 0.20077350414109554344 0.11289442616249564799 -0.14642867923126492991 -0.092599356227129794861 0.020182678368245214606 -0.10576681476412799765 0.30418622913705894995 -0.17046211032608832303 0.21457981420644328674 -0.28301148812040705094 -0.16542812188385938588 0.04471414723972960692 -0.051826796954839188247 -0.10006609166537386302 -0.17529236217635549289 0.38369276992857997977 -0.036690793749780722943 0.024033730460204166118 0.02242209211057694801 -0.28304721185031306296 0.26007609899209094273 0.15623688144589767401 0.007165231276115153515 0.12342027925418155854 -0.15602792148744684675 0.23227902529421165512 0.15187919752723569311 0.003851801742377794404 -0.12310310812703420535 0.25668935178145896314 -0.13463018869823073498 0.067801142869739636221 -0.11931586352366985171 0.38150938397643163746 -0.35129325049183079965 0.19590693758485497322 0.027755125889814883516 -0.29449659110963127828 0.033660048706787043526 0.073230724976848016183;0.21514558199432337604 -0.041237081502193961846 0.12636024258759900873 0.25338841214894847198 0.15572985684993823075 0.04041845567079270507 0.17333466818539097765 0.04691809278446525816 -0.072746805182892310127 0.070142058293559475524 -0.33259814584495900336 0.021887635606863190679 -0.021790499467801295597 -0.14622118887768692508 -0.24988090846998775585 -0.037303684351300089861 0.012199734782358775259 0.14201704103421453063 -0.13778248652134097996 0.027443322663884755358 0.13370238238227125094 -0.14698530519396715843 -0.26675629974009495982 0.057152439098203340617 0.4962804025856403789 -0.0095122743612679229452 -0.22463707900231175141 0.21908229511295232439 0.29275620955015230207 0.26271137690344537052 0.21508761262443246154 0.049562623235043887227 -0.28397703756099557104 0.020725176097615524706 0.067428145072985001818 -0.15544290813082536906 -0.047891391051537085533 -0.25530356033708273555 -0.25818070794541164714 0.23499171305052155012 0.3103838890006172524 -0.050263370266749249349 0.052884606307767575983 0.10779545008113966542 -0.15387763495961215288 -0.1718854155269034234 -0.021195675691825989484 -0.060970096020541299231 0.17201686712051361683 0.0058292204378007821466 0.11976326844243220804 0.073771762481307887049 0.29786357513246847217 -0.014819516557871151644 0.1348130330562363477 -0.12405737228864306687 -0.046475463275326096835 -0.20702878378119202174 -0.17818629888290637986 -0.094330367198838596665 -0.17027132165382805051 -0.038349795892672199071 -0.15556876997746427183 0.20053336501608834408 0.27238826978258767753 -0.19396421918526060568 0.34758490039646372516 0.055857754634697713569 -0.12497815753148273921 0.27585360234341776975 -0.19809086747880802482 -0.34386239300251203455 -0.10751729888247395228 0.031714437650280792591 0.12425661723019804095 -0.10128464114959800924 0.13090123482659157816 -0.052235270200396949347 0.26962902867851978872 0.12995114081099165548 0.048154026598224722311 0.15088688866279564849 -0.016533602757249878795 0.0019038089278351779353 0.336220357623641386 -0.10974011937091571189 -0.23522745462957372897 0.30281288473397521832 0.14719491662994663161 0.102410821620447956 0.34396218829334840317 -0.1015408832642242104 0.39170894619373602952 0.073926436599243958159 0.096849415565171043108 0.39474696122681696142;-0.054732788433975609887 -0.19197226242672058016 0.37834926918061179135 0.17444559230210041068 0.12130976030577993174 -0.17629623815004552556 -0.11032213152270621548 0.16096021037549734789 0.18613232002366994489 -0.12920436096879980847 0.24827007410788648478 -0.0035229703565454748362 0.072073963231028437271 0.2313524070209412864 -0.079952042754270688518 0.031314835073878638516 0.14820471653320627103 0.21662267178984909166 -0.32756628222831840613 0.19775458496902859062 -0.09432603788370225173 0.0046978045891879084001 -0.18130767445145032357 0.32718479191355448465 0.12747132549403453194 -0.021279477331873231788 0.23746923946421663598 -0.072890936496928987465 0.13825446102874905385 -0.068388879937589117097 -0.08278526714363101946 0.15362815309513006001 0.033868687144034619052 0.23765916603564543608 0.025423977746167579495 0.19197835812515054443 -0.013883095123937240489 0.2050166352104699774 0.2796654718182116639 0.17875653230113711101 0.10097345469868705681 -0.092823644131012794656 -0.34009649240328626574 -0.34112877210048675458 -0.30919295304266886104 0.32064563305775251045 0.2247107641338550732 0.16274793212618687832 0.28003947183875027571 -0.24507830150983073159 -0.047774835500074844252 -0.10322337186340140025 -0.31748152119827888207 0.19162159085657301527 0.14311713452863039642 -0.17699511150281410643 0.44882034097339990053 -0.13207970423920378789 -0.20871735760216728051 0.29593241805757963814 -0.24312223701332524861 0.20950137220978470864 -0.026378185008289301711 -0.16106842987900960029 -0.058152397713568497462 -0.12305789641266795531 -0.37685601958852543714 -0.0097287587549067834625 -0.41727040929993469698 -0.10546112224180853589 0.007949174298079331874 0.39807541511652827504 0.17082175979148181422 -0.045724072016624602022 -0.14051062325456292745 0.15426858809492879909 0.083389634950873273156 -0.24064150342769724533 -0.15874322955202080365 0.17321744323454704717 0.22351951722414559187 0.072329355777847020859 0.24588468403489432967 -0.018790396792055744785 0.051185297421278398711 0.05929679851693935716 -0.04913669681157315644 -0.014442666615264620339 0.083195164546686836693 0.25125769317560198157 0.11966964159334615714 -0.16278894073261671038 0.0075955601757439553112 0.33930305173314634359 -0.019870865196822056625 0.10805243528418748133;-0.070562176073285687306 -0.24131912949254577527 0.16786592979637343648 0.10883455477237480302 -0.21050858938275482379 -0.30208881450907171251 0.077543080579516518447 0.039377250120463176686 -0.20325169018783964536 0.2497071897197606638 -0.14965554977682557491 -0.1910879538958023538 -0.04356395518788012261 0.15942265975519429033 0.14898089987796830913 0.13825247284784586421 0.15818288897077220634 -0.12134204241308808869 0.10077765010907097087 -0.23566222983448678607 0.14286347621914727291 -0.048151086520286920378 0.083883531788541979002 0.078055000625454354357 0.020903222402509306216 -0.034678442478677386218 0.15239070116678229971 0.19902913206484737496 -0.14475607190675637836 -0.032878953286810244649 -0.1123383982512116408 0.043578118756125806821 0.087171995168447910518 -0.0081753739878707067795 0.20214572883193870911 -0.14159593860629823836 -0.17994635338578307548 0.1459304955128319925 0.17227937309193630533 0.044971539249184275255 0.054172754603408972141 0.064122318303831596364 -0.2446917864537524745 -0.30182022786791257163 -0.14210099058121261617 -0.11279243772925945377 -0.18558376072858512318 0.28065077084717843237 -0.26762824649886068906 -0.15194442587207859785 0.085239814511491304727 0.03477943997040588292 0.17471364998645230737 0.11916813722738832382 0.2620860177486350473 0.063760396148177522768 0.087660981213811189905 0.28400699079944086156 0.15481450184725145669 -0.26247787397329941372 -0.33629813836756483614 0.088735014965467665093 -0.18819405292728955126 -0.11591605870211166285 -0.096698494078498981041 -0.05547638120754418839 0.027816410159654622603 -0.11559145804382175982 -0.0081432693121844604289 0.21837327993163846429 0.070720509126496036711 0.27891891002586061132 0.052396664233473826122 -0.075870568214737130197 0.013512010348414990948 0.084081243110209036296 -0.14239132858300559969 -0.090267525619494595746 -0.036672453502517569912 -0.20399189141588044971 -0.13855186693522519858 -0.081739792919640438806 -0.22822811630182973652 0.20282685570552708154 0.12980503874285581611 -0.12627988521779567876 0.075987790977212268939 0.0048382009256187248625 0.023676023011387884593 0.16487947089396301492 -0.25203984361545817006 -0.32432270425018611126 0.15566288557493385136 0.14424699095419799 -0.043083873433894866178 0.73475552148039857681;0.19981173009808139707 -0.25591894823716415663 0.10580109533077119988 -0.25474703719151714498 0.063290721190595575218 -0.35066238202149657699 0.11623282064189699447 -0.015078606473235113897 0.086273311761875776105 0.27521903769770938997 -0.069950732978488291969 0.030554355692880379863 -0.035687732921117244766 -0.24034204879945969546 0.255923868231252849 -0.14840436476212587324 0.012654951193649706734 0.12718012080375404316 0.12291060397968463225 0.073771161647255223404 0.11221708158987085679 0.14058591346111606879 -0.10988457724698819096 0.049631010456472737791 0.00066830841670627392365 0.17680184674892440722 0.066502063268020980558 0.29705689705250637456 -0.15275082381596552517 -0.11986862616391374958 -0.061257746273623625566 0.058830140857434230772 0.015262006373419987476 -0.23987365770313295865 0.17171847337616072404 0.20207880194179286826 0.16947276411213810232 0.06851970316983931053 0.24541365101150094952 0.23718659269756831032 0.22021935166050607413 -0.10828216506376749095 0.097878746749676753813 0.037435754780494302774 0.11270550025125256055 0.26690774480936391155 0.18366648026143636563 0.065486185292484122566 0.30445061776692172728 0.12218408473195251085 0.054966820113127978775 -0.084753414086568140684 -0.13939564847409252613 -0.16025914398427029695 0.20824379512469046172 -0.046785469940832248581 -0.095677552334786503119 0.31373926560512366279 0.13713695918436696886 -0.0080189708610588546905 -0.098146610639182965685 0.064602774904318607807 0.19221149936788275991 -0.2676944680859704162 0.16847330547488323371 -0.20535749772074723962 0.18316934969354634055 0.24867880239897888206 -0.051438340502163802659 0.0028991278672867320555 0.23270442459957432768 0.33813661829229335609 0.17195883522637209206 -0.074502110569063959011 -0.18759941060843240979 0.010378768504401718331 -0.23491737903259571341 -0.28529791990372860289 0.24008432226695139433 -0.28491312562724835367 0.00028668237697661064396 -0.077790324521877840525 0.094525410916339216993 -0.13341070910185975906 -0.077660543579530755265 -0.022192838502245446075 -0.16997543760819616709 0.16098312327427502511 -0.10487675482524658199 0.31109735453992992671 -0.35055260009196625992 0.063618184548540374079 -0.12537827839328460899 0.041365637780641256738 -0.25944852999403933413 0.10196537963608968969;0.23117330500413685312 0.13182839013801267436 0.099803494858301616821 0.15949854756604617267 0.10693509076932579405 0.079550247436071225282 0.14892755100000423796 -0.090837920949257425218 -0.28214126241099385384 -0.1577485919559290517 -0.13516901066442832402 -0.074229288126675008197 0.18508752861658905875 -0.10943661010245850362 0.19243846147761095589 -0.048501491225568522936 0.20359405289928880767 0.055841127358564973671 0.33566334386075924456 -0.068518633310077681209 0.072295895390951325776 0.0015656568493276148708 0.366685316187216781 -0.34074530863688212712 0.039785317190443321433 0.17858078031902685501 0.067686421253071477055 -0.11708043987879589165 0.10115401497922894836 -0.12734771598784302982 -0.15996911654146314663 0.29422347203134846527 0.088463670456349785542 0.13621542007632653215 0.24849766533906936239 -0.048411988946548363544 -0.10340599277344485196 -0.077720253446297890565 0.16287405695062612265 0.27367275014956976564 0.023827655514495182237 0.066021210035730110155 0.30192907824793796534 -0.04704198710581116577 0.03874711909084415512 -0.26327849353686572087 0.25458427184003801225 0.14214783039389272679 -0.27547439201243512086 -0.091635035724295876847 -0.15768491167031067901 -0.042210792513245172508 0.3097267920368084182 -0.1381487338060357617 -0.11695064446724033613 0.15761358662279148501 0.21102800612211200515 -0.00030450334769760542975 -0.19117161649353245356 0.15180549982416252641 0.33244653871877583029 0.29815516726543628279 0.13314847263298987268 0.36825397992130465274 -0.078322697006245556306 0.16642970873094956041 0.08740988035762667363 0.099051460467379101593 0.36865833956533061722 -0.2002368057572336546 0.26902789704942081661 0.042644844014124744236 -0.14136380535691644988 -0.17842242992760229403 -0.15230754072596927595 0.052966374628586283813 -0.19107574247945516288 0.050885825193122374843 0.041311268066258413634 0.20733994043926193274 0.076064012238009029443 0.2249966581571709312 -0.11789288098424280382 -0.12083328910562973757 -0.1457567982359435077 0.22250867530982726405 -0.17812591080196185644 -0.11769354308999717407 -0.062031183855260872695 -0.019054430938106183685 0.1947148051783988143 -0.11642846107278236045 -0.12978171634652344024 -0.17959385562326607433 -0.02101432179045554377 -0.28353230514492949732;-0.12518379207565469291 -0.0029945002543638422551 -0.20824118723530865571 0.067892560071345253725 0.058841665688011822455 -0.096390065962192975069 0.17404430589875041768 -0.078792700867813134091 -0.033005796442361075294 -0.10336195481008357555 0.053770141610847997649 0.20628792832588840889 0.063136414434083729108 0.083713800432310789268 -0.10386503888395655359 -0.19206807823338734043 0.19032414389737925542 -0.21352832424458181859 0.14701986573778655365 0.17277616348948704461 -0.24697315439784015001 -0.093225808208768051744 -0.17554421993846944239 -0.11617321680025943786 0.019279879834563050378 0.024310544076716102124 